0.257674783468,0.431565165520,-0.271464049816,0.023191275075,0.185055434704,-0.738609790802,-0.008302946575,-0.059747606516,0.271446168423,-0.107537321746,0.273985147476,-0.147992148995,-0.044303707778,0.053502269089,-0.055761083961,-0.602399051189,0.017339536920,-0.296128541231,0.036035291851,0.003592075547,0.632561028004,-0.050654511899,0.039430744946,0.052246447653,-0.328320056200,0.165935382247,-0.293540507555,0.319095999002,-0.125426277518,0.035027101636,0.538924455643,0.214805975556,0.119079843163,0.106938354671,-0.263885587454,-0.409003794193,0.354400962591,-0.135586529970,-0.224577337503,-0.390743523836,0.265949726105,-0.269839704037,0.077816866338,0.237769424915,0.276297628880,0.222252771258,0.307702541351,0.206620961428,0.415094196796,0.049815163016,0.207344517112,0.106318488717,-0.263059765100,-0.170750692487,-0.247884929180,-0.064856536686,0.990368545055,0.055614780635,0.298384755850,-0.470108330250,1.808546066284,-0.583161711693,0.481516331434,-0.132745832205,-0.295389503241,-0.227949619293,0.088945411146,-0.079805575311,-0.161896511912,-0.011511765420,-0.282415449619,0.368980318308,-0.414572566748,0.379075795412,-0.114164352417,0.446989089251,-0.310908645391,0.155122146010,0.217077732086,-0.075138181448,-0.370919287205,-0.362935841084,0.099338814616,-0.285939633846,0.023450143635,0.004075906705,0.180501535535,-0.375664800406,-0.692887127399,-0.015082661994,0.205577418208,-0.146691143513,0.177407756448,-0.033534538001,0.383260577917,0.124255172908,-0.235731288791,0.106208413839,0.043330457062,0.369170784950,-0.188162520528,-0.266019195318,0.049710016698,0.011598665267,0.504634439945,-0.247977882624,-0.163466379046,-0.080115720630,-0.235284283757,-0.169822424650,-0.028580131009,-0.233360812068,0.124002784491,0.442689806223,-0.333260983229,-0.039637509733,-0.180523291230,0.230523079634,-0.137823745608,-0.051073797047,0.216279953718,-0.148729458451,0.185529068112,1.646705985069,0.311189830303,-0.103620834649,-0.071774259210,-0.028008116409
0.669730305672,0.387598127127,-0.110662996769,-0.200401529670,-0.190660253167,0.488907963037,-0.185861960053,-0.057283703238,-0.114345006645,-0.698039710522,-0.004992928356,0.674095630646,-0.466656833887,-0.216726884246,-0.491231739521,-0.287915468216,0.548736035824,0.324894964695,-0.507151424885,0.103490158916,-0.053937643766,-0.247381255031,0.745985627174,-0.140144139528,0.251212477684,0.212667912245,0.144503787160,-0.844589054585,0.092306531966,0.667337238789,-0.082913242280,0.170881643891,0.056182052940,-0.057005576789,0.742090046406,-0.283653318882,0.110465869308,-0.058712910861,0.063926033676,0.001331618405,-0.230634018779,-0.234797865152,-0.228644311428,-0.040424354374,-0.123948477209,-0.470378488302,0.018570946530,-0.447733879089,0.238090112805,-0.004400311969,0.301485240459,0.244166716933,-0.052400030196,0.895215809345,-0.512689888477,0.427811652422,-0.521858096123,-0.119339957833,0.264383494854,0.038090080023,0.103351019323,-0.049435876310,0.050970043987,0.041500240564,0.054027553648,-0.020918581635,0.036512225866,0.061151266098,-0.299363344908,0.219253420830,-0.199638009071,-0.306103795767,-1.094627261162,-0.210038751364,-0.103033252060,0.532744228840,0.039146497846,0.131933793426,-0.353420197964,0.199639961123,-0.571903109550,0.377703011036,0.201386868954,0.551688134670,-0.059685166925,-0.106252901256,0.081585623324,-0.116914361715,0.741600632668,-0.131897196174,-0.115926921368,0.030622439459,-0.079585433006,0.349718868732,-0.101266406476,0.066471852362,-0.190386891365,-0.316620737314,-0.000141803510,0.428479611874,0.228681936860,-0.088264435530,0.144655719399,-0.973954796791,-0.197381928563,-0.095466159284,0.020828271285,-0.293465107679,-0.256047517061,0.237883135676,-0.638319969177,0.341122627258,0.207133069634,-0.235333994031,0.002685128246,0.117595411837,-0.531374275684,0.344076067209,0.068450614810,-0.695556700230,0.497739523649,0.169985890388,0.021990405396,0.164311006665,-0.135671511292,-0.158198028803,-0.573914587498,0.182848155499
0.390426188707,-0.701306343079,0.408147275448,-0.188150152564,-0.084420502186,-0.159914702177,-0.271631151438,-0.136155799031,0.188973158598,0.084790453315,-0.161203041673,-0.165820583701,-0.016543013975,0.066682018340,0.209331750870,0.083763428032,-0.019079018384,0.223558157682,-0.037276003510,-0.037306033075,-0.165494441986,-0.167964398861,0.118001013994,0.031644977629,0.083494707942,0.097877696157,-0.294088661671,-0.139484122396,-0.309990108013,0.035605959594,0.253635823727,0.309417605400,0.135762527585,0.001300388132,0.099735163152,0.386067032814,-0.061213765293,-0.185997709632,-0.149735108018,-0.183389946818,-0.023201070726,-0.082549609244,-0.089611560106,0.093678958714,0.077203027904,0.160622283816,0.200581699610,-0.080720491707,-0.212798818946,0.058367408812,0.059601187706,-0.050782781094,0.191283181310,0.205176591873,0.215060174465,0.039211783558,0.014878395014,0.083823524415,-0.116314075887,0.091837488115,0.160613700747,0.117567263544,-0.180094510317,-0.046838074923,0.039405781776,-0.528174698353,-0.168442904949,-0.055089738220,-0.305158525705,-0.069208964705,-0.225065022707,-0.026565210894,0.349886327982,-0.168503493071,0.016259577125,-0.218637779355,-0.040444564074,-0.193124458194,0.098446756601,0.598467469215,0.356989443302,0.229122608900,-0.005692022387,-0.437990397215,0.218463212252,0.191356688738,-0.028737368062,0.249622225761,0.078019678593,0.231696620584,0.141627848148,-0.028360208496,0.115038022399,0.005975658074,-0.103728458285,-0.199050292373,-0.168399140239,-0.329386293888,-0.197401687503,0.138985410333,0.268927663565,0.156982868910,0.024017447606,-0.072172716260,-0.169054165483,0.149689033628,0.350836306810,-0.255696147680,0.117253616452,0.331157743931,0.202506005764,-0.068080052733,-0.121204964817,-0.132277995348,0.131195083261,-0.196925431490,-0.232377007604,-0.471826195717,0.357669860125,0.063879482448,0.036767970771,0.280084848404,-0.289434939623,0.109009109437,0.091732583940,0.195497602224,-0.050887584686,-0.029958169907
-0.034878827631,0.054032534361,0.011463545263,0.032447841018,0.000857841049,0.247946783900,-0.276374012232,-0.017317652702,-0.002103907987,-0.034809928387,-0.001244987943,-0.212037399411,0.334498375654,0.291141450405,-0.478611707687,-0.081837177277,0.064113438129,-0.055905416608,-0.206339076161,-0.308876812458,0.061378866434,0.169575050473,0.025535399094,0.101486966014,-0.037028785795,-0.247013300657,0.150502040982,0.836680114269,-0.107200928032,0.146304011345,-0.393241792917,0.085250772536,0.058169588447,-0.088853590190,0.084881722927,-0.171409845352,0.088964261115,-0.198163673282,-0.274314016104,-0.398800224066,0.071394674480,0.477805137634,-0.217482268810,-0.042345620692,0.027013851330,0.380266457796,0.124991804361,0.093125276268,-0.080874733627,0.019343836233,0.161867484450,-0.449349552393,0.163260400295,-0.208603024483,-0.198478579521,0.357263982296,0.140077114105,0.056094847620,0.224994868040,0.154179736972,-0.043678663671,0.118529461324,-0.038432903588,0.174431830645,0.123507879674,0.021747548133,-0.054063614458,-0.164683073759,-0.149376407266,-0.003713439684,-0.082372255623,-0.036496549845,0.200667098165,-0.273297727108,0.142598867416,0.095895931125,0.091781944036,0.057957727462,0.182079270482,-0.075260907412,0.073971197009,-0.269697189331,0.087193600833,0.079711802304,0.062625460327,-0.134679958224,-0.400261431932,-0.265082389116,0.025769496337,-0.016433846205,0.135715797544,-0.012783443555,0.038932982832,-0.070800587535,0.065198466182,0.049199834466,-0.010193915106,0.257046192884,0.234642401338,-0.023285398260,0.084185354412,-0.270514518023,-0.384067833424,0.754976391792,-0.008400500752,0.006190774962,-0.505584895611,0.444728642702,-0.019279556349,0.187978252769,0.141728669405,-0.052277341485,-0.247361168265,0.345359772444,-0.092707738280,0.110629245639,-0.050195869058,0.095468677580,0.497847259045,-0.206542953849,0.141219109297,-0.048584677279,-0.019400473684,-0.030665460974,0.013063451275,-0.068418763578,0.281203687191,-0.592311501503
-0.876425206661,-0.044850058854,-0.988947391510,0.021776791662,0.496486186981,0.366511076689,-0.201414003968,-0.012737253681,0.090669542551,-0.505644142628,0.785358607769,-0.049013510346,-0.065539397299,-0.065317392349,0.016034165397,0.197533085942,0.068950183690,0.173326730728,0.002984522842,-0.091528721154,0.020033588633,0.394227534533,-0.129801645875,0.288313925266,0.355311572552,-0.606288373470,0.117371037602,-0.043944660574,0.324186116457,-0.087221242487,0.269165962934,0.477944910526,-0.050526600331,-0.345398098230,-0.162064462900,-0.232216551900,0.050217267126,-0.047595161945,0.024789046496,0.017495602369,-0.037540066987,-0.063938692212,0.050692688674,-0.104738868773,-0.072640925646,-0.191788896918,-0.393566071987,-0.027242381126,0.726870715618,0.031306669116,0.155427441001,0.350154310465,-0.495735704899,-0.683175742626,-0.002843893599,0.644603490829,0.286038875580,-0.424951046705,-0.493446499109,0.000570594158,-0.079634793103,-0.348629742861,1.659569501877,-0.180910274386,0.088936612010,-0.031892240047,0.485860317945,-0.061591595411,0.109500221908,-0.088166721165,0.708504736423,0.058762762696,-0.186933323741,0.042572535574,-0.326543897390,-0.455540806055,0.035912178457,1.071738243103,0.024891691282,0.029760215431,-0.268702536821,-0.796241283417,-0.224016442895,0.657017827034,-0.483554571867,0.028570855036,-0.048125669360,0.014416544698,-2.508286952972,-0.037426408380,0.204564481974,-0.290149599314,-0.041285578161,0.049078069627,0.038177195936,-0.222246736288,0.052407469600,0.330005973577,-0.027250524610,-0.099257662892,-1.756052374840,-0.080981552601,-0.095668487251,-0.081033565104,1.023713588715,-0.095407612622,0.109447337687,0.227867484093,-0.375965923071,0.102871194482,0.908942282200,-0.234061911702,0.488117516041,1.028697609901,-0.025417638943,0.006090385839,-0.066513106227,-0.011445607990,-0.488109916449,0.769654750824,-0.011428460479,-0.127858713269,-0.073664210737,-0.076302707195,-0.073823228478,-1.124703884125,0.272421926260,-0.066687256098
-0.563261568546,-0.032632373273,-0.107413232327,0.095595903695,0.249550998211,-0.547831892967,-0.005106598604,0.133688345551,0.032346591353,-0.074608355761,-0.281539499760,-0.167266115546,0.018279958516,0.026365710422,0.032151736319,0.049642298371,0.054568771273,0.215959146619,-0.578653812408,-0.724938571453,-0.100850291550,0.254202991724,0.021974137053,0.216672584414,-0.266481608152,-0.279192358255,0.400559902191,-0.135089248419,0.146464005113,-0.452955693007,0.137318432331,-0.103966832161,-0.162135779858,0.155501380563,0.055487740785,0.109985575080,0.173078805208,-0.509501874447,0.018780397251,0.004402781837,-0.345485389233,-0.530511438847,0.014715069905,0.342436701059,-0.027054794133,-1.039516806602,0.291097253561,-0.232072174549,0.080309301615,-0.009648200125,0.101129449904,-0.568100273609,0.280351549387,-0.161609366536,-0.015930129215,-0.342698633671,0.085804112256,0.084287740290,0.330603271723,0.013971142471,0.016773873940,0.326119601727,0.146795451641,-0.161135569215,0.118968963623,0.006403123960,0.134697422385,-0.199658960104,-0.126378476620,-0.035669326782,-0.100159130991,0.174004346132,0.250283449888,0.316587746143,-0.155142694712,-0.294982075691,-0.062207322568,0.551986694336,0.023248258978,-0.305134743452,0.100028641522,-0.555585265160,-0.387462466955,-0.304374545813,0.036848280579,0.003490302013,0.142088830471,0.025904336944,-0.489210098982,0.055182471871,0.058826804161,0.310421675444,-0.039492148906,0.033894713968,0.138040557504,0.018461903557,-0.060739696026,-0.008511736058,-0.115970842540,-0.007712361868,-0.177543580532,-0.067344672978,0.219780772924,0.005021955818,0.326882660389,-0.283292055130,-0.063542641699,0.215826272964,-0.348031133413,-0.180771961808,-0.204217493534,0.112441197038,-0.260850489140,0.571149826050,0.306800693274,0.057745423168,0.056504081935,0.179387703538,-0.094521760941,0.260715603828,0.113388374448,0.906754910946,-0.067175626755,0.014197834767,-0.032729063183,-0.139738798141,0.259221196175,-0.096137292683
-0.025536976755,0.092251017690,0.060475915670,0.100130133331,-0.066381372511,-0.455328464508,-0.097315743566,-0.041842289269,0.078528977931,-0.148601189256,0.010378465056,0.280946493149,-0.007519309409,-0.035717055202,1.057990074158,0.198191687465,0.435964226723,0.370047092438,-0.025931006297,-0.107934340835,-0.016888599843,-0.424132704735,-0.129229277372,-0.066352955997,-0.097798906267,0.807035863400,0.257783055305,-0.080039501190,-0.167791336775,0.103743709624,-0.525615513325,0.083073124290,-0.053635541350,-0.312039524317,0.475876450539,-0.432800471783,-0.008552839980,0.074953004718,0.134461134672,-0.135113745928,0.051312588155,0.008060558699,-0.042902003974,0.099344894290,-0.005980394315,-0.087595917284,-0.928914904594,0.117789410055,-0.576258242130,-0.060828197747,-0.114192292094,0.892583489418,0.857817351818,-0.069062381983,0.028117848560,0.255520284176,0.381423950195,-0.253544151783,0.360991865396,0.381190419197,-0.160576641560,-0.091171368957,-0.022973939776,-0.238548964262,0.209379240870,0.265388220549,-0.015484099276,0.436010181904,0.069281838834,-0.056088704616,-0.107451982796,-0.039781093597,0.192507594824,0.161276772618,-0.593567788601,-0.162343069911,1.030334234238,-0.284893602133,0.111752636731,0.187910258770,-0.667288005352,-0.167403742671,0.056794609874,0.085022874177,0.425264716148,0.151361867785,0.917953133583,0.260150134563,-0.067782215774,0.097727246583,0.043341565877,0.114574521780,-0.200373008847,0.000028341748,-0.213827624917,0.146981686354,0.103965066373,0.165708318353,-2.216371774673,0.485407501459,0.075027041137,-0.251893848181,0.100734025240,-0.065636880696,0.022072941065,-0.122701741755,0.617778539658,0.699764072895,-0.061894081533,0.031492181122,0.473548382521,-0.920075058937,0.023315571249,0.030994446948,-0.025768717751,-2.423230648041,-0.133087411523,0.251814782619,0.006800738629,0.317251950502,-0.448010504246,-0.393516302109,-0.105249144137,-0.112956389785,-0.023751528934,-0.017072319984,-0.401460438967,-0.051041074097
-0.032260376960,-0.147789388895,-0.056218989193,0.099266178906,0.128145009279,-0.201819196343,0.151407986879,-0.128176271915,-0.079553745687,-0.022894700989,-0.334770709276,-0.182835936546,0.594655513763,0.572880506516,-0.321029931307,-0.427014052868,-0.410140901804,-0.051039356738,-0.184025287628,0.160513818264,-0.001665971940,0.191432520747,-0.515870392323,0.417561054230,0.157470986247,0.119032852352,-0.542925179005,0.288555204868,0.105970218778,-0.076349437237,0.126815542579,0.106545552611,0.407043725252,0.128092363477,-0.079835787416,-0.033097378910,0.117855593562,-0.125042170286,-0.121228367090,-0.708781301975,0.248815730214,-0.117503225803,-0.015799460933,0.001917909831,0.032521255314,0.090757772326,0.421348333359,0.367482811213,-0.216297000647,0.043375872076,0.080449223518,0.179750546813,-0.513572573662,-0.791943967342,0.990088999271,-0.001986786025,0.077406659722,-0.005456106737,0.409410923719,-0.484433680773,0.019318941981,-0.179201230407,-0.325103670359,0.538668513298,-0.143490865827,-0.130137100816,0.169935777783,0.128035411239,0.429074227810,0.143426716328,0.373570978642,-0.057151399553,-0.026282815263,-0.021494880319,0.002002904890,0.623564660549,-0.348152518272,0.132083967328,0.084586158395,-0.090361364186,-0.541169881821,-0.145341157913,-0.011268879287,-0.048000324517,-0.108067139983,0.043769177049,0.011461755261,0.166401401162,0.081891842186,-0.153180688620,-0.002472342225,-0.183205127716,0.428924024105,-0.218953132629,-0.201772794127,0.151223689318,0.490253895521,-0.148169636726,-0.347783297300,-0.173227265477,0.629115998745,-0.010327848606,-0.116950683296,-0.117521964014,-0.014776260592,-0.041585609317,-0.121229030192,-0.095376990736,0.086179465055,0.028459670022,-0.339486032724,-0.242730036378,-0.066135823727,-0.425909906626,0.204584509134,-0.018880637363,0.069629400969,-0.115371719003,-0.110474534333,0.332407742739,0.005635873880,-0.307859659195,0.492619931698,-0.017137339339,0.040506325662,0.124021984637,0.365535914898,-0.011737240478
-0.049769960344,0.130780026317,-0.109915494919,-0.024147456512,0.055199928582,0.248515605927,0.559598207474,1.886282920837,0.886720120907,-0.243131756783,-0.019067315385,0.325854688883,-0.020823229104,-0.060742672533,0.047764185816,-0.040394254029,-0.240731909871,-0.386847734451,-0.110618621111,-0.001059224480,0.000677077565,-0.097367137671,0.010003206320,0.508254945278,0.006626514252,-0.550187826157,1.196522355080,-0.052652705461,-0.207979232073,0.068711839616,0.581805884838,0.546103179455,-0.221050560474,-0.030974300578,0.251342743635,-0.506955623627,0.143312141299,0.018336683512,0.072039499879,0.015546591952,-0.353784739971,-0.019207561389,-0.189016312361,0.034424290061,-0.016741521657,-0.029466517270,0.201947346330,-0.019604254514,-0.242167159915,-0.036736659706,0.210128277540,0.749890208244,-0.123373180628,0.470421522856,-0.097885183990,-0.307481080294,0.026776026934,-0.734834074974,0.104759544134,0.027574596927,-0.020031480119,0.009335240349,-0.051462780684,0.513664007187,0.290089666843,-0.102252036333,0.029264921322,0.439766973257,-0.192095980048,-0.120303750038,-0.182787001133,-0.310314804316,-0.061838205904,0.066159971058,0.312381953001,-0.262222945690,0.016640795395,-0.472383409739,-0.014040260576,0.011348730884,0.322026431561,-0.134066477418,0.002785071731,0.004598136526,0.359178394079,-0.045721855015,0.050108358264,-0.078332036734,0.059218790382,-0.996187388897,-0.977674603462,0.070548281074,0.149412825704,0.070163063705,-0.005341698416,-0.452614814043,0.546831786633,0.221994757652,-0.045879468322,-0.013242932968,0.035374514759,0.026999136433,-0.019638326019,-0.097384937108,-0.017731107771,-0.012263705954,-0.190289348364,0.149966657162,0.007511116564,0.027294851840,-0.260878443718,-1.056327819824,0.174170792103,0.026704518124,-0.008069922216,-0.024184886366,-0.027077954262,-0.028547257185,-0.566662251949,-0.237981781363,0.167316675186,0.083106890321,-0.421105891466,-0.012817610987,-0.014662877657,-0.006017564796,0.260331481695,-0.418639212847
-0.082876674831,0.322762250900,-0.076618932188,-0.346778571606,-0.001538929646,-0.073449507356,0.088616684079,0.094324469566,0.167130768299,-0.312382161617,0.024431092665,0.569158732891,0.336631357670,-0.640603661537,-0.012025997974,0.367445677519,0.056916002184,-0.161086991429,-0.191451266408,-0.382986187935,0.144243478775,-0.195058301091,-0.322838604450,-0.163939222693,0.083901859820,0.035687103868,-0.112589038908,0.299445748329,-0.732084691525,-0.257537037134,0.123347952962,0.068908378482,0.027512196451,1.071947693825,0.107025086880,-0.242745190859,-0.453673839569,-0.087571680546,-0.010885401629,-0.364219099283,0.349207729101,0.124384552240,-0.132185906172,-0.106618739665,-1.489496707916,-0.553113937378,0.514489769936,0.093887187541,0.122540958226,0.040859583765,-0.238788485527,0.512129187584,-0.006747922394,-0.526123702526,-0.503339827061,0.114550262690,-0.843033492565,0.048407327384,0.908154249191,0.382263690233,-0.930065751076,0.421948790550,-0.203412979841,-0.533995032310,0.186584442854,0.371013462543,-0.183410212398,0.399787604809,0.047933515161,0.027991786599,0.058720987290,0.117186523974,-0.158442869782,-0.186509534717,-0.034252036363,-0.354860931635,0.060886070132,0.085165463388,0.004073832184,0.067718699574,-0.223583742976,0.512833118439,0.100491121411,0.028388254344,-0.419666945934,0.000315016572,-0.369103968143,0.022590722889,0.034030847251,0.123155415058,-0.065532959998,0.221190005541,-0.655199885368,-0.589804530144,-0.061708848923,0.268258780241,0.317845165730,-0.058141727000,-0.083531007171,0.090692199767,-0.180088073015,0.161367520690,-0.053170684725,0.357077330351,0.127514466643,0.045641377568,0.042283758521,-0.275051951408,-0.089057408273,0.162267401814,0.033169075847,0.094457209110,-0.211927354336,0.107266843319,0.293073982000,-0.081344582140,-0.018980937079,-0.104323774576,-0.026424951851,0.694045186043,-0.083483688533,-0.204160094261,-0.136450603604,-0.833162903786,-1.596335411072,0.098580352962,0.654269099236,0.024480776861
-0.311804145575,-0.012697451748,-0.152461737394,-0.035956587642,0.383316010237,-0.306079924107,-0.101731181145,-0.047830983996,-0.010248852894,0.100013464689,-0.180460274220,0.071414411068,0.040545105934,-0.415138423443,-0.047893382609,0.026840966195,0.049743715674,-0.186837211251,0.011834806763,-0.170826628804,0.034020781517,0.032530035824,-0.027097133920,0.013702469878,-0.122702039778,0.255109280348,-0.055573355407,0.095398269594,0.103077448905,-0.412062615156,0.196108683944,-0.198106899858,0.078750096262,-0.043627995998,0.335862904787,-0.124686449766,0.177496209741,-1.539044141769,-0.254815042019,-0.154563203454,0.032164447010,0.166016787291,-0.036064881831,0.340229362249,0.049873922020,-0.683009862900,-0.113363206387,0.019051564857,0.332051396370,-0.021167548373,-0.176003322005,0.348562866449,0.011104896665,-0.171660989523,-0.009275007062,-0.189936131239,-0.205550864339,-0.130466476083,0.329264819622,0.128680333495,0.097059883177,0.319664508104,-0.033025797457,-0.025678714737,0.119489416480,0.132235601544,0.216675326228,-0.094233885407,-0.074943721294,0.058937717229,0.490225076675,0.020963020623,-0.482266813517,0.015691468492,-0.046236474067,-0.200085550547,-0.060036811978,0.177221089602,-0.245782032609,-0.150453492999,-0.801325559616,-0.518330395222,-0.324960619211,-0.005548946094,0.154527574778,-0.018685530871,-0.039832130075,0.701241731644,-0.499120235443,0.022594746202,0.176651835442,-0.246863588691,-0.232538044453,-0.192338258028,0.101016692817,-0.354339450598,0.076428517699,-0.274927616119,-0.055532015860,0.031098762527,-0.047847151756,-0.067719772458,0.779924452305,0.163493841887,0.251219928265,-0.112050473690,-0.224411949515,-0.281954050064,-0.153344303370,-0.284747064114,-0.146650359035,-0.168864071369,0.392014920712,-0.467120438814,-0.582765996456,0.075931549072,-0.131809607148,0.017431259155,0.283106178045,0.343124210835,-0.286076903343,1.350652575493,0.139730691910,0.067851714790,0.053494185209,-0.235408604145,0.159810811281,0.291784971952
-0.511729955673,-0.031621575356,0.160151794553,0.052344530821,-0.925510823727,0.394013732672,0.286395162344,0.037316124886,-0.066314734519,0.522643923759,0.009695175104,-0.330629765987,0.218777954578,0.906662702560,0.069037355483,0.143990725279,0.008577854373,0.285141080618,-0.188732624054,0.071356631815,0.026001412421,0.129434108734,0.009021225385,0.501980006695,0.941872000694,0.178426995873,0.282061576843,-0.150524824858,-0.000772908272,-0.201318711042,1.626372933388,-0.105983637273,-0.022849874571,0.144047871232,-0.621814906597,0.631859660149,-0.033183094114,-0.378537386656,0.091845713556,-0.002021525986,0.120856277645,-0.039043813944,0.158101961017,-0.650574862957,-0.046595387161,0.020175974816,-0.377339243889,-0.064010165632,-0.597531914711,-0.005941275042,-0.471347898245,-0.324998885393,-0.670241594315,0.188336923718,-0.027232464403,-0.417882442474,-0.008484366350,0.112423859537,0.304338365793,0.212697982788,-0.046581510454,-1.799340605736,0.173659995198,-0.386352419853,0.143482059240,-0.087037019432,-0.587997019291,0.043043974787,0.103085592389,0.070393778384,-0.189405098557,-0.191263332963,-0.106408677995,-0.325475990772,0.215121224523,0.602878391743,0.103777222335,-0.194587960839,0.098724156618,-0.087775386870,-0.563769578934,0.477053344250,1.438966870308,-0.377715289593,-0.163312330842,-0.025992112234,0.040124904364,-0.097921855748,0.397134095430,-0.006039989647,-0.383545249701,-0.034818138927,0.079368360341,0.040238615125,0.192091107368,-0.203633323312,-0.016792539507,-0.254991084337,0.010527242906,0.081850089133,-0.825045883656,-0.273715078831,-0.126484394073,-0.740350008011,-0.735296308994,0.166238173842,-0.303697228432,0.394726872444,0.563282668591,-0.028200509027,0.139162540436,0.079861216247,-0.847981035709,-0.252163827419,-0.230245769024,0.042544644326,-0.224647954106,0.052278403193,0.362002551556,0.109996080399,-0.278581023216,0.348948806524,-0.186566382647,-0.055959563702,-0.041106395423,1.354303240776,-0.047001283616,-0.122409455478
-0.390729755163,-0.114802308381,-0.186436444521,0.084297470748,-0.405495524406,0.450764000416,0.165235027671,0.033644400537,-0.030329313129,0.026808686554,-0.043954703957,0.087553463876,0.127685442567,0.090720891953,0.028475103900,0.059826914221,-0.071015954018,0.078049845994,0.226549044251,0.078800216317,-0.005648724269,0.173719704151,-0.001078094123,0.063357494771,0.427223414183,-0.303634524345,-0.197816982865,-0.331176042557,0.108980864286,0.247750222683,-0.135302186012,-0.207906931639,0.005992947612,0.078425981104,0.004331514705,0.117139860988,-0.080502025783,0.144995912910,-0.027570346370,0.102994918823,0.016968265176,0.007729940582,-0.183035641909,-0.405122220516,-0.003922139294,-0.937491357327,0.063255347311,-0.308694213629,-0.161750644445,0.005943629425,0.007061495446,0.376015484333,-0.144933119416,-0.111730769277,-0.034830395132,-0.315023005009,-0.028250085190,0.274258047342,-0.297041237354,0.015140685253,-0.039645094424,0.260869026184,-0.364318281412,-0.184168398380,-0.016111413017,-0.006128094159,-0.269603461027,0.135432064533,-0.008156497963,0.037354707718,0.090680703521,-0.085312299430,0.294818431139,-0.137413114309,-0.064113512635,-0.096784733236,-0.138437375426,-0.610179126263,0.101481832564,0.212113752961,0.928194344044,0.739724040031,0.203495696187,-0.255619972944,-0.301818460226,0.163037315011,0.099769704044,0.037598665804,0.417854517698,-0.001713820733,-0.022654872388,-0.364331215620,0.034686915576,-0.051756922156,-0.072640784085,0.172023773193,0.047182735056,-0.310451596975,-0.034298036247,0.004070693161,0.225813433528,0.066160261631,-1.006582975388,-0.349111557007,-0.460046440363,0.322430402040,0.646043181419,0.013480892405,0.269302010536,-0.450728714466,-0.096247211099,0.592112600803,-0.131197273731,0.133298769593,0.103913068771,-0.064684830606,-0.135761708021,0.102210372686,-0.409025043249,-0.294056892395,0.061920177191,-0.581764340401,0.034382089972,-0.036051910371,0.008312459104,0.333087563515,0.025390552357,0.875092685223
-0.008735429496,0.045884761959,-0.000678851153,-0.050712935627,-0.018760748208,0.364966094494,1.181362271309,0.500360012054,-0.298354208469,-0.199097841978,-0.021673379466,0.457914680243,-0.045688495040,0.165201440454,-0.082225024700,0.201507121325,-0.052383214235,0.188897877932,0.028820354491,-0.004686785862,-0.006004631054,0.042092692107,0.002485636622,0.428599119186,0.003411765210,-0.226601600647,0.322609812021,-0.037573639303,-0.467427790165,-0.061534076929,-0.155938804150,0.183756634593,0.000523767027,0.221649289131,-0.154191583395,-0.682528018951,0.069798447192,-0.013440250419,-0.031767137349,0.006321012974,0.825847744942,0.001921858406,0.118676066399,0.008857721463,0.022913530469,-0.009429002181,0.347693055868,-0.029100494459,-0.488627105951,-0.006519753020,0.264886051416,-0.256208389997,-0.320919007063,-0.276295423508,-0.002909688512,-0.512012064457,0.031871829182,-0.892208814621,-0.397313922644,0.106678850949,0.049396160990,0.048043973744,-0.009192385711,0.807036936283,0.821484744549,2.328261137009,0.033870503306,0.773455023766,-0.108784958720,0.079856671393,-0.170652136207,-0.233060449362,-0.026775049046,-0.056085705757,-0.381695359945,0.238403871655,-0.105749912560,0.023709980771,-0.073447257280,-0.017921343446,-0.249323576689,-0.471210509539,-0.041818995029,0.061212055385,0.292619317770,-0.014608417638,-0.103597886860,0.563187241554,0.011116100475,0.187952414155,-0.066858127713,-0.387228816748,-2.195408582687,-0.047153022140,0.027053881437,0.103401668370,-0.714208364487,0.167037725449,-0.002735120011,0.088151693344,0.012421902269,0.545937359333,0.023636760190,0.009177331813,-0.010627272539,0.019685700536,-0.011347689666,-0.135099634528,0.009941426106,0.034015327692,0.068918675184,0.142755448818,-0.199613079429,0.447152137756,0.091999165714,0.046665523201,0.016109177843,-0.011418867856,0.108725786209,-0.355603277683,0.050959102809,0.125426411629,-0.888166785240,0.051077622920,0.004161207005,0.009163825773,-0.548516154289,0.120049923658
0.045193862170,0.107384644449,-0.043053116649,0.088712804019,0.315963327885,-0.066957041621,0.031468730420,0.086634747684,0.070920892060,-0.028313597664,-0.078003741801,0.110430628061,-0.309218436480,0.405049860477,-0.140179619193,-0.093896053731,-0.159418940544,-0.049651704729,-0.021859917790,-0.142265379429,-0.124858014286,0.023918701336,-0.043463636190,0.404408395290,-0.846550047398,-0.199032172561,0.516568660736,-0.166758552194,0.356241673231,0.039588797837,0.605757296085,0.157272771001,0.042827308178,0.068841636181,0.075774565339,0.313273102045,0.066658072174,0.129641145468,-0.619663238525,-0.008421267383,-0.117124326527,0.014232968912,0.055171258748,0.632535517216,-0.013011426665,-0.153616622090,-0.474978297949,0.055360756814,0.201320275664,-0.036749634892,0.260669797659,-0.231131702662,0.096316061914,-0.368875712156,0.013614202850,-0.220332309604,0.258860796690,-0.230106756091,0.049350954592,-0.003956777509,-0.125711828470,-1.016030192375,1.420642137527,0.072851121426,0.068548060954,0.006273054983,0.433867931366,-0.195576593280,0.086738958955,-0.005716022570,-0.166761130095,0.353602260351,-0.122346773744,-0.012865387835,-0.002110315487,0.252660989761,-0.218403354287,0.546926140785,-0.018977086991,0.079128161073,-0.485123097897,-0.068168029189,-0.228294104338,0.482011169195,-0.131407529116,0.077468357980,-0.024468714371,0.012292621657,-1.924363255501,0.004311972763,-0.174961462617,-0.290920346975,-0.008520657197,0.470451593399,0.138308927417,-0.254568636417,0.093334220350,0.130740165710,0.159365400672,-0.054411638528,-0.742033779621,0.112653747201,-0.045663256198,-0.117042288184,0.771574318409,-0.720359325409,-0.270975291729,-0.060331773013,-0.433534860611,-0.010660041124,0.491049647331,-0.156591683626,0.449032455683,0.732072055340,0.033278096467,0.025855230168,-0.293286919594,0.082932636142,-0.183811306953,0.210994482040,-0.382070928812,0.165222719312,0.220175907016,-0.111025951803,-0.056572426111,-1.104330420494,-0.268176198006,-0.370228379965
-0.014813131653,0.415625870228,-0.229523077607,0.193982601166,0.354956239462,0.103858947754,-0.685669422150,-0.095637619495,-0.155106991529,-0.111421048641,-0.248203337193,-0.297249495983,-0.041110172868,0.235297486186,-0.027704577893,0.364000141621,-0.127018198371,0.281438112259,0.013016884215,-0.104287639260,-1.463835954666,0.469430416822,0.229689434171,0.398644745350,0.056584235281,-0.160189718008,-0.114494323730,0.413693517447,-0.558261990547,0.260308861732,0.129614487290,-0.125344604254,0.027077546343,0.616305470467,0.233410060406,0.089693956077,0.000088919864,-0.297401398420,-0.314273685217,-0.145580038428,-0.355742007494,0.085877805948,0.096491612494,0.248830616474,-0.168474316597,0.044220566750,-0.108644627035,0.317183345556,0.036198098212,-0.048230439425,-0.184144392610,-0.159182995558,0.108691684902,-0.964426159859,0.353383392096,-0.300833493471,0.466746807098,-0.099867179990,-0.161804810166,-0.740944206715,0.218993440270,-0.190695330501,-0.207290053368,0.234770074487,0.448927432299,0.566348433495,0.233443662524,0.303603440523,-0.200626313686,0.056044761091,-0.088553585112,0.276584357023,0.078558795154,0.184875711799,0.258745968342,-0.272389173508,0.227539017797,0.024198282510,0.027291087434,-0.500217258930,-0.306079506874,-0.773594439030,-0.077934242785,-0.417459845543,0.681515634060,-0.207798913121,0.122529976070,0.401274621487,-0.384404689074,0.076964430511,0.419384092093,0.323521673679,-0.949566185474,0.355017274618,0.305413484573,0.089831881225,0.355396121740,0.142288520932,-0.146682351828,-0.307224124670,0.202395200729,-0.130218908191,-0.014867319725,-0.277409791946,0.195945009589,-0.023839926347,-0.335351526737,-0.302139610052,-0.079741872847,-0.380452454090,-0.247087776661,-0.035806622356,0.307184070349,0.170488163829,-0.358087271452,0.119831383228,0.112617306411,0.068125739694,-0.328181594610,-0.048659045249,-0.011726364493,-0.028978696093,0.296623021364,0.142248243093,-0.212925583124,-0.085246898234,0.052953321487,-0.203356698155
0.415134787560,0.097925946116,0.110598750412,-0.163440808654,-0.420521408319,0.038178570569,-0.378381699324,-0.108734644949,-0.024897361174,-0.182061538100,0.130109235644,0.243601873517,-0.003525601933,0.410553067923,0.141986429691,0.261327803135,-0.007707574405,0.322980076075,-0.064202792943,-0.196131497622,-0.047246456146,0.117525108159,-0.072640493512,0.254431247711,0.293118327856,0.403905719519,-0.027243105695,-0.087455347180,0.185645446181,0.614238500595,0.406688779593,-0.069300465286,-0.002515527653,0.005439247470,0.025343284011,-0.128084346652,0.132801070809,-0.104382202029,-0.356535494328,-0.237135156989,-0.100019678473,-0.728467047215,-0.121704809368,-0.337611854076,-0.014161548577,0.071309544146,-0.045694366097,0.359718739986,0.191639885306,0.001713241450,0.369314014912,0.322544008493,0.017090005800,0.410897195339,-0.166602522135,-0.071631811559,-0.247309044003,0.424335926771,-0.134293541312,-0.291548103094,0.074554480612,0.049936365336,-0.160539835691,0.752324044704,-0.042629770935,0.007649459410,-0.154787316918,-0.556877195835,-0.064013309777,-0.073546037078,-0.066667027771,-0.117882326245,-0.005748635158,0.169053032994,0.005309173372,-0.029051456600,0.173318281770,-0.228056773543,0.046859610826,-0.170638278127,-0.356268793344,-0.447411686182,0.339198172092,0.062807232141,0.111519038677,0.027128443122,0.102321848273,-0.496551126242,0.649961054325,0.003549839137,-0.230917379260,-0.031607721001,0.143546223640,0.169072374701,0.215892553329,-0.011504693888,0.120553858578,-0.260315358639,0.046547375619,0.011730483733,-0.040427174419,0.132707819343,0.109825707972,-0.397602498531,-0.228298783302,0.173307210207,0.058193117380,0.056602757424,0.212567463517,0.601888656616,0.092950932682,0.203952431679,-0.277740418911,0.084635332227,-0.294615149498,-0.143654897809,-0.730358541012,-0.248146802187,0.624366402626,0.090433284640,0.080147840083,-0.449748009443,0.184904515743,0.125646650791,-0.013764268719,0.115517914295,-0.065412648022,-0.484387040138
-0.630543231964,0.620663464069,-0.218833163381,0.263161361217,0.451588243246,0.235056415200,-0.037619508803,-0.289377510548,-0.119492731988,-0.544641017914,-0.135369971395,0.200591713190,0.061662588269,-0.178833842278,-0.258098274469,0.196503937244,-0.207548603415,-0.973432004452,-0.678873300552,-0.802467942238,0.059504713863,-0.109916284680,0.094676502049,0.068362206221,-0.146245330572,-0.304477512836,0.045793972909,0.301798224449,-0.308570742607,0.014761927538,-0.212287634611,-0.415119767189,0.800777316093,0.012146472931,-0.237972632051,0.727255463600,-0.939242362976,-0.189645245671,-0.506084859371,0.346994757652,-0.272195667028,-0.202706113458,-0.213801041245,0.280214816332,0.405018299818,-0.768792390823,0.327834367752,-0.100857883692,-0.012134301476,-0.175428509712,-0.055049002171,0.168325573206,0.033891592175,-0.105746984482,-0.006233074237,-0.438097804785,0.257204651833,0.149962201715,0.050933968276,0.008315798827,0.442121535540,0.149098142982,-0.130213215947,0.168646588922,0.148286640644,-0.264209181070,0.002003941918,0.103072293103,-0.201299667358,-0.063500657678,-0.054231189191,-0.060760602355,-0.282125085592,0.567138254642,0.498136609793,-0.370209068060,0.019613198936,0.432326376438,0.062606096268,-0.154965758324,0.158732771873,0.284043431282,-0.266876548529,0.053018622100,0.047525495291,0.048580937088,0.065798580647,0.447077333927,0.235968708992,0.044786199927,-0.028252828866,0.034547530115,0.200560718775,0.310519993305,-0.042630471289,-0.591885089874,0.630651533604,-0.290637165308,-0.128819033504,-0.182005614042,0.424613654613,-0.307063400745,-0.044064477086,-0.511624157429,0.391696214676,-0.292845070362,-0.040700752288,0.347587972879,-0.047685202211,-0.160912916064,-0.093886673450,0.228834092617,-0.367273688316,0.187356501818,-0.070831164718,0.181399479508,-0.085591994226,0.250278830528,0.288257151842,0.064697705209,0.363558709621,0.178850024939,0.206442847848,0.427912414074,0.420963972807,-0.165173217654,0.403856635094,0.073283776641
0.037381581962,0.143101438880,-0.061177879572,-0.116838261485,0.009625936858,-0.532188534737,-0.362443268299,-0.201012924314,0.141554147005,-0.209654226899,0.002896216698,-0.034683968872,-0.200697094202,-0.096948020160,0.094464384019,-0.207959696651,0.148227229714,0.619532406330,0.133525863290,-0.045183520764,0.003500761464,-0.253759831190,-0.075047791004,0.020081853494,-0.023144096136,0.115050889552,0.142245471478,-0.180494427681,-0.270955651999,0.139835506678,0.053358078003,-0.146609514952,0.283677399158,0.453248888254,-0.131873250008,-0.136796414852,-0.328286111355,-0.016827892512,-0.178783416748,-0.203511878848,0.209852159023,0.053588759154,-0.604657709599,0.008954454213,0.006869060919,-0.157134518027,0.154256612062,-0.242069542408,-0.569455921650,0.004092325456,0.147904530168,0.170784354210,-0.257719099522,0.422794997692,-0.121767036617,-0.066768281162,-0.180707409978,0.275615721941,0.199556842446,-0.202492356300,-0.129674762487,0.231120407581,0.006978923455,-0.063121512532,0.536623775959,0.137023195624,-0.075828514993,0.239827886224,0.328156143427,0.016406374052,0.211130321026,-0.203318640590,-0.000619336031,0.150101616979,-0.344545722008,0.183232977986,0.135354995728,-0.038632120937,-0.311071008444,0.060340709984,0.156611949205,0.503314912319,0.094574786723,0.067362897098,0.049141690135,0.163083642721,-0.008253470063,-0.082704685628,0.195282191038,-0.338440537453,0.601401388645,0.043077670038,0.067879050970,-0.340835332870,-0.110450953245,0.065916381776,-0.653777062893,-0.527507424355,0.038407661021,-0.153856247663,0.044798098505,-0.186135321856,-0.045200135559,0.055180434138,-0.013842774555,-0.104631766677,-0.126320183277,-0.198283553123,0.041017983109,0.033811282367,-0.216615408659,-0.083729542792,0.037613220513,0.231593012810,0.010727672838,0.022171223536,0.073495663702,0.173235595226,0.398251116276,0.333588331938,0.310034990311,0.122388631105,-0.174316063523,-0.106774181128,0.004828288220,0.046715490520,-0.128827199340,0.249631196260
-0.290023386478,0.098308213055,-0.049072906375,-0.049888696522,-0.133106112480,-0.519227623940,0.027248773724,0.026548985392,0.025528399274,0.194478705525,0.171492978930,-0.130045562983,0.364760547876,-0.034994307905,0.525316536427,-0.159950986505,-0.389865517616,-0.172462359071,-0.011921986938,0.184973686934,-0.057395935059,0.073346376419,-0.120349340141,-0.051764316857,0.057345740497,0.327969878912,0.004057064187,-0.177520707250,0.283889412880,0.135270118713,-0.016383733600,-0.089357480407,-0.069483064115,0.668525516987,-0.279884248972,-0.276048839092,0.150802403688,0.058405619115,-0.024499563500,-1.746210217476,-0.008395054378,-0.159268423915,0.026009347290,-0.305609941483,-0.023627333343,0.028418550268,-0.644005417824,0.018378701061,0.352440029383,0.014021278359,0.039275635034,0.223443567753,-0.608177363873,-0.086889870465,0.308607548475,-0.085700236261,-0.349155277014,0.225376516581,-0.104602344334,-0.443376868963,0.129906624556,-0.241263076663,0.298452079296,-0.198132425547,-0.153284817934,-0.298474103212,-0.222720548511,0.337482899427,0.120987661183,0.087668858469,0.040762074292,0.156466290355,-0.406204581261,0.026829974726,-0.421523928642,0.204546838999,0.123067975044,-0.192972764373,-0.414331942797,-0.218461826444,-0.105258524418,0.411178231239,0.218395233154,-0.062291759998,0.879379034042,-0.519375681877,-0.035819336772,-0.021838178858,0.140655502677,0.047187134624,-0.245326146483,-0.342180848122,0.132849454880,-0.046802185476,-0.696026980877,-0.460445612669,-0.138344809413,-0.119782283902,-0.355731308460,-0.377752870321,-0.226187720895,0.701281547546,0.028335543349,0.026843540370,-0.071294464171,0.213349610567,0.710363686085,-0.236047431827,0.068364761770,0.016272403300,-0.176883906126,0.319757521152,-0.185536861420,-0.100979767740,0.241240054369,-0.750360965729,-0.136507377028,0.973939776421,0.155661374331,0.033712796867,-0.117288194597,0.108764372766,-0.117071896791,0.136705189943,-0.026378678158,0.079904742539,0.355361104012,-0.053890682757
-0.109634846449,-0.017725385725,-0.016592536122,0.076879233122,-0.108785420656,0.185471326113,-0.048151742667,-0.002376766410,0.184558644891,0.218124851584,-0.058519169688,-0.091027870774,0.254363358021,-0.045153308660,0.327074557543,-0.065529383719,-0.061320934445,0.282431960106,0.185353845358,0.075261406600,-0.038746073842,0.201858162880,-0.110918335617,0.073665261269,0.144078791142,0.235604584217,0.076205238700,-0.153634846210,0.191996008158,0.345655888319,-0.382826894522,-0.200770795345,-0.179097190499,-0.227098688483,0.245875224471,-0.068995408714,-0.099442325532,0.300058603287,0.221396967769,0.092901878059,0.115411065519,-0.603202402592,-0.026897756383,-0.071489177644,-0.178034022450,1.359179615974,0.092379309237,-0.035315264016,-0.345390409231,0.016829997301,-0.285220116377,-0.159183725715,-0.294513076544,-0.208869740367,-0.166372194886,-0.210506424308,0.101605169475,-0.079668425024,0.083521373570,-0.384733468294,-0.048015218228,-0.572623789310,-0.074712224305,-0.055263053626,0.009667267092,-0.147656261921,0.025223813951,0.246817290783,-0.055995680392,0.144823402166,-0.170893162489,0.021240418777,0.349029660225,-0.353389263153,-0.017957694829,0.374306231737,0.285124242306,-0.114209204912,0.175964489579,0.206131011248,0.171183198690,0.382799416780,-0.014713410288,0.116698175669,-0.026873089373,0.244022399187,-0.091590218246,0.491012066603,0.052608221769,-0.205749407411,-0.216599509120,-0.042405445129,0.160552501678,0.045677393675,-0.259898483753,-0.129601836205,-0.223246231675,-0.166966751218,-0.119250588119,-0.108677573502,-0.035526890308,-0.409904658794,0.210765853524,0.565792083740,-0.338826000690,0.111764617264,0.030809232965,0.118139781058,0.240501299500,-0.529542803764,0.253935247660,0.046105064452,-0.117767013609,0.015031125396,0.313228815794,-0.173493131995,0.490443587303,0.191237121820,-0.170321151614,-0.129773020744,0.163668811321,0.672602057457,-0.014418723062,-0.059654813260,-0.177271693945,0.098763242364,0.244656488299,0.659038841724
-0.134453907609,-0.015462572686,-0.008710864931,-0.102386340499,0.214868411422,0.227177426219,-0.126093953848,-0.117073185742,-0.039637826383,-0.139025986195,0.000975161616,-0.328976690769,-0.107931703329,0.278502374887,-0.674221694469,-0.307835310698,-0.385310143232,-0.319179713726,0.124207474291,0.122139878571,-0.047124180943,-0.092519938946,0.302746176720,0.006108568981,0.067650005221,0.225419238210,0.632133901119,0.033593818545,0.170878380537,0.210569918156,-0.490990132093,-0.220718532801,0.258793115616,-0.054556842893,-0.104766756296,0.426808238029,-0.020124971867,0.058297839016,-0.197243675590,1.060687899590,0.036538861692,-0.069266818464,0.117250047624,0.086832344532,-0.002532709390,-0.191063836217,-0.039744932204,0.374567359686,-0.152225285769,0.068322390318,0.002933437005,0.137929633260,0.025845337659,-0.005965836812,0.007596238982,-0.508966624737,-0.300151795149,0.038544286042,0.052850477397,-0.044004071504,-0.019600424916,-0.211993589997,-0.146870419383,-0.271942973137,0.032913796604,-0.293267846107,-0.006323229987,0.166422113776,-0.570384263992,0.114873602986,-0.152619853616,-0.368435800076,0.183987781405,-0.232509523630,0.238713592291,0.016660014167,0.030751181766,0.397671401501,0.597641468048,-0.396348834038,0.312444508076,-0.057294711471,-0.239861607552,-0.101856529713,-0.322148323059,-0.012738535181,-0.268384724855,0.249817192554,-0.302243530750,-0.190042823553,-0.372354060411,-0.234744116664,0.327047109604,0.108770735562,-0.243696391582,-0.018753757700,0.023280512542,-0.146287113428,0.442910015583,-0.271026670933,0.045506138355,0.044310234487,-0.375461190939,0.304400265217,0.005896990653,-0.077590726316,-0.699028551579,-0.364594221115,-0.039900109172,-0.071820020676,-0.312227755785,0.548112511635,-0.101603120565,0.195511862636,0.019445370883,1.909723758698,0.020400550216,-0.631392836571,-0.037380099297,-0.073459990323,0.118420667946,0.028062095866,0.289945542812,0.004125264939,-0.019725805148,-0.109262980521,-0.119036458433,0.135289043188
-0.053636431694,0.079506747425,0.016326274723,0.107165694237,0.075876906514,-0.186221599579,0.081549070776,0.027004135773,0.179555222392,-0.104683436453,-0.007390853018,-0.072071909904,-0.194664850831,-0.036576092243,0.074274279177,-0.238762870431,0.091938354075,-0.172874480486,0.216993406415,0.053262051195,-0.037639889866,0.014458115213,0.072953432798,-0.117935866117,0.034673497081,-0.152232050896,0.750173807144,-0.040526762605,0.073164500296,0.000447409402,0.074533812702,1.519354462624,-0.081563286483,-0.016450392082,0.133160337806,-0.144366309047,0.142181009054,0.193358466029,0.118059061468,0.031541489065,0.214540883899,0.135075554252,0.217086181045,0.066919125617,0.215856194496,-0.070900045335,-0.094302281737,0.061968065798,0.029740992934,0.049767233431,-0.051839917898,-0.014005595818,-0.066122464836,0.186295494437,0.088119931519,0.073613993824,0.104464270175,1.107479453087,0.040991771966,0.085705801845,0.042499911040,0.028834650293,-0.025692887604,0.201397255063,0.005625896156,-0.129464536905,0.007007554639,0.180336073041,0.048353217542,0.098926261067,0.195173263550,0.068490371108,-0.010419798084,-0.227744951844,0.373686760664,-0.008122739382,-0.144894182682,0.172518789768,-0.029909461737,-0.019823033363,-0.044415175915,-0.012426568195,-0.112767741084,0.067208819091,0.157713577151,0.146913513541,0.338197320700,0.567163765430,0.047674074769,-0.322032183409,0.069473393261,-0.055338915437,0.211735069752,-0.138137266040,-0.063036985695,0.101152397692,0.013929449953,-0.550897061825,0.029287867248,0.034345332533,0.064966879785,0.283518344164,0.018439371139,-0.017041362822,0.100914262235,0.005199649371,-0.102550640702,-0.145014479756,-0.046707462519,-0.035133734345,0.003642181400,-0.233943328261,-0.127925112844,-0.003097470617,0.053169868886,-0.042235996574,-0.002208205173,-0.210782319307,-0.279416680336,-0.057872898877,0.112341262400,0.039332363755,0.251079797745,0.053427383304,0.226571783423,-0.031606987119,0.159427538514,-0.003382573137
-0.150898382068,0.180070608854,-0.059385284781,0.187814995646,0.096545048058,-0.664771378040,0.081621490419,-0.095137819648,0.222284197807,0.184517487884,-0.214976757765,-0.298905760050,0.935212194920,0.300426363945,0.542140245438,-0.353772819042,0.178567320108,0.194440782070,-0.301552087069,0.187240198255,0.296011179686,0.050242956728,-0.232870772481,-0.109891742468,-0.188469454646,-0.224730283022,-0.298230320215,0.186701655388,0.067426770926,0.308608502150,-0.132473662496,-0.002769256243,-0.168493673205,-0.127935394645,-0.154334843159,-0.066323272884,-0.163199320436,0.062676414847,0.300359815359,-0.068789727986,-0.347462385893,-0.302626132965,-0.114354118705,0.075273551047,0.343777239323,-0.154109776020,0.143505617976,0.113728821278,0.168000906706,0.030741203576,0.089916035533,0.018186112866,-0.184257283807,0.066804401577,0.231819108129,0.431861847639,0.413536250591,-0.213415801525,-0.068457476795,0.127941146493,0.298631101847,0.123111397028,-0.113715283573,0.507911443710,0.204646676779,-0.221378013492,0.170245423913,-0.297531962395,0.002301901113,-0.202868446708,-0.491022706032,0.034011512995,0.198456376791,0.888243794441,0.186201214790,0.046347226948,0.649928748608,0.039597079158,0.143156334758,0.049609530717,0.148226723075,0.160663038492,-0.438107579947,-0.068889454007,0.507240712643,0.092951416969,-0.425109893084,0.430137455463,0.011830094270,0.033960904926,0.063283316791,-0.148908942938,0.192356243730,-0.574622869492,0.012427942827,0.085416682065,-0.127327412367,0.079015836120,0.114297971129,0.226402878761,0.111329242587,-0.156437918544,0.287280052900,-0.224314957857,-0.031582970172,-0.058087326586,0.307308495045,0.082322210073,-0.094269745052,0.445456564426,0.033797934651,0.131006196141,0.189218074083,-0.385338276625,0.037272583693,-0.053074467927,0.093287795782,0.653937339783,-0.406129837036,-0.434303700924,-0.222519055009,-0.047230497003,-0.071592159569,0.225746437907,0.387258917093,-0.282625496387,0.333026379347,0.248789876699
-0.791905522346,0.406417191029,0.204118356109,0.042370215058,0.028393857181,0.055774062872,0.322260558605,0.068590626121,-0.130328625441,0.035808112472,-0.006990333088,0.446657747030,-0.035118743777,-0.065332978964,-0.719268262386,-0.405608594418,-0.014111181721,-0.208956003189,-0.087416894734,0.281072914600,-0.229553341866,0.003944063094,-0.450977295637,0.193516537547,-0.219050705433,-0.204949334264,0.242192581296,0.220203414559,0.133797988296,-0.245126575232,0.347563922405,-0.016409697011,0.087857097387,0.200214743614,-0.072344347835,0.208491325378,0.022711878642,-0.040929235518,0.030649064109,-0.611519157887,0.056883506477,-0.053361300379,-0.108814343810,0.084452010691,0.026182986796,0.571752846241,0.170015558600,0.236603498459,0.031501580030,-0.080331332982,0.401232391596,-0.276158690453,-0.083135224879,0.023187452927,0.495326697826,-0.006959953811,-0.088142506778,-0.114068269730,-0.043713688850,0.066252402961,-0.105444133282,0.020427247509,0.037077542394,-0.221993505955,-0.099505670369,-0.216796725988,0.158854544163,-0.223170533776,-0.333069980145,-0.178907066584,0.273853391409,0.071992620826,-0.738752841949,0.505327880383,-0.122355267406,-0.124428234994,-0.810298025608,0.114093676209,0.203505113721,-0.259711027145,0.359892904758,-0.168347224593,-0.110523752868,-0.200422227383,0.177274346352,-0.560170173645,-0.217702969909,-0.104751624167,-0.009837739170,0.078940369189,0.044801060110,-0.230689287186,-0.085118666291,-0.153989970684,0.265697151423,0.141479149461,0.007226423360,0.123088359833,-0.017836008221,0.088558949530,0.080697432160,0.204190686345,0.062156900764,0.418090909719,0.054451879114,-0.086481660604,0.078043490648,-0.100212082267,0.004095686134,-0.046287424862,-0.101624153554,-0.181469127536,0.061793699861,0.256469368935,-0.244976207614,0.258526325226,0.317053407431,0.129921033978,-0.038785405457,0.071852780879,-0.396428048611,0.014230748639,0.344332337379,-0.119821429253,0.016328118742,-0.133430868387,-0.087353050709,0.017162743956
0.063297607005,0.388669520617,-0.000064812732,-0.046089675277,-0.022736255080,-0.265911549330,0.036735642701,-0.211294487119,0.257956117392,-0.220020234585,0.164345294237,-0.049101032317,0.137589856982,-0.025147825480,-0.133821070194,0.501670539379,0.280271559954,0.281535178423,0.300734341145,-0.144911155105,-0.317164808512,-0.077721148729,0.169589474797,-0.390216410160,0.167370051146,-0.300132066011,-0.232690051198,0.263026714325,-0.060936391354,0.250158011913,-0.361175566912,0.133494302630,-0.280844926834,0.179774165154,0.457995146513,0.074811801314,0.354282051325,0.111193716526,-0.257959932089,-0.018074318767,-0.491911143064,0.049895614386,-0.018422111869,-0.086016774178,-0.249624192715,0.162567451596,-0.298065155745,0.166577368975,0.201882869005,-0.223796308041,-0.138499453664,0.095731370151,-0.066597029567,0.339708447456,0.361695468426,0.027768136933,-0.075252555311,-0.312111198902,0.556142389774,-0.203291863203,0.023281907663,-0.038598887622,0.096402250230,0.269822597504,0.425782471895,-0.556683719158,-0.053513281047,-0.220521345735,-0.066146448255,-0.027312951162,-0.289304524660,-0.140998095274,-0.122276067734,0.039859835058,0.981668710709,0.103527858853,-0.135024398565,0.321854382753,0.163993254304,-0.263085424900,0.157051324844,0.171774104238,0.036310605705,-0.341528505087,0.202492311597,-0.051574926823,0.386130005121,0.073322221637,0.110381387174,0.314194947481,-0.066651873291,-0.137653991580,-0.015930209309,0.176098152995,0.159622728825,0.305522203445,0.272959977388,-0.062527127564,0.888934552670,0.059251762927,0.461801946163,0.290060073137,-0.087840810418,0.288014411926,0.054780613631,-0.009656189010,-0.511459410191,-0.080848537385,-0.016819428653,-0.232536658645,-0.083494827151,0.522633671761,0.254651874304,0.225350588560,-0.037160970271,0.698069393635,0.047179412097,-0.146333858371,0.281483769417,0.026711586863,-0.221479743719,0.040597047657,-0.438762605190,0.048628393561,-0.270197004080,0.016587046906,0.410533696413,0.229390338063
-0.340707600117,-0.282603651285,0.117501378059,0.068502053618,-0.322603970766,-0.465079337358,-0.055696103722,0.075325757265,0.127056628466,0.319173425436,0.301510095596,-0.272966474295,-0.619485259056,-0.120005108416,0.172462373972,0.143058314919,-0.250087767839,-0.464339762926,-0.123618170619,-0.119112379849,0.088843144476,0.049804106355,1.129159808159,-0.467777192593,0.127283498645,-0.003326832317,0.054355356842,0.868262171745,0.040271647274,-0.409618884325,-0.744464278221,0.098740130663,-0.053806249052,0.127722546458,0.006239412352,-0.667040169239,0.248673245311,-0.126392841339,0.163612410426,-1.143712759018,-0.130902945995,-0.159859627485,0.407935053110,-0.472120434046,0.002761446871,-0.119546875358,-0.355406880379,-0.089256078005,0.155581101775,-0.029231648892,0.433613955975,0.404346525669,-0.361644119024,-0.239938110113,-0.165785714984,0.039746459574,0.138094410300,-0.209671244025,-0.233586639166,0.423139184713,-0.016824144870,0.219608753920,0.107094891369,0.001640888746,-0.058123771101,-0.135969847441,-0.299097925425,-0.199557647109,0.036578629166,0.019987771288,-0.003811253468,0.000111127440,0.246533945203,0.072929285467,-0.042788442224,-0.196013033390,-0.220736771822,-0.532000482082,0.041604325175,-0.149179622531,0.569443106651,0.515228867531,0.307692587376,-0.121035896242,0.406165361404,0.300870001316,0.576232373714,-0.058946937323,-0.278802335262,0.034122694284,0.258588880301,0.234055966139,0.019463263452,-0.177858933806,-0.202829048038,-0.240731596947,-0.105510413647,0.236778557301,0.848215520382,-0.326912194490,-0.468758642673,0.426281481981,-0.109395101666,-0.012308185920,-0.249598607421,0.352696239948,0.112512134016,0.210107997060,-0.009114759043,0.047234039754,-0.178444549441,0.182152271271,0.353429257870,0.294685870409,0.503411471844,0.385314345360,0.017908841372,-0.754881381989,0.188913717866,0.310809820890,0.011072005145,-0.123053424060,-0.245585799217,-0.020688958466,-0.025387430564,0.116403676569,0.210318133235,-0.214940637350
-0.612831532955,0.337839305401,-0.234361574054,-0.070599734783,-0.244818627834,0.165796861053,-0.398831576109,0.050231244415,0.200299158692,-0.252549976110,-0.014821008779,0.086421929300,-0.051214009523,-0.170968696475,0.031258661300,0.270682483912,-0.044114649296,-0.366686522961,-1.904554486275,-1.612399697304,0.110933125019,-0.157018482685,0.170382663608,-0.385588914156,0.119103044271,-0.179760113358,0.293896049261,0.082074820995,-0.242143705487,0.612289845943,-0.050614278764,0.081325791776,-0.045030843467,0.397138029337,0.136010915041,0.110211119056,-0.060570087284,1.287765145302,0.210335582495,0.010598158464,0.026214329526,0.175105914474,0.185652971268,-0.158158242702,-0.005263310857,-0.091788358986,0.079031750560,0.651083767414,-0.020684685558,0.030812393874,0.124225355685,-0.529884099960,-0.168327376246,0.299525052309,-0.209691256285,0.354528814554,-0.057898715138,-0.037583325058,-0.167842179537,-0.252181172371,0.066115081310,0.481550365686,-0.265737831593,-0.370185822248,-0.218780428171,-0.071824245155,-0.207570105791,-0.077047191560,-0.202206999063,0.100526764989,0.015190119855,-0.092583812773,0.478934109211,0.116213396192,0.037531953305,-0.157780289650,0.048611219972,-0.350301414728,0.065150231123,0.096635788679,0.337967395782,0.025806142017,0.224009796977,-0.121213406324,0.134881600738,0.373652577400,0.016151845455,-0.210480496287,0.201505273581,0.038082525134,0.030593480915,-0.047717802227,0.193577721715,0.294592738152,-0.300947874784,0.059885177761,-0.201891899109,0.227076143026,0.039469785988,-0.005916380789,0.169705629349,0.101414278150,0.127224579453,0.411898314953,-0.166538909078,0.074080549181,0.068781293929,0.388900399208,0.215281188488,1.353459954262,-0.147677987814,0.108198247850,0.052660819143,0.180298998952,0.330112397671,-0.186587706208,-0.215483441949,-0.143617525697,-0.034722238779,0.079845622182,0.154863029718,-0.155533105135,0.028922516853,0.073348440230,-0.009905447252,0.011248496361,-0.085045054555,0.263848096132
-0.120895527303,0.005853065755,0.162185117602,-0.010887517594,-0.447508782148,0.657039582729,0.195814535022,0.084779232740,0.047032136470,0.169946134090,0.175230801105,0.234132394195,0.443209439516,-0.172080710530,-1.414645433426,0.089489094913,0.090280376375,0.204302102327,-0.002034870908,-0.073637403548,-0.011022827588,-0.259581178427,-0.260017514229,0.201556712389,0.190438002348,-0.002606672235,-0.090472362936,-0.313942641020,-0.021590137854,0.041415091604,0.647205233574,0.032874181867,-0.100389495492,-0.295757293701,-0.425455003977,0.015452601016,-0.015612624586,0.101451903582,0.127952948213,0.469924569130,0.110981412232,0.008976918645,-0.072036765516,-0.445721596479,0.016151452437,-0.290335029364,1.032618165016,0.164936199784,0.185877978802,-0.030733045191,0.008144573309,-0.140493497252,0.328047096729,0.213829234242,-0.051527656615,-0.367265492678,0.027891488746,-0.080497927964,0.213296309114,-0.603151440620,0.059251829982,-0.126409143209,0.154245406389,-0.140279218554,0.065934799612,-0.035854127258,-0.230777323246,-0.433068215847,-0.006335609127,0.036179091781,0.056025881320,0.129361882806,0.064457051456,0.075596958399,0.372049927711,0.175672948360,0.150137245655,-0.144850566983,-0.049940355122,-0.051793705672,0.568619132042,0.176327675581,0.398408055305,0.077255725861,-0.957734465599,0.266224145889,-0.596279919147,0.127012804151,0.093547105789,0.106313265860,-0.135372161865,0.390383124352,-0.017091717571,-0.005854669493,-0.034852668643,0.082417339087,-0.362084269524,-0.347498476505,-0.078139707446,0.044187065214,-0.306065350771,-0.346896827221,-0.123162567616,0.049632020295,-0.235933944583,0.163004189730,-0.520020425320,-0.231267035007,0.051826190203,-0.085578016937,0.520861327648,0.371780306101,-0.271525382996,0.139208376408,-0.324786275625,-0.053615912795,-0.186041474342,0.039581548423,0.106099590659,0.061202812940,-0.020219437778,0.348764210939,-0.496464669704,0.082664109766,0.021529462188,0.265479773283,-0.333462983370,0.029524231330
0.111920170486,-0.226453855634,-0.122649319470,0.076239578426,0.073059238493,0.061844486743,-0.383885920048,-0.029503155500,0.023923415691,0.099010199308,-0.103934414685,0.279812574387,1.159844875336,0.242072314024,-0.384912282228,-0.455706566572,-0.292156159878,-0.218329831958,0.160623297095,0.120221398771,-0.018544429913,0.123800434172,-0.214846268296,-0.292657583952,-0.028415368870,0.393138766289,0.230745404959,-0.028498131782,-0.096417225897,0.056110024452,-0.242086350918,0.134764105082,0.158324211836,-0.404457777739,0.579047083855,-0.313006609678,0.080500014126,0.133403211832,-0.123066827655,0.967315912247,0.179279208183,0.001502724597,0.132378622890,0.098075658083,0.051838457584,0.001530346577,0.657795131207,0.310425013304,-0.371561050415,0.074313357472,0.361989527941,0.173570290208,0.112228840590,0.067528150976,-0.389429062605,0.149715110660,0.573717892170,-0.056310523301,0.130638018250,-0.561832845211,-0.146057188511,-0.061879836023,-0.177580982447,-0.703743696213,-0.032044019550,-0.188313290477,0.046042848378,0.396707683802,-0.228225156665,0.074656777084,0.093729287386,-0.048011146486,0.190114453435,0.210238352418,0.397238731384,0.114669978619,-0.025337824598,0.074939720333,0.527645885944,0.487926006317,0.203825965524,-0.368870943785,0.103229701519,-0.240713477135,-0.196280077100,-0.780534267426,0.647559762001,-0.095885574818,-0.104026831686,-0.127275228500,0.324407875538,-0.324395596981,0.363958567381,-0.077199682593,-0.494251370430,-0.448035866022,0.219235762954,-0.101338572800,-0.117230176926,-0.417339503765,-0.013875816017,0.047343984246,-0.049956228584,0.102365992963,-0.058283384889,0.036415051669,-1.086688160896,-0.235783144832,0.156781896949,-0.191167354584,-0.207293033600,0.247635945678,-0.368954807520,0.177286878228,0.274428337812,-0.066794484854,-0.045592706650,-0.689753115177,-0.126496523619,0.446964353323,0.521227180958,-0.132208317518,0.168895885348,-0.138927668333,0.030185056850,0.005499436986,0.075181432068,0.326188266277
0.028572069481,0.572151839733,-0.106190577149,-0.641340494156,0.273310840130,0.566914558411,0.234332591295,0.094031222165,0.110800132155,-0.085928022861,-0.406875133514,-0.301754236221,0.329461723566,-0.343601107597,-0.383238554001,-1.269619226456,-0.204155489802,0.155053123832,-0.113559044898,-0.277405977249,1.142822504044,-0.017052557319,0.135216578841,-0.017253167927,-0.160947635770,-0.605586349964,0.111084207892,0.060068361461,0.044058416039,0.133766055107,-0.314549475908,-0.046233773232,-0.150881230831,0.041028507054,0.224644228816,0.013585411012,-0.202891021967,-0.099052324891,-0.062969736755,0.068594247103,-0.216492593288,0.074910528958,-0.116358742118,0.355516195297,0.156580641866,-0.061614930630,-0.012828345411,-0.108357496560,-0.734080076218,0.001744907931,-0.063149616122,-1.718394756317,-0.158401072025,-0.455459266901,0.690450429916,1.196502208710,-0.741419076920,-0.012536507100,0.785979747772,-0.246529430151,-1.031028151512,0.125392675400,-0.071785330772,0.115879751742,-0.263479232788,-0.184311270714,0.303296297789,1.125545382500,-0.502167820930,-0.014322906733,0.100015826523,0.171122804284,-0.629190504551,-1.077392697334,0.098239943385,0.247037172318,-0.617846667767,0.397136032581,-0.431565105915,-0.357190281153,-0.049023170024,0.659608662128,-0.457658767700,-0.367267280817,-0.148944467306,-0.212873309851,-0.134809508920,-0.210942953825,-0.739252030849,0.155780062079,-0.232913568616,-0.107985995710,0.390462517738,0.118022486567,-0.165135458112,0.607760846615,-0.248255953193,-0.014911310747,0.034773729742,-0.100612133741,0.336324810982,0.579421877861,-0.013202536851,-0.055351264775,0.172415003181,-0.117992199957,-0.154863521457,-0.018799906597,-0.108788356185,-0.432131111622,-0.292112976313,-0.365562945604,-0.220698907971,0.017224654555,-0.173003911972,0.132234320045,-0.452605456114,0.058075908571,-0.197859317064,0.522450864315,0.637289166451,0.309444665909,-0.062330219895,-1.001557469368,0.149385809898,-0.461863666773,-0.244046106935,-0.495645135641
0.042264856398,0.482709616423,-0.143441408873,0.230639383197,-0.049740944058,-0.459593832493,-0.056962590665,-0.017928261310,0.351192444563,0.130325928330,0.056562971324,0.131154999137,0.137193858624,0.145133465528,0.064906358719,0.101166628301,0.327569454908,0.109247542918,0.216540023685,-0.166795238853,-0.456732124090,-0.016591202468,0.476965606213,0.234465390444,-0.061494000256,0.272337377071,-0.344182401896,0.140737712383,0.291189253330,0.024727968499,-0.058316934854,-0.141706570983,0.558751761913,0.126702159643,0.231649369001,-0.219177961349,0.428389728069,-0.166458874941,-0.076289668679,-0.191222444177,0.343092709780,-0.117546923459,0.413696855307,-0.079578086734,0.178746074438,-0.280636996031,-0.295454710722,-0.034627050161,0.328356355429,-0.004093289375,0.246680796146,0.009806658141,-0.387774825096,-0.171256303787,0.096803471446,-0.083541780710,0.344370007515,0.189301937819,-0.093515686691,0.026608461514,-0.016591018066,0.233345434070,0.168278828263,-0.274225682020,0.388116270304,0.106685526669,-0.042275812477,0.087127767503,-0.019313979894,0.350577354431,0.406990319490,0.358017504215,-0.180557057261,-0.070362247527,-0.379373371601,-0.005503837019,-0.291312575340,-0.151860803366,0.543776035309,-0.363664478064,-0.033479079604,-0.234131053090,-0.103993795812,0.173337697983,0.304043948650,-0.003680390306,0.180143982172,0.271809548140,-0.092214047909,-0.071189455688,0.327311605215,-0.118507295847,-0.320014894009,-0.308684170246,0.046869907528,-0.546877980232,-0.087332539260,0.110357224941,-0.415405780077,0.066021867096,0.092123374343,0.308688461781,-0.100561410189,-0.109090052545,-0.009535389021,0.141945004463,0.345890432596,-0.089452475309,0.035588145256,-0.293434441090,-0.076608359814,0.073179431260,0.041453115642,0.040415298194,0.226457715034,0.096458159387,-0.288316696882,0.229931011796,0.582138657570,-0.152784556150,0.014987635426,0.083172939718,0.468679577112,-0.015338639729,0.183665797114,0.022698439658,0.612648367882,0.139510780573
-0.653839707375,-0.195923611522,-1.885659456253,-1.146980881691,0.113839305937,0.647260487080,-0.392963081598,-0.176703095436,-0.547752976418,-0.228295892477,-0.509356319904,-0.049415264279,-0.030761374161,-0.423390895128,0.730686664581,-0.040956076235,-0.664312124252,0.833596467972,1.360742568970,-2.246404886246,1.628674268723,-0.940217733383,-0.420726150274,-0.459415704012,-0.166894078255,-0.085922911763,0.228637501597,0.182252779603,-0.280146658421,0.678112745285,0.753349602222,-0.137151092291,6.827633857727,0.462351471186,-0.724725246429,-0.022980121896,0.164288789034,-1.097428321838,-0.303138613701,-0.256073594093,-0.107103824615,1.397136688232,0.253207564354,-0.727567613125,-0.258499205112,-0.083171762526,-1.074522852898,-0.150474056602,0.040460474789,-5.245968341827,-0.115053929389,1.152878046036,-0.285323381424,-0.517510652542,1.310973048210,-0.698536396027,1.144358396530,0.230821505189,0.583161056042,-0.039422880858,-2.151184797287,0.490915566683,0.352580517530,1.061410665512,-0.225410699844,-0.386697977781,-1.514206171036,-0.284147918224,-0.935314893723,-0.365037053823,-0.124381177127,-0.014421955682,0.479138523340,-0.224896356463,-0.237369403243,1.053172945976,0.760443329811,0.023689622059,-0.881592631340,-0.053845498711,-0.955281317234,-0.201390549541,0.253710299730,0.182873502374,0.230266720057,0.575383067131,0.641592979431,-0.096827380359,-0.369424760342,-0.001928638201,0.029245313257,0.727540791035,-0.216348394752,-0.346048653126,2.423217535019,0.944389104843,-0.834117710590,-2.294937610626,0.217378407717,-0.038125656545,-0.144740030169,-0.642793357372,-0.781603515148,-0.690689980984,-0.592643082142,-0.042330231518,0.422092646360,0.862646520138,0.245583996177,-0.330166876316,-1.241833806038,0.158279761672,0.579538047314,0.440916717052,-0.775391817093,0.591976702213,0.469602942467,0.364108473063,1.111865878105,-0.737570941448,-0.820303440094,0.004148082342,-0.344914108515,-2.400586366653,-22.723037719727,0.602972865105,-0.030092786998,-0.932497322559
0.531404078007,0.085215032101,-0.001112881349,-0.019089629874,0.289975672960,0.076016314328,0.287523716688,0.310324907303,0.937524616718,-0.426281929016,-0.176325410604,-0.121864400804,0.007712264080,-0.262195557356,-0.269644856453,0.212213993073,0.434314697981,0.095171257854,-0.024652222171,0.180290862918,-0.083027213812,-0.253021299839,0.068732105196,0.049382612109,0.010619734414,0.300679385662,-0.041790124029,-0.424216628075,0.129587635398,0.273259133101,0.172900855541,-0.411503911018,0.344038605690,0.000855663733,0.224201440811,0.315121620893,-0.096313074231,0.884147703648,0.584089338779,-0.263374119997,0.238319128752,-0.133907929063,0.120861284435,0.180913373828,-0.095205515623,0.538486659527,0.043344326317,0.361656099558,0.039698101580,0.001541810110,0.138587281108,-0.214676782489,-0.150322750211,0.100327461958,0.119217403233,0.134038403630,-0.001131859026,0.145464912057,0.217028155923,0.011615565047,-0.116328388453,-0.069030776620,0.087285824120,0.037068940699,-0.319439500570,0.693736255169,0.020974263549,0.127052128315,-0.197268337011,0.014456745237,-0.108873590827,0.429246634245,0.337386339903,-0.179022565484,-0.051550012082,0.031005803496,-0.122085042298,0.244093850255,0.283939629793,-0.025013417006,-0.128373295069,0.069959498942,-0.160769775510,0.147463560104,0.365288406610,0.084163472056,0.226177737117,0.254771053791,0.239531606436,-0.087461225688,0.360411047935,-0.217499822378,-0.184753090143,0.033955015242,0.004922100808,0.399867683649,-0.196852535009,0.493858784437,0.007841136307,0.432613521814,0.460991680622,0.152119278908,0.085018724203,-0.442898601294,0.105699889362,0.016119951382,-0.318620473146,0.045210815966,0.002640944207,-0.122632339597,-0.087168410420,-0.272323906422,-0.380099236965,-0.095793530345,-0.258135199547,-0.030407480896,-0.068765684962,-0.102989256382,0.278799802065,0.177552059293,0.118322566152,-0.090628229082,0.959792792797,-0.118857443333,-0.104696139693,0.089348040521,0.235476255417,-0.322246760130
-0.424570351839,0.050874955952,0.014167812653,-0.158310353756,-0.304040044546,0.232991471887,0.134761944413,-0.045267075300,-0.159825921059,0.076003395021,-0.100914642215,0.401012033224,0.505417823792,0.418048143387,-0.267663687468,-0.038352765143,-0.083639323711,0.308450251818,-0.570030808449,-0.013619415462,-0.263696640730,0.026660075411,-0.195756196976,-0.248283803463,0.244040802121,-0.236461400986,-0.205830395222,-0.247548893094,0.541413664818,-0.054234441370,-0.515001475811,-0.149538531899,0.163780629635,-0.183076575398,-0.165951982141,0.059977397323,-0.097847186029,0.012599855661,-0.055272080004,0.301878452301,0.088173814118,-0.115647107363,0.166303843260,-0.190603345633,0.085407882929,0.425899952650,0.121626920998,-0.897684514523,-0.439211577177,-0.009939249605,0.078747302294,0.239754348993,-0.378106653690,0.449763804674,0.213295981288,-0.391244083643,0.136777758598,0.318607151508,-0.042721610516,-0.626253604889,0.070971146226,-0.500568032265,-0.289156943560,0.191113620996,-0.184310853481,-0.175462290645,-0.174337491393,0.152799323201,0.430452018976,-0.130790024996,-0.435352742672,-0.115150563419,0.631352782249,0.058442283422,0.394366621971,0.366440922022,-0.394616127014,-0.235932037234,0.006186358631,0.419618219137,0.196390137076,0.128645524383,0.282824575901,-0.243621766567,-0.975206136703,0.678162813187,0.124673858285,-0.299623280764,0.327755928040,-0.122638382018,-0.156209558249,0.140395656228,0.007572731469,0.345501810312,-0.103672891855,-0.576964080334,0.225115582347,-0.235721796751,0.052334684879,-0.246071681380,0.358606129885,0.609304904938,0.174029752612,-1.017650008202,-0.368582397699,0.012299183756,-0.074230752885,-0.614062428474,0.059142373502,0.138324663043,-0.000747599406,0.147437423468,0.248124822974,0.028989430517,0.764112412930,0.429923474789,0.294994175434,0.091724842787,0.275499045849,-0.047194100916,0.271788656712,0.264306485653,0.100860536098,0.105414085090,0.078526638448,0.335332244635,0.295091062784,-0.129241555929
-0.094735033810,0.009184309281,0.039676561952,0.001139696222,-0.024603452533,0.372585177422,0.427367568016,-0.035417281091,0.096696592867,-0.127865388989,0.015603376552,-0.195715695620,0.024919949472,0.074215374887,0.076529070735,0.030235888436,-0.040652126074,-0.803527832031,-0.054191704839,0.026857718825,-0.013357347809,-0.108996860683,-0.029613699764,0.476259559393,0.059857610613,0.064321763813,-0.003101304406,-0.039604887366,-0.396270453930,0.184514284134,-0.223846122622,-0.177606388927,0.076942130923,0.138788282871,-0.263884782791,0.323625624180,0.040751483291,-0.005665604956,0.192925289273,-0.050081439316,-0.021524444222,0.018441658467,0.242232829332,0.071114279330,0.030285093933,-0.001739279251,-0.315117359161,0.037891097367,0.021690221503,-0.039437465370,0.538547158241,0.209821060300,-0.025196747854,0.467740744352,0.078500807285,0.206040799618,-0.118585973978,0.050564184785,-0.123403273523,-0.041044518352,0.025704398751,-0.164155930281,-0.042087715119,-0.188579320908,0.032787702978,0.036127980798,-0.062904700637,-0.192914396524,0.317392706871,0.025111230090,-0.103535406291,-0.003746527946,0.010902413167,0.012197453529,0.286907523870,0.227448508143,0.082094073296,-0.886152684689,-0.077918030322,-0.031815920025,-0.158953979611,0.719851076603,-0.130978643894,-1.791313886642,0.262229651213,0.050820536911,0.062282573432,-0.138394549489,0.097577705979,0.110412493348,-0.230372190475,0.517916619778,0.030507737771,0.063164524734,-0.025420898572,-0.033170048147,0.260640680790,-0.072922371328,-0.004860357847,0.005992852617,-0.002174485475,-0.274413943291,-0.012246597558,0.011429586448,-0.033571727574,0.174744516611,-0.005700353067,-0.073011063039,-0.073584482074,0.003521037055,0.083613298833,-0.086228683591,-0.045782849193,-0.182964220643,0.036013536155,0.042902234942,-0.033953391016,0.028513563797,0.484818011522,0.212810993195,-0.043014403433,0.075742773712,-0.059833731502,0.047365270555,0.021365547553,0.055185437202,-0.683487772942,0.059886116534
-0.174614891410,-0.504867196083,-0.071652755141,-0.037924829870,0.132990628481,0.137576550245,-0.208860933781,0.007528813090,0.237641394138,-0.000283886184,-0.190255045891,0.467209935188,-0.311670035124,-0.077197015285,-0.037432156503,-0.479427963495,-0.042377196252,0.631353020668,-0.553845822811,0.309526354074,-0.229780465364,-0.188353359699,0.093680590391,-0.048552904278,-0.009180198424,0.362387061119,-0.359667152166,-0.279641419649,0.406027078629,-0.413087457418,-0.387837946415,-0.196973651648,0.647277176380,-0.009811731987,-0.229337632656,0.276757895947,0.352000445127,-0.746216654778,0.312770932913,-0.174219012260,-0.642966330051,0.024644255638,0.593872606754,0.167764946818,-0.261193901300,-0.361853659153,0.210593163967,-0.217780783772,-0.100007884204,0.111963167787,0.520816624165,0.149390995502,-0.078696168959,-0.547220706940,0.015383305959,0.406235337257,-0.133861660957,-0.064886175096,0.168511703610,0.366767168045,-0.257508933544,-0.186536267400,-0.110501922667,-0.060324050486,-0.240481615067,-0.330862581730,0.122863739729,0.160683020949,0.247298523784,0.059180773795,-0.046293728054,0.166776239872,-0.945880949497,0.038021292537,0.056450858712,-0.200853809714,0.398890167475,0.393016487360,0.001929400722,-0.485969573259,0.009086309932,0.268523782492,-0.185035720468,-0.187666371465,0.316704213619,0.246924310923,-0.336104154587,0.583026528358,-0.105983301997,0.007470689714,0.505191445351,0.280328482389,0.565269649029,-0.304354727268,-0.198753625154,0.258949935436,-0.004767381586,-0.317879319191,-0.182478889823,-0.081898503006,0.149006426334,0.510932981968,-0.271278947592,0.504408717155,-0.042335756123,-0.041831467301,-0.152158990502,-0.670788884163,-0.025452913716,-0.175351247191,0.029844766483,-0.627343773842,-0.057938940823,-0.071002393961,0.273774147034,0.072290964425,-0.208184942603,0.225124910474,0.162411823869,0.042845193297,-0.072370417416,0.295766949654,0.173726901412,-0.211325094104,-0.282882302999,-0.052599295974,-0.147174686193,0.254236966372
-0.040249966085,-0.013485416770,-0.057697884738,-0.072455286980,0.084163628519,0.021407380700,0.108045399189,0.161826595664,-0.094935759902,-0.103915937245,0.020896792412,0.110257193446,-0.095496088266,-0.095507331192,0.071654953063,0.118705697358,-0.098762899637,0.117888741195,-0.062625549734,0.135781198740,0.075410768390,0.218168541789,-0.063140012324,0.423217177391,0.074401497841,0.225831389427,0.234635457397,0.020799756050,-0.055616453290,-0.006703697145,0.087209396064,-0.549796223640,0.341797530651,0.157520651817,0.082240581512,0.221753060818,-0.237073078752,0.034558758140,-0.028848771006,-0.016763275489,0.128840610385,-0.058608558029,0.036298353225,-0.052561186254,-0.005014778115,0.050926376134,0.231831118464,0.034021388739,-0.154483422637,-0.319482117891,0.080915793777,-0.099743425846,0.164436250925,-0.352749675512,-0.155367106199,-0.091615654528,-0.129082694650,-0.125662147999,-0.083787903190,0.024013409391,0.069409817457,-0.154465109110,-0.046430051327,-0.167131587863,-0.689759612083,0.364504069090,0.111120723188,-0.009169742465,0.170276433229,-0.164902329445,0.056011233479,-0.319134473801,0.025937641039,0.160200014710,-0.131217420101,0.007221453357,-0.138674214482,0.166501164436,-0.074525438249,0.026465058327,0.089245662093,-0.032215435058,-0.031170800328,-0.119169995189,-0.006340142339,0.009910049848,-0.036574248224,-0.148499950767,0.046811677516,0.255402296782,-0.218749955297,-0.154406085610,0.662947177887,-0.061562247574,-0.131251484156,0.069983087480,-0.181301251054,-0.437987476587,0.008708558045,0.039270576090,-0.004190110601,0.325879871845,-0.051789764315,0.060541626066,-0.022885680199,-0.014350878075,0.283584475517,0.333962142467,-0.001131604775,-0.011056387797,-0.177207291126,0.702143013477,0.144287094474,0.175482064486,0.017049541697,0.079064577818,0.022104099393,0.078266315162,0.252653390169,0.032339327037,-0.251271337271,0.127797186375,-0.224323332310,0.058065295219,-0.003586147446,-0.030811749399,-0.126636266708,0.131877854466
0.197458237410,0.183743700385,-0.072877943516,-0.110779158771,-0.188822254539,0.653787434101,-0.449826270342,-0.037585347891,0.117308802903,0.351493805647,0.138677328825,0.425883740187,0.055336520076,-0.005828204565,-0.124991677701,0.127295061946,-0.233135253191,-0.089691579342,-0.471515446901,-0.103244774044,0.145798295736,-0.231521323323,0.077077418566,-0.035266801715,-0.000158784213,-0.156505674124,0.090331748128,-0.058460947126,-0.021193765104,-0.470054745674,0.280736654997,0.266636043787,-0.504007279873,-0.144724994898,0.562550663948,0.062327302992,0.125634729862,0.064535118639,0.881414055824,0.331476062536,-0.121174350381,-0.181621775031,-0.079250536859,-0.156663462520,-0.015322144143,0.359693855047,0.381404817104,0.325369119644,0.467064380646,-0.009220326319,0.275336563587,-0.056355461478,0.120208591223,-0.221941113472,0.021878035739,0.330070614815,0.290138781071,-0.315560221672,0.139268517494,0.091289296746,0.143079787493,-0.433823376894,0.305787891150,-0.183904811740,0.202311560512,-0.530350685120,-0.151953488588,-0.255941838026,-0.133252263069,0.112058646977,0.150205761194,0.416405498981,-0.578522622585,-0.396143376827,-0.183485791087,0.018218968064,0.233711108565,-0.174676507711,0.472514718771,-0.335476309061,0.151289567351,-0.480773359537,0.323969304562,-0.076971895993,-0.035426165909,-0.320578545332,-0.050466451794,0.267489433289,0.061693448573,0.011713402346,-0.028650112450,-0.734971880913,0.024005988613,0.138755455613,-0.027897760272,-0.006685135420,-0.181537121534,0.031636044383,0.447873741388,-0.104587197304,-0.334753900766,0.232344225049,0.092699043453,0.454663574696,-0.321088612080,0.333741933107,0.186097532511,-0.004235454835,0.346056282520,-0.541949808598,0.007011993323,-0.175237327814,0.170619428158,-0.217872470617,-0.337912112474,0.209158852696,-0.285923808813,0.252825766802,0.189010351896,0.566870748997,0.226859763265,-0.051868341863,-0.062469627708,0.113452240825,-0.036340508610,0.349021404982,0.557002961636,0.078576348722
0.258751899004,-0.203050866723,-0.011887323111,0.110172793269,0.054435025901,-0.307335406542,-0.431936204433,-0.011314321309,0.095679350197,-0.016400305554,-0.239373624325,-0.058718878776,-0.368138253689,0.146014675498,0.394243836403,-0.194838181138,-0.204090297222,0.284354358912,0.320317178965,0.051797062159,-0.125759705901,0.216284632683,-0.616920709610,0.067581713200,0.011074614711,0.301656544209,0.123540796340,-0.514265954494,0.144126310945,-0.103180207312,-0.495631933212,-0.084241710603,0.051359545439,0.120054565370,0.217354074121,-0.113427527249,0.044124573469,0.136115208268,-0.135475128889,0.270671039820,0.117047667503,0.033206660300,0.199857279658,0.182981356978,-0.007092146203,-0.268061906099,0.376161128283,0.028337826952,-0.215172812343,0.070211179554,0.179528638721,-0.331608176231,0.201807767153,1.370520472527,-0.183229550719,-0.051161278039,0.055347263813,0.085960760713,0.313938379288,-0.260993659496,-0.097565993667,-0.295532763004,-0.286787927151,-0.235891073942,0.102343879640,-0.116154670715,-0.162564948201,0.182939246297,0.168171986938,0.178034037352,-0.199408009648,0.346458852291,-0.527004420757,0.323356866837,0.020154444501,0.012146473862,0.357561290264,-0.139942780137,-0.365609705448,-0.594644248486,-0.537983417511,-0.143701851368,-0.064452454448,-0.406758725643,0.238935917616,0.271746426821,-0.087918259203,0.198725700378,0.130255505443,-0.001619368442,-0.211147665977,-0.161863729358,-0.004416953772,-0.019870262593,-0.023856183514,-0.026568295434,0.089164748788,-0.098085165024,0.147331506014,-0.222859352827,0.362843930721,0.048854526132,0.995331168175,-1.645300984383,-0.152551099658,0.050478927791,-0.154759034514,-0.111055582762,-0.153881013393,0.467026442289,0.188320279121,0.431823760271,-0.239665254951,-0.330376505852,0.273611098528,0.087862350047,-0.212854623795,0.020204462111,-0.350661665201,0.071634277701,0.038352336735,0.356561899185,-0.029125897214,-0.090013392270,0.008370192721,0.000807735370,-0.009386466816,0.218794047832
0.359045803547,-0.377039760351,-0.111285910010,-0.210369884968,-0.218470439315,-0.097482532263,-0.067548342049,0.074083216488,-0.080103851855,0.090134441853,0.191806182265,0.486345261335,0.517892301083,0.113443411887,0.138470783830,-0.064393937588,0.331635892391,0.411830544472,0.008868463337,0.186084032059,-0.030766926706,0.132852017879,-0.268560081720,0.328401297331,-0.081565059721,-0.230413258076,0.078048445284,-0.036280184984,-0.011750468984,-0.177622586489,0.024422330782,0.137143298984,-0.419724166393,0.256216764450,-0.302609086037,-0.112639158964,0.376182377338,-0.146749585867,0.003702661255,-0.027171203867,-0.233448415995,-0.047218859196,-0.107319377363,-0.057241655886,1.648107767105,0.048407163471,-0.212642967701,-0.169329166412,-0.098235070705,0.098898388445,-0.283221572638,0.163723692298,0.057995691895,-0.563760221004,0.322503060102,0.053683403879,-0.422505468130,0.218086615205,0.762379288673,0.134045839310,-0.573278486729,0.166277825832,0.132890671492,-0.166596472263,0.105896398425,0.153752565384,-0.059374041855,-0.024950299412,0.195374667645,0.052261233330,0.138624116778,-0.150116637349,-0.151526138186,0.129039958119,-0.328347504139,-0.081623502076,-0.170556783676,-0.115697242320,-0.381236374378,0.167209386826,0.017792539671,0.155034229159,0.089267402887,-0.317168682814,-0.055934801698,-0.369184553623,-0.419608443975,-0.617266714573,-0.031330328435,0.092103444040,-0.028746457770,-0.439523756504,-0.331697791815,-0.251756370068,0.236009657383,0.443974196911,0.222091674805,-0.103643752635,0.207246497273,0.271587014198,-0.369408100843,0.197081983089,-0.023293947801,-0.027942433953,-0.005561844446,-0.012534806505,0.167477875948,0.052604731172,0.093215525150,-0.169377520680,0.216522917151,0.271732270718,-0.086106821895,0.248242512345,0.260865509510,0.105832755566,-0.152863636613,0.623170375824,0.180261164904,-0.030186660588,0.267002254725,0.174883127213,-0.291413426399,-0.526473343372,1.807158827782,0.098872750998,0.121233567595,0.018795430660
0.177028045058,0.630839347839,-0.216328784823,-0.265510737896,-0.056227769703,0.093476757407,0.529503524303,0.131098538637,-0.293451517820,-0.330490469933,0.021648725495,0.537626922131,0.141564995050,0.128920361400,0.550833404064,0.030972115695,0.022889846936,0.314486294985,-0.282293885946,-0.441114634275,0.426372408867,-0.231606110930,-0.201657176018,0.257442623377,0.038586601615,0.151801273227,0.121411837637,0.640683889389,-0.220499336720,-0.196751207113,0.048712361604,-0.157204240561,0.116071179509,-0.181450963020,-0.055284287781,0.333062320948,0.200764134526,0.033114679158,-0.169079303741,0.094106480479,-0.473294496536,-0.382373213768,-0.153302535415,-0.178428813815,-0.393068015575,-0.725591599941,0.278925508261,-0.621366918087,0.085726998746,-0.133838951588,0.461206644773,-0.029999658465,-0.328213691711,-0.161984026432,-0.415234625340,-0.089451476932,-0.469897240400,0.512324690819,0.109300605953,0.201811239123,-0.251842468977,0.279505103827,0.076541833580,0.257522404194,-0.412168323994,0.300757586956,-0.050085719675,0.108058124781,-0.195409163833,-0.047692097723,0.184676885605,0.041036657989,0.121680609882,-0.327187508345,-0.226653650403,-0.268561780453,-0.283588945866,-0.155317381024,0.036293469369,0.108161561191,0.076590493321,0.287042647600,0.203594952822,0.085123941302,0.019173141569,-0.067701026797,-0.006127171218,-0.681014895439,0.201478391886,-0.215860351920,0.608367383480,0.056743353605,0.897738754749,-0.011335587129,-0.080735079944,-0.233033776283,-0.128489792347,-0.497216105461,0.564270198345,-0.028682434931,0.369637519121,0.455898582935,0.049399126321,-0.073893405497,-0.073213808239,0.038343973458,0.295243173838,0.068712510169,0.060158278793,-0.176563814282,-0.594414830208,0.642875075340,0.706963479519,0.010419217870,0.207950785756,0.074062623084,-0.407381713390,0.207674950361,-0.026580911130,-0.228677883744,0.104034148157,-0.009674353525,0.433989286423,-0.204507425427,-0.463609099388,0.068353287876,0.045254625380,0.070618018508
0.322509169579,0.221689403057,-0.063341639936,0.166195958853,-0.042254701257,0.076341658831,-0.038963295519,0.268346905708,0.172486484051,0.060133364052,0.261837601662,0.111153878272,-0.167218178511,-0.217183634639,-0.310183882713,0.298649460077,0.097836695611,0.213030144572,-0.199858963490,0.003400943475,0.036190766841,-0.109997048974,-0.266769319773,0.156370058656,0.085311174393,-0.065802484751,0.595228612423,-0.069665431976,0.112481027842,-0.139497593045,0.592106997967,0.158323973417,0.046717766672,0.370553404093,-0.062983147800,-0.044157315046,0.705071687698,0.344999492168,0.084622196853,-0.260245800018,-0.152808785439,-0.054535873234,0.134637162089,-0.201463311911,-0.470405489206,0.261652290821,0.174413591623,0.300817489624,-0.042603831738,-0.049491100013,0.137606799603,0.443521708250,0.171383351088,0.565515816212,-0.083156973124,-0.144007429481,0.374831438065,-0.232982560992,0.528395116329,-0.184596285224,0.549113869667,-0.585885703564,0.454611510038,0.396867424250,-0.194055363536,0.143549084663,-0.095155350864,0.357097595930,0.301181852818,0.034675162286,0.462585538626,-0.056298017502,-0.382261753082,-0.116834513843,-0.416837543249,0.007090168539,0.001583838835,-0.196505799890,-0.224132224917,-0.260751903057,0.720875740051,0.070666804910,0.225363910198,-0.110863484442,0.583371877670,-0.022754194215,0.006068973802,-0.115099936724,0.020547583699,-0.207426786423,-0.027369063348,0.395346075296,0.040161330253,0.271174967289,-0.077609285712,0.103994637728,-0.280771017075,0.372072160244,-0.423716813326,-0.045922148973,0.003239172976,0.345949709415,0.086920604110,0.282301634550,0.047706145793,0.130927443504,-0.296128362417,-0.472420245409,0.068568043411,-0.143883109093,-0.137308940291,-0.435300171375,-0.151153698564,0.592399716377,0.058612983674,-0.047657120973,-0.174300953746,-0.054912060499,-0.193896293640,-0.286495894194,-0.164249643683,0.567042768002,-0.194655820727,0.494793891907,-0.522331118584,0.142825484276,0.187605306506,-0.294786602259
-0.196414008737,-0.470399111509,0.262229233980,-0.473448812962,-0.081521771848,-0.412498235703,-0.389328807592,-0.017309941351,0.036219242960,0.127686649561,0.196591004729,0.018538907170,0.069840416312,0.970755934715,0.309585750103,0.425572574139,0.143406420946,-0.047576799989,-0.076794594526,-0.120132274926,-0.685136258602,-0.478416711092,-0.148862928152,0.278010874987,-0.429987341166,0.252077639103,0.207051321864,-0.044924784452,-0.235032141209,0.002190990373,-0.236221715808,-0.243289276958,0.047042030841,0.612028300762,-0.214598655701,-0.002187348669,0.118811465800,-0.181481882930,0.250922739506,0.020418992266,-0.242461711168,-0.048584982753,0.027235411108,-0.269165724516,0.103235796094,0.028097650036,0.088949397206,-0.152415886521,0.505847096443,-0.023827869445,0.103863470256,0.017473248765,0.358103543520,0.418065339327,-0.156764075160,-0.575399637222,-0.091099724174,0.159075036645,0.050282988697,0.135485365987,-0.880494654179,-0.562445461750,0.525293529034,0.193967685103,0.585846543312,0.383260101080,-0.191434949636,-0.565843462944,0.621697425842,-0.035618528724,-0.563645541668,0.116862751544,0.365917921066,0.314313203096,0.058099757880,0.360455214977,0.270055532455,0.132878571749,0.072997301817,-0.167508691549,0.248731866479,-0.241722345352,0.018311832100,0.101713746786,0.172821834683,-0.089908502996,0.183476239443,0.242888197303,-0.134073197842,-0.077166758478,-0.021978152916,0.700555801392,-0.645627081394,-0.213269963861,0.315528988838,-0.579933464527,0.023391503841,-0.068039119244,-0.030789213255,0.235608980060,-0.563713073730,-0.004424070474,-0.191759273410,-0.291695535183,0.280318379402,-0.056589566171,0.066977128386,-0.277449339628,-0.144770935178,0.009772628546,0.300474315882,-0.132478401065,-0.071587592363,0.365012526512,-0.008438425139,-0.003914764617,0.113797388971,0.070530325174,-0.206245183945,-0.072211965919,-0.119160950184,-0.012638921849,-0.041269339621,-0.841604769230,0.105254366994,0.197419568896,-0.237864404917,-0.288072258234
-0.066533140838,-0.046259745955,0.008698942140,-0.175712183118,-0.007661326788,0.189162924886,-0.055245224386,-0.003444110742,-0.010079069063,0.073601454496,-0.015283573419,0.059346809983,-0.151637822390,-0.039435200393,-0.051682174206,0.041144158691,-0.151148021221,-0.028341975063,0.082395151258,0.118792884052,0.042551878840,-0.118010193110,-0.151675611734,0.145237371325,0.062554672360,0.380280822515,-0.017302462831,0.181785628200,0.007490618620,-0.437450081110,0.015201021917,-0.131467387080,0.056068807840,0.028084540740,0.007893452421,0.005386476871,0.097315080464,-0.043933559209,0.118740528822,-0.203187450767,-0.014754625037,0.103317268193,0.294411599636,-0.064085960388,2.184931516647,-0.010337229818,-0.024310857058,0.161685615778,-0.060573235154,-0.046657513827,-0.090937636793,0.067237250507,0.214119642973,-0.253506779671,0.268177211285,-0.078233115375,-0.109896749258,0.097796179354,0.188964724541,0.074898570776,-0.014386939816,-0.170598194003,-0.052992355078,0.010868639685,-0.133826211095,-0.094969265163,-0.092188060284,0.061494711787,0.083695806563,-0.013056448661,0.230308547616,0.005645753350,-0.537148118019,-0.284493446350,-0.044580060989,-0.044672410935,0.076917290688,0.003519276856,0.260461509228,-0.585596203804,-0.224040538073,0.047234151512,0.041326053441,-0.022937996313,0.104106210172,-0.321307271719,0.056939639151,0.130320385098,-0.205745190382,0.023240031675,-0.122607387602,0.046734161675,-0.048523854464,-0.021237349138,0.245905965567,0.338772475719,0.198656544089,-0.088196121156,-0.052406623960,-0.124673709273,0.259915649891,0.402190506458,-0.102969914675,0.142770528793,-0.061959985644,0.025636816397,-0.155024424195,-0.100882962346,-0.009739091620,0.004613598343,0.197277128696,-0.296041816473,-0.090469293296,-0.009166453034,-0.379458576441,-0.001330506289,0.056777752936,-0.032377477735,-0.143398582935,0.257315784693,-0.031868889928,-0.184635579586,-0.046445507556,-0.027348501608,2.363662719727,-0.037814695388,-0.060344051570,-0.128252238035
-0.050729744136,-0.117567680776,-0.131425514817,-0.104649238288,0.237831935287,-0.279369145632,-0.048483066261,-0.027394361794,-0.014850760810,0.566707015038,-0.189200922847,0.082263596356,-0.110493019223,-0.206214681268,0.041720677167,-0.056099455804,0.043610446155,-0.179255500436,0.083209916949,-0.058108933270,0.040172550827,-0.139590039849,0.051639668643,0.175681456923,-0.879203081131,-0.162252292037,0.300698935986,-0.176796615124,-0.109358951449,0.118404850364,-0.353998035192,0.400967150927,-0.067930817604,-0.020063087344,-0.485260158777,-0.678130447865,0.237993270159,0.108303733170,-0.017139198259,0.024968910962,-0.010585725307,0.035591021180,0.193769097328,0.846285641193,-0.000501442410,-0.059442803264,0.053245719522,0.053150378168,0.429512113333,-0.028913961723,0.151805475354,-0.157340124249,0.514261484146,-0.341329872608,0.099784947932,0.291164129972,-0.018287891522,-0.290425777435,0.158174365759,-0.127365306020,0.085297927260,-0.099171184003,0.625815391541,0.071575358510,0.030334040523,-0.020691102371,0.752334952354,-0.232052147388,-0.018734255806,0.064177244902,-0.126266151667,0.023179521784,0.098380513489,-0.576159000397,-0.307455509901,0.212146580219,0.038292873651,0.825041413307,-0.169496625662,-0.013103717007,0.053780928254,0.021479481831,-0.520137906075,0.350540876389,0.122126348317,-0.083324432373,0.034394778311,-0.210443839431,-0.799608349800,0.033817414194,0.015284109861,0.547168076038,-0.035348448902,-0.073687866330,-0.060086194426,0.090718656778,0.077426798642,0.258788496256,0.002558808308,-0.012186000124,-0.816052019596,-0.050207648426,0.072094529867,-0.661253571510,0.563290834427,-0.531210899353,0.069409213960,0.141787499189,-0.849073112011,-0.040554881096,0.002978939563,-0.032585747540,0.146050095558,0.514979004860,0.132499203086,-0.042070809752,0.065857708454,-0.059984609485,-0.145171836019,0.270762860775,-0.090486146510,0.125524148345,-0.146094143391,0.084326945245,-0.004571928643,-0.384734660387,-0.116973832250,-0.013275388628
0.204656764865,0.286320507526,0.013983240351,0.057638492435,0.261326640844,-0.362777411938,0.474582821131,-0.001155997859,-0.027736146003,0.160782545805,0.004087089095,-0.029579471797,-0.437312960625,0.256171494722,-0.106798671186,-0.478933393955,-0.186398833990,-0.053337987512,-0.211885407567,0.202064275742,-0.061126388609,-0.123657010496,-0.103536315262,0.070647075772,-0.262700200081,-0.069992467761,-0.537321567535,-0.304423689842,0.284299880266,0.120018526912,-0.150092199445,-0.044035341591,-0.076143570244,0.660203516483,0.096852228045,-0.101778775454,0.481050282717,0.288523167372,0.197985872626,-0.184360608459,-0.171829238534,0.336117684841,0.378523886204,0.373744070530,-0.082581676543,0.527066051960,0.034941151738,-0.179563060403,0.001984132687,0.068008981645,-0.381175875664,0.262319087982,0.147128313780,-0.503209590912,-0.009247943759,-0.079989567399,-0.040362305939,0.190524205565,0.329355329275,-0.123765304685,-0.269736945629,0.141560703516,0.016985384747,-0.406664580107,0.169374272227,-0.426945507526,0.112960845232,0.659806966782,0.513799905777,0.231767728925,-0.291509836912,0.531917572021,0.244435325265,0.904431581497,-0.000450823281,0.120204903185,-0.009269768372,0.161549001932,0.141617551446,0.689526736736,-0.297088503838,-0.404936403036,-0.078659124672,0.017541969195,0.690099239349,0.133658289909,-0.365054845810,0.177157431841,0.203677773476,-0.024710183963,0.185704767704,-0.288264870644,0.218400508165,-0.210182249546,-0.338021814823,-0.589522063732,0.288497269154,-0.109839051962,-0.204790651798,-0.241914555430,-0.181486979127,0.053500797600,-0.126750543714,-0.153599023819,0.112882152200,-0.336740106344,-0.380844205618,0.200638219714,-0.158173754811,-0.345607608557,0.954840004444,-0.201356559992,0.417293518782,-0.309053301811,0.647158324718,0.381287157536,-0.368345230818,0.002000604523,0.376831978559,-0.591409742832,-0.568864881992,-0.072998024523,-0.018400888890,-0.292594671249,-0.048863809556,-0.362849533558,0.452895402908,0.186974912882
-1.093032360077,-0.006287645549,-0.144895136356,0.023677011952,-0.160098671913,0.032002210617,0.030775438994,-0.032194793224,0.311627686024,-0.047710347921,0.182028234005,-0.240602076054,-0.058454554528,-0.669711649418,-0.016063833609,-0.079303018749,0.148896485567,0.508221924305,0.174138963223,-0.205246284604,-0.348935067654,0.035318095237,0.144293516874,-0.278566807508,-0.015125652775,0.110443487763,-0.467378407717,0.054066512734,0.467448621988,0.327084243298,-0.242166280746,-0.061006639153,-0.518814742565,-0.298294186592,-0.299728512764,-0.277769446373,0.359141439199,0.195187032223,-0.511602044106,0.486662596464,0.333545237780,-0.276025772095,-0.122981861234,-0.049743171781,-0.002192974789,0.310980170965,-0.013892843388,0.269476830959,0.047611340880,0.037221595645,0.422804027796,-0.057222317904,0.343322515488,-0.057608436793,0.093607068062,-0.047791093588,0.110912188888,0.020103264600,0.063859894872,-0.126758068800,0.036447077990,-0.163453683257,0.350623100996,0.067274637520,-0.322913795710,0.237075820565,-0.124605260789,0.363068789244,0.105066984892,-0.057532772422,-0.170125439763,-0.278860330582,0.043932046741,0.017041545361,-0.173218518496,-0.099337503314,0.147916212678,0.036372240633,0.023569183424,0.473426342010,0.199124634266,-0.370129078627,0.052482794970,0.080036096275,-0.671418070793,0.527789533138,0.618147611618,0.262161225080,-0.036724161357,0.319556146860,-0.192697197199,0.483253061771,-0.140234947205,-0.007084177807,0.049876339734,0.649077236652,-0.326927632093,0.065000623465,0.972336709499,0.225673854351,-0.336556017399,0.016629500315,0.406814306974,-0.254323989153,0.141693308949,0.262677043676,0.285316377878,-0.349193483591,-0.037287343293,0.592463970184,0.373720198870,-0.175687581301,0.007842960767,0.266021907330,0.186360567808,0.587564110756,-0.151752695441,0.463264763355,-0.043953206390,0.332652747631,-0.390072643757,0.025645529851,-0.202441945672,0.039741043001,-0.012976313941,0.031268477440,0.135236144066,0.031274519861
0.084538497031,0.035302974284,-0.018424706534,-0.064843446016,-0.247515708208,0.392751216888,0.374414265156,0.178496047854,0.267956227064,0.317830830812,0.191979587078,0.220408737659,0.381556779146,0.092536978424,0.121082752943,0.440797984600,0.197271898389,-0.005120930262,0.336724489927,-0.057665657252,-0.117194414139,-0.126053988934,0.612102508545,0.125791043043,0.013096148148,-0.244387134910,0.246758937836,0.091461703181,0.157670825720,-0.021992737427,0.480018734932,-0.151524618268,1.795272707939,-0.285294771194,-0.106389664114,-0.469763427973,0.470960438251,0.219199776649,0.057009071112,0.086686573923,0.042114935815,0.029939062893,0.525923848152,-0.346704334021,-0.102559015155,-0.088483095169,0.598265647888,0.122305937111,0.048214804381,-0.062009349465,0.100881673396,0.634286403656,0.078550443053,0.523791134357,-0.088652879000,-0.029575398192,-0.023699240759,-0.026834459975,0.629339039326,-0.189961835742,-0.189032912254,0.064206913114,0.251985162497,0.456104397774,0.152667447925,-0.104362085462,-0.016959704459,-0.043012846261,0.064422197640,0.292262226343,-0.196738243103,0.266240715981,0.206991106272,-0.026762131602,0.414226233959,-0.234812885523,0.127370223403,-0.458344101906,0.447304695845,0.048406966031,0.194605886936,-0.059851430357,0.191544428468,0.149221986532,0.238772317767,-0.071404643357,0.073418378830,-0.083435453475,-0.104578889906,-0.415779829025,0.312691658735,0.004422023892,-0.064786225557,0.077012844384,0.041625406593,0.201346680522,0.159173130989,0.383231431246,0.861941754818,0.162389278412,0.003032026580,-0.069297425449,-0.160042986274,0.051481280476,-0.114069931209,0.151170641184,-0.004776504822,-0.260597527027,-0.038059648126,-0.233068734407,-0.190235495567,-0.609518349171,0.106790579855,0.324859023094,-0.419139623642,0.107396043837,-0.023845180869,0.340247899294,-0.150967672467,-0.037465944886,-0.053873520344,-0.126260802150,0.242341816425,-0.161459714174,-0.116455748677,-0.031677789986,0.346444010735,0.102766215801
-0.013273993507,0.020157145336,-0.062479287386,-0.004524286371,-0.015425861813,-0.101612649858,-0.031345192343,-0.035407513380,-0.166556715965,0.147960364819,0.008304958232,0.169422522187,-0.013044114225,0.636968433857,-0.030771018937,-0.017350373790,-0.035583846271,0.434042513371,0.003576528747,0.004163354170,0.015458797105,0.410258978605,0.002107107313,-0.573714792728,0.012015041895,-0.201383158565,-0.601893782616,-0.032815579325,-0.630836069584,0.066300146282,-0.212930172682,0.199533924460,1.690759778023,0.346072018147,-0.071673505008,0.396831959486,0.091791734099,0.003039955394,-0.005223370623,0.006549920887,-0.715512573719,0.005183266476,-0.422535538673,0.008214800619,-0.007581208367,-0.036617994308,0.065188221633,-0.052302822471,0.571545481682,-0.255960494280,0.111922122538,-0.128563314676,0.286509871483,-0.033497668803,0.064156211913,-0.005089559127,0.110476374626,-0.166331872344,0.145536780357,-0.054093733430,0.009429578669,-0.001733061974,0.001251207781,0.250081419945,0.003571447683,0.024745313451,-0.040954910219,0.245955765247,0.112481527030,0.317236542702,-0.024936087430,-0.329564034939,-0.003615717171,0.012736997567,-1.853058934212,0.619104802608,0.031556546688,0.230766460299,0.000105255407,0.021055765450,0.472653776407,-0.318354249001,0.033146973699,-0.090800330043,-0.045558735728,-0.012943624519,0.006909226999,-0.135153397918,0.019871138036,-0.060226026922,-0.671117663383,-0.188284575939,0.059832852334,-0.032987039536,0.003756023478,0.225772082806,0.187817275524,-0.305860519409,-0.008285636082,-0.003478235332,0.034134145826,0.263089925051,0.001763639972,0.023679962382,0.001196979778,0.005358646624,-0.425762325525,0.349617183208,-0.012188682333,0.008035640232,0.144821017981,0.551198601723,0.365434616804,0.070825777948,-0.028906676918,-0.009418776259,-0.020272076130,-0.022506330162,-0.104555457830,0.261052519083,-0.026737120003,0.406819611788,0.457989811897,0.000513060950,-0.009802679531,0.003113785991,0.126558631659,0.231469079852
