0.293365180492,0.101086691022,0.214292183518,0.128926575184,-0.563373684883,-0.217116236687,-0.126007884741,-0.182624101639,-0.220722958446,-0.159654468298,0.025076992810,0.111785210669,-0.027208998799,-0.101799778640,-0.199033305049,-0.188240006566,-0.627009510994,-0.052888020873,-0.300401002169,-0.050525203347,0.452417135239,-0.439462989569,-0.002156838775,0.086698003113,0.535887360573,-0.028367107734,-0.583260357380,-0.043421059847,0.437781989574,-0.021962720901,-0.593053162098,0.069703452289,-0.057533174753,0.024337010458,-0.137090474367,0.233807682991,-0.111323907971,0.046963106841,-0.512366890907,0.030585676432,0.114142045379,-0.012296515517,-0.023081567138,0.050697736442,0.089573368430,-0.024338612333,0.349042475224,0.059607710689,-0.892187774181,-0.003368571401,0.041986811906,-0.064188793302,0.194927439094,-0.097667127848,0.231378510594,-0.033676546067,-0.068243853748,-0.171614632010,-0.104926086962,0.030301885679,0.491156429052,0.038276977837,-0.028994705528,0.082111500204,-0.079192198813,-0.309563994408,-0.601934075356,-0.126514762640,0.044268615544,0.360608965158,-0.105163276196,-0.336923509836,0.316052138805,0.226611390710,0.119625359774,0.261953026056,-0.094057723880,0.272127419710,0.494232714176,0.410863220692,0.076377220452,0.188529729843,-0.368617057800,-0.069289088249,0.048578023911,-0.291388005018,0.435694277287,-1.144553661346,0.350138843060,0.069205217063,0.189690738916,0.006597254425,-0.215516299009,-0.047522898763,0.123065128922,0.141586452723,-0.160097405314,0.028685864061,0.073201440275,-0.001370806713,0.196069255471,-0.200545147061,0.085339538753,-0.030219368637,-0.100264325738,0.321487694979,0.382263422012,0.751756370068,0.032254964113,0.028086423874,-0.377429455519,-0.003358393675,-0.410554617643,-0.008288433775,-0.179260715842,-0.307844936848,-0.246441736817,0.333317101002,-1.054360628128,0.058831736445,-0.046670276672,0.099735632539,-0.093940138817,-0.189439669251,0.205917507410,0.110013313591,-0.024054320529,0.228801980615
-0.049568999559,-0.189879864454,0.255066931248,-0.422745227814,-0.179398864508,0.005043238867,-0.194042712450,0.144615530968,0.580948948860,-0.108854010701,-0.249165713787,-0.283237040043,0.062835954130,-0.098419666290,-0.293644398451,0.190678387880,-0.163802981377,0.153917178512,-0.103504575789,-0.031877771020,-0.280903786421,-0.116674222052,-0.387053847313,0.280711203814,0.301161170006,0.154030099511,-0.424270868301,0.453779816628,-0.000146950872,0.854596912861,-0.200812280178,-0.223387107253,-0.300338476896,0.049357999116,-0.037663839757,-0.387997210026,0.030900491402,0.015879699960,-0.183146506548,0.249075725675,-0.161367371678,-0.405850708485,0.024504492059,-0.185292258859,-0.103731825948,0.058012846857,0.653609216213,-0.105388306081,0.766682982445,0.282575517893,-0.110709734261,-0.069570124149,-0.078887172043,0.525999903679,0.102702453732,0.288311123848,0.214090928435,-0.327594995499,0.431929320097,0.059358485043,0.176605805755,0.027964215726,-0.039542160928,-0.082707345486,-0.030114766210,0.058656893671,-0.293691128492,0.252408921719,-0.267230868340,0.405398488045,-0.366824448109,0.089316472411,0.049666207284,0.239676848054,0.030338695273,0.033429335803,0.226629137993,0.371317595243,-0.000354925112,-0.311201781034,0.007829176262,-0.136870846152,0.009212343022,0.264373630285,-0.114327669144,-0.114613942802,0.361001521349,-0.286211550236,-0.211607411504,-0.593125700951,-0.284376323223,0.201638147235,-0.004962847568,-0.523946881294,-0.369496554136,-0.133059963584,0.037930808961,0.126888155937,0.053618010134,0.055312216282,0.568475663662,1.153477668762,-0.019418751821,0.058957349509,-0.066091962159,0.083402395248,1.103823900223,0.310008108616,0.034946680069,-0.130698442459,-0.861742794514,-0.148545637727,0.765710771084,-0.142429694533,-0.181592524052,-0.656681418419,-0.399408668280,-0.066987186670,0.032510206103,-0.076122857630,0.213049426675,-0.472042024136,0.083519198000,0.033542960882,-0.161839663982,-0.005121576600,-0.001808481524,-0.517754912376
0.307813495398,-0.021829687059,-0.047022450715,-0.089119471610,0.012917155400,-0.003625670448,0.083827383816,-0.241411939263,0.052683845162,-0.098562233150,-0.033769171685,0.087628170848,0.031246935949,0.493451178074,-0.310436964035,-0.269734978676,-0.052770782262,-0.146129742265,0.265168398619,0.039709221572,-0.055216614157,-0.068271264434,-0.076179280877,0.123334668577,-0.557570278645,-0.021942818537,-0.088948279619,0.125189214945,0.047295395285,0.124609120190,1.179001688957,0.037791065872,0.026045050472,0.012269509956,-0.198588848114,0.245843648911,0.456630617380,0.028210505843,1.081815600395,0.052285574377,-0.879071772099,0.015931073576,0.201209232211,0.073753431439,-0.084350049496,0.014502136037,0.019160049036,4.894376754761,0.146134376526,0.047346070409,-0.206827417016,-0.025289844722,-0.017922030762,-0.004247966222,0.032473456115,0.011188859120,0.019829547033,-0.028975058347,0.163907721639,-0.101630575955,-1.186966300011,0.015017206781,-0.035369627178,-0.227909579873,-0.004507097881,0.048767618835,0.073430456221,-0.017884729430,0.016428032890,0.081475555897,-0.043144874275,-0.564808547497,0.121254384518,-0.369626343250,-0.071072019637,0.000195189335,-0.036745853722,-0.053207851946,-0.049946673214,-0.105385616422,-0.370975941420,0.066634058952,0.120572268963,-1.380091309547,0.080451093614,3.229217529297,-0.011254907586,-0.251037806273,-0.617548465729,0.049443997443,-0.251381039619,0.174063250422,1.912117004395,0.015519694425,0.081941142678,-0.542294681072,0.563444137573,-0.013890583068,-0.160782873631,0.104876652360,-0.001590555999,-0.001469493727,-0.480218768120,-0.226322874427,-0.054263617843,0.582828342915,0.067241713405,-0.007620397490,-0.273516654968,0.078178942204,0.206697881222,0.044202417135,0.011949613690,0.066973648965,0.039861187339,-0.003514269600,0.032324045897,-0.068098574877,0.165123775601,-0.013410001062,0.020417612046,0.103235386312,0.005478727166,0.163433894515,0.259381234646,-0.178535088897,-0.011923857033,0.522518575191
-0.003489464289,0.038570381701,0.079132258892,0.129262670875,0.036788128316,0.068421088159,-0.047315109521,0.139678433537,-0.117560081184,0.065581679344,-0.213673487306,-0.244517877698,0.027136296034,-0.161308526993,-0.018629822880,-0.297359734774,-0.004157626536,0.198358178139,0.005753716920,-0.221481427550,0.179139494896,0.077434800565,-0.163530856371,0.081320531666,-0.098754987121,-0.197535187006,-0.051774375141,-0.019397160038,0.049057245255,0.239368155599,0.067063771188,0.008826516569,-0.098302781582,2.541501045227,-0.120348066092,-0.018111091107,-0.383300006390,-0.043066304177,-0.039740458131,0.032766848803,0.577517986298,-0.011873538606,0.010405428708,0.065658777952,0.006870738231,-0.133370667696,-0.054860536009,-0.168507665396,0.189936608076,0.097011402249,-0.102364063263,-0.094621486962,0.163409501314,-0.082716517150,-0.087851561606,0.075748898089,-0.022971702740,0.033287897706,0.021630268544,-1.190584301949,0.000881717715,-0.006679340731,-0.010014218278,0.639812290668,-0.036975640804,-0.136485144496,0.060377638787,-0.026164386421,0.115065209568,-0.160397186875,-0.018888430670,-0.086229525506,0.047458875924,0.074797451496,-0.026383755729,-0.074041649699,0.041018344462,-0.030840193853,0.006215229630,0.068719536066,-0.245254009962,0.304298579693,-0.004511755891,0.083002522588,0.058174893260,0.033309333026,0.078626893461,-0.019540216774,0.430470317602,-0.153988763690,0.154091566801,0.103521950543,0.011567118578,0.091068558395,0.081821233034,0.445808142424,-0.068805553019,0.088627278805,0.007400439586,0.015003624372,0.140676587820,-0.097473397851,0.061554621905,0.041271220893,-0.014978975989,0.076902367175,0.069993577898,-0.101234190166,0.052785772830,-0.047297507524,0.107132501900,-0.026543149725,-0.197944134474,-0.070476017892,-0.075774200261,-0.006928608753,0.213031738997,-0.152777627110,-0.011116090231,-0.140373557806,-2.742200851440,0.082225218415,0.474723160267,-0.065059490502,0.288273483515,-0.107478834689,0.143387377262,-0.156519114971
-0.788396954536,-0.002840536181,0.481446653605,-0.005443563685,-0.191741511226,-0.009469671175,-0.013461550698,0.670188844204,-0.002757234732,-1.304778695107,0.013758613728,0.027418076992,0.019250199199,-0.028561137617,1.237661242485,-0.109144963324,-0.065906971693,-0.002608986804,0.031218813732,-0.025351632386,-0.274473637342,-0.102740921080,-0.011896763928,-0.272254884243,0.071295149624,-0.009595189244,-0.153920799494,0.095813535154,0.026649877429,0.002494135872,0.345437765121,0.019664086401,-0.025592586026,-0.007040520664,-0.003163802903,0.161866471171,-0.294886022806,0.005724995863,-0.817009985447,-0.007875787094,0.118790559471,-0.003165434580,0.035139050335,-0.043309208006,-0.005817912519,-0.010610381141,-0.006191431545,-1.457577228546,-0.136304035783,0.030889272690,-0.007987425663,0.101126775146,-0.039647649974,0.001261352678,0.083588391542,-0.004843169823,-0.054622571915,0.033181108534,0.257252067327,0.034614726901,0.865899205208,-0.035754229873,0.034031983465,0.205264434218,0.003008876229,0.395829021931,-0.198198094964,-0.337329506874,0.042872659862,-0.719496130943,-0.014127933420,-0.004121051636,0.004456762690,0.300990194082,-0.593748390675,-0.420843005180,0.027606066316,-0.173578158021,1.109533190727,0.446568876505,0.287245601416,-0.051243051887,-0.725875616074,0.068824194372,0.014428774826,0.004039545078,-1.642441391945,-0.040761452168,-0.096990361810,0.010718577541,-0.070688724518,0.057991717011,0.165068566799,0.047605313361,0.050374168903,0.341231703758,-0.324052602053,0.034623660147,-0.018414981663,0.004213356879,0.058654773980,-0.036063376814,0.252223819494,-0.006705519278,-0.019326779991,-0.075507104397,0.037262529135,0.677387833595,-0.007539269980,0.010382611305,-0.006760507356,-0.045999836177,-0.018885625526,-0.004750097170,-0.435703694820,0.012273306958,0.001443593181,0.217709541321,-1.060022473335,0.004941582680,-0.001323055010,0.035964254290,-0.036725848913,-0.408733874559,0.097237274051,-0.016507629305,0.019118480384,-0.559171378613
0.220089584589,0.558894932270,-0.133613735437,2.311233043671,0.413069069386,0.257803022861,0.378039658070,0.145039692521,-0.063280820847,0.350790858269,-0.172890901566,-0.401501893997,0.325651496649,0.474096447229,-0.203610435128,-0.223437353969,0.370766192675,0.089154832065,0.419437944889,-0.034267816693,0.280994832516,0.419360131025,0.912402570248,0.078192956746,0.026386426762,0.026507854462,0.156616196036,0.041960936040,0.299396514893,0.100761935115,0.299833327532,-0.233154729009,-0.093234293163,0.001387424301,-0.043156821281,0.127680078149,-0.144475266337,0.123792715371,0.016668584198,0.021708112210,-0.429379492998,0.030982272699,0.141193836927,0.040374312550,-0.093134053051,-0.097558766603,0.049025762826,0.170712068677,0.158695161343,-0.010918599553,0.064387083054,-0.165547043085,0.284892320633,-0.014801815152,-0.173295021057,-0.112748980522,-0.258302122355,0.233355715871,0.299525797367,0.044706251472,-0.100936219096,0.202213883400,-0.043756496161,0.222376093268,0.142659842968,-0.018057955429,0.303209781647,0.384671777487,-0.159120962024,-0.204666316509,-0.494058966637,0.093392983079,-0.173664540052,-0.185586273670,0.005767514929,-0.057437714189,0.569300472736,0.072185941041,0.442250519991,0.207226231694,0.078978933394,1.124151468277,-0.002077391138,-0.291330516338,-0.070140190423,0.137862741947,-0.533303558826,0.550853550434,0.223926931620,0.245704174042,0.047461241484,-0.094036571681,0.741929888725,-0.210808739066,0.227063313127,0.313341617584,-0.124458752573,-0.034666992724,-0.208138316870,0.086878493428,0.041947610676,0.278491050005,0.289324998856,-0.005956593435,-0.036599252373,0.246380969882,0.033513177186,-0.099174670875,-0.208849892020,0.393116831779,0.125330328941,0.010146388784,0.078113079071,0.210382848978,0.232989668846,0.232080891728,0.085266321898,-0.281469255686,-0.111698679626,0.031138222665,-0.317221730947,-0.189202889800,-0.148049548268,0.486096769571,0.219581365585,-0.053150195628,-0.091031059623,0.224284380674
0.045910526067,-0.424914032221,-0.142531901598,2.229051351547,0.140452817082,0.035166308284,0.020181521773,0.215432092547,0.340473264456,-0.049779426306,0.419680505991,-0.116982296109,0.011734967120,-0.327474296093,0.091681450605,0.146089673042,0.040184140205,-0.245100334287,-0.009345189668,-0.333314090967,-0.164210587740,-0.156301364303,0.036143980920,-0.012436042540,-0.065293334424,0.099734313786,0.354395985603,0.339081555605,0.019281383604,0.276957213879,0.074426040053,0.195002689958,0.313184708357,-0.082358382642,0.054120838642,-0.039585877210,0.037865336984,0.018419435248,0.486062496901,0.162705495954,-0.214105606079,0.356614083052,-0.176561161876,-0.058803323656,0.058766279370,0.039638075978,0.074994616210,0.308973908424,0.212075263262,0.060010254383,0.005835712887,0.097282193601,-0.211415871978,0.324090868235,-0.128334358335,-0.266555607319,0.036343075335,0.101593166590,-0.266774356365,-0.003330660518,-0.448534637690,0.346414715052,0.023506160825,0.064336687326,0.431146711111,-0.062727510929,-0.071792855859,-0.326618969440,-0.080279737711,0.017038596794,-0.123878978193,0.131342798471,-0.006550230552,-0.828535020351,-0.048116821796,0.186169549823,0.312285095453,0.080826930702,0.123614951968,-0.129223823547,0.053792264313,-0.059278119355,0.151385113597,-0.054795783013,0.583888649940,0.207862272859,0.250688225031,-0.176627516747,0.004175184760,0.891880393028,0.295167535543,-0.084453158081,0.369592756033,0.078207224607,-0.173365950584,-0.186346128583,0.368366032839,-0.058319717646,-0.419908076525,0.258508116007,-0.149522528052,0.106687061489,-0.231195658445,-0.135055974126,-0.108764015138,0.190996289253,0.155735775828,0.103346116841,-0.145127743483,-0.172530665994,-0.178569421172,0.105116061866,0.053554318845,-0.201202780008,0.304381221533,0.048786245286,0.243966802955,0.179601296782,0.271467715502,0.331780135632,-0.038347106427,0.567334473133,0.668240070343,-0.080267578363,-0.018244264647,-0.459047913551,-0.335866987705,0.540727734566
-0.056317329407,-0.258355140686,0.034147683531,-6.820927143097,-0.007405565586,-0.016560319811,0.144396707416,0.232248395681,-0.103314593434,0.026093384251,-0.227913796902,-0.096425734460,0.122748412192,-0.718994557858,0.091486386955,0.272406518459,0.004714918789,0.074319794774,0.017884602770,0.138573572040,0.025136573240,0.018509469926,-0.373491048813,-0.056990828365,0.348261624575,0.235592842102,-1.721491575241,-0.382270127535,0.086742870510,0.936653733253,-0.020086960867,-0.045024923980,0.571339666843,-0.005051825196,-0.081210367382,0.026604080573,-0.123990505934,0.312018036842,0.147656783462,-0.625695109367,0.144374623895,0.376617282629,0.284153491259,0.110438786447,-0.001258289092,0.005240625236,-0.090014994144,0.021855980158,1.194548010826,0.337432861328,-0.040202438831,0.018980199471,0.162752002478,-0.108644537628,-0.027021814138,0.164688229561,0.224737018347,-0.006116247270,-0.041277475655,0.037774559110,-0.158836483955,-1.720001339912,-0.042664218694,0.095036260784,0.011455989443,0.009363469668,0.070768155158,-0.024138076231,0.051311843097,-0.015379959717,-0.039576157928,0.396934211254,-0.011785445735,-0.019835846499,0.007563663647,0.000799479370,-0.017525482923,0.086951784790,-0.015210075304,-0.031343199313,0.166438654065,-0.119452126324,-0.011280765757,-0.037504196167,-0.136691793799,0.021467486396,-0.010819944553,-0.018081067130,0.038358736783,0.251198142767,-0.035476759076,0.107946604490,-0.150627523661,0.032887987792,0.013214858249,0.142123728991,-0.380715906620,0.016246015206,0.763558924198,0.075104281306,0.037790630013,0.002402666956,0.284566164017,-0.010442890227,-0.011116388254,-0.252240687609,-0.045321121812,0.001894786721,0.030054068193,-1.143789291382,-0.000488766236,0.127577170730,0.005283862352,0.062662072480,-0.013097997755,0.029143149033,-0.030447835103,0.113938145339,-0.011009887792,-0.104087688029,0.026375036687,-0.113128475845,-0.416545599699,-0.028852846473,-0.240716904402,-0.118542149663,-0.072155848145,-0.514102816582
-0.021479632705,1.204395532608,0.012655862607,2.526974916458,0.019985912368,0.003112981794,0.055069908500,-0.030531954020,0.051024530083,-0.032709572464,-0.052242618054,0.016603341326,0.053699839860,-0.523076117039,-0.046544082463,-0.010919705033,-0.007823323831,0.424768537283,0.021193891764,0.075420692563,-0.053752969950,-0.007857028395,1.088313102722,0.050483223051,-0.055854130536,0.533021271229,0.416012287140,-0.232432797551,0.046006605029,-0.048950608820,0.006610323675,0.000082770610,-0.612648367882,-0.007327262778,0.054393611848,-0.018522672355,0.102995797992,-0.632936179638,-0.226571500301,-0.241961658001,-0.202639728785,0.769781708717,0.160418629646,0.025106092915,0.017818726599,-0.270360112190,-0.010917798616,0.111189782619,-0.091109871864,-0.029980424792,-0.098908260465,-0.019151566550,-0.008209739812,-0.002613506513,-0.008173614740,-0.174741104245,-0.077892005444,0.053509019315,-0.028279786929,-0.017605205998,0.219256713986,-0.057741981000,-0.111186705530,-0.048995129764,-0.168211832643,0.022589853033,0.028464147821,0.036991350353,0.043552871794,0.013885223307,0.025998232886,-0.048049036413,-0.027278348804,-0.070706643164,0.016033137217,0.003982903436,-0.021238554269,-0.018451550975,0.009224165231,-0.000718193129,-0.070031411946,0.014802796766,-0.019467832521,-0.005588584114,-0.086838118732,0.015518959612,-0.017040964216,-0.015762984753,-0.160015851259,0.105660051107,-0.016255462542,0.186291486025,-0.134646430612,-0.039067983627,-0.020672857761,-0.102003574371,0.052607480437,-0.003743882524,-0.292200803757,-0.016495702788,0.006802443881,0.004053787328,-0.020849484950,-0.060328055173,0.009011214599,-0.492005079985,-0.019407017156,0.005780669395,-0.160062178969,1.220771193504,0.032593216747,-0.070175915956,-0.004801896866,-0.005143093411,-0.019409855828,-0.046698223799,0.126114308834,-0.021783599630,-0.010169693269,0.032343342900,0.010202432051,-0.237288087606,-0.130571648479,0.045480057597,-0.007960674353,0.304413050413,-0.000871098426,0.153930008411
-0.207964643836,-0.073501020670,-0.100708171725,0.389962941408,0.459028929472,0.040260467678,-0.140253141522,-0.717235028744,0.195281580091,-1.925934553146,0.680797815323,-0.554187595844,-0.019651537761,0.077757298946,0.018804814667,0.601379752159,-0.349027365446,-0.051455762237,-0.167888998985,-0.010098130442,-0.675941824913,0.363563686609,0.037829544395,0.108340926468,0.439798086882,-0.202568486333,0.213092267513,-0.126851126552,-0.262410819530,0.064599581063,0.085097335279,0.047197662294,0.078063279390,-0.024750472978,-0.026653133333,-0.115575462580,-0.130635038018,-0.141872659326,-0.256987452507,-0.115277230740,-0.174365803599,0.076498962939,0.001634272165,0.567919731140,-0.037739600986,0.019490800798,-0.150823220611,-0.328402638435,-0.081651352346,-0.043629728258,0.292113184929,-0.608910799026,0.180479511619,0.052090298384,-0.508667588234,0.089760512114,-0.060082219541,-0.290521174669,-0.159431383014,0.071344912052,0.441153347492,0.043953411281,0.032401800156,0.429647177458,0.032845627517,0.575216650963,0.391346514225,0.251579016447,-0.065708532929,-0.323147118092,-0.026658255607,0.845054864883,-0.008499112912,0.194026455283,0.194783031940,-0.114242322743,0.361140847206,-0.124801963568,-0.247006103396,0.362759888172,0.617869853973,-0.118066564202,-0.404460310936,-0.266757011414,-0.159548565745,0.174714669585,-0.263821184635,-0.517117381096,0.082138486207,0.009183506481,-0.118484735489,-0.092758342624,-0.510467350483,-0.571616113186,-0.100792869925,0.148948818445,-0.191539451480,0.140723243356,0.125203892589,0.054163843393,-0.237325176597,0.097748130560,0.144411757588,-0.024291437119,0.059167515486,-0.105148471892,0.025858046487,-0.521728277206,0.029856968671,0.092388451099,0.239788115025,-0.109459765255,-0.004911839962,0.195301502943,0.106214478612,-0.095406562090,0.332406431437,-0.209786772728,-0.966566264629,0.185733094811,-0.020157648250,-0.054562840611,-0.000521834940,0.001554447925,-0.528104245663,0.112548500299,-0.112506136298,-0.059987217188
0.290003001690,-0.019893899560,-0.191701799631,0.059805277735,-0.774209678173,-0.073710024357,0.067842505872,-0.933342218399,0.005988303106,-0.465077191591,-0.081064336002,-0.000240540583,-0.028395438567,0.133188426495,0.555883467197,0.633551955223,-0.836227774620,-0.051714532077,0.000749334809,0.013869726099,-0.453093081713,-1.403362035751,0.010615929030,-0.234618946910,0.617929041386,-0.034807685763,-0.028550926596,-0.025880837813,-0.023406552151,-0.031138593331,-0.176584675908,0.036351419985,0.019147947431,0.016651950777,0.079160280526,0.767443716526,-0.096452973783,-0.018389236182,0.174274131656,-0.004884124268,0.107524625957,-0.001591573120,-0.036555171013,0.044339444488,-0.011125610210,0.024083454162,-0.090462714434,0.158504277468,0.037222307175,0.050887357444,-0.083187341690,-0.425152450800,0.086309731007,0.073806755245,0.720819413662,-0.005118213594,-0.004795085173,-0.024115784094,0.254353135824,0.047736898065,-0.198823794723,-0.007435506210,0.017147796229,0.022598147392,-0.014692477882,-1.530730247498,-1.436568498611,-3.767658948898,0.038832381368,-0.552594542503,-0.057923533022,0.769192218781,-0.032433509827,0.089886382222,0.109397858381,0.067267656326,0.098132863641,2.376114845276,0.010950920172,-1.305349946022,0.051242947578,-0.004650837276,-1.008329510689,0.136042535305,-0.002907817950,0.050884336233,-0.125596761703,0.102825008333,0.329333841801,0.020891072229,-0.007993184961,-0.060511104763,-0.165215000510,0.081121549010,0.011510253884,0.110342368484,0.146562591195,-0.006159917451,0.016558818519,0.011824576184,-0.149590089917,-0.034090612084,-0.110996335745,0.009805204347,0.022084385157,-0.063567571342,-0.063338637352,-1.267442345619,-0.053844790906,0.048402916640,0.024674603716,-0.030894722790,0.005213747732,-0.080358676612,0.145675629377,0.063703246415,-0.036669664085,-0.710621893406,0.179384648800,-0.032883901149,-0.018335884437,-0.017946934327,-0.101578228176,0.416654229164,-0.543011367321,0.006878202781,-0.003397525754,0.233351066709
-0.179347947240,-0.539254367352,0.120018459857,0.995842397213,-0.376497656107,0.118937827647,-0.367981165648,0.157776862383,-0.062616378069,-0.149999126792,-0.099435575306,-0.299290627241,-0.572161138058,-0.579785764217,0.438518732786,0.471376657486,-0.010264274664,0.034569941461,-0.845307707787,-0.478426903486,0.573852002621,0.193471372128,0.500532746315,-0.435356199741,0.562663376331,0.061523653567,0.310004383326,0.185525387526,-1.300985574722,-0.301893889904,0.304871946573,-0.108048498631,0.021574666724,0.102414391935,-0.073895916343,0.156660929322,0.083965100348,-0.025220947340,-0.223789200187,-0.083899989724,0.208134651184,-0.237570673227,0.545606911182,-0.869563579559,0.018391227350,0.016012500972,-0.299172967672,-0.318643629551,0.156416073442,-0.078665934503,0.128309264779,-0.434631228447,0.373267054558,0.209287956357,-0.169879794121,-0.317496746778,0.040970873088,-0.481767386198,0.164884254336,-0.017972769216,0.229891538620,-0.030405282974,0.382117033005,0.223702877760,-0.012112316675,0.238929614425,0.305392682552,0.006879230496,-0.154762074351,0.135460034013,1.160763502121,-0.119146198034,-0.401864945889,0.215597510338,-0.106737188995,-0.058039493859,0.036398764700,-0.001992235892,-0.025143915787,0.351844251156,0.226328864694,0.237445354462,-0.249058008194,-0.114589996636,-0.091096833348,-0.004017099272,-0.413829773664,0.267158508301,-0.352147310972,-0.040509968996,0.297513842583,-0.162477493286,-0.000982839381,-0.215426772833,-0.065511934459,0.035262916237,-0.124370098114,0.207978621125,0.021949987859,-0.057102855295,-0.131083145738,-0.530846655369,0.090256012976,0.016673976555,0.548947572708,0.540081560612,-0.182383030653,-0.174709662795,0.322625517845,0.410265624523,1.217887163162,-0.372502446175,0.245943173766,-1.506052255630,-0.092666350305,-0.085217170417,0.193664446473,-0.217948481441,-0.343291997910,0.172682181001,-0.139454498887,-0.199758514762,0.816735267639,-0.001364663709,-0.323901623487,-0.220247715712,0.133259087801,-0.391939103603
0.306635975838,-0.003339945571,0.060762211680,0.042489279062,-0.023742292076,-0.058464638889,-0.084841094911,-0.086518697441,0.059212442487,0.047897651792,0.500899791718,0.531850278378,0.012196340598,-0.089695580304,-0.103416688740,0.470903277397,-0.093574441969,-0.042906988412,-0.157712668180,0.150112465024,-0.111743748188,-0.273140996695,-0.146263554692,-0.300319969654,-0.114977650344,0.063122741878,0.062770508230,-0.011424174532,0.024901041761,0.263796120882,-0.201804727316,-0.059208963066,-0.058374494314,0.019700087607,0.008169479668,0.141339182854,1.093742847443,-0.004509955645,0.071956098080,0.050379514694,0.146989822388,-0.023284580559,0.017401916906,0.620740532875,0.214228212833,0.132260486484,-0.028277799487,0.253164768219,-0.092310346663,0.164450094104,0.105886600912,-0.087956741452,-0.113609738648,-0.036864247173,0.305188685656,0.105578772724,0.448451340199,0.033075027168,-0.014654261991,-0.112139075994,-0.059517156333,0.252865880728,-0.007055313326,0.010793283582,-0.064444310963,-0.343963682652,-0.024498209357,-0.273357868195,0.243103280663,-0.031826965511,0.138657450676,-0.147851184011,0.124117031693,-0.047611657530,-0.084219120443,0.145053192973,0.378291040659,0.162620708346,0.310627788305,0.163829192519,-0.033727169037,-0.132072687149,-0.093462891877,0.285220652819,-0.040585920215,-0.095286853611,0.046091310680,-0.353294461966,-0.272240221500,-0.218711555004,-0.062979616225,0.088369265199,0.223713979125,0.759869158268,0.074000597000,-1.318366050720,0.116037167609,-0.167918071151,0.013959642500,0.018302524462,0.026391493157,-0.091855339706,-0.080752477050,-0.024458812550,0.519490063190,0.117588043213,-0.033210992813,0.231236472726,-0.043540250510,-0.064840316772,-0.081223562360,-0.002559243236,0.088198602200,0.174664601684,-0.076613396406,0.131765931845,-0.368735671043,0.156002908945,0.119957409799,-0.618719160557,-0.077708616853,-0.093813039362,0.346024781466,-0.152097508311,-0.413642317057,-0.074166737497,0.041466064751,0.028787922114
0.108684763312,-0.286588668823,-0.097248874605,-1.100255250931,-0.367196798325,0.021957460791,0.019074281678,-0.270331948996,-0.060007281601,0.314309954643,0.039065074176,0.258083254099,0.327842652798,-0.014901068993,0.069204486907,-0.322114229202,0.056936427951,-0.305523544550,0.237248107791,0.720615863800,-0.300485849380,0.135758370161,0.311981022358,0.328885793686,-0.497852802277,0.423751562834,0.071071594954,-0.119530916214,-0.018327267841,0.224657356739,0.255013734102,-0.010581891052,-0.123852804303,-0.117616720498,-0.161263182759,-0.069129489362,-0.034333981574,-0.109568685293,-0.120455861092,0.469913512468,0.481305956841,-0.073169931769,0.110903970897,0.171805217862,-0.142765298486,0.578871250153,0.520184755325,0.115826830268,-0.134647607803,0.531776607037,-0.172794237733,-0.046950265765,-0.184581756592,-0.743624985218,-0.008972103707,0.724239408970,0.160355672240,-0.150560647249,0.345200628042,-0.054806310683,-0.052476789802,0.407317578793,0.948351979256,0.094737872481,0.392551869154,0.163654655218,-0.280467778444,-0.120245993137,0.228680610657,0.000565544586,-0.369868874550,0.273957461119,0.411139696836,0.028588993475,-0.227626293898,0.118964411318,-0.043437730521,0.349234282970,0.017892537639,-0.249728932977,0.096619136631,-0.198654711246,0.002990340348,0.307333111763,-0.154998630285,0.063578806818,0.119273990393,0.442531645298,0.059623416513,0.089024178684,0.587186276913,0.171220242977,-0.091093920171,-0.638760685921,0.236290588975,0.143536940217,-0.174501344562,0.008063307963,-0.243229210377,0.276811182499,-0.274013906717,0.014329928905,0.132846236229,-0.113426186144,0.099045366049,0.184823185205,0.321700066328,-0.054488725960,-0.175662949681,-0.253430694342,0.345409572124,0.235778003931,-0.203613147140,0.168552517891,0.168071791530,-0.416143506765,-0.019183238968,-0.266413867474,0.161562889814,-0.003449094482,-0.189566925168,0.050585906953,0.547012329102,0.237612366676,0.226744607091,-0.270908832550,-0.179810315371,0.125453218818
-0.016035445035,0.035648759454,-1.042176365852,0.025771362707,0.020249910653,-0.038979958743,-0.073804795742,0.245963931084,-0.130100160837,0.057701036334,1.089295625687,0.205633416772,-0.221859887242,0.361218452454,0.135756939650,-0.284625589848,0.042872037739,0.002350252355,1.247689008713,0.686439990997,0.120083220303,0.050874631852,-0.298428088427,0.048686102033,-0.309167593718,0.195883110166,0.127852514386,0.138000398874,-0.204650431871,0.384007126093,-0.024595277384,-0.278396070004,-0.082077741623,0.006371381693,0.020196354017,0.114954225719,-0.048885174096,-0.051268618554,-0.106156036258,0.037618853152,-1.951254129410,-0.009891767986,-0.087667576969,0.603688359261,0.152052477002,0.212623372674,-0.059882476926,0.388008326292,-0.119148403406,0.090150274336,0.163958057761,0.082875266671,0.151444852352,0.090230718255,-0.150089234114,0.061889037490,0.138732373714,-0.120827876031,-0.005887253210,-0.037705123425,0.105342574418,0.071428067982,-0.005805635359,0.644848108292,-0.020963091403,-0.303937137127,0.345391035080,-0.015152386390,0.353998780251,-0.136570811272,-0.319611817598,-0.111821390688,0.158095598221,-0.358878195286,0.075684547424,-0.087689898908,0.135828495026,-0.019228655845,-0.053212463856,-0.052447717637,0.809525609016,-0.341560155153,0.065595239401,-0.141148924828,0.053433757275,0.001484167995,-0.003492698073,0.050556164235,-0.322005331516,-0.401420593262,-0.185572281480,0.082268171012,0.370721459389,0.462957143784,0.387802064419,0.061963234097,-0.442813247442,0.428448200226,-0.080968484282,-0.005580292083,0.095263548195,-0.177157789469,0.362222760916,-0.006869501900,0.523820281029,-0.071500480175,-0.153311133385,-0.017694758251,-0.045999299735,-0.138641089201,0.163095802069,0.033824063838,-0.142315030098,-0.051565308124,0.918760895729,0.503897428513,0.681560516357,-0.262822419405,0.097774796188,0.063831605017,-0.105681546032,-0.015680307522,0.152201458812,-0.008896201849,0.244134992361,-0.139743551612,-0.062292676419,0.405991047621
0.138977631927,0.157403737307,-0.152832850814,0.922827601433,0.039603650570,-0.031616058201,0.003031683387,0.198387190700,-0.029967688024,0.059063445777,0.133155077696,-0.671709358692,0.061240434647,0.057292070240,0.440078198910,-0.105073437095,0.055317804217,0.132366985083,0.798894703388,0.217228338122,0.578781843185,0.209781065583,-0.983954608440,-0.203358456492,-0.064873091877,0.207946673036,-0.148410916328,-0.715946137905,-0.062099773437,1.174098014832,0.258192032576,-0.037988584489,-0.208726972342,-0.219845473766,0.073165096343,0.058102004230,-0.138492271304,-0.058872472495,-0.007141693495,0.583035826683,0.066934756935,-0.781216859818,0.054142873734,0.032581172884,-0.182735785842,0.003770732321,-0.154529973865,0.096972398460,0.777987957001,0.165112346411,-0.193292081356,0.212899819016,0.120854206383,-0.131321579218,-0.231596574187,0.226404786110,0.062440510839,0.074363820255,0.232377067208,-0.010254785419,-0.135118439794,0.046505346894,-0.105163037777,0.287761539221,0.285151988268,-0.086019471288,0.235391139984,-0.226559296250,-0.010896597058,-0.047289170325,-0.339338660240,0.055543787777,-0.029634937644,0.254667520523,-0.194481596351,-0.226246833801,-0.236424908042,-0.033636279404,-0.091516606510,-0.006846698932,0.384245127439,-0.173551961780,0.176284551620,0.035886690021,-0.240160584450,0.163847804070,-0.015803474933,0.225981742144,-0.048437457532,-0.924643635750,-0.184508368373,0.001763320412,0.363536238670,-0.416617453098,0.297444462776,0.179064348340,-0.019541630521,-0.144304215908,-0.089697547257,0.108369968832,-0.297653228045,-0.147405669093,0.039988558739,0.175374478102,-0.105284079909,-0.464341819286,-0.017266117036,-0.082891017199,0.290348529816,-0.235409691930,-0.229529842734,-0.122694768012,-0.046163808554,-0.295195043087,0.116235703230,-0.221593514085,-0.020011037588,-0.079671382904,0.129713445902,-0.391261070967,-0.126885160804,-0.869691431522,-0.329495191574,-0.099627323449,-0.035155624151,0.409687042236,0.074065424502,-0.448452264071
0.086115874350,0.206081897020,-0.062765203416,-0.430925458670,-0.005930091254,0.047264661640,0.251367896795,0.224458172917,-0.115986995399,-0.077945940197,-1.355661749840,0.154056325555,-0.024160915986,-0.385478645563,0.184450313449,-0.059078481048,-0.003922114614,-0.367675453424,0.046372041106,0.339990615845,0.162883803248,-0.073925420642,0.233058571815,0.123306930065,-0.017073731869,-0.155011534691,1.173437714577,-1.698384404182,0.213892728090,-0.729386329651,0.000768304802,-0.067819803953,0.059479683638,0.047191947699,0.045079275966,0.059342484921,0.175896525383,0.164070829749,-0.083294160664,0.603302359581,0.570096731186,0.289433211088,0.018888430670,-0.424405783415,0.034372936934,0.205132275820,-0.158773377538,-0.190404728055,-0.246596068144,-0.369227379560,0.202791064978,-0.010611576959,0.248039096594,-0.123593807220,-0.005035139155,-0.324245721102,0.024175580591,0.021253468469,-0.100415550172,0.006599028595,0.052303552628,-0.145307227969,0.065468966961,0.142429128289,0.377781093121,0.162767171860,0.123553395271,-0.041436962783,-0.119864284992,-0.006851034705,-0.089464113116,-0.026094773784,0.091106839478,0.310152560472,-0.071282774210,-0.038937497884,0.228408411145,0.054400630295,-0.110280163586,0.088720962405,0.198457017541,-0.101781979203,-0.051340613514,0.043311066926,0.324190676212,0.152028635144,0.032657735050,-0.026839450002,0.194940999150,0.448865503073,0.049044795334,-0.067598350346,-0.384144455194,-0.125990614295,0.022967424244,-0.091126456857,0.210126847029,-0.436988592148,0.131836339831,-0.153092116117,-0.018179835752,0.177904725075,-0.177367597818,-0.058530952781,-0.138689205050,0.486189842224,0.068520627916,-0.153934478760,-0.101687051356,0.015511680394,-0.042313221842,-0.015253555030,-0.036593392491,0.045373763889,0.044064130634,0.110225498676,-0.156850963831,-0.171177446842,0.014420133084,-0.136331140995,-0.031235877424,0.383844971657,-1.616037249565,-0.120868563652,0.057991098613,0.141642302275,-0.530706286430,-0.126270532608
-0.106150060892,-0.463884204626,0.103357113898,-1.705770015717,-0.140416845679,-0.000032179185,0.299784272909,-0.348538696766,-0.101536989212,-0.249174073339,0.462231457233,-0.045867703855,0.223882645369,-0.248622089624,-0.188539162278,0.143763884902,0.023058338091,-0.342000454664,-0.028919287026,-0.297330290079,-0.483607798815,0.153870582581,-0.366851627827,0.395037859678,0.041983909905,1.003342151642,-0.135948121548,-0.002346750814,-0.066817581654,0.600270628929,-0.323514699936,0.159343719482,0.054731193930,-0.152954429388,0.162760525942,-0.209610521793,-0.010971076787,-0.377637505531,-0.422750949860,0.565699875355,0.496720016003,-0.208101451397,-0.342878699303,-0.402628660202,-0.032211143523,0.673239946365,0.007983519696,-0.454036831856,0.058875709772,0.917642951012,0.343419104815,0.052271235734,-0.057198498398,0.003613743698,-0.549037039280,0.832430064678,0.102614231408,-0.113085046411,0.072907030582,-0.134488850832,0.590735077858,-0.187302783132,-0.305939078331,0.376805067062,0.023801552132,0.161537081003,-0.287709534168,-0.121398352087,0.027567923069,-0.125375762582,0.006428312510,0.180820733309,-0.183199271560,-0.031431958079,-0.455753833055,-0.265281438828,-0.122237324715,0.012058080174,0.118080012500,0.010212751105,0.327918440104,0.156807482243,0.326062649488,0.491870671511,0.129445746541,0.066304072738,-0.436238914728,-0.005554817151,0.523953139782,-0.197476044297,0.087051033974,0.032037183642,-0.855261206627,0.025200221688,0.147776111960,0.130843460560,-0.258640289307,-0.012123004533,0.282436996698,0.020544135943,-0.123642496765,-0.341771990061,0.207513019443,-0.171490222216,-0.147287294269,0.104010835290,-0.031819149852,-0.144656956196,-0.016053767875,-0.316559851170,-0.589676022530,0.311129152775,-0.248848482966,-0.303501963615,-0.041341826320,0.076103590429,-0.179424569011,0.051691081375,0.068346679211,-0.183529078960,-0.542714416981,0.250447809696,0.001653344953,0.551485717297,-0.104247897863,-0.167030707002,0.074458442628,-0.114926889539
0.374370336533,-0.147226482630,0.376547724009,-0.199213206768,-0.342468559742,0.314635723829,0.127045407891,-0.006995589938,-0.821310043335,-0.145981058478,-0.095102302730,0.100420124829,0.010022685863,-0.070862479508,-0.452292561531,0.597849547863,-0.354396760464,-0.101123467088,0.118118524551,0.065975084901,0.608955204487,-0.517594277859,-0.046424761415,-0.265727818012,0.814446866512,-0.014473644085,-0.088692583144,0.158576056361,0.079209342599,0.149931281805,0.029878536239,0.088484905660,-0.179429665208,0.009103142656,0.032716173679,0.633817493916,-0.103990726173,0.082492306828,-0.370444238186,0.076904535294,-0.119198299944,-0.185372486711,0.127640113235,-0.156586468220,-0.120876006782,0.089097075164,-0.647381305695,0.158678889275,0.936508715153,0.003104861593,0.166575193405,-0.216906204820,-0.554531395435,0.093604691327,0.213810637593,0.024024913087,-0.146970674396,-0.111151471734,0.383671820164,-0.164848253131,0.381270945072,0.197106242180,-0.035120707005,-0.136214673519,0.112518347800,0.051766362041,-0.030529731885,-0.036257185042,-0.055340588093,0.282567441463,-0.009178185835,-1.360677838326,0.290722608566,-0.170678570867,0.259776115417,1.081856012344,-0.026785671711,0.696032762527,0.552902817726,0.151549950242,-0.175180926919,-0.802948057652,-0.429752856493,-1.253837466240,-0.059176012874,-0.150220587850,0.088911175728,-0.666089534760,0.060478705913,-0.203150525689,0.067934721708,0.109526447952,0.322265714407,0.579113125801,0.669514536858,0.070870451629,0.055242765695,-0.026101928204,-0.045394346118,-0.013825537637,-0.228326037526,-0.368282884359,-0.055114895105,0.032037500292,-0.097001485527,-0.204056546092,-0.986769974232,0.697378993034,0.088360212743,0.228141635656,0.211990967393,0.043086010963,0.650486350060,0.625843584538,-0.335558116436,-0.184655487537,-0.282999008894,0.343801707029,-0.531183242798,-0.335408389568,0.039625149220,-0.213158637285,0.091233640909,-0.427209049463,-0.509374558926,-0.016965273768,0.171945095062,-0.577788949013
-0.499606937170,-0.055096473545,-0.433126717806,-0.073489323258,0.654731154442,-0.116333350539,-0.009806171991,0.127427369356,-0.555785953999,0.095854066312,0.134060829878,-0.170700192451,0.087934367359,0.082555390894,0.554742693901,-0.132196024060,0.589123904705,-0.001467252267,0.069398209453,-0.172280535102,-0.137485980988,0.400417655706,0.110149130225,0.097574748099,-0.299700856209,0.085119366646,-0.123190581799,0.044352989644,0.077386766672,-0.005684995092,-0.023336613551,-0.322605043650,-0.071218363941,0.019633930176,0.050155736506,-0.602731645107,0.077145993710,-0.017954280600,0.348178565502,0.026691643521,0.099236831069,-0.021329725161,0.026089465246,0.119068190455,0.034325867891,0.035436376929,-0.350984543562,-0.085690662265,-0.066353261471,-0.014501711354,0.087246663868,0.181372806430,0.032600700855,-0.191005349159,-0.619983971119,-0.010935052298,-0.159204602242,-0.190047457814,-0.293904930353,0.007495865691,-0.372625470161,0.044241908938,0.017575057223,-0.024759238586,0.031401697546,0.182573080063,0.381863802671,0.128029227257,0.113478913903,-0.315464437008,0.267050564289,0.678324222565,0.010072180070,0.053549520671,-0.109524667263,-0.584291219711,-0.254901319742,-0.814334690571,-0.291102856398,-0.231646403670,-0.009676088579,-0.109016016126,0.437864482403,0.649453520775,0.079959109426,-0.055945817381,0.019548300654,0.554849565029,-0.202798321843,0.014611604623,-0.103238552809,0.015754343942,0.246141880751,-0.290597200394,0.308177113533,-0.145876854658,0.030113300309,-0.125384688377,-0.043061893433,0.005467696581,-0.042834118009,0.853881359100,0.008838806301,-0.009208448231,0.051218766719,-0.118332333863,0.311998873949,-0.471243679523,0.020493712276,-0.043626245111,0.468314826488,-0.085502929986,0.545061647892,0.464258700609,0.363052427769,-0.144539788365,-0.433656632900,0.228635162115,0.394899725914,-0.199305400252,0.036175131798,-0.041959621012,0.111050635576,0.282842785120,0.032478440553,-0.040429644287,0.004540661350,0.276104927063
-0.121209479868,-0.056190643460,0.049046490341,-0.175295934081,-0.076615028083,-0.609377026558,0.111357830465,-0.110374018550,-0.250889718533,-0.144618645310,0.177652046084,0.009124908596,0.084429048002,-0.236435338855,0.251308858395,0.306958705187,0.096216090024,0.105442121625,-0.417133837938,-0.431623309851,-0.108613446355,-0.235224738717,0.002281090245,0.174046143889,0.436155468225,0.059955224395,-0.394244909286,0.191504135728,0.281707793474,0.234270244837,0.193640500307,-0.397089630365,-0.068904347718,-0.056735597551,-0.007605975959,-0.415004938841,0.395926088095,0.073658950627,0.061703510582,0.046867627650,-0.494949668646,-0.173349261284,-0.024288900197,0.086811028421,-0.110770128667,0.061850178987,0.451384931803,0.201349779963,0.372223377228,0.117490701377,-0.445748090744,0.322072327137,-0.657759904861,0.319173604250,0.100159220397,0.253825575113,-0.115086615086,-1.125198721886,0.084832504392,-0.582197666168,-0.151649951935,0.418181508780,0.031662512571,0.229772403836,-0.039435777813,0.863374292850,-0.075859017670,-0.203728437424,0.052521277219,0.106835089624,0.113789983094,-0.351503610611,0.093604125082,-0.189046725631,-0.225483566523,-0.380711942911,-0.140014618635,-0.205076530576,-0.144092768431,-0.104018710554,0.175383239985,-1.913831114769,0.245137363672,0.108241781592,0.068894743919,0.146025553346,-0.059545479715,0.382885634899,-0.283814162016,-0.161734923720,-0.209106385708,-0.018650226295,0.014413135126,-0.551523745060,-0.215664267540,-0.378622263670,0.171533092856,0.301348716021,-0.069672279060,0.014391000383,-0.238414064050,-0.301794111729,-0.144344821572,-0.029175801203,-0.069732680917,0.126356452703,0.970026910305,-0.099940426648,0.063997142017,-0.096414029598,-0.065523259342,-0.032355912030,1.304626107216,-0.091602556407,0.033912733197,-1.314094185829,-0.270602047443,0.010992427357,0.744833230972,0.119861975312,-0.420734673738,-0.194148093462,-0.424710154533,0.180259302258,-0.290470600128,-0.050366926938,0.098362229764,0.031154884025
-0.074727214873,0.360656410456,0.065343931317,-0.145079419017,-0.437990546227,0.308195829391,-0.384689897299,0.216413825750,0.136003702879,1.096857547760,-0.641959071159,-0.531158804893,-0.086371615529,0.040766686201,-0.377990275621,0.068009667099,-0.337476909161,0.129237025976,-0.119546525180,-0.375488430262,-0.240422427654,-0.129709661007,-0.715681374073,0.485252112150,0.021345341578,-0.024923905730,1.018545627594,-0.016322070733,0.310846686363,0.361297458410,-0.237818911672,-0.272308856249,-0.097150370479,0.092159382999,0.151792556047,-0.082660689950,-0.076787576079,-0.033540282398,0.007813606411,-0.066680811346,0.024140594527,-0.134724661708,-0.013398825191,-0.346711277962,-0.178290024400,-0.067962139845,0.262057662010,0.509715855122,0.351988375187,-0.080132260919,-0.302498847246,0.191501811147,-0.336119651794,-0.043416321278,0.075731784105,0.215749308467,-0.011264911853,-0.211123526096,0.110111139715,0.006543765776,-0.058340292424,-0.182797357440,-0.593227982521,-0.124691002071,0.329831689596,0.264338016510,-0.277242094278,0.303974270821,-0.266513496637,0.415398746729,0.245240032673,0.122839234769,0.341100901365,-0.162554636598,0.140755519271,0.015267996117,-0.636808693409,0.808379769325,-0.078818701208,-0.465408772230,-0.169558167458,0.259665638208,0.473195999861,0.139720678329,-0.094650611281,-0.064124293625,0.309008061886,0.294669866562,0.036822773516,-0.035412929952,-0.216199830174,0.304999768734,-0.550789833069,0.411731153727,0.272932440042,-0.049504932016,0.129445433617,0.067624509335,0.055218629539,0.375312358141,-0.152810409665,-0.337497889996,-0.252950310707,-0.282460153103,-0.077532567084,0.537706673145,0.032713949680,0.334437429905,-0.128965675831,-0.327824503183,-0.149824053049,-0.088822387159,0.106099940836,-0.100721538067,-0.068692132831,-0.657150208950,0.252675652504,-0.374808162451,0.330826312304,0.397260963917,0.070090502501,-0.417967110872,0.600857138634,1.019142031670,-0.038818534464,0.659961342812,-0.624622166157,-0.276373118162
-0.018038531765,-0.039707198739,0.307196110487,-0.249486520886,0.023499596864,0.091012947261,-0.093252994120,-0.487977057695,-0.047295756638,0.290140569210,-0.601764678955,0.082226499915,-0.286551743746,-0.086619004607,-0.126801505685,-0.113046102226,-0.038587123156,0.130888476968,-0.375823527575,-0.306027919054,0.048443485051,-0.096021465957,0.679572820663,0.037081450224,-0.011424524710,-0.049461413175,0.547144830227,-0.169577971101,0.138761669397,-1.021933913231,-0.434437006712,-0.035256605595,-0.023435112089,0.004984117579,-0.018778374419,-0.212460219860,-0.216440960765,0.014488717541,-0.061771009117,-0.419952362776,0.495911002159,-0.050132211298,-0.033753991127,-0.098985932767,1.155551433563,-0.318799942732,-0.341734468937,-0.003033050103,1.041157126427,-0.533562183380,0.437583446503,-0.208759948611,0.064107269049,-0.165909633040,0.318125069141,-0.549487411976,-0.034337546676,0.592774093151,-0.121692024171,0.019254436716,0.069264635444,-0.663677036762,0.076201520860,-0.231464669108,0.226630643010,-0.138279065490,-0.028528640047,-0.254966616631,0.307372152805,0.097723022103,0.058775365353,0.020408296958,-0.088051289320,0.139367803931,-0.121659293771,0.158756688237,0.669412910938,0.196893602610,0.395310163498,0.331702411175,-0.240045458078,0.054625831544,-0.424134582281,0.207018435001,0.168627932668,-0.243282824755,0.094808973372,-0.221935287118,-0.312396109104,0.487712681293,-0.189632952213,-0.063787646592,-0.225945666432,-0.054073087871,-0.375955045223,0.332253724337,0.019029522315,0.686023175716,-0.008128195070,0.140661433339,-0.212306693196,-0.253858119249,-0.014465775341,0.137934356928,-0.346199423075,-0.207918509841,0.113326177001,0.204544663429,0.409552782774,0.085724204779,0.403570979834,-0.092281311750,-0.089326642454,0.082674942911,-0.313815414906,0.084048926830,-0.089995585382,-0.017066739500,-0.444229215384,-0.540212988853,0.101582936943,0.164789721370,-0.376836121082,-0.044772032648,0.113522060215,0.190610602498,0.177649751306,-0.564932286739
-0.108634099364,-0.603141725063,-0.128854006529,2.475774765015,0.429849326611,-0.134896978736,0.086495213211,0.527749180794,-0.218134865165,-0.159656196833,-0.246978566051,1.264680862427,-0.610456824303,0.374108105898,0.631519794464,0.531048357487,-0.274739116430,-0.444929480553,0.466622173786,0.489025354385,-0.295796096325,-0.161942705512,-0.438280284405,0.009528966621,0.248592406511,-0.293216466904,0.330435425043,0.337090671062,-0.318093001842,0.391452342272,0.665199339390,0.390692740679,0.063184514642,-0.024555213749,-0.303156226873,0.836028754711,-0.219441279769,0.241222068667,0.482188522816,0.064569205046,-0.182493075728,-0.113497838378,0.108467936516,0.259549826384,-0.068424917758,-0.217463284731,-0.062236387283,0.915996193886,0.354252249002,0.017794353887,-0.199243873358,0.183943971992,0.363163203001,-0.279862403870,-0.381083250046,-0.131578579545,0.427325278521,-0.341400414705,-0.094545550644,-0.053103893995,-0.622036576271,-0.204368099570,0.015654422343,-0.170903220773,-0.595313787460,0.019951127470,0.012746810913,-0.222898066044,0.044923182577,-0.001964332070,0.125658795238,0.622163176537,0.049918089062,-0.499191761017,0.486429631710,0.293969422579,-0.364397168159,0.101402096450,0.049086663872,0.746852338314,-0.241810843349,-0.157486200333,0.300265818834,-0.425016015768,0.165892735124,0.307536929846,0.866997182369,-0.246808618307,-0.188160687685,-0.387854874134,-0.089190192521,0.171958789229,-0.389618307352,-0.455320745707,0.450812190771,0.201152801514,0.319535553455,-0.303615003824,-0.438343614340,-0.312745571136,0.140775799751,-0.402733743191,-0.042946096510,0.558962464333,-0.151521459222,0.188042342663,-0.667058825493,0.141640439630,0.161818936467,1.026111483574,0.474667280912,0.097004756331,-0.562710225582,-0.789698481560,0.151481673121,0.186671242118,-0.058496039361,-0.387113839388,0.183746635914,0.602954864502,0.023032521829,-0.105424411595,-0.037980023772,-0.149087548256,-0.370007365942,-0.486368209124,0.312094449997,0.021279923618
0.344875484705,0.003332140157,-0.253070831299,-0.064868651330,-1.025919675827,-0.029343567789,-0.001351081417,-1.075587749481,0.017058786005,-1.702274918556,-0.060650851578,-0.034153390676,-0.052528444678,-0.051095295697,-0.342138409615,1.011712193489,-1.785236239433,0.001258340548,0.045052938163,-0.016057590023,-0.660995304585,-0.086262062192,0.011402259581,0.260454088449,1.039854764938,-0.007157652639,0.084438346326,0.020070845261,-0.164523571730,-0.010723116808,-0.001882674871,0.033700946718,0.039204269648,-0.033347882330,0.011599538848,0.086645327508,-0.349994689226,0.016017926857,0.545835018158,0.019230574369,0.512789309025,0.005774131045,0.045622326434,-0.012697959319,-0.039509322494,-0.056963175535,-0.007826455869,0.137943267822,0.068730369210,0.053575392812,0.047627139837,-1.054515957832,0.042666241527,-0.012552292086,0.168878108263,-0.022840710357,-0.053045127541,0.043625216931,-0.207773476839,0.138055920601,-0.589787840843,-0.021737361327,-0.014837624505,0.112231194973,-0.023643709719,0.048820413649,1.465080618858,-1.590983986855,0.000890019583,0.793115258217,-0.001913202577,1.345158815384,-0.052749190480,0.101471878588,-0.951308906078,0.458172827959,0.076528929174,0.176434576511,-0.619401335716,-0.870567262173,0.220042824745,0.025548826903,-0.779504299164,0.108093760908,-0.054914884269,0.062124725431,-0.390150934458,-1.500936150551,0.627237439156,-0.040908724070,0.023047083989,-0.035911254585,0.102610953152,-0.008610365912,0.012940349057,0.412825703621,0.391324132681,0.033274549991,-0.002670048503,0.008036825806,0.015994763002,0.023860700428,-0.310361385345,0.014047076926,0.030276732519,-0.093777760863,0.005820615683,-0.281993389130,0.010398985818,-0.008987830020,0.023280708119,0.003232138231,-0.008927331306,-0.027412211522,0.230223119259,0.038554940373,0.052181769162,-0.831767320633,-0.137341693044,-0.068846412003,0.016784621403,-0.026774590835,0.217263087630,-0.972045779228,-0.862252116203,0.011559038423,0.052497930825,0.345030844212
0.243472531438,-0.226949900389,0.043192390352,-1.370169281960,-0.016061972827,0.002579613822,0.290576994419,-0.191321417689,-0.050162937492,0.346242398024,0.144471585751,0.461650580168,0.095579028130,0.309643954039,-0.008674566634,0.522584617138,0.119764961302,0.033189631999,0.346990764141,0.474541217089,0.041644569486,0.052909705788,-0.443211436272,-0.066714167595,-0.129500731826,-0.078069217503,0.351816833019,0.358627319336,0.404581606388,0.053616382182,0.003685732372,-0.888030707836,0.753423273563,0.050338674337,-0.085800416768,-0.237418830395,0.327918976545,0.276027768850,0.024506997317,-0.561900436878,0.387652456760,0.812248289585,-0.017673717812,0.340125828981,0.543504416943,0.020533205941,-0.161745354533,-0.073942162097,0.257943779230,-0.024028815329,-0.251868247986,0.057116266340,0.131390511990,-0.343307852745,0.130312174559,-0.074213229120,-0.096962749958,-0.009751776233,-0.136622354388,0.021178374067,-0.081192076206,0.012520411983,0.455594927073,0.039852835238,-0.058441624045,0.091779910028,0.259207606316,-0.083546541631,-0.040640965104,0.207344144583,-0.405252486467,-0.138848587871,-0.534608006477,-0.307038903236,-0.072389535606,0.259725779295,-0.116001151502,0.200847491622,0.114359743893,-0.162695258856,-0.061718914658,0.632068991661,0.037617817521,0.156960278749,0.549093425274,0.082238942385,-0.082814827561,0.436187326908,-0.074789926410,0.218038976192,0.267025589943,-0.068166896701,-0.318688094616,0.114335104823,0.070644408464,-0.379323661327,0.032531443983,0.552900135517,0.106369733810,0.107193134725,-0.421333074570,0.014949780889,0.096526220441,0.033088702708,0.215167671442,0.103638395667,0.022994417697,0.154041424394,-0.118124604225,-0.592878401279,0.632147669792,0.349342048168,-0.137395769358,-0.071791276336,-0.039154522121,-0.206444948912,0.050642285496,0.111315794289,0.136920750141,0.180245101452,-0.128045752645,0.826626956463,-0.196010634303,0.029261112213,-0.367623597383,0.151600554585,-0.144564718008,0.637370884418
0.015537980013,0.323418051004,-0.020316351205,3.159326791763,-0.162988036871,0.153398692608,0.007364604156,0.063081167638,-0.062143508345,-0.045589890331,-0.199542611837,-0.305474460125,0.159726649523,-0.708760976791,-0.107847839594,0.365068286657,-0.125620290637,-0.358958572149,0.052274011075,-0.002772673499,0.062635183334,0.225715130568,0.268313169479,-0.123573765159,0.006753119174,0.342688918114,-0.349964350462,-0.066399805248,-0.351624608040,0.020659310743,0.292661845684,-0.295390874147,0.134782001376,0.020383192226,-0.013586953282,0.396568894386,0.094945818186,-0.229311302304,-0.862414598465,-0.158410504460,-0.002985128900,-0.081143632531,0.012711440213,-0.166616767645,0.057861216366,0.276091516018,0.250939399004,-0.298150777817,-0.174706265330,0.348608076572,-0.434768408537,-0.026687365025,0.076069451869,0.076484128833,0.165911644697,0.003855529707,-0.035835918039,-0.212324813008,0.245783492923,0.154567644000,0.831052958965,-0.023676684126,-0.263478696346,0.123663045466,-0.287853151560,0.043852481991,-0.014485424384,0.022584142163,0.153178408742,-0.141821771860,-0.359915226698,0.228912904859,-0.029973430559,-0.491458773613,-0.075362764299,-0.080188192427,0.198411986232,-0.060419782996,0.023205434904,-0.027069617063,0.217047125101,0.134481772780,-0.065720967948,-0.031174553558,0.288663953543,0.124462448061,-0.070345513523,0.128266736865,0.005161658395,0.333904862404,0.251134008169,0.145826458931,-0.204704910517,0.062158539891,-0.068329691887,-0.132439836860,0.307597666979,0.257806330919,-0.279618412256,-0.328695893288,-0.241518095136,-0.119711488485,-0.501862406731,-0.027854440734,0.190601751208,-0.233260646462,0.159126058221,0.023464860395,-0.147958710790,0.436218529940,-0.127428740263,0.051744516939,0.233002930880,0.325732052326,-0.027898328379,-0.249989107251,0.059827566147,-0.128841310740,-0.047449659556,-0.340361773968,0.109923064709,0.599289476871,0.024943411350,-0.001519863843,-0.381867647171,-0.481170505285,-0.097127132118,0.394318670034
-0.109723746777,-0.052467059344,-0.116593293846,0.323843687773,0.122042261064,-0.000056293280,0.141086891294,0.097564034164,0.116964899004,0.049263589084,0.210428938270,0.139578670263,0.316531449556,0.014471302740,0.110266380012,0.363674759865,0.147265747190,-0.036737725139,-0.115932680666,-0.306758046150,0.164921253920,0.182117268443,-0.037299852818,-0.007465580013,-0.467780023813,0.034869324416,-0.081855170429,-0.090453013778,0.119713932276,-0.076328285038,0.289521366358,0.162314444780,0.101074270904,-0.058180879802,0.067650906742,0.231557801366,0.004077361897,-0.146305248141,0.059833794832,0.118303343654,0.065678067505,0.164060458541,-0.065847836435,-0.221793755889,0.115173228085,0.077118672431,0.083571173251,-0.229017078876,-0.566886186600,-0.041206404567,-0.334633946419,-0.131234705448,0.588484764099,-0.140947759151,-0.132206946611,-0.091943621635,-0.059388965368,-0.517375946045,0.076762281358,0.215990632772,-0.041011553258,-0.164894476533,-0.006288359873,0.217698216438,-0.052926685661,0.076164104044,-0.137509763241,-0.113355152309,0.267103493214,0.000290731667,-0.299420654774,-0.361108243465,-0.191207423806,0.318543344736,-0.344497382641,-0.258758515120,-0.431821435690,-0.267493247986,-0.217857718468,-0.110071152449,0.310617268085,0.479611694813,0.000028180433,-0.075612381101,0.137757465243,0.057195778936,-0.172440767288,0.273391038179,0.425978213549,0.233530223370,0.059501614422,0.136559635401,-0.251167207956,0.059420511127,0.061415337026,0.001773288008,0.044984251261,0.135073646903,-0.043783918023,-0.060827523470,0.885194063187,-0.778376698494,0.019981505349,-0.029407251626,0.077053703368,0.255447179079,0.114659719169,-0.583348035812,-0.147747755051,0.065705165267,-0.242863968015,-0.037052072585,-0.029056571424,0.033889546990,0.080836638808,0.622604310513,0.001877986942,-0.241579815745,0.209734857082,0.327108025551,0.073431991041,0.245232746005,-0.033462163061,0.074859619141,-0.312943249941,-0.159214168787,0.006384265143,0.174325704575
0.381464123726,0.208661079407,0.097464501858,-0.038792621344,-0.174380406737,0.279342770576,0.278838723898,-0.289567232132,0.486770451069,-0.058658991009,-0.483821153641,-0.496871173382,0.342267006636,0.018407799304,-0.661060333252,-0.065843380988,-0.196703791618,0.073916956782,0.568471491337,0.046169474721,0.392771124840,-0.039748542011,0.120272204280,0.562657892704,0.151343852282,-0.000656512741,0.016612622887,0.208762928843,-0.003635999979,-0.445787876844,0.192500635982,0.170580759645,0.287987560034,0.138808608055,-0.238864868879,-0.020420022309,0.000357744721,0.433113366365,-0.126450374722,-0.686148583889,0.293280988932,0.339001268148,-0.000574750768,0.294723123312,-0.328082829714,0.055088929832,0.735415518284,-0.500673413277,-0.016087034717,-0.088876686990,-0.029328564182,0.160115927458,-0.139266550541,0.882096588612,0.193469733000,0.266188293695,0.191964745522,0.194139361382,0.087353162467,0.300805479288,0.030162071809,0.286768198013,0.327577888966,-0.061164379120,-0.782894670963,0.354646146297,-0.386634975672,-0.102786563337,-0.083731211722,0.224280178547,-0.006404977757,-0.447393387556,0.187081307173,-0.519435226917,-0.087986975908,0.152061849833,0.050580117851,0.163488462567,0.089690633118,0.057601932436,0.022681850940,0.877238214016,0.038237717003,-0.235008642077,0.071128241718,0.092770092189,0.041179861873,-0.234886184335,0.164266943932,-0.138382658362,0.419234275818,0.339513242245,-0.421377837658,0.033295359462,-0.034489497542,0.093783199787,0.043791122735,-0.144117757678,-0.147546738386,-0.575249969959,0.232986405492,-0.199079751968,-0.206253603101,0.866483926773,-0.355398774147,0.268801361322,1.094443917274,0.102964490652,0.228993237019,-0.642580091953,0.690940260887,0.146586000919,0.918972909451,-0.379981666803,-0.119651034474,0.098661519587,0.140019133687,-0.510018169880,0.104092597961,0.310403287411,0.321545034647,0.004844427574,-0.248595699668,0.231689840555,0.186822742224,0.231324851513,0.539419293404,0.090463094413
0.092782318592,-0.298154562712,-0.215216979384,0.103031970561,0.036378923804,0.251278787851,-0.113434135914,0.085062347353,-1.367122411728,0.035312812775,-0.356607824564,0.128978341818,0.046447772533,-0.354136317968,0.126415476203,0.127836510539,0.017245726660,-0.173291012645,0.034373007715,0.409217149019,-0.073801279068,-0.047877505422,0.222718954086,0.181356638670,0.358788967133,0.020671041682,-0.051914524287,0.013289337046,0.323545932770,-0.055988911539,-0.048281829804,-0.120581611991,-0.081487141550,-0.021500393748,-0.040091160685,-0.203266009688,-0.273797780275,-0.072083547711,0.166828766465,-0.205705851316,0.598859608173,0.229253560305,0.046309951693,0.132768109441,0.207420155406,0.140762746334,-0.413636416197,0.045945528895,-0.492532581091,-0.102219581604,0.256321758032,0.006497546565,-0.275787174702,-0.526704490185,-0.070716314018,-0.097354225814,-0.079145520926,-0.343066036701,-0.085873760283,-0.123996004462,-0.217953905463,0.021951308474,0.048222880810,-0.029891094193,-0.019519263878,0.329562157393,-0.313468933105,-0.013073147275,-0.074578411877,-0.000391429494,-0.179065003991,0.382083922625,0.001962384675,-0.045536406338,0.012963744812,0.037807200104,0.134877160192,-0.102169081569,0.020377205685,-0.033580657095,-0.002365056425,-0.899010121822,0.021244427189,-0.171592846513,0.105581082404,-0.078172154725,-0.001256277086,0.138235121965,0.243060290813,0.001464622212,0.254762828350,0.212895631790,0.288561820984,-0.152050361037,-0.133913457394,0.340220004320,0.093905001879,-0.205580607057,0.090636372566,-0.149821877480,-1.417350411415,-0.003384139156,-0.033707160503,-0.114287264645,0.117292769253,-0.009104345925,0.312443375587,-0.071893766522,-0.048387367278,0.083174318075,-0.289812326431,0.077370710671,-0.013985861093,-0.012009214610,0.202855989337,-0.024936506525,0.176649153233,0.293171882629,-0.056561358273,0.369467467070,-0.032168701291,0.297432422638,0.065999515355,-0.102324679494,-0.155418589711,-0.039762225002,0.075129203498,0.348088264465
0.571721911430,0.657279253006,-0.193548724055,2.911929845810,-0.036377307028,-0.045238304883,-0.123908407986,-0.029055096209,0.110160000622,-0.006100617815,-0.233166307211,-0.007568753790,-0.203913390636,-0.361721664667,-0.313893407583,-0.056713271886,0.109190769494,0.148549109697,-0.559466481209,-0.333625257015,0.014693443663,0.289043962955,0.788176894188,0.155943125486,0.197024032474,-0.203049495816,0.539865076542,0.049305960536,0.403526693583,-0.199588671327,0.131485834718,-0.166583880782,0.198046475649,0.023632051423,-0.126167967916,-0.154905110598,-0.055486448109,0.040045794100,0.186476394534,-0.035208433867,0.042041264474,0.341442823410,0.226997539401,0.065398253500,0.469067484140,-0.022240139544,0.371453732252,-0.186184138060,-0.201890900731,0.002589094685,0.031816914678,-0.176967903972,0.240139052272,-0.138016536832,-0.099978797138,0.181578457355,-0.105855636299,0.224056407809,-0.084025658667,0.036729086190,-0.173202678561,-0.015194578096,0.063728146255,0.074763745070,-0.166933119297,0.383861035109,-0.310279369354,-0.110650844872,-0.164489686489,0.155214473605,-0.038755834103,0.026273034513,-0.600637018681,0.164542347193,-0.066368743777,0.067505829036,-0.032834600657,0.192526817322,-0.019066462293,0.011006399058,0.129241362214,-0.040982224047,-0.186349019408,-0.132796719670,0.109986275434,0.068585015833,-0.294182091951,0.039962124079,0.073853962123,0.105801299214,0.062591023743,0.105448953807,-0.375120997429,0.160530999303,-0.160923928022,-0.024060254917,-0.051261462271,0.297293633223,-0.294911980629,-0.063152492046,0.235512077808,0.013660643250,0.252943992615,0.054924901575,0.120218135417,0.115630507469,0.085077419877,0.101553395391,0.005599414464,0.725882172585,-0.280750751495,0.023772360757,-0.191220328212,0.072903603315,0.238284289837,0.568681597710,-0.035341903567,0.365260511637,0.247789412737,0.281148344278,0.085628166795,-0.003686386859,0.200108915567,0.172782629728,-0.057619672269,0.011128517799,0.004324554000,0.101702161133
0.273663669825,0.534142613411,-0.149792850018,1.328480720520,0.151965081692,0.013710251078,-0.024312837049,0.125586882234,0.008161308244,-0.163512930274,0.011842649430,0.124249421060,-0.090721808374,0.570088028908,0.069718115032,-0.240417465568,-0.000099736309,0.023112621158,0.142286092043,0.019327281043,0.131075412035,0.005211931188,0.633117973804,0.116671599448,-0.002634591656,-0.044812701643,0.215538203716,0.276846885681,0.097868956625,0.012507841922,0.042848717421,-0.023260155693,-0.105367213488,0.044580187649,-0.004457150586,-0.093387931585,-0.057933680713,0.196568951011,-0.902178883553,0.104104101658,0.016981108114,0.122353293002,-0.093770027161,-0.070375986397,0.049519274384,0.057657141238,0.076258674264,0.218417108059,0.174214676023,0.092334680259,0.029712781310,0.075338274240,0.125158384442,0.042139917612,-0.257265329361,0.082979299128,-0.029218396172,0.244047999382,-0.117446869612,-0.070811472833,0.962490141392,0.323812514544,0.205915749073,0.069866247475,0.191238328815,-0.041853502393,0.155058443546,0.044274482876,-0.024647867307,-0.015737771988,0.128557756543,-0.084198877215,0.163752108812,0.209769248962,0.137576624751,0.076167777181,-0.202714607120,0.051937453449,0.087969712913,0.023712076247,0.027823360637,0.146369010210,-0.019235277548,0.061574362218,-0.193419978023,0.130548804998,0.020495122299,-0.011002350599,0.098073564470,-0.173270985484,-0.198691472411,-0.297740161419,0.064203560352,0.159746557474,0.183455079794,0.052974138409,1.567031025887,-0.108546800911,-0.035771191120,0.403876721859,0.023749647662,0.207722201943,-1.168202519417,-0.235401526093,0.067202687263,0.051103338599,0.095270767808,0.206679701805,-0.214256405830,-0.703060567379,0.417274981737,0.097091227770,0.038041688502,-0.162489026785,0.098162725568,-0.048770833760,0.026383686811,0.108216755092,0.064898975194,0.274410754442,-0.120457313955,-0.177611097693,-0.124094404280,0.030599609017,0.315669745207,0.184457048774,0.320685327053,0.360314428806
0.012653143145,0.014655386098,-0.259488195181,-0.107746869326,0.015142137185,0.010060925968,0.038074251264,-0.283132612705,0.000276847626,-0.006161700934,0.026252042502,0.010778825730,-0.007811046671,0.040514819324,-0.252595752478,-0.159322082996,0.001353022060,0.411757826805,-0.040877290070,-0.016171341762,0.000404324004,0.015708642080,-0.098003491759,-0.002243465511,-0.245088905096,-0.018563928083,0.452406406403,-0.165590494871,0.002348790877,0.003129390068,-0.050789408386,0.013691336848,-0.102079078555,-0.010047331452,2.072275161743,-0.006963361986,0.116179943085,-0.280611276627,0.043739546090,-0.002486658283,-0.023066954687,0.017389796674,0.053757581860,0.010960740037,0.002740312135,0.057433359325,-0.025179905817,-0.235161572695,5.007020950317,-0.049731217325,-0.045880895108,-0.020552435890,0.027552125975,0.005236769095,-0.017835505307,0.003874832531,0.004967254121,0.006523601245,-0.057926092297,-0.026241863146,-0.052798155695,-0.115429177880,0.016951540485,-0.067746505141,0.505894064903,0.022443402559,0.011490019970,0.008536972106,0.004260821268,0.007637832779,0.008054488339,-0.241436570883,-0.000295901875,-0.730013668537,0.022925229743,0.001589637599,-0.014441153966,0.002665823558,0.012936878018,-0.019720271230,-0.071312673390,-0.063209399581,-0.010907996446,0.006214587018,-0.081639565527,-0.047749888152,-0.012199121527,0.010526951402,-0.175551518798,-0.488147526979,0.085487470031,0.021194312721,-0.265326291323,0.022467704490,0.002467658836,-0.137313902378,-0.560929059982,0.002423791448,-0.054899659008,0.457232564688,0.002264929470,-0.012842540629,0.382231891155,1.123153924942,-0.002616851125,-0.398972004652,-0.000934490352,0.005431571975,2.840111732483,-0.100412748754,0.040483482182,0.068000070751,-0.026421518996,0.002882834291,0.227494537830,-0.006201011594,0.036333780736,0.129388526082,0.001324261422,0.009808532894,0.003786755260,-0.090410977602,0.054649010301,-0.033219236881,0.155617550015,-0.053446888924,-0.336037397385,-1.718476295471
0.347683399916,-0.155651256442,0.158622086048,-0.153846830130,-0.166390836239,-0.178493186831,0.217456623912,0.057947464287,0.301280647516,0.096056550741,0.052223436534,0.209987297654,-0.204065844417,-0.165778756142,-0.174568116665,-0.019515911117,-0.106986604631,-0.052550453693,0.011106346734,0.253078222275,-0.036695998162,-0.321614414454,-0.126505717635,0.323752194643,0.188230499625,0.030413260683,0.265640050173,-0.270313173532,-0.224216118455,0.178818061948,0.038372501731,0.100751861930,0.047863468528,-0.070763066411,-0.034123562276,-0.273863285780,0.001876824768,0.013966185041,0.298727810383,0.094881989062,0.643765985966,0.002538777189,0.035368081182,0.343241453171,-0.380362600088,0.051498975605,-0.379020988941,-0.088868409395,0.222600251436,0.010163393803,0.019135115668,0.099583111703,-0.147699788213,0.007833207957,0.121657349169,-0.067846201360,0.020295605063,0.222393363714,-0.085240729153,0.254337400198,-0.283896088600,-0.020324258134,0.251569122076,-0.126470252872,-0.032243937254,0.175904676318,-0.223492488265,0.101292535663,0.027946418151,0.192596361041,0.053650733083,0.135341212153,-0.059574417770,-0.321462929249,-0.089013300836,0.036429613829,0.503455758095,0.012500963174,-0.113466866314,-0.537991762161,-0.304542362690,2.036808013916,-0.026609331369,-0.378052532673,0.143203034997,-0.041378509253,0.048877544701,-0.114115133882,0.149758622050,0.063284397125,0.306974560022,-0.218601331115,-0.080482415855,0.076674446464,-0.326108157635,-0.015530554578,0.201963156462,-0.177421554923,-0.099075704813,-0.104116909206,0.246000990272,0.065471440554,-0.114988781512,-0.069476209581,-0.240141525865,0.119902238250,-0.020026199520,-0.060515806079,-0.034642048180,0.248397633433,0.300727576017,0.171367838979,0.327244877815,0.369524627924,-0.155594617128,-0.361233979464,-0.011491769925,0.279044747353,0.023601714522,-0.286986440420,-0.093712836504,-0.020819649100,0.032895397395,0.093008391559,-0.045898184180,-0.120423853397,0.110110551119,-0.109984047711
0.325739562511,0.189450219274,-0.094203367829,0.617607712746,0.212705209851,-0.016722887754,0.176396682858,-0.151788264513,-0.249013051391,0.625385046005,0.334828108549,0.260711103678,0.619977355003,0.507729589939,0.074742600322,0.217773154378,-0.157099857926,-0.070490300655,0.273901253939,0.121849127114,-0.001491133473,-0.059497762471,-0.089901506901,-0.181710377336,0.125278174877,-0.257272720337,0.081852920353,0.006706953049,0.363934248686,-0.254936099052,-0.232511058450,-0.147530212998,0.042418282479,-0.084496937692,-0.146265149117,-0.104519076645,0.287545770407,0.215768456459,-0.382232159376,-0.094878941774,0.248133122921,0.204751253128,0.063659287989,-0.286981165409,0.216301947832,-0.114954210818,-0.170168057084,-0.417425185442,-0.074263557792,-0.084748566151,-0.098842464387,0.135133221745,-0.126068741083,0.420634061098,-0.254264682531,0.381789892912,-0.075818367302,0.402082115412,-0.235360682011,-0.039600521326,0.403614372015,0.130232885480,0.243750691414,0.038405999541,-0.248301863670,-0.086528323591,0.003735984443,0.088224098086,0.249040842056,-0.248809710145,-0.083705417812,-0.136333733797,-0.568605184555,-0.029543325305,-0.294164448977,0.019651256502,0.116528384387,0.148261442780,0.474200457335,-0.368360787630,0.021112706512,-0.180603832006,0.283578842878,-0.194344162941,-0.143674731255,0.001677245484,-0.111063584685,0.224271923304,0.267866075039,0.117102056742,0.461703389883,-0.036370269954,-0.317083954811,0.492625087500,0.121817216277,-0.364828705788,-0.391389578581,-0.070630028844,-0.208355084062,0.049546692520,-0.031242322177,0.137079089880,0.465619266033,-0.192673161626,0.287061065435,0.084249213338,-0.200466245413,-0.202485039830,-0.245698422194,0.423507302999,-0.406980633736,0.084915369749,0.035912550986,-0.030858715996,0.164732649922,-0.123205058277,0.033781446517,-0.132633090019,0.101770661771,0.570860505104,-0.103357136250,-0.154300525784,0.203354910016,0.364298671484,-0.259736686945,0.036067210138,0.035519458354,0.242547512054
0.364766210318,0.251047998667,-0.306330591440,-1.698253989220,0.525117158890,-0.124650955200,0.566196024418,0.245180144906,-0.156716972589,0.634777486324,-0.103560328484,0.184313118458,-0.603966593742,-0.024597408250,0.365713775158,0.269611537457,-0.097214467824,0.216803520918,-0.138808906078,0.017195746303,0.232634112239,-0.460930943489,0.241364613175,0.149217084050,0.299036562443,-0.002024573972,0.097563765943,0.244793474674,-0.442531943321,-0.242323473096,-0.044395644218,0.052973490208,0.420209079981,-0.026846015826,0.101354718208,-0.099057242274,-0.409094274044,0.167632177472,0.156562671065,-0.500967562199,0.460108816624,0.543781638145,0.191566348076,-0.086340017617,0.294103950262,0.075386084616,-0.485647022724,-0.454451739788,0.246409460902,-0.054682955146,-0.002012971323,-0.230546310544,-0.217672452331,0.121105559170,0.011804429814,0.368376016617,-0.068716004491,-0.272323429585,-0.284915506840,0.135144308209,-0.238374322653,-0.054831914604,-0.197797998786,-0.149279594421,0.030525587499,-0.428561449051,-0.382721036673,-0.185326352715,-0.170995250344,0.139263853431,0.048935331404,0.476414114237,-0.261276841164,0.326005011797,-0.269582539797,0.361277163029,0.195138260722,0.060791876167,0.767877936363,0.090506978333,-0.086886703968,0.057492706925,0.079788506031,0.050905410200,0.413455933332,-0.197739303112,0.582362174988,-0.025922719389,0.155732974410,0.127052143216,-0.280360490084,-0.174424305558,0.001916821231,0.152958422899,-0.218828842044,0.417845010757,0.028845835477,0.515507221222,0.267676085234,0.175027266145,-0.411104738712,-0.474249243736,-0.336187154055,-0.474594384432,-0.161012023687,0.281829446554,-0.170021831989,-0.134448513389,-0.188405960798,-0.509087741375,0.397313237190,0.093760736287,-0.075231567025,-0.143450483680,0.122148215771,-0.020588152111,0.168106704950,-0.595492839813,0.247500836849,0.026634078473,0.197095409036,0.259497314692,-0.085009828210,-0.124539412558,-0.090115167201,0.438218504190,0.115801729262,-0.012135179713
-0.085577450693,0.343370497227,0.109812781215,1.693083524704,0.065533153713,0.050103038549,-0.026883315295,0.133788496256,-0.155666425824,0.018117474392,-0.028668027371,-0.156464755535,0.014203039929,-0.082124769688,0.058820717037,0.060397118330,-0.005049243569,0.003954705782,-0.013188063167,0.092975266278,0.012446588837,0.095767609775,0.979323148727,-0.045234598219,0.100674748421,-0.013477278873,-0.519480347633,-0.050195578486,-0.085531644523,-0.124063678086,-0.161453321576,-0.055173303932,0.005691719707,-0.037605836987,-0.236065462232,0.005598692689,-0.092759124935,0.418106794357,-0.057620570064,0.069630384445,0.438330054283,-0.151828229427,-0.434920608997,-0.114008978009,-0.010645955801,-0.042615618557,-0.262055277824,-0.483906507492,-0.427170425653,-0.018558923155,-0.192052930593,-0.051883179694,-0.029962992296,0.005596742034,-0.045829515904,-0.166259229183,0.069817245007,-0.215239599347,-0.216418027878,0.031438875943,0.356966495514,-0.062779575586,0.080251611769,0.040048319846,-0.345740020275,-0.062623552978,0.093756899238,-0.045474890620,-0.079488188028,-0.004250583705,-0.112445019186,0.143788963556,-0.037392098457,-0.122752398252,0.152804151177,0.014904260635,-0.137103587389,0.024165080860,0.089253544807,-0.001536947791,0.056390944868,-0.053291816264,-0.071498662233,-0.078591376543,0.202312663198,-0.258314013481,-0.153652429581,-0.035796351731,0.361641615629,-0.068365544081,0.385837137699,-0.519150435925,0.070980340242,-0.012437269092,-0.122847810388,0.114252373576,-0.318261414766,-0.088688462973,0.528186082840,0.075567744672,-0.318609267473,-0.227988347411,0.082355134189,-0.890602409840,0.005282698199,-0.167472720146,-0.145511150360,0.064432367682,-0.290041357279,0.327289879322,0.166310414672,0.143909364939,-0.030017154291,-0.107235334814,-0.101644255221,-0.065611824393,0.068637177348,0.288137465715,-0.082450419664,0.054566919804,-0.025557097048,0.141996085644,-0.011654695496,-0.129897370934,-0.037656009197,0.133166313171,-0.279416531324,0.858818888664
0.275714844465,-0.033590972424,-0.148000970483,0.217845216393,-0.055714868009,0.146245136857,0.194369778037,0.219808518887,2.493008613586,0.072380527854,-0.215911433101,-0.095555007458,-0.046308621764,-0.020728811622,0.013593687676,-0.880335688591,0.003166946582,-0.101382598281,0.181384682655,0.082504533231,0.431836813688,-0.219056695700,0.158093795180,-0.107758991420,-1.460528135300,0.021264875308,0.263764262199,-0.094359979033,0.147801011801,-0.186387747526,-0.121157675982,-0.337847173214,0.158355638385,-0.033704873174,0.021487625316,0.157742470503,0.198552474380,0.003077783156,-0.099957697093,-0.107891604304,-0.090031526983,0.269106566906,-0.014755989425,0.231353908777,-0.100563570857,0.080430120230,0.276681840420,-0.037816669792,-0.763759493828,-0.096976697445,-0.041845783591,-0.094383932650,0.620285689831,0.665167987347,0.265643864870,-0.104134052992,0.014815947972,-0.429777085781,-0.248687505722,0.143305212259,0.141747474670,-0.188571318984,0.007452730555,0.022494452074,0.013540269807,-0.077704273164,0.064403802156,-0.201472759247,0.183751866221,-0.021809678525,-0.043404657394,0.304466992617,0.412271916866,-0.273527979851,-0.061753921211,0.065187625587,-1.051724433899,0.324910074472,0.126870736480,0.209704861045,-0.106130845845,1.445334434509,-0.135187551379,-0.106760405004,0.053266186267,0.010559306480,-0.064462721348,-0.188531219959,-0.210438176990,0.238142132759,0.246186241508,-0.084117062390,-0.037329461426,-0.272932469845,0.190583422780,-0.168592691422,-0.298080056906,0.161847293377,-0.074627935886,-0.096363723278,1.804334878922,-0.806816577911,0.209354817867,-0.058366961777,-0.054308064282,-0.150238707662,0.039340823889,0.042739182711,-0.100530713797,-0.023556780070,-0.122793406248,0.081205420196,-0.480464458466,0.025690564886,0.187874034047,0.316389054060,-0.650195360184,-0.198527634144,-0.048794906586,-0.039123024791,-0.151921480894,0.184721365571,0.066543780267,-0.215775981545,0.881932139397,-0.024917060509,-0.019604835659,0.361568272114
0.036044847220,0.035849299282,0.295521259308,0.031911570579,0.203912809491,0.496452152729,0.055082980543,-0.742783606052,-0.544676601887,-0.243652552366,-0.250702649355,0.746558666229,-0.176354333758,0.011302718893,-0.340816944838,-0.145903900266,-0.274869799614,-0.110584847629,-0.010346131399,-0.521183490753,1.134531736374,0.072602942586,0.005498989020,0.244000330567,-0.210349172354,-0.088617853820,-0.083695396781,-0.042507864535,-0.165130212903,0.138178095222,0.035626247525,0.075220145285,0.031227134168,-0.058440309018,-0.043431691825,0.677470028400,-0.206240326166,0.049113396555,-0.723679304123,-0.035218246281,0.191247403622,0.157333776355,-0.003227474401,-0.365601569414,0.011168627068,-0.201269954443,-0.433123946190,0.258516609669,-0.863585412502,0.123064145446,-0.124808982015,-0.016788126901,0.383753031492,-0.174991652369,-0.151128664613,0.167304784060,-0.030194701627,0.101301990449,0.132093533874,-0.255804717541,0.348925650120,-0.124974459410,0.014467748813,-0.050361409783,-0.191928237677,0.832563996315,-0.065490752459,-0.957331597805,-0.044163443148,0.379884451628,0.000050883995,-0.094741471112,0.112347252667,-0.000736287911,0.018458627164,1.221916317940,-0.055567655712,1.257319569588,0.615449726582,0.384854853153,-0.319346636534,0.384548425674,-0.109940111637,-0.519315481186,0.207378432155,-0.217754438519,-0.613046050072,-0.586267530918,0.308295011520,0.106433704495,0.271764725447,0.332389533520,0.198589205742,-0.329800248146,0.342091590166,0.143404752016,-0.126162499189,-0.261829137802,-0.103767387569,0.031616803259,-0.005222700071,-0.047002762556,0.078923463821,-0.037572119385,-0.160193577409,-0.104802623391,0.096574880183,0.233543783426,-0.091237619519,-0.119799599051,0.269482374191,0.138112127781,0.110708981752,-0.405013710260,-0.142237827182,-0.197310581803,0.062269173563,-0.462957888842,-0.216842457652,0.267672717571,-0.505949854851,0.167339012027,0.303224116564,0.944029092789,0.075055360794,-0.024229792878,-0.108350567520,0.294030427933
-0.113465853035,-0.005081917159,-0.328761816025,0.133131325245,-0.089392259717,-0.053088419139,0.397693604231,0.076681442559,0.086700052023,-0.136346876621,0.960402786732,0.281405270100,0.049112636596,-0.001629707054,-0.059119611979,0.412221044302,0.104240007699,-0.034402810037,0.048146359622,0.232274875045,-0.044767640531,0.280063599348,-0.146545752883,0.009001133963,0.228359878063,0.043798722327,-0.130286455154,0.075186476111,-0.264997541904,0.373149782419,0.388231933117,-0.507166743279,-0.065468907356,-0.015464082360,0.059314269572,0.087642692029,0.764712512493,0.025747070089,-0.097350820899,0.122525192797,0.180140420794,-0.017836814746,-0.035815268755,0.134921312332,0.197754696012,0.121820725501,0.089468359947,0.279487222433,-0.923277616501,0.149162441492,0.007794762962,0.201528877020,0.117560163140,0.054103132337,-0.305540084839,0.055269043893,0.439214736223,-0.014821826480,0.220238864422,-0.003774104640,0.084611654282,0.201118975878,-0.017375992611,0.217793956399,-0.108883135021,0.227776080370,0.109136179090,0.560665130615,0.072796098888,-0.060780435801,0.219496503472,0.151004478335,-0.068807989359,-0.391026884317,0.048507098109,-0.202764555812,-0.364621698856,-0.747553408146,-0.494472742081,-0.048479989171,0.306343466043,-0.072286471725,0.201485604048,0.291143685579,-0.050293426961,0.137136772275,-0.122933708131,0.127314686775,-1.002639651299,-0.386985838413,0.047403059900,-0.054290588945,-0.030557861552,0.107656121254,0.024043215439,-0.780961871147,0.001757777412,0.315161198378,0.166004896164,-0.084642432630,-0.007724429946,-0.171737641096,-0.019627658650,-0.097852014005,-0.329383939505,-0.099349483848,-0.200330242515,-0.278025627136,-0.195294007659,-0.065021760762,-0.027470733970,0.004389579408,0.150402516127,-0.194023117423,0.353093028069,-0.308149635792,0.095682196319,-0.128685578704,0.076874144375,0.094183526933,0.062954097986,-0.042822577059,-0.114799536765,0.118112057447,-0.348131358624,0.061587896198,-0.113116748631,0.605940341949
0.141102477908,-0.522621273994,-0.153384357691,0.212170869112,-0.016722172499,0.116175755858,0.232700094581,0.213101238012,0.313044786453,0.041454520077,0.164596140385,-0.129300698638,0.103934198618,-0.113082967699,0.145915612578,0.328615546227,-0.005429206416,-0.344750165939,-0.422358661890,0.231643930078,-0.042728390545,0.105117484927,-1.064819455147,0.160256490111,0.202664628625,0.090912915766,0.515261828899,-0.453610777855,0.123618729413,0.459218680859,-0.221384555101,0.024530583993,0.052728116512,-0.050358626992,0.161792159081,0.209799110889,0.055250234902,-0.536467373371,-0.045611616224,0.355049103498,0.028802741319,0.133314818144,0.029892327264,0.064793221653,0.144907414913,0.110195212066,0.199644535780,0.289836823940,-0.147506639361,-0.035561885685,-0.128875419497,-0.068032607436,-0.096542134881,0.132483765483,-0.149421796203,-0.034789238125,-0.257894843817,0.066015265882,0.171589255333,0.065678946674,0.068383611739,-0.149362176657,0.068800255656,0.239889428020,-0.334577769041,0.185809060931,0.033456321806,0.150178864598,0.219726666808,0.124897658825,0.185622647405,0.288549602032,-0.010726791807,-0.143659561872,0.102973826230,0.048648834229,0.264980971813,0.180433779955,0.020501494408,-0.329681754112,0.325665503740,0.089008025825,-0.027143022045,0.243954777718,0.187678530812,-0.219663202763,0.037060320377,0.216163575649,0.078369751573,0.081176988780,0.001962743001,0.867388665676,0.091622531414,0.061322316527,-0.087761871517,-0.011922557838,0.114882670343,0.232973933220,-0.568068683147,-0.732061803341,0.085692822933,-0.032247047871,-0.412587910891,0.629371225834,0.120068870485,0.206963300705,0.322143763304,0.024060236290,-0.110929735005,0.468652606010,-0.013422844931,0.065198458731,0.082457229495,0.197970971465,0.010372401215,0.002519040368,0.022633388638,0.061488628387,-0.115084558725,0.559327483177,-0.033287629485,0.090684436262,0.109753906727,0.085174739361,-0.231646224856,-0.637880980968,0.000949501526,-0.428779751062
0.274741083384,0.024678079411,0.110341601074,-0.334781408310,-0.144510522485,0.984127879143,0.149454802275,0.143063560128,-0.196785360575,0.040232203901,-0.127359077334,-0.119988232851,0.103055126965,-0.062643036246,-0.118590325117,-0.664440333843,-0.182010695338,0.031136909500,0.006913176272,0.133678987622,0.074629232287,-0.199599742889,-0.073713451624,-0.118620067835,0.927132010460,-0.043767038733,-0.003269137349,0.028040723875,0.174610123038,0.115709945560,-0.138497978449,-0.515651524067,-0.046952620149,-0.053410459310,-0.015344962478,0.180935323238,0.152403309941,-0.003985092044,-0.182116478682,0.012157960795,-0.008871579543,-0.201415419579,0.017102582380,0.007766444702,-0.013186466880,-0.018501229584,-0.231326907873,-0.184136092663,0.362699657679,0.063088163733,-0.171102687716,-0.082308299839,-0.193589925766,-0.311034679413,0.508303284645,-0.034034185112,0.176375374198,0.419041186571,-0.091033749282,-0.088291019201,0.144601598382,-0.041010223329,-0.015390411019,-0.000474067929,0.085872553289,-0.029591079801,0.005918277893,-0.301295548677,-0.045262016356,0.103602521122,-0.111748293042,0.753973901272,-0.042525492609,-0.122239798307,-0.023608291522,0.114932760596,0.384971022606,0.453295946121,0.243593826890,-0.176739126444,0.062680251896,-0.695120155811,-0.058064188808,0.658197045326,-0.054213933647,-0.079063519835,0.133659109473,-0.441598355770,0.117691449821,-0.145984813571,0.024658121169,0.096235379577,-0.021129986271,0.039028923959,0.307845950127,-0.104176066816,-0.111961856484,0.022468412295,0.013109114021,0.030724924058,-0.786311984062,-0.909293949604,0.066757388413,0.050633963197,-0.016070008278,0.200632438064,-0.508299946785,0.214669167995,0.143149226904,0.000639601902,-0.102701224387,0.048298504204,-0.395825594664,0.265047132969,-0.111212186515,-0.959951996803,0.001324657933,0.452202349901,-0.235205247998,-0.098689012229,0.007021848578,-0.211498916149,-0.006945622154,-0.210538968444,0.490140229464,0.079447284341,0.067600205541,-0.228458449244
-0.075788639486,-0.059009373188,-0.325821161270,-1.093351364136,-0.051459208131,-0.036635823548,-0.020766019821,0.047558158636,-0.176397144794,-0.012120660394,0.101377792656,-0.208141908050,0.134567469358,-0.758518099785,-0.147013902664,0.026396207511,-0.012544459663,-0.301796138287,0.358753323555,0.171450003982,0.072404965758,-0.086330108345,-0.013947365806,0.001273550792,0.107920005918,0.020222611725,0.270777463913,0.196422725916,-0.206618517637,0.106348581612,-0.457514703274,0.058910172433,0.075636163354,-0.058705568314,0.074796147645,0.224926486611,-0.036764562130,-0.211272463202,0.447930037975,0.000835283834,0.137719422579,0.106888055801,0.097541704774,0.054645854980,-0.031395986676,0.065667673945,-0.019797662273,1.001135826111,0.479168176651,0.012324212119,0.016189692542,-0.036140464246,-0.023092139512,0.110896319151,0.155651643872,0.034795638174,-0.124010972679,-0.171954914927,0.221392795444,-0.001105714706,-0.619186103344,-0.193996742368,0.009600924328,0.073447369039,-0.024172727019,-0.159574121237,0.044779635966,0.063975200057,0.080858327448,-0.030889296904,0.141931608319,0.037521947175,0.183997139335,0.104090727866,-0.032576650381,0.084170386195,-0.191620081663,-0.097803868353,-0.006841869559,0.177024230361,0.100346185267,0.034953229129,-0.046533972025,0.079600855708,-0.031950719655,0.060099318624,-0.027396829799,-0.078264877200,-0.198317289352,0.043578218669,-0.309671163559,0.718014657497,1.092331290245,-0.110366284847,-0.219197764993,0.036195609719,0.496270179749,-0.062472254038,-0.578633189201,0.879785060883,-0.214379414916,-0.173375189304,-0.264548599720,0.303274035454,-0.033215060830,0.787681281567,-0.054057292640,0.076497577131,0.194849848747,-0.008205800317,-0.193394377828,-0.015532673337,0.066150583327,-0.063310541213,0.183371886611,0.387125760317,0.389720410109,-0.137727558613,0.022167365998,-0.325358092785,-0.049162685871,-0.034951888025,0.107113718987,-0.122511185706,-0.058166071773,-0.240979164839,-0.565709114075,-0.444630980492
0.336465060711,0.010132786818,0.105943061411,-0.000086352295,-0.600744068623,-0.033577956259,0.002263753908,0.270948290825,0.001756719197,0.391922056675,-0.005454724189,-0.019584206864,0.003569555702,0.072037652135,1.775163650513,0.038823992014,-0.056044250727,-0.033594686538,-0.059525799006,-0.035791266710,-0.660351336002,0.102748714387,0.000309103023,-0.191596016288,0.126311719418,-0.003989438992,0.016600934789,-0.012810795568,0.002600928536,0.012266406789,-0.188325434923,-0.004702880513,0.056337039918,-0.023015009239,0.029915345833,0.089828804135,-0.150669619441,-0.033796768636,-0.121486365795,-0.010514288209,0.141881361604,0.024709228426,-0.002237722278,0.031208436936,0.004706869368,0.032813768834,0.035477440804,-0.944444417953,-0.001055056578,-0.016691941768,0.044036045671,-0.134242773056,0.035254634917,-0.040236365050,0.426732778549,-0.011189704761,0.045579016209,0.024559566751,-0.263260483742,0.036831486970,0.080588042736,0.016952844337,-0.021355623379,0.089292399585,0.017205001786,0.611443340778,-0.172370329499,-0.304967522621,-0.018182564527,0.667561650276,0.047513678670,0.078915134072,0.014746669680,0.070997536182,0.236878275871,-0.970790684223,0.007533434778,1.203617215157,0.148226097226,0.570232272148,0.121624164283,-0.003567008302,-0.522467672825,0.037334736437,-0.054594311863,-0.217035636306,-0.537085056305,-1.262569427490,-0.012022147886,-0.027760507539,-0.022519517690,-0.030451841652,-0.098215192556,-0.025881169364,-0.085009403527,0.175714239478,-0.017810270190,-0.025593696162,0.009659503587,-0.026016524062,0.005301190075,0.033564683050,0.006208760198,-0.012070081197,-0.001759597915,0.154554799199,-0.029487032443,0.714047074318,-0.003869982436,-0.006072031800,0.032447814941,0.060819193721,0.033521972597,-0.019087968394,-0.088989242911,-0.030293345451,-0.005753554869,-0.336502611637,-0.998503267765,-0.023802271113,0.000987004256,-0.020368520170,0.073466390371,-0.491107106209,-0.040668819100,0.030103426427,0.013951105997,-0.134476467967
-0.032100316137,-0.040529221296,-0.612499594688,-0.015320745297,0.005714107305,0.020798714831,-0.033837273717,0.047666903585,-0.054655358195,0.007433230057,-0.182010293007,-0.014642977156,-0.067096725106,-0.080800458789,0.083080329001,0.317634433508,0.044920027256,-0.043852213770,0.095902994275,0.059408031404,-0.041318271309,-0.013277512975,0.019816050306,-0.003391842823,0.338762044907,0.000595405407,-0.089549288154,-0.033673159778,0.182455629110,-0.090004540980,-0.041566088796,-0.204571440816,-0.048503432423,-0.000888414623,-0.037606660277,-0.164718240499,0.232878178358,0.023745713755,-0.049553405493,-0.012605852447,0.105228498578,0.006404439453,0.011216871440,-0.122503280640,0.037660885602,-0.022933907807,-0.012061508372,0.053473647684,-0.144672796130,-0.000357675948,0.002798060421,0.022482281551,-0.078330151737,0.039614185691,-0.034341856837,0.008529027924,-0.009763650596,0.195025011897,-0.041797593236,-1.351333737373,0.075835183263,0.002243420109,0.000762136828,-2.254246711731,0.050168760121,-0.052990812808,-0.029094649479,0.016866063699,-0.052904572338,-0.012819431722,-0.030658055097,0.235685721040,-0.088020943105,0.337792217731,0.000399271055,-0.058254905045,0.090097025037,-0.054504863918,-0.034290771931,-0.111516810954,1.466021537781,0.634814262390,0.017049353570,0.056145269424,-0.033435814083,-0.033575110137,0.032997004688,-0.228063359857,0.259948492050,0.003281549551,0.011236131191,0.023690547794,0.026839755476,0.150437995791,-0.141769841313,-0.310284376144,-0.188858866692,-0.114250436425,-0.016363088042,-0.026374097914,-0.005936088506,0.210652619600,0.148216962814,-0.009308723733,0.032179731876,0.011254495010,0.085134401917,-0.031491495669,0.073154382408,0.089624248445,0.098551630974,-0.000337853329,0.026178739965,0.036605790257,0.554907977581,-0.186486437917,0.020319841802,0.117889523506,-0.072849072516,-0.008485938422,-0.139840528369,0.016590807587,0.010073416866,0.037533547729,-0.257922351360,0.000815750740,0.037311978638,0.167853683233
-0.335620254278,-0.009504791349,-0.117337092757,-0.154150813818,0.402040123940,-0.926005840302,0.037143424153,0.113553076982,0.566166341305,0.102673389018,-0.014316361398,0.027659595013,-0.105126470327,-0.009361882694,0.396098524332,0.632994771004,0.467567712069,0.013088606298,-0.008462137543,-0.045053936541,0.099646359682,0.410225421190,0.067589260638,0.151295617223,0.010489622131,-0.048152130097,-0.100802466273,-0.038850534707,0.158403292298,0.030825121328,0.149421647191,-0.056757237762,0.028904119506,-0.036356098950,0.003286019666,-0.567387282848,-0.328212648630,-0.004680912476,0.429403007030,0.069444201887,0.426200032234,-0.034893557429,0.008860635571,-0.071678139269,0.075529143214,-0.028742259368,0.103808797896,0.484942167997,-0.025574618950,0.044887501746,-0.150110229850,0.140432834625,-0.055761281401,-0.810716986656,-0.635402441025,-0.045375857502,0.097781158984,0.464557886124,-0.019865177572,-0.113919317722,-0.461204141378,-0.037842724472,-0.023041965440,0.152228415012,0.050523001701,0.276897281408,0.384174674749,0.099031411111,0.023496057838,-0.420291602612,0.091434560716,-0.730383932590,0.155667439103,0.301070868969,-0.021694710478,-0.263438642025,-0.096080146730,-0.501136302948,-0.300062596798,-0.352779865265,0.216043695807,-0.875496029854,0.345076590776,-0.043416410685,0.080671772361,0.152527242899,-0.219523444772,0.749782800674,0.499368995428,0.036935210228,0.058084633201,0.124776832759,-0.034168113023,0.109813325107,0.121022120118,0.358688294888,0.316546350718,-0.033098656684,-0.100172936916,0.021360957995,-0.273656070232,-0.278933346272,-0.214670449495,0.031322613358,0.024061875418,-0.003436004510,-0.999364376068,-0.543126344681,0.018728321418,-0.040981933475,0.001276748138,0.054083663970,-1.431095957756,0.117195867002,0.119595721364,-0.138436138630,0.090978808701,0.138390898705,0.376851290464,0.026904938743,-0.068006247282,-0.005852709990,-0.094851151109,0.152323946357,-0.544999182224,-0.073239259422,0.032930128276,0.094102762640
-0.365527480841,-0.379050523043,-0.139443427324,1.322639584541,-0.214904949069,-0.064682535827,0.793638825417,0.011385994032,-0.024076372385,0.209595873952,-0.629974007607,-0.332710206509,0.258557856083,-0.433760344982,0.340599328279,0.052868966013,0.036063417792,-0.172886878252,0.300422787666,0.229094296694,-0.258519947529,-0.285504013300,-0.128045886755,0.281772881746,0.785986185074,0.225080177188,0.050512123853,-0.329781323671,0.150186061859,0.300458759069,-0.144149214029,-0.459050238132,0.147618263960,0.003634206951,0.110947996378,-0.037768352777,-1.006249427795,-0.019234342501,-0.129274129868,0.061912693083,-0.413407266140,0.229269444942,0.232561290264,-0.571801245213,0.309103518724,0.062176611274,-0.391413211823,-0.085983790457,-0.094456903636,0.166974589229,0.794104516506,0.231445848942,-0.337231934071,0.076245822012,0.218706950545,-0.049180395901,-0.277130931616,0.550696551800,-0.030898805708,-0.028541984037,0.085499562323,0.181552931666,-0.020138092339,-0.073483146727,0.063072904944,-0.138712272048,0.217774808407,0.220829978585,-0.603647947311,0.382206350565,-0.908928573132,0.691876173019,-0.609651088715,0.048666901886,-0.298700630665,-0.270970016718,-0.190315678716,-0.085247389972,-0.191368177533,-0.273542463779,-0.120431289077,-0.056382633746,0.309962064028,0.307711362839,0.112750202417,0.069608815014,-0.175292029977,0.279390901327,0.482238292694,0.181592613459,0.073852203786,-0.025767154992,-0.245721861720,0.372987359762,-0.027569582686,1.252688288689,-0.080900244415,-0.037544015795,-0.333469897509,-0.006789985113,-0.040620766580,0.391083419323,0.085283808410,0.067507438362,-0.073745489120,0.052263893187,-0.061015103012,-0.150560677052,0.206100091338,0.344685047865,0.009303288534,-0.106475979090,0.086154200137,0.346475124359,0.044692989439,-0.432805627584,0.036143369973,-0.132273063064,-0.359082669020,-0.085092306137,-0.110400982201,0.205748930573,-0.084357604384,0.011305646040,-0.031951330602,-0.680476367474,0.302670240402,0.020059952512
-0.042283669114,0.010618341155,-0.750281989574,0.001476180740,-0.017095658928,0.207293286920,0.204084515572,0.062848478556,0.547523438931,0.001714163809,0.904739022255,0.223382472992,0.259947955608,-0.016330204904,0.350972652435,-0.873004198074,0.030051231384,-0.016918523237,0.118518747389,-0.198339745402,0.324542164803,-0.073407396674,0.003634403227,-0.020763013512,0.086689069867,0.006166305393,-0.017153335735,0.015638584271,0.435646384954,0.035772964358,0.067300803959,0.460454553366,-0.056014437228,0.006338912528,0.020773801953,0.039861753583,0.053292822093,-0.017529331148,-0.370429217815,0.026746125892,-0.944644987583,-0.013590995222,0.001272851019,-0.057769026607,-0.046511750668,0.001787790447,0.276480436325,0.083115793765,-0.022532220930,0.032301116735,0.018146438524,-0.008072438650,-0.084451168776,-0.016559893265,0.023888131604,-0.043118383735,0.060988727957,1.141282558441,0.075615242124,-0.002170172986,0.399303197861,0.015468175523,-0.026804864407,0.082556046546,-0.015626914799,0.040089007467,0.288730800152,-0.013420763426,0.100267082453,-0.031070666388,0.443365901709,-0.145011350513,0.428010791540,-0.440758228302,-0.011730700731,0.012966746464,-0.422462612391,0.124606154859,-0.006212530192,0.042331777513,0.083145119250,0.150806114078,-0.027687994763,-0.281448543072,0.042113829404,-0.016645375639,0.002131506102,0.262524724007,-0.381873875856,-0.059000894427,0.130236074328,0.036390528083,0.035590544343,-0.179808631539,0.314335823059,-0.012167007662,-0.547912776470,0.187491953373,0.034348342568,-0.005406472366,0.107680961490,0.186517134309,0.417188197374,-0.030923502520,-0.039580106735,-0.058922085911,0.299149006605,-0.001950423815,-0.014129955322,-0.035588454455,-0.006010991056,0.038017924875,0.076001577079,-0.484870761633,0.695053398609,-0.264505088329,0.171495929360,-0.568592607975,0.001925204298,-0.234299689531,-0.001634648535,0.023260591552,-0.054180942476,0.039043832570,0.781274855137,0.025087034330,-0.017739625648,0.284013450146
0.352544933558,-0.122389666736,0.002546026604,-1.337633848190,-0.136813402176,-0.215677410364,0.016054265201,0.433826744556,-0.076204366982,-0.521573781967,-0.660808563232,-0.169110149145,0.094152159989,0.198208034039,-0.448540359735,0.214326277375,0.074278801680,-0.253663063049,-0.000504987896,-0.161945983768,0.203625947237,-0.182339876890,0.137762144208,0.077176444232,-0.087878830731,0.506061971188,0.762485027313,0.050245080143,0.063062041998,0.048911925405,1.208645582199,0.282343119383,0.101650990546,0.041441310197,0.192079141736,1.300229787827,0.061154533178,-0.060125056654,-0.511113524437,0.014982562512,0.097115814686,0.192151367664,0.348514646292,0.287512153387,-0.048590574414,0.428804844618,-0.077094577253,0.046913608909,0.307146340609,0.532780766487,0.361192077398,0.286885082722,-0.217599943280,-0.012958519161,0.100118905306,0.968910872936,-0.100178390741,-0.366643160582,0.526032567024,0.057019431144,0.469673514366,-0.193924501538,0.199189811945,-0.051805879921,0.223739460111,0.337812811136,0.051719937474,0.185595676303,-0.030411422253,0.006992752664,0.077717937529,-0.126075938344,-0.548330962658,0.513542592525,0.319056123495,-0.166159942746,0.241275772452,-0.079445339739,-0.096502080560,-0.030275158584,-0.028993563727,-0.028784120455,0.017889635637,0.113778330386,-0.114141374826,0.229894697666,-0.190598234534,-0.682131230831,0.296193420887,0.142409324646,0.149646028876,0.196608915925,0.633961319923,0.060378257185,-0.240490421653,0.029453929514,-0.367880105972,0.023661825806,-0.106515146792,0.444491624832,-0.467753082514,-0.546295344830,-0.156037896872,-0.367627829313,-0.265250563622,-0.243183702230,-0.124126330018,0.176210179925,-0.090261079371,-0.131241306663,0.198777511716,-0.061520762742,-0.200005292892,0.411332517862,-0.244932457805,0.102256670594,0.009792290628,0.291052907705,-0.000883841538,-0.226474046707,0.021825537086,0.173452481627,0.393569439650,-0.204096198082,-0.142647653818,-0.301986962557,0.192258834839,-0.303982555866
0.032934974879,-0.051543299109,-0.293356090784,-0.312437951565,0.018733248115,-0.000322862063,0.029472302645,-0.105754926801,0.049789041281,-0.010170163587,-0.003423206741,0.027494426817,0.017851863056,-0.466651797295,-0.134963899851,-0.118040181696,0.006207829807,-0.024403311312,-0.017787240446,-0.031437225640,0.010165783577,0.018406543881,-0.046359695494,-0.020347623155,-0.139890402555,0.028280559927,0.116488173604,0.442500770092,-0.005391648971,0.025256667286,0.061985556036,0.015242038295,-0.131737038493,-0.013054291718,1.832682251930,0.020652417094,0.039818618447,0.048882696778,0.092297106981,-0.057331129909,0.093402601779,0.037894774228,0.141723528504,0.009036244825,0.023865099996,-0.038999967277,-0.008087723516,0.019461113960,3.055177927017,-0.016731420532,-0.044026065618,-0.009537462145,-0.010736827739,0.041343800724,-0.049054842442,0.024267790839,-0.031827244908,0.051727104932,-0.056638948619,0.007866338827,-0.043518830091,0.267040044069,0.129456833005,-0.002182550030,-0.162838459015,0.038882762194,-0.018527179956,0.018229877576,0.052092168480,-0.037604395300,0.023830065504,-0.112692989409,0.006821323186,-0.604290485382,0.045327611268,0.029074681923,-0.043304506689,-0.006925741676,0.032330896705,-0.056713156402,0.013797250576,-0.025525130332,-0.017505932599,-0.008449846879,0.011420747265,-0.132908210158,-0.000198865862,0.029052153230,-0.074075400829,0.069202184677,0.159149691463,-0.110781244934,0.028093906119,-0.050853125751,-0.026438398287,-0.045019362122,-0.067085571587,0.015309145674,-0.246336624026,0.198569431901,-0.053351998329,-0.030202990398,0.024041859433,1.024356722832,0.001210162300,0.363956123590,0.000651565671,0.006994742434,2.875193595886,0.011739992537,0.015683323145,0.059056080878,0.008981298655,0.062295112759,0.263953298330,0.014692704193,0.071391649544,0.160944610834,-0.002249723999,-0.038163051009,0.012661110610,0.036520559341,0.018680928275,-0.026602387428,0.110919438303,0.154382929206,-0.455950707197,-1.030855655670
