0.039233580232,0.003159253625,0.280660331249,-0.064215987921,-0.187593832612,-0.057929139584,0.075249828398,0.052503101528,0.199338048697,-0.110757775605,-0.292227149010,-0.052495900542,-0.142667725682,-0.168821111321,0.010500144213,-0.013218416832,0.019516909495,-0.164106786251,0.028698613867,0.059376440942,0.156965583563,-0.002800963819,0.250168085098,-0.001416184241,-0.134606555104,0.006747799460,0.054819524288,0.054238114506,0.039411146194,-0.024821119383,0.021587487310,-0.003337291768,0.104824624956,0.000933382893,-0.254799604416,-0.040658336133,-0.007323638536,0.006893896498,-0.054585628211,-0.389255821705,-0.075539119542,0.007498956751,0.033489853144,-0.065079160035,0.762586414814,-0.023159829900,0.175360247493,-0.019264778122,-0.100596107543,0.001164827612,-0.088792249560,-0.145296454430,-0.018235694617,-0.130843594670,-0.054901231080,0.038267355412,-0.067905090749,-0.044548545033,0.056917488575,0.169603034854,0.011088571511,0.020897731185,-0.076537966728,-0.054873280227,-0.145876660943,-0.248225182295,0.117973640561,-0.076763778925,-0.577329754829,0.101191893220,-0.065578207374,-0.360701680183,-0.010286715813,-0.242663070560,0.041186206043,0.031082000583,-0.037893507630,0.070981405675,-0.026397395879,0.199510425329,-0.052293632179,0.021845739335,0.083282351494,-0.354658335447,-0.039582833648,-0.066394686699,0.018303154036,-0.042056441307,-0.009309320711,-0.070219524205,-0.004738245625,0.039951201528,-0.038687903434,-0.021013043821,-0.255451738834,-0.083531588316,-0.202320322394,-0.019809331745,-0.089444294572,-0.190599188209,-0.022271409631,-0.002708460204,-0.060728516430,0.001770100091,0.082337602973,-0.038196474314,-0.163372352719,-0.188169360161,-0.044177271426,-0.105572298169,0.033881962299,0.084547922015,-0.033407144248,-0.041174497455,-0.053045492619,0.060039181262,-0.055925033987,-0.033110711724,0.637252807617,0.156818628311,-0.012420511805,0.026348860934,-0.002249232493,-0.010221999139,-0.120178446174,-0.040441252291,0.126382917166,-0.129769772291
0.076695807278,0.037983555347,0.063346087933,0.137018248439,-0.029038820416,0.022157484666,-0.112570174038,-0.026512563229,-0.036394547671,0.200485348701,0.240359276533,-0.050155125558,-0.000439023395,-0.125043928623,-0.005424137693,0.002142809099,0.069588057697,0.034716825932,-0.071889095008,-0.020430751145,-0.053615782410,-0.161398798227,0.008585497737,-0.024523064494,0.063543073833,-0.017799880356,-0.036135267466,0.005787125323,0.087440297008,-0.254473447800,0.169244036078,0.072959490120,0.049325015396,0.041141223162,0.034153092653,0.068064019084,-0.014892540872,-0.060198329389,0.093808427453,0.028684496880,-0.017858317122,0.020690802485,-0.026166930795,-0.022163588554,-0.019778480753,0.007195366081,-0.033685550094,0.061195489019,0.002789494349,-0.128788709641,0.025200899690,0.051881778985,-0.015069666319,-0.001178744948,-0.018944410607,-0.031204672530,0.102667734027,0.039010882378,0.029552526772,-0.017267517745,-0.028368823230,0.018485192209,-0.020794093609,-0.035513743758,-0.008215151727,-0.035431154072,0.037044208497,0.007968604565,-0.062583059072,-0.019711272791,-0.064666964114,-0.042950797826,0.032974429429,-0.059578150511,-0.026225065812,-0.033585608006,-0.032202623785,0.059730768204,0.018164847046,-0.054374039173,0.013838061132,0.073805607855,0.021357629448,-0.061718344688,-0.053582116961,0.697315275669,-0.057388771325,-0.071578897536,0.080351240933,-0.064714170992,0.040803920478,-0.015145668760,-0.020221628249,-0.034999087453,-0.091956146061,0.008289987221,-0.041101429611,0.046657644212,-0.021255735308,0.013604748994,0.037074435502,-0.061882589012,0.044302891940,-0.073356494308,-0.056531604379,-0.042721092701,-0.040841735899,-0.212036848068,0.005279397126,-0.025880517438,0.049282126129,-0.078903362155,0.076910562813,0.003010291839,-0.101003445685,0.301958292723,-0.261772125959,-0.048180002719,-0.047201499343,-0.022892804816,0.077545814216,0.033476009965,-0.039588712156,-0.129375770688,-0.056822285056,0.025778148323,-0.079260781407,0.034234263003
-0.111716672778,-0.081578537822,-0.075179301202,0.127556890249,0.076310291886,0.039187416434,0.087511457503,0.096460372210,0.055921744555,0.033780630678,-0.295555800200,0.234217807651,0.482217609882,0.168042108417,-0.080749832094,0.082232840359,-0.124373324215,-0.052150238305,0.141886219382,0.156317725778,-0.134954214096,-0.556739687920,0.120296590030,0.053603973240,0.086331091821,0.567699730396,-0.001257936587,0.055540531874,0.160254105926,0.037810146809,0.262067168951,-0.112577974796,0.117738522589,-0.081083029509,-0.144979164004,-0.068608447909,0.030775252730,0.082054920495,-0.787268519402,-0.032611083239,0.205373913050,-0.128764644265,0.055478546768,0.227633014321,0.079656615853,-0.092819415033,0.028848590329,-0.088037274778,0.041691355407,0.174852356315,0.177132353187,0.091654799879,0.064093232155,0.035315264016,-0.160985782743,0.106735408306,-0.072619348764,0.054340600967,-0.070644073188,0.081646844745,0.014701322652,-0.128448173404,0.181303545833,0.131100788713,-0.045606303960,0.212270170450,0.018195284531,0.055594250560,0.182259023190,0.122986458242,0.098949924111,0.177599415183,0.002645798260,0.105003036559,0.084584586322,0.055561110377,0.239237830043,-0.163951054215,-0.027219912037,-0.133972883224,-0.042059592903,-0.107840426266,0.002998344367,0.179359018803,0.206012964249,-0.336437642574,0.064706087112,-0.279192686081,-0.032267563045,0.035528410226,-0.246540889144,-0.141892194748,0.141883179545,0.001743930974,0.035231411457,-0.041650354862,0.107353277504,-0.085874661803,-0.286202341318,0.062001220882,-0.157774388790,0.119035474956,-0.239727318287,-0.131509602070,0.091717205942,0.022158157080,-0.015676928684,0.144902244210,0.051889620721,0.205387249589,-0.119415111840,0.252797454596,0.022474728525,-0.059280361980,0.171680256724,0.448421090841,-0.060277447104,0.042933482677,0.126142293215,0.076608419418,-0.097385466099,-0.052968621254,-0.019181182608,0.080151230097,-0.047065753490,0.053813669831,0.051364388317,-0.039826728404
0.340492993593,-0.001359637012,0.325472027063,0.193528071046,0.046049859375,0.081728227437,-0.049289792776,0.031977247447,-0.121069036424,0.210882395506,0.190660461783,-0.052479341626,-0.178671672940,-0.134391590953,0.146392777562,-0.236738339067,0.084831267595,0.074242874980,-0.008454483934,-0.055037219077,0.255284100771,-0.114029198885,0.351847857237,0.073338977993,-0.031960032880,0.053717676550,-0.030499342829,0.113897390664,-0.087068431079,-0.078275181353,0.011193127371,0.050060924143,-0.176345840096,0.176627829671,-0.083758756518,0.032770816237,-0.030262157321,-0.051110949367,-0.022480811924,-0.216561377048,-0.046049691737,0.137408182025,-0.045568563044,0.060255970806,-0.227757021785,0.107823543251,-0.039550986141,0.359164267778,-0.286572873592,-0.156927853823,0.048899982125,-0.026441348717,-0.029827212915,-0.154669642448,-0.168788164854,0.105273291469,-0.202924340963,-0.043846290559,0.062142092735,-0.193433791399,-0.149858146906,-0.111699357629,0.098393850029,0.020012179390,0.042963907123,0.040470786393,-0.069388709962,-0.008293890394,-0.109545059502,-0.136248081923,0.064092405140,-0.020784117281,-0.033978361636,-0.078219905496,0.118877716362,0.110205128789,-0.093207493424,0.126011386514,-0.251359224319,0.056967739016,0.256992191076,-0.006694003940,-0.325545191765,-0.123378045857,0.044182550162,-0.041109442711,-0.065905824304,0.295395642519,-0.052469119430,0.060211982578,0.118776507676,-0.078669354320,-0.090194113553,-0.044169839472,0.221381902695,0.062878496945,-0.166158124804,-0.153665021062,0.190052628517,-0.134546294808,-0.289829522371,-0.053840722889,0.057938795537,-0.030227279291,0.051255084574,0.007611664478,-0.145306646824,-0.032853778452,0.069148704410,-0.000396861258,0.134455949068,-0.109183587134,0.151029571891,0.089321315289,-0.028575237840,-0.060436464846,-0.024914011359,0.071779146791,-0.271972328424,-0.085120275617,-0.189654380083,0.148587524891,0.021620653570,0.003146451665,-0.077216714621,-0.030254336074,0.074947565794,0.097240716219
0.009348790161,0.040951382369,-0.248717233539,0.191441938281,0.244260042906,0.087663933635,-0.022287998348,-0.057892031968,0.064579367638,0.088984929025,0.035304009914,0.194783404469,-0.003126026364,-0.101043984294,-0.080976732075,0.058365240693,0.063392415643,0.127493202686,0.039752081037,-0.282951623201,-0.010692861862,-0.255025416613,0.475548177958,-0.182588934898,0.160650014877,0.008815329522,-0.327416867018,0.193237692118,-0.266768217087,-0.034011367708,-0.019758630544,-0.006307442673,0.134327694774,0.001328280312,-0.017332678661,-0.005360103678,-0.016756625846,0.081424109638,0.034807428718,0.119638152421,-0.232562407851,-0.044717397541,-0.211785390973,-0.009592681192,0.023084968328,-0.035463757813,0.059547744691,-0.032559599727,-0.125678077340,0.103940166533,-0.106135077775,-0.036356523633,0.132258489728,0.032269548625,0.153794005513,0.031147338450,0.024639768526,0.011111947708,-0.096920751035,0.321262687445,0.338717013597,0.027767306194,-0.093583174050,0.024061992764,0.325866878033,-0.146369472146,-0.177780717611,-0.180457785726,-0.194939270616,-0.125732287765,-0.262077033520,0.254600167274,0.028638264164,-0.213068336248,-0.079480074346,-0.046839628369,-0.052849695086,-0.043203711510,-0.092949159443,0.149399250746,-0.047511361539,-0.094817049801,0.012922799215,-0.095512576401,0.034953653812,-0.042731638998,0.088689178228,-0.002310989425,0.017921829596,-0.126204818487,-0.049393661320,0.073796734214,-0.089332409203,0.433182924986,-0.031600955874,0.021749302745,-0.193233624101,0.047481600195,-0.017802432179,0.069787390530,0.066557683051,-0.012020948343,-0.071237280965,-0.001513846451,-0.152924433351,-0.000937836303,-0.189689472318,-0.146049737930,0.139781311154,0.067577175796,0.023105287924,-0.218914926052,0.094209782779,-0.012520460412,-0.111481748521,-0.066307753325,-0.183776959777,-0.042650640011,0.235816776752,0.092189207673,0.004726917949,0.058200944215,-0.283691912889,0.140978485346,-0.024375798181,-0.061409629881,-0.331524550915,-0.011283895001
-0.021166041493,0.082470878959,0.010638944805,0.212540954351,0.014857546426,-0.007141026203,-0.031273208559,-0.015945481136,-0.160374909639,-0.078746721148,0.245276942849,-0.554820358753,0.607930243015,-0.113394543529,0.006020196248,-0.191472664475,-0.033284164965,0.350731462240,0.307808637619,-0.160434797406,-0.421831756830,-0.012342739850,-0.189063414931,0.093288168311,-0.104996241629,0.125797405839,0.014030899853,0.027918718755,-0.458583950996,0.062203533947,-0.013526724651,-0.016300089657,0.101095907390,0.029479628429,0.076655164361,-0.015047837049,-0.233959972858,0.140201061964,-0.216309070587,-0.142422795296,0.275604695082,-0.020370867103,0.028211677447,-0.095096468925,-0.136176407337,-0.008766055107,-0.097388081253,0.023025445640,0.064904272556,-0.194282233715,-0.262531757355,0.094605684280,0.062004785985,-0.031435437500,0.070214129984,0.065785378218,0.034191589803,-0.110994920135,0.016616918147,-0.196001991630,-0.228789791465,-0.056286588311,-0.167463421822,0.030495356768,0.417923063040,0.110297694802,-0.062199302018,-0.066313393414,-0.079471260309,0.134953215718,0.196255341172,-0.268254905939,-0.013897199184,-0.140580803156,-0.219678670168,-0.085990123451,0.202690035105,-0.045477077365,0.052846193314,0.141488954425,0.035382658243,0.058336921036,-0.226468473673,0.111175335944,-0.013528720476,-0.219970375299,-0.005785400979,0.013595012948,0.055644582957,0.229419276118,0.085711129010,-0.153987228870,-0.255299419165,0.110175251961,0.037755895406,0.039235912263,-0.371066957712,-0.056711327285,-0.223283350468,-0.043270770460,0.128534242511,0.029504176229,0.107099793851,0.051304344088,0.273993313313,-0.015726421028,-0.025923362002,-0.152701959014,-0.032786797732,0.123318955302,-0.052590716630,0.335035115480,-0.076350554824,-0.091152764857,-0.110818661749,0.053642425686,0.164855599403,0.024635113776,0.019243981689,0.181201845407,-0.065909937024,0.164923802018,-0.053766220808,0.071467988193,0.123371250927,0.095914199948,-0.071099705994,0.023780239746
-0.032696045935,0.054817982018,-0.207355573773,-0.215103834867,-0.044102299958,0.030603690073,0.024283599108,-0.041458554566,-0.025666449219,-0.034728165716,0.330738157034,-0.106723271310,0.666418135166,0.169141560793,-0.262072265148,0.007681208197,-0.032191403210,-0.002051860560,0.041176579893,0.041685543954,0.258855670691,-0.726811408997,-0.415324926376,0.106895200908,-0.090539492667,-0.048731099814,0.089602634311,-0.182549163699,0.635205924511,-0.167145103216,-0.151895895600,-0.077249884605,0.335226625204,0.023966087028,-0.005622888915,-0.111160054803,0.127336129546,0.134609445930,-0.637256741524,-0.046294957399,0.109363213181,0.112332448363,-0.167743980885,0.024523612112,-0.039822909981,-0.117789678276,-0.386381208897,-0.147397875786,0.109605811536,-0.055321089923,0.111288912594,-0.036907661706,0.087453961372,-0.010217426345,-0.049533277750,-0.076328337193,-0.102798156440,0.219506770372,-0.094940461218,-0.109885208309,-0.142703577876,-0.129860341549,0.356011778116,0.133933886886,0.227257668972,-0.120531380177,-0.023432269692,0.195660606027,0.157976433635,0.125590488315,0.139515504241,0.063086763024,0.213052898645,0.031064320356,-0.289375334978,0.058173175901,0.170848503709,-0.095678910613,-0.028685376048,-0.085494190454,-0.067987509072,-0.105667248368,0.004462402314,-0.191753476858,0.164721235633,1.699122548103,-0.061050944030,-0.245311096311,-0.098651573062,-0.013439436443,-0.162626907229,-0.299685239792,0.147510141134,0.141824215651,-0.224340111017,0.064052708447,0.031131513417,-0.045304313302,-0.413417339325,0.006578575820,-0.404066294432,0.246122792363,-0.061880428344,-0.025934970006,0.162253379822,0.054962053895,-0.039370447397,0.110028363764,-0.015822915360,0.044258862734,-0.258191108704,-0.530025959015,-0.005764292553,-0.163255095482,0.117925658822,0.188613593578,-0.203158020973,0.155009001493,-0.021415427327,0.143501877785,-0.083633795381,0.032157987356,0.074190773070,0.172052443027,0.105622872710,-0.109844066203,0.033371839672,0.013137393631
0.063299827278,0.038628220558,0.025578692555,0.101522020996,-0.052232824266,-0.023191820830,0.000476576301,-0.021988634020,-0.002097770572,-0.051850505173,0.228315398097,-0.065596498549,0.026013238356,-0.057124380022,-0.007274904754,-0.016515977681,0.083324596286,0.025041170418,-0.060169387609,-0.034600436687,0.065470702946,-0.006446288433,-0.110356420279,-0.003123137401,0.027629477903,-0.000408742460,-0.041905310005,-0.069608002901,-0.012174139731,-0.136769011617,0.019050261006,0.086886242032,0.026907667518,0.008434364572,0.053434975445,-0.581109881401,0.010895764455,-0.049982689321,0.175528794527,0.023648593575,-0.049520861357,0.077577956021,-0.023851441219,0.006611656398,-0.029882317409,0.002778612310,-0.030106175691,0.041263841093,-0.009711508639,-0.046425502747,-0.023273309693,0.008111217991,-0.030091933906,-0.042448192835,-0.018540993333,-0.028479710221,0.081498980522,0.014694595709,0.014095888473,-0.021781256422,-0.029586417601,0.016018053517,-0.053851202130,-0.029128259048,0.018480101600,-0.045815166086,0.068485490978,-0.008493146859,-0.052398037165,-0.010050889105,-0.058547940105,-0.049141135067,0.000145827915,-0.009439199232,-0.015090149827,-0.047538954765,-0.054486542940,0.064416594803,0.044701844454,-0.014756493270,-0.005636729300,0.078860595822,0.033359609544,-0.008539271541,-0.036597996950,-0.092415057123,-0.053865749389,-0.017788678408,0.057480890304,-0.040356550366,0.075724266469,0.030187690631,-0.005157273728,-0.030374977738,-0.027167620137,0.005759923253,-0.002900392050,0.083574727178,0.043068788946,-0.079872459173,0.032311581075,-0.050520379096,0.019086502492,-0.040307775140,-0.052937503904,-0.016517115757,-0.023156555369,0.029194574803,0.031796380877,-0.059930104762,0.001221339102,-0.046121753752,0.036119636148,0.010521914810,-0.022013818845,0.296528488398,-0.212369322777,0.007699228823,-0.035756159574,-0.015164356679,0.093988120556,-0.064453691244,0.021019816399,-0.167461186647,-0.011598017067,-0.027450364083,-0.037340819836,0.037847366184
0.001170090050,0.359730094671,0.195374578238,0.129229322076,-0.058767654002,0.137202382088,0.024403357878,-0.023691536859,-0.016833307222,-0.188939496875,-0.063896507025,0.108530916274,0.024126213044,-0.126969322562,0.031697485596,0.330676317215,0.127081260085,0.091436855495,-0.259914666414,-0.069007806480,-0.346617132425,0.152386456728,-0.410526365042,-0.112866230309,-0.003248869674,-0.026350071654,-0.053703442216,0.131733402610,0.243455171585,0.035643558949,-0.138130068779,0.002135056071,-0.085446260870,-0.020973479375,0.071506612003,-0.087064445019,-0.272080838680,0.060663249344,-0.201750844717,-0.167501062155,0.038819909096,0.284594565630,0.079446367919,-0.290570378304,0.009281844832,-0.326510161161,0.119197577238,0.018572559580,-0.022317815572,0.128280371428,0.374418139458,-0.103380367160,0.000073916213,-0.024222282693,0.073978461325,-0.133209139109,0.094102382660,-0.147286504507,-0.013224462979,0.091955296695,0.002961512422,-0.082427844405,-0.009307770990,-0.068734236062,0.181935131550,-0.000558575382,-0.107082314789,-0.167342066765,0.000855369202,-0.133737608790,0.164469555020,-0.071759678423,-0.350088596344,-0.145699903369,-0.080181911588,0.076545797288,0.064373634756,-0.010955461301,-0.263075232506,-0.004549813922,0.007727662567,0.040443710983,-0.146838128567,0.008335959166,0.202322721481,-0.059473160654,-0.041826851666,-0.039194695652,-0.152355641127,0.204690605402,-0.171154499054,0.042287342250,-0.026464950293,-0.251691073179,0.016624672338,0.091798983514,0.448005586863,0.099051490426,0.092024117708,0.025431392714,-0.260092347860,-0.009526639245,-0.031988468021,0.001529903850,0.197207137942,-0.006581696216,-0.030631853268,0.098398819566,-0.068216957152,-0.031343836337,0.123821519315,0.051322814077,-0.027121121064,-0.019462004304,-0.118127629161,0.095492124557,0.181859299541,-0.022476086393,-0.075923115015,0.131303265691,0.101898565888,0.161503106356,-0.494323700666,-0.101535752416,-0.086905799806,-0.027836201712,0.202446073294,-0.037398625165
-0.051778517663,0.060963772237,0.019025629386,0.043615177274,-0.108006678522,-0.011179028079,0.197506085038,-0.131108373404,0.050478387624,-0.026092452928,-0.680338561535,0.241308137774,0.365049302578,-0.014379646629,0.120552524924,0.193323105574,0.021210459992,0.058348421007,0.047597721219,-0.024355676025,0.398928046227,-0.435444265604,-0.300181448460,0.062926568091,0.361536115408,0.127328306437,-0.250661253929,-0.082751847804,-0.179241746664,0.050397738814,0.138785019517,-0.078214712441,0.134257197380,-0.359123378992,-0.166237801313,-0.034356325865,0.316374301910,0.006824816111,-0.356082946062,-0.109631411731,-11.763494491577,-0.422061890364,0.047713667154,0.245873197913,0.310315936804,-0.085080169141,0.068421244621,0.039281409234,-0.007317395415,0.091210864484,-0.199713408947,0.150577127934,0.047212902457,0.123407043517,-0.082932077348,-0.025962466374,-0.060649126768,-0.296585828066,-0.185518488288,0.220520600677,0.174815997481,-0.044282123446,-0.435060679913,-0.033136408776,-0.397909194231,0.259096503258,0.273227274418,-0.460552155972,0.320454895496,-0.094392396510,-0.172070905566,0.163111180067,0.108485847712,-0.047108806670,0.403635770082,-0.247320786119,-0.093466036022,-0.090033479035,-0.170503735542,-0.059700705111,0.020896632224,-0.062068521976,0.188784912229,0.810033321381,-0.222512096167,-0.899694144726,-0.217920228839,-0.422365516424,0.082958824933,0.002663859632,-0.255096018314,-0.010884894058,-0.117203809321,-0.050357487053,0.024507936090,-0.065727747977,-0.027697380632,0.001674226136,-0.046357080340,-0.099741362035,-0.197820648551,0.013198384084,-0.195492446423,-0.292560040951,-0.653052866459,0.022427480668,0.083811387420,0.087103217840,0.112486273050,0.000899241597,0.123380422592,0.167622059584,0.042118452489,0.110501937568,0.249942690134,0.167091116309,0.001972814789,0.192323714495,0.097660452127,-0.113684862852,-0.076681613922,0.140752241015,0.087261892855,-0.092612266541,-0.226163297892,-0.352668285370,-0.208354860544,-0.186761200428
-0.069133788347,-0.018041742966,-0.010989585891,0.084095820785,-0.075847052038,0.022913703695,-0.022506540641,-0.050910186023,-0.013130293228,-0.006794873159,0.064318776131,0.101096935570,0.181805178523,-0.028604004532,-0.021182859316,0.065147332847,0.018631787971,0.097430519760,-0.053787928075,-0.001961231930,0.066965080798,-0.193920478225,0.040385421365,0.224420920014,0.075670383871,0.246112272143,0.083313249052,-0.053399179131,0.207532063127,-0.071008659899,0.098689399660,-0.002450049156,0.041294246912,-0.039102252573,-0.114320650697,-0.019022744149,0.117455683649,0.163304612041,-0.153845310211,0.051463406533,0.013069977053,-0.217581748962,-0.063736848533,0.350008964539,0.075258746743,-0.113892972469,-0.002757103415,-0.052358727902,0.105629332364,0.164435178041,0.085736930370,-0.025205321610,0.014378951862,-0.004402498249,-0.060775581747,-0.151230141521,0.010683028027,0.261644452810,-0.082771286368,0.119918428361,-0.038683287799,-0.189911484718,0.039738904685,0.021686291322,0.119503401220,0.078023612499,-0.049951404333,0.089965447783,0.195181459188,0.126077577472,0.038085993379,0.142364546657,0.096495367587,-0.003877916373,-0.108160443604,0.046351745725,0.128382071853,-0.014974640682,-0.027890479192,-0.125541761518,-0.063143864274,0.034699793905,0.074811093509,0.236148208380,0.104140028358,-0.227121517062,0.001955102431,-0.084704160690,0.004739887081,-0.056993369013,-0.189968064427,-0.075800165534,0.063722513616,0.000729542051,-0.032698024064,-0.054842036217,0.074008576572,0.061869513243,0.017663009465,0.165750950575,-0.013252808712,0.039008099586,-0.140802726150,-0.253652930260,-0.020416541025,-0.005559271667,-0.086194828153,-0.096126422286,0.014291916974,0.079895779490,-0.134184166789,0.100323960185,0.076997123659,-0.058723229915,0.083362326026,0.070743322372,-0.130767539144,0.048693750054,0.016921145841,0.065647907555,0.079287208617,-0.186901092529,-0.003442187561,-0.022293122485,-0.137802556157,0.006066905800,-0.072162553668,-0.025002822280
0.038757059723,-0.309493929148,-0.207597404718,-0.112639963627,0.153648734093,-0.387541860342,0.033936053514,0.024675142020,-0.139137804508,-0.018938237801,-0.021467443556,0.053446002305,-0.220214694738,-0.013431370258,-0.035400923342,-0.122973270714,0.020620385185,-0.141003906727,-0.016130803153,0.055200122297,0.185224592686,-0.077340550721,0.051659200341,-0.034394379705,0.179661035538,-0.057399515063,-0.050606589764,0.133736371994,0.047100190073,-0.005283203907,-0.040929809213,0.009243899025,-0.047885894775,0.070065200329,0.013564752415,-0.012870804407,0.024717316031,-0.055638387799,0.078906990588,-0.413246721029,-0.021041495726,-0.363038957119,-0.136573642492,-0.039056513458,0.021691767499,0.033185344189,0.047755278647,0.092154085636,0.106994792819,-0.034541003406,0.276984035969,-0.083525471389,0.004854140338,-0.003218001220,0.096698068082,0.101171612740,0.037819266319,0.175655886531,0.035742159933,-0.026027537882,-0.101650923491,-0.050503645092,0.040047209710,-0.002954269294,0.047653313726,0.012686923146,-0.010364781134,0.270701140165,-0.003878712654,0.237966999412,0.126316189766,-0.152061164379,-0.033314142376,0.105150848627,0.072092376649,-0.118655264378,0.014480219223,0.050961084664,-0.024129547179,0.147007361054,-0.031499229372,-0.097202964127,-0.044585466385,-0.165579661727,0.195496112108,-0.059114944190,0.112240962684,0.063733100891,0.011501033790,-0.128881499171,0.008420489728,-0.044575031847,0.016310809180,-0.189155802131,0.071722209454,-0.009138368070,0.448518753052,0.130973875523,0.009215047583,0.066139966249,-0.044840667397,0.000915925251,-0.165690943599,-0.030001020059,-0.176548227668,-0.056326467544,-0.130038946867,0.113306336105,0.053913149983,-0.027762511745,0.027056112885,0.190576419234,0.085863873363,0.041164204478,-0.025659939274,0.045775916427,-0.121068328619,0.076298721135,-0.019924398512,0.018157577142,0.034367918968,-0.144983232021,0.154710561037,0.085760958493,0.031011067331,-0.240556180477,-0.138854458928,-0.020315835252
-0.042577896267,-0.147114992142,0.080229699612,0.151514366269,-0.052085626870,0.053943794221,0.008951830678,0.269151329994,-0.000590648211,0.003230703995,-0.159451708198,-0.018513970077,-0.056562192738,-0.030932381749,-0.045411143452,-0.070118293166,-0.011863836087,0.144332885742,-0.177349731326,0.086074225605,0.075809538364,0.148317679763,0.210394024849,0.361624896526,0.095709726214,-0.025060471147,0.196133762598,-0.067163184285,0.043027859181,-0.042554482818,-0.008830707520,0.003014647169,0.030149182305,-0.137465730309,-0.018806628883,0.066309459507,0.029847683385,0.140204206109,-0.044308152050,-0.221428304911,0.079535283148,-0.007253373507,0.058492075652,0.156572461128,-0.070378534496,-0.061063036323,0.220203742385,-0.051001571119,0.111793272197,0.042978998274,0.077885419130,0.055947709829,-0.029404254630,-0.139442384243,-0.168349921703,0.032303035259,-0.017980135977,-0.085205666721,0.003099819412,0.084149844944,-0.209999233484,0.023934055120,-0.078315593302,0.058777406812,0.049264542758,-0.049646042287,0.154692023993,0.187198907137,-0.040755756199,-0.113023743033,-0.336543560028,0.058302342892,0.084287226200,0.194252282381,0.261878460646,0.128345012665,0.056539177895,-0.045149032027,0.022340951487,-0.169843137264,-0.046172656119,0.067165099084,0.032430954278,0.346818625927,-0.123245246708,-0.012939332984,-0.023083060980,0.033770799637,0.156989201903,-0.077618584037,-0.105696812272,0.002705502789,0.178295627236,0.316398948431,-0.048360947520,-0.029342744499,0.324152469635,0.008219384588,0.023426238447,-0.047472305596,0.087169073522,0.004185329191,-0.097006522119,0.009895163588,0.063063330948,-0.015388303436,0.047813467681,-0.165218055248,0.185831278563,0.033013034612,-0.041639000177,0.039996866137,0.152607008815,0.043512780219,-0.034933391958,-0.081574596465,0.046996280551,-0.078297041357,0.084274552763,-0.085344552994,-0.002681578975,-0.195302769542,-0.010827896185,-0.163781061769,0.186476126313,0.019962789491,0.196633964777,-0.001836594311
-0.038376957178,-0.013585472479,0.063421592116,0.076434068382,0.022353231907,0.029645942152,0.183689296246,0.035433869809,0.031342655420,-0.211322888732,0.062219683081,0.096834145486,0.033187273890,0.026606967673,-0.008300748654,0.021262006834,-0.064713381231,-0.023154020309,0.047436799854,0.046920116991,-0.034226343036,-0.032162509859,0.011620339938,0.025608520955,0.018957760185,0.042657732964,0.010512773879,0.013143849559,0.046513758600,-0.146094128489,0.039187956601,-0.043486047536,0.020195554942,-0.013953189366,-0.056535616517,-0.107222586870,0.012562907301,0.035401914269,-0.093905322254,0.001245577005,0.086314879358,0.033592741936,0.023163059726,0.046982161701,0.029679041356,-0.019911715761,0.016778118908,-0.032073039562,0.029603358358,0.045179687440,0.057637531310,0.009616630152,0.028124414384,0.018012626097,-0.031442880630,0.023092277348,-0.034589454532,0.012050540186,-0.031452961266,0.050093472004,0.009996591136,-0.024351976812,0.071024768054,0.030048467219,0.031023385003,0.067883901298,-0.020921766758,0.028418868780,0.069347463548,0.018526429310,0.026679726318,0.069780766964,0.031769756228,0.019800450653,0.019388645887,0.018096685410,0.080818258226,-0.045053262264,-0.020790901035,-0.023010456935,-0.012521876954,-0.046810399741,-0.018147440627,0.043824117631,0.051731001586,-0.004030107055,0.018197167665,-0.049685191363,-0.018163232133,0.037330452353,-0.059522047639,-0.058496020734,0.042809389532,-0.002830415731,0.004365845118,-0.026427792385,0.034817464650,-0.043486174196,-0.035494640470,0.029960967600,-0.000140493532,0.065280832350,-0.054375477135,-0.046246074140,0.038008231670,0.004759673495,-0.005495617632,-0.071674302220,0.008504001424,0.078546494246,-0.027415918186,0.089274868369,-0.008240126073,-0.021067781374,0.037094540894,-0.077318318188,-0.108930148184,0.015218205750,0.050990924239,0.015025052242,-0.042566765100,0.010173109360,-0.006661772262,0.148845374584,-0.010279832408,0.025503147393,0.034594364464,-0.038233231753
0.354510724545,-0.030253488570,-0.187729105353,0.150310426950,0.018422223628,0.101700790226,-0.084481760859,0.114468537271,0.077505707741,-0.107846185565,0.257189959288,0.033184271306,0.060787197202,-0.122170142829,-0.097581773996,-0.021859902889,-0.160666510463,0.011049740948,-0.003116333624,-0.024124365300,0.276147156954,0.018963841721,0.057568434626,-2.158617973328,0.000589694653,-0.030790779740,-0.013357581571,0.141925260425,0.035870958120,-0.060936614871,-0.003290631110,-0.002361983061,-0.184812843800,0.037490002811,-0.103456586599,0.000362436578,-0.166891023517,0.011087401770,0.012340288609,-0.537944674492,-0.261693924665,0.213274046779,0.034324251115,0.056542459875,0.045962404460,0.147585317492,0.113814637065,-0.215074390173,-0.014529468492,-0.047319073230,0.233193486929,-0.046479135752,0.049124702811,-0.053926959634,-0.100180663168,0.158790335059,-0.299676388502,-0.014735575765,-0.138561338186,-0.001659024623,0.173619583249,-0.065883547068,-0.016671983525,0.004496647976,0.107948631048,-0.004224817734,-0.076471231878,0.041583184153,-0.043787371367,-0.135113164783,0.077172882855,0.034216195345,0.041141584516,-0.052664861083,0.051066208631,-0.106603391469,-0.096362687647,0.165734186769,0.198653370142,0.095493122935,-0.031437132508,0.200233146548,0.014736375771,-0.140579819679,0.004592775367,0.039638679475,0.162275776267,-0.009848737158,0.067309394479,0.064773231745,-0.144363760948,-0.188730508089,0.080754354596,0.013929283246,-0.186557382345,0.109894819558,0.262463927269,-0.072927638888,0.162817478180,0.101088717580,0.084327653050,-0.040301699191,-0.214585274458,0.012328296900,-0.127622663975,0.002839280060,0.102370135486,-0.078722596169,0.041131816804,-0.018370997161,-0.264884322882,-0.012636647560,-0.105897314847,0.059362296015,0.062565349042,-0.023200934753,-0.005702903960,-0.370980650187,-0.028446614742,-0.084290958941,-0.053076811135,-0.153095468879,0.138640105724,-0.108114138246,0.202558562160,-0.127779960632,-0.228921607137,-0.005241121165
0.023289535195,0.077958703041,0.083791889250,0.144597426057,0.151449099183,0.105907283723,0.013725325465,0.474832057953,-0.016464618966,0.136308014393,0.070719189942,0.033864550292,0.179437026381,0.193414717913,-0.030369386077,0.006408395246,-0.016679644585,-0.170839339495,-0.057296764106,-0.045213010162,0.215372920036,0.064465366304,-0.042994219810,-0.059560004622,-0.066614031792,0.124466083944,-0.098995350301,-0.090062931180,0.012135744095,-0.045305199921,-0.006247619633,-0.043388668448,0.025481468067,0.054811727256,-0.108909085393,-0.043467588723,-0.001949460711,-0.114146195352,0.002575909253,-0.162273854017,-0.246637299657,-0.143168747425,0.088783852756,-0.171703830361,-0.109178245068,-0.036574836820,-0.004940977786,-0.104408092797,-0.030087146908,-0.333332955837,0.284347862005,-0.050687681884,-0.099002234638,-0.201948612928,0.046899795532,-0.054991792887,0.062254056334,0.113567888737,-0.085285142064,-0.444802075624,-0.074277661741,0.043514676392,-0.453235626221,-0.192774400115,-0.104053676128,0.215099230409,0.144092351198,-0.087687246501,-0.208520144224,-0.144717335701,-0.075051061809,0.707371532917,0.171938180923,-0.067372858524,-0.038921531290,-0.060303986073,0.396088182926,-0.038762766868,-0.059690594673,-0.054468054324,-0.011484328657,0.098730891943,-0.084313094616,-0.034760132432,-0.032362144440,-0.104004673660,0.198903948069,-0.032685305923,0.147408396006,0.026878120378,-0.171822890639,-0.151497244835,0.130749568343,0.062363300472,-0.144866332412,-0.025726817548,-0.066828362644,0.025125021115,0.066080480814,-0.099144682288,-0.009197527543,-0.101615540683,-0.015448033810,0.069516807795,-0.135950580239,-0.058858107775,-0.039026599377,0.037447504699,0.054402753711,0.147591099143,-0.132243305445,0.187321051955,0.013440800831,-0.055266715586,-0.295539468527,0.169986560941,-0.042791228741,-0.152824983001,0.251538276672,-0.228232964873,0.014052119106,0.063086256385,-0.035467814654,-0.007227960508,-0.053479205817,-0.061408463866,-0.072695128620,-0.000066200351
-0.048867844045,0.002438473748,-0.031793698668,-0.130413666368,0.035238876939,-0.095208890736,0.012982746586,0.119282081723,-0.043244283646,0.009944139980,-0.043864730746,-0.017861165106,0.084916695952,-0.099640026689,-0.010025119409,0.080613963306,0.033057406545,0.103340648115,-0.238330051303,-0.076888673007,0.024454474449,-0.077171318233,-0.017287366092,-0.113520987332,0.048005551100,0.011770353653,-0.042959734797,-0.181654810905,0.014323142357,0.002577615902,-0.095908522606,0.007358787581,0.012151407078,-0.066753037274,0.035392075777,-0.026745945215,0.001482241671,0.598023593426,-0.068490952253,0.036509186029,-0.095983289182,-0.069555766881,-0.061139229685,0.036655087024,0.014397867955,-0.002909563947,0.009164175950,-0.001138195978,0.672000110149,0.150187522173,-0.107035279274,0.058893263340,0.009211289696,0.022886907682,-0.082088969648,0.094691410661,-0.014891359024,-0.054199855775,0.005289076827,0.004477469251,-0.043803688139,-0.040804512799,0.083323866129,-0.024802455679,0.212006092072,0.353808939457,-0.033567607403,0.003914189991,0.005897263531,0.181097954512,-0.014873646200,-0.028915474191,0.028218664229,0.008833000436,-0.011090979911,-0.057722225785,-0.043682951480,0.017090279609,0.177942290902,0.145707875490,0.033123623580,-0.021520469338,0.047957833856,0.075781106949,-0.049609169364,-0.160717666149,-0.053238488734,0.091087467968,0.034395206720,0.021653823555,0.015999257565,-0.072874054313,0.610954046249,0.081877306104,-0.026302490383,-0.029115248471,0.106833331287,0.035462610424,-0.058588344604,-0.144562304020,0.094618365169,0.039047777653,-0.002889523283,-0.033119376749,0.019259152934,-0.045897103846,-0.066004723310,0.051151391119,0.058746390045,-0.160246446729,-0.031681738794,-0.142072126269,0.052948076278,-0.031932435930,0.047908879817,-0.074156172574,0.133051678538,-0.004155853763,-0.038329157978,0.178566977382,-0.004028994124,0.041565753520,-0.089056551456,-0.117309890687,-0.050096850842,0.012775879353,-0.107268646359,-0.039423521608
-0.033578991890,-0.105706311762,-0.359058916569,0.118980512023,-0.308406203985,-0.165328741074,-0.020103381947,0.062371551991,-0.006817850750,0.104821600020,0.023712076247,0.235881119967,0.043914783746,0.061333399266,-0.010956236161,0.138699144125,0.004829247482,0.191898748279,-0.512386262417,0.189798399806,0.102619625628,-0.105464398861,0.190619930625,-0.158023446798,-0.115192987025,0.015451731160,-0.073450975120,-0.098370432854,0.040372874588,-0.000036314224,0.044574167579,0.023153660819,0.043739818037,0.061323489994,0.064206108451,0.025974346325,0.071728922427,0.101634189487,-0.039483640343,-0.252416193485,-0.071029469371,0.058872740716,0.166513651609,0.152973845601,0.068022452295,0.068595476449,-0.133967489004,0.007853677496,-0.228139668703,0.200232118368,0.178191155195,0.038590777665,0.276900023222,0.011929139495,0.026203155518,0.009760976769,-0.023965116590,0.187590017915,-0.099290952086,0.011279925704,0.284765362740,-0.057952094823,-0.504003882408,-0.164929002523,0.157651841640,-0.020217398182,-0.058901675045,-0.008676164784,-0.065963432193,0.107558123767,-0.004818450194,-0.418642103672,0.146779984236,0.030656162649,-0.033957909793,-0.037317506969,0.068735264242,-0.004273260012,-0.035112578422,-0.143053293228,-0.032080706209,-0.121898189187,0.020209647715,-0.167624831200,0.077458724380,0.000581368746,-0.109080843627,0.003083481919,-0.150206655264,-0.198735848069,0.042753480375,0.073943853378,0.121771752834,0.073541849852,0.062621891499,0.111125484109,0.084224194288,0.007091121282,0.023007214069,0.081854842603,-0.125294044614,0.027284020558,0.050273843110,-0.064289696515,-0.223245859146,0.023695770651,0.099509589374,-0.029662167653,-0.102433748543,-0.002023606328,0.039451871067,-0.072429515421,0.060308411717,-0.075207181275,-0.079379163682,-0.035897571594,-0.123267367482,0.416198492050,0.246108219028,-0.147098124027,-0.086020305753,-0.150554701686,-0.059772629291,0.167127624154,0.175160408020,-0.107548005879,0.264238119125,-0.042896609753
-0.116997890174,0.134459525347,-0.137076586485,-0.016136502847,-0.006567531731,-0.093008495867,0.031653266400,0.057285264134,-0.028947370127,0.038730274886,-0.105658970773,-0.029508490115,-0.095564864576,-0.097465805709,-0.039240945131,0.033647071570,-0.021195162088,0.204405486584,-0.057222045958,-0.111819908023,0.029502592981,0.067284680903,-0.012731523253,-0.035652153194,-0.065974555910,-0.040758207440,-0.040603309870,-0.193542167544,0.002257599263,-0.011865491048,-0.038917984813,0.716720461845,0.006194317248,-0.116463273764,-0.047268193215,0.035544574261,-0.044392753392,-0.021880919114,-0.018804067746,-0.195746079087,0.097501471639,-0.181965589523,0.007560470141,-0.040793593973,0.050947852433,-0.039042361081,0.033299367875,0.025031520054,0.016602784395,-0.053197611123,0.168585240841,0.043400276452,0.007994858548,0.020821003243,0.014204005711,0.054340369999,-0.103470370173,-0.199978604913,-0.032571356744,-0.003145181574,0.005174337886,0.053483609110,0.049684528261,0.059112630785,0.022320160642,0.014716292731,-0.173917397857,-0.044494919479,-0.000860575819,0.013766386546,0.116052776575,-0.008844688535,-0.071857921779,0.041434526443,-0.008796883747,-0.033996619284,-0.022003209218,-0.059766661376,0.072027392685,-0.115555949509,0.013487633318,0.238774910569,-0.080391302705,-0.166500538588,0.009392414242,0.001838094555,0.058642279357,0.126680120826,0.010420133360,0.004787293728,0.036533068866,-0.071305990219,-0.022477056831,0.068060196936,-0.123928636312,0.011509759352,0.186808943748,-0.044927906245,0.181844070554,-0.000696062518,0.116880990565,-0.000044252451,-0.071226656437,0.034352160990,0.086005449295,-0.035876471549,0.000171038060,0.188052341342,-0.020389728248,-0.014822295867,-0.019716000184,-0.018985891715,-0.045557588339,0.011849579401,-0.017286591232,-0.153935536742,0.098866105080,-0.059391796589,0.056004818529,0.040757451206,-0.098241999745,-0.205212295055,-0.042250469327,-0.049044422805,0.115277722478,0.130562335253,0.070657573640,-0.059749085456
-0.063657976687,0.153880998492,0.227942213416,-0.120406389236,-0.160172134638,-0.106228962541,0.072866983712,0.145372658968,-0.008598261513,-0.191862627864,-0.224402353168,-0.129008352757,0.055704161525,-0.032323278487,-0.041789807379,-0.079459026456,-0.093628771603,0.217598542571,-0.014930796809,-0.143196031451,0.347683101892,-0.191238850355,-0.139569550753,-0.350647151470,-0.115675002337,0.025038486347,0.134936884046,0.112245112658,0.518724262714,0.012724505737,-0.073379114270,0.045329589397,0.197886392474,0.263128578663,-0.039849992841,-0.101465217769,0.029815537855,0.049343068153,-0.504346668720,0.010393654928,-0.017650369555,0.101488910615,0.115270964801,-0.561347961426,-0.072738699615,-0.023438993841,-0.099947869778,-0.118553861976,0.027263624594,0.033005174249,0.005535693839,-0.266262143850,-0.049555778503,-0.106875360012,-0.159882530570,0.127632483840,0.022019134834,-0.120036818087,-0.040018189698,0.255592346191,0.065542712808,-0.046067133546,0.252523273230,0.054040979594,-0.239592820406,-0.079040542245,0.275492429733,0.050256527960,0.248631775379,-0.122041434050,-0.117392487824,0.194287195802,0.172234237194,0.020062657073,-0.057427886873,-0.414984673262,0.100906535983,-0.121780037880,-0.047756403685,0.372086197138,-0.140097558498,-0.036828637123,-0.108490899205,-0.014796633273,-0.238464236259,-0.217733502388,-0.107055477798,-0.163804531097,-0.121054157615,0.155235707760,-0.256575167179,-0.130112811923,0.130451917648,-0.027374353260,-0.159101933241,0.108432784677,-0.344893425703,-0.001872596913,-0.224446609616,-0.583003818989,0.216810256243,0.086282871664,-0.107380218804,-0.083409152925,0.133571982384,-0.058511257172,0.009618840180,-0.022125937045,0.195607870817,0.012287922204,-0.003789388807,-0.420493334532,-0.129159554839,-0.134305357933,-0.193506509066,0.228432014585,0.215095758438,0.120895482600,0.038206417114,0.047554008663,0.029333174229,-0.106874786317,0.181974470615,0.048794414848,-0.035508960485,0.098596595228,0.168588072062,-0.018079744652
-0.013803069480,0.066933199763,0.102075338364,-0.213552951813,0.034781537950,-0.078872755170,-0.010612862185,0.013970959000,-0.031017975882,0.179022267461,0.108146786690,-0.339814692736,0.048361752182,0.018600406125,-0.060079742223,-0.033477801830,0.005024284124,-0.007261465769,0.079956747591,-0.078865185380,0.168734714389,0.046384163201,-0.055777397007,-0.128863677382,0.016339501366,-0.012832509354,-0.071674272418,-0.022532021627,-0.045413542539,-0.009421451949,-0.049238208681,-0.004668130539,-0.025313494727,0.011003493331,-0.013506839052,0.015438812785,-0.137974679470,-0.141314655542,-0.028200831264,-0.002276403597,0.088623739779,-0.124189347029,0.049047224224,0.000559870736,-0.012443408370,-0.026368478313,-0.018718633801,0.027659282088,-0.024073729292,-0.045620121062,0.065888270736,0.058364611119,-0.121395319700,-0.195453137159,-0.053414452821,-0.000800768787,-0.052837405354,-0.035661164671,-0.010887291282,0.022416369990,-0.038414210081,-0.031620156020,-0.145924225450,-0.141547545791,-0.106303252280,-0.046639185399,-0.008841008879,0.045691691339,0.900355577469,0.054485213012,-0.016819752753,-0.255333453417,-0.163385540247,-0.100387945771,0.080905720592,-0.075435250998,0.285566926003,-0.049011174589,-0.088196806610,-0.045337025076,0.011249464937,0.069617353380,0.010383222252,-0.318364590406,-0.011788118631,-0.172714322805,-0.165012493730,-0.013926008716,0.048063334078,0.032800287008,0.000980628771,-0.063195168972,-0.167622640729,-0.039620112628,0.071638442576,-0.044375684112,-0.196210116148,-0.033569544554,0.002017507562,0.084442555904,0.099696293473,-0.003842047416,0.123622052372,-0.008540050127,-0.073615968227,0.007207851857,-0.032380949706,-0.079307548702,0.036012433469,0.022263541818,-0.026103107259,0.544534444809,0.062856674194,-0.023903859779,0.009669183753,0.033173598349,0.051508031785,-0.033864844590,-0.544640064240,0.000059816819,0.008604723960,0.077544271946,0.022346327081,-0.053697362542,-0.068224333227,0.052050508559,0.209455356002,-0.010549630970
0.091607205570,-0.019941750914,-0.223750948906,-0.157369941473,0.045648071915,-0.085127055645,0.001514369389,0.138375565410,-0.121440678835,-0.001067420701,-0.065593093634,0.486443400383,0.086656697094,0.201816126704,-0.039876364172,-0.325779646635,-0.074255995452,0.068881489336,0.116826929152,-0.020441932604,0.316658586264,-0.193887934089,0.066759429872,0.038385421038,0.092283159494,-0.020011413842,-0.125617459416,-0.131356254220,-0.109581649303,-0.004941266496,-0.072123602033,-0.009001527913,-0.128645390272,-0.040335267782,0.030236329883,-0.023777170107,-0.339379459620,-0.055320348591,0.049416542053,0.066141039133,-0.327353626490,-0.011265022680,-0.012535197660,-0.048818159848,-0.040519379079,-0.130574479699,0.082801416516,-0.008075415157,-0.105780526996,-0.423558503389,0.311790555716,0.064963690937,0.033092387021,-0.136889368296,0.023011591285,0.138442307711,-0.000288325828,-0.055506680161,-0.017339309677,-0.186016499996,-0.223295599222,-0.054582651705,0.102382250130,0.238233208656,0.045176021755,0.328708469868,-0.078288152814,-0.117542058229,-0.054497543722,0.313381075859,0.015372003429,-0.083791136742,-0.074248559773,0.034173056483,-0.021485436708,0.062247850001,-0.368849903345,0.075754091144,-0.045891478658,0.015714002773,-0.058216284961,0.040210321546,0.007199576590,-0.194181248546,0.018720462918,-0.147404700518,-0.066273912787,0.044463139027,0.100876510143,-0.084811501205,0.050679225475,-0.016158450395,-0.124025121331,-0.020432006568,-0.002537263324,-0.012447615154,-0.017336644232,-0.050038684160,0.060149401426,0.260443985462,-0.012070856988,0.081242389977,0.045839391649,-0.003399959300,-0.068686947227,-0.084569692612,-0.057194273919,-0.093169160187,0.199892371893,0.023607198149,-0.024937486276,-0.078331999481,-0.054292384535,0.107678726315,0.350799918175,-0.005712351296,-0.104234337807,-0.098472177982,0.116015195847,0.335954040289,0.048416450620,-0.166178941727,0.070649303496,-0.072167903185,0.031004911289,0.165350288153,-0.185275152326,0.039807155728
0.052464138716,-0.048877466470,0.028141275048,-0.035753507167,-0.000255008490,-0.002601769753,-0.027427427471,-0.003367916681,-0.054541248828,0.003738433588,0.036993745714,-0.013564300723,0.023234240711,-0.031917959452,-0.015357827768,0.007631206419,-0.006729443558,-0.005956571084,-0.012460228987,-0.020943157375,0.008336885832,0.122992537916,0.011458612047,0.042726472020,0.054301295429,0.005241445266,-0.003095509252,0.054561402649,0.009192556143,-0.066629201174,0.019128456712,0.029284147546,0.018311947584,-0.031901992857,0.037572544068,-0.221724703908,-0.048513773829,-0.021083831787,-0.011824917980,0.037189472467,-0.038564790040,-0.063107289374,-0.098334722221,-0.042938169092,-0.046974338591,0.001384359901,-0.012897624634,0.051046900451,-0.007683369797,-0.062714837492,-0.019425641745,0.038857024163,-0.029554514214,-0.021062122658,0.051308635622,-0.004055662081,0.011203676462,-0.041850205511,-0.028501264751,-0.031519278884,-0.048637855798,0.055313833058,-0.015382570215,-0.015285097994,0.029309768230,-0.035755421966,-0.070125132799,-0.032287452370,-0.035966724157,0.048109080642,0.000805892050,-0.067038275301,-0.003458868247,-0.013612270355,0.035823550075,-0.037774801254,-0.038902271539,0.035399105400,0.010542754084,0.011674651876,0.028675844893,0.011625574902,0.008007676341,-0.020001243800,0.019622003660,0.118686519563,-0.025104880333,0.038599878550,0.013999802060,-0.105563864112,0.015130198561,0.017161080614,-0.012110372074,-0.005212222226,-0.024471426383,-0.000941078877,-0.007914243266,0.008022130467,0.090087451041,0.022331753746,-0.008929685690,-0.004009106662,0.025964844972,-0.055576391518,-0.017541039735,0.065949745476,0.003308295971,0.176091209054,0.011763510294,-0.054005566984,-0.004649387673,-0.055258184671,0.016126910225,-0.002855559811,-0.013240675442,0.244944348931,-0.136076211929,-0.005727803335,-0.030234685168,0.010872538202,0.028183875605,0.001064791461,-0.023766728118,-0.014631074853,0.018884789199,-0.042898867279,-0.044475868344,-0.012342507020
0.127814546227,0.064989820123,-0.008308635093,0.184842646122,-0.091357156634,-0.038544692099,0.041578963399,-0.046537790447,-0.028459295630,0.029042139649,0.452514499426,-0.125680431724,0.061256024987,-0.114349223673,-0.005578213837,-0.018464615569,0.151143819094,0.040540527552,-0.087336063385,-0.077589266002,0.077043578029,-0.041211947799,-0.221196100116,-0.003265921492,0.031048299745,-0.006905173417,-0.072616383433,-0.103801965714,-0.003600887954,-0.401057213545,0.019479749724,0.154945626855,0.055485837162,0.026967544109,0.082267180085,-0.203765094280,-0.010460776277,-0.101036220789,0.317037969828,0.027719024569,-0.056029640138,0.132714748383,-0.064847148955,-0.006176027469,-0.074978977442,0.021079123020,-0.064234450459,0.097556851804,-0.006021945737,-0.115444026887,-0.064824581146,0.014950592071,-0.063487634063,-0.069634445012,-0.010883969255,-0.054060928524,0.146717801690,0.013821786270,0.020264256746,-0.072732008994,-0.070867784321,0.026379369199,-0.106140233576,-0.056878916919,0.057822428644,-0.081792995334,0.098600417376,-0.029035901651,-0.109027981758,-0.005989476573,-0.090429186821,-0.096661843359,-0.004462927114,-0.034327648580,-0.021129265428,-0.093565173447,-0.112985320389,0.125816792250,0.080581471324,-0.012039554305,-0.001019322081,0.137908250093,0.050024967641,-0.047193616629,-0.064632825553,-0.099671982229,-0.093321204185,-0.003726445371,0.102752536535,-0.075846374035,0.137392178178,0.057087469846,-0.020398560911,-0.072685770690,-0.063075192273,0.008665593341,-0.028270537034,0.143352106214,0.075795024633,-0.114284723997,0.016705086455,-0.093452312052,0.041698317975,-0.027580857277,-0.091835878789,-0.052180271596,-0.053382206708,-0.150061815977,0.038362275809,-0.118509262800,0.005934129935,-0.123455166817,0.058647915721,0.025622917339,-0.048677511513,0.434847056866,-0.364196270704,-0.007508201990,-0.083756975830,-0.007140743081,0.164630845189,-0.082586042583,0.006574185565,-0.428471982479,-0.021423501894,-0.041075989604,-0.085115931928,0.075566507876
0.226904749870,-0.081459850073,0.262057244778,0.038777973503,0.060131605715,0.366887688637,0.265245079994,0.072740659118,-0.007095279638,0.051729705185,-1.101989865303,0.181571081281,0.601659119129,-0.155892923474,0.044271700084,0.070006191730,-0.111147485673,-0.328513294458,0.021348455921,0.017403606325,0.426162153482,-0.536321878433,-0.408596187830,0.049182109535,0.302638500929,0.243352860212,0.024857113138,0.027212137356,0.261132329702,-0.017873980105,0.104763165116,-0.114160031080,0.258127301931,-0.189355641603,-0.278935849667,0.052023943514,0.128250926733,-0.123169124126,-0.465649127960,0.049536559731,0.138835817575,-0.417889654636,-0.315242022276,-0.338831096888,0.384396165609,-0.099322743714,0.262249708176,0.032998371869,-0.289448499680,-0.267843872309,0.139808654785,0.359620928764,-0.031423836946,0.428028553724,-0.124516882002,0.069558374584,0.052229404449,-0.956251442432,0.047211997211,0.041157122701,0.339525729418,-0.041414707899,-0.162624493241,-0.081548802555,-0.166963502765,0.241730719805,-0.176210254431,-2.814741849899,0.189892992377,0.048921328038,0.088843703270,0.070237472653,0.096827559173,-0.245168283582,0.529714226723,-0.049965538085,-0.283161759377,-0.063246943057,-0.326762974262,0.276525199413,-0.232916057110,-0.039579048753,-0.067920021713,-4.059363842010,0.011089948937,-0.187786206603,0.165320709348,-0.058789927512,0.122076831758,-0.158840671182,-0.108714111149,0.044745597988,-0.122173480690,0.094680696726,0.097416006029,-0.028339732438,-0.263554424047,0.139999061823,-0.045047283173,-0.158683136106,0.041082710028,-0.059821974486,-0.204689577222,-0.384283185005,-0.276464164257,0.010958183557,0.088659405708,-0.129213929176,-0.008321445435,-0.214024707675,0.240981757641,0.160042390227,-0.032245781273,0.076126843691,-0.263207137585,0.232250928879,0.101958312094,0.086214244366,0.161808758974,0.081608161330,0.127822816372,0.299643605947,-0.489699721336,-0.224303498864,-0.305938959122,-0.339245975018,-0.325968176126,-0.139980971813
-0.000292306591,0.002760010306,-0.039318941534,0.211717963219,-0.000438113610,0.000290239201,0.815194070339,-0.001707797172,0.001374487882,-0.071484670043,0.139375358820,0.000756846915,0.000522322487,-0.000236308144,-0.000290650147,0.000351646187,0.001100523514,0.006364429370,-0.000299663690,0.000702320889,0.009016300552,-0.004209963139,-0.015841569752,-0.000201266637,0.002203296404,0.000053408268,-0.001013414818,0.000003329240,-0.000792840263,-0.176716074347,-0.000231477941,0.000672944356,-0.005446531810,0.000422153244,0.000052257790,-0.108432106674,0.000633994176,0.001564036356,0.095332875848,0.002027408220,-0.001944865915,0.018098948523,0.000514178071,-0.000485207507,0.000709743646,-0.000319362007,-0.000106638450,0.001154335332,-0.001168473973,-0.000804078009,0.000591822260,0.001782010775,-0.000414040842,-0.000934174925,0.000620301871,-0.000041769999,0.000169697989,-0.000527413213,-0.000173248496,-0.000196702706,-0.000705517596,0.000576421909,0.000045486730,-0.000398471195,-0.002248829463,0.000216353452,0.000918015139,-0.000733605179,-0.000370626833,0.000513740757,0.000278489344,-0.001457460574,-0.002058757702,0.000906574889,-0.001323617413,0.001553301816,-0.000672726950,-0.000110263391,-0.000722040364,-0.001778790262,-0.000630319701,-0.001276638475,0.001403030590,-0.002114048460,0.000526549411,0.013231384568,0.000830063946,0.007578483783,0.000448861072,-0.000759952352,0.001104253577,-0.001664438285,-0.000651351118,-0.000419140648,0.000313183526,0.000859811611,-0.000426551705,-0.000548733282,0.005434438586,-0.031035790220,0.002496254863,0.001399185741,0.000415935559,0.030811741948,-0.001476197504,-0.004354350735,0.001088106190,0.141610607505,0.000218314686,-0.000811535749,-0.000246977172,-0.002294834470,0.000364424661,0.000408223190,-0.000406235107,0.105465486646,0.034152716398,-0.000482078351,0.000156123133,-0.000468400569,-0.000031904015,-0.001690738718,0.000078724326,-0.236256539822,0.000397862401,0.003834619420,-0.001323978882,0.001113252016
0.003032895736,0.226140186191,0.412325829268,0.213571310043,0.063247002661,-0.157205432653,0.010224355385,-0.285744398832,0.058744192123,0.049790140241,0.023431638256,-0.565319299698,0.376592457294,-0.095826856792,0.024765580893,-0.254578024149,-0.103645808995,-0.138514354825,0.575928926468,0.083385564387,0.055438678712,0.073302008212,-0.026070067659,-0.029594657943,0.061405733228,0.152355626225,-0.056203801185,-0.239947319031,-0.395313739777,0.008943909779,0.100171007216,-0.049130167812,-0.125672072172,0.157569110394,-0.081839554012,0.100109867752,0.167493909597,-0.432974725962,-0.261244893074,-0.163448914886,0.023596649989,-0.172042906284,-0.040415488183,-0.153007879853,-0.010001286864,0.023392556235,-0.044819701463,0.045018650591,-0.551039874554,0.088512033224,-0.519193887711,-0.285632014275,-0.008819493465,-0.345210105181,-0.002514313208,0.081463277340,-0.139895379543,0.129251509905,0.199688300490,0.172795206308,-0.230610638857,-0.036921638995,-0.040268275887,-0.330813944340,0.409025669098,0.118533253670,0.181152686477,-0.109221182764,-0.349042773247,-0.112284585834,-0.074541613460,0.193506762385,-0.019627692178,-0.155189722776,0.226733684540,-0.075104631484,0.138060957193,0.046253453940,-0.114366166294,-0.112669326365,-0.207990318537,-0.192895829678,-0.189794614911,0.121879398823,0.157536193728,-0.616037607193,-0.030835662037,-0.171692445874,-0.015209077857,-0.156372934580,-0.212571561337,-0.019460823387,0.283648550510,-0.379657328129,-0.096911221743,-0.207000747323,0.180070832372,0.110762603581,-0.419868439436,-0.261017143726,0.092497199774,0.045526821166,-0.208169952035,-0.074468880892,-0.189473763108,0.094868473709,-0.087568432093,-0.080093085766,0.285630226135,-0.234861806035,0.066735155880,0.476977169514,-0.309172362089,0.069160476327,0.402745395899,0.137234076858,0.062985256314,-0.053831234574,-0.058329910040,-0.250608146191,-0.053083244711,0.306135147810,-0.174049139023,0.022115472704,-0.318683266640,-0.005759845953,-0.155217543244,-0.005807979498
-0.053300295025,-0.068277917802,0.179604873061,0.088340610266,0.010526153259,0.076411344111,-0.034043688327,0.022141749039,-0.004945576191,0.016332522035,0.118918418884,0.011290508322,0.010205007158,-0.160973042250,0.103276729584,-0.029787316918,0.079136423767,0.283049374819,0.047836039215,0.022316005081,0.155551940203,-0.135118037462,0.201799511909,0.067877836525,0.007945448160,0.014073313214,0.022887829691,0.051135320216,-0.080003082752,-0.038998506963,0.002607344184,-0.035721257329,-0.140525892377,0.075307615101,-0.538951039314,-0.020493306220,-0.083016194403,-0.054303992540,0.080380491912,-0.113521613181,0.107666268945,0.095810607076,0.000518181652,0.001003505546,-0.186756446958,0.063832066953,-0.023620337248,0.156895667315,-0.016795037314,-0.048574164510,0.110344700515,0.040714439005,-0.028744056821,-0.164831653237,-0.082119598985,0.157497256994,-0.125086694956,-0.168382793665,-0.103372752666,-0.060806848109,-0.073821283877,0.153981253505,0.027366636321,0.062532402575,-0.043284654617,0.031077044085,-0.212131321430,-0.065066583455,-0.041495881975,-0.150777578354,0.044191978872,0.016113858670,-0.051073711365,-0.053509164602,0.058337870985,0.067556612194,-0.033919345587,0.072817996144,-0.077743507922,0.026441911235,0.121340937912,0.117610305548,-0.176803514361,-0.013451648876,0.004708296154,-0.048454556614,-0.129917174578,-0.155800670385,-0.085252746940,0.065755233169,-0.062642261386,-0.102081246674,0.007365745958,0.032076183707,0.007909618318,0.053817525506,-0.079205855727,-0.067264348269,0.036422770470,-0.132020473480,-0.218541100621,-0.036274738610,-0.025616887957,-0.031292229891,0.207976818085,0.001325265854,-0.044587384909,-0.094178542495,0.068883135915,-0.027098134160,0.109852507710,-0.081069163978,0.092569030821,0.116886220872,0.088059462607,0.080149039626,-0.112924419343,0.121749080718,-0.120514132082,0.008050261065,-0.084803462029,0.183044850826,-0.051761236042,-0.000189005470,-0.018126161769,-0.050244729966,0.083962254226,0.015654090792
0.018788335845,-0.017929090187,0.024137703702,0.042167332023,0.051487199962,-0.072567060590,0.011769079603,-0.024545878172,0.002625529189,0.050547748804,-0.137529656291,0.021728452295,0.018701009452,-0.001449369942,0.038209430873,0.005849711131,-0.046202994883,-0.034790843725,-0.090032495558,0.041884943843,-0.138906270266,0.394420742989,0.089629903436,-0.077650763094,0.039786003530,0.006951771677,0.005992271937,0.118254519999,-0.182017952204,-0.097504571080,0.026249337941,-0.049855399877,0.016902990639,-0.083209976554,0.026003520936,0.191714376211,-0.008713818155,-0.014072316699,-0.170700013638,0.020214591175,-0.157443016768,0.115019179881,-0.052967242897,-0.088720582426,-0.029799485579,0.055341597646,0.040785580873,0.001190241543,-0.056149248034,-0.036244865507,0.063182510436,0.033404089510,0.007983624935,0.020125905052,0.019141601399,0.041708946228,-0.090283401310,-0.138709083200,0.005535221659,0.041259754449,0.010317442939,0.038020245731,-0.013122453354,0.028320375830,0.034227214754,-0.017626712099,-0.044135905802,-0.047418419272,-0.002509071259,0.040461484343,0.082661718130,-0.011344614439,-0.025049619377,-0.011693315580,-0.011821445078,0.001051954459,0.032240182161,-0.028190260753,-0.066946417093,0.078159444034,0.037607427686,-0.084542289376,-0.041287712753,-0.065007194877,0.029728684574,0.022955713794,0.042142979801,0.078063301742,0.008169951849,0.006485377904,0.133156552911,0.002487169812,-0.009553135373,0.104618988931,-0.024252457544,-0.026907397434,0.064050652087,-0.091727577150,0.133415207267,0.125617474318,0.015366164036,0.047147162259,0.021105075255,0.194050550461,0.074879840016,-0.062496237457,0.082698203623,-0.007013888564,-0.073638290167,0.023924332112,0.055689781904,-0.039001479745,-0.071020334959,0.018556091934,0.015588440001,0.005542090628,0.092034079134,0.002735820366,0.054421305656,-0.068128675222,-0.054346945137,0.056969501078,-0.014174918644,-0.011058916338,0.018620204180,0.015092634596,0.032700728625,-0.018717415631
-0.100877612829,0.087188139558,-0.144835487008,-0.057819440961,-0.075715363026,0.099813051522,-0.020570155233,0.099402599037,0.249635174870,0.086027212441,0.108741760254,0.282527744770,0.135029301047,-0.057824283838,-0.053211316466,0.046096358448,0.069501861930,0.045210327953,-0.018643844873,-0.020563891158,-0.098397828639,-0.064331687987,0.139576837420,0.328049182892,0.012176100165,-4.623800277710,-0.047735020518,-0.028318006545,-0.298665255308,-0.173071414232,0.144705280662,-0.055993575603,0.046310160309,0.064796507359,-0.111694157124,-0.030809631571,0.040669195354,-0.112617641687,-0.000698352698,-0.035433590412,-0.244051739573,-0.020380679518,0.096956282854,0.340436041355,0.208147972822,-0.115069471300,0.113926313818,0.016465928406,-0.032756060362,0.167100548744,-0.003978422843,-0.005900971591,-0.046748183668,0.078118883073,-0.089012481272,-0.173409596086,-0.071873687208,0.277418076992,-0.167127847672,0.024556068704,-0.007615300361,-0.093489870429,-0.206388428807,-0.005802121479,-0.015306330286,0.210937008262,-0.149706855416,0.136690422893,-0.000590469630,-0.151803374290,0.029380973428,0.092782534659,0.016887333244,-0.001409503049,0.137794956565,0.080294273794,0.168749928474,-0.048302177340,0.008363992907,-0.039215967059,-0.034222532064,0.031246766448,0.044266086072,-0.126228317618,0.076040022075,0.094754286110,0.056435070932,-0.088932789862,-0.035592474043,0.093725092709,-0.200779989362,0.020329428837,0.106970638037,0.154163822532,0.151248991489,-0.164563134313,-0.031996086240,0.061127204448,0.050244722515,0.011641483754,-0.165339455009,0.020579718053,-0.145728319883,-0.030539464206,-0.007462770678,0.074358686805,0.033937968314,0.003527753288,-0.061870012432,0.107575841248,-0.042143587023,-0.046943273395,0.033237669617,-0.024400800467,0.158582895994,0.082698479295,-0.202721416950,0.050993941724,0.163496792316,0.042697470635,-0.078997053206,-0.194885432720,0.003420245834,-0.008192552254,-0.136120736599,0.032792083919,0.034154523164,-0.107598699629
-0.018077788875,0.084139071405,0.083708167076,0.107709415257,-0.092262253165,0.019333809614,-0.076856695116,0.010066872463,0.066362448037,-0.085372790694,0.314135164022,0.207727134228,-0.034662719816,-0.063382029533,-0.003881707089,0.016040835530,0.008644581772,0.090823858976,0.030604360625,0.028163595125,0.095458947122,-0.095588020980,-0.001827200293,0.040745627135,-0.001834386378,0.018715096638,-0.013519406319,0.015124279074,-0.018671646714,-0.034178223461,0.058900635689,-0.049167163670,0.031501919031,0.000506612414,-0.042899530381,-0.103723973036,0.064007997513,-0.043413706124,0.037438955158,0.006394149270,0.101230405271,-0.191206693649,-0.022622033954,0.072900168598,-0.017405414954,-0.051842946559,-0.057008873671,-0.048428252339,0.035465911031,0.039060972631,-0.010962950997,0.011224507354,0.012473169714,-0.024379292503,-0.027175493538,-0.050676707178,-0.012854714878,0.094533935189,-0.015239734203,0.011324576102,0.001537002856,0.023625262082,-0.011944252998,-0.045295521617,-0.003356580390,0.080390349030,-0.013633259572,0.070198178291,-0.026083920151,-0.017262779176,-0.086823217571,0.005967771634,0.095029853284,-0.033754270524,0.044507909566,-0.008585781790,0.030569054186,-0.002799967071,-0.013927055523,-0.070680521429,-0.047606848180,0.016479618847,0.071714319289,0.009891636670,-0.025032363832,0.021597772837,-0.042182594538,-0.171726822853,0.004917288199,0.014902267605,-0.061436299235,-0.053685698658,0.098322592676,-0.052753385156,0.048458293080,-0.008714512922,-0.004015048034,0.003847657470,0.015807451680,-0.031340908259,-0.030914928764,0.008995314129,-0.014397288673,-0.077164076269,-0.096793659031,0.040703184903,-0.004795076791,0.083673432469,0.006578536239,0.031637869775,-0.001769272028,0.001664368086,0.077238529921,-0.040434725583,-0.011417963542,-0.053639777005,-0.079895131290,0.024238096550,0.038764107972,0.050553631037,-0.008720910177,0.052567381412,-0.039436541498,0.123896956444,-0.026091918349,0.063237629831,-0.017312660813,-0.039156157523
-0.232251808047,0.431039154530,-0.020199785009,0.074704863131,-0.612662374973,0.335066288710,0.028433535248,-0.032590098679,0.635841310024,-0.105217739940,0.123025462031,0.356846630573,-8.137021064758,0.780061483383,-0.286893278360,-0.468234270811,-0.137024179101,-0.465365856886,0.096407502890,0.117122352123,0.271495550871,-0.298351556063,0.127814844251,0.172278761864,0.145166903734,0.185585036874,-0.100663080812,0.232165187597,-0.230260595679,0.052666541189,-0.326834738255,0.048106759787,0.045426405966,-0.227029800415,-0.040977202356,-0.131822362542,-0.134952247143,0.033589210361,-0.785842359066,0.427563041449,-4.813674449921,-0.325335800648,-0.289741992950,-0.014917843044,-0.416598290205,-0.157633513212,-0.369557470083,0.368717163801,-0.008813423105,-0.228459715843,-0.129984885454,-0.229293540120,0.027030950412,-0.007428049576,-0.097400717437,0.330597341061,0.229802280664,0.151559457183,-0.151040494442,-0.189139649272,-0.038795333356,-0.192622646689,0.137579768896,0.019368493930,0.289649605751,-8.376015663147,0.066649273038,-0.222076565027,0.025564651936,0.122524350882,-0.082661971450,0.359748154879,0.073934845626,0.018750311807,0.224642142653,0.540050864220,0.022189868614,0.167431950569,0.531181871891,0.556937396526,-0.031183741987,-0.046936471015,0.174948766828,0.132152780890,-0.102774463594,-0.525089919567,-0.696708142757,-0.111055523157,0.125147759914,-0.221091851592,-0.049806922674,0.058388698846,-0.408369272947,-0.282865852118,0.118144877255,-0.076233744621,-0.802346765995,0.248910769820,-0.750512242317,-0.264474511147,0.044166315347,-0.060860589147,-0.393096148968,-0.286077678204,0.190472036600,-0.112414456904,-0.193983733654,0.017428711057,0.095029421151,0.269123196602,-0.018295228481,0.175913244486,-0.010208208114,-0.208246603608,-0.203922495246,0.163998007774,0.279515504837,0.402156859636,0.345278978348,-0.117979325354,-0.136663630605,-0.654504060745,0.210083141923,0.029785478488,-0.080356143415,0.041414432228,-0.847318887711,-0.121976554394
-0.090750373900,0.126323521137,0.042717952281,0.144852310419,-0.009961536154,0.108661763370,0.030271098018,0.066314496100,-0.024793192744,0.167260736227,-0.139182344079,-0.160805135965,-0.201812446117,-0.069906577468,-0.045358389616,0.041027370840,0.031839247793,0.103846050799,0.542745292187,-0.009708433412,-0.025993207470,0.151685416698,-0.175165280700,0.184950366616,-0.198363766074,-0.048546742648,-0.147998541594,-0.063305273652,-0.039764430374,0.025601206347,-0.041990336031,-0.053163871169,0.011112106964,-0.140412554145,0.041628494859,-0.060967009515,0.015125694685,0.153695091605,-0.106611751020,-0.053986623883,-0.259911268950,0.241621524096,0.152401298285,-0.204774037004,-0.037990383804,0.086800940335,-0.017039112747,-0.091017842293,-0.232789725065,0.283844351768,-0.392483502626,-0.050166737288,0.054399468005,-0.051788780838,0.178925052285,0.014120929874,-0.036749355495,-0.086317040026,0.011291015893,-0.138821214437,0.007141313050,0.025641394779,-0.209793567657,0.121932215989,-0.210997596383,-0.078270711005,0.093554712832,-0.257721364498,-0.049260780215,0.147836908698,-0.125905439258,-0.002505528973,0.031498298049,0.164513096213,0.262534171343,0.026392558590,-0.131688758731,-0.014294054359,0.174115478992,0.043445952237,0.001565531013,-0.136656358838,0.010057044216,0.229020178318,0.030599495396,-0.065470017493,0.208899408579,-0.043072722852,-0.132171794772,0.115487843752,-0.041352014989,0.205629646778,0.106583170593,-0.181389972568,-0.020899079740,0.118314214051,-0.195131182671,-0.005248247180,-0.127511784434,0.167743876576,-0.139481589198,0.005310851615,-0.325176000595,0.048263497651,0.123920053244,0.031222647056,0.133597135544,-0.078721627593,-0.011464248411,-0.025673856959,-0.021023740992,0.126265093684,-0.005997580942,0.045427743345,0.115119688213,0.098638325930,0.060297861695,-0.104482382536,0.092311128974,-0.166242405772,0.019019048661,-0.067480035126,0.412665337324,-0.136998996139,0.058250479400,0.051324378699,0.160022184253,-0.028956500813
-0.102382078767,-0.142325341702,-0.453667163849,-0.076213411987,0.013076562434,0.066272765398,-0.149559825659,0.090194024146,0.103602081537,0.044787108898,0.845182895660,0.290355354548,0.051173496991,0.129453405738,-0.059231001884,-0.037081379443,-0.073535643518,-0.134279266000,0.124247558415,0.095126695931,0.324390053749,-0.675937294960,-0.373667806387,0.164442032576,0.179268538952,0.061089523137,0.026459801942,-0.064305856824,-0.049989730120,-0.177240282297,-0.243896827102,-0.089883349836,0.901632428169,0.070313818753,-0.112993896008,-0.304216533899,0.117059879005,0.024041702971,-0.297759056091,-0.028105974197,-0.003645660356,0.142232701182,-0.002315396909,0.306042194366,0.222544088960,-0.066715143621,0.077090546489,0.005482873879,0.021774182096,0.031335961074,0.417350143194,-0.025931179523,-0.008933730423,0.026332877576,0.028033157811,-0.051088422537,-0.077146418393,0.208633065224,-0.160234838724,0.020702637732,0.151065587997,-0.100051887333,0.204769879580,-0.049868512899,0.062011394650,0.239324882627,-0.129337236285,0.110859230161,0.252015501261,0.052294880152,-0.000290901691,0.216259226203,0.182287380099,0.079772330821,0.162767246366,0.041017603129,0.130782991648,-0.105803877115,0.072385706007,-0.167992979288,-0.183324426413,-0.070523709059,0.050594445318,0.549657344818,0.111260883510,-2.953891277313,0.011734499596,-0.563435792923,-0.121349632740,0.033416379243,0.031878657639,-0.223679155111,0.093516550958,-0.044600881636,0.065734080970,-0.086949899793,0.188309133053,-0.053577307612,0.060277450830,-0.204657569528,-0.755504786968,0.102353885770,-0.182146772742,0.570334911346,-0.040226686746,-0.018758751452,-0.010208744556,-0.096237510443,0.104383036494,0.148560345173,-0.075074344873,0.166824206710,-0.100785076618,-0.056065328419,0.531737327576,-0.398364514112,0.128292962909,0.000209777310,0.097106158733,0.082877159119,-0.096157252789,-0.022970959544,0.031517524272,-0.090311244130,-0.066448517144,-0.001961892471,0.004364752211,-0.037796817720
-0.009633320384,0.024115068838,0.082439996302,-0.140470251441,-0.049399968237,-0.180920079350,0.043518550694,-0.198691040277,0.200011178851,-0.128658965230,-0.125911712646,0.102791488171,-0.301212430000,0.090222768486,0.268030315638,-0.201526492834,0.061576809734,-0.113130964339,0.043533682823,0.038739122450,-0.068989410996,-0.045043040067,0.120304524899,-0.132790565491,-0.386782646179,-0.060403790325,-0.164382666349,-0.172745913267,-0.135051816702,-0.000749031547,-0.068994857371,-0.019409289584,0.034036591649,0.225676015019,-0.020476203412,0.022753855214,0.149812102318,-0.042032800615,0.075403392315,-0.100830256939,0.196340024471,-0.137928515673,-0.115059807897,-0.212150141597,0.009134899825,0.141844138503,0.110933065414,-0.049796678126,-0.185508817434,0.204482182860,-0.032955154777,0.107338905334,-0.148990139365,-0.099397204816,0.101480863988,-0.154068961740,-0.031899623573,-0.046291440725,0.052966773510,0.236867532134,0.096532426775,-0.041737690568,-0.148968145251,-0.085750766098,-0.046641912311,-0.126933157444,0.037715330720,-0.198594495654,-0.086442671716,-0.145165175200,0.168981209397,-0.027937643230,-0.292856454849,0.100703991950,0.601143538952,-0.007129644509,0.032299209386,-0.017368160188,0.307064712048,0.145735964179,-0.014699369669,-0.185313805938,0.158180564642,-0.308181524277,-0.167599648237,-0.039298970252,0.041171181947,0.008667648770,-0.199066489935,0.009093858302,0.062955930829,0.267295002937,0.093626394868,-0.042165014893,0.087635844946,-0.006927635521,0.224362283945,0.020421292633,-0.007575245574,-0.174167260528,-0.206692487001,-0.047995503992,-0.066886156797,-0.021519636735,-0.138306260109,-0.020390581340,-0.054819118232,-0.196579381824,-0.211777508259,0.019925961271,0.310814976692,0.174876436591,-0.077520735562,0.178205743432,-0.039263255894,0.000362675550,-0.056130938232,-0.141596511006,0.154217302799,0.009513867088,-0.004286290146,0.084086231887,-0.084297597408,0.036310888827,0.148091614246,-0.261172950268,-0.159061819315,-0.113677404821
0.014918934554,-0.003699860536,-0.282433927059,0.184723019600,0.022577233613,0.202026396990,-0.143346369267,0.000336784637,-0.172757208347,-0.162746012211,0.448554039001,0.100898608565,0.068715728819,0.210754394531,-0.088524267077,-0.010322786868,0.034636169672,0.061017278582,0.016909835860,0.089512117207,0.205741465092,0.184194475412,0.191210195422,-0.389161139727,0.279741048813,-0.117476902902,-0.335076987743,0.188913390040,-0.146457388997,-0.069818966091,-0.135788649321,-0.049021705985,-0.344142317772,-0.247637331486,0.054490659386,-0.005407209508,-0.202579781413,0.029883129522,0.044242024422,-0.347144514322,-0.088313549757,0.129948422313,0.010791042820,-0.266013950109,-0.198383659124,-0.036921486259,-0.088794693351,0.099655203521,0.082257948816,-0.005337209441,0.102967783809,0.185869917274,-0.037824101746,-0.379887551069,-0.017467677593,0.139064162970,-0.022652182728,-0.468202382326,0.043777011335,-0.020017366856,-0.162843823433,0.098467662930,-0.047011092305,0.058760967106,0.006501160096,0.016606217250,-0.101423844695,-0.198482170701,-0.035224001855,0.049764178693,0.037094112486,-0.131530046463,-0.235905647278,0.186362102628,-0.112678371370,0.050956901163,-0.043033592403,0.036995060742,-0.182891801000,0.123848251998,0.216848820448,0.037801817060,0.093041844666,0.034050997347,0.053661942482,-0.055971499532,-0.132695049047,0.049617130309,0.341996550560,-0.147451326251,-0.010006743483,0.012861808762,0.035146284848,-0.048383947462,0.100478090346,-0.007129106671,0.206476360559,-0.063367262483,0.257344126701,0.274564266205,-0.322165578604,0.031568188220,-0.211334943771,0.037389654666,-0.019045338035,0.064499706030,-0.141613528132,0.017807543278,0.094705700874,-0.040600989014,0.000876498409,-0.025635590777,-0.168891102076,0.035792827606,0.035940188915,0.046828821301,-0.110185831785,-0.104342013597,0.123104631901,0.200431972742,-0.092719696462,0.138283535838,-0.110483467579,-0.154444396496,-0.010859007016,-0.164671614766,-0.112999700010,0.082337625325
-0.052195154130,-0.006730371621,-0.173436686397,0.126067116857,-0.094080850482,0.051829364151,-0.019661182538,0.010714583099,0.019028395414,0.192720919847,0.161411941051,0.038714837283,-0.096754193306,-0.194882422686,-0.056273918599,-0.011186911725,-0.031255409122,0.282430082560,0.077081263065,-0.182735264301,-0.215093672276,-0.013917553239,0.023388063535,-0.000361177779,-0.057292785496,0.133830025792,0.083939880133,-0.026895422488,-0.326106995344,0.026189418510,0.058642320335,0.047647975385,-0.045154314488,-0.166797876358,0.074021659791,-0.009149909019,-0.095189757645,0.094100691378,-0.126725733280,-0.109602883458,0.128524631262,-0.016793027520,0.033565960824,0.026166906580,-0.055505171418,-0.023164192215,-0.131893619895,-0.099889270961,0.076941624284,-0.065096430480,-0.276921391487,-0.020009014755,0.054340232164,-0.016445260495,0.040373053402,0.016896009445,0.013422010466,-0.085511609912,-0.047675788403,0.125170871615,-0.017310852185,0.001033747685,0.032666791230,0.058542355895,0.144054457545,-0.051126662642,0.068447269499,0.106888502836,0.022021286190,-0.095853179693,-0.057481549680,-0.012802406214,0.180227711797,0.047046072781,0.017900653183,0.125618398190,0.051796738058,-0.089105606079,0.084257237613,-0.043700017035,0.037242606282,0.081819444895,0.032758738846,-0.030492451042,-0.254412233829,-0.030540915206,0.046809446067,-0.044186796993,-0.057956915349,0.091473005712,-0.102788209915,-0.017854038626,0.048587869853,0.287586688995,-0.052650474012,0.062865272164,-0.661940455437,-0.045632801950,-0.094810664654,-0.133337959647,0.010590298101,0.084041848779,0.048148404807,-0.001154003781,0.007435207721,-0.032731529325,0.026292212307,0.044840581715,0.080551475286,0.040661349893,-0.072422340512,-0.036479953676,-0.069188565016,-0.062291707844,0.005505044945,0.065771594644,-0.006751713343,0.072108291090,-0.004574958701,0.118975602090,-0.031098490581,-0.078101992607,0.211746901274,0.179821044207,0.059002224356,0.006171159912,0.126493692398,-0.007469855249
0.001276814030,0.279338806868,0.058657728136,-0.045865442604,-0.026710454375,-0.015819074586,-0.018539182842,0.043402213603,0.109812110662,-0.003252107650,-0.119678117335,0.052901253104,0.033053763211,0.018907735124,-0.008932040073,-0.110319189727,0.037024669349,-0.293371886015,0.136419981718,-0.121440745890,0.285969436169,0.069574631751,-0.116624422371,0.082940347493,0.021147290245,-0.052476435900,0.065005987883,0.055190663785,-0.399467021227,-0.016847822815,-0.021808531135,0.018887072802,0.024724446237,-0.062732495368,0.018071934581,0.041410669684,-0.014976818115,0.035487398505,-0.014569699764,-0.233787581325,0.035952560604,0.323752403259,0.073208816350,0.225469186902,0.392744660378,-0.050198115408,-0.057344399393,0.075092867017,-0.011481467634,-0.133303493261,0.051778692752,0.109481781721,-0.173774272203,-0.081486180425,-0.018513046205,-0.061513286084,-0.031082464382,-0.108010850847,0.025509169325,-0.069824934006,0.015718346462,0.011870011687,-0.074504308403,0.163864105940,-0.069293469191,0.110116198659,0.193486109376,-0.151534527540,-0.338298618793,-0.099384911358,0.042336173356,-0.441992163658,-0.176143214107,0.112114608288,0.049151968211,-0.087355375290,0.034763809294,-0.011782950722,0.123997233808,0.041767749935,-0.044083677232,0.028161320835,-0.028572639450,0.140988796949,-0.080727182329,0.033334132284,-0.193987712264,0.051351740956,0.151647239923,-0.017441878095,-0.035865753889,0.019425174221,0.068269439042,-0.147335112095,0.108090959489,0.001983523834,-0.270922183990,0.050880413502,-0.153637334704,0.388505637646,-0.056232083589,0.040969680995,-0.034089714289,-0.000678864773,-0.012154673226,0.016411049291,0.010220127180,0.155893534422,0.280320405960,-0.035978518426,-0.021678574383,-0.176501020789,-0.081090949476,-0.037713911384,0.070006787777,0.056316893548,0.003051679814,-0.072045192122,0.532284796238,0.075233526528,0.020457351580,-0.012825459242,0.041332028806,-0.236750930548,0.004383750260,-0.120048157871,0.034017026424,-0.085486903787
-0.061245866120,-0.047282304615,0.048502586782,-0.136228069663,-0.045725010335,0.102989085019,0.110099621117,0.044661320746,0.108112156391,0.202197104692,-0.067854851484,0.208378180861,-0.244209483266,0.025228571147,-0.033166702837,0.022365968674,-0.057400193065,0.017476227134,0.091848388314,0.050459653139,0.129691392183,-0.595206856728,-0.002313250443,0.115238979459,-0.007476650178,-0.161522582173,0.013905582018,-0.002319391351,0.204994991422,0.022021796554,0.183928385377,-0.016396358609,0.102043598890,0.035988558084,-0.080427818000,-0.334789931774,0.027458174154,0.130052655935,-0.626776814461,-0.015778884292,0.195411443710,-0.137768462300,0.038265381008,0.097543381155,0.081909358501,-0.100839301944,0.041695561260,-0.075336597860,0.089749515057,0.129487156868,-0.033154204488,0.002927187597,0.038484293967,-0.005216521677,-0.098726846278,-0.089775301516,-0.036793470383,0.079460516572,-0.100202120841,0.125916898251,-0.037737291306,-0.102316133678,0.132855087519,0.005487150513,0.102549389005,0.126441672444,-0.030004715547,0.077254407108,0.148585945368,-0.017489871010,-0.025571290404,0.111552342772,0.082735583186,0.008859730326,0.058280646801,0.054979301989,0.099983356893,0.008132819086,0.007693619933,-0.059141241014,-0.073772035539,-0.046551004052,0.109509155154,0.169987782836,0.013762038201,-0.233773857355,-0.008843804710,-0.193442568183,-0.053495321423,0.038664150983,-0.128625839949,-0.074903607368,0.075787246227,-0.048155128956,0.025315305218,-0.042546860874,0.115354716778,0.017055731267,0.044267628342,-0.131029278040,-0.011314636096,0.080305092037,0.086369305849,-0.093668311834,-0.058273181319,0.044786974788,-0.057715855539,-0.089486502111,0.056611694396,0.095485046506,-0.098469302058,0.201277822256,-0.014250232838,-0.051448207349,0.030177339911,0.369503587484,0.110121466219,0.008144382387,0.075404115021,0.112666383386,-0.018189221621,-0.028727479279,-0.060682386160,0.189043864608,-0.091140545905,0.034090440720,0.016916019842,-0.136623501778
-0.297856301069,0.459044903517,0.359016656876,0.214389845729,0.006247646175,-0.238443285227,0.066547907889,0.228510007262,0.011506087147,0.093844413757,-0.191320270300,-0.132000938058,-0.022164393216,-0.039236098528,-0.008243072778,-0.283977389336,0.367626905441,-0.320625662804,0.100796461105,-0.095228828490,0.311794042587,-0.138328522444,0.266737073660,0.325791597366,0.035391494632,-0.090413652360,-0.039527684450,-0.059471517801,-0.152508303523,-0.057065915316,-0.046989917755,-0.096394762397,0.060838989913,-0.179838761687,0.083855450153,-0.045045495033,0.048029221594,0.204493373632,0.016758242622,-0.639512300491,0.110635191202,-0.098986878991,-0.118496969342,-0.104775361717,-0.114499397576,-0.153946310282,-0.114340975881,-0.218224212527,0.072828307748,-0.092300184071,0.097657218575,0.239393383265,-0.036406811327,0.057594362646,-0.168211042881,0.111869148910,0.020375272259,-0.212409093976,0.322604268789,-0.060389548540,-0.079714119434,-0.383650273085,0.036149039865,0.113695338368,-0.026134269312,-0.079894930124,-0.194201380014,-0.172463938594,0.077184073627,-0.127890214324,0.021925622597,0.122420780361,0.179651826620,-0.164254680276,0.108897998929,0.117204092443,-0.013929275796,-0.174121290445,0.280611485243,0.055676173419,-0.188025936484,0.249591931701,-0.171294301748,-0.470173597336,-0.047497488558,0.106624603271,-0.046085711569,-0.153393760324,-0.568854033947,0.012894076295,-0.163647696376,-0.067506067455,-0.067326858640,-0.017152572051,-0.011784231290,0.375784069300,0.233903944492,0.039389476180,-0.049939669669,-0.020634610206,-0.124035462737,-0.035042572767,-0.079515308142,-0.028333334252,0.073181837797,-0.061178810894,0.195003688335,0.066852852702,-0.127690777183,-0.060583669692,0.169424727559,0.005483523943,-0.144902110100,0.127624213696,0.082696609199,-0.253286600113,0.008706279099,0.041827823967,-0.326898008585,-0.039426591247,-0.174525395036,0.337376624346,0.232652336359,-0.085414707661,0.290878862143,0.154371052980,-0.189703509212,0.342288911343
-0.042300935835,0.083851367235,0.279472410679,-0.009367298335,-0.012518770061,0.001743343775,0.096131473780,0.009303618222,0.110423885286,-0.166327819228,-0.395235925913,-0.000501266622,0.146291717887,-0.031740553677,0.009504823945,0.065350197256,0.024890713394,0.028499525040,0.074044011533,0.041662070900,0.010700913146,-0.228854537010,0.013971800916,-0.004786212463,0.039318423718,0.091945320368,0.068187616765,-0.101519092917,0.007531619165,0.005648714490,-0.123296447098,-0.048571363091,0.038774114102,0.043792694807,-0.139855265617,-0.081530123949,-0.016012223437,0.146677106619,-0.187479853630,-0.004683860578,-0.099705152214,0.117843225598,0.056120313704,-0.199239403009,0.208511859179,0.024115674198,0.162969842553,-0.089255236089,-0.061937317252,0.209877640009,0.020232951269,-0.047142341733,0.018144315109,0.059321910143,-0.020032327622,-0.137988895178,0.008505801670,0.005904641002,-0.045905187726,0.197631776333,0.058936707675,-0.073712155223,0.024358086288,-0.060655511916,-0.199481844902,-0.045385528356,-0.116224013269,0.082021050155,0.063056536019,0.050847347826,-0.052993003279,0.020962942392,0.078941084445,-0.155959263444,0.264795333147,-0.050073470920,-0.051558364183,-0.019593587145,-0.053594201803,0.037702072412,-0.150629654527,-0.026326010004,0.132328525186,-0.178505748510,0.040656775236,-0.079195015132,-0.035430256277,-0.030175674707,-0.067431844771,0.052270423621,-0.039081342518,0.081710204482,-0.027028575540,0.038089063019,0.158449038863,-0.106619410217,0.204202339053,0.078414492309,0.105055548251,-0.258329004049,0.023557033390,-0.038381304592,0.106722943485,-0.134501606226,-0.012888832018,-0.033706907183,-0.019141742960,0.133948102593,-0.065925121307,-0.006403015461,-0.024622084573,0.306967020035,-0.050812933594,0.020783424377,0.233654081821,0.016316892579,0.044711895287,-0.168989986181,0.147645413876,-0.051214922220,0.004681456834,-0.114792011678,-0.038524646312,0.047825593501,-0.147645637393,0.040084984154,0.055355586112,-0.110692366958
-0.017357252538,-0.044792257249,-0.041372645646,-0.143130764365,0.035976309329,0.060736715794,-0.007249617949,0.088520064950,0.002442602534,0.174557998776,0.015586295165,0.002991965739,-0.054605234414,0.017711633816,-0.033247120678,0.015543708578,-0.010244284756,-0.018488148227,-0.022556420416,0.006243187934,-0.027478355914,-0.097720205784,-0.081039927900,0.018706709146,0.008833024651,0.001449025352,0.045450013131,0.029319610447,0.065324820578,0.028830403462,0.068370081484,0.000777994283,-0.027362206951,-0.015969976783,0.053855918348,0.042119342834,0.034724786878,-0.011068128981,0.143515467644,-0.015192928724,-0.013557718135,-0.002592495177,-0.004113943316,0.063794627786,0.007531756070,-0.062711410224,0.034689381719,0.009514403529,-0.053824726492,0.019168132916,-0.036986563355,0.028322044760,0.014838278294,-0.032216239721,-0.058903153986,-0.007195462007,-0.018527256325,0.039758812636,-0.051416486502,-0.046145744622,-0.039255306125,-0.015470855869,-0.029935309663,0.016702027991,0.026350082830,0.049558240920,-0.013548936695,-0.006057995837,0.012940456159,0.004423821811,-0.018401332200,0.053234878927,-0.012399553321,0.058820068836,-0.010354562663,0.038153182715,-0.018003378063,-0.002547562355,0.012202168815,-0.047930672765,0.032860793173,0.003929629456,0.016420679167,0.036890145391,0.041396223009,-0.204174190760,0.009413639084,-0.010050689802,-0.009366600774,-0.052915159613,-0.080989331007,0.009896539152,0.010082000867,0.023440640420,-0.020970841870,-0.011650190689,0.048128027469,-0.015270130709,0.053591899574,-0.060815732926,0.008326863870,-0.034050337970,-0.051627825946,0.053487949073,0.034595284611,0.061348196119,-0.022589176893,-0.179236367345,0.021747417748,-0.050292115659,-0.010426631197,0.121921092272,0.025529688224,-0.003953238018,-0.025051262230,-0.059479981661,0.006474016700,-0.007179670036,0.010260527022,0.027400422841,0.016946556047,-0.021235900000,0.038234874606,0.029892349616,-0.017427127808,0.039732616395,-0.015170382336,-0.024340765551
-0.049580320716,0.369667321444,-0.053018156439,0.055529195815,-0.008866801858,0.053307313472,-0.017003376037,0.003448712174,-0.026924144477,0.086736112833,-0.032870430499,0.006761392578,0.016887228936,-0.066120252013,-0.054380461574,0.032071989030,-0.022737087682,0.080320090055,0.099948890507,-0.142729610205,-0.061250578612,-0.044599693269,-0.054739713669,-0.047181144357,0.296100825071,-0.031820364296,0.000716354640,-0.031315471977,-0.003112424398,0.011055342853,0.074921794236,0.004300024826,0.033853922039,-0.116089180112,0.091605544090,0.013848427683,0.036925885826,0.071084782481,-0.099349029362,-0.174888536334,-0.161144435406,0.322544783354,-0.051675274968,-0.173632055521,0.027309132740,0.023623427376,-0.125685036182,0.024196064100,-0.070015355945,-0.050775401294,-0.198496535420,-0.006658629980,-0.034209575504,0.007365006022,-0.006615727674,-0.005079991650,-0.012284703553,-0.059614613652,0.038205396384,-0.051257271320,0.016584286466,0.013981448486,-0.024565078318,-0.063639923930,0.135259091854,0.024091441184,0.059483163059,-0.239290669560,0.012785929255,-0.076980546117,-0.046832565218,-0.040190298110,-0.109008952975,-0.058249372989,-0.181108981371,0.134941935539,0.071391098201,0.003882668912,-0.210833132267,-0.042044870555,0.037947349250,0.080262325704,-0.100030601025,0.032722570002,1.140407085419,0.071764096618,-0.075283847749,0.110082879663,-0.059330515563,-0.068670928478,-0.013533213176,-0.008689446375,0.091912344098,0.081398993731,0.067785076797,-0.087801299989,-0.332580417395,0.026183275506,-0.046115107834,0.163832157850,0.002181266202,0.017236944288,-0.185847714543,-0.014761325903,0.095025375485,-0.003706210526,0.048446819186,-0.073253177106,0.176215752959,0.054990250617,-0.115226961672,-0.077882863581,0.052744872868,-0.032268688083,0.062214948237,-0.050289086998,0.044176597148,-0.124710991979,-0.031219527125,-0.030476719141,0.026313910261,-0.054529812187,-0.009106661193,0.005051319487,0.026979891583,-0.047716230154,-0.051097493619,0.026731045917
-0.021018506959,0.014645006508,0.019692623988,0.050113577396,0.016473701224,-0.063768856227,0.025961702690,0.010863745585,0.004712118767,-0.073387697339,0.062663100660,-0.018859546632,0.126354172826,-0.026636470109,0.013598410413,0.026591861621,0.043520294130,-0.005531636998,-0.036872442812,-0.013585373759,-0.088271766901,-0.826007127762,0.048083934933,-0.001121018198,0.042239241302,0.069938406348,-0.019464649260,0.006019269116,-0.020338758826,-0.095799714327,0.012191365473,-0.015198367648,0.170337125659,0.003159640357,-0.008908883668,0.051629386842,-0.001981082140,-0.035849682987,0.430661886930,-0.011754659005,-0.027474107221,0.031067766249,0.044526483864,-0.011370818131,0.024773070589,-0.027863252908,-0.014997228980,0.024963093922,-0.020321711898,0.001358723850,-0.009457116015,0.076875105500,-0.047902569175,0.009331858717,-0.038209661841,0.052448455244,0.012853471562,0.045836325735,-0.000480579678,-0.026123598218,-0.030234407634,-0.019960073754,-0.043019399047,0.030496386811,-0.052252870053,-0.007874451578,0.017302567139,-0.009199487045,-0.040500316769,-0.019030341879,0.049197550863,-0.016852911562,-0.020416805521,-0.035381842405,0.153880923986,-0.001456779777,0.010430315509,-0.042573701590,0.055275149643,-0.049963280559,-0.016013123095,0.001664917334,0.036316029727,0.022049430758,-0.023343304172,-0.177990987897,0.034848626703,-0.134828507900,-0.024789974093,0.038130849600,-0.058446474373,-0.010716202669,-0.034449130297,0.022041201591,0.016499452293,0.005396937020,-0.081923022866,-0.015212786384,-0.435186922550,0.061859965324,-0.101876728237,-0.024039264768,0.031040858477,-0.740940809250,0.011757285334,-0.042634330690,0.034028843045,0.068294346333,0.069992065430,-0.011455266736,0.031106378883,-0.086098782718,0.008326598443,0.014443790540,0.060502834618,-0.158664092422,-0.021967776120,-0.027603272349,0.022530639544,-0.018005337566,-0.023814884946,0.014553590678,-0.035992015153,0.193453475833,0.011328503489,0.022788848728,0.016592945904,0.032735127956
-0.026144353673,-0.031275454909,0.072074510157,-0.165672406554,0.037428457290,0.028427248821,0.000074818330,0.054803203791,0.025701703504,0.082749716938,-0.017511196434,0.081366650760,0.002764155855,0.050925996155,-0.027570096776,0.021697204560,-0.054653927684,-0.031825214624,0.051312774420,0.034816425294,-0.050738066435,-0.046943705529,0.000426207116,0.010586792603,0.011474303901,0.021216070279,0.018244659528,0.020311459899,0.060359306633,0.023182829842,0.034795623273,-0.034188404679,-0.004397268873,-0.017306750640,-0.027940945700,0.027240287513,0.003218071302,0.030741769820,0.003021893790,-0.003754500533,0.083725482225,0.012639172375,0.019205726683,0.033316750079,0.024732762948,-0.026509489864,0.018425539136,-0.030465742573,0.002108063782,0.054002106190,0.035394150764,0.017692780122,0.023152705282,0.011928246357,-0.047221366316,0.023245826364,-0.032742727548,-0.004775511567,-0.034087002277,0.017542755231,-0.003962339368,-0.039714336395,0.057512141764,0.033381048590,0.012237197720,0.074453860521,-0.028737736866,-0.002166236052,0.060779079795,0.029047138989,0.026999918744,0.062242142856,-0.005133591127,0.029037812725,0.004792913329,0.018681311980,0.062363460660,-0.042876888067,-0.014791995287,-0.008179560304,-0.004443484824,-0.044561896473,-0.009570878930,0.037140700966,0.061156753451,-0.251930415630,0.030532978475,-0.063040122390,-0.022292630747,0.028976267204,-0.083899006248,-0.031392011791,0.022539731115,0.003807037137,-0.007935890928,-0.017617814243,0.037480123341,-0.034816496074,-0.050766505301,-0.012034572661,0.013311243616,0.052022933960,-0.047923855484,-0.016494398937,0.046884410083,0.054314721376,-0.017617799342,0.181988641620,0.018814407289,0.045994561166,-0.030560396612,0.112530715764,-0.013126231730,-0.018612781540,0.025616765022,-0.037988513708,-0.107230626047,-0.001328312093,0.039465740323,0.023497946560,-0.038325998932,0.012958073057,0.000383518316,0.297430038452,-0.012946144678,0.022231126204,0.027862844989,-0.037482433021
0.299463301897,-0.152510747313,0.546514928341,0.201443806291,0.168567851186,-0.160805821419,-0.029575936496,-0.639917194843,0.046271279454,0.069622777402,-0.114132761955,-0.378103405237,-0.096106819808,0.346576720476,0.088945500553,-0.409677833319,0.120834529400,-0.380450904369,0.034869231284,0.203570738435,0.167266935110,-0.445401817560,0.230226442218,-0.352799922228,0.458035677671,-0.137253105640,-0.361337721348,-0.447630792856,0.235620215535,-0.089450351894,-0.037047285587,0.206926748157,0.010265741497,-0.080361694098,0.996970951557,0.218411788344,-0.450706869364,-0.007803638931,-0.021902861074,-0.710876524448,0.158440381289,0.716687321663,0.162711128592,0.218698024750,0.216059610248,-0.021647023037,0.182416155934,0.064489834011,-0.520926356316,-0.261915713549,-0.493360280991,-0.083313800395,0.126485839486,0.044336400926,-0.159217938781,-0.189702630043,0.239930585027,0.076053462923,-0.249059572816,0.139730513096,-0.083725102246,-0.060510408133,0.020959682763,-0.083787478507,0.194295957685,-0.133498564363,0.205803230405,0.166835933924,-0.026660170406,-0.562345385551,0.204752817750,0.295365422964,-0.036117207259,-0.192689031363,-0.130283921957,-0.117231771350,-0.106901608407,0.115159109235,0.078441865742,-0.181605562568,0.442420065403,-0.293988943100,-0.037512045354,-0.348335832357,0.135690435767,0.038960926235,-0.072097554803,0.225946858525,0.015252062120,-0.199576303363,0.010786613449,-0.015178103000,0.026672990993,-0.029531961307,-0.084705531597,0.877927422523,0.406874030828,-0.045868907124,0.080222062767,0.206975579262,-0.166151463985,-0.049549315125,0.353641003370,-0.004067313392,0.245703637600,-0.009444437921,0.279990375042,-0.056540898979,0.056167278439,0.012262221426,-0.084105663002,-0.141716018319,-0.086077414453,0.186798974872,-0.410371989012,-0.461650431156,0.233946159482,0.058431237936,0.188230767846,-0.101381093264,0.087611772120,-0.276117861271,0.330250918865,-0.214229375124,0.458857029676,-0.265301227570,-0.130797490478,-0.602337300777
-0.092877432704,0.030920188874,-0.109661698341,-0.089378945529,0.094486266375,0.091403163970,-0.006302017253,0.127274215221,-0.090182475746,-0.122873470187,-0.152293533087,0.168077334762,0.327459752560,0.126569315791,-0.135990604758,-0.136415630579,-0.129224538803,0.072296254337,0.308721870184,-0.155556142330,-0.109688416123,-0.771665751934,0.214173883200,0.274097889662,-0.135244682431,0.259543418884,0.162634119391,0.064185127616,-0.217633113265,0.042521368712,0.067094542086,-0.019640775397,-0.066557176411,-0.308158367872,0.005537815858,-0.086085610092,-0.077901102602,0.193529054523,-0.883872389793,-0.091578975320,0.175998494029,0.398470312357,0.265229284763,0.149425968528,0.061601240188,-0.211380377412,-0.119522139430,0.007942891680,-0.167083725333,0.157972410321,-0.201140195131,-0.090741857886,0.059414885938,0.091711208224,-0.048151619732,-0.008459513076,-0.102508001029,-0.410847902298,-0.127503424883,0.091288059950,-0.026178807020,-0.073870070279,0.088417254388,0.074992455542,0.117287442088,0.257785171270,0.020070193335,-0.192927598953,0.161646559834,0.111717954278,-0.081821672618,0.182261317968,0.160884097219,0.226614370942,0.138078391552,-0.131549566984,0.183111831546,-0.110992908478,0.171805143356,0.143500015140,0.015590848401,-0.093403883278,-0.002111095702,-0.031215820462,-0.192960649729,-0.590804755688,0.010247006081,-0.201635837555,-0.176814094186,0.247462660074,-0.371261507273,-0.096716903150,0.054005280137,-0.051947619766,-0.079654343426,0.095784299076,-0.009681631811,-0.050348959863,-0.268311113119,-0.395673900843,0.254926592112,0.175705522299,-0.341006696224,-0.118300639093,0.236866578460,0.059821676463,-0.060915362090,0.058694347739,-0.008568551391,0.147783383727,-0.055160239339,0.193888157606,-0.185577735305,-0.084449350834,0.241768598557,0.253817737103,0.068187110126,0.169744819403,0.135925352573,-0.002920460189,-0.111555926502,-0.266572862864,0.053098607808,0.194111630321,-0.022566305473,0.036897961050,0.324167013168,-0.018219858408
-0.037735220045,0.111250430346,0.206784591079,-0.098580934107,0.095765613019,-0.194419950247,-0.038522560149,0.067291274667,0.110355563462,0.024735160172,0.128403723240,0.127578705549,-0.079312138259,-0.386797577143,-0.123753242195,0.163847267628,0.035573307425,0.246655806899,-0.071863792837,-0.141969874501,-0.047831077129,-0.168226823211,-0.050041522831,-0.012315910310,-0.006726109888,0.018644804135,-0.244102895260,0.027702830732,0.003540491918,0.016856182367,0.162277951837,-0.019467754290,-0.072075881064,-0.373045414686,0.099368266761,-0.057799480855,0.221055433154,-0.071354627609,-0.069247111678,0.316704034805,0.494323670864,0.187555372715,0.471369951963,0.153287008405,0.199447691441,0.117467634380,-0.166300833225,-0.269664078951,0.143018379807,-0.069073237479,0.211204469204,-0.486910879612,0.150575101376,0.042220365256,0.052333224565,0.394988656044,-0.182422921062,-0.032898653299,0.218766450882,-0.429155588150,-0.252291977406,-0.000500656606,-0.191606596112,0.085757620633,-0.263247281313,0.732320904732,0.015224923380,-0.097827233374,0.062676429749,-0.206577897072,-0.264476299286,-1.080922603607,-0.325720131397,-0.334492921829,-0.239815384150,-0.196500003338,-0.286611169577,0.082354791462,0.079529091716,-0.087866880000,0.183425277472,-0.034525189549,0.037015955895,-0.010656120256,0.051241870970,-0.135434031487,0.351569116116,-0.089730389416,-0.100280821323,-0.115812368691,0.186192438006,-0.067380748689,0.270431458950,-0.005370997358,-0.226640999317,-0.026622651145,0.016169162467,0.212957367301,-0.118469215930,0.316434711218,-0.328256905079,0.002385376254,-0.014319386333,-0.279024004936,0.315664499998,0.070245444775,0.040778040886,-0.207156166434,-0.228920787573,-0.145860910416,0.033125970513,-0.022130761296,-0.040689662099,-0.086811803281,-0.006236447953,-0.125288322568,0.119426935911,0.051450774074,0.191389158368,-0.068237014115,-0.015803551301,-0.502660155296,-0.033972419798,-0.148166552186,0.402916967869,0.058455821127,0.173183247447,-0.070903219283
-0.186291217804,0.222767248750,-0.043421573937,-0.133178740740,0.001680569141,-0.014123758301,-0.011545849033,-0.023533640429,0.110137246549,-0.014721519314,0.051744583994,-0.075162328780,0.046075604856,0.097432747483,0.061343148351,0.018101474270,-0.600851058960,-0.103379897773,-0.033558994532,0.012909852900,-0.068568140268,0.029911648482,-0.003374239197,-0.035273592919,-0.141980722547,-0.031815279275,-0.016184020787,0.007134863175,0.050098419189,-0.029407300055,-0.021786985919,-0.115778632462,0.012728827074,0.014824525453,0.021226760000,0.036008924246,-0.035839192569,-0.045491542667,0.063804492354,-0.054960723966,-0.056050229818,-0.048206191510,0.080140680075,0.005632501096,0.001292413217,0.075869828463,-0.095411278307,0.020962767303,-0.038883514702,0.042612534016,0.028299234807,0.019869770855,-0.005810438655,0.021522447467,-0.074008926749,-0.088920161128,-0.274570047855,-0.166792973876,0.042185202241,-0.023557029665,0.070355556905,0.023100644350,-0.059126868844,-0.060459334403,-0.028992803767,-0.020707586780,-0.095130801201,0.013131378219,-0.025516422465,0.006198955700,0.020543992519,0.047054104507,0.073940701783,0.071630284190,0.060089681298,-0.069221630692,0.011562835425,-0.022079924121,-0.031211033463,-0.138175711036,-0.002725536935,0.051519822329,0.417138814926,0.041001304984,-0.002257204847,-0.033514402807,-0.009556814097,-0.001013212022,-0.037322673947,-0.107614956796,-0.272182196379,-0.011121775955,-0.021097443998,0.093808211386,-0.006498767063,-0.021752433851,-0.010411948897,-0.024003526196,0.045012589544,-0.007749378681,0.040345072746,-0.066033475101,-0.055348977447,0.009976687841,-0.053763549775,0.001725223265,-0.039929054677,0.156837105751,-0.068908639252,0.025169275701,-0.036623507738,-0.006159769837,-0.020144650713,0.048712424934,-0.049602139741,0.060222875327,-0.031677264720,-0.059931062162,0.017682582140,-0.021460102871,0.926902651787,0.087714895606,-0.026560563594,-0.042237609625,0.034659434110,0.125550150871,0.047472797334,0.008271062747
-0.066171050072,-0.025596782565,0.022322401404,0.177641853690,0.024682907388,0.056357428432,0.251889765263,0.062022514641,0.072374992073,0.174137741327,0.154111579061,0.181746169925,0.071496225893,0.052760984749,-0.038239806890,0.028626354411,-0.109415799379,-0.025773752481,0.092936880887,0.092207647860,-0.074565403163,-0.069622322917,-0.033612579107,0.054040979594,0.034102287143,-0.050227314234,0.005735645071,-0.003947042860,0.104848921299,-0.385707974434,0.071800552309,-0.065084472299,0.022272432223,-0.024758655578,-0.108358979225,-0.166447862983,0.021553523839,0.083647228777,-0.216044038534,0.006376350299,0.145611539483,0.076757259667,0.040052827448,0.110518045723,0.056725237519,-0.049503028393,0.022401919588,-0.061603821814,0.054918847978,0.089271925390,0.114892400801,0.028616325930,0.048539105803,0.024428064004,-0.068881966174,0.023498341441,-0.045393377542,0.022384783253,-0.058045990765,0.093203432858,0.007554926444,-0.061129286885,0.134372830391,0.054110072553,0.049982801080,0.134403094649,-0.010742634535,0.055577237159,0.133392751217,0.033179342747,0.040056694299,0.126805901527,0.057058811188,0.037968702614,0.023201527074,0.026060570031,0.148445636034,-0.072171896696,-0.020520171151,-0.047725241631,-0.036971695721,-0.077453032136,-0.014868604951,0.113517247140,0.080575637519,-0.981478869915,0.023484623060,-0.119466863573,-0.024211838841,0.045142769814,-0.096609733999,-0.099952600896,0.084010548890,-0.004726531450,0.010127257556,-0.051166087389,0.080181829631,-0.066323257983,-0.062866620719,0.008680088446,-0.002668559784,0.110174283385,-0.102643601596,-0.053989484906,0.052801966667,0.009943385608,-0.022136397660,0.210742875934,0.023457610980,0.145907893777,-0.054219752550,0.172740474343,-0.007803821936,-0.043175231665,0.077173836529,-0.275050669909,-0.236444145441,0.027111655101,0.090066678822,0.037943948060,-0.064602129161,-0.011115388013,-0.000172877291,0.071568004787,-0.021911341697,0.032334055752,0.049836978316,-0.061213951558
