0.004338563420,0.206508845091,-0.000253988401,-0.002571803518,0.008295519277,-0.004675599746,0.010624077171,-0.064816273749,0.004677185323,0.021317334846,0.025630917400,-0.016957620159,0.007061769720,0.033143512905,-0.007366916165,0.005820609629,0.005593820941,0.006438148208,-0.015658376738,0.007462716661,0.007717526052,0.003284135601,-0.010071711615,-0.037501454353,-0.001575498958,-0.044758252800,0.007364050485,-0.005815003067,0.022647295147,0.019553175196,-0.002822445240,0.005416434258,0.001813615439,0.009073346853,0.000726344355,-0.010329230689,0.007756272331,0.002793364925,-0.001362268813,-0.006338465959,-0.000714947178,-0.005291208159,0.004426078405,0.010092717595,0.001720687491,-0.000659311598,0.003700832836,0.001547401072,-0.013455605134,0.005892491899,-0.015135904774,0.008503993973,0.008006037213,0.003211114323,-0.064409397542,0.010703565553,0.018316151574,-0.000821600086,-0.009416199289,0.005074336194,0.009283591993,0.007344318088,0.026926089078,0.001047324040,0.013304488733,-0.025201952085,-0.003522868734,-0.002336984035,0.025461062789,0.012141580693,0.007136306260,-0.003389855614,0.004925186746,-0.008173263632,-0.011258764192,-0.003852396272,0.000833852682,0.003771719290,0.019745213911,0.006117522251,0.000811360078,0.005520927254,0.004025598057,-0.001782687963,0.004566605669,0.005839496385,-0.010841596872,0.008653413504,-0.003192114411,0.018486743793,0.000899257429,0.003924953286,-0.003244274296,-0.002713051857,-0.005899334792,0.004676996265,0.004892704077,0.002016694983,0.001765304944,-0.003331658896,-0.003051787848,-0.000567037263,0.003764847293,-0.014415432699,-0.008057184517,0.000729634485,0.274336576462,-0.002015790902,-0.006355373655,0.007113392465,0.009007637389,0.010737205856,0.001199420542,-0.011236257851,0.006912811659,-0.001409827499,-0.006783349905,-0.010757630691,-0.012400618754,-0.009138933383,0.004943219479,0.003960115369,-0.023836318403,0.039312794805,0.002434209688,0.005181754008,0.000574562233,0.015708068386
-0.050605211407,-0.064095325768,-0.087560787797,0.018941042945,-0.157402783632,0.011796627194,0.023780416697,0.098020114005,-0.053386483341,-0.349220544100,-0.007773388643,0.115756466985,-0.108300492167,-0.002405550098,0.093941017985,0.046710338444,0.160083428025,-0.026299275458,0.046899832785,0.081580586731,0.032355625182,-0.010946778581,-0.070336610079,0.010721534491,0.116807237267,-0.018868861720,0.067928373814,0.001270644483,0.060133486986,0.193259716034,-0.023056052625,-0.013725978322,0.001064455952,0.003029607935,0.137677311897,0.205431342125,-0.031835637987,-0.022245593369,-0.044602699578,-0.011874587275,0.047690633684,-0.018232999370,0.030164742842,-0.024486156181,-0.180073872209,0.008081872016,0.114824973047,-0.078134737909,0.049049548805,-0.030223479494,0.016898898408,-0.085749872029,0.029396716505,0.010218837298,-0.027262207121,-0.045293241739,-0.037613067776,0.106417529285,0.081271260977,0.065850891173,0.079050317407,-0.130728110671,-0.062367197126,0.076657600701,-0.002510067075,0.139774307609,-0.015035592951,0.011599033140,0.034655597061,-0.054039582610,0.087752424181,0.013130643405,-0.073080651462,-0.037676781416,-0.041068501770,-0.003306141589,-0.030933236703,0.005130445119,0.035231895745,0.058175094426,-0.078857533634,-0.100922629237,-0.071373142302,-0.011970981956,0.017021682113,0.018730206415,0.060621701181,-0.075459644198,0.105080023408,-0.238805904984,-0.068540342152,-0.157826289535,-0.041301537305,0.215286031365,0.042972955853,-0.243351086974,-0.069303326309,0.140817731619,0.015503645875,0.073197156191,-0.071586839855,-0.087525270879,-0.022687472403,-0.006776913535,-0.036608647555,-0.032296631485,0.280727326870,-0.009651130065,-0.081749975681,0.026103682816,0.006077864207,0.004503612407,-0.420786976814,-0.031945366412,0.000112499234,0.033983249217,0.027707783505,-0.029659239575,-0.107259161770,-0.063695102930,0.018848739564,0.009983530268,0.035250186920,0.004164391663,0.073001362383,-0.057909902185,0.057401522994,-0.020411800593
0.073189757764,-0.026874503121,-0.030272671953,-0.009220205247,-0.011715637520,0.024685941637,-0.013230198994,0.020440299064,-0.078654497862,0.010735758580,-0.067793697119,0.128154993057,0.034883726388,-0.057196244597,-0.015497705899,0.090409748256,-0.062416575849,0.027294384316,-0.035420536995,0.104046754539,-0.010896833614,0.066926725209,0.284340322018,-0.021100733429,-0.009807651863,0.006468325853,0.020885230973,-0.025517366827,0.050214007497,-0.029620582238,0.010365221649,0.002627564361,-0.064206846058,-0.023619113490,0.028315924108,0.046831417829,0.119292125106,0.088245004416,0.004204453435,0.031995896250,0.044290974736,0.004042810760,-0.082844659686,0.018426826224,-0.168086022139,-0.037227138877,-0.013378535397,-0.010676407255,-0.016440566629,0.000290458847,0.028945198283,-0.016336761415,0.126077637076,0.019502580166,-0.017587419599,-0.010237877257,-0.018343511969,0.067711524665,-0.098169155419,-0.081411242485,-0.012849272229,-0.005124801770,-0.086578838527,-0.002788599581,-0.026410596445,-0.012099082582,0.043605353683,0.002755248686,-0.006595257204,-0.013238923624,0.003613406559,0.063890427351,-0.021631514654,-0.033612355590,-0.025880817324,-0.035075981170,-0.154457435012,-0.019397262484,0.019236877561,-0.000102759303,-0.036904662848,-0.103540919721,0.047137927264,0.103174619377,0.027280883864,0.006703560241,0.040091220289,-0.074825622141,0.033239848912,-0.198601424694,-0.059960965067,0.028632553294,-0.070199742913,0.018319293857,-0.061153315008,-0.060657665133,-0.018246417865,0.033263113350,0.125528067350,0.102038353682,-0.001373392646,-0.089756794274,-0.059850659221,0.033596303314,-0.132479146123,0.023734383285,0.084625817835,0.004437317606,-0.002101693070,0.040653582662,-0.021242430434,0.052011292428,0.098041161895,-0.008428841829,0.025364179164,0.012517879717,0.048326786608,0.003734559519,0.121978588402,-0.019069524482,-0.106678046286,0.126023828983,0.008936270140,-0.043712217361,0.091101624072,0.028882224113,0.031417306513,-0.034890890121
0.235780388117,0.156595334411,0.126662254333,-0.150642678142,0.017775200307,0.078587740660,0.013142598793,0.167935237288,0.064422227442,0.059622254223,0.072124034166,0.100333303213,-0.027228770778,0.024901553988,0.027042975649,0.135072425008,0.118916302919,0.169855147600,0.020000124350,0.131139963865,0.059407766908,0.113684013486,-0.445791065693,-0.047918248922,0.051121018827,0.050043769181,0.097302049398,-0.108286827803,0.220841258764,-0.072008520365,-0.086111098528,-0.098632581532,-0.082636125386,-0.039209790528,0.013312545605,0.080351650715,0.208269491792,0.128325000405,0.051128018647,-0.182642772794,0.125196576118,-0.106240682304,0.003400506219,-0.062699988484,-0.146106958389,-0.212779238820,0.040547829121,0.188092648983,0.026451651007,-0.012815094553,0.162466377020,0.063504084945,-0.204660952091,-0.027718139812,-0.030152786523,0.078047402203,-0.057227484882,0.154841616750,0.110638096929,0.105753742158,0.018316434696,0.047233399004,-0.056090056896,0.146109476686,-0.141079083085,-0.133875146508,-0.046995073557,-0.028633721173,-0.176398739219,0.018376871943,-0.108880557120,0.060019012541,0.026551995426,0.057164419442,-0.166268184781,-0.006928313058,0.193084135652,-0.041555479169,-0.049620591104,0.114006169140,0.088892929256,0.117220200598,-0.007773952559,0.017210280523,0.028802268207,0.094504036009,0.120880186558,-0.048091117293,-0.054361548275,-0.303519815207,0.124831125140,-0.013992616907,0.027953544632,-0.258365184069,0.061625201255,0.184189468622,0.085452243686,-0.004273194354,0.073242291808,0.211819067597,-0.128661960363,-0.140871450305,0.137101575732,-0.057274486870,-0.148715138435,0.047377731651,-0.051129858941,-0.025527443737,-0.124504342675,-0.015620662831,0.240748912096,-0.049887143075,-1.152613878250,-0.052949961275,0.146083205938,-0.131114929914,-0.082715623081,-0.036610808223,0.086352117360,-0.117671415210,-0.027920158580,0.092390753329,0.019768932834,0.049155335873,0.100859910250,0.182569056749,-0.022184509784,0.038197081536
0.049931727350,-0.111305765808,0.144655302167,0.003600087017,0.142855867743,-0.023360302672,0.031558550894,-0.155209317803,-0.349420398474,-0.066143840551,0.022581545636,0.332615435123,-0.154230415821,-0.262163579464,0.026144400239,0.341597259045,-0.416709035635,-0.112373553216,0.044709183276,0.354956448078,-0.055682547390,0.263328015804,0.611284434795,0.325017333031,0.012194499373,0.096229128540,-0.192468747497,-0.059085555375,0.127967372537,-0.145184576511,-0.152998194098,0.330028891563,0.093906916678,-0.142163172364,0.317897647619,-0.166671603918,0.130833595991,-0.003758285195,-0.085471525788,-0.200313270092,-0.154543802142,0.410741508007,0.063698075712,0.094939738512,0.297640711069,0.208370268345,0.030184578151,0.026883261278,0.057498704642,0.005722612608,-0.067383818328,-0.224808797240,-0.079112961888,0.033389344811,0.010600700974,-0.110377229750,-0.202348351479,0.199795171618,-0.209416627884,-0.112361177802,-0.205112919211,-0.589888572693,0.329172283411,0.063181065023,-0.105121470988,-0.176804184914,0.174139723182,0.411890208721,-6.135347366333,-4.627788066864,-0.159025594592,-0.213868781924,-0.154975786805,0.189965471625,0.926983833313,0.309464514256,0.412007927895,0.009436034597,-0.094164803624,0.044164903462,0.245445519686,-0.201823219657,0.054212588817,0.072573222220,0.199057221413,-0.118411652744,0.096099264920,-0.112010240555,0.397018969059,-0.598093628883,0.141699820757,0.167432546616,0.124620079994,-0.150336787105,-0.206668242812,0.013963711448,0.057391043752,0.079015992582,0.015429552644,0.093746423721,0.025537801906,-0.549131155014,0.028304159641,0.024619594216,-0.582862734795,0.023306760937,0.091004319489,-0.268474787474,-0.173045977950,-0.591012001038,0.008155652322,-0.242014899850,0.003876231378,0.225488960743,0.166500777006,-0.010333238170,0.674060285091,-0.142350941896,0.040492657572,-0.059715483338,-0.103818915784,-0.086447134614,0.054585572332,0.361441791058,0.010790932924,0.146255403757,0.133247464895,-0.037503488362
0.007635572460,-0.012017773464,0.017802247778,-0.011710231192,0.000241578760,0.006160987541,-0.024824978784,0.006607692689,0.019312556833,0.044940870255,0.004211346619,-0.003702829825,0.004171361681,-0.009412462823,0.060789540410,0.010248177685,0.007704149000,0.004368818365,0.100556567311,0.001746675000,0.000147610001,-0.004226125311,-0.036080148071,0.016926819459,-0.007038263138,0.005657144822,0.013939887285,-0.009481363930,-0.005341116805,0.001699533197,0.058307833970,-0.007639421616,0.015107695945,0.038579151034,0.003794699442,0.016647536308,0.017870074138,0.004579098430,0.015349765308,0.040762491524,0.012302067131,-0.034553743899,-0.001569829066,-0.019778417423,-0.013622346334,0.006032846402,0.004448169842,0.001090720529,0.075285121799,-0.006407465786,-0.001986572519,0.012746709399,-0.011679518968,0.107492782176,0.004841902293,0.005869024433,-0.004097937606,0.000691895548,-0.016513574868,-0.002343225759,0.015842236578,-0.000762176816,-0.024613937363,0.005774784368,-0.047229107469,0.040391061455,-0.005718335975,-0.004398797639,0.012440863065,-0.045543670654,-0.023162504658,-0.011171307415,0.014238852076,0.023951632902,-0.000280078879,-0.018205568194,-0.004155874718,-0.006504958030,0.000252520258,-0.007149647921,-0.009300209582,0.013542925939,0.001616888214,-0.002688880311,0.002866531489,0.010490359738,-0.096712216735,0.014349570498,-0.016062319279,-0.029552441090,-0.006763142534,0.004895141814,0.060571990907,-0.049019742757,-0.002506084042,-0.000705951476,0.005932077765,-0.001407596981,-0.001048098668,0.009447447956,-0.018407715484,-0.004313963931,-0.000335762888,-0.015383803286,-0.000455012836,0.008968611248,-0.020176632330,-0.003914297093,-0.008534637280,-0.005457096733,0.004870093893,0.000269562763,0.075150415301,-0.007009971887,0.008139581420,0.007168025244,-0.019307106733,-0.017268726602,0.012063703500,-0.007340746932,0.022714594379,-0.000967392174,-0.011218735948,-0.000123003920,-0.010238904506,0.013886891305,-0.001842130674,-0.003551281989
-0.614130377769,0.053802691400,-0.065673530102,0.028494963422,-0.110177397728,0.151624038815,0.095307268202,0.137077242136,-0.018101505935,-0.119971655309,-0.060230042785,-0.315301746130,-0.007511772215,0.122943356633,0.001774474862,0.047934826463,0.220753222704,-0.091835498810,-0.062805585563,-0.392848730087,-0.016917295754,-0.046154465526,-0.049770317972,0.285143882036,-0.097710087895,-0.106531664729,-0.231473341584,0.080329686403,0.025108153000,0.155379936099,-0.211450800300,0.361242741346,-0.114374279976,0.133998215199,-0.176692605019,-0.059039294720,0.032243601978,-0.750096201897,-0.086279004812,0.181867256761,0.805287420750,-0.281183987856,0.042472321540,-0.111599281430,-0.016639884561,-0.007200316992,-0.153558373451,-0.501999914646,0.043078310788,-0.016457434744,0.011983122677,-0.155518144369,0.059878632426,0.404940038919,-0.139919340611,-0.112011313438,0.045746158808,-0.087425537407,-0.026722159237,-0.174454003572,0.113005138934,-0.149669215083,-0.072785325348,-0.172262415290,0.186471447349,-0.061723224819,0.143741771579,0.042952094227,-0.579648911953,-0.279366016388,0.222217157483,-0.061655670404,0.112136453390,0.155137166381,-0.015756146982,0.169661268592,0.125280663371,-0.064510636032,-0.052134655416,-0.337341487408,-0.395357191563,0.774908721447,0.051634412259,0.392097324133,0.069169186056,-0.019072439522,-0.071044184268,-0.119049899280,0.133524805307,-0.802770972252,0.109602227807,0.056747462600,0.099233277142,-0.239874228835,0.001982144779,-0.412195920944,-0.034684926271,-0.242114067078,-0.143045797944,0.316610574722,-0.072451502085,-0.088294342160,-0.123975530267,0.121097914875,-0.515347003937,-0.015323161148,0.068751282990,0.132091447711,0.055092658848,-0.077556416392,-0.022850904614,0.364313453436,-3.449876785278,-0.109286233783,-0.043677065521,0.120016336441,0.056356593966,0.089610986412,-0.509880900383,-0.047348175198,0.074973993003,0.318053364754,-0.009911903180,0.314563512802,-0.351455986500,-0.280779957771,0.053409155458,0.059696074575
-0.101117923856,-0.070269666612,-0.205224394798,-0.217656910419,-0.177474796772,0.260610342026,0.109310366213,-0.224434256554,-0.214732378721,-0.401054888964,0.212094992399,0.119871743023,0.015545001253,-0.012179821730,0.088110320270,0.232263818383,0.014645720832,-0.079439006746,-0.172602310777,-0.193531513214,0.065161012113,0.062243796885,0.288559794426,0.092058293521,0.037731576711,0.116522915661,0.074965931475,0.085467085242,0.092541284859,-0.015662092716,-0.239704027772,0.184727907181,0.157720938325,-0.032876837999,0.434745520353,-0.095367990434,-0.084407374263,-0.382299840450,0.122274912894,0.159216284752,0.477108865976,0.084346637130,0.279345571995,0.118065632880,-0.339361697435,-0.158382460475,-0.063575401902,-7.456320762634,-0.080664537847,-0.072345763445,0.211324840784,-0.079432204366,0.336477994919,0.244165346026,0.294682651758,-0.137663200498,-0.103970728815,0.471378624439,-0.139248758554,0.006995846983,0.116844281554,0.068970717490,0.031474284828,0.212020188570,0.004835228901,0.002649339847,-0.090391039848,-0.061632469296,-0.357793152332,-0.193988189101,-0.101688176394,0.002060703468,0.065626248717,0.088258020580,-0.038619000465,0.058444269001,0.043232854456,-0.098482631147,-0.020327067003,-0.767261087894,-0.179524198174,-0.197949856520,0.151602163911,-0.068232253194,-0.075775191188,-0.058331519365,-0.049674447626,-0.109329633415,0.259946584702,-0.702688038349,-0.212401866913,0.142070412636,-0.051394306123,-0.204658791423,-0.104399695992,-0.158792465925,0.306645512581,0.032639544457,-0.173750519753,0.039473507553,-0.045616045594,-0.411767333746,-0.292523294687,0.041652526706,-0.569426178932,0.345460295677,-0.039675947279,-0.141637846828,-0.014478857629,-0.310004532337,-0.001405165181,-0.310774475336,0.353668183088,0.076313279569,0.155607700348,-0.174370154738,0.119358018041,-0.024582589045,0.221230238676,-0.018468115479,-0.031775590032,0.456564545631,0.015069876797,-0.494365721941,0.013481964357,0.052775263786,-0.074316062033,0.305893689394
0.027964016423,-0.394656270742,0.470604538918,0.132028266788,0.071816712618,0.357904553413,0.005915000103,-0.159015044570,0.093683227897,-0.033075105399,-0.407736539841,-0.024216273800,-0.303537517786,-0.037692230195,0.006468763109,-0.128787666559,0.148360610008,0.389585614204,0.418626517057,0.022336782888,0.113445669413,-0.224154055119,0.154790416360,0.010312670842,0.385335862637,0.004290895071,0.000593994802,-0.046897519380,-0.154620841146,-0.525710344315,0.168151542544,-0.131189420819,-0.046732861549,1.229317426682,-0.178206399083,-0.157129302621,0.029465584084,0.303224325180,0.083497844636,0.345489323139,0.255032092333,0.272594124079,-0.908548831940,-0.540904104710,-1.144445657730,0.185857474804,0.215076789260,0.198518052697,0.393723070621,-0.106235653162,0.114735506475,0.445183128119,0.007450409699,-0.514378428459,0.138649180532,-0.012420049869,-0.032011028379,0.075279720128,0.264186441898,0.065979219973,0.045035831630,0.192711010575,-0.210848450661,0.156086161733,0.000023365399,-0.024359690025,-0.331400722265,-0.100737214088,0.193560570478,0.022633956745,0.896466076374,0.033449314535,-0.002589199925,-0.101817458868,-0.025231761858,0.402485728264,0.126769155264,-0.004112385679,-0.040010485798,-1.192395925522,-0.119109168649,-0.789741814137,-0.192912802100,0.181407496333,0.099207513034,-0.078364484012,0.128230407834,0.111098133028,-1.003852725029,-0.684593975544,-0.123883403838,-0.090082161129,0.118134215474,0.526122093201,0.376691848040,-1.246748924255,-0.369116276503,0.455856651068,0.122842222452,0.160707280040,0.118849791586,-0.406426489353,0.192559510469,0.279255717993,-0.615850329399,0.285337656736,0.433646410704,0.043328870088,-0.230517923832,0.229899361730,-0.077607914805,-0.101759314537,-3.366306304932,0.127984434366,-0.062375124544,-0.166055336595,0.064163319767,0.425789445639,-0.341756254435,-0.165003553033,-0.166125103831,0.068027369678,-0.125112131238,0.373719483614,-0.074696958065,-0.307148039341,-0.108202122152,0.484322458506
0.003281123936,-0.008199594915,0.001256784308,-0.000158581330,0.003207757371,-0.000594955985,0.005376529414,0.002419192810,0.000860096829,-0.009156879038,0.004854436498,-0.004486220423,0.001354946522,0.170701310039,-0.001609374071,0.001601786586,0.003948446829,0.000570803997,-0.002982228063,0.002279561479,0.001916113659,0.000163192497,-0.001730733435,0.004127683118,-0.002052420052,0.010342574678,-0.000090764588,-0.005276282318,-0.003985803109,0.004320190754,0.004655700177,0.000305863272,-0.000672551163,-0.150176391006,0.003229442984,-0.003808634821,0.003729397664,0.001905716024,0.002053009812,-0.004349576775,0.001347742742,-0.045503243804,0.003733016783,-0.006357775070,0.140231966972,-0.000266607298,-0.003685734002,-0.002146734623,-0.005053537432,0.052237186581,-0.006003656425,0.004260783084,-0.158024698496,0.001250627800,-0.014671470970,0.002106171334,-0.005051264074,0.001587828738,-0.001977373613,0.001325305784,0.003640347393,0.002496164525,-0.001954518026,0.002795027103,-0.011686183512,-0.008575982414,-0.001621590578,-0.000041519572,-0.043924894184,-0.005844019819,0.000206566299,-0.001376653090,0.002339065308,0.000747328741,0.000583891990,-0.000060601062,-0.001239513746,-0.000636539306,-0.120026372373,-0.001645740587,0.000060950475,0.008266403340,0.007390154526,0.001774687669,0.001417052001,0.006537089590,-0.003650060156,0.003959504887,-0.001795029035,-0.036178190261,-0.000359688653,0.001193734468,-0.003138096072,-0.000612478703,-0.002721674275,0.001832517562,0.002778447932,0.002335560741,0.001127416268,0.002334606368,0.000269359356,-0.006746956147,0.002621952677,-0.000300381362,0.017588656396,0.002731490647,0.085169859231,-0.000015583841,-0.003392792307,0.001953081694,2.195751667023,-0.015627721325,0.012234207243,-0.004074897151,0.005135826301,0.001118365326,-0.002664900851,-0.009182421491,-0.004994128365,-0.003332544584,0.002930501476,0.002345598303,-1.770535826683,-0.007094133645,0.001252835616,0.002985292114,0.002138942247,0.000350774993
0.023625517264,-0.007418672089,-0.012787762098,-0.022530293092,0.017331022769,0.009671677835,-0.009227084927,-0.026358632371,0.013697549701,0.025101097301,0.013593072072,-0.021345030516,0.001944511430,0.053759694099,-0.017342112958,0.017891634256,0.021784663200,0.013003039174,-0.019472578540,0.010622448288,0.024299198762,0.012357623316,-0.010521026328,-0.016175348312,-0.006753799506,0.023031173274,0.011596188881,-0.027810152620,0.026322482154,-0.002841372276,0.012109268457,-0.003401733236,-0.005427783355,0.004192888271,0.026778420433,-0.022732233629,0.032878894359,0.011817827821,0.009332600981,-0.013169172220,0.027478147298,-0.066339068115,0.028426941484,-0.013799895532,0.011975062080,-0.012713883072,0.008482136764,-0.009032426402,-0.017220173031,0.064890764654,0.000878383056,0.021851548925,0.027373135090,-0.021700561047,-0.021971330047,0.011344077997,-0.023306574672,0.022402096540,-0.011526088230,0.005025179125,0.021176686510,0.026227431372,-0.005326357670,0.015609018505,-0.010477502830,-0.015540219843,-0.010532086715,-0.005583576858,-0.078399464488,-0.047257255763,-0.004135959316,-0.005708357319,0.027915153652,0.022172497585,-0.016403067857,-0.011224945076,0.014920395799,-0.010490067303,0.034663803875,-0.004638341721,-0.001115398598,0.035312388092,0.023132808506,0.014764507301,0.013415588066,0.036854203790,-0.025944184512,0.019716478884,-0.005029110238,-0.062754310668,0.002560617868,0.011204810813,-0.001507494133,-0.012209511362,-0.014733963646,0.006762692239,0.025366602466,0.015041306615,0.008623253554,0.019239185378,-0.009380756877,-0.010931720957,0.017331201583,-0.003137581516,-0.032049417496,0.015908986330,0.004061735235,-0.010065289214,-0.023358957842,0.017759194598,0.261403650045,-0.007464963943,0.127791479230,-0.024164685979,0.028474550694,-0.006032995880,-0.015877539292,-0.044915936887,-0.008140572347,-0.021151436493,-0.004942857660,0.024734506384,-0.386844009161,-0.058992095292,0.008424711414,0.030069919303,-0.005936698522,0.018679330125
-0.001781163155,0.000139025127,0.006433441769,0.003513289383,0.001289666863,-0.004493637010,0.174143031240,-0.065366230905,0.011465835385,-0.069730177522,-0.006484971847,-0.002720200690,-0.006344716530,-0.007346532308,-0.010579539463,0.006618705112,0.011570116505,-0.000282319292,-0.035117033869,-0.002411154332,0.001896391856,-0.005255266558,0.057341214269,0.016496850178,-0.001108532655,0.003741465742,-0.012325547636,-0.009140218608,0.015237983316,0.004996365868,-0.012968840078,0.037130173296,0.003887757193,0.057984054089,0.010324915871,-0.051810588688,0.003692044877,0.000958894030,0.005993694533,0.007054800633,-0.003199972678,0.014269672334,0.013207673095,-0.012719809078,-0.005583194084,-0.000074683689,-0.007735575549,0.023148609325,-0.016463797539,-0.006033615675,0.125822558999,-0.002762689488,0.001400058623,-0.003227727255,0.030308192596,0.001964640338,-0.000563937181,0.000825133116,-0.030842801556,0.030388066545,-0.000390939735,0.013881483115,0.015305233188,-0.002347060945,-0.008785934187,0.036053981632,0.002129893517,-0.003749748692,-0.025168657303,0.016522150487,0.004187062383,-0.056785825640,0.008228034712,-0.004045249894,0.012012165040,0.010351345874,0.010986134410,0.016603216529,0.009966962971,0.001359446207,0.005822849460,0.001211834257,-0.012249863707,0.011663476005,0.008449373767,-0.002335558180,-0.049069616944,0.001916337293,0.002504851436,-0.003004286438,0.002716476796,0.005861316808,0.009646820836,0.000062839215,-0.009286630899,0.013058260083,0.000899000792,0.018015112728,0.000149614207,0.008677897044,-0.013988294639,0.012333084829,-0.000260882167,-0.004149475601,-0.005712613929,0.000850767712,-0.029677489772,-0.000096324540,-0.002303187503,-0.004359168466,-14.625277519226,0.000394403061,0.002162174322,-0.013487342745,0.004602477420,-0.010202467442,-0.012901174836,0.017867507413,0.014409608208,-0.009017014876,0.056635148823,-0.003737668041,-0.168459862471,-0.003725246293,0.002588179195,0.003014403628,-0.005318790209,0.018678266555
-0.100496925414,-0.045088823885,-0.264474749565,0.029022607952,-0.074417568743,0.067707963288,0.023133045062,-0.122147671878,-0.009977887385,-0.332752168179,0.071983553469,0.058392837644,-0.111926801503,-0.024437980726,0.083686694503,0.009747083299,-0.029932608828,-0.106211230159,0.085493341088,-0.036952760071,0.001572846551,0.013320812024,0.033370546997,0.236964315176,0.071246005595,0.147525638342,-0.004337603226,-0.015212264843,-0.012268616818,-0.141592592001,0.270100265741,-0.016241157427,-0.021596491337,-0.024044739082,-0.025182761252,0.036230407655,-0.009868863970,-0.039945956320,-0.014540047385,0.008132701740,0.030762959272,-0.170515477657,-0.017718745396,0.009960060939,-0.035856511444,-0.022701116279,-0.062281809747,-0.055580142885,0.045975420624,-0.019323509187,-0.035047106445,-0.103937268257,-0.086869239807,0.045530986041,0.006767068524,-0.084827527404,-0.052592802793,-0.002439640695,0.007685997989,-0.068051435053,-0.089881621301,-0.022067591548,-0.066082105041,0.025678519160,-0.001833492308,0.187433078885,-0.017141699791,0.042395602912,0.809465229511,-18.277008056641,-0.039073579013,-0.026037959382,-0.035247132182,0.042448725551,0.710136055946,0.057859774679,0.038249555975,-0.022364210337,-0.062120221555,-0.011453581043,-0.006195364986,-0.007727994584,0.000847990450,0.060415580869,-0.022773655131,-0.037689216435,0.050630833954,-0.106906004250,-0.034809716046,-0.033753395081,0.057812903076,0.034854598343,0.025217872113,0.010569965467,0.030285198241,-0.085978239775,-0.004926571157,-0.062446177006,-0.000585304049,0.059937849641,0.039012454450,-0.477833241224,-0.027886334807,0.018041262403,-0.455668956041,0.100543223321,-0.069061584771,0.006614960264,0.075981147587,-0.131077706814,-0.003798556048,-0.199957206845,-7.254913330078,0.065845221281,-0.028360858560,0.043029833585,0.034708023071,0.006444769911,-0.023445649073,0.020582206547,-0.008387025446,-0.007253639400,-0.011531273834,0.060318335891,-0.054617766291,-0.055844865739,-0.012732394040,0.039323266596
0.011284627020,-0.032712168992,0.010524334386,-0.007723622490,0.005894503091,0.012441014871,-0.049631420523,-0.021708123386,0.010550880805,-0.070690862834,-0.071032032371,-0.016890700907,-0.005264410283,-0.018381681293,-0.002544532064,0.004310108256,0.007145023439,0.009554178454,-0.001150925527,0.015274641104,0.001346130273,0.008219430223,-0.026516355574,-0.018024841323,0.014326327480,0.006195798982,-0.005672067869,-0.007232286967,-0.005450726021,-0.000537008629,0.024878248572,0.000985565945,0.016964998096,-16.002449035645,0.007483002264,-0.010758537799,0.008742881007,0.005495041609,0.031528603286,0.003407360520,0.030031830072,-0.003504525637,0.013223016635,-0.013479222544,-0.026293326169,0.004534168169,-0.005908570718,-0.011883518659,-0.000124014972,-0.002885768656,-0.010565302335,0.003469068091,-0.000090585549,0.007693987340,-0.008522483520,-0.005636072252,-0.019851621240,0.017872454599,-0.003066600068,0.032711278647,0.000996030751,0.018095167354,-0.002901742700,0.019603328779,-0.009415369481,-0.023949833587,-0.008039754815,-0.020104309544,-0.041698887944,0.009049145505,-0.000016235255,0.011640910059,0.010953536257,-0.001455880469,-0.006200149655,-0.003614773043,0.015120512806,-0.000452589360,-0.010137896985,-0.016284070909,-0.015125283971,0.047090794891,0.011968303472,0.001950471895,0.003476954065,0.002672834555,-0.002426281571,-0.006700574420,-0.001650916878,-0.031039418653,0.016722142696,-0.002866022289,-0.006901208311,0.045499905944,-0.015200926922,0.003616233822,0.014216836542,-0.014831274748,-0.010153125972,0.012132590637,-0.011597225443,-0.000029683597,0.007198480889,-0.023179396987,0.013117902912,0.002203920390,0.105289161205,-0.005937283859,-0.006355952471,-0.006903704256,-0.010072014295,-0.021323477849,0.061856914312,-0.000954816293,0.005779511295,-0.003804503707,-0.005297713447,-0.018608206883,0.002651290502,-0.008481158875,-0.030700175092,0.016120791435,0.014042514376,0.005314273294,-0.019376231357,0.013542654924,-0.007755920291,-0.040075425059
0.234293431044,1.552416324615,0.097014449537,0.162471041083,0.078090533614,0.238646388054,0.079480119050,0.277069747448,0.162420317531,0.065481126308,0.235724419355,0.073040485382,-0.086794681847,-0.128826141357,-0.081084057689,0.097255356610,-0.211377039552,0.021363159642,-0.139943495393,0.011213121936,-0.058963663876,-0.066619649529,-2.850264310837,-0.050839375705,0.048204142600,0.054079037160,0.087773717940,0.000058575250,0.662304043770,-0.154101729393,0.232110530138,0.002723556478,0.430236667395,-0.023645797744,-0.018464336172,0.152164831758,0.184581324458,0.148265957832,-0.142605811357,0.286829322577,0.120837725699,0.468837827444,0.022202571854,-0.322389513254,0.124259322882,-3.550212860107,0.040809325874,0.612487614155,0.164612844586,0.050447586924,0.074178606272,-0.158996388316,-0.331276267767,-0.052928000689,-0.799131512642,-0.000772943138,-0.356094896793,0.161594569683,0.181027710438,0.360830485821,0.004982027691,-0.187840074301,-0.520776689053,0.076470218599,-0.154858708382,-0.195918530226,0.053221452981,0.011769369245,-0.482619673014,0.242911532521,-0.011012460105,0.215370059013,0.016305094585,0.223690152168,0.143455713987,-0.082518137991,0.640702724457,-0.038770981133,-0.049759577960,-0.494827389717,0.156412005424,-0.309639841318,-0.036394000053,-0.012905636802,-0.180416658521,-0.095657303929,-0.052724566311,-0.019736187533,0.248480677605,-1.047283649445,0.189320355654,0.081393592060,-0.039916768670,-0.558113217354,0.135213598609,0.209197536111,-0.149038568139,-0.014608237892,0.144054472446,0.214055880904,-0.267023593187,-0.046009089798,0.012770281173,-0.151211068034,-0.455468684435,-0.147408351302,-0.082548327744,-0.340828895569,-0.124603904784,-0.015094419941,0.851038336754,0.201486721635,-1.757643103600,-0.084022305906,0.069263949990,-0.009437438101,0.052371889353,0.038499593735,-0.089005500078,-0.000025677773,0.267912149429,0.263838589191,-0.171852260828,0.005001711193,-0.151803240180,0.171359702945,-0.013760025613,0.005754963029
-0.002062168904,-0.021613137797,0.012913536280,-0.003150749486,0.001040311181,-0.000379072910,-0.039453648031,0.028876528144,-0.002059057821,0.012479396537,0.028920305893,0.018934533000,0.011494859122,-0.006474140566,0.003398077795,0.000010440108,-0.004534152802,-0.017609361559,0.006751921494,-0.008122043684,-0.029931047931,0.008708918467,0.009055699222,0.018555492163,-0.000929142232,-0.027243059129,0.005344235338,0.009188396856,0.080439798534,0.003213273361,0.011450974271,0.017432911322,0.012300289236,-0.037435807288,-0.009617177770,0.022560462356,-0.003365446115,-0.004531817976,-0.004653617274,-0.001258414239,-0.005365377758,0.013797110878,-0.010543218814,0.046884261072,0.043816383928,0.013931473717,-0.004845447373,-0.009943198413,-0.002715757117,0.008368250914,-0.018927030265,0.004170256667,0.072974666953,-0.010078966618,0.049950886518,0.002504904289,0.051661774516,-0.011871768162,-0.002346913563,0.014929135330,-0.001555612078,-0.013283244334,-0.002711213194,0.021936303005,0.001515804906,-0.006026336923,-0.016692169011,-0.002387303626,-0.167884245515,0.000939905294,-0.010339313187,-0.003305263817,-0.007023219019,-0.005533398595,-0.008693792857,0.001779119601,0.015500017442,0.105577848852,-0.010735617019,0.001410842873,0.005360313226,0.009763778187,-0.014467139728,-0.008816815913,-0.014837563038,-0.005999190733,-0.005311277229,0.001280342694,-0.023178176954,0.078971631825,0.011149343103,0.007068535779,-0.003539580153,-0.003820197890,0.001161807100,-0.012033562176,0.003617152106,0.011953036301,0.005853402428,0.013448250480,-0.009996936657,0.029862781987,-0.007861429825,-0.003842870472,-0.018452750519,-0.016368133947,0.017533918843,-0.000662525592,0.012515077367,0.004433933645,0.003505642526,-0.003703634953,0.004169727676,-0.000593034376,-0.010918597691,0.019183734432,-0.011890960857,0.018655193970,0.005912202876,0.004474736284,0.005023710430,0.009671269916,0.007821006700,0.006060574204,-0.003171713091,0.011983803473,-0.009193381295,-0.003005423117
0.027164436877,-0.074799492955,0.012761511840,-0.017181603238,-0.008812488988,0.078447960317,0.037214599550,-0.068755708635,-0.043571013957,-0.002329494338,-0.021504342556,0.012624667026,-0.035492256284,-0.032820232213,-0.022858787328,0.022384082898,0.011465511285,0.014821244404,-0.028666434810,0.036637257785,0.014404328540,0.026644010097,-0.014608149417,0.022362412885,0.056161373854,-0.032170396298,0.023259967566,-0.031798377633,0.073409907520,0.034419480711,-0.053213480860,-0.017334131524,0.059191472828,0.039949648082,0.037414398044,0.041308231652,0.019589001313,0.014411609620,0.279160499573,0.016044028103,0.059941556305,-0.033711373806,-0.000604615838,-0.086547404528,-0.095063045621,-0.086663804948,0.043319068849,-0.023578137159,-0.019042016938,0.017721684650,0.039023250341,-0.006154113449,-0.011483923532,-0.158968731761,-0.040889490396,-0.018513824791,-0.329476803541,0.048073735088,-0.013580301777,0.004007734358,0.012342996895,0.004608372226,0.005304405931,0.040528386831,-0.020963700488,0.091206543148,-0.066427409649,-0.011673691683,0.089354544878,-0.006298442837,-0.048528857529,0.011550495401,0.030718818307,0.013720329851,-0.034281034023,-0.020474594086,0.043592952192,-0.015933210030,0.032762337476,-0.042297847569,-0.040798872709,0.060210824013,0.043290410191,0.011761475354,0.020723849535,0.015421386808,0.051005974412,0.036157969385,0.067748337984,-0.132992312312,0.028289549053,-0.025416424498,0.020845392719,0.064407087862,-0.031576097012,-0.030253631994,0.012469246052,-0.002371874871,0.011312689632,0.041528403759,-0.019751138985,-0.000607653172,0.019801983610,-0.028329551220,-0.109802924097,0.098020046949,0.644365429878,0.089709386230,-0.018131041899,0.004446698353,0.022131659091,-0.172076180577,0.421742498875,0.000190704231,0.023653853685,-0.030687326565,0.032166603953,-0.056885428727,-0.015173777007,-0.013834139332,-0.025755841285,0.029897131026,-0.030813870952,-0.004940482322,-0.001167026581,0.024942649528,0.008178202435,0.022253481671
0.017883740366,-0.020990448073,0.027349974960,-0.016436776146,0.003634416498,0.026164885610,-0.354718357325,-0.015118723735,-0.007199476007,0.005858421326,0.004376876168,0.028083911166,-0.012690461241,0.024044973776,-0.000399067096,0.012448016554,0.017085105181,0.013305661269,0.001408596057,0.026375886053,0.010975587182,0.017932971939,-0.027415474877,-0.015784580261,0.016155669466,0.014365520328,0.020803362131,-0.016229189932,-0.016319353133,0.018190188333,0.006690772250,-0.010399325751,0.036425344646,-0.038224365562,0.028111489490,0.058286458254,0.010730583221,0.012822142802,0.071289516985,-0.006157981232,0.037782613188,-0.014814041555,-0.016072092578,-0.030062975362,-0.004303840455,-0.020885692909,0.018996652216,-0.018148589879,-0.001376893837,-0.001300007338,0.018100289628,0.004930625204,0.015869226307,0.026746105403,-0.020171485841,-0.011602710001,-0.032361425459,0.034728385508,-0.019722079858,0.020069919527,0.005380080547,-0.020842192695,-0.010301128961,0.021397365257,-0.003207263537,0.017116948962,-0.026062231511,-0.010506798513,-0.049557249993,-0.029343018308,-0.017109582201,0.007042640820,0.015245079063,0.024943631142,-0.038792900741,-0.005101540592,0.031165067106,-0.013956752606,-0.008020363748,0.006893410347,0.001003578771,0.043406434357,-0.019455794245,-0.015705112368,0.014618843794,0.013339046389,0.029226575047,0.016258519143,0.023757075891,-0.044160369784,0.016639187932,-0.013079187833,0.008020330220,0.040188059211,-0.016308847815,-0.015276663005,0.007460806053,-0.013648474589,0.024102658033,0.020738428459,-0.015377594158,-0.012861544266,0.012304027565,-0.042182125151,0.000120585828,-0.021800255403,-0.058394052088,0.010078062303,-0.013915335760,-0.004967299290,-0.017560366541,-0.071637056768,0.143415048718,0.000712475332,0.021702257916,-0.013875882141,0.009403574280,-0.013854048215,0.009461730719,-0.011365810409,-0.020676244050,0.021141411737,0.001777066384,-0.010639548302,0.008989554830,0.020772205666,-0.012535910122,0.014981527813
0.051033660769,0.177944466472,0.030126119033,0.061367232352,0.031539477408,0.133188828826,0.087632216513,-0.030047899112,0.121788531542,-0.364706248045,-0.103860929608,-0.408603936434,0.062125425786,-0.076537556946,-0.005507816561,-0.009454037063,-0.027592996135,0.072672151029,-0.075186558068,0.027562281117,0.052552819252,0.030827039853,-0.072871968150,-0.017795324326,-0.232191115618,0.163510203362,-0.036371406168,-0.050504546613,-0.194201797247,0.059258047491,-0.109566159546,0.009251356125,-0.067122980952,0.025148194283,-0.101796582341,-0.220116704702,0.001201737556,-0.040271356702,0.014001468197,0.050631046295,0.092047736049,0.152350962162,0.265722125769,0.046388462186,0.312547832727,-0.070185199380,-0.240742117167,0.019998149946,-0.103646129370,-0.004616371356,0.033448904753,-0.020467681810,-0.145372048020,-0.186331704259,-0.949172437191,-0.001770943054,0.042534627020,-0.016561210155,-0.022922830656,-0.009248922579,0.019897732884,0.309491932392,-0.000135219772,0.039439700544,-0.028231507167,0.073474891484,0.028059275821,-0.067709051073,0.059819359332,-0.023483216763,-0.063465975225,0.058890737593,0.080127105117,0.002387998858,0.049238909036,-0.008165226318,0.056810658425,-0.007800851949,0.002457051072,0.071996420622,0.013918369077,0.186805695295,0.345121324062,0.097128599882,0.076805524528,0.029875913635,-0.164796367288,-0.151314467192,0.030582809821,-0.342910856009,0.114385500550,0.121086724102,-0.184068888426,-0.397852450609,0.048140823841,-0.096056684852,0.065258756280,-0.002711640205,0.031332358718,0.093110136688,-0.176333427429,-0.006446148735,0.110153257847,0.000077805707,-0.235577240586,0.069800607860,-0.056362427771,0.004233876243,-0.027249591425,0.057699024677,0.003606934333,-0.277214735746,0.259295940399,-0.021209167317,-0.035966727883,-0.002769893035,-0.111180201173,-0.167747586966,-0.123810902238,-0.059980742633,-0.036753721535,-0.130034372211,-0.039243925363,-0.245270729065,-0.020353719592,0.092749364674,-0.058159895241,-0.140924841166
-0.020808218047,-0.044410407543,0.001374551211,0.003778656945,-0.029206296429,0.018562287092,0.007081027143,-0.052191764116,-0.011944404803,-0.078965716064,-0.056384522468,0.040773749352,-0.040951061994,-0.029702667147,0.031043110415,-0.011032114737,-0.024503180757,-0.027471126989,0.041114345193,-0.008716973476,-0.017368389294,-0.013675319031,-0.019157227129,0.221173495054,0.021101204678,0.072101049125,-0.018436726183,0.013938046061,0.021047344431,-0.027490114793,0.013971238397,-0.001355215674,-0.020981894806,0.008593868464,-0.002562668175,0.021634502336,-0.014324561693,-0.018469011411,-0.006262689829,0.000272665202,-0.004281823523,-0.007370164152,-0.007878501900,-0.006707985420,0.048177108169,0.003006463405,-0.015807904303,-0.003454063321,0.033794969320,-0.017516527325,-0.005200095009,-0.045086249709,-0.045966118574,0.023065391928,0.006141329650,-0.037092123181,-0.060230992734,0.004517237190,0.009725165553,-0.024573436007,-0.035501260310,-0.022333744913,-0.056979831308,-0.005644403864,-0.004311925732,-0.007671537809,-0.004757415503,0.016304055229,0.339618086815,-0.329627662897,-0.002676466946,0.002347705653,-0.012923686765,0.022137992084,0.006846904289,0.027292985469,0.014046247117,-0.021300226450,-0.016318028793,-0.017596293241,0.015253588557,-0.005788379814,-0.000317656872,0.011802139692,-0.009230477735,-0.019906163216,0.024181755260,-0.016357500106,0.012593140826,-0.080065034330,-0.012396348640,0.004370061215,0.020833691582,0.005555535667,0.016676379368,-0.029616901651,-0.021086540073,-0.015114443377,0.000712043548,0.017547521740,0.025025226176,-0.117836676538,-0.022283306345,0.005506263115,-0.161323189735,-0.002376224613,-0.068370729685,-0.001596000744,0.019203267992,-0.028168009594,0.012517802417,-0.062962658703,0.258650124073,0.027850106359,-0.027045693249,0.017269302160,0.028908245265,-0.007595379371,0.019664051011,0.019495999441,0.005416295025,-0.005828044377,-0.005775991827,-0.006235817447,-0.034873608500,-0.016621580347,0.009715774097,-0.021441694349
0.126863166690,-0.247725188732,0.275312364101,-0.101218141615,0.057814821601,0.211017116904,0.019004117697,-0.058639947325,-0.154629006982,0.010688536800,0.034443352371,0.079475790262,-0.100545674562,0.024938115850,-0.019242269918,0.091852113605,0.103799745440,0.061196893454,-0.064405247569,0.129836261272,0.090668112040,0.113955996931,-0.123407177627,-0.022661715746,0.232109397650,0.042719729245,0.094630792737,-0.121332481503,0.024034693837,0.075620055199,-0.050386492163,-0.112985648215,0.192518353462,-0.102458544075,0.137021571398,0.158159330487,-0.007582401857,0.076235681772,0.378545284271,-0.096045069396,0.198542162776,-0.072258412838,-0.037433359772,-0.390672624111,-0.162297263741,-0.185430422425,0.231129050255,-0.095499597490,-0.080109961331,-0.020455282182,0.098889589310,0.071778714657,-0.023613482714,-0.451082736254,-0.001772227464,-0.056898251176,-0.386594474316,0.259635061026,-0.102114193141,0.089891888201,0.010126851499,-0.004523014184,-0.094659201801,0.180154845119,-0.074365936220,0.043758783489,-0.234653726220,-0.053701337427,0.035812322050,0.028825439513,-0.121143579483,0.021677967161,0.131746590137,0.155905425549,-0.197936460376,-0.072845116258,0.137726560235,-0.058392792940,0.002773228800,0.115746505558,0.098838120699,0.166959941387,0.043320234865,-0.043137203902,0.076330833137,0.078365199268,0.047447785735,0.175770297647,0.253251940012,-1.150732517242,0.098029002547,-0.131441205740,0.014108668081,0.241085544229,-0.103424392641,-0.117045223713,0.018413931131,-0.037542384118,0.128269866109,0.121435523033,-0.101501546800,-0.020718488842,0.087940864265,-0.083597280085,-0.269383430481,-1.588062167168,0.147276028991,0.245962172747,-0.087313406169,0.059358406812,-0.044074878097,-0.801746606827,0.227924123406,-0.041597552598,0.116486705840,-0.102748923004,0.107963293791,-0.053841520101,-0.015329985879,-0.075943432748,0.086943984032,0.091372504830,0.046613860875,-0.023649405688,0.023073587567,0.141831532121,-0.265570998192,0.166419640183
0.054664090276,-0.167721077800,-0.011277577840,-0.091899141669,-0.010760365054,0.003096746746,0.551241278648,0.029826575890,0.028093077242,-1.886126995087,0.085811711848,-0.016596235335,0.008943772875,-0.085979856551,-0.023099606857,-0.233146905899,0.031548816711,0.000522797985,0.015137977898,0.063053257763,-0.012065947056,-0.094097435474,0.000628070207,0.018783846870,-0.672783613205,0.026949215680,-0.089624784887,0.027314271778,0.010251501575,-0.037669450045,0.023637408391,0.054815798998,0.038259159774,0.074857175350,-0.025605177507,-0.030657943338,-0.057000242174,0.009272260591,-0.136424481869,-0.032559346408,-0.029822487384,0.012474485673,-0.012269262224,0.003176479600,-0.143368899822,0.004182899371,-0.405050367117,0.036152046174,-0.003374391235,-0.052417352796,0.050767939538,0.021542849019,-0.047892652452,-0.300466179848,0.080018155277,-0.000226353426,-0.034772232175,-0.114614665508,-0.081002198160,0.028953451663,0.021202696487,0.030795885250,0.008868798614,-0.066776312888,0.137323439121,0.135751754045,0.039768327028,-0.019423883408,0.121970213950,-0.136281549931,0.002431860194,-0.065310604870,0.184832647443,-0.006173114292,0.017103945836,0.013578899205,-0.027543539181,0.045370075852,-0.055792998523,0.024213023484,0.027865294367,0.015385460109,-0.017442088574,-0.000300879037,0.001898491289,0.002971428214,-0.037340667099,0.075913757086,-0.018917659298,-0.043510641903,0.016001831740,0.009582941420,0.007319055963,-0.217105999589,-0.030164880678,0.007509019691,-0.002802432748,0.016658378765,-0.019872309640,-0.025676961988,0.017433049157,-0.029716074467,-0.006510525476,0.052996352315,-0.016125364229,-0.002631017473,0.024179490283,-0.018117241561,-0.009636233561,-0.010736524127,0.110668800771,-0.022097051144,0.048083662987,0.004631096963,-0.021065188572,0.003740111366,-0.051068499684,0.030386321247,0.001235347474,0.007734516636,-0.028115777299,-0.009085800499,-0.011049455963,0.166993066669,0.007636031602,0.006787904073,0.022273378447,0.129086479545
-0.061062358320,-0.121805027127,-0.000904569402,-0.080048561096,-0.051066372544,-0.210512742400,-0.041411399841,0.289712786674,-0.125670835376,-0.359268516302,-0.053594462574,-0.233612388372,-0.349353730679,-0.067389160395,-0.282406061888,0.043169707060,0.018495064229,0.071642637253,0.000731660461,0.011262602173,-0.056292433292,0.110252574086,0.206939354539,0.026762237772,-0.010544618592,0.074655443430,0.014438131824,0.276107609272,-0.087156310678,-0.095577046275,-0.266639620066,0.093031510711,0.042549706995,-0.072863005102,-0.014317350462,-0.403520375490,0.169976383448,-0.052803114057,-0.057668223977,0.113929726183,0.063684366643,0.479868769646,-0.061612647027,0.034810286015,0.403385460377,0.302645146847,-0.163888752460,0.174415096641,-0.113029122353,0.014658025466,-0.030656112358,-0.173076465726,0.019487606362,-0.209782510996,0.194658294320,-0.029727045447,-0.023187667131,-0.097514525056,0.104592487216,-0.223720341921,0.093970716000,0.058541432023,-0.052862688899,-0.095912471414,-0.076128005981,0.094136357307,0.000863190799,0.053141213953,0.245058223605,0.203449994326,-0.175330817699,0.057484790683,-0.032872218639,0.135581105947,0.012266284786,0.018409563228,-0.000934961077,0.290025085211,0.062923938036,-0.065770260990,-0.087604261935,0.076252177358,0.020095091313,-0.000362952094,0.030721932650,-0.136641845107,0.028872964904,-0.317188739777,0.503831267357,-0.721859037876,0.020450886339,-0.053616050631,-0.051588334143,0.222229629755,0.008018901572,-0.072643302381,-0.235758692026,-0.217064037919,0.126677423716,0.147315293550,0.093383744359,-0.251964658499,0.036561422050,-0.000715106842,-0.541859209538,0.052427485585,0.080385781825,0.037318646908,0.080127939582,-0.117070354521,-0.002010281663,-0.254029721022,-0.846913397312,0.116009384394,0.012417226098,0.162542566657,0.237336397171,-0.244706094265,-0.112207300961,-0.128182142973,0.597622692585,0.081660188735,0.023724455386,-0.041019968688,-0.069850221276,-0.051984731108,0.006655425299,-0.069008365273
0.016883250326,-0.011084413156,0.023570662364,-0.013623051345,0.005866120569,0.013015489094,-0.018443729728,-0.003298673546,0.014478725381,-0.013005794026,-0.008457520977,0.035328783095,-0.009321613237,0.007082191762,0.002582718153,0.012888168916,0.023373061791,0.009663756937,0.000299245294,0.011985594407,0.012667994015,0.013175698929,-0.011428833008,0.001380300731,0.000854526297,0.008573272265,0.016442323104,-0.017470641062,-0.034351348877,-0.003292240668,0.003333265428,-0.003883553436,0.023547198623,-0.020927872509,0.020287310705,0.029337082058,0.019067771733,0.008852593601,0.023566786200,-0.013751896098,0.044075727463,-0.031249064952,-0.011142006144,-0.000767322315,0.025455065072,-0.031468935311,-0.008409662172,-0.012202833779,-0.008302730508,-0.002989144297,0.070091269910,0.008930339478,0.010638241656,-0.063938729465,-0.001385555253,0.000803935516,-0.011911098845,0.032779909670,-0.009567516856,0.002518275985,0.005458660424,-0.016392312944,-0.015748538077,0.013760104775,-0.001552114729,-0.034760192037,-0.011348854750,-0.013195471838,-0.003060038667,-0.045759778470,-0.018900316209,0.007171613164,0.019305884838,0.021685719490,-0.023168712854,-0.011071151122,0.013553175144,-0.008770964108,-0.014827642590,0.046767473221,-0.009666202590,0.035977527499,-0.024017043412,-0.005677695386,0.009252834134,0.009116172791,0.015441792086,-0.001083317795,0.006754981820,-0.011416539550,0.020123060793,-0.007882402278,-0.010040073656,0.033033583313,-0.012559155934,-0.011869776063,0.007456320804,-0.001850181143,0.019153343514,0.021420987323,-0.003786663758,-0.018135605380,0.009717101231,-0.016409814358,0.010537632741,-0.010930575430,-0.044917453080,-0.010315502062,-0.007629737724,0.003342608921,-0.009431392886,-0.056452624500,0.001502096769,-0.004022672772,0.014584086835,-0.008756375872,-0.004022154491,-0.001763044391,0.013398743235,-0.002204040764,-0.037993799895,0.027239780873,0.015737766400,-0.023136032745,0.029930070043,0.015449683182,0.011122645810,0.002424202394
0.310093373060,-0.541234850883,0.984704077244,-0.233117356896,0.104714095592,0.426483809948,0.091999791563,-0.195069715381,-0.283894032240,0.136705607176,0.108150899410,0.168105334044,-0.177553519607,-0.107489772141,-0.134288996458,0.251186996698,0.256404459476,0.171396255493,-0.236872196198,0.280124872923,0.253619492054,0.238055050373,-0.455340862274,-0.131489560008,0.401657968760,-0.018548252061,0.247687458992,-0.267566233873,0.165722936392,0.126154199243,-0.237059280276,-0.258759617805,0.417665719986,-0.301376044750,0.327644705772,0.261765748262,0.098994083703,0.177021190524,1.313074946404,-0.204664751887,0.421202898026,-0.327142626047,-0.019391588867,-0.871416926384,-0.812465429306,-0.383404761553,0.446240663528,-0.179964169860,-0.192254304886,0.047261968255,0.159308895469,0.178441479802,-0.089618377388,-0.705011546612,-0.186305850744,-0.076770342886,-0.842713713646,0.515997827053,-0.229557260871,0.245641857386,0.136757627130,-0.022104112431,-0.277620613575,0.343224555254,-0.212318778038,0.053128100932,-0.452847659588,-0.121588021517,-0.231803640723,0.173638030887,-0.262463539839,-0.012167187408,0.319808453321,0.441193878651,-0.530396044254,-0.154732525349,0.357059836388,-0.169799000025,0.019477162510,0.216183543205,0.234801039100,0.411898612976,0.075125023723,-0.089204505086,0.179468274117,0.223271384835,0.044023465365,0.365098446608,0.469417572021,-1.171251058578,0.229147180915,-0.261732131243,0.035398066044,0.032267939299,-0.283161491156,-0.100751258433,0.087370902300,-0.037188112736,0.337162762880,0.301450192928,-0.248046800494,-0.013433479704,0.248699322343,-0.222395047545,-0.569233357906,0.392592042685,-0.098958902061,0.333828330040,-0.205260530114,0.120022699237,0.003493794706,-1.539716720581,1.384287118912,-0.109857454896,0.330348879099,-0.222795680165,0.124919489026,-0.258391886950,-0.062553510070,-0.179303079844,0.069780804217,0.220513060689,0.041014917195,-0.064485125244,0.113991178572,0.301578581333,-0.611524999142,0.376409620047
0.214889958501,-0.420655339956,0.332530528307,-0.168493330479,0.129465326667,0.205291152000,0.120654180646,-0.009499293752,-0.005200888030,0.115429967642,0.107696563005,-0.017283624038,-0.015354661271,-0.132920905948,-0.161242559552,0.137528285384,0.262690067291,0.109409973025,-0.211356252432,0.156120032072,0.137644886971,0.168844282627,-0.200541377068,-0.037216342986,0.133594885468,0.049251042306,0.120962910354,-0.187079101801,0.389786601067,0.114871010184,-0.095410257578,-0.142036899924,0.254692971706,-0.362790703773,0.169331580400,0.052059613168,0.178514838219,0.123023785651,0.509300768375,-0.207091420889,0.316097587347,-0.203144550323,0.031079446897,-0.777711510658,-0.490939766169,-0.295592755079,0.205327406526,-0.083179078996,-0.156640097499,0.088269889355,0.113575741649,0.116851963103,-0.104039907455,-0.448868870735,-0.808905005455,-0.005720094312,-0.574123859406,0.357545316219,-0.142186790705,0.208191975951,0.079820096493,0.048639412969,-0.356511205435,0.199156969786,-0.163190647960,0.729520618916,-0.200702905655,-0.065046004951,-0.115221716464,0.039256259799,-0.101976417005,-0.010390176438,0.154669627547,0.350478678942,-0.371777027845,-0.109166257083,0.157292231917,-0.118454352021,0.005188811105,0.165829688311,0.106887467206,0.270060420036,0.000905946596,-0.025692015886,0.101150393486,0.162919253111,-0.059320461005,0.187113434076,0.124289110303,-0.891462922096,0.119126059115,-0.119750373065,0.013068582863,-0.178741961718,-0.187070339918,-0.014881630428,0.143111646175,0.006548877805,0.189510360360,0.205969050527,-0.199579924345,0.084918744862,0.156526267529,-0.107421688735,-0.418199837208,0.387076377869,0.018474413082,0.129779741168,-0.188060641289,0.084174051881,0.048471078277,-0.721565783024,1.552411198616,-0.119788154960,0.194778472185,-0.142847970128,0.048847131431,-0.341126561165,-0.009275478311,-0.135132744908,-0.126730993390,0.230821147561,0.076537102461,-0.364767283201,0.075228549540,0.236928194761,-0.506911993027,0.180651649833
-0.014350810088,0.009157473221,-0.052314657718,0.003263909603,0.005221265368,0.009094211273,-0.316718667746,-0.007295430638,0.025436453521,-0.065491281450,-0.035139881074,-0.025093220174,-0.005277334247,0.008391956799,0.023206705227,-0.011193801649,-0.010022470728,-0.007663629949,0.009219264612,-0.019594104961,0.001755861216,0.000191422732,-0.025963058695,0.006346338894,0.018200742081,-0.002316466998,0.033622182906,-0.003157592611,0.000344998727,0.003269797890,-0.000781574170,-0.001083976356,-0.019936814904,-0.017577406019,-0.001948769088,-0.055936329067,-0.028914347291,0.011946691200,-0.009295900352,0.023612013087,-0.005010426510,0.017360232770,-0.069466121495,0.000121960737,0.094307176769,-0.016308570281,-12.916635513306,0.018751354888,0.024356456473,0.007455370389,-0.000151950779,-0.024795126170,-0.006215023808,-0.107569374144,0.004712024704,0.004031106830,0.003936607856,0.008354419842,0.021700883284,0.007429664489,-0.009568638168,-0.115344621241,0.027367513627,-0.003503837623,-0.065893381834,0.100119218230,-0.016759797931,0.070573382080,-0.092766135931,-0.018669454381,-0.035842075944,-0.014016833156,-0.008144038729,0.042920194566,0.005653165281,-0.004023925401,0.005480655469,0.012193332426,-0.009927847423,0.007540035527,0.010869462974,-0.012409284711,-0.070972032845,-0.092038027942,-0.020301023498,-0.008635616861,-0.018710091710,-0.005671612453,0.006984957028,-0.072462715209,0.002706053667,-0.024539772421,-0.116268895566,0.019259709865,-0.020612381399,0.018048420548,-0.007360182703,0.005225317087,-0.010357085615,0.007396036759,0.021009629592,0.004313564394,-0.005572151393,-0.031809628010,-0.017522817478,0.003367142053,-0.009763442911,0.046853218228,-0.015559820458,-0.015079201199,-0.000822785718,-0.007343071513,-2.716171026230,0.023820884526,-0.011075214483,-0.007409661077,0.136690497398,0.067287944257,0.099831484258,0.005680533126,-0.008630749770,-0.039078671485,0.005706140306,0.039053861052,0.004747162573,-0.014557988383,-0.015784692019,-0.005674562417
-0.008160199970,0.050387930125,-0.129298627377,-0.118224337697,-0.042406946421,0.092765361071,-0.045121688396,-0.051238637418,0.191353425384,0.089323736727,0.061680063605,-0.009822691791,0.008824328892,-0.072010122240,-0.039761174470,0.008826056495,-0.003241852392,-0.020103113726,-0.001707683434,0.091731593013,-0.050379272550,0.042192108929,0.164420157671,-0.017604000866,-0.000153855959,0.009078986943,0.013679717667,-0.057458125055,0.092289999127,0.093104898930,-0.078523524106,-0.036761116236,-0.046839602292,0.005269846879,0.013596825302,0.096725255251,0.070661477745,0.023519508541,0.092491842806,0.018173890188,0.063443601131,0.119590878487,-0.047166783363,-0.109027795494,0.071242630482,-0.034145895392,-0.092968270183,-0.049434941262,-0.040721524507,-0.032542046160,0.007422826719,-0.074994176626,0.187692046165,-0.042434681207,0.074531048536,-0.123881720006,-0.020111924037,-0.030150510371,-0.029908144847,0.076441437006,-0.087496019900,-0.037545453757,-0.002263667528,0.027962846681,-0.055648308247,-0.009769842960,0.011629916728,-0.035569038242,-0.120527587831,-0.096099279821,-0.047450520098,-0.022001562640,0.003048215294,0.157869040966,-0.073235943913,0.025198213756,-0.024160696194,-0.017172256485,0.050162859261,0.070120893419,0.055605478585,0.063225850463,-0.231161832809,-0.076913468540,0.033681061119,-0.045264337212,0.058979436755,-0.011180746369,0.003370384220,-0.435864746571,0.039556093514,-0.007194742095,-0.492779910564,-0.083421707153,0.009433779866,0.046765010804,0.001769711496,0.018531423062,0.006566612516,0.027695439756,0.047796852887,-0.021498048678,-0.022316653281,-0.009324519895,-0.227024853230,0.027212206274,0.142630904913,-0.112555094063,0.025208286941,-0.069074250758,-0.001068584039,-0.042208567262,0.551098525524,-0.011987450533,-0.013841117732,-0.013377174735,-0.035565752536,0.032555799931,0.045215919614,0.015062653460,0.014965258539,0.095423892140,-0.026824843138,0.006008464843,0.088204301894,0.074714928865,-0.149157553911,-0.029560651630
-0.015587638132,-0.015281072818,0.002255652566,0.011451171711,-0.021162277088,0.005781495944,0.002187814098,0.043700933456,-0.012109204195,-0.035140104592,-0.034131679684,0.029057817534,-0.024535583332,-0.037469778210,0.019574092701,-0.012136965059,-0.014861058444,-0.013947078958,0.031583502889,-0.002516523702,-0.015363173559,-0.012686909176,-0.003053603228,0.099427841604,0.007382060401,0.062676601112,-0.010095939040,0.011654726230,0.002448500367,-0.013931300491,0.004348929971,0.000907772221,-0.009197986685,0.019926244393,-0.002597594401,0.020786901936,-0.007535566576,-0.010042008944,-0.000604404544,0.009276465513,0.000134100395,0.010829602368,-0.007022651378,0.003073708154,0.054339740425,0.008241025731,-0.009250038303,0.008284983225,0.029547825456,0.003745445749,-0.001801068778,-0.027616996318,-0.040803015232,0.005726824515,-0.037391789258,-0.028403433040,-0.034277159721,-0.006202409510,0.004146858118,-0.013711804524,-0.022995728999,-0.013759324327,-0.069423168898,-0.006147726905,-0.000931084272,0.007140527014,-0.002042862820,0.005160025787,-0.054462578148,-3.074363946915,-0.005298922304,0.007414406631,-0.007247873582,0.003578457981,0.010148020461,0.023359999061,0.008899191394,0.006198557559,-0.014842764474,-0.014770976268,0.008100676350,-0.014798898250,-0.005566972774,0.002777387388,-0.001498388010,-0.019928958267,0.017175959423,-0.018140163273,0.016895774752,-0.053381200880,-0.006816099398,0.001425199211,0.009604236111,0.002074571559,0.014003237709,-0.017677217722,-0.017259860411,-0.004955401644,0.000867999101,0.011276963167,0.012927304953,-0.032721098512,-0.015578648075,0.007542521693,-0.059160690755,-0.006467511412,-0.044169880450,0.004785423167,0.012580980547,-0.021483980119,-0.002443349920,-0.026139272377,0.024223200977,0.022093132138,-0.019947277382,0.009476954117,0.016225466505,0.005605345592,0.022928830236,0.013059124351,0.005504015833,-0.003708528122,0.003040461335,-0.075935885310,-0.015783568844,-0.015868095681,0.003071210114,-0.014283798635
-0.025616310537,-0.005084170960,0.009774687700,0.016234997660,-0.020426586270,0.011778794229,0.010369538330,0.044694267213,-0.010657319799,0.022839136422,-0.010758279823,-0.013755582273,0.021815212443,0.010283309035,0.014528101310,-0.024614619091,-0.001073150779,-0.002585796406,0.019609561190,-0.012056071311,-0.010701398365,-0.003320079297,-0.082059100270,-0.000406402862,-0.013214184903,0.004804310855,0.007643645164,0.019044939429,-0.014664775692,-0.011815943755,0.033388722688,-0.043919917196,-0.047350518405,-0.072388723493,-0.013650189154,0.117246583104,-0.085381656885,-0.025827568024,0.000170303378,-0.008367143571,-0.012889564037,-0.030943682417,-0.012389693409,0.004208670463,-0.000367982924,-0.003045966150,-0.020057592541,-0.009911254048,0.016573894769,0.010007301345,0.008070564829,-0.009958487004,0.002205917146,-0.090306080878,-0.027224669233,-0.012582503259,0.008902574889,-0.007622691803,0.022158555686,-0.044039040804,-0.020838038996,-0.020869050175,-0.022550901398,0.006945696659,-0.030267508700,-0.017383351922,0.006174630485,0.001932161977,0.018259486184,-0.005455777980,-0.017643412575,0.124475575984,-0.023490093648,0.006140779238,0.002067165915,-0.024602638558,-0.014843455516,-0.012470466085,-0.008006257005,-0.010506156832,0.002666136948,0.013163111173,0.000557819090,-0.001368472702,-0.006178323179,-0.007239642553,0.011213025078,-0.039140857756,-0.009887283668,-0.039105378091,-0.006206786260,-0.007117872592,-0.027225406840,-0.003192077857,0.004601484630,-0.032856497914,-0.017849182710,-0.033826861531,-0.015529868193,-0.013716036454,0.003989384510,-0.008134725504,-0.013197898865,0.001009802800,0.012124168687,-0.000980072771,-0.007157596759,0.003489838913,-0.011699199677,0.003017666982,0.010785010643,-0.015832154080,-2.021015167236,0.039634197950,-0.020360445604,0.009759341367,-0.032148018479,0.013771817088,-0.037402473390,0.028429919854,-0.017728665844,0.007293292321,0.013787805103,-0.016056274995,-0.032271251082,-0.013206231408,0.008104464971,-0.040509037673
0.064834758639,-0.017621645704,-0.040407940745,-0.015276324004,0.015192542225,0.071041040123,0.075145363808,-0.019854117185,0.076051630080,0.128489211202,-0.029933091253,-0.149323180318,0.093149080873,0.003352510044,-0.010229154490,-0.030795145780,0.063938319683,-0.016805049032,-0.041807953268,-0.053662486374,0.029602194205,-0.009828477167,-0.094875127077,-0.037927582860,-0.116832338274,0.087660625577,-0.060376200825,-0.023769652471,0.055327001959,-0.106110371649,0.173334300518,-0.081708908081,-0.070744633675,0.036614123732,0.022475255653,-0.139589190483,-0.270925223827,-0.036924045533,-0.024839224294,-0.003951961640,-0.063819184899,0.102823160589,0.139930769801,-0.011752394959,0.156091839075,0.006516223773,0.269810706377,-0.032639853656,-0.014785879292,-0.014802799560,0.067588180304,-0.007855730131,-0.114375695586,-0.364738374949,0.019452175125,0.050606094301,-0.060074955225,-0.088222697377,-0.038856130093,0.027320178226,0.078014194965,0.191639274359,0.012092506513,0.019785156474,-0.052257407457,-0.009520859458,0.006173370406,-0.034894995391,-0.112884424627,0.011576198973,0.016756100580,-0.023793598637,0.043145775795,-0.121128775179,-0.034759607166,-0.052318211645,-0.050997029990,0.020903622732,-0.001492546406,0.068204782903,-0.007021327037,0.078531585634,0.148853272200,0.038540977985,0.038559786975,0.037869226187,-0.086069427431,0.162032857537,0.072565481067,-0.320300757885,-0.008441384882,0.026788134128,-0.073703452945,-0.116309992969,0.005032163579,0.000648443587,0.047576118261,0.087867900729,0.030758392066,-0.010596551001,-0.065966285765,0.106285229325,0.018289973959,0.021466709673,-0.059737388045,0.020130973309,-0.058242764324,0.014134938829,-0.046110976487,0.123833209276,-0.007185241207,-0.154120326042,-0.028456494212,-0.044881675392,-0.031812775880,-0.035637132823,-0.045165732503,-0.076715856791,-0.074722588062,-0.040632240474,-0.016641542315,0.018915735185,0.013831467368,-0.186720013618,0.046255469322,0.027802014723,-0.018392665312,-0.047393385321
-0.184108078480,-0.065165273845,0.104129180312,-0.172171995044,0.021103248000,0.228114634752,-0.005656788591,0.298300832510,0.022172551602,0.228833556175,-0.255943477154,-0.151974529028,-0.090814910829,0.046761412174,0.037347387522,-0.117989547551,0.166915997863,0.099367626011,-0.390120685101,-0.096896842122,0.347579509020,0.042607482523,-0.000154898982,-0.080698221922,-0.052419979125,0.099173434079,0.336600422859,-0.088986463845,0.406862050295,-0.096732154489,0.492858380079,-0.046689394861,-0.187983393669,0.024260049686,0.128776088357,-0.153457075357,0.061391305178,-0.016732187942,0.017315784469,0.009736733511,0.014208644629,-0.178181514144,0.050282035023,0.068706944585,0.009934572503,0.147092506289,-0.299814611673,-0.101585097611,-0.003626299324,-0.024444464594,0.021144257858,-0.394440382719,-0.217686101794,-0.099049337208,-0.025059266016,0.054487667978,-0.082703679800,-0.117309533060,-0.200103312731,0.009402302094,0.312355816364,0.270589292049,-0.174309313297,-0.240045771003,0.078124701977,-0.045636616647,-0.181156665087,-0.148654907942,-0.308935642242,-0.170380830765,-0.094539448619,-0.032023385167,0.111163176596,-0.056817736477,0.074747577310,0.006895428523,0.111785091460,-0.407746464014,0.026261834428,-0.215026721358,0.083090864122,0.445546627045,0.268942624331,-0.117147259414,-0.274801850319,0.033542361110,-0.647471904755,0.243589133024,-0.093115873635,-0.426313400269,-0.027143368497,-0.114805236459,-0.127379223704,0.015762394294,0.166078329086,0.095846243203,0.127344965935,0.098379373550,-0.103033900261,-0.194807231426,-0.064756356180,0.046739876270,0.200144916773,0.040432773530,-0.358678340912,0.015594435856,0.277561694384,-0.060785893351,-0.008794140071,0.048849686980,0.027671009302,-0.029204705730,-0.561700344086,-0.213962703943,0.017187660560,0.020342303440,0.026664894074,-0.052824914455,-0.449323654175,0.087993703783,-0.115051858127,-0.005565592553,0.010126096196,-0.153297349811,0.138710498810,-0.474279314280,0.000862989516,-0.047202374786
0.114227302372,0.152462169528,-0.098569408059,0.083056785166,0.113605611026,0.230553209782,0.121247850358,-0.073784202337,0.100930266082,-0.200184911489,-0.161630868912,-0.197553873062,-0.034641250968,0.129771813750,0.179647907615,-0.014351368882,-0.110601946712,-0.114733681083,0.057904750109,-0.031315874308,-0.036480858922,0.029539937153,-0.364464432001,0.023684466258,0.114013843238,0.053013905883,-0.025753455237,-0.013647097163,-0.038230210543,-0.020458757877,0.066678643227,-0.000746706559,0.024390339851,-0.049144465476,-0.052654203027,-0.345374166965,-0.139447852969,-0.058664135635,-0.006189452019,0.043158225715,-0.060989927500,0.185339331627,-0.151576623321,0.137361153960,0.070625051856,-0.092412732542,-0.827584564686,0.134643793106,0.127795949578,-0.013130325824,-0.033792700619,-0.122893214226,-0.016752069816,0.411998569965,-0.407921612263,-0.123272955418,0.302551746368,0.073086827993,0.072269842029,0.068388476968,-0.076233491302,-0.375904828310,0.059639155865,-0.008821480907,0.014525881037,-0.051275372505,-0.221404284239,0.458661973476,-0.209237053990,-0.155791476369,-0.064083516598,-0.229705169797,-0.014359469526,-0.030799668282,-0.046959687024,-0.124874308705,-0.030538771302,0.063965484500,0.073718391359,0.053890679032,-0.049696151167,-0.139959067106,-0.475031435490,-0.293322771788,-0.040952652693,-0.033704590052,-0.109372243285,0.068657420576,-0.013067612424,-0.842465579510,0.039762943983,-0.092235527933,-0.062704220414,0.032626740634,-0.072623908520,0.093718439341,-0.241908356547,0.037640329450,-0.004816221539,0.187043651938,0.065097928047,-0.129699200392,-0.061326954514,-0.013764200732,-0.408239692450,0.041899524629,0.026970423758,0.292415708303,-0.002865650225,-0.121157683432,0.008489985950,-0.016959430650,-1.009297490120,0.086647175252,-0.031512819231,-0.006226044148,0.788651347160,0.571535646915,0.498905718327,0.044819094241,-0.045000489801,-0.219513133168,0.000999632059,-0.304602712393,0.045860253274,-0.013053231873,-0.197263509035,0.187155082822
-0.436307191849,0.781964719296,0.032276418060,0.411477327347,-0.426005393267,-0.287944197655,0.078593939543,-0.539937138557,0.162635609508,0.079414822161,0.043775621802,-0.187257930636,0.144507586956,0.003868524218,0.223477631807,-0.041945978999,0.446735680103,0.264829635620,0.281117856503,-0.229093164206,-0.168586179614,-0.196830853820,-1.443458199501,-0.305707573891,-0.072413086891,0.298982173204,-0.095175430179,-0.372529029846,-0.730321049690,0.019440133125,-0.014819461852,0.167658686638,-0.170599460602,0.115106642246,0.261406213045,0.513808369637,0.382123380899,-0.588720381260,-0.019915111363,-0.037100337446,-0.157830908895,0.570009827614,-0.014721500687,-0.016185261309,0.580706655979,-0.409525126219,-0.040984965861,-0.131068095565,-0.021797748283,0.052072949708,-0.071256257594,-0.431635171175,-0.594643175602,-0.538644909859,-2.323369264603,-0.365797907114,-0.289182513952,0.166380748153,-0.012500859797,-0.240170180798,0.089993223548,-0.451866269112,0.069477930665,-0.963885247707,0.027172347531,0.174944356084,0.027538251132,0.053857009858,0.627715408802,-0.425175398588,0.017725128680,-0.449415475130,0.191259801388,-0.316576212645,-0.555319666862,-0.190901473165,-0.102004393935,-0.588423311710,0.039363458753,-0.076867878437,0.258163839579,-0.014614208601,0.159360289574,-0.168234109879,0.164103731513,0.084839001298,0.392395824194,-0.112450502813,0.085448965430,-0.441416621208,-0.323112040758,-0.058986224234,0.307486027479,-0.414572060108,0.211742773652,-0.766333401203,0.208707541227,-0.268268555403,0.051146578044,-0.012737619691,0.085199467838,0.104353450239,-0.164032459259,0.117029257119,-0.249136790633,0.071759127080,-0.871397972107,0.080441221595,-0.211587905884,-0.082662776113,-0.041235573590,-0.895216941833,-1.252622842789,0.253916263580,-0.230426833034,-0.174548491836,0.104181826115,0.333280414343,0.323032975197,-0.292546182871,-0.271281629801,-0.165187418461,0.007615338545,0.314512163401,0.271226823330,-0.261650174856,0.204695597291,0.026514522731
-0.065104126930,-0.140932723880,-0.026113577187,-0.013673528098,0.113231979311,-0.795037806034,-0.030422411859,0.351505875587,-0.036310054362,-0.022625088692,-0.051929611713,-0.199822932482,-0.006242364645,-0.130703538656,-0.190053135157,0.068756975234,-0.067934893072,0.056507255882,-0.139733955264,0.061891470104,0.063307009637,0.103575959802,0.235430315137,0.020196471363,0.065695255995,0.062415029854,-0.094448260963,-0.143405079842,0.038469508290,-0.092950709164,-0.002779204864,-0.235632151365,0.092625565827,0.639810860157,0.076684102416,0.064928375185,-0.042648997158,-0.102147348225,-0.075158573687,-0.180299952626,0.043184239417,0.557834029198,0.001969008241,0.205292418599,0.118106350303,0.198498979211,0.057101953775,-0.095697037876,0.060964766890,0.003123973496,0.122907534242,-0.174877151847,0.108272299170,-0.326382279396,0.086369521916,0.215932756662,-0.159042611718,0.017390320078,0.230156302452,0.225902125239,-0.030905978754,0.138510301709,0.136407330632,0.149508699775,0.035701334476,-0.052779123187,0.039911869913,-0.013841762207,0.349318772554,-0.122435919940,0.164191976190,-0.004090063274,-0.063010685146,0.118720918894,-0.302734166384,-0.026595847681,0.049190413207,-0.021262118593,0.156633391976,-0.079567193985,-0.208546593785,-0.085463933647,-0.149255275726,0.063400119543,0.037754952908,0.043828219175,-0.180976435542,0.136685058475,0.095637038350,-1.580408453941,-0.128934562206,-0.081638477743,-0.060299433768,0.194123908877,-0.131716504693,-0.110030196607,0.024560183287,0.205463111401,0.012677393854,-0.015468038619,-0.120159387589,0.094456031919,-0.046129468828,-0.054771367460,-0.666200459003,-0.026770044118,-0.143548995256,0.099062837660,-0.255882501602,-0.043555662036,0.015973901376,-0.338319033384,-0.952577531338,0.125618413091,0.051721490920,-0.041832458228,-0.036313463002,-0.025103183463,0.322341501713,0.125653356314,0.318854004145,0.185046553612,-0.074747376144,-0.217040717602,-0.070083662868,0.012686580420,-0.203292369843,0.113604061306
-0.095199227333,0.062914073467,0.021248519421,0.058011271060,-0.016586573794,0.007402303163,-0.023905009031,-0.011061060242,-0.001220785081,-0.220914870501,-0.097137682140,0.062065705657,0.006714437623,0.022410975769,-0.017543580383,0.113905914128,-0.054701875895,0.064724169672,0.012079670094,-0.012329882942,0.039968311787,0.088103860617,-0.131591603160,-0.037961814553,0.018206182867,0.044075537473,0.030359927565,-0.020217824727,-0.081132188439,0.039244107902,-0.016695886850,-0.225694864988,0.110053382814,0.032273437828,0.018944103271,-0.054143335670,-0.145238369703,0.091362141073,0.045110046864,0.002193119144,-0.076320089400,-0.148601576686,0.147022888064,0.060586087406,0.230877146125,0.021729771048,-0.134380221367,-0.025549951941,0.012183508836,0.005978880916,0.041414979845,-0.000231919519,-0.152971103787,0.116579256952,-0.038672976196,-0.084943026304,0.001299745636,0.034290235490,-0.018916931003,0.092810094357,0.022980587557,0.038578052074,0.045388687402,0.012879128568,0.019096761942,-0.013265947811,-0.060364559293,0.031659811735,-0.137284815311,-0.011054152623,-0.109883375466,-0.026399519295,-0.024482818320,-0.070970930159,0.022064369172,-0.012112701312,-0.006506497040,-0.059264160693,-0.000582948385,-0.036247305572,0.022653870285,0.116220928729,-0.310113370419,-0.005946532357,0.124258875847,0.041817653924,-0.002759607974,0.068999283016,-0.081214077771,-0.256216615438,0.072452366352,-0.063031971455,0.029701702297,0.068724863231,0.033242855221,-0.021647596732,0.081083104014,-0.044437810779,-0.046889238060,0.033185351640,-0.017920879647,0.055409032851,0.033191062510,-0.041144736111,-0.029320465401,-0.014666311443,-0.010464129969,0.077210135758,-0.053014609963,-0.001677397289,-0.001158200554,-0.094932302833,0.198767706752,0.006843018811,0.073502399027,0.015220339410,0.086534135044,-0.043388128281,0.039072737098,0.035672336817,-0.122795730829,0.065826646984,-0.006216771435,-0.050716593862,-0.018467800692,-0.068980284035,0.016387220472,-0.179161444306
0.067515887320,-0.054250299931,-0.029600955546,-0.065532170236,0.050683736801,0.022501362488,-0.080206736922,-0.068664893508,0.029599118978,0.069045804441,0.067150995135,-0.060828674585,0.001203569351,-0.042531821877,-0.053480584174,0.063853383064,0.068003162742,0.028257751837,-0.049618758261,0.031705133617,0.072413906455,0.042612582445,-0.041960395873,-0.062128640711,-0.030406001955,0.054143600166,0.027373241261,-0.060156669468,0.131884187460,-0.006390102673,0.017250446603,-0.015590200201,-0.037537056953,0.027318550274,0.070312820375,-0.073745623231,0.099636904895,0.038355793804,0.012221533805,-0.027988003567,0.082171685994,-0.098466143012,0.079516202211,-0.007063067984,-0.143750309944,-0.048633653671,-0.001898148912,-0.008537138812,-0.040057942271,0.009810009971,0.034509360790,0.059989307076,0.048629824072,-0.129761695862,0.018550209701,0.024005787447,-0.078881047666,0.075040094554,-0.020149398595,0.023415790871,0.052459742874,0.081799767911,-0.044189199805,0.046890303493,-0.031201057136,-0.009213342331,-0.032263498753,-0.019819092005,-0.159653931856,-0.087220229208,-0.009834968485,-0.004596609157,0.087300457060,0.039403308183,-0.082786440849,-0.033934995532,0.034137316048,-0.028212923557,0.240782842040,0.016337662935,-0.004443788901,0.092256389558,0.053497556597,0.030400646850,0.043570768088,0.091918751597,-0.055617962033,0.033331941813,-0.017990177497,-0.133878603578,0.006789039820,0.031319014728,-0.010394693352,-0.077608615160,-0.031867373735,0.024937478825,0.062588520348,0.036779485643,0.032171811908,0.043380800635,-0.032473206520,-0.030720449984,0.050980616361,-0.017529474571,-0.120994858444,0.027419878170,-0.070569247007,-0.032601401210,-0.046114351600,0.038481209427,0.040541790426,-0.000230157588,0.086753204465,-0.057864543051,0.077662825584,-0.017859455198,-0.030267147347,-0.090310968459,-0.033993512392,-0.049840956926,-0.004658122547,0.064580246806,-0.202040225267,-0.164155334234,0.014520927332,0.088212206960,-0.032813943923,0.047717895359
-0.076226346195,0.294436901808,0.112434297800,-0.142728298903,-0.049393076450,-0.025407105684,0.058943077922,0.221833214164,-0.135566502810,0.238454580307,-0.283109486103,0.111078128219,0.075293295085,0.173207566142,0.615161597729,-0.219024732709,0.057968057692,-0.404413342476,0.831475555897,-0.292187511921,-0.060442034155,0.062254272401,-0.320506423712,-0.853113293648,-0.324603974819,0.393661677837,0.008286454715,-0.049962438643,-0.330786138773,0.236345008016,-0.713523387909,0.473827332258,0.206021830440,0.017549213022,0.044475343078,-0.089677773416,-0.770190238953,0.013837425970,-0.090641029179,0.303976595402,-0.099675156176,-0.056770026684,0.179443106055,0.030744446442,-0.133424326777,0.119585558772,0.018170859665,-0.056522414088,0.388244658709,-0.075272113085,-0.164488211274,-0.041872132570,-0.316403895617,-0.220783337951,-2.810858488083,0.079436220229,-0.363463580608,0.353462547064,0.154778391123,0.137321367860,-0.079316422343,-0.852010011673,-0.079774819314,-0.136472761631,0.093809157610,-0.080454006791,0.246976405382,0.001566252788,-1.998949646950,0.945695638657,-0.135970205069,-0.282977789640,-0.213341146708,0.377427697182,-0.323933303356,0.147467330098,0.236160859466,0.110555768013,-0.026259612292,0.193791657686,0.154502242804,0.087518639863,-0.198846682906,-0.035881474614,-0.523979306221,0.066329196095,-0.148301139474,-0.096970327199,0.264504939318,-0.641894042492,0.090750984848,0.346339046955,0.690224349499,-0.144741505384,0.154539555311,-0.014654898085,0.101900145411,0.058471500874,0.247075006366,-0.308423697948,0.538853108883,-0.443770051003,0.051320519298,-0.060040708631,-0.447457939386,0.206548795104,-0.098183311522,0.206750214100,0.067275144160,0.185416415334,0.028308739886,-0.382750183344,-0.209619075060,-0.273771286011,0.100561954081,0.097485698760,0.102062374353,0.279404848814,0.265367001295,0.210088744760,0.393260776997,-0.037011634558,-0.011572524905,-0.318806856871,-0.556779861450,0.034490831196,0.039351876825,0.566213428974
0.400802850723,-0.493941307068,0.037315618247,-0.157241836190,0.117153935134,0.717698276043,-0.179017856717,0.225065767765,0.348991364241,-0.283035010099,-0.707412004471,-0.021068288013,-0.366601526737,0.151064842939,0.177929952741,0.267976731062,0.352690100670,-0.327067464590,-0.285865485668,0.307916134596,-0.380964338779,0.395891427994,-0.301255255938,0.521434843540,-0.103780016303,0.106790944934,0.164792165160,-0.182476669550,-0.030290387571,-0.419260382652,0.023682996631,0.020956195891,0.150595828891,-0.105856314301,1.006969571114,-0.376921474934,-0.930595815182,-0.225649267435,-0.003961882088,0.285872578621,-0.152150154114,0.257846385241,-0.139612868428,0.082123458385,0.153852820396,0.168736264110,-0.533102810383,-0.020754901692,0.062554113567,0.393826365471,0.296720027924,-0.150405466557,-0.400407731533,-0.064610801637,-4.181726932526,0.328319609165,-0.044337369502,0.305845409632,-0.834479272366,-0.327971339226,0.196340680122,-0.576775491238,-0.278548896313,-0.370988547802,0.067201271653,-0.059861849993,0.353222399950,-0.238660871983,0.745255470276,-0.424188852310,-0.574425101280,-0.492346584797,-0.089157275856,-0.111931249499,0.304223448038,0.365719228983,0.362987607718,-0.131639406085,0.095038935542,0.560721218586,-0.015568180941,-0.200008839369,-0.895696938038,-0.212624922395,-0.238595232368,-0.109572328627,-0.028915761039,0.442832678556,0.659135460854,-1.775365948677,0.209090813994,0.151831537485,0.079129628837,0.396849781275,-0.080856814981,0.284310668707,-0.537332892418,-0.298487722874,0.693610489368,0.615464448929,-1.135787248611,-0.328768253326,0.307951688766,-0.250668168068,-0.728328645229,-0.163250148296,0.194462418556,0.107589460909,0.013752281666,-0.024415392429,0.034621875733,-1.531533360481,-0.026661621407,0.038685664535,0.660787284374,-0.038904033601,0.522452712059,0.090761296451,-0.204463750124,0.133409366012,0.039106514305,0.014552818611,0.097648471594,-0.338581562042,0.278826594353,0.141037240624,-0.080362066627,0.598546087742
-11.574344635010,-0.010049740784,0.050100512803,-0.017368154600,-0.018398398533,0.021690405905,0.092766083777,0.059196751565,0.005586961750,-2.773467063904,-0.138851806521,-0.083932265639,-0.005509209819,-0.002430205466,-0.009728323668,-0.004194027744,-0.029004370794,0.009796883911,-0.025691181421,-0.210173234344,0.002055676654,0.028473721817,0.162156790495,-0.001930558472,-6.103038787842,0.012450866401,-0.004435157869,0.038191620260,0.036451190710,0.112997211516,0.058533094823,0.051828306168,-0.060985572636,0.014214922674,0.000561967434,-0.057513203472,0.008149610832,-0.119869858027,0.003503083484,0.026251299307,-6.832498550415,-0.042261730880,0.037953004241,-0.001506152796,-0.012260421179,0.010227008723,-11.913588523865,0.018606249243,-0.007327447645,-0.011702153832,0.094081744552,-0.054591853172,-0.012687747367,-12.720066070557,0.000834002451,-0.026053924114,0.003440552391,0.000669817033,-0.018780309707,-0.037873938680,-0.019004274160,-0.003262096550,-0.102120302618,-0.047380734235,-0.158736661077,-0.093699738383,-0.009211050346,-0.000203273710,-0.062983296812,0.026370093226,0.028887407854,-0.008362329565,0.059257116169,-0.030639039353,-0.011777943932,0.085175536573,0.054549198598,-0.019069140777,-0.000983854290,-0.040064997971,0.026396771893,0.272107660770,0.009886696003,0.108049973845,-0.006794090848,-0.002337129088,-0.007657290436,-0.121668837965,0.028599008918,-0.164011642337,0.027179313824,-0.013321206905,0.040538258851,-0.050845809281,0.001679311157,-0.077570065856,-0.044831391424,-0.093959450722,-0.013806501403,0.058865409344,-0.014615761116,-0.014490449801,-0.044818740338,0.031419031322,-0.101100631058,0.005529740360,-0.004158179276,0.035019081086,0.008830187842,0.025443663821,-0.033793751150,0.080244183540,-0.170864701271,-0.004042732529,0.010978550650,0.012891090475,0.032841894776,0.020489763469,-0.165409460664,0.002505539451,0.019065741450,0.114747978747,0.016432454810,-0.030197435990,-0.030736610293,-0.114041201770,0.007318623830,0.003867517691
0.099911779165,-0.061082728207,0.001157205319,-0.086443707347,0.052317783237,0.058200296015,-0.012804787606,-0.045187778771,0.058059666306,0.117040276527,0.038504406810,0.034029990435,-0.029913039878,-0.081610709429,-0.063099950552,0.103498674929,0.115622662008,0.067052766681,-0.013031270355,0.045834004879,0.073960445821,0.056756924838,-0.055279850960,-0.052979677916,0.012274850160,0.058742728084,0.048818327487,-0.079450756311,0.132018342614,-0.043172121048,-0.101779684424,-0.059308562428,-0.018924251199,-0.028352148831,0.081565737724,-0.014754766598,0.127758756280,0.075378097594,-0.009923603386,-0.028044793755,0.114241935313,-0.198267042637,0.029729366302,-0.013502763584,-0.135583788157,-0.112188093364,0.018070662394,0.046004164964,-0.023009987548,-0.034636050463,0.018642969429,0.036125089973,-0.202428787947,-0.063884876668,-14.102597236633,0.062195882201,-0.122915968299,0.126274168491,-0.018926832825,0.089554771781,0.033811837435,0.032045703381,-0.034536119550,0.083035834134,-0.076644927263,-0.073566064239,-0.068110331893,-0.032363768667,-0.186670422554,-0.063014075160,-0.084318891168,0.025496121496,0.100651197135,0.094684444368,-0.090498447418,-0.006839218084,0.095281586051,-0.051321849227,0.084223717451,-0.029121823609,0.044033125043,0.121910966933,0.035067833960,0.024584660307,0.073975905776,0.106371350586,0.010350337252,0.050985686481,-0.024916118011,-0.178053706884,0.049324035645,0.005270765629,0.024649251252,-0.053996320814,-0.017025660723,0.091375604272,0.081522777677,-0.004269415047,0.066071920097,0.109175369143,-0.069755278528,-0.128560751677,0.091713115573,-0.062827087939,-0.088500238955,0.033555395901,0.018797248602,-0.054068945348,-0.072463922203,0.022783676162,-0.172900125384,-0.128893360496,0.361458569765,-0.011703650467,0.116440631449,-0.081743970513,-0.063570030034,-0.091196775436,0.033230688423,-0.080447152257,-0.019224489108,0.064917124808,0.470609456301,-0.053085606545,0.050014488399,0.110587172210,-0.015825593844,0.055713232607
-0.192342340946,0.049409575760,-0.142465740442,0.079754360020,-0.002019412350,0.152184277773,0.059883017093,0.173880711198,-0.108979769051,0.006385011598,0.140412867069,-0.311873733997,-0.219486355782,-0.072914130986,-0.035637073219,0.089694656432,-0.110240988433,0.028231104836,-0.126648455858,-0.212581098080,-0.009536050260,0.078031152487,-0.173642218113,0.025766205043,0.000965646410,0.070410527289,-0.000645894906,0.163607165217,-0.322954744101,-0.079348951578,-0.008551765233,0.366117835045,-0.186444327235,-0.010931319557,-0.111474394798,0.280955761671,-0.195053860545,0.112682431936,-0.070546120405,0.296402722597,0.016438661143,0.094519644976,0.049347706139,-0.018528295681,0.376344770193,-0.127921566367,0.119286812842,-0.047633051872,-0.049769271165,-0.013947772793,-0.205127120018,-0.055784694850,-0.042038448155,0.094983480871,-0.128510355949,-0.079475052655,0.203933149576,-0.011532845907,0.113561034203,-0.182112008333,-0.022412609309,0.141710773110,-0.077699556947,0.099008068442,0.005637006834,0.012847406790,0.016239363700,-0.007061295211,-0.592367887497,-0.163166150451,-0.188067659736,0.394908457994,0.104886181653,0.172866314650,-0.128136098385,0.029968678951,-0.087717294693,0.020114533603,-0.076587259769,-0.075228653848,0.067601419985,0.005266915075,-0.125744566321,0.091664172709,-0.438589841127,-0.092804141343,0.575627624989,0.060354158282,-0.268262445927,-0.329861015081,-0.257808655500,0.211414262652,-0.067741557956,-0.207374989986,-0.033609040082,-0.164497628808,-0.103889554739,0.156159609556,-0.052223891020,0.113280311227,0.046214912087,-0.628086030483,-0.015098864213,-0.059062596411,-0.143234506249,0.088085085154,0.161481201649,0.145059615374,0.262927681208,-0.099504068494,-0.012923667207,-0.164069652557,-4.495678424835,0.202895969152,0.027059795335,-0.232176646590,-0.110033474863,0.379054039717,-0.542783260345,0.128243803978,0.085371293128,-0.087152041495,-0.022626269609,0.379044920206,-0.223659604788,0.012092705816,-0.033731691539,0.079325042665
-0.002802212257,0.006080493797,0.004900390748,0.021464092657,-0.008593754843,-0.012899430469,0.011399757117,0.030854739249,0.000537469517,-0.021404650062,-0.027012094855,-0.025292469189,-0.016954397783,0.004804448690,-0.007451725658,-0.005126900040,0.000531303289,0.008613224141,0.061841499060,-0.004241613206,-0.011457035318,-0.007902260870,-0.037435341626,-0.013712964021,0.002758138813,0.009990714490,0.000046075431,0.004197016824,-0.021418033168,-0.034545835108,0.007456630468,-0.000036497218,0.006743445061,-0.073643296957,0.008042198606,-0.017184764147,-0.004367539193,0.002201935276,-0.005105401855,0.092817872763,-0.014005790465,0.072790890932,-0.000180420480,-0.003874878399,0.041769895703,0.007838577032,-0.015164142475,-0.028318893164,0.003985455725,0.003255394287,-0.015909180045,-0.011340481229,-0.011683812365,-0.006410040893,0.003186955582,-0.004118452314,0.003679167712,-0.015169024467,0.038397237659,-0.022125020623,-0.006349213421,-0.007675561588,0.011707509868,-0.010036061518,-0.013486349955,0.011678557843,0.001463015913,0.008830301464,0.007905554026,0.011434179731,-0.016050431877,-0.018447063863,-0.016829783097,-0.010832797736,0.005970656406,0.006963539403,-0.004656199366,0.030064741150,-0.002600481734,-0.006750101224,0.026768308133,-0.024133374915,0.010620760731,-0.028588857502,-0.009640306234,-0.005822848063,0.113208256662,-0.054392207414,0.071273937821,-0.044908978045,0.002476432361,-0.003908013925,0.011889811605,0.008343415335,0.010282408446,-0.004084566608,-0.001815717202,-0.009377079085,0.011129915714,0.012283354066,0.017204951495,-0.011600167491,0.006042656023,-0.012451623566,0.004829037469,-0.002546328586,0.003653100226,0.013610925525,-0.009000534192,-0.006447609048,0.022643819451,-0.046596087515,0.019495662302,0.024735193700,-0.010860299692,-0.005375422072,-0.010842869990,0.005525777116,-0.039605461061,0.010521447286,0.017495622858,-0.017778933048,-0.001014112611,-0.014927291311,-0.002173526911,0.000441309356,-0.004207197111,-0.002262708265
-0.041337259114,0.006885492243,0.119573526084,0.131023943424,-0.089475527406,0.055002450943,0.001874922193,0.131915569305,0.007578942459,0.154847830534,-0.088531136513,-0.089006513357,0.104311801493,0.039221037179,0.023897020146,-0.043478112668,-0.007685562596,0.024736342952,0.085712410510,-0.006494097412,-0.018043575808,0.011872047558,-0.263351231813,0.011180595495,-0.028038730845,-0.000390286936,0.032561529428,0.027636412531,-0.047881525010,-0.049278456718,0.069279007614,-0.204712852836,-0.103833898902,-0.019721591845,-0.107876434922,0.409966498613,-0.445310682058,-0.099047288299,0.009862383828,-0.067763522267,-0.027130575851,-0.115419127047,-0.023962959647,0.016746629030,-0.151985853910,0.006903147791,-0.053129363805,-0.056135054678,0.080264247954,0.001191974501,-0.050182096660,-0.052372399718,0.148179322481,0.021440291777,-0.040311828256,-0.021874081343,0.137168154120,0.011107604019,0.041112523526,-0.084389433265,-0.062337242067,-0.031809221953,0.044821713120,-0.032910402864,0.025679631159,-0.157708361745,-0.004950630944,0.018403060734,-0.060299105942,-0.086381703615,-0.074537441134,0.512935996056,-0.060033351183,0.031276669353,0.074415698647,-0.076928503811,-0.028870316222,-0.256252199411,0.003330727341,-0.019671149552,0.003644046606,0.095666132867,-0.023698808625,-0.014017785899,0.057461619377,-0.008315949701,0.016362367198,-0.102002747357,0.002508062869,-0.922310650349,-0.008382837288,-0.064245849848,-0.031555045396,0.020037159324,0.001112982980,-0.139376148582,-0.041799873114,-0.129108443856,-0.119382858276,-0.055864207447,0.013172446750,-0.003576565767,-0.041515469551,0.027107847854,-0.210181087255,0.065476685762,0.017056850716,0.077857486904,0.010715034790,0.058982737362,-0.003939039074,-0.068259336054,-0.126618698239,0.090039692819,-0.057235892862,0.015611980110,-0.147317379713,0.094007335603,-0.182199224830,0.097549751401,-0.232114166021,-0.001253056107,0.009125060402,-0.068152755499,-0.066938221455,-0.081068538129,-0.054342739284,-0.106735087931
0.046994846314,-0.113698348403,0.152691811323,-0.038435813040,0.020758472383,0.072770133615,-0.045940537006,0.073522128165,-0.199465408921,-0.057990547270,-0.060354128480,0.122099824250,-0.124755606055,0.088968612254,-0.043100595474,0.040308102965,0.090306006372,0.041912868619,0.019756218418,0.075568139553,0.031635552645,0.076260745525,-0.052612219006,0.113850638270,0.123083472252,-0.051970634609,0.044606879354,-0.027500024065,-0.178097486496,0.047351576388,-0.077325142920,-0.093973025680,0.166065260768,-0.059584978968,0.082759000361,0.155068188906,-0.009978860617,0.033180333674,0.028355078772,-0.062931627035,0.162850156426,0.159809693694,-0.058008350432,-0.075389891863,-0.138640865684,-0.043587688357,0.072587922215,-0.016995467246,-0.023509338498,0.133945792913,0.040323596448,-0.032163470984,0.017243387178,-0.178886309266,-0.410194247961,-0.085346631706,-0.007369833533,0.205070704222,-0.067706845701,0.003048783867,-0.027455665171,-0.080234915018,-0.031858503819,0.103227317333,-0.018903622404,-0.021971451119,-0.130993694067,-0.023710744455,-0.131691843271,-0.179965823889,-0.067605257034,0.020536249503,0.040125705302,0.039275407791,-0.143753737211,-0.014399806969,0.037613611668,-0.077526934445,-0.042102672160,0.181813105941,-0.029410393909,0.090206898749,-0.033605374396,-0.069371700287,0.059407662600,0.011726776138,0.119700834155,0.057563811541,0.127590775490,-0.938579261303,0.013553943485,-0.124657623470,-0.006484997459,0.277614772320,-0.020526800305,-0.061036713421,-0.022772433236,-0.023483576253,0.089374221861,0.085678085685,-0.033634167165,-0.092989213765,0.032625298947,-0.090319745243,-0.107432805002,0.010344813578,0.085484124720,0.127572849393,-0.024994069710,-0.010182204656,-0.013995839283,-0.352244943380,0.208333343267,0.026670394465,0.084122046828,-0.032057125121,0.111827678978,0.080728426576,-0.019730096683,-0.052319929004,0.008610603400,0.027576187626,0.009165510535,0.173514500260,0.011657196097,0.044274441898,0.002792225918,0.062876999378
0.015608537011,0.018539566547,0.003051338252,-0.012617983855,0.023022620007,-0.009151851758,-0.015819078311,-0.060659576207,0.014492189512,0.045227847993,0.012996600941,-0.027557522058,0.024879669771,0.021914485842,-0.018046563491,0.015042804182,0.022508492693,0.020279046148,-0.027650976554,0.005757384934,0.016398170963,0.010409681126,0.021733235568,-0.139477893710,-0.001437264727,-0.043457809836,0.017822844908,-0.010814570822,0.014118328691,0.025091344491,0.006160960998,-0.003540819511,0.006582731847,0.055721543729,0.004062971566,-0.022217100486,0.012580959126,0.015210499056,0.001420790795,-0.006793623324,0.002218073001,0.001835517003,0.009232457727,0.010254618712,-0.023826902732,-0.009517726488,0.005105557386,-0.005494070239,-0.029788013548,-0.017038172111,0.002125429222,0.031237447634,0.036848314106,-0.004416553304,0.117053292692,0.026730634272,0.025040576234,0.010338324122,-0.008576091379,0.015632973984,0.025700684637,0.017816802487,0.000588574039,0.007994306274,-0.004002740607,0.000037784383,0.002755817724,-0.007944012061,-0.003715628991,0.027027379721,0.004916043952,-0.006370198913,0.010594800115,-0.014779434539,-0.012943224981,-0.023620232940,-0.011975201778,0.002947379369,0.028283193707,0.015108415857,-0.007949381135,0.022041436285,0.003096676664,-0.005742726848,0.005954473279,0.024226794019,-0.020320951939,0.019214440137,-0.009167757817,0.009600448422,0.011939891614,-0.001807246008,-0.008392591961,0.003867163323,-0.013934357092,0.017436480150,0.015819201246,0.003286393592,0.000751103158,-0.006715660449,-0.009167071432,0.036757081747,0.021872630343,-0.011889793910,0.004144264851,0.013439319097,0.086478888988,-0.002964301268,-0.013096627779,0.023184822872,-0.009649589658,0.014604845084,-0.011041472666,-0.019466405734,0.024119544774,-0.009268713184,-0.016502073035,-0.008561034687,-0.024879708886,-0.015630276874,-0.004522677045,0.003035929287,0.007007915061,0.030553501099,0.009262182750,0.017539208755,-0.009710140526,0.012149488553
-0.026115609333,-0.020514437929,-0.039969317615,0.008932247758,-0.036364205182,0.016872890294,0.013504394330,-0.062862068415,-0.008370762691,-0.055840909481,-0.057152103633,0.034211717546,-0.055244453251,0.015369321220,0.044703084975,-0.017995702103,-0.004447758198,-0.030923800543,0.050834342837,-0.000456804788,-0.030407039449,-0.017348743975,-0.002704006387,0.217614501715,0.014340110123,0.078384071589,-0.023334683850,0.012562860735,0.058312937617,-0.019917260855,0.011964494362,0.011760152876,-0.013016259298,-0.006573257037,-0.001362032141,0.026744518429,-0.015523349866,-0.024123664945,-0.002284983639,0.007549235132,-0.009174218401,-0.001661283430,-0.010263216682,0.015373990871,0.019876167178,-0.002328454517,-0.010797062889,0.005558391567,0.029749268666,-0.020694969222,-0.005062094424,-0.050238315016,-0.047910861671,-0.000030370456,-0.009466557764,-0.047570444643,-0.078073628247,0.002827236429,0.005988183897,-0.040469866246,-0.046863354743,-0.018369387835,-0.044594381005,-0.005247558933,-0.012409143150,0.028205998242,-0.023489445448,0.013218025677,-0.595570206642,-2.718513250351,-0.002128426684,0.013673931360,-0.013226090930,0.012957231142,0.048046000302,0.034499563277,0.031787086278,0.022498669103,-0.032508540899,-0.037677474320,0.013042000122,-0.004229443148,0.002302155364,0.011042745784,-0.014872862957,-0.026203768328,0.018862400204,-0.017813406885,0.005096154287,-0.009113148786,-0.008945407346,0.029845556244,0.028749730438,-0.004955257755,0.021698458120,-0.043581541628,-0.014544322155,-0.010722300969,-0.001663053874,0.033836923540,0.020930066705,-0.183739751577,-0.034202285111,0.010346982628,-0.223703756928,0.005719631445,-0.076882727444,-0.005353709217,0.022666396573,-0.056242056191,-0.001694662962,-0.060919784009,0.127510130405,0.035090927035,-0.028786860406,0.016494773328,0.030677970499,-0.001805002452,0.004886071198,0.017730865628,0.015916815028,-0.010644617490,-0.008922861889,-0.003040144220,-0.033488657326,-0.025144511834,0.019357988611,-0.013840569183
0.142722219229,0.121284797788,0.021709870547,0.101836100221,-0.039321728051,-0.183801159263,0.145480111241,-0.036572363228,0.074302665889,0.177748695016,0.080860622227,0.233172386885,-0.018547287211,0.166811630130,-0.008498950861,-0.044841159135,-0.006393032614,-0.040693517774,-0.135662302375,-0.044803630561,-0.045573092997,-0.006659443956,0.202216044068,-0.152559667826,-0.269064486027,0.097716622055,0.058613158762,0.170926570892,0.454129219055,-0.147868633270,-0.355486124754,-0.080918475986,-0.134723901749,0.423136323690,-0.035675425082,-0.042714595795,0.073303267360,0.112042702734,0.189564153552,-0.041954647750,-0.010016967542,-0.037317387760,0.027285384014,0.239540025592,-0.761351346970,-0.049589380622,-0.036758158356,-0.521515071392,-0.083202168345,-0.044426053762,-0.034566909075,0.063024915755,0.175277605653,-0.232970669866,0.724879682064,0.036801874638,0.232069730759,0.179094001651,-0.250140577555,0.059527099133,0.003069269238,-0.242130964994,-0.083435408771,0.004959384911,-0.106399968266,-0.066397435963,-0.183201536536,0.026973353699,-0.210206478834,0.327593266964,-0.012933146209,0.258554756641,0.084158763289,-0.001270270790,0.083208061755,-0.081419132650,0.057985909283,0.010925308801,0.025420198217,0.012553176843,-0.597730040550,-0.140961512923,-0.007473899983,0.183099463582,-0.266322433949,0.010587651283,0.064610175788,0.061089597642,0.035987604409,-0.538339376450,0.106861583889,0.029711088166,0.014349574223,0.316680222750,0.005081681535,0.068554610014,0.045761335641,-0.002128163818,0.193628206849,-0.235825121403,-0.148348525167,-0.502396821976,0.002594748745,0.052840150893,-0.695870876312,-0.310327142477,0.233096197248,0.069838196039,0.063710913062,-0.041566673666,-0.028982665390,0.077309049666,-4.350811004639,-0.065280199051,0.091468222439,0.113131128252,0.010665479116,-0.041980203241,-0.014960401691,0.051671687514,-0.228574037552,0.018021488562,-0.359911233187,-0.379226505756,-0.067456260324,0.084937103093,0.295602560043,-0.059713974595
0.007243746892,-0.002796961227,0.001177403727,-0.005064683501,0.002705322346,0.004390849732,0.030440580100,-0.002790117636,0.002116508316,0.037634085864,0.009197246283,-0.007708644960,0.002110087080,0.644528687000,-0.005191325210,0.005064693280,0.005757290404,0.000345291803,-0.002893103752,0.005210393574,0.007268986199,0.003469949355,-0.004910801072,0.001420893939,0.002119162586,0.025158476084,0.007108987775,-0.009825581685,-0.008748147637,-0.008247354999,0.004437173251,-0.002903162735,-0.005243782420,-21.247823715210,0.007623046637,-0.006895873230,0.008343109861,0.002547217533,-0.001752276905,-0.004364653490,0.006062323693,-0.106027789414,0.006458017975,-0.009394711815,0.305191725492,-0.001611379557,0.010798009112,-0.002934254007,-0.006118670106,0.455464184284,-0.004870600533,0.009295194410,-0.397032618523,-0.001810863032,-0.009350104257,0.003759684740,-0.008491485380,0.007542627398,-0.001663010917,-0.001809687121,0.006481978577,0.007157949265,-0.009142779745,0.004092782270,0.003972926177,-0.003543624887,-0.000993181253,-0.000756924506,-0.075242415071,-0.018851421773,-0.002008540789,-0.001332886983,0.007987508550,0.014218885452,-0.001471366384,-0.000792731938,0.007987015881,-0.004817475565,-0.550499081612,-0.001973923761,0.000032364296,0.014972980134,0.011636208743,0.004503735341,0.003346888348,0.014475272037,-0.005116929766,0.005414174870,-0.001969078789,-0.092099025846,0.002861922374,0.003079589456,0.002213633386,0.005292698275,-0.004102292005,0.003576164367,0.005011986941,0.005890330300,0.002766803838,0.010899270885,0.002826815238,-0.015991121531,0.006105934270,0.000735075271,0.028366364539,0.009480693378,-0.000865946466,0.000921735074,-0.007482777350,0.007508712355,-0.215987056494,-0.037112437189,0.009452533908,-0.006082401611,0.013005825691,-0.002422000049,-0.003377355170,-0.015444952995,-0.005806691013,-0.007623350248,0.000153183253,0.008115954697,-0.127400875092,-0.016825014725,0.001890673651,0.008059032261,0.002809897764,0.011130178347
-0.019264705479,-0.028010724112,0.000102373022,0.006997392047,-0.018235323951,0.013326996937,0.015274404548,-0.051559861749,-0.010948242620,-0.041219960898,-0.027432512492,0.030003273860,-0.029057744890,-0.023513257504,0.022917944938,-0.018848871812,-0.018196197227,-0.015050126240,0.034269742668,-0.007080007344,-0.012480868958,-0.010939304717,-0.015305878595,0.208826690912,0.009225094691,0.059192698449,-0.008596681058,0.011229842901,0.013939688914,-0.030178684741,-0.001418266678,0.010901849717,-0.012621528469,0.009473392740,-0.003582967212,0.026375358924,-0.011433738284,-0.009897013195,0.001712511876,0.009708058089,0.002349466784,0.010703585111,-0.005759030115,-0.000210702550,0.006917217281,0.009474867955,-0.005220902152,0.001462189481,0.027607040480,-0.014649490826,-0.006596505642,-0.031848408282,-0.021438490599,-0.004203334451,-0.036255724728,-0.033267866820,-0.041438501328,-0.010230264626,0.004575285129,-0.020658023655,-0.029493577778,-0.017794702202,-0.049487940967,-0.006468858570,-0.009270456620,-0.001282171812,-0.003578383941,0.009176197462,0.137154847383,-1.986262559891,-0.000347676571,0.013953026384,-0.011200342327,0.001427928451,-0.006516418420,0.025023097172,0.012562111951,0.005511515308,-0.005493112840,-0.015986515209,0.008860036731,-0.012641226873,-0.003027780447,0.006045364775,-0.001407847158,-0.016570148990,0.019474020228,-0.020983228460,0.016039773822,-0.054715611041,-0.004187581129,0.011315288953,0.007095689885,0.003311836859,0.016744265333,-0.022269491106,-0.017167530954,-0.009588060901,-0.000053913049,0.015053442679,0.012997061014,-0.076308473945,-0.018849948421,0.005456477404,-0.130916431546,-0.002281586407,-0.061453945935,0.003895763773,0.017551094294,-0.028617272153,0.004392307717,-0.031754363328,0.175240993500,0.023140758276,-0.018769394606,0.014578414150,0.020453874022,-0.005595173687,0.019774442539,0.015793975443,0.005892703310,-0.004196298774,0.002240731381,-0.054986950010,-0.021204628050,-0.018344717100,0.000694627350,-0.009645597078
