-0.071864172816,-0.073666937649,-0.006324419752,-0.317537218332,-0.014595951885,-0.019811771810,-0.105260580778,-0.141255900264,-0.170545399189,-0.008237998001,0.047751780599,-0.007781460416,0.275144100189,-0.590108931065,-0.214683964849,0.222914993763,-0.120756208897,-0.035618953407,0.092621199787,-0.065995439887,0.099886730313,-0.151102125645,-0.046395372599,0.524775385857,0.079157203436,0.189568787813,-0.061124932021,0.102642312646,-0.264471054077,0.096885181963,0.355478644371,0.084623634815,-0.187199592590,0.199415728450,0.050400450826,0.140942201018,0.128240406513,0.120984189212,0.115639045835,-0.110340110958,-0.324567556381,0.027769194916,-0.158817619085,0.043072469532,-0.025872634724,0.089696630836,-0.016587059945,0.124038904905,-0.028104066849,-0.233059406281,-0.069354608655,0.148956894875,-0.008657637052,-0.046543013304,-0.592186510563,-0.068751320243,0.104955390096,-0.084155574441,0.105676516891,0.010378939100,0.149572357535,-2.027071475983,-0.047422301024,-0.126281648874,0.145669564605,-0.035047784448,0.170719623566,-0.129472345114,0.147736862302,-0.045697279274,-0.051942706108,0.045292314142,0.038439936936,0.357290327549,0.035033352673,-0.189357668161,-0.176467970014,-0.129927113652,0.380179554224,-0.244350269437,0.140942186117,0.048682037741,-0.260029822588,0.177594408393,-0.188968271017,-0.288417667150,-0.011294396594,0.076031275094,0.123027190566,0.017143826932,0.264539271593,0.055541761220,0.136545330286,-0.102501541376,0.273421674967,0.048191472888,-0.164859488606,-0.005722422618,-0.125127926469,0.056870453060,-0.039776585996,-0.309793978930,-0.299182206392,0.165468484163,-0.282907128334,-0.400358378887,-0.104375056922,0.209937959909,-0.108436554670,-0.411700099707,0.191370561719,-0.023193480447,-0.101562894881,-0.384734332561,-0.104152984917,-0.186860561371,-0.022497754544,0.406627416611,0.011181081645,0.878149628639,-0.132909283042,0.036621715873,-0.062297418714,-0.234132260084,-0.106593914330,0.287378072739,0.516367018223,-0.095402985811
0.120219349861,0.069819353521,-0.011393127963,-0.084604330361,0.065415702760,-0.028858304024,0.030259069055,-0.055686824024,-0.157632336020,-0.000286810973,0.128095611930,0.218405455351,-0.138538509607,0.237942263484,-0.047592870891,0.050600428134,-0.295324474573,-0.007581000682,-0.082681588829,0.069237947464,-0.021364090964,0.112000167370,-0.077747322619,0.028995420784,-0.303015947342,0.041846692562,-0.100580170751,0.007093588822,-0.019989913329,0.021499983966,0.068244069815,-0.056807138026,0.025238648057,-0.011860582978,-0.045933537185,-0.062861748040,0.007183663081,-0.088692463934,0.028041884303,0.099016927183,-0.006117192097,0.021027045324,-0.143210887909,0.206149339676,-0.099357970059,-0.059325370938,-0.253093332052,0.025892855600,0.011545515619,-0.012511336245,-0.053985308856,0.081738360226,-0.090149462223,0.275131821632,-0.187118038535,0.029947286472,-0.024619221687,0.023593893275,-0.094114750624,-0.001257517957,-0.246910348535,-0.009533137083,0.031667362899,0.097954481840,-0.206721961498,0.007180598564,-0.131675615907,0.053488288075,-0.108483947814,-0.067835845053,-0.127657800913,0.075934007764,0.190758526325,0.080833747983,-0.080206967890,-0.138210624456,-0.005462374538,0.093853771687,-0.223932370543,-0.458087056875,-0.033154901117,-0.005392390769,0.068044826388,-0.071230918169,0.124636009336,0.024436896667,0.009259741753,0.124665886164,-0.215052291751,-0.215764164925,-0.009540908970,0.057308167219,-0.009952913038,-0.071455158293,0.023012448102,-0.025577547029,0.143798679113,-0.204780131578,-0.085899390280,0.052915465087,0.128807440400,-0.281271994114,0.011155623943,0.082332432270,0.049807365984,0.149895787239,-0.085050255060,0.102202542126,0.041684206575,0.054288644344,0.123255722225,0.031783886254,-0.083540171385,0.034400817007,-0.027169726789,-0.012772203423,-0.111608482897,0.194072425365,0.031505264342,0.043645683676,-0.050757862628,0.036819111556,0.017465837300,0.034519333392,0.258421391249,0.069231040776,0.383479565382,0.046429138631
0.073422767222,-0.081203944981,-0.088542789221,-0.267550021410,0.018231147900,0.010768389329,-0.070782281458,0.225162044168,0.080146357417,0.132587060332,-0.061882086098,-0.055897291750,0.095142543316,-0.124345242977,-0.042262516916,-0.078336618841,0.359916567802,0.063373722136,-0.188143789768,0.002528811106,-0.014057211578,-0.031292982399,0.021167958155,0.059040676802,-0.102389954031,-0.115376740694,0.096121370792,-0.052699726075,0.078041940928,0.028793519363,0.062152102590,-0.175465598702,0.011694581248,0.112299270928,0.098027870059,-0.177757650614,-0.046897273511,-0.057241015136,-0.122422061861,-0.033288586885,0.090530216694,-0.044953554869,-0.156976640224,0.021468883380,-0.054959151894,0.059090740979,0.078799135983,-0.021510865539,0.018905861303,-0.012003526092,0.238511815667,-0.030259763822,0.135954082012,0.072151064873,0.089445784688,0.242439657450,-0.158310279250,-0.023708119988,0.117351442575,0.028579451144,0.198801860213,-0.048493951559,0.037090830505,-0.026329344139,-0.104217454791,-0.122809343040,0.039367474616,-0.168332621455,0.131674110889,-0.025299970061,-0.074986904860,0.102054186165,-0.073474280536,0.215293601155,0.072716549039,0.041032806039,0.279901057482,0.050013668835,-0.033173710108,-0.073440626264,0.187373012304,0.144392415881,0.075207583606,0.057589307427,0.042709417641,-0.045632746071,0.001548812841,-0.087864436209,0.032311726362,0.104403451085,-0.007563065737,-0.038113553077,-0.070481412113,-0.333962798119,-0.016951574013,0.283757597208,0.088478885591,0.150349423289,-0.049122303724,0.019437888637,-0.131082221866,0.108641177416,-0.001256767311,-0.064947284758,0.137184500694,0.027679307386,0.062454525381,-0.092480354011,-0.001164648798,-0.080775544047,0.159360811114,0.245183050632,-0.061073131859,0.018685273826,-0.014853096567,-0.015520728193,-0.155246138573,-0.152455404401,-0.027127861977,-0.033513128757,0.048189707100,0.228987336159,0.161430135369,-0.036582592875,0.055677879602,-0.033409979194,0.104009643197,-0.105600513518
-0.029414920136,0.050062406808,0.051947627217,-0.193832233548,-0.052149899304,0.171729221940,-0.176879048347,-0.072369500995,-0.011890538037,-0.190929889679,-0.088977456093,-0.068235866725,0.099317401648,0.095107614994,0.126875117421,-0.145451903343,-0.083031900227,0.184635400772,-0.051882714033,0.172694966197,-0.005462429021,-0.131440609694,0.114882402122,0.107639126480,0.033945329487,0.002517577261,-0.031627286226,-0.077688500285,-0.166292205453,-0.029436109588,-0.185878992081,-0.059715781361,0.106335937977,0.087614424527,-0.128776088357,-0.095159165561,0.049443844706,0.102141596377,-0.221147015691,-0.173373550177,-0.121879652143,-0.158258616924,-0.074388518929,-0.012961832806,0.090857610106,0.032463043928,-0.214500963688,0.147104725242,0.063468672335,-0.117377616465,0.076155692339,0.088721424341,-0.164913892746,-0.168287768960,0.048014625907,-0.165680155158,-0.014471876435,-0.090664789081,0.067769192159,-0.140962496400,-0.068721964955,0.068224549294,-0.204700604081,-0.055134154856,0.122189097106,0.075854085386,0.155405595899,-0.169321879745,0.077041119337,0.017371878028,0.100463844836,-0.069501988590,0.057835247368,-0.053454279900,-0.174930214882,0.002532899380,-0.157246425748,-0.204402595758,-0.130167245865,-0.213389307261,0.028844263405,0.198970496655,0.066078282893,-0.101099714637,0.138300433755,0.179623231292,0.091013319790,-0.059545844793,0.168778464198,-0.199560910463,-0.170080393553,-0.032933570445,-0.184397548437,-0.169605612755,0.013445933349,-0.186711147428,0.014067269862,-0.000601401669,0.093228504062,0.058285262436,-0.197119891644,0.132418975234,-0.120502866805,-0.077489688993,-0.106695331633,-0.204663440585,0.066053703427,-0.183515131474,-0.199661523104,0.046913094819,0.016981286928,0.145027697086,-0.136001229286,-0.194899350405,-0.016260016710,0.204824566841,0.112965241075,-0.022644104436,-0.079197078943,0.089769363403,-0.192730292678,-0.196285948157,-0.213625088334,0.171970382333,0.089693248272,0.101041674614,-0.016936488450,-0.195299252868
0.164751589298,0.005059782881,-0.053516797721,0.168940618634,0.062026359141,-0.064537376165,0.031249949709,-0.232991755009,0.452098906040,-0.352624416351,-0.003228592919,0.075811885297,0.001116543659,0.021826157346,0.053739428520,-0.178478077054,-0.043466132134,-0.003114680760,-0.010557848960,0.122583545744,-0.002062013373,0.032940801233,-0.018630111590,0.266216814518,-0.338866233826,-0.007035547867,0.029819177464,-0.028470145538,0.255024105310,-0.368958562613,0.015583269298,0.295587986708,0.028584828600,-0.073849715292,0.010929489508,0.115049846470,0.024685297161,-0.009891606867,-0.010375613347,0.257961690426,-0.007315490860,0.155307546258,0.160394355655,0.263532042503,-0.178199782968,-0.087955564260,0.010935898870,-0.128935322165,0.020407522097,-0.045366525650,0.195105522871,0.115636415780,0.123574294150,0.203104197979,0.049249920994,-0.075753241777,-0.189473226666,-0.088206358254,-0.057306315750,-0.020058609545,0.041983339936,-0.082330703735,0.043211732060,-0.133201986551,0.253525376320,0.046264499426,-0.100729718804,0.253428220749,0.108617775142,0.071807719767,-0.162327602506,-0.174126490951,-0.402314275503,-0.012388318777,-0.088741414249,0.170916423202,-0.251074612141,0.011225688271,-0.197017714381,-0.384390205145,0.360453277826,-0.319041848183,0.211480632424,0.046296659857,-0.353789001703,0.030511718243,-0.025481851771,-0.014745566994,0.032092608511,-0.308403551579,0.028354449198,0.070288322866,-0.102981522679,0.048746138811,-0.140313386917,0.087297253311,0.094947859645,0.145782843232,-0.295213192701,-0.109456934035,-0.053341239691,-0.657297372818,-0.227952480316,-0.040656372905,-0.147124528885,-0.379171729088,-0.082041054964,0.044755108654,-0.171638220549,-0.128290981054,0.130657821894,0.141429200768,0.130281835794,0.007617142517,0.014426469803,0.001149539952,0.123324498534,-0.255321025848,-0.100980103016,0.156174927950,-0.014815505594,0.061711207032,-0.091703616083,-0.255650520325,-0.164410248399,0.027478767559,-0.184807658195,0.033685706556
0.102187462151,0.049644511193,0.126437664032,-0.204852342606,0.001631301013,0.035827580839,-0.019163530320,0.184682250023,-0.253450304270,0.074465751648,0.039698600769,0.031988915056,-0.044763714075,-0.175805658102,0.220424547791,0.009323306382,-0.177257746458,0.068572103977,-0.095100991428,-0.101658418775,0.010912088677,0.086289659142,0.096104472876,0.042013932019,-0.167551830411,0.004578724504,-0.084210820496,-0.040639650077,0.338897228241,-0.180116266012,0.247637197375,0.141087904572,-0.046081148088,-0.223775371909,0.016676593572,-0.005912963767,-0.019727433100,-0.049849621952,-0.046139996499,-0.098394945264,-0.057065710425,0.022316867486,0.020125107840,0.044726300985,-0.119250908494,0.020754007623,0.322656840086,0.017408002168,-0.158091396093,0.082338467240,0.018198508769,-0.141318604350,-0.004701336846,-0.072289876640,0.036214083433,-0.066871427000,0.001328707323,-0.062688954175,-0.108786284924,-0.010328131728,0.004797030706,-0.077641002834,0.012787709013,-0.174447864294,0.005746682640,-0.096236690879,-0.071933403611,0.030871868134,-0.220867395401,-0.153427198529,-0.108626291156,-0.008104546927,-0.142480686307,-0.293138176203,0.108214914799,-0.153336852789,-0.065511316061,-0.087134160101,-0.198987022042,0.309066027403,0.019558822736,0.061852771789,0.119332484901,0.035091031343,0.264742404222,-0.046919070184,-0.012615359388,0.105892270803,-0.179076567292,0.079856701195,0.062824562192,0.058874435723,-0.144978329539,0.039031036198,-0.134930193424,0.129060968757,-0.055668342859,0.443599820137,-0.085279472172,0.051969904453,-0.110679462552,-0.120044670999,-0.063247352839,-0.226605117321,-0.059325322509,-0.094292744994,-0.035283941776,-0.065048292279,0.032378684729,0.018378226086,0.126322090626,0.034637935460,-0.249770253897,-0.049117006361,0.222573533654,-0.082758821547,0.072563819587,-0.012052050792,-0.045658815652,0.060387834907,0.059686016291,-0.025747831911,-0.079307079315,0.039864171296,0.035542830825,-0.207040637732,0.293143242598,0.079066857696
-0.010051243939,-0.041470818222,0.055807419121,0.042440976948,0.035740207881,-0.010948260315,0.079766072333,-0.015442308038,-0.015417133458,0.030853256583,-0.004117189907,-0.023317456245,-0.030532978475,-0.020238405094,0.024926384911,0.057469855994,-0.074584417045,-0.015396570787,-0.024956267327,-0.027935972437,0.028981871903,0.025992173702,0.018079670146,0.040083780885,0.052196424454,-0.134353399277,0.014251622371,-0.003325315192,-0.040627233684,0.025853708386,-0.016796169803,0.045290455222,-0.026969080791,0.148933798075,0.017063500360,0.001064386102,0.013756819069,-0.001619733172,-0.004584568087,-0.016619762406,-0.014925134368,0.022410210222,0.033804491162,-0.037635583431,0.007360952906,0.048161596060,0.029245864600,0.014631148428,0.002825051080,-0.014616446570,-0.037405546755,0.023780534044,-0.041462931782,-0.004232298583,0.017471726984,0.027975099161,-0.135743200779,0.014096615836,-0.068193934858,-0.038802139461,-0.126237586141,-0.012702839449,0.027316287160,0.019939424470,0.059274118394,0.110574968159,0.001785614644,-0.021863183007,-0.003922366537,0.004725955427,-0.001365259755,0.003397684311,-0.005728019867,-0.039490994066,0.007877495140,-0.013316639699,-0.167073786259,0.010966430418,0.011496179737,0.067590095103,-0.009063451551,0.036048397422,-0.055433817208,-0.104493193328,0.021231090650,0.003624233883,0.003726846306,0.000431047956,-0.053203981370,0.023332791403,0.022511202842,0.035442091525,0.008416715078,-0.060792453587,-0.005230949726,0.026683729142,0.010726340115,0.030949329957,0.005237181205,0.005747373216,-0.005115573294,0.009089731611,-0.028475312516,0.036821778864,-0.015499440953,0.070442624390,-0.151236712933,0.550021409988,-0.005588246044,-0.000893458549,-0.039464998990,-0.119645141065,-0.010331697762,0.093293346465,-0.034184880555,-0.006811901461,0.004059941974,-0.005978999659,0.015271284617,-0.016700102016,1.080064415932,0.029115324840,-0.013094427064,0.062526449561,-0.053415600210,0.022723840550,0.040643747896,0.011833515950
0.072315290570,0.023423800245,0.110363200307,0.094544291496,-0.002686462132,-0.182662174106,0.080057740211,-0.075742989779,-0.037892837077,0.101396389306,0.071016170084,0.072376795113,0.206043854356,0.079407915473,0.122033469379,0.316255122423,-0.136356770992,-0.026417495683,0.066335976124,-0.221996068954,-0.568332791328,-0.126702621579,-0.115703992546,0.007974996231,0.147515162826,0.087841741741,-0.037459228188,0.239103093743,-0.210700348020,-0.213263049722,0.188290715218,-0.216630905867,0.023678004742,0.015079247765,0.078116618097,0.059899881482,0.010134252720,0.200923487544,0.186084374785,-0.501206636429,-0.313335150480,-0.050195753574,0.067256480455,-0.390547543764,-0.030844783410,-0.070835657418,-0.024581307545,-0.054965849966,0.271717429161,-0.031980682164,-0.152732282877,-0.002128580585,-0.212730422616,-0.095044225454,-0.046323474497,0.302441418171,-0.003162550041,-0.197078362107,0.072867684066,0.181188568473,0.021522613242,0.039802838117,0.034115538001,0.047749154270,-0.264482945204,-0.065558925271,0.244745805860,0.346562415361,0.088640548289,-0.257568746805,-0.027678024024,0.127734929323,0.242817446589,0.249572128057,0.109682038426,-0.094725593925,0.087987065315,-0.138375505805,-0.094435326755,0.036089163274,0.116333454847,-0.432250142097,0.128968164325,-0.130785778165,-0.013474073261,-0.167779937387,-0.008923828602,0.055215958506,0.117572590709,-0.041897092015,-0.323054015636,0.035589307547,0.146063864231,0.107455953956,0.203974828124,0.019936731085,0.205471754074,-0.138247013092,-0.020252050832,-0.264321118593,0.298010468483,-0.457370221615,0.059632558376,0.208138883114,-0.622811317444,0.621371448040,-0.122373603284,-0.641241788864,-0.150949075818,0.145724043250,-0.031028976664,-0.354591101408,0.017529182136,-0.045937240124,0.068312808871,-0.251673281193,-0.020870234817,0.102823264897,-0.291069835424,-0.066303558648,0.275918126106,-0.190073639154,0.157547354698,-0.073345243931,0.129498347640,-0.214523836970,0.387096583843,-0.029504042119
0.029929060489,-0.108422093093,-0.000934721844,-0.344105750322,-0.206856057048,0.012158832513,-0.052002456039,-0.297466993332,-0.157005771995,0.239455267787,0.179299876094,-0.003954490647,0.042519293725,0.355282843113,0.156983166933,0.022426409647,-0.034359924495,-0.007233367767,0.032031923532,-0.146097466350,0.091429628432,-0.318104237318,0.069642446935,0.272714257240,0.360556691885,-0.082960382104,0.022624323145,0.086426950991,0.133705466986,0.060097709298,-0.075651198626,0.031740639359,-0.009462589398,0.146419912577,-0.004728842061,0.013549092226,-0.288509458303,0.109724164009,-0.023884817958,-0.121240228415,0.203474134207,0.435913294554,0.413962870836,0.139230206609,0.100518107414,-0.016614999622,-0.227934658527,0.129170984030,0.027906982228,-0.002644415246,0.261132419109,-0.164633467793,-0.042188372463,-0.172195300460,0.099970862269,0.069191791117,-0.206829845905,-0.079901017249,-0.160316929221,-0.007694938220,0.040634769946,-0.298550337553,0.015052195638,-0.025297753513,0.108775071800,-0.076601326466,0.005830533337,0.458704918623,0.091750733554,0.084646232426,0.096012704074,0.060137934983,-0.428135931492,-0.025775674731,-0.141208067536,0.043595425785,-0.128713205457,-0.069936342537,0.086018383503,-0.548341870308,-0.020227368921,-0.105177551508,-0.034455079585,0.135713338852,-0.296017229557,-0.004437638447,0.035505376756,-0.021740129218,0.056263316423,0.175228998065,-0.014598614536,0.181937456131,0.200577661395,-0.282266616821,-0.142167374492,0.172052487731,0.070859543979,0.112569279969,-0.178452253342,-0.141595646739,-0.385407626629,-0.426117509604,-0.035478953272,-0.079512946308,0.191414892673,0.061020966619,0.038295913488,0.144130691886,-0.252459734678,-0.355190545321,-0.047637354583,0.120511293411,0.067188225687,0.057806335390,0.014231955633,-0.001609375700,-0.024213843048,-0.074479818344,-0.009821949527,0.039410818368,-0.102870345116,0.035059656948,-0.055646359921,-0.658894717693,0.144397839904,0.128293022513,-0.176070496440,0.042794629931
-0.191078662872,-0.207160383463,-0.104150883853,0.059759832919,-0.117328904569,-0.012690909207,0.015600590967,-0.203843876719,-0.028324935585,0.116259679198,0.097719371319,0.067796103656,-0.108638532460,-0.231487527490,-0.143824771047,0.042756471783,0.007389221340,0.108013115823,0.120114557445,-0.170867457986,-0.145749866962,0.067335613072,-0.011247278191,-0.197188869119,-0.228663221002,-0.107157528400,-0.033130176365,0.085567936301,0.145501956344,0.048045799136,0.051112767309,0.040616046637,-0.086015723646,-0.145145356655,0.065820835531,0.196079403162,-0.015318722464,0.199935600162,0.042465426028,-0.203220307827,-0.186222851276,-0.051307510585,-0.028456065804,-0.106934510171,-0.157476097345,0.031996127218,0.098765604198,0.196889922023,0.042938563973,-0.138981804252,-0.053482335061,0.216428712010,0.115700468421,-0.224242016673,-0.087998107076,-0.170676529408,-0.204787746072,0.019047804177,0.067551732063,0.214291125536,0.151530027390,-0.005716193002,0.179185956717,0.047523532063,-0.103434197605,0.036185171455,0.037774994969,-0.104605913162,-0.089411340654,-0.089611880481,-0.038808826357,-0.192681282759,-0.132136851549,0.164989739656,-0.067490354180,-0.159358933568,0.069007098675,0.097932271659,0.170956626534,-0.199086874723,0.047138620168,-0.147026181221,-0.144249007106,0.052863262594,-0.145052015781,0.066799744964,0.084439806640,-0.154352188110,-0.186406686902,0.170373335481,0.126086831093,0.066998742521,0.137740477920,0.134876579046,-0.023574942723,-0.065285339952,-0.229200810194,-0.098531141877,0.079374775290,-0.120330281556,0.164067298174,-0.086082316935,0.080119751394,0.031049927697,0.023437824100,-0.012088559568,-0.162404865026,-0.182036846876,-0.094998233020,0.058046918362,-0.125156059861,-0.065335229039,0.029193770140,-0.058383975178,0.102394990623,-0.073783837259,-0.088312171400,-0.145985171199,-0.060299254954,-0.066525787115,0.122055031359,-0.150265455246,-0.167693942785,-0.189167723060,-0.208711802959,-0.227231994271,-0.033963374794,0.101394429803
-0.077189788222,-0.006511963438,-0.031286742538,-0.039909578860,0.035387158394,-0.025908546522,-0.146876394749,0.093996167183,0.017902996391,0.118774823844,0.017217483371,0.000463186763,0.065503835678,-0.011914325878,-0.019618099555,-0.047106605023,0.015951966867,-0.001275805989,-0.189908474684,-0.072954103351,-0.142674922943,0.108778111637,-0.055845420808,0.062394890934,-0.119654908776,-0.041733525693,0.066424667835,0.102608725429,-0.055813055485,0.085763528943,0.033090706915,-0.069717235863,-0.021963223815,0.025349127129,0.011527253315,0.032657500356,-0.012689309195,-0.042070586234,-0.039079990238,0.035732541233,0.030648710206,-0.020452236757,-0.085037060082,0.023382078856,-0.005449817050,-0.031182995066,-0.053755629808,0.016170646995,-0.007756509352,-0.016132060438,0.038608893752,0.072707764804,0.064149849117,0.016084048897,-0.078929834068,0.031252890825,0.047423917800,0.135353758931,0.112745583057,-0.019319316372,-0.019077008590,0.024420410395,0.014304594137,-0.104568362236,-0.056937023997,-0.033009465784,-0.091354206204,0.065230779350,0.152153313160,0.041488129646,0.045378256589,0.049212269485,-0.008792989887,0.076575607061,0.036348741502,0.061880771071,-0.310574173927,-0.116866029799,-0.113024510443,0.007196730003,0.019243339077,-0.187922418118,0.064499855042,-0.016871927306,-0.097331799567,-0.055943608284,-0.002714599716,-0.008096973412,0.039070833474,-0.089040428400,-0.020473925397,-0.046123232692,-0.029363313690,-0.026135060936,-0.086137935519,-0.004827518947,0.094981029630,-0.026672072709,-0.041569542140,-0.010398622602,0.037497680634,0.024236150086,0.059348203242,0.011965232901,-0.056228678674,0.047676812857,-0.047593910247,-0.032742701471,0.099692717195,-0.046439215541,-0.142376571894,0.201465606689,0.073338955641,-0.084086701274,0.184650629759,0.001309572370,0.062983311713,-0.058904666454,0.111898750067,-0.001127241412,0.338013201952,0.053744502366,-0.034278735518,-0.191405668855,0.151438772678,0.209492668509,0.069053158164,0.071468085051
-0.018299026415,0.117112115026,0.181845292449,0.403506577015,-0.202545121312,0.012709660456,-0.092813931406,-0.233256742358,-0.497764348984,-0.151522994041,-0.001232449431,0.122844375670,-0.061791118234,-0.341474294662,0.042404506356,-0.310311108828,0.111039757729,0.052413307130,-0.103817716241,0.016731241718,-0.389652878046,-0.065235987306,0.307445675135,0.141757771373,0.023085890338,0.082413509488,-0.241946205497,0.110601909459,0.500974953175,0.032386288047,0.138441845775,-0.214358836412,0.098125748336,0.718658208847,-0.303087055683,-0.071480639279,-0.761676967144,0.219514280558,0.080522097647,0.047369200736,-0.079246766865,0.082936979830,-0.200272500515,0.110353946686,0.089135721326,0.025506282225,-0.146617949009,-0.150575071573,0.157149612904,-0.010543866083,-0.399327397346,-0.253738194704,-0.067962743342,-0.101391531527,-0.308048456907,-0.065847747028,-0.127325177193,-0.108605898917,0.053496763110,0.161463364959,-0.052517894655,-0.650855958462,0.029684165493,-0.152951598167,-0.105066977441,-0.011019766331,0.033928330988,0.133917331696,0.130008190870,-0.233313292265,-0.080718249083,-0.202952265739,0.016255116090,0.091007560492,0.066698111594,0.164474248886,-0.343989968300,-0.023896660656,-0.038842219859,-0.168240025640,0.008229879662,0.016245011240,0.009322512895,0.452879011631,-0.204648256302,0.011995432898,0.045243248343,-0.326182276011,0.062878973782,0.174848258495,0.006707594730,-0.193250611424,-0.039429862052,-0.842671811581,-0.398833394051,-0.046731065959,0.411937475204,-0.316707134247,-0.202157199383,-0.557469844818,-0.598883330822,-0.144123345613,-0.220951393247,0.105016939342,-0.245506331325,0.012196631171,-0.067042186856,-0.320457488298,0.063503697515,-0.071973621845,-0.003414021572,0.034341473132,-0.037497941405,-0.033655226231,-0.203457087278,-0.747253179550,-0.034377899021,0.240187034011,-0.133868888021,0.029841603711,0.096110768616,0.102973334491,-0.234532773495,0.352600991726,-0.024534188211,-0.222944378853,-0.497278183699,-0.033540904522
-0.208726748824,-0.020983183756,-0.083750247955,-0.003705629613,-0.006837463938,0.106640033424,0.179266333580,-0.431944221258,-0.044027615339,-3.350508928299,0.038674801588,-0.049627549946,0.166708841920,0.490929782391,-0.220760479569,0.081628039479,-0.481138199568,1.019815564156,-0.339321583509,0.112733155489,0.068233065307,-0.486249238253,-0.027820093557,0.076640382409,0.138036236167,0.265834271908,0.267874896526,0.028208024800,-0.153117120266,0.565095424652,0.144809812307,0.675119578838,0.269003063440,0.301156669855,0.009848900139,-0.147663161159,0.059028554708,0.117225535214,0.254768162966,0.169976055622,0.112485773861,-0.138915896416,0.222455292940,0.097388394177,0.354247689247,-0.133494153619,-0.012208577245,0.011515971273,-0.032771375030,-0.262388050556,-0.154240265489,-0.369363546371,0.010858526453,0.129435822368,-0.367479503155,0.272850781679,-0.084458708763,-0.321877002716,0.092109791934,-0.016235563904,-0.034229256213,0.150991171598,-0.115630611777,-0.097276933491,0.228415429592,-0.352896541357,-0.291636824608,-0.001903874334,0.367802828550,0.133142575622,-0.015630513430,-0.014768419787,-0.111464418471,-0.104987837374,0.140065938234,0.389788240194,-0.087910570204,0.292965441942,-0.161744460464,-0.377937287092,-0.052444197237,0.137110054493,0.599531471729,-0.208044782281,-0.319172680378,0.165885671973,-0.114463523030,0.263186097145,-0.031202672049,-0.027846589684,-0.009339042939,0.414104521275,-0.126795649529,-0.000455420086,0.247230187058,-0.309719115496,-0.245317906141,0.635314226151,-0.049047429115,-0.068321101367,-0.071751371026,0.309237897396,0.296933621168,-0.045866847038,-0.294178426266,0.287873476744,0.111849479377,-0.281075596809,0.057529911399,-0.285270094872,-0.061345577240,0.140836581588,-0.163837686181,-0.615296900272,-0.377912640572,0.007659077179,-0.065910108387,0.328159362078,-0.781611084938,-0.141046881676,0.128228008747,0.118080079556,0.334003418684,0.223823204637,-0.258485168219,-0.357177466154,-0.346405595541,-0.205287769437
-0.070812165737,0.061483111233,-0.187337517738,-0.101939834654,0.116442255676,-0.015207420103,-0.015228763223,-0.034491039813,-0.131082758307,0.042642921209,-0.040523923934,0.039012931287,-0.059689041227,0.126326575875,-0.034093856812,0.155769094825,0.108562819660,-0.048909161240,-0.004977072123,-0.084670782089,-0.174342751503,0.029637761414,-0.036025296897,-0.067363828421,0.162399128079,0.124612152576,0.145459800959,-0.027488844469,-0.030187588185,-0.145767971873,0.192316144705,0.011411002837,0.021035520360,-0.167740121484,-0.091699019074,0.144224137068,0.056743316352,-0.063051506877,-0.024631170556,0.059949573129,-0.031649246812,0.014120152220,-0.153284162283,0.128044888377,0.004239169415,0.024440506473,-0.023485995829,-0.060136664659,0.124967597425,0.016027793288,0.474046260118,0.192421391606,0.080956421793,0.172994405031,-0.011107423343,-0.163967758417,-0.099158741534,0.025136277080,-0.081902638078,-0.072097450495,-0.030351707712,0.004359287675,-0.032290283591,-0.079276263714,0.069597907364,0.010233453475,0.117152668536,-0.054722443223,-0.033917192370,0.002123465063,-0.087995886803,0.285960942507,-0.006097458769,-0.045282732695,-0.047482382506,-0.070376381278,-0.063197389245,0.048505790532,0.156944170594,0.267496913671,0.186119720340,0.055360373110,0.005061351229,-0.079620346427,0.067764937878,-0.110291652381,0.000089793866,-0.006442429032,0.222631424665,-0.236381947994,-0.099879190326,0.062675833702,0.016397595406,0.011132183485,0.194022685289,0.079912476242,-0.070054620504,0.104377180338,0.008986387402,0.118167273700,0.017335612327,0.323343992233,-0.128347426653,0.029349464923,-0.004663488362,0.327613979578,0.106022857130,0.221764251590,-0.102382831275,0.158189564943,-0.061419170350,0.118666820228,0.059033777565,-0.261702150106,-0.034751947969,-0.016250407323,-0.131211593747,0.019394313917,-0.024026762694,0.072867937386,-0.058510813862,0.018748793751,0.104233957827,-0.136672124267,-0.092825509608,-0.303669661283,0.073238022625,-0.174288779497
-0.000999502256,0.134454354644,-0.097289882600,0.054795198143,0.058544512838,-0.197146505117,-0.101905889809,-0.239297792315,-0.157866746187,0.063842885196,0.096995018423,0.738265573978,0.021179784089,0.389625906944,-0.074402429163,-0.069286368787,0.381607800722,0.040652249008,-0.144263267517,-0.062723167241,0.277623176575,0.116719864309,-0.164800122380,-0.089559331536,-0.160652473569,0.174972325563,-0.024639850482,0.087594509125,-0.047641266137,-0.100842058659,-0.111184947193,0.048828300089,-0.086125224829,-0.160899758339,-0.044599920511,0.340373575687,0.008432389237,0.244860380888,0.127964586020,-0.035099666566,-0.019607324153,0.306084692478,-0.155100375414,0.068261414766,-0.047540001571,-0.084538757801,-0.003921878990,-0.078829534352,0.003949366510,-0.130813688040,0.128516465425,-0.094909779727,-0.165756180882,-0.094072468579,-0.290789932013,-0.140009865165,0.209459990263,-0.008814598434,-0.342341303825,-0.044884897768,-3.241235733032,-0.051510728896,-0.068637698889,0.216445714235,0.049997910857,0.061439361423,-0.050548460335,0.267122596502,-0.214284986258,0.046316541731,0.150622501969,0.465511441231,-0.145217299461,-0.226595550776,0.067608021200,-0.248370617628,5.538728713989,-0.037484571338,0.265711158514,-0.117245905101,0.101211398840,-0.431679636240,-0.127282664180,0.023740505800,0.013417606242,0.601516842842,0.105956293643,-0.045674871653,0.228670135140,-0.137538343668,-0.182521179318,0.157645553350,-0.520907759666,0.000070869581,-0.061107430607,0.258893102407,-0.738822698593,0.140942543745,0.222816944122,-0.057612158358,0.257485449314,0.391192406416,0.048653922975,0.195824086666,-0.408327251673,0.231924682856,-0.171470701694,0.086474515498,0.238798186183,0.014724836685,0.090520136058,-0.085568025708,0.019903713837,-0.241851300001,-0.385909527540,0.017281556502,-0.093936741352,0.118801757693,0.253762274981,0.216648682952,0.009551909752,0.005448946729,-0.004722335842,-1.605339407921,0.223024725914,0.281851381063,-0.127310201526,0.288213044405
-0.397417247295,-0.020155910403,0.089205898345,0.047951072454,-0.027992596850,0.024279979989,-0.041905011982,-0.035170011222,0.128214806318,0.304805576801,0.042323753238,-0.356737017632,-0.045194271952,0.311607837677,0.181192144752,0.085164196789,0.177154138684,0.076372347772,-0.079754650593,-0.015648866072,-0.103945404291,0.015066822059,0.122829586267,-0.007418008056,0.062767378986,-0.009916228242,0.033359907568,-0.320818543434,0.166325628757,0.060449641198,0.165696933866,0.210968852043,-0.117017000914,-0.192335680127,-0.120644934475,0.018452947959,0.022343799472,0.094860464334,0.061117913574,0.045428514481,-0.161028027534,-0.196978703141,-0.051040843129,-0.247091919184,0.131183922291,-0.106650561094,0.208001643419,-0.069387607276,-0.002789463382,-0.164995267987,-0.159678295255,-0.009194728918,0.111326403916,0.216486498713,0.116906434298,-0.073858909309,-0.131857275963,-0.091523997486,-0.034462433308,0.153645724058,0.020212957636,0.022959705442,-0.028995653614,0.065995194018,-0.042319957167,0.016749901697,-0.017990594730,-0.048057980835,0.086535632610,0.172792822123,0.096389159560,0.089650325477,0.172843754292,-0.119101531804,-0.157879665494,0.090314254165,-0.012900604866,-0.023356443271,-0.250407338142,0.267014861107,-0.082386374474,-0.114338472486,-0.044202037156,-0.028022488579,0.094810828567,-0.098211176693,-0.043314490467,0.122265063226,0.099189966917,-0.331202179193,-0.054339990020,0.192915707827,-0.053575776517,0.151937216520,0.184446036816,0.010393621400,-0.161571264267,-0.215275660157,0.135585948825,0.002382301493,0.021167799830,0.456208705902,0.326881349087,-0.083171978593,0.123175844550,-0.037138640881,-0.113659873605,-0.106370978057,-0.143731519580,-0.051817215979,0.064027845860,-0.047640811652,0.562639951706,0.185170859098,0.062651939690,-0.235455021262,-0.039248865098,-0.067943513393,0.045965403318,0.200984761119,0.046742536128,-0.061248611659,0.123681493104,-0.082602903247,-0.251189082861,-0.205308556557,0.051320146769,-0.141126468778
-0.029482739046,0.106183193624,0.161716908216,0.104436770082,-0.011281788349,0.121738232672,0.008775381371,0.414355546236,0.042986437678,0.081844694912,0.117973983288,-0.053979989141,-0.010681542568,0.024487540126,0.006738853175,0.045177172869,-0.138907819986,-0.032249595970,-0.005866305903,-0.091077253222,-0.043781951070,-0.035325754434,-0.129431128502,0.091120213270,0.005972310435,-0.159384801984,0.015256836079,0.030036281794,-0.114413671196,-0.049893874675,0.093342728913,-0.000077215213,0.015348982066,0.223453685641,0.022569829598,0.026663959026,0.021277382970,-0.150746673346,-0.047861695290,-0.071553848684,0.066296048462,0.108117811382,0.138627752662,-0.170290201902,0.098949700594,-0.019321752712,-0.042764976621,-0.063627891243,0.072675347328,-0.054290458560,-0.085801444948,0.006867263932,0.022409114987,0.017774360254,-0.140390202403,0.130971148610,-0.120633773506,0.113319091499,-0.016891041771,-0.124026179314,-0.010532856919,-0.046573050320,-0.002327230293,-0.016418721527,0.214330762625,-0.080908849835,-0.042220551521,0.048390466720,0.064362794161,-0.079734794796,0.033374674618,0.021523196250,0.064576447010,0.151172101498,-0.060927208513,-0.100650444627,-0.082240201533,-0.547178626060,0.095488123596,-0.035514704883,-0.067319832742,0.192862555385,-0.140117973089,-0.032843928784,0.152840837836,-0.029631741345,-0.000200979412,0.072767175734,-0.074230365455,-0.067743152380,-0.038578975946,0.009088764898,0.102980218828,-0.073733173311,-0.044642265886,0.031510636210,-0.105626031756,0.050080716610,0.002111111302,-0.029024621472,-0.017339749262,-0.011357937939,0.101582787931,0.316154539585,-0.122622117400,0.156895339489,0.203887864947,0.097325973213,0.110381312668,0.108641736209,-0.034595694393,-0.181493237615,-0.000082486076,-0.286971658468,-0.069981053472,0.084332361817,-0.141933649778,0.075803220272,-0.017800644040,-0.050479639322,-0.064059153199,0.030345015228,-0.123710244894,-0.159842103720,-0.289416521788,0.011436871253,0.052841529250,0.077923111618
0.005802270956,-0.071203731000,0.092766530812,-0.203495085239,-0.174934804440,0.036951791495,-0.058188337833,0.138879343867,-0.030292022973,-0.097925178707,-0.030477052554,-0.067050203681,-0.144002407789,-0.377102762461,0.052203096449,-0.000261381327,0.155684292316,-0.011389428750,-0.198637425900,-0.042004376650,-0.071134939790,-0.139514639974,0.081306546926,0.037514645606,0.191670686007,0.056123103946,0.058492567390,0.120718821883,-0.062816649675,-0.069573409855,0.099818117917,-0.018365832046,0.012467497028,-0.020650213584,0.112129457295,-0.045682389289,0.005934491288,0.041419412941,0.059208542109,0.189106628299,-0.063484862447,0.066852599382,-0.099055558443,0.305385142565,-0.124779537320,0.220893472433,0.174970045686,-0.046314351261,-0.029733741656,0.007801288273,0.115547217429,-0.098480708897,0.096438936889,-0.063397876918,0.023059111089,-0.025680506602,0.037512823939,-0.104439601302,-0.020160948858,-0.037202894688,0.048137091100,0.070505447686,-0.021477337927,0.058937281370,0.023902518675,0.048082634807,0.046828959137,-0.027037810534,-0.034243416041,0.001944907941,-0.157695174217,0.101232722402,0.072429507971,-0.060860652477,-0.043598379940,0.000687850988,-0.113432653248,-0.087593160570,0.213764101267,-0.211124598980,0.065905340016,0.013459752314,-0.028588674963,0.129921257496,-0.023937536404,-0.090957991779,-0.001000768971,0.144223555923,0.037450116128,-0.107604600489,-0.046086370945,0.019658299163,-0.003853576025,-0.210813000798,0.247239485383,-0.090809024870,-0.220756009221,0.047302901745,-0.020324470475,0.081665180624,-0.041444797069,-0.124316871166,-0.097591392696,0.042639173567,0.108907870948,-0.012766136788,0.129468753934,0.126113817096,-0.176620274782,0.073656350374,0.100101262331,0.327400416136,-0.000160567317,-0.163561299443,-0.057032003999,-0.032729886472,-0.069161862135,-0.096892848611,0.198565304279,-0.087492316961,-0.015386386774,0.039127618074,0.206634536386,-0.064504787326,0.122821100056,-0.131261661649,0.278149574995,-0.163145080209
0.108618520200,-0.208198964596,0.185134440660,-0.296917647123,-0.143597528338,0.059900883585,-0.010593044572,-0.117470659316,-0.066995963454,-0.039212524891,-0.004824466538,-0.278973340988,-0.334621459246,-0.098213881254,0.156055152416,-0.075617767870,0.050379689783,-0.061790026724,0.022159723565,0.137941151857,-0.132919400930,-0.039523351938,0.064980983734,0.317709028721,-0.243610069156,0.114618450403,-0.162443310022,-0.553080022335,-0.734077692032,0.097495943308,0.234612345695,0.566215574741,-0.077837519348,0.034989554435,-0.026588927954,0.042039472610,-0.009501347318,0.145292565227,0.076819814742,-0.008226266131,-0.034160841256,-0.094645231962,-0.124050758779,0.187100440264,-0.043730776757,-0.062532767653,-0.389993548393,-0.232379615307,0.073146425188,0.146247774363,-0.146737262607,0.275522768497,-0.093337602913,0.696939527988,-0.255408525467,0.010659634136,0.193260997534,-0.184957638383,0.118309922516,0.112233430147,-0.099199339747,0.592315495014,0.002578763757,-0.063413985074,-0.206637874246,0.036503300071,0.089690536261,-0.041397176683,0.028400773183,0.023775652051,-0.172775015235,-0.365438997746,0.343080192804,-0.170138180256,0.001498393482,-0.259928911924,-0.244202971458,-0.035116989166,0.193922966719,0.598441839218,-0.274036556482,-0.142266392708,-0.053639203310,0.340029627085,-0.430370748043,0.195925742388,0.075290411711,-0.023491978645,0.260696351528,0.246022328734,-0.064245067537,0.093990050256,-0.285694777966,-0.297550231218,0.058310907334,-0.195959910750,-0.063298001885,-0.071480676532,0.019805021584,-0.036370832473,-0.265827983618,0.185278013349,0.130542933941,-0.665754675865,-0.419200092554,-0.441909372807,-0.124668262899,0.036557387561,-0.074273720384,0.178443714976,0.551532447338,-0.588176548481,0.410854667425,0.052712667733,0.128729611635,-0.156896948814,-0.338664293289,0.592245042324,-0.043218798935,-0.398239254951,-0.051983330399,0.032278180122,0.018316201866,-0.259652554989,-0.475583672523,-0.172985285521,0.449995219707,0.177371963859
0.118254661560,0.016762398183,-0.544097542763,0.020230730996,-0.077481493354,-0.034653197974,-0.056828211993,-0.050270896405,-0.008544916287,0.139544144273,-0.042978182435,0.120705835521,-0.050109300762,0.083198234439,-0.349138647318,-0.195619255304,0.344580948353,-0.081165932119,-0.054364353418,-0.167904824018,-0.040365401655,-0.115931786597,0.078419499099,-0.074423059821,0.070043429732,-0.113148845732,0.095008179545,0.041428614408,0.064064301550,0.230307936668,0.125716105103,0.058524489403,0.063210591674,0.051366224885,-0.021612558514,0.043314557523,0.151950925589,-0.120985068381,0.024523898959,0.213789716363,0.237598896027,0.038910482079,-0.202067479491,0.278625428677,0.110728748143,0.173769026995,-0.054187498987,-0.111486725509,-0.053868915886,-0.137129247189,0.285411775112,0.224418193102,-0.034719713032,-0.102097913623,0.003691924736,-0.158574447036,-0.179457962513,0.113857351243,0.033120397478,0.016051819548,-0.015694689006,-0.013162040152,0.036677669734,0.200681358576,0.108769841492,-0.018435534090,-0.180150091648,-0.075883008540,0.143439933658,0.226895719767,-0.033926434815,-0.152589648962,-0.164777815342,0.114973187447,-0.120807342231,0.191981896758,-0.084152251482,0.102615177631,0.043367881328,-1.274542450905,-0.268717795610,0.241221472621,-0.027622438967,-0.027724212036,0.570848345757,-0.031021466479,0.062991611660,-0.021687973291,0.002795510227,0.176145344973,-0.065878398716,0.334591031075,0.032498437911,0.136771634221,0.126906663179,-0.132210001349,-0.138732671738,-0.004800454248,-0.077347785234,0.123811051250,0.200045049191,0.036819107831,-0.084413208067,0.409145295620,0.283350557089,-0.253644764423,0.197794109583,0.212152719498,-0.107321687043,0.099697709084,-0.367600142956,-0.111148208380,0.482732743025,-0.105914197862,-0.296482831240,-0.104740560055,0.088111169636,-0.095755353570,-0.127090141177,0.153708487749,-0.096234396100,0.005081542302,0.075528547168,0.118023000658,-0.162181556225,0.118741080165,-0.121491432190,-0.043653603643
-0.084273241460,0.151817724109,-0.129338204861,0.031451206654,-0.025966601446,-0.041612744331,-0.116381950676,-0.022303566337,0.021121410653,0.152484193444,0.099388651550,-0.041140031070,-0.019248157740,0.048105817288,0.362903296947,-0.129500642419,-0.062038052827,-0.057896286249,-0.072214305401,0.086242936552,-0.031334560364,-0.035044539720,0.000437669165,-0.040304962546,0.023715782911,0.154515728354,0.116394437850,-0.130168989301,0.238828301430,-0.119514226913,-0.108930051327,-0.088232614100,-0.096821956336,-0.191374659538,-0.026702957228,-0.040511131287,0.049795802683,0.103536859155,-0.035151321441,0.012844453566,0.151250645518,0.047188870609,0.081690713763,-0.146190136671,0.014226061292,-0.171545699239,0.177105560899,-0.023639654741,-0.049531813711,-0.016644624993,-0.055740926415,-0.010730537586,0.129236623645,0.175955921412,-0.246690899134,-0.100007444620,0.184243544936,0.101676851511,0.064808830619,0.069947719574,-0.007888715714,-0.134526371956,0.052908767015,-0.048671517521,0.056338001043,0.040673978627,-0.028939979151,0.170577585697,-0.104702420533,0.232090994716,0.094949133694,-0.139308616519,0.016243230551,-0.002429251093,-0.140250742435,-0.025009693578,-0.154717236757,0.080701015890,0.005436077248,0.018562762067,-0.114136330783,-0.142491906881,-0.011949259788,0.025906676427,0.132674679160,-0.090847752988,-0.038930073380,0.050920128822,-0.065962798893,-0.449840903282,0.016215320677,-0.178438007832,-0.002273137914,0.033590596169,0.074478089809,-0.093389742076,-0.165671482682,0.004639418330,-0.013430601917,-0.021281488240,-0.006301568821,0.028780592605,0.113509975374,0.228951856494,-0.209649711847,-0.053804874420,-0.189976707101,-0.047413114458,-0.155544951558,0.064482226968,0.356862097979,0.294139802456,0.284184962511,-0.114953570068,0.046212106943,-0.021277518943,0.066585473716,0.015770731494,0.143103361130,0.142455980182,0.081614635885,0.054715983570,-0.030198419467,0.079226084054,0.087959788740,-0.015676740557,-0.220915585756,-0.022595092654
0.057196948677,0.000307148002,0.014689669944,0.056195888668,-0.033566541970,0.002880636603,0.068874329329,-0.146813154221,-0.052490040660,-0.041300058365,0.027756437659,0.002596075414,-0.046250637621,-0.109213650227,-0.061105750501,0.081040620804,0.036279309541,-0.115765951574,0.281429409981,0.052151631564,0.044408578426,0.086071297526,0.033767800778,0.058497715741,0.025264570490,-0.224307730794,-0.024637313560,0.023263238370,0.126303970814,0.045306589454,0.002127110725,-0.030493935570,-0.016620634124,0.202424705029,-0.028075201437,0.019877884537,0.000578792824,0.011711864732,-0.001717061619,0.043954718858,0.028215039521,0.033801831305,0.028711907566,-0.022887486964,-0.079601943493,0.042881000787,-0.102154396474,-0.025905421004,0.003374700667,0.129766479135,0.019049873576,0.036886952817,0.027197865769,-0.070344544947,0.043479651213,-0.013052731752,-0.132053419948,-0.036200560629,-0.015883615240,-0.028980674222,0.043615851551,0.022751010954,-0.000083846207,-0.023985033855,-0.023807322606,-0.014826549217,0.038856673986,-0.055994790047,0.075097858906,0.022808542475,-0.055173460394,0.037171609700,-0.024442607537,0.006315087900,0.010446599685,0.030549362302,-0.006137842312,-0.039259187877,0.016732722521,0.039621103555,0.017075059935,0.030068252236,-0.014803620987,-0.337311685085,0.087935894728,0.002412559465,-0.112211190164,-0.007136112079,0.015360949561,0.019275320694,-0.054796762764,-0.154235407710,0.013590586372,0.428511559963,-0.002170895226,-0.061261292547,-0.040143463761,-0.044718112797,0.019493421540,0.019437042996,-0.007900796831,-0.000074476673,-0.034583415836,0.031511988491,0.037995275110,-0.031399864703,0.155654788017,0.128843545914,-0.020344307646,0.012985480949,-0.057421728969,0.021341677755,0.009942143224,-0.037253834307,0.069091647863,0.002511843806,0.011214480735,0.049279190600,0.032419655472,-0.039851631969,-0.106735490263,-0.051452517509,-0.040445581079,0.050912696868,0.051248278469,-0.029709763825,0.007513189223,0.024350715801
0.092278301716,0.006466282997,-0.141928687692,-0.065750747919,-0.145934164524,0.042368140072,-0.004175237380,-0.078695334494,0.006921725348,-0.018558027223,-0.025120753795,-0.202836439013,-0.127918899059,-0.068142965436,-0.037244003266,-0.267307877541,0.000006094150,0.064178779721,0.002458021045,0.043182000518,-0.006524601951,-0.034262388945,0.029110360891,0.199157327414,0.061732057482,0.223712578416,-0.103371776640,0.000244937604,-0.145909339190,0.117835350335,0.067766986787,0.042804539204,-0.080775320530,0.007094038650,0.063302375376,0.019982637838,-0.016081498936,-0.003624656005,0.011569957249,0.058095872402,-0.049430966377,-0.003532271599,-0.003701836802,-0.012076518498,0.046658501029,0.051819235086,-0.064582034945,-0.021480605006,0.007339476142,0.012570957653,-0.023716326803,0.204996436834,0.057334661484,0.077845998108,0.106065653265,0.182455316186,-0.170267522335,0.007164014038,0.030992761254,0.122190438211,-0.067407898605,0.010624407791,0.026811297983,0.032996751368,0.041282135993,-0.041558623314,-0.012143504806,-0.164167210460,0.175301194191,-0.046025097370,-0.103925615549,0.116707324982,0.091135509312,0.154753923416,0.098844222724,0.032336741686,0.180539682508,0.014491269365,0.142131015658,-0.045963440090,0.057557009161,-0.045825205743,-0.113519057631,0.017263969406,-0.068233236670,0.022564986721,0.011615963653,0.019690051675,-0.026988815516,0.052502419800,0.036968611181,-0.134324043989,-0.069846503437,0.015434923582,0.032359890640,0.085291959345,0.074399158359,-0.131266936660,-0.087144650519,0.040181860328,-0.131402581930,0.044598326087,-0.059814207256,0.074915468693,-0.012939681299,0.123638398945,0.089454479516,0.224862158298,-0.033006757498,0.023010212928,0.083547689021,-0.042496599257,0.006762826350,0.050102837384,-0.062329083681,0.002229493577,-0.083209663630,0.026062471792,-0.055161129683,-0.023840654641,-0.047275219113,0.071237638593,0.010528281331,0.051481507719,-0.293253302574,0.033427413553,-0.174492686987,-0.103030174971
-0.064873173833,0.081716701388,0.244504213333,0.150976449251,-0.046337272972,-0.014180538245,0.028079088777,0.166014596820,0.273011744022,-0.010142077692,-0.089151762426,0.118666626513,0.267533540726,0.252381950617,0.039133768529,0.232034623623,0.238274961710,0.161397457123,-0.041696436703,-0.102103166282,-0.088296771049,-2.090174198151,0.016478003934,-0.210066169500,0.051746413112,0.041093204170,1.622044682503,0.303330808878,0.405181407928,0.229784131050,-0.109876744449,-0.117433898151,-0.035294022411,-0.387633502483,0.148139700294,0.063452616334,-0.028529275209,-0.008957582526,0.045471485704,0.110957853496,-0.450134694576,-0.006842247210,-0.274524778128,0.055196553469,-0.078123413026,0.123120009899,-0.225700229406,-0.017373554409,0.067206576467,-0.380004435778,0.186754316092,-0.327349781990,0.030566567555,0.323221653700,-0.010535936803,-0.123530246317,-0.128881603479,0.264055043459,-0.195939227939,-0.027829477564,-0.010726777837,-0.009513449855,0.428305327892,-0.120437212288,-0.169678390026,0.168224886060,0.103495128453,-0.008610390127,-0.140410676599,0.295602917671,-0.003466458293,-0.299889773130,-0.122781395912,-0.536130607128,0.302690207958,-0.129604160786,-0.163321018219,0.010506659746,-0.282837986946,0.078943572938,0.079510413110,0.019028853625,0.012764458545,0.167281225324,0.158432126045,-0.242201790214,0.076013952494,-0.028015498072,0.166094079614,-0.201523676515,0.063660189509,-0.583437323570,0.012159787118,0.057143088430,0.074576042593,-0.525234043598,-0.712606847286,-0.621983826160,0.253008574247,-0.037623651326,-0.106524430215,0.014441424049,0.070181168616,-0.122388400137,-0.313090503216,0.033049572259,0.058700028807,-0.325027912855,-0.018575305119,-0.146368116140,0.296076744795,-0.438347965479,-0.310699999332,0.027884332463,-0.213986352086,0.499637037516,0.261618226767,0.127373829484,0.126697346568,-0.191291689873,0.197120741010,-0.081501401961,-0.105205722153,-1.196916699409,-0.314388751984,-0.128351628780,-0.435771197081,0.187397077680
-0.300822466612,0.052250277251,-0.132165282965,0.003042359371,0.101919367909,0.036684427410,-0.035388987511,-0.018477426842,0.003027032828,-0.120971441269,0.000727974693,0.067306317389,0.048216033727,-0.269922494888,-0.141281977296,-0.014426417649,0.039752107114,-0.039448171854,-0.164452314377,-0.017758918926,-0.098147816956,0.156015902758,-0.063320636749,-0.108173362911,0.070477485657,0.072006590664,-0.218667089939,0.152022436261,0.166189223528,-0.390743881464,0.144874557853,0.130156710744,-0.072236716747,-0.316942214966,-0.115163609385,-0.016390671954,-0.047278426588,0.003410538658,0.139471203089,0.148242503405,0.096495516598,0.113002769649,-0.068822443485,-0.023773292080,0.036735299975,0.076890215278,-0.179695129395,-0.065645523369,-0.027041818947,0.049956854433,-0.143731772900,0.287704765797,0.053766291589,-0.143692716956,0.120347432792,-0.333844691515,0.192794352770,-0.075937166810,-0.059979490936,-0.032992430031,0.023107511923,-0.014966297895,-0.045012399554,-0.223730862141,-0.088514581323,-0.001724999980,0.066866613925,0.224608927965,-0.041109133512,0.035904839635,0.028627177700,0.011611058377,0.018511909992,-0.111340790987,-0.124949574471,0.085887663066,-0.035506438464,-0.066781781614,0.041357528418,0.242812365294,0.009277150966,-0.133573442698,0.180751904845,0.082994118333,0.222377121449,0.278156518936,-0.040144998580,-0.024373000488,-0.014950049110,-0.016497123986,-0.034650515765,0.215913981199,-0.009472550824,0.053262855858,-0.042708165944,-0.295963138342,-0.220685839653,0.384474992752,-0.016747862101,-0.063812129200,0.045131612569,-0.120158441365,0.023887598887,0.197793498635,-0.184789523482,-0.309915453196,0.031841509044,-0.213497355580,-0.093585662544,0.034834053367,0.360153853893,0.086494080722,0.322534024715,-0.167366027832,0.054992984980,0.012267801911,-0.043998207897,0.006279140245,0.048534367234,-0.048512633890,0.172567382455,0.086404994130,-0.080866530538,0.544558525085,-0.108222000301,0.027934264392,0.425309687853,0.107569113374
-0.006212390959,0.023124324158,-0.048859778792,0.072432368994,0.093618370593,-0.026818256825,0.039161473513,-0.339593678713,-0.032850388438,0.092546328902,0.046465553343,0.083385840058,0.063346311450,-0.005467275158,0.026407975703,0.092315703630,-0.190699875355,-0.582934498787,-1.050848364830,0.028040148318,-0.024069068953,-0.269482553005,-0.019735813141,0.274050563574,-0.090037398040,0.004384826403,0.227184832096,-0.116802468896,-0.088235363364,0.067813433707,-0.009262238629,-0.032793004066,0.093060858548,-0.084308348596,0.011555475183,-0.080141663551,-0.005338157527,-0.009321182035,-0.100593000650,0.011702021584,0.080702297390,0.002829408739,-0.011318398640,-0.094041004777,-0.052056621760,-0.062414880842,0.141853243113,0.035065110773,0.018394645303,-0.297417968512,0.005738497712,0.137119919062,0.006325243041,0.140651643276,-0.092139154673,0.055616572499,0.080103777349,0.104704059660,-0.028243131936,-0.021714584902,-0.048965357244,-0.008905968629,0.027233449742,-0.135713130236,0.071900345385,0.022336116061,-0.114391624928,0.037976391613,0.048106711358,0.009742884897,-0.034396648407,-0.001800858183,-0.020889909938,0.077181644738,0.112534590065,-0.028976185247,-0.329209536314,-0.015614449978,-0.104132577777,0.090235181153,-0.041986744851,0.043727703393,0.041278678924,0.269991159439,0.002085591201,-0.201960593462,1.588090777397,-0.054864428937,-0.063610270619,-0.032844223082,-0.014851028100,0.201822921634,-0.166023239493,-0.187083184719,-0.055198706686,0.105776019394,-0.221468791366,-0.026925390586,0.035077534616,0.026329193264,0.074058689177,-0.043995916843,0.021465189755,0.095171310008,-0.651948571205,0.114506222308,0.096603780985,-0.259904861450,0.040069974959,0.009596014395,-0.061321884394,-0.157073870301,0.039020672441,-0.411898881197,-0.390304476023,-0.062099140137,0.051933418959,0.123750858009,0.089549712837,0.008316492662,0.259562045336,-0.071540214121,-0.005035354756,-0.068802595139,-0.131382659078,-0.146152228117,-0.256466269493,-0.101137742400
0.023144377396,-0.031840726733,0.015088334680,-0.671994090080,0.055740885437,0.021422335878,-0.038044434041,0.146630316973,0.437250137329,-0.094758033752,-0.047478359193,-0.150447905064,-0.064509928226,0.078818038106,-0.178565680981,0.021039685234,0.147808164358,0.058684028685,-0.006774089765,-0.050858110189,-0.222787797451,-0.087336078286,0.041265301406,-0.046016097069,-0.061841350049,-0.130029752851,0.076473943889,0.404426813126,0.266828298569,-0.046329353005,-0.110770501196,-0.015909759328,-0.013440866023,0.004899360240,-0.019802972674,-0.005084340461,0.008368277922,-0.095146454871,-0.051053605974,0.000480214134,-0.133253052831,0.103706739843,-0.168666973710,0.276376694441,0.016640620306,0.115269452333,-0.133480727673,-0.075012721121,-0.043397445232,0.041928771883,-0.060011442751,-0.202493309975,0.095031090081,0.001552576548,0.163788273931,0.025458237156,-0.033149920404,0.042564883828,-0.205093085766,0.036892175674,-0.066844910383,-0.089812666178,0.076505057514,-0.032437387854,-0.219996333122,0.098121069372,-0.131676092744,0.064571082592,0.102157406509,0.065540619195,0.037314519286,-0.030098294839,-0.129881709814,0.067591346800,0.262605845928,-0.086552165449,-0.061454828829,-0.020333396271,-0.099739015102,-0.452207863331,0.190749585629,0.082285881042,0.023599147797,0.030396018177,0.265926182270,0.042378030717,0.026810392737,0.008025872521,0.111085072160,-0.068183459342,-0.050376147032,-0.021544996649,0.014774059877,-0.015361894853,0.261796087027,-0.060342732817,-0.331457108259,0.221300691366,0.072704009712,-0.033145125955,-0.073782369494,-0.129887789488,0.158104315400,-0.121435590088,-0.102668926120,-0.049828026444,0.041735336185,0.044323325157,0.187996298075,-0.152154609561,-0.187550351024,-0.010371032171,0.131452128291,0.101530157030,-0.066435225308,-0.049094203860,-0.281241625547,-0.173526883125,-0.030856311321,-0.231959342957,-0.029143327847,-0.008327603340,-0.035616435111,-0.441391497850,-0.197287529707,0.100613087416,0.128390982747,-0.131270691752
0.321876883507,0.120652213693,-0.009570436552,-0.161003828049,-0.116922803223,0.032465454191,0.066464133561,0.062892727554,-0.054715577513,-0.146033540368,0.004631489515,-0.147605612874,0.222381904721,-0.278546780348,0.087373897433,-0.253308206797,0.057971797884,-0.014781159349,0.063799142838,-0.001711218501,-0.203432738781,-0.054303336889,0.003881596960,-0.563369989395,-0.128641560674,0.061766929924,-0.424916148186,0.263015806675,-0.111888833344,-0.308611392975,0.179185450077,0.305535674095,0.172726303339,0.014884999022,-0.009089958854,-0.104112148285,0.044737394899,-0.024237785488,-0.040871955454,0.027745140716,0.041858129203,0.117823451757,-0.147380143404,-0.084269002080,-0.020416010171,-0.203246533871,0.026341101155,0.033335797489,-0.040663950145,0.025688031688,-0.051766909659,0.011968226172,-0.095908284187,-0.344428062439,0.195613205433,-0.555222451687,-0.106536634266,0.260379165411,0.014516456053,0.049237322062,0.019823519513,-0.096143908799,-0.374875783920,-0.467340588570,-0.094485223293,-0.084862604737,-0.050760023296,0.493900239468,-0.111608505249,-0.186970517039,0.050085797906,-0.075807623565,-0.144601806998,-0.223141938448,0.034698873758,-0.215584561229,0.055516447872,-0.170963436365,0.092009365559,0.290583997965,-0.122094973922,-0.249079167843,0.065849907696,-0.106131091714,-0.055051706731,0.005248088855,-0.072066552937,0.106114700437,0.467776507139,-0.507369041443,-0.084900587797,-0.285031557083,-0.297720700502,0.148841142654,-0.204264387488,-0.185707002878,-0.240326687694,-0.407984644175,-0.157418593764,-0.004700910766,-0.086972564459,-0.022971568629,0.150003448129,0.049661397934,-0.850615918636,0.126149803400,-0.019380394369,-0.048360634595,-0.078431122005,0.219046369195,0.082507148385,0.207037046552,0.067428223789,0.165802091360,-0.087492726743,0.041278731078,-0.025960531086,-0.461479723454,0.022045385092,0.258657395840,0.045956574380,0.008306124248,-0.029403459281,0.452297449112,0.223538592458,-0.162454009056,0.072590485215,0.392957538366
0.197150677443,-0.099797233939,-0.043881241232,0.471362084150,0.264420866966,0.044435895979,0.008273505606,-0.105064451694,-0.421828180552,-0.188014343381,-0.038871727884,0.120562836528,0.097300447524,-0.075526565313,-0.308963596821,0.293283849955,0.235472798347,-0.039012268186,-0.012549009174,0.075664862990,0.067217066884,0.063491605222,0.048635251820,-0.052622351795,-0.062359843403,0.002802616917,-0.344732046127,-0.009468064643,0.304525047541,0.102971524000,-0.096237078309,0.077157415450,-0.024186896160,0.422953456640,-0.211826086044,0.114947520196,-0.004899427295,-0.010843607597,-0.075719259679,0.169692113996,0.008622166701,-0.156220421195,0.187627390027,0.066622965038,0.116088092327,-0.116679772735,-0.128657445312,-0.012972455472,0.197318807244,-0.026015045121,-0.011848504655,0.203460469842,0.310643792152,0.031378846616,-0.176628887653,-0.060294128954,-0.035838693380,-0.091388501227,0.097445197403,-0.043156426400,-0.091049246490,-0.074046723545,-0.098344653845,0.140191540122,0.067326374352,-0.193359643221,0.187662065029,0.155928745866,0.171902790666,0.007502950262,-0.302270680666,0.080913864076,0.050959642977,-0.300252228975,-0.066987022758,0.018642023206,0.007055464666,-0.115719653666,0.066809497774,-0.122657254338,-0.162907406688,-0.247887387872,0.073414131999,0.094434782863,0.248889058828,0.241513922811,0.051564682275,-0.299823820591,0.143776640296,0.009892204776,-0.184202119708,-0.498298555613,0.107615306973,-0.437716364861,-0.331037163734,0.045185912400,-0.036433670670,-0.216869741678,-0.405880868435,0.043423909694,0.151683226228,-0.097986981273,-0.109272681177,-0.320033252239,0.128057628870,-0.042386788875,-0.094920702279,-0.073673702776,-0.026117280126,-0.014086483046,-0.012395549566,0.119111180305,-0.040618102998,0.104756355286,-0.306353867054,0.003873956623,0.233111143112,0.087767988443,-0.099169939756,-0.071745403111,-0.010974599048,0.263256788254,-0.208896547556,0.241890370846,-0.047805789858,-0.226025342941,-0.112509995699,-0.098830483854
0.053303766996,0.044517289847,-0.008275358006,0.014204127714,-0.068992599845,0.010883576237,0.078177660704,-0.094498023391,-0.028509369120,-0.039230391383,0.017887959257,-0.016231704503,-0.013878455386,-0.071917437017,0.000652429764,0.018301991746,-0.130456820130,-0.057630084455,-0.005452503916,0.046015642583,0.006449688226,0.090698473155,0.002005197806,0.140490919352,0.006724644452,-0.412413418293,-0.051449932158,-0.000124679413,-0.041192729026,0.022320328280,0.017377797514,-0.002699896693,0.008499017917,0.174576088786,0.002544272458,0.009397163987,-0.001779013895,0.012689993717,0.033502344042,-0.005659253802,0.011203295551,0.001426758943,-0.023023858666,-0.024464786053,0.012807847001,0.012106049806,-0.097445301712,0.007085382473,0.002013015095,-0.020433157682,-0.040508586913,-0.043950136751,0.017480706796,-0.028871914372,0.046775296330,-0.058535028249,0.170842275023,-0.012489252724,0.016917362809,0.025354007259,0.424493551254,0.037410322577,-0.013430565596,0.004265737254,-0.018486090004,-0.063783407211,0.005523758940,0.014467052184,-0.032083783299,-0.007637309842,0.020269237459,-0.029065910727,-0.022112000734,-0.117118917406,0.010215417482,0.000973630755,0.059198606759,0.012541629374,-0.026302915066,-0.087396994233,-0.063154950738,-0.035965256393,0.020971937105,0.385119020939,0.015986500308,-0.035903509706,-0.015816411003,0.030534556136,0.090858131647,-0.039112057537,-0.021173462272,-0.101061955094,0.007803433109,0.464866995811,0.008736941032,-0.113389439881,0.061225082725,-0.031597293913,0.023912480101,-0.016083143651,0.008599921130,-0.023995311931,0.024747181684,-0.026628013700,0.077596455812,0.252469927073,-0.139524221420,0.002009300748,-0.004747597501,0.003452979261,-0.139170512557,-0.107021212578,-0.003449662821,0.166546300054,-0.097882628441,0.015265383758,0.020950170234,0.073678664863,0.008055655286,0.030635839328,-0.048288807273,0.468901038170,-0.010932463221,0.225653991103,-0.006433818955,0.028711270541,-0.010229245760,-0.011968952604
-0.044997226447,-0.081968165934,-0.118160828948,0.142947331071,0.246117055416,-0.039282899350,-0.158549159765,-0.019179482013,-0.140264898539,0.284225434065,0.000914543110,0.039554789662,-0.008291076869,0.026532882825,0.088327497244,0.235716551542,-0.075498312712,-0.464481681585,-0.581981360912,-0.060201413929,-0.061924684793,0.074696131051,0.023575551808,0.077562056482,-0.114165551960,0.098642304540,0.320708006620,-0.142609789968,0.093561209738,0.046310577542,0.014771923423,-0.068308815360,-0.028479294851,-0.419051140547,0.008849740960,-0.141548037529,-0.010643823072,-0.108936928213,-0.154553309083,0.110446415842,0.097048379481,-0.033627938479,-0.002890316537,-0.190047368407,-0.032562267035,-0.029762148857,0.090040728450,-0.027018362656,0.070685483515,-0.475146293640,0.141020655632,0.229376405478,0.057277858257,0.319571435452,0.253655821085,-0.051444221288,-0.033139940351,0.205320090055,-0.052177235484,0.014979093336,-0.184324175119,-0.114526547492,0.196396633983,-0.181687429547,0.081610612571,0.062897086143,-0.040236800909,0.154322147369,0.059180945158,0.101098157465,-0.155730992556,0.089822903275,-0.128195524216,0.082842804492,0.042481068522,0.156909659505,-0.355266422033,-0.248407229781,-0.112203650177,0.185971051455,-0.060856010765,-0.073426015675,-0.157680615783,0.536523222923,0.235040873289,-0.589843750000,0.104416497052,-0.114943005145,0.036612182856,-0.250819325447,-0.033818293363,0.230179101229,-0.104922942817,-0.790910601616,-0.083021864295,0.409494966269,0.264387816191,0.251089870930,0.003765649162,0.035219870508,0.048863343894,0.166273459792,-0.180502265692,0.156953185797,-0.281980276108,0.337742239237,0.142003178596,0.199188709259,0.382447928190,0.167262390256,-0.111359439790,-0.035373568535,0.280525296926,0.163748800755,-0.194093987346,-0.081053055823,0.222453474998,0.008793658577,0.140955209732,-0.093764781952,-0.033278830349,0.013148136437,0.046423964202,-0.666416049004,0.213771387935,0.108931966126,0.058156877756,-0.156126752496
-0.133207380772,0.000909910013,-0.196379914880,-0.048725683242,-0.033581547439,-0.028868591413,-0.039959017187,0.178078070283,-0.061341870576,-0.034297872335,0.042710416019,-0.059210576117,-0.108318842947,0.359937489033,0.034560855478,-0.310670554638,-0.078387670219,-0.059378966689,0.183029189706,0.005247300491,0.080866031349,0.021342754364,0.029318444431,0.427056550980,-0.014771842398,-0.516749858856,-0.035958677530,0.385341793299,-0.003937194590,0.016369123012,-0.123072177172,-0.973294436932,-0.239302024245,0.267812192440,-0.003154442646,-0.003954789136,0.041751701385,-0.056154340506,-0.101432323456,0.280425995588,-0.243690475821,-0.019260780886,0.053145714104,0.085613913834,-0.017222194001,0.045933432877,0.016752762720,0.057251986116,-0.004197783768,0.067334592342,-0.023003749549,-0.040052246302,-0.040683243424,-0.142856627703,0.137618690729,-0.012226765975,0.071333818138,-0.015447386540,-0.099862143397,-0.061665903777,0.006841635797,-0.101044490933,-0.042487330735,0.057142134756,0.091883152723,0.080270223320,-0.043188188225,-0.294734090567,0.238764926791,-0.001837863354,-0.019086983055,-0.219576388597,-0.214145302773,-0.056617327034,0.027164405212,0.058470446616,-0.173348516226,-0.264092952013,-0.105859488249,-0.473825544119,-0.004335352685,-0.051309768111,-0.077023535967,0.046765133739,0.173584014177,-0.078348256648,-0.006621566601,-0.029895730317,-0.025420637801,-0.023938197643,-0.003331845626,-0.106799639761,-0.028562689200,-0.174338459969,-0.124940223992,-0.058762170374,-0.403317153454,0.048067178577,-0.174660310149,-0.011510683224,-0.069880880415,0.026131421328,-0.274954676628,-0.086344212294,-0.177882701159,-0.186424925923,0.000425724458,-0.391233175993,0.021726142615,0.880002021790,0.228330582380,-0.228155449033,0.051826950163,-0.015192246996,-0.019259024411,-0.021780192852,-0.216334149241,0.395810663700,0.004274007399,-0.132538244128,0.121904902160,0.080115951598,-0.032778892666,-0.200797259808,0.387418925762,-0.209468603134,0.137206986547,0.268201828003
0.124283187091,-0.065796732903,-0.235428214073,0.026074204594,0.025244511664,0.000210196711,-0.351880460978,-0.215598091483,-0.009857403114,-0.225007399917,0.003008371685,0.142339110374,0.045772075653,0.033515047282,-0.200478181243,-0.103004574776,0.292475372553,-0.140606880188,0.060135837644,-0.063024818897,0.024001186714,0.039607837796,0.170739173889,-0.127716064453,0.263481497765,-0.021281585097,-0.034557294101,0.034568380564,-0.004764812067,0.122179225087,0.076549403369,0.013023776002,0.089985780418,0.287899106741,-0.080954290926,-0.042661551386,0.106367550790,0.048249188811,-0.029770037159,0.138919278979,0.081088148057,-0.033688083291,0.195752128959,0.039261132479,0.096619039774,-0.072100766003,-0.009910651483,-0.087760575116,0.041481930763,-0.105355054140,0.228332504630,-0.234932795167,0.070919767022,0.231927633286,0.219774633646,0.022609878331,-0.126500084996,-0.179544553161,0.050815090537,-0.028631979600,0.128404468298,-0.072001293302,-0.009324785322,-0.062787532806,0.182793810964,-0.076312936842,-0.071581535041,-0.034245379269,0.162977367640,-0.124793902040,-0.154607653618,0.129598751664,-0.067701689899,-0.175029367208,0.111001588404,-0.007595709525,-0.289850354195,-0.045340750366,0.306775271893,0.070802196860,-0.007348708343,0.162948966026,-0.090620793402,0.131561383605,0.292569994926,0.029451142997,0.063158549368,0.013048699126,-0.123380303383,-0.073498390615,-0.109277524054,0.252458930016,-0.067854337394,-0.003062540665,0.099190942943,0.320812880993,0.056154206395,-0.067545726895,-0.079626828432,0.043017264456,0.064472295344,-0.076640062034,-0.104781650007,-0.034755397588,0.030612397939,-0.294874370098,-0.128468796611,-0.028420330957,-0.039769548923,0.092969775200,-0.550703167915,-0.214801728725,-0.171367257833,-0.408530920744,0.394339174032,-0.141434118152,0.042363595217,-0.083787880838,-0.061211690307,0.085721842945,0.033274102956,-0.009946226142,0.027045750991,0.153404325247,-0.037444628775,0.190136626363,-0.038054872304,-0.090772569180
0.036356687546,-0.281455993652,-0.014198904857,-0.244550645351,-0.109672695398,-0.043712254614,0.052663318813,0.296644061804,0.147214323282,0.048711810261,0.179267734289,-0.116786375642,-0.271087586880,-0.308034896851,0.073208756745,-0.892631113529,0.126766204834,-0.165433689952,0.079348117113,0.025991871953,-0.094075925648,-1.537620544434,-0.024439543486,0.490621119738,-0.118030011654,-0.081614524126,-0.229660972953,-0.087717734277,-0.293319076300,0.111618503928,-0.121719300747,0.270359605551,0.055460188538,0.123457074165,-0.099146261811,0.059769511223,0.166279822588,-0.175827831030,-0.143089085817,-0.231176227331,0.164557933807,0.074359335005,-0.374827921391,-0.352014482021,-0.118220321834,-0.149031743407,-0.314625501633,0.154666438699,0.091471128166,0.025806507096,-0.121853932738,-0.145123377442,-0.459849148989,-0.448968678713,-0.173357948661,0.099364556372,0.052604448050,0.221008017659,-0.316968202591,0.123679988086,0.123958319426,-0.084958881140,-0.280657023191,-0.326464951038,-0.282129287720,-0.188699588180,-0.363016337156,-0.275829941034,0.027834484354,0.062463071197,0.261159300804,-0.139418557286,0.040547844023,0.283166050911,-0.081736981869,-0.103635542095,0.018136445433,0.148962378502,-0.443921357393,-0.164819821715,0.047669917345,-0.353745371103,0.088676393032,-0.077540636063,-0.225598499179,0.099963501096,-0.089948847890,0.162704765797,-0.489466756582,0.397717118263,0.211242571473,-0.128516867757,-0.107807986438,-0.026931069791,-0.277994364500,-0.449529796839,-0.123728409410,0.076285764575,0.185969054699,-0.114400841296,-0.419042259455,-0.172029212117,-0.036492336541,0.530458152294,-1.553853273392,0.183189302683,-0.201808482409,-0.300336867571,-0.129725784063,-0.096563436091,0.390797257423,-0.052890211344,-0.221376180649,0.081654839218,0.238816395402,0.181295052171,-0.078594088554,-0.115862034261,-0.032288894057,0.423679739237,0.116901539266,0.010957385413,0.060262206942,-1.724029779434,0.421470552683,0.011521844193,0.374410629272,0.491297364235
0.158316805959,0.052421998233,-0.253407239914,-0.232380270958,-0.196734204888,-0.009703254327,-0.047742404044,0.184909701347,-0.083537541330,-0.058861427009,0.582366585732,-0.249138295650,-0.155322819948,-0.224379524589,0.111509144306,-0.133960604668,0.019250193611,-0.081794567406,0.046907126904,0.059152137488,0.235343918204,-0.086710378528,-0.382105678320,-0.137163355947,0.183777272701,-0.183067724109,-0.125644922256,-0.097998298705,0.153086930513,-0.193652167916,0.234493777156,0.086404845119,-0.066189609468,-0.176551610231,-0.303088724613,-0.110719680786,0.258823752403,-0.341913491488,0.246961832047,0.401334404945,-0.187078446150,0.213593736291,-0.036582969129,0.215005934238,0.105269946158,-0.003024042817,0.014556473121,0.065721787512,-0.621841251850,0.035784825683,-0.068631939590,0.085990488529,0.065636053681,-0.219371169806,0.163485556841,-0.114261865616,-0.187136068940,0.008985321969,-0.031060751528,0.171776220202,-0.015606723726,-0.188269972801,0.006600543391,0.060014914721,0.036072716117,0.006059682928,0.137818574905,0.164995610714,0.020189555362,0.038535311818,0.025208644569,0.099580802023,-0.246291682124,0.077689200640,0.145963907242,-0.113092422485,-0.028002031147,-0.236434474587,-0.226654469967,0.108511708677,-0.015269048512,-0.097960896790,-0.020486660302,0.034654110670,0.308036684990,0.025886755437,0.014232703485,1.226906299591,-0.018451347947,-0.037321049720,-0.035864721984,-0.047001503408,0.086234144866,-0.194207489491,0.057026706636,-0.318117827177,-0.214820429683,0.278716444969,0.049107354134,0.101426504552,-0.476328909397,0.076579049230,0.261102318764,0.244065448642,-0.030910348520,0.141308203340,0.085483588278,-0.321374684572,-0.023918004707,-0.040350947529,0.373482793570,0.232282176614,-0.155341923237,-0.046847935766,-0.122370779514,-0.115975722671,-0.158007442951,-0.077360823750,-0.020857837051,0.036627486348,0.188813328743,0.089964047074,0.014002881944,-0.292608976364,-0.118206404150,-0.155586227775,-0.578803598881,-0.230633392930
-0.065926752985,0.108953639865,0.198374956846,-0.255125463009,-0.173333823681,0.063487529755,0.031067006290,0.250700175762,-0.069462038577,-0.063529066741,0.044121664017,0.005015886389,0.063974529505,0.244305714965,0.069375805557,-0.152282565832,0.091385357082,0.038073334843,-0.027777878568,0.103857725859,-0.082727193832,-0.042005021125,-0.075801886618,-0.078406296670,-0.171345666051,0.346554815769,-0.032305762172,-0.006937264930,-0.141365334392,-0.116580136120,0.087697736919,-0.035040851682,0.090630948544,-0.064205117524,-0.073438726366,-0.049357511103,-0.008635311387,0.040726572275,0.077739797533,-0.166026383638,-0.057216987014,-0.030498709530,-0.169670388103,0.125380888581,-0.015283597633,-0.139295935631,0.128628596663,0.009298201650,-0.080327883363,0.174831032753,-0.074673667550,-0.050691343844,0.122966520488,-0.089236631989,-0.346842169762,-0.041172873229,-0.207164272666,-0.083669982851,0.028461553156,0.115946225822,0.731591761112,0.017046624795,-0.155421257019,0.041338123381,-0.105489991605,-0.147354468703,-0.149655789137,0.188327655196,-0.071749255061,-0.129320010543,0.019926661626,-0.139699995518,-0.052182432264,0.000959120342,-0.134289637208,-0.067678935826,0.484790831804,0.176929652691,0.089960999787,-0.211627706885,-0.114721968770,-0.094892419875,0.060274504125,-0.217269569635,-0.103474915028,0.069846548140,0.000104022336,0.088343046606,0.035944543779,-0.023401578888,0.048538342118,0.065005809069,0.103805288672,-0.375437587500,0.136999353766,-0.245679616928,-0.060040988028,-0.005221047904,0.056158855557,-0.034504897892,0.043463815004,-0.221507862210,0.169473201036,-0.130339249969,0.076203085482,-0.062729775906,0.105017401278,-0.204349249601,-0.169344648719,0.097287312150,-0.015595194884,0.586124062538,0.006879155058,0.058507781476,0.066301174462,0.080761983991,-0.163193717599,0.053364153951,-0.113839589059,0.051567494869,0.304225444794,0.122874841094,0.057072665542,-0.298242807388,0.028741639107,-0.048385910690,0.181526526809,0.067657217383
-0.167786017060,-0.117771230638,0.033523797989,0.176296278834,-0.067911200225,0.107902064919,-0.165443614125,0.477268278599,-0.249726071954,0.091749839485,-0.177361443639,0.196094408631,-0.047123037279,0.244288116693,-0.300434947014,0.182255133986,0.297252625227,0.079004779458,0.096501156688,0.082018591464,0.120803996921,-0.028002072126,-0.077763505280,-0.204572513700,-0.184908390045,-0.020112488419,-0.254226386547,-0.051673110574,-0.101885639131,-0.512747883797,0.135297074914,0.031352464110,-0.021972618997,0.209378123283,0.106625698507,0.036530043930,0.120405770838,-0.137045010924,0.125970765948,-0.098078057170,-0.258379638195,0.140971809626,-0.189022123814,0.137055099010,-0.094153389335,-0.253774881363,0.070951431990,0.231084898114,0.164159283042,0.019074596465,0.085142023861,0.204060614109,0.143912434578,-0.291748225689,-0.332407146692,-0.236371740699,-0.201861903071,-0.065822526813,0.147124171257,-0.008559269831,0.118583030999,0.024463869631,0.111854970455,0.462101727724,-0.312228143215,-0.240850895643,0.177805960178,-0.106125392020,0.144645214081,-0.067967511714,-0.031348906457,0.342740327120,-0.137484252453,-0.211649775505,0.029846791178,-0.117584273219,-0.066220335662,0.071366600692,-0.236799731851,-0.037361357361,-0.421079397202,-0.176638215780,-0.096292614937,0.053343910724,0.039247594774,0.132923454046,0.053901836276,-0.107726223767,0.055073447526,-0.299944698811,-0.200557172298,-0.097094804049,0.067298434675,-0.083928637207,-0.284298777580,-0.399868756533,0.141164317727,0.097583048046,-0.304319888353,-0.053649000823,0.189623266459,-0.391554981470,0.162369444966,0.084410563111,-0.103887803853,-0.030883889645,0.172729969025,-0.368824154139,-0.110628098249,-0.357036471367,0.459203869104,-0.181363210082,-0.196217507124,0.208222240210,0.121114127338,-0.041609633714,0.510455369949,0.139977440238,-0.160499662161,-0.129506170750,0.177931398153,0.003919761162,-0.209258139133,0.024493239820,0.422609001398,-0.144495740533,-0.013276718557,-0.010047526099
-0.157565772533,0.095745861530,0.056988522410,0.048812124878,0.010709235445,0.042073022574,-0.172400191426,-0.113311268389,-0.129335388541,-0.069398432970,-0.060548830777,0.046834871173,0.219792604446,0.080878116190,-0.056039318442,0.181006640196,0.025175349787,-0.025749653578,-0.038115922362,-0.023185608909,0.051185749471,-0.151474177837,0.069293253124,-0.029141761363,0.046752676368,0.014535725117,-0.077498070896,-0.044419128448,-0.269943982363,0.113606460392,-0.127622544765,0.056813672185,0.141253143549,0.178880244493,0.164862543344,-0.074178814888,-0.058967407793,-0.045640785247,-0.028936190531,0.114918492734,0.030042665079,0.128510266542,-0.191084459424,0.029946343973,0.024160001427,-0.089964047074,-0.194371700287,0.116332285106,-0.039219535887,-0.006906688679,-0.072517313063,-0.077485427260,0.228006273508,0.000337001373,-0.023451659828,-0.139324083924,-0.132518336177,0.061614889652,0.123770572245,-0.019451400265,-0.010963532142,0.081382490695,1.194427013397,0.084183327854,-0.015261697583,0.085373021662,0.041092138737,0.057991508394,-0.094128824770,0.024235177785,-0.002661335748,0.137544453144,-0.028447793797,0.055395070463,-0.007745562587,-0.129849657416,0.155963838100,0.095909535885,0.094639517367,-0.099797829986,-0.089296996593,-0.022805210203,0.052267417312,0.129158690572,0.001564902021,0.019794071093,0.001352243591,-0.006381254178,0.198001846671,0.217572420835,-0.062931813300,0.156403824687,0.078751705587,-0.234929352999,-0.123408578336,0.019008288160,-0.075810514390,0.036382555962,-0.065644174814,0.040965434164,-0.099710218608,-0.148126006126,0.104580685496,0.083510719240,-0.333916336298,-0.186173141003,0.103716954589,0.050492066890,-0.078119322658,0.065261840820,-0.095076486468,-0.049886669964,-0.052545987070,0.070896521211,-0.066787265241,-0.018219765276,0.003089301754,0.017858551815,-0.000845857023,-0.215163648129,-0.054179802537,0.140782386065,0.018452264369,0.108047701418,-0.019094923511,-0.240398555994,-0.068364351988,-0.192345157266
0.136474728584,0.116686366498,-0.143962159753,-0.056442163885,-0.124192528427,0.052074570209,0.216553613544,0.007515253965,-0.006755670067,-0.155788123608,0.004882601555,0.035489164293,-0.004567380063,0.084725581110,-0.069583341479,-0.073884800076,-0.016984803602,-0.140958070755,0.190842643380,0.126234248281,0.032536920160,-0.022958168760,0.011744155549,0.178186997771,-0.016588304192,0.080875620246,-0.071422569454,-0.053360246122,0.058838166296,-0.078322768211,0.051531907171,0.010011321865,0.062727399170,0.562586188316,-0.026666078717,0.004760906566,-0.022724997252,0.023393929005,0.064465880394,-0.036238227040,0.005959580187,-0.050627849996,-0.059611231089,0.008091495372,0.017884520814,-0.065305337310,-0.121251896024,-0.028840791434,0.015064637177,0.000780907052,0.007633027155,-0.056801360101,0.058674134314,-0.005762069486,0.058835592121,-0.147353067994,-0.007256857585,-0.091174587607,0.032388847321,0.146200984716,-0.013769284822,0.047064922750,-0.071944937110,0.016630640253,-0.061019740999,-0.267611950636,-0.001686889329,-0.008287963457,-0.053121160716,-0.068604759872,-0.028730450198,-0.034227151424,0.026702964678,0.054885089397,0.009454764426,0.027194095775,0.446038901806,0.057983253151,0.005646511447,-0.174405992031,-0.102820917964,-0.045358829200,0.048186201602,-0.528104186058,0.078300341964,-0.083119459450,-0.067819751799,0.020049218088,0.200797498226,-0.059014569968,-0.041096575558,-0.142414465547,-0.013605104759,0.502563655376,0.050477281213,-0.100404635072,0.073810562491,-0.041967257857,0.029483899474,-0.009864137508,0.009917099960,-0.046464767307,0.011682715267,-0.119717672467,0.085002683103,0.130468711257,-0.195844322443,-0.074281089008,-0.001935713459,0.041141279042,0.103137277067,0.499635428190,-0.009890508838,0.085343144834,-0.130417391658,0.034787267447,-0.024532012641,0.079264633358,-0.092174619436,0.053941011429,-0.016126345843,0.018407480791,0.026676550508,0.628542125225,0.148755833507,-0.114897556603,-0.046989120543,-0.084205865860
-0.000375788775,-0.059414684772,0.024897355586,0.074552923441,0.044502992183,-0.024911282584,0.078950904310,-0.094158962369,0.083356596529,0.142386943102,-0.037130787969,0.074694991112,0.050568975508,0.106770291924,0.013086835854,0.104175090790,0.127215549350,0.127479359508,-0.002837365028,-0.001368570724,0.092146329582,-0.201571956277,-0.246543243527,0.049320299178,0.005441827700,0.124177008867,0.173330351710,0.063943825662,-0.143054783344,0.300983786583,-0.077854044735,-0.165234327316,-0.113015443087,0.034361440688,-0.093584910035,-0.115322582424,-0.132437899709,-0.168558448553,-0.057796586305,-0.022309003398,0.165568098426,-0.176003471017,0.070199571550,-0.000260364497,0.006984736305,-0.099112384021,0.046772070229,0.078993007541,-0.016196494922,0.016355577856,-0.205455854535,-0.093139767647,-0.009693490341,0.445384293795,-0.096654370427,0.088532663882,0.033961351961,-0.039959333837,0.160508528352,0.033498331904,0.244231179357,0.012188358232,0.113981388509,0.180975884199,-0.066549785435,0.155600562692,0.047142740339,-0.152128264308,0.036253347993,0.137059077621,-0.053036078811,0.074859693646,0.142937481403,0.178638443351,-0.089497096837,0.155080035329,0.313623428345,-0.118039466441,-0.031717017293,0.183311834931,-0.013629029505,-0.003361645620,-0.020509071648,-0.061331193894,-0.098144553602,-0.085262924433,0.014526139945,0.116197042167,-0.054514579475,-0.029873851687,-0.007672528736,0.011479584500,0.094188712537,-0.043512094766,-0.034679964185,-0.069383963943,-0.052964918315,-0.000583592686,-0.019454205409,-0.097083300352,-0.012670966797,-0.079551137984,-0.041825883090,0.117721006274,-0.125883445144,0.207300856709,0.183272168040,0.042299520224,0.134546920657,0.035099737346,0.033265430480,-0.019371088594,-0.039896640927,0.102135106921,-0.000000289148,0.030954334885,-0.120899088681,-0.055958837271,0.270781189203,-0.166835799813,-0.016952672973,0.029382497072,0.063907407224,-0.297567874193,-0.166596531868,0.059846758842,0.003157637548,0.021259717643
-0.280958205462,0.061053045094,0.192335113883,0.087452538311,-0.049701329321,-3.413481712341,0.158384025097,0.048985145986,0.283105283976,-9.293680191040,0.416885763407,0.688114464283,-0.028457988054,-0.054338466376,-0.168526485562,0.070590108633,-0.037826366723,-0.499299794436,-0.008223883808,-0.176917925477,-0.087717801332,-0.341557562351,-0.110568024218,-0.288634687662,0.226087778807,0.353475719690,-0.186999067664,0.070480659604,-0.711697280407,-0.198260664940,-0.053554926068,-0.401093333960,0.040019873530,0.291029334068,0.159667402506,-8.829360961914,0.357802748680,0.155218303204,0.105332300067,0.119643822312,-0.042006898671,-0.549881339073,0.295974045992,0.090380787849,-0.423314005136,0.092256501317,0.202018454671,-0.087156340480,-0.055699996650,-0.188239365816,-0.294579297304,-0.276845812798,0.167104721069,0.272297799587,-0.866378009319,-0.337820112705,-0.181060314178,0.062009304762,0.020257707685,0.198538556695,-0.100007362664,-0.372231572866,-0.118592381477,0.094422504306,0.499154090881,0.530217766762,0.239731252193,-0.247451454401,0.010425312445,-2.213849544525,-0.071812406182,0.128225818276,-0.340567797422,-0.482122421265,-0.033669132739,0.078427046537,-4.711166858673,0.356795698404,0.217315673828,-0.195764988661,-0.324042379856,-0.218438714743,-0.291478246450,0.029312131926,-0.087381869555,-0.001482146792,0.048991169780,0.089082658291,0.486926168203,-0.039045609534,0.417541891336,0.509270310402,0.212963789701,0.227924376726,0.195308953524,-0.333343833685,0.377466499805,-0.375506788492,0.253340810537,-0.027223261073,-0.081238709390,-0.116075180471,-0.338527560234,0.341439902782,1.095126390457,-0.091336570680,-0.036229059100,-0.381223589182,0.180686607957,0.170409157872,-0.302743643522,-0.856254220009,-0.120590470731,-0.312605351210,-0.317787706852,-0.032499231398,-0.042377084494,0.191275984049,1.086282968521,-0.043089065701,0.168297678232,-0.232924863696,-0.173387572169,0.932870149612,0.187243178487,0.251315623522,-0.179100215435,0.066302098334
0.108193084598,-0.085991576314,0.024659294635,0.042051259428,-0.133272841573,0.019730620086,-0.089443974197,-0.090971119702,-0.074300438166,-0.008773661219,0.010568225756,-0.175840497017,0.077316552401,-0.222419336438,0.112610049546,0.002215006622,0.049358185381,0.025143593550,0.022914357483,0.014707547612,-0.008898761123,-0.045269250870,0.102496877313,0.040349841118,0.004613499157,-0.085321046412,-0.230413258076,0.001701392466,0.061074580997,-0.013796393760,0.072923533618,-0.022694272920,-0.024223284796,-0.081492342055,0.072924189270,-0.106461569667,-0.039396222681,0.041726250201,0.073408998549,0.093514233828,-0.009833022952,0.040897376835,0.030108816922,-0.110314153135,0.040424838662,0.106116138399,-0.062712036073,-0.044188030064,-0.064215257764,-0.059771150351,-0.088963627815,-0.334326565266,0.037808973342,-0.086317129433,0.328600198030,0.030252696946,-0.070619851351,-0.033687442541,0.090566433966,0.078884720802,0.064384780824,0.029411688447,0.125772505999,0.060690846294,-0.101791113615,0.053595378995,0.117585986853,0.052752811462,0.014885151759,-0.056175760925,0.011008878238,0.056380264461,0.073657646775,0.184672772884,0.067866206169,-0.031169505790,-0.363957554102,-0.139686614275,0.040631067008,-0.069377578795,0.013262272812,-0.086161881685,-0.029736611992,-0.043698191643,-0.019284620881,-0.086266867816,0.041281525046,0.012943933718,0.136343672872,0.039275564253,-0.081521824002,-0.146455183625,-0.025576435030,0.037483591586,-0.009047233500,0.033771280199,-0.013013547286,-0.217144757509,-0.008584612980,-0.007956935093,-0.120818942785,0.157535970211,-0.043879684061,0.032658711076,-0.205423578620,0.040864873677,-0.021151939407,0.037104766816,0.001842776313,0.086897663772,-0.109432458878,0.137247562408,0.055977553129,-0.145550876856,0.110998995602,-0.044399160892,0.053219508380,0.222536087036,0.077659375966,-0.078130416572,0.132998168468,0.013167182915,0.008624117821,-0.320195198059,-0.057231891900,0.053896810859,0.121800705791,-0.013488537632
-0.091887786984,0.111264787614,0.139641061425,-0.053981881589,-0.168454721570,-0.017432805151,-0.062839470804,-0.052585393190,0.186373710632,-0.056325472891,-0.109117530286,0.073231257498,0.042976118624,0.230865001678,-0.373920768499,-0.120338708162,0.428482979536,-0.101071409881,-0.030155431479,0.023611258715,-0.021329479292,-0.037115477026,0.118554167449,0.570116519928,-0.165060833097,-0.125621959567,0.174651235342,-0.236991673708,-0.094517521560,0.021932812408,-0.043800786138,0.054027952254,0.064509488642,0.040329691023,0.178317829967,-0.186995446682,-0.122677996755,0.141793474555,-0.078575901687,0.230841979384,-0.024976681918,-0.463591843843,0.031172111630,-0.310340046883,0.079073682427,0.138638079166,-0.297631412745,-0.057202760130,0.307803630829,-0.043104782701,0.668769180775,0.291318058968,0.042746063322,-0.024335989729,0.060127284378,-0.104320131242,0.200971081853,-0.234314665198,-0.088978581131,-0.171076968312,0.061725817621,0.091984756291,-0.070560269058,0.049078080803,-0.284527778625,-0.057680949569,-0.231023550034,0.005174347665,0.265101224184,-0.040466468781,-0.105905592442,0.054130785167,0.043317172676,-0.106871366501,-0.013679681346,0.125505626202,-0.162826403975,-0.045791391283,-0.225307613611,0.210620224476,0.373612254858,0.142373636365,-0.137675955892,0.029143746942,0.165829628706,0.137017428875,0.022689841688,-0.107348576188,0.231323316693,0.133173495531,-0.051541760564,0.117400877178,0.166291102767,-0.163190200925,0.044182561338,0.333790898323,0.111866340041,0.015787798911,0.057473856956,-0.200242534280,0.044429451227,-0.341703206301,-0.089008040726,0.328585833311,0.252511888742,-0.028471896425,-0.165003433824,-0.083538398147,-0.019425025210,-0.184160307050,-0.023613557220,-0.113866321743,-0.002536399057,-0.257852524519,0.037171661854,-0.151275068521,-0.248732894659,-0.363875150681,-0.107518933713,-0.093549370766,0.054420866072,0.109062224627,-0.034197892994,-0.015269300900,-0.065413221717,-0.216344252229,0.386222839355,0.023346504197
0.352168798447,-0.179454639554,-0.073985330760,0.507298171520,0.247508779168,0.060381121933,-0.166382551193,0.007052829955,-0.454578876495,-0.235740825534,-0.045842323452,0.135668367147,0.207623273134,0.110035836697,-0.044119924307,0.579667270184,0.044917654246,0.108765996993,-0.356339454651,0.009519218467,0.117157742381,0.033048301935,-0.073087096214,-0.036909796298,-0.172707721591,0.004181922879,-0.233122497797,0.088479921222,0.367525637150,0.025388121605,-0.234832108021,-0.032327029854,-0.039360605180,-0.320299059153,0.040266644210,-0.063126750290,-0.063158452511,0.001662863069,-0.129497602582,0.106615081429,0.076037764549,0.003531242022,0.213340505958,-0.087044686079,0.023125180975,0.064637437463,0.127749145031,0.004855166655,0.127251043916,-0.295351326466,0.021171148866,0.013804626651,-0.005724069197,0.100507922471,0.178209349513,0.057990729809,0.107381150126,0.191860839725,0.203331425786,-0.158347561955,-0.153561487794,-0.072454445064,0.085431598127,0.249693959951,-0.196298539639,-0.055995907634,0.299441426992,0.058278977871,-0.116338506341,0.019223188981,-0.170315429568,0.187472134829,-0.148364335299,-0.181954890490,-0.052620597184,0.040098123252,-0.368622899055,-0.365273028612,0.122608192265,-0.379517972469,0.229915276170,0.175660133362,0.006191437598,0.344876348972,0.264346659184,-0.231923744082,0.151326313615,-0.320829182863,0.010658987798,-0.420481234789,-0.250617980957,0.035926751792,0.082511931658,-0.539707422256,-0.272737264633,0.253071725368,0.120365075767,-0.434213668108,-0.256464779377,0.025768095627,0.002483926713,0.101231098175,-0.244085326791,0.080322943628,0.047362465411,-0.016516486183,0.095307841897,0.195353865623,0.130766093731,0.025384560227,-0.160291150212,0.069227993488,0.245482176542,-0.266698926687,-0.113282956183,-0.017241720110,0.272001802921,0.327349811792,-0.099485814571,-0.153390556574,-0.015356392600,0.145136609674,-0.079223200679,-0.456025749445,0.018670270219,0.068375669420,-0.216042414308,-0.319169998169
-0.047913387418,0.058658268303,-0.005796349142,-0.294418781996,-0.230784714222,0.067699976265,-0.042405772954,0.190322920680,0.263698011637,-0.074893355370,-0.454087823629,0.015274747275,-0.014561928809,0.062857769430,0.016236115247,-0.038793697953,0.009000339545,-0.030887357891,-0.006712529808,0.057070881128,0.048978429288,0.232262521982,-0.395974993706,0.221545487642,-0.039524536580,-0.094897083938,-0.005346611142,-0.006186955143,-0.580320179462,0.057441681623,-0.009026897140,0.015996295959,0.018418584019,-0.183532670140,-0.331024557352,-0.016568090767,0.216543093324,-0.607454240322,-0.273619771004,-0.133443042636,-0.009139780886,-0.155220687389,-0.054711118340,0.163645058870,0.020119091496,-0.037894852459,0.027173534036,0.113812178373,-0.295537859201,-0.004481670447,0.047052815557,-0.044121257961,0.047207001597,0.028945740312,-0.188243672252,-0.153087943792,-0.149240612984,-0.159559324384,0.018921688199,-0.069503292441,0.034567456692,0.243018552661,-0.018379773945,0.037886437029,-0.151708230376,-0.037875916809,0.035169240087,0.089947000146,0.088880203664,0.058003112674,-0.032436143607,0.047519039363,-0.271122962236,0.136241167784,0.060794629157,-0.141937002540,-0.136207699776,-0.014824948274,0.073895119131,0.038958054036,0.044728539884,0.039178837091,0.001557082403,-0.103006839752,0.536190748215,-0.032610461116,-0.000035160414,0.216261222959,-0.030784925446,0.001405100338,0.119867742062,-0.013515848666,0.030830238014,-0.057823631912,0.326885342598,-0.837674796581,0.003577193012,0.146961584687,-0.019801016897,0.364752560854,-0.028000043705,0.079158313572,-0.019750179723,-0.469631165266,0.122469946742,0.232020169497,-0.193582370877,0.394619286060,-0.172774061561,-0.116712354124,0.040991809219,0.378033697605,-0.042579919100,-0.054172128439,0.022018656135,0.396303117275,-0.067250639200,-0.075450062752,0.065185844898,0.122506648302,-0.170492514968,0.014445400797,0.116169244051,-0.470132112503,0.479550987482,-0.112998969853,-0.153251409531,-0.134927704930
0.127699136734,-0.012039882131,0.251297056675,0.204451128840,0.163593173027,-0.104190081358,0.025707978755,-0.184669703245,-0.206709817052,0.261224776506,-0.122915759683,-0.803580880165,-0.222882047296,0.295762419701,0.179389938712,0.044741097838,0.247550904751,0.037347827107,-0.033861618489,0.592138409615,0.089804172516,-0.392443239689,-0.151991769671,-0.168707802892,-0.311551690102,-0.097693763673,0.045170862228,-0.321626305580,-0.762789309025,0.183047100902,-0.001932770712,0.034941352904,-0.031190931797,-0.369104802608,-0.232766762376,0.125293850899,0.045633040369,-0.177741542459,-0.077175110579,-0.019949736074,0.307761669159,-0.055013135076,0.200044587255,0.306875646114,0.282822161913,0.027431245893,-0.002775675617,-0.448937296867,-0.465546160936,-0.147033989429,-0.253898799419,-0.185336992145,0.055396556854,0.006111714989,0.091665707529,-0.373664468527,-0.014501960948,-0.136520281434,-0.056043624878,0.090376228094,-0.030364658684,0.090557053685,-0.039669156075,-0.065414495766,0.638478934765,-0.108646996319,-0.051392842084,-0.518269479275,-0.332942664623,0.043519519269,0.408789038658,-0.156090065837,-0.243158027530,0.356501996517,0.169937789440,0.356574982405,-0.175737202168,0.359538704157,0.682486951351,0.072166077793,-0.303081870079,0.399186193943,0.078402459621,0.197547703981,-0.298728436232,0.035289093852,0.057680979371,0.081075496972,0.201029300690,-0.014435493387,-0.194581404328,0.089580632746,-0.242071136832,-0.133226901293,-0.087831072509,-0.303959846497,0.223330825567,0.256766915321,0.356317043304,0.147719219327,-0.104988023639,-0.366924345493,0.251304298639,0.351105064154,-10.497295379639,-0.012797500007,-0.200296655297,-0.012434035540,-0.466891437769,-0.040912307799,0.927229344845,-0.195995569229,-0.039406750351,0.030705913901,-0.012102150358,0.108147449791,-0.141184940934,0.469295948744,0.126893043518,0.279558330774,0.009077472612,-0.030522435904,-0.205883696675,0.028596632183,-0.847844660282,0.311990082264,-0.499578714371,-0.363761901855
0.006195410155,0.015607038513,-0.236883684993,0.027625018731,-0.081604607403,0.016942795366,0.023646337911,-0.222675427794,-0.051862210035,-0.218203976750,0.143543645740,0.202009543777,0.012252093293,-0.004308845848,-0.099187120795,-0.114041671157,0.044707495719,-0.048796478659,0.013301621191,0.283884674311,0.099166840315,-0.184639394283,-0.059576656669,-0.330193907022,0.188458532095,0.150024399161,-0.016373699531,-0.056739080697,-0.187526911497,-0.023718578741,-0.242616981268,0.082969054580,0.002461248077,-0.018949778751,-0.075013346970,0.165885850787,-0.129888698459,-0.034103199840,-0.057346008718,0.360268831253,-0.182477265596,-0.054545532912,-0.513244092464,0.010684858076,-0.216466158628,0.080324172974,0.034831751138,0.119553998113,0.070931188762,-0.061888918281,0.097545877099,-0.075963892043,-0.024718098342,-0.136728212237,-0.098289690912,0.247729092836,0.084049932659,-0.009243383072,0.020935842767,0.275324404240,-0.066650703549,-0.113728463650,0.004257361405,0.058613274246,0.166907310486,-0.099498488009,0.101546868682,0.000909536786,-0.069377593696,-0.069569334388,0.029178682715,-0.016415867954,-0.412220776081,0.318022549152,-0.126353040338,0.113500311971,-0.190561965108,-0.183039262891,0.057017162442,0.123591445386,0.053634826094,0.276641458273,0.046340338886,0.019658781588,-0.427286416292,0.053036365658,0.012229368091,0.024441316724,-0.046130497009,-0.092461913824,0.041675403714,-0.203631833196,0.336634784937,0.131112113595,-0.072020590305,0.305430084467,-0.043937452137,-0.022367935628,0.039780709893,0.073837041855,-0.107665061951,-0.124914765358,0.234385803342,0.018501207232,-0.134284347296,-0.365470170975,-0.199949890375,0.136728793383,-0.499683499336,0.034120969474,0.090137772262,0.076505802572,0.125182300806,0.121260434389,-0.163776814938,0.017321607098,0.025416288525,0.335524290800,0.166217595339,0.082824483514,-0.050953619182,0.028155431151,-0.003815472824,-0.326286226511,0.184825256467,0.107946678996,-0.318045556545,0.074810042977
0.131199583411,-0.198503077030,0.266275525093,0.260054588318,0.001664318144,-0.101662896574,0.002044049557,0.596965670586,-0.115359865129,0.013406393118,-0.085377790034,0.059068556875,-0.043702900410,-0.034354858100,-0.145411610603,0.004058873281,-0.041319679469,-0.010539679788,0.123367108405,1.050683379173,-0.084982767701,0.035878080875,-0.015448828228,-0.230281114578,0.297155290842,-0.132646635175,0.031517717987,0.133083075285,-0.181750759482,0.039625987411,-0.000624837878,-0.044403545558,0.054474458098,0.247434705496,0.155359834433,0.224949941039,-0.027018461376,-0.209522753954,-0.105479672551,0.020789951086,-0.021544354036,0.199843883514,-0.053538650274,-0.035962589085,0.019850131124,-0.121258586645,0.085341230035,-0.020449591801,-0.094665177166,-0.059355031699,-0.352480918169,0.001743184635,0.002429606393,0.028885465115,-0.193079471588,-0.248407542706,-0.115318357944,-0.017264582217,-0.020563282073,0.078035235405,-0.035026893020,-0.057850722224,0.020019885153,-0.008076647297,0.045183047652,-0.036995809525,-0.135703638196,-0.013966793194,0.001300149830,-0.036268934608,-0.084963560104,-0.062809042633,0.061495944858,-0.097822330892,0.086238041520,-0.119516305625,0.037849664688,-0.707056283951,-0.132943227887,-0.053994674236,-0.110208116472,0.145459115505,0.077468715608,-0.161480635405,0.211530119181,-0.018650636077,-0.006318917964,0.102014243603,-0.343879818916,0.262779533863,0.087267242372,-0.088971450925,-0.044985286891,-0.030242109671,-0.163670808077,-0.063290752470,0.189567804337,-0.058645147830,0.155266091228,0.180898636580,-0.074272438884,0.073007099330,0.080933146179,0.371223360300,-0.418658375740,0.374560654163,0.122658222914,0.121982187033,-0.077639669180,-0.113112814724,0.111809760332,-0.310197055340,0.050917685032,-0.291540265083,-0.043287992477,0.063252717257,-0.162525489926,-0.138234049082,0.071071267128,0.088904589415,-0.060006406158,0.055317789316,0.035664625466,0.016231268644,0.054866954684,-0.229459017515,-0.068133719265,-0.169592827559
-0.037130933255,0.012755891308,0.062119472772,-0.308663576841,-0.217208147049,-0.259565532207,-0.047103293240,0.082831501961,-0.446486830711,0.119468256831,0.093076601624,0.405908405781,0.079505808651,-0.053620744497,0.079876847565,0.047729194164,0.117215156555,-0.015172915533,0.033976085484,-0.069106899202,0.007656322327,1.951446652412,0.076234646142,0.077811785042,0.116315692663,0.266452044249,-0.223294422030,0.004471441265,-0.023569967598,0.038173630834,0.514960467815,-0.294667899609,-0.006777973846,-0.363189786673,0.092570982873,0.000379038072,0.081498444080,0.235498279333,-0.030409257859,-0.341260373592,-0.169879466295,-0.071962550282,0.220720559359,-0.001489793649,0.036140117794,0.195583507419,0.003926405683,-0.161823675036,-0.025455890223,0.076434135437,0.851204335690,-0.167446792126,-0.222129121423,-0.038489475846,-0.332302719355,0.002287730575,-0.115029349923,0.001544339815,-0.006933074910,-0.023890959099,-0.041289906949,0.037742871791,-0.231821924448,-0.169990450144,0.316029220819,0.439861685038,0.165533691645,0.035891585052,0.032804157585,-0.338427454233,-0.017258269712,0.436766117811,0.311183929443,-0.262226343155,0.213814914227,-0.292199671268,0.055253881961,-0.014712269418,0.059630434960,-0.197619318962,-0.076121583581,-0.746478497982,-0.109855286777,-0.115600816905,-0.402729898691,0.054735209793,0.130952194333,0.027666714042,-0.106351681054,0.201754301786,-0.309983611107,-0.536754250526,0.005935078952,0.430735945702,0.014186927117,-0.072122544050,0.025092611089,-0.277841806412,-0.054108735174,-0.029622476548,-0.458657056093,-0.240027844906,0.076628372073,-0.152952998877,0.028550080955,0.193354845047,-0.039009325206,-0.242489039898,-0.125524654984,0.154894977808,-0.329329788685,-0.594586312771,-0.460057526827,0.129364788532,0.138732045889,-0.162063777447,-0.261351019144,0.296559423208,-3.084201574326,0.005185467191,0.107810005546,-0.238678932190,-0.154922217131,0.062841370702,0.222240626812,0.432892858982,-0.117127612233,-0.189294636250
-0.228783935308,0.224729463458,0.175655677915,-0.297559052706,-0.119655892253,-0.128192558885,0.080681644380,0.209804192185,-0.022515403107,0.157064229250,0.024619841948,0.041605461389,-0.114816293120,0.028493065387,0.233891323209,-0.142028719187,-0.539300143719,-0.160126686096,-0.176891952753,0.046963840723,-0.023669214919,0.612263858318,-0.004375506658,-0.038844693452,-0.134571686387,0.148354068398,0.173467442393,0.298323959112,0.020222660154,0.018654678017,0.133522167802,-0.408433407545,-0.133974641562,-0.328062325716,0.058864295483,-0.170481666923,-0.041124228388,-0.021546944976,0.035750735551,-0.114646412432,-0.012746883556,0.055909525603,-0.094916597009,0.079504787922,-0.278632968664,-0.049263283610,-0.025362664834,-0.171638607979,-0.070358544588,-0.084434755147,0.445616185665,-0.318594634533,-0.061875872314,-0.066613063216,-0.342600226402,0.182113274932,-0.120122797787,-0.071257859468,-0.028507696465,-0.005123939831,-0.171603381634,-0.203927546740,0.027737230062,-0.314063638449,-0.180405870080,0.143360733986,-0.024933697656,-0.190379887819,-0.198829665780,0.012286877260,0.015711154789,-0.067196451128,0.052917852998,-0.000043803077,0.492936968803,-0.070601023734,0.153021171689,0.068293474615,-0.204121455550,-0.316150993109,0.344245791435,0.393693208694,-0.147986590862,0.042929451913,0.201135173440,0.062256041914,0.038458038121,0.049075126648,0.172565519810,0.138325616717,-0.069086082280,0.618931829929,-0.090253107250,0.088411979377,0.145916104317,-0.162109002471,0.147799849510,0.254004269838,0.057877883315,-0.004129009787,-0.030642371625,0.021372446790,0.184172153473,0.244585797191,0.347330003977,0.033539868891,0.164729773998,-0.193748086691,0.241811826825,0.055494874716,0.099724248052,-0.128726035357,0.143942385912,0.014704449102,0.143166497350,0.048274699599,-0.047879472375,0.225709095597,0.076853767037,-0.124811552465,0.105309195817,-0.147099569440,-0.148771107197,0.075743466616,0.038107734174,-0.002055676887,0.018423134461,0.216595888138
