0.560675382614,-0.026568099856,-0.046043895185,0.156813457608,-0.365135818720,0.165753930807,0.079036742449,-0.394159078598,-0.191220596433,-0.193134680390,0.130710169673,-0.092518627644,-0.005811487325,-0.133550837636,-0.179115906358,0.362839460373,0.089071460068,-0.021986799315,-0.080236785114,0.021636566147,0.162672579288,-0.025550212711,0.350366383791,-0.172310635448,0.193792834878,0.039168443531,-0.806097209454,0.245962023735,0.090933710337,-0.061614848673,-0.199603661895,0.056711915880,0.161859810352,-0.086097106338,0.029235625640,0.123903729022,0.068729981780,0.139427304268,-0.368893623352,0.026841066778,0.490660816431,0.363318651915,0.467722833157,-0.013740727678,-0.118556953967,-0.028297796845,-0.266512304544,0.094823949039,0.035074163228,-0.149102419615,-0.109224803746,0.356044292450,0.452973514795,-0.034813594073,-0.067253313959,0.119621664286,-0.309004783630,-0.119959898293,-0.088728360832,0.254560559988,-0.259267508984,-0.140507698059,0.265814632177,-0.082944095135,-0.114464722574,-0.405150979757,-0.422167837620,0.205417901278,-0.174537569284,0.220928609371,0.109884701669,0.371788591146,0.067651197314,-0.070441730320,-0.300689756870,-0.184741526842,0.086105912924,0.196951344609,0.127624630928,-0.042325701565,-0.111979171634,0.283025860786,0.052867569029,-0.387228220701,-0.870789229870,0.002597759711,0.769408524036,-0.245438799262,-0.049392811954,-0.149547666311,0.374890953302,0.103399448097,-0.711571037769,0.180094137788,-0.165958657861,0.442907601595,0.224355146289,-0.237692594528,0.313330173492,0.150875344872,0.314591616392,0.448825120926,0.326798856258,-0.180762559175,0.096351251006,-0.127226948738,0.121484979987,0.131718888879,-0.023018464446,0.256900906563,0.195148557425,0.170617729425,0.088134713471,0.645281255245,0.074038110673,-0.131957247853,0.042541243136,-0.506469845772,0.650301396847,-0.088350154459,-0.100122325122,-0.075080782175,0.147807776928,-0.499716430902,-0.146605283022,0.166343986988,-0.237456709146,0.165623635054
0.001345260884,-0.223328948021,-0.846345722675,-0.291522979736,0.166202068329,0.395652234554,-0.265666723251,0.134136587381,-0.002136301016,-0.424334913492,0.185702443123,-0.519140601158,0.642033874989,-0.088922850788,-0.052214618772,-0.071394473314,0.042782507837,-0.730152606964,-0.103461399674,-0.127062544227,0.026474956423,0.590861916542,0.005053339526,0.559943497181,-0.185638219118,-0.032543804497,-0.193811491132,0.124603591859,0.472819507122,0.568643271923,0.255089789629,0.131452471018,-0.981317341328,0.341516673565,-0.229315787554,0.544746518135,-0.243815422058,0.154176935554,0.043605983257,-0.051998216659,-0.025491358712,0.019838374108,0.628521144390,0.023693101481,0.084209471941,-0.331098020077,-0.030965689570,0.322337746620,-0.133177697659,0.030359778553,-0.049242969602,-0.386009514332,0.044952690601,-0.144553646445,0.021391861141,-0.554767310619,0.319794952869,-0.511035561562,-0.038585372269,0.157592982054,-0.564122855663,0.121191531420,0.024756217375,-0.067138798535,0.308988213539,0.807651638985,0.055109001696,0.387147784233,0.248731970787,-0.147979721427,0.401229143143,0.100191190839,0.180853500962,-0.535329163074,-0.013607722707,-0.016239017248,0.170267716050,0.615386903286,0.517760753632,0.277399659157,-0.136428087950,-0.322182178497,-0.365826606750,-0.188383474946,0.031882200390,0.111393555999,0.447306871414,-0.167023882270,-0.485338538885,0.488248348236,0.032408114523,0.149631857872,-0.177739635110,-0.389053583145,-0.066445402801,-0.035058356822,-0.162142306566,0.153275161982,-0.126873493195,-0.061106804758,0.308960855007,-0.539756000042,0.073601216078,-0.253603100777,-0.051841128618,0.144956335425,-0.021968601272,0.166164562106,0.534261763096,-0.075866259634,0.375612705946,0.045967329293,-0.051008440554,0.080689020455,-0.425399512053,-0.453100860119,-0.114618681371,-0.101217813790,-0.779380083084,-0.371960848570,-0.146003842354,-0.111821047962,0.023784648627,0.368688702583,-0.163063392043,-0.646680653095,-0.014948059805,0.364823073149
-0.160656690598,0.072726882994,-0.080834306777,-0.240443766117,0.351111501455,1.267105102539,0.000977842486,0.108304239810,-0.034554306418,-0.324265122414,0.119481749833,-0.613424897194,-0.722619295120,0.004642136395,0.108892828226,-0.092636957765,-0.316424578428,0.314017087221,-0.077521085739,-0.009567970410,0.069196507335,-0.060632921755,0.009360666387,-0.022844130173,0.002437405987,0.215155974030,-0.013223875314,-0.028448769823,0.032521240413,-0.071158997715,-0.061041153967,-0.093124195933,-0.127524480224,0.120731078088,-0.165834546089,-0.177353903651,-0.289321392775,-0.063828743994,-0.119089365005,-0.189813986421,-0.174854755402,-0.023474924266,-0.379838883877,-0.015013711527,0.081269107759,0.551868975163,0.084111176431,-0.341368883848,0.144682720304,-0.014725874178,-1.094142675400,0.864171624184,0.334584802389,0.028477923945,0.275478363037,-0.025106275454,-0.019780321047,-0.135673493147,0.032466504723,-0.000494284846,-0.103232197464,0.024380512536,0.081185482442,0.012008687481,0.166464611888,-0.294308751822,-0.029328245670,-0.441850930452,0.223555728793,-0.690136671066,-0.380993276834,0.005495926365,0.034934721887,-0.197415754199,-0.150734499097,0.330673128366,0.157961592078,0.415490239859,-0.118372000754,0.167714893818,-0.174775734544,-0.084118872881,0.140144243836,0.103784725070,0.101468406618,-0.259933650494,-0.513252556324,0.055093090981,-0.148000806570,-0.081323198974,-0.012410499156,-0.052844863385,-0.142748311162,-0.038563165814,0.054444655776,0.330225527287,-0.070004187524,-0.408125877380,-0.016778636724,0.011730090715,-0.084766142070,0.063130378723,1.017859578133,0.031549409032,0.243153259158,-0.119429826736,0.029094805941,0.048779845238,0.150786101818,-0.618610024452,-0.009408665821,0.190481737256,0.028020150959,0.154347747564,-0.133445054293,-0.084039248526,0.034032538533,-0.042874384671,-0.576456427574,0.352839082479,0.125873818994,0.002162056277,0.008510678075,-0.138716816902,-0.117842517793,-0.068826638162,-0.255253493786,0.101140923798
0.106745675206,-0.148132935166,-0.099224112928,-0.357106029987,0.176122546196,0.323508113623,0.631043553352,-0.083410985768,0.078545443714,-0.699808955193,-0.066328555346,-0.478960692883,0.743106067181,-0.327434152365,-0.105590283871,0.147514954209,0.471402317286,-0.005303300917,0.075792118907,-0.135813623667,-0.202309980989,-0.084608383477,0.218245059252,0.322458505630,0.288753151894,-0.172152847052,0.182996198535,0.384364098310,0.270174741745,0.003189489711,-0.154122173786,-0.015852428973,-0.405913591385,0.295554161072,-0.298270285130,-0.140387430787,-0.156854286790,0.211824253201,0.183365762234,0.146993458271,-0.206396386027,0.102189801633,-0.388025492430,0.098811276257,0.078818760812,0.122103117406,0.204407349229,0.642804384232,-0.039098206908,-0.060033027083,-0.325032472610,-0.381293118000,0.641543149948,-0.153407484293,-0.086401872337,0.213481292129,0.469336360693,0.019720120355,0.512078583241,-0.552492439747,-0.310684233904,0.134666100144,0.137584999204,-0.527514517307,0.217701971531,0.018254322931,-0.006569295656,0.057878069580,-0.199918940663,-0.021957451478,0.633242785931,0.169202581048,-0.234508037567,0.071878820658,0.567851781845,0.229050636292,0.171928629279,0.068833686411,0.316873222589,0.412465125322,0.902055740356,-0.404998749495,0.140121236444,0.482551634312,-0.106342263520,-0.126342758536,0.007200055756,0.055806163698,-0.085041537881,-0.023279920220,0.068612486124,0.280574738979,-0.103406906128,0.356785029173,-0.068034179509,-0.197275072336,-0.158613950014,-0.307586878538,0.156500995159,0.109276339412,-0.060563910753,-0.392657220364,0.854670524597,0.240443885326,-0.242005109787,0.507160007954,-0.267601907253,-0.297196924686,-0.434461474419,-0.581801652908,-0.346591502428,0.453203141689,-0.068127974868,0.135519534349,-0.715497195721,-0.095374874771,-0.057023465633,0.501363098621,-0.644944131374,-0.217529520392,0.042611207813,0.276849359274,-0.188705325127,-0.029606379569,-0.580738246441,0.136980906129,-0.764190852642,-0.447338581085
0.779554545879,0.465177029371,0.424840688705,0.279819816351,0.165549561381,0.901146590710,-0.008478072472,-0.263707667589,-0.006441459991,-0.014653065242,0.022834733129,0.591194510460,0.060110025108,0.091627351940,0.588257372379,-0.010397274047,-0.238028123975,-0.230874344707,-0.031338375062,-0.097989186645,0.374723255634,-0.388509720564,-0.052235323936,-0.286893367767,-0.364465087652,0.072527058423,-0.021975215524,0.166534751654,-0.016459597275,0.078625112772,0.151526421309,-0.065646685660,2.403234958649,-0.065884165466,-0.036246649921,-0.236046046019,0.029828695580,0.179075792432,-0.046597741544,0.191885665059,-0.028577052057,-0.005145055242,-0.123705618083,0.329456925392,0.043705441058,-0.075820483267,-0.005889159162,-0.426932573318,0.147876545787,-0.146674171090,0.181653603911,0.287370324135,-0.171306774020,-0.018156722188,-0.179096162319,-0.145316392183,0.427442193031,0.143411099911,-0.519926130772,0.063887842000,0.140165701509,0.011589064263,-0.102767907083,0.055842641741,0.031803496182,-0.007970289327,-0.137521073222,-0.034360911697,0.144873261452,-0.308357000351,0.156118437648,0.236188083887,-0.245983421803,0.011080327444,-0.235297679901,-0.086217634380,0.278389930725,-0.000426230603,0.169386029243,-0.170498237014,-0.246270745993,0.008932677098,0.444443702698,-0.176410257816,0.019497739151,-0.485983848572,1.039595365524,0.069816023111,-0.313620954752,-0.298468142748,0.182520776987,0.043572675437,0.143469274044,-0.337218284607,-0.097724378109,-0.044769436121,0.082454241812,0.078979112208,0.190639764071,0.070859901607,0.440607458353,0.027486676350,0.044571846724,0.217369362712,0.157944917679,-0.068067058921,0.046181693673,-0.073899105191,-0.195482835174,-0.115278206766,0.039235394448,-0.139043897390,-0.510767936707,0.009524356574,-0.114098131657,0.294143944979,-0.066925115883,0.079459734261,0.220905691385,-0.212849810719,0.177272260189,0.042696885765,0.263530999422,-0.148148640990,0.369332075119,0.008083078079,-0.265985816717,-0.031884372234
-0.216980576515,0.069116055965,-0.153370633721,-0.057238455862,-0.102664515376,0.101986788213,0.028395866975,0.105417191982,0.393440485001,0.486041903496,0.135872021317,-0.035849709064,0.061578195542,-0.380148470402,0.124117575586,-0.142745450139,0.021686043590,0.560745835304,-0.169360414147,0.090431325138,0.233392357826,0.079005874693,0.056006841362,-0.518610298634,0.131261840463,-0.295900464058,0.160744041204,0.063389748335,-0.031611990184,-0.209118887782,-0.146121874452,0.031363226473,-0.002122548874,-0.098991431296,0.059495981783,0.108738861978,-0.768709778786,-0.592167675495,-0.186500757933,-0.093220859766,0.611400067806,-0.491639643908,0.585253238678,-0.032684780657,-0.034693889320,-0.153584808111,-0.076972447336,0.258125990629,0.107751011848,-0.006772597786,0.077770635486,0.158419772983,0.288112133741,0.156625404954,-0.168055117130,0.086438804865,-0.237466514111,0.455882668495,-0.104679204524,0.045097023249,0.290129035711,-0.065279506147,-0.038696099073,-0.224224761128,-0.379048109055,-0.015932342038,-0.026417734101,-0.089546933770,-0.025133028626,-0.132240697742,-0.187845602632,-0.550584137440,0.508630692959,0.188001513481,-0.033703841269,-0.078790210187,0.538046717644,-0.046735517681,-0.807362079620,0.067812681198,0.294914215803,-0.059015598148,0.134853422642,0.383146852255,-0.086493082345,0.101584143937,-0.091560244560,0.427782773972,-0.208240315318,0.320657283068,-0.138602092862,0.184986576438,0.195808261633,0.024760108441,0.182130873203,0.461780995131,-0.145844161510,-0.495518893003,0.047101803124,-0.103227123618,0.006816697773,0.005620553158,0.195714563131,0.195483416319,-0.043156303465,-0.084388479590,-0.099030859768,0.035359043628,-0.523385465145,0.245798602700,0.082578346133,0.362916469574,0.304666072130,-0.381042122841,-0.123127669096,-0.168968319893,0.279680222273,-0.026909204200,0.063761986792,0.029998155311,-0.111950397491,-0.074123643339,0.059875562787,-0.173871845007,0.271793454885,-0.098078176379,0.147797599435,-0.004419204313
-0.003013219219,0.192305251956,0.009660568088,0.269877612591,-0.116224013269,-0.132909715176,0.001769293216,-0.192189782858,-0.031135246158,0.189882233739,-0.096513047814,-0.242126896977,-0.520820677280,0.031506150961,-0.686064004898,0.042493004352,-0.462888270617,-0.154370948672,0.105599470437,0.067086763680,0.010654684156,0.074332371354,-0.266442567110,-0.165184229612,-0.026344882324,-0.131765395403,-0.010207163170,-0.555718302727,0.112199723721,-0.009741707705,0.030829560012,0.132130637765,0.514525771141,-0.491244554520,0.107618108392,0.368084758520,-0.096728898585,-0.030133500695,0.473279625177,-0.141043633223,0.290880858898,0.089079402387,0.396251499653,0.199794098735,-0.021832432598,-0.838003575802,-0.274397730827,0.373009562492,0.067211627960,-0.050252743065,0.021048296243,0.261546224356,-0.038899771869,0.068275131285,0.009479892440,-0.459678322077,-0.106918990612,0.032923821360,-0.357355803251,0.038042169064,0.184996813536,0.021566765383,-0.031353771687,-0.002435386414,0.029307384044,0.379817694426,0.023464722559,-0.210606008768,0.118033692241,-0.153116926551,-0.214996680617,-0.056165955961,0.448488265276,-0.492101371288,-0.279877781868,-0.077790513635,-0.174369901419,0.340884029865,0.160141512752,-0.083248697221,-0.461929678917,0.253433078527,-0.415283381939,0.052210669965,0.062488365918,0.198296412826,0.828070521355,-0.021981036291,-0.001687644748,0.235182449222,0.182883128524,-0.054478827864,0.363795280457,0.496166110039,-0.009020102210,-0.318820089102,0.044978622347,0.297048181295,0.062514588237,-0.025062318891,-0.023976946250,0.356226295233,0.587983548641,-0.344670087099,-0.801330804825,0.541633307934,-0.144687891006,-0.083643227816,0.315600007772,-0.255986928940,0.107094824314,0.113580219448,0.252177149057,-0.176836445928,0.234526768327,-0.229338601232,0.005595143419,-0.042872916907,0.221849203110,0.012963536195,-0.115666255355,-0.422506421804,0.046921871603,-0.106021657586,-0.079464808106,-0.056084182113,0.472738474607,0.195616558194
-0.124678097665,-0.220079839230,0.048958994448,-0.310291945934,-0.450062841177,0.054211467505,0.027287375182,0.117629587650,-0.022731740028,-0.628521621227,0.023138398305,-0.005133654457,-0.073774233460,-0.093751199543,0.006939172279,-0.211831092834,0.045572847128,0.210722863674,-0.001799781458,0.005164120346,-0.265195012093,-0.000905164343,0.077898360789,-0.006546102930,-0.017378283665,-0.243063896894,0.023610446602,0.020587913692,-0.028185317293,0.038533031940,-0.199656188488,0.074034795165,-0.256662756205,0.170818060637,-0.390376299620,-0.015719706193,-0.235818237066,-0.023738060147,0.183675870299,-0.048912927508,1.441817283630,-0.459578245878,-0.021009307355,-0.131663098931,-1.036801218987,-0.035570755601,-0.391643762589,0.051224675030,0.412773340940,0.023780949414,-0.004538137931,-0.102965421975,0.322263777256,0.006376166828,0.156911328435,0.012554415502,-0.057218708098,-0.015342365950,0.402009546757,0.031993288547,-0.287868976593,-0.038475085050,0.169912919402,0.014778718352,0.334320545197,0.116676911712,0.010866244324,0.030308188871,0.119582988322,0.013432166539,-0.160857781768,-0.068161837757,0.196642816067,0.025701230392,-0.086962997913,-0.188374325633,-0.293952047825,-0.047796271741,-0.055601157248,0.573496878147,0.063162632287,-0.005637160968,-0.169584348798,0.058269627392,0.000278302934,-0.298694759607,-0.023971319199,0.033323284239,0.032879453152,-0.003962990362,0.058417115360,-0.002326688962,-0.083755135536,-0.402429968119,-0.013994742185,-0.554439663887,-0.009547785856,0.144268319011,0.040488131344,-0.008847340010,0.021970434114,-0.344679355621,0.344898521900,-0.451242655516,-0.258822649717,-0.127029225230,-0.045299395919,0.000589752453,-0.080990701914,-0.117234595120,-0.057286459953,-0.144529908895,-0.062872961164,-0.051964707673,0.448182851076,-0.104806005955,0.077794045210,-0.179660826921,-0.237851604819,-0.194794848561,0.037560753524,0.086831249297,-0.011767424643,0.124198339880,0.035861205310,0.142687097192,0.114745736122,-0.111173965037
-0.185184732080,-0.605890214443,-0.183855846524,-0.141553446651,-0.022233134136,0.399536281824,0.007701555267,0.054459452629,-0.059879094362,0.165023311973,0.185700923204,-0.501542150974,0.634134113789,0.128008306026,-0.017675518990,0.131072387099,-0.841761350632,0.053602132946,0.012933924794,0.021848991513,0.307761847973,0.012400115840,-0.051559340209,0.011583762243,0.101923212409,0.238956004381,-0.036991529167,-0.508890450001,-0.066301092505,0.038332343102,-0.113976381719,-0.052705001086,-0.290058434010,-0.572407484055,-0.001906819292,0.035123139620,-0.303685843945,0.031971152872,0.114460811019,-0.405669391155,-0.091296739876,-0.306241810322,-0.158578604460,-0.057478882372,-0.058293759823,0.281643509865,0.201062709093,0.228983774781,0.286194503307,0.095316946507,0.037602245808,-0.663369953632,0.071617700160,-0.005949307233,0.112713992596,0.061351280659,-0.119538486004,0.065879762173,-0.002931009978,0.120380572975,-0.060731031001,0.096177883446,-0.055309221148,0.058971140534,0.287735223770,0.009291068651,-0.051031138748,0.935903787613,-0.051292344928,-0.435154765844,-0.309723556042,-0.081302426755,0.072296977043,-0.119275458157,-0.355103820562,0.255921065807,-0.373921096325,-0.237947627902,-0.484021782875,0.130447641015,-0.051742989570,-0.092582061887,-0.250353068113,-0.119637221098,-0.179974019527,-0.298017412424,-0.174727842212,0.060246862471,0.161082804203,0.054377894849,-0.051806129515,-0.176802963018,0.111676327884,0.562219023705,0.099069803953,-0.343363016844,-0.308953940868,-0.285726547241,-0.427316963673,-0.041716709733,-0.068340919912,0.383627742529,-1.435148835182,0.196803092957,-0.105450145900,0.023862298578,-0.094527170062,-0.013621887192,0.304585516453,0.555299222469,0.040615972131,0.401149630547,-0.056174248457,-0.064134202898,0.225312799215,-0.199613645673,0.030639948323,-0.075238019228,-0.344023436308,0.077869452536,-0.080024361610,-0.383569806814,-0.183862149715,-0.026334075257,0.256707191467,0.165708482265,1.585290193558,1.234868526459
0.069023191929,-0.142803013325,0.145638376474,-0.009515340440,0.382376700640,-0.400914490223,-0.014614117332,-0.028471445665,0.002149045933,-0.069025360048,-0.200727358460,-0.205882310867,-2.513899803162,0.099976435304,0.221155434847,0.085618428886,0.058667145669,0.579433739185,0.012379222549,-0.021913625300,0.178777724504,0.009938630275,-0.020245624706,-0.041294217110,0.020615970716,0.146733000875,0.008886873722,-0.668069243431,-0.070164293051,0.025935674086,-0.004436103161,-0.076925165951,-0.030159112066,-0.089355632663,-0.043304599822,-0.055751856416,-0.081980533898,0.031584125012,-0.176970094442,-0.559583306313,0.012823457830,0.081398732960,-0.408945590258,-0.032847050577,0.023443572223,0.597018659115,0.040168721229,-0.221606820822,0.032833732665,-0.051081918180,-0.905201375484,1.003888130188,-0.003222132334,0.133013844490,0.085762292147,0.126610741019,-0.443003058434,0.192847535014,-0.075043916702,-0.091989725828,0.271807044744,-0.364449858665,-0.252713680267,0.000980550190,-0.086711801589,-0.137552127242,-0.142421588302,0.297896325588,0.055203516036,-0.352423101664,-0.417307466269,-0.038163717836,0.037681050599,0.000961084967,-0.417244613171,0.282129049301,0.258423566818,-0.346017241478,-0.279537618160,-0.360504537821,-0.271386265755,-0.083071880043,0.477955877781,-0.115659907460,-0.035523563623,-0.386595517397,-0.367693603039,0.066436164081,-0.233457192779,0.093252107501,0.133651077747,-0.126037433743,0.018483914435,-0.116885364056,0.008962264284,0.109431721270,-0.016350813210,-0.176694467664,-0.645661532879,0.042722277343,-0.114528104663,0.376398116350,-0.566020429134,0.441897332668,0.346577405930,0.193826943636,-0.103056192398,-0.007194266189,0.016182191670,-0.196050599217,0.034694418311,0.182680219412,-0.121136449277,0.059337235987,0.040417306125,0.405072182417,0.059682615101,0.014313564636,-0.292863100767,0.251266926527,-0.161049604416,0.133817344904,-0.082957863808,-0.148277446628,-0.190010547638,0.190317526460,-0.153175726533,-0.048246845603
0.122539810836,0.100637614727,0.287750661373,0.020522253588,0.053046938032,0.142198666930,-0.000980507233,0.053187705576,0.217164039612,0.312880247831,-0.074165388942,-0.146788567305,-0.101217977703,0.008710960858,-0.143312722445,-0.142082452774,0.168543800712,0.517461776733,-0.090842194855,-0.123892165720,0.078127592802,0.164209440351,1.030793428421,0.110180638731,0.027110258117,0.162022098899,0.044221218675,-0.164585858583,-0.100780814886,-0.055032189935,-0.215935111046,-0.020380329341,0.498103111982,-0.074672289193,0.110171921551,-0.099351868033,0.102929018438,-0.214720085263,0.287721961737,0.069094270468,0.012210778892,-0.147549256682,-0.283811181784,0.173291921616,-0.000339259219,-0.051810480654,0.106483750045,0.008801059797,-0.117219328880,0.132497295737,-0.174050182104,0.178230881691,-0.194537818432,0.021073956043,-0.142569348216,0.073702491820,0.082751050591,-0.198875948787,0.090587273240,0.294660359621,-0.160281762481,-0.090760998428,-0.065791703761,-0.167598947883,-0.045727517456,-0.223467305303,-0.238287672400,-0.136373192072,-0.023967886344,0.025824088603,0.094183623791,-0.011917691678,0.119127526879,0.094716072083,0.152386367321,0.166039258242,0.247017890215,0.078958600760,0.003863662248,-0.122125789523,-0.094360627234,-0.040689129382,0.046998780221,-0.212455749512,0.111743673682,0.048731375486,-0.214264407754,0.032034136355,0.342348664999,0.107570707798,-0.251844197512,0.038939297199,0.314286559820,0.065290600061,0.097795002162,0.161830589175,0.171867236495,0.169295012951,-0.142744615674,-0.020199455321,-0.235699683428,0.130638748407,-0.225584894419,-0.229397967458,-0.138549804688,-0.010439482518,-0.056239623576,-0.085386544466,0.623638868332,0.119730517268,0.221796542406,-0.020722340792,0.096652120352,-0.595619320869,0.111568003893,0.169017985463,-0.015004518442,0.313486933708,0.145512029529,0.000757957227,0.089312925935,-0.136022642255,0.071190282702,0.182657793164,0.001669596881,0.076597392559,-0.107536546886,-0.039103031158
0.271782189608,-0.258528232574,0.081526681781,0.246556013823,0.004424921703,-0.077633455396,0.019914412871,-0.355585843325,-0.029835110530,0.042742665857,0.041943605989,0.336559146643,-0.031744282693,-0.021375782788,0.345115035772,-0.033822644502,0.329140692949,0.122375510633,-0.035612173378,0.085182636976,-0.595579147339,0.643362820148,-0.173784330487,0.123378664255,-0.310219377279,-0.292461663485,0.086770713329,-0.113659858704,0.544519126415,-0.012115933932,-0.463499307632,-0.150455489755,1.758414387703,0.022038312629,-0.021373610944,-0.030791301280,-0.017875025049,-0.022209413350,-0.024477951229,0.197711214423,0.166197627783,0.256777346134,-0.350964337587,0.027773030102,-0.000290433323,0.001228882582,0.436829537153,0.025105457753,0.238987267017,0.013499381952,-0.145256936550,0.116254419088,0.081303514540,-0.104203797877,-0.381089985371,0.020558709279,0.139027461410,0.152124494314,-0.910485923290,-0.117438010871,0.279449105263,-0.031631551683,0.012998436578,0.073402769864,-0.270538508892,-0.646206736565,0.008001537994,-0.216245219111,0.274311095476,-0.084547244012,0.266574800014,0.034909948707,0.424464136362,0.088104754686,-0.111768789589,0.020625643432,-0.129231661558,-0.081466309726,0.076152518392,-0.147162973881,-0.355589240789,-0.068950675428,0.017516249791,-0.109489552677,0.132030472159,-0.037739455700,-0.010035308078,-0.001990588615,0.220074966550,-0.051743198186,-0.067804656923,0.059074807912,0.203966587782,0.067916117609,0.028424605727,0.054802332073,0.184438288212,-0.181425601244,-0.040532141924,-0.013213286176,0.284148395061,0.359684109688,0.166299998760,0.025619970635,0.311970114708,0.148871034384,-0.028398711234,-0.314193934202,0.157478258014,0.011940027587,0.154553189874,-0.364005595446,0.194954410195,-0.114558205009,0.082275040448,0.380496740341,-0.024438140914,-0.288729488850,0.177253052592,0.349536895752,-0.072837635875,-0.036595422775,-0.085251443088,0.998086154461,0.032357260585,-0.245477795601,-0.041321303695,-0.130864128470
-0.182696804404,0.132847487926,-0.094277359545,-0.013565533794,0.168717890978,-0.085591025651,-0.041918329895,0.511732816696,0.002702374710,0.487587898970,-0.000401874393,-0.094441480935,0.018682984635,0.370920777321,-0.069657020271,0.582444906235,0.052525073290,0.003888902487,0.002822438721,0.081460729241,0.384249120951,0.253651440144,0.270394772291,-0.991405069828,-0.284172415733,0.015047879890,-0.081224389374,0.049611948431,0.060196544975,0.048382904381,-0.042488396168,-0.246265143156,-0.428162485361,0.469164848328,0.027760446072,0.078048661351,0.102944873273,-0.174224004149,0.391788601875,-0.278547167778,0.721881031990,0.159675493836,-0.021978080273,0.132687181234,0.137592509389,0.138267949224,-0.490200161934,-0.229856789112,-0.106455214322,0.009101575240,-0.228664591908,0.205469399691,-0.326810687780,0.065778933465,0.026368090883,-0.108886875212,0.027244076133,0.139704391360,-0.055151093751,-0.100690290332,-0.147617086768,0.105397753417,0.156487911940,0.044387076050,0.753403306007,-0.250975757837,-0.101956054568,0.045399747789,-0.262825310230,-0.181281372905,0.068561434746,0.027375113219,-0.016081716865,0.103219129145,-0.140221357346,-0.018321463838,-0.532053530216,-0.121418192983,-0.283176541328,-0.477337300777,0.033478915691,0.161804482341,0.543355584145,0.690115749836,0.161970496178,-0.018147910014,-0.082945808768,-0.036645889282,-0.132151812315,-0.034496821463,-0.092367962003,-0.181612595916,-0.368156194687,-0.668533802032,0.018080085516,0.137272626162,-0.008576257154,0.482617944479,0.004471209832,-0.011192826554,0.019908647984,0.915630996227,0.053311925381,-0.125627562404,-0.015437734313,0.051663473248,0.292342722416,0.019241742790,-0.386942863464,0.249846518040,-0.111865140498,-0.015915749595,0.592827856541,-0.215707361698,0.062013369054,0.113133653998,-0.033769860864,-0.333098739386,0.199933424592,-0.070138327777,-0.023865705356,-0.355408310890,0.045058373362,-0.578480958939,0.168231338263,-0.305528849363,0.033944766968,0.045127831399
0.141603603959,-0.117035232484,-0.192020639777,0.100275136530,-0.084002636373,-0.018299799412,-0.025434581563,0.065519079566,1.733531355858,0.371066927910,-0.032212030143,0.036279253662,-0.078456513584,-0.140695571899,0.044617466629,0.021140186116,0.037865784019,0.110086113214,-0.047967176884,-0.047203123569,0.006878350861,-0.041565831751,-0.448727279902,0.183757856488,-0.034651968628,0.043951947242,-0.036759823561,-0.122186437249,-0.032312497497,0.008643163368,0.047786518931,-0.062747500837,0.105894908309,0.172512903810,0.021187147126,-0.052692931145,-0.075517877936,-0.214618965983,0.032599199563,0.074001997709,-0.044676117599,0.054772138596,0.020954811946,-0.056117381901,0.079799398780,0.062571078539,-0.059094771743,0.060093928128,-0.031341426075,-0.182757273316,0.066170059144,-0.001535902498,-0.191345363855,-0.030341114849,-0.019618494436,0.025581520051,-0.015745170414,-0.087482102215,0.005110958591,0.052798576653,-0.061301331967,-0.004059747327,-0.015530031174,0.027987323701,-0.373871266842,0.115270271897,0.108452744782,0.035809345543,-0.103598207235,0.003347763326,0.254232376814,-0.097047902644,0.097776196897,0.013161934912,0.055293142796,-0.016930965707,-0.156969904900,-0.141527444124,-0.009588696994,0.325839459896,0.016536176205,0.051108181477,-0.012589586899,0.165792092681,0.064866207540,-0.023070862517,0.045018382370,-0.387796849012,-0.264684766531,0.000307359558,-0.081689916551,0.179110601544,-0.027013773099,-0.253992795944,-0.014926839620,-0.117461249232,0.064207643270,0.163583189249,-0.015250833705,4.807145595551,0.026001447812,-0.168399468064,-0.097064234316,-0.102675653994,-0.003771579592,0.091662101448,0.014037004672,-0.048114653677,0.035973627120,-0.065970085561,0.162268042564,-0.275796383619,-0.081153571606,0.025722434744,0.144132405519,-0.107630096376,-0.163056284189,0.035083569586,0.134353786707,-0.112903483212,-0.098984763026,-0.231326118112,0.020983194932,0.068086117506,0.007379915100,0.083618260920,-0.123155437410,0.017200833187
0.050637215376,0.510377824306,-0.257973492146,0.103391543031,-0.045512970537,0.053052619100,-0.034717962146,-0.155684605241,-0.089740298688,-0.199562847614,0.178283095360,0.111103400588,-0.126993834972,-0.094851635396,0.192058756948,-0.665829896927,-0.244448438287,-0.140451431274,0.025285806507,-0.037997361273,-0.033900439739,0.221894517541,-0.086525350809,-0.315133929253,-0.178629800677,0.014138529077,-0.128811538219,-0.012379368767,-0.131465390325,0.141443014145,0.417195469141,-0.079036757350,-0.904739379883,0.233291611075,-0.397480249405,-0.017738208175,0.167013987899,-0.083156570792,-0.041014742106,0.390961766243,0.033375643194,0.146629944444,0.247764259577,-0.298640340567,-0.211100682616,-0.076951950788,-0.186209186912,-0.195044144988,-0.156552284956,0.170320361853,-0.029466992244,-0.002734120935,0.280960679054,-0.151570722461,-0.139659777284,0.036134261638,0.512869179249,-0.260737419128,-0.031174061820,-0.126431539655,0.278558760881,0.200936600566,-0.220218271017,-0.473804235458,-0.058238532394,-0.370981037617,0.248034849763,-0.205100446939,0.262970536947,0.338535308838,0.107716917992,-0.050676643848,-0.318298637867,0.057290986180,0.084765590727,0.177083626390,0.258249700069,-0.595570921898,-0.177244603634,0.175164192915,-0.017923161387,0.007164105307,-0.693107247353,-0.179685130715,-0.364106357098,0.017900729552,0.059844046831,-0.174307227135,0.521052896976,0.435847014189,0.053208500147,-0.044085625559,-0.189382821321,0.341256529093,-0.019155710936,-0.255905032158,-0.022772962227,-0.214021146297,0.277054280043,-0.097099453211,-0.135537847877,0.398420691490,-0.463911980391,0.189106240869,0.122833535075,-0.012741179205,-0.120315589011,0.061385985464,0.536404073238,-0.113186039031,-0.054604679346,-0.150727391243,1.406562685966,-0.438846260309,-0.075478874147,0.434256613255,-0.063482046127,0.549115180969,-0.337837874889,-0.064352296293,0.445639759302,-0.277137458324,0.132736042142,-0.611860275269,0.236453115940,0.054264564067,-0.378870099783,-0.104196734726
0.370677947998,-0.098567523062,-0.021856758744,0.193778529763,-0.330476105213,0.235711246729,0.415801048279,-0.018339743838,0.122146263719,0.105531044304,-0.004796329420,0.254031956196,0.226759403944,-0.173385128379,-0.075679168105,-0.044170785695,0.302238881588,0.217696294188,0.125444725156,-0.523853957653,0.213436827064,0.138658285141,-0.371324807405,0.030866311863,-0.009218333289,-0.335175096989,-0.448671638966,-0.082927636802,-0.322755813599,0.609282910824,-0.186111211777,-0.268156439066,0.204169124365,-0.144066795707,0.203046098351,-0.101061277092,0.099320895970,0.298971325159,0.344042181969,-0.092094615102,-0.137180313468,-0.191990181804,0.072012521327,-0.003684111638,0.014252089895,-0.015211384743,0.121047228575,0.020300017670,0.008629761636,0.162300080061,0.207695007324,0.030174270272,1.191242814064,-0.180778071284,-0.196429356933,-0.044492322952,0.245325580239,-0.017032515258,0.204124018550,0.458144277334,0.226850837469,0.039465229958,-0.114855267107,0.123783513904,0.227450147271,0.679501473904,0.234786719084,-0.015884663910,-0.164170816541,0.106113307178,-0.184483006597,0.127825438976,0.076832734048,0.084451794624,0.158511802554,-0.061225924641,0.258041530848,0.044438257813,0.453541487455,0.311222523451,-0.144595429301,-0.232192501426,0.001331016072,0.038466490805,0.274348914623,0.076122492552,0.310731559992,-0.000595666352,0.250303626060,-0.127178043127,-0.042133383453,0.187182903290,0.813698947430,-0.323476403952,0.073948249221,-0.101988047361,-0.233980149031,0.544234812260,0.018986880779,0.058299046010,-0.286579281092,-0.105796888471,-0.435457229614,-0.210777848959,0.007407758851,-0.008769877255,-0.154524818063,0.098239555955,-0.294054448605,0.010673130862,0.448297590017,-0.206717044115,-0.236595168710,-0.008773174137,-0.040128771216,-0.022609533742,-0.178436517715,-0.101840615273,0.424710690975,0.320729196072,0.059175286442,-0.226908788085,-0.417511135340,0.077263683081,-0.144032180309,-0.152136489749,0.158046886325,-0.154443949461
0.072193503380,0.117769353092,0.496297329664,-0.619662702084,0.026063434780,-0.377429336309,-0.294834882021,0.353105872869,0.018377715722,-0.042497698218,-0.331351697445,-0.477775633335,-1.044197678566,-0.104536823928,-0.236167997122,0.089213207364,0.613554835320,-0.099683567882,0.097721159458,-0.005496571306,-0.598061442375,0.154120147228,-0.449312239885,-0.053757257760,0.263794183731,-0.331391692162,-0.229526489973,-0.060821074992,0.019821688533,0.303917109966,-0.305352121592,-0.412401288748,-0.328894436359,0.017668595538,-0.264263361692,0.057412009686,0.434650927782,0.025090182200,0.738276898861,-0.532677292824,-0.080360151827,-0.107510484755,0.162504851818,-0.082987368107,-0.077210314572,-0.151254400611,-0.352722108364,-0.471489489079,0.212074369192,0.026366155595,0.661196649075,0.120185039937,0.201416194439,0.048793446273,0.018344698474,-0.228887692094,-0.265919923782,-0.171403080225,0.335280448198,0.155712902546,-0.055024184287,0.116928331554,0.250075161457,-0.033452078700,-0.035560552031,0.024545816705,-0.096988804638,-1.007641434669,0.178943023086,-0.134738951921,-0.538364648819,-0.005959894042,0.045767437667,-0.249542534351,0.153011322021,-0.365709692240,-0.209175869823,0.421551495790,-0.059599623084,-0.026159154251,0.169647082686,0.043234590441,-0.210448116064,0.194513887167,0.186160176992,0.248769924045,0.102360047400,-0.025685541332,-0.495176643133,0.167906090617,0.207466125488,0.040507771075,0.248688086867,-0.433638066053,-0.015015332028,-0.316648930311,0.188906326890,-0.514406204224,0.338533669710,0.007760914974,-0.657139837742,0.208180204034,0.108037032187,-0.349524497986,-0.011863447726,0.613843858242,-0.257294237614,0.228733703494,0.639614343643,-0.450271785259,0.092983350158,0.290303111076,-0.275562971830,-0.141201108694,0.307254552841,-0.084525309503,-0.032692246139,0.093629263341,0.314110398293,0.331337869167,-0.127229422331,-0.304130822420,-0.088305436075,0.461254417896,-0.007377381437,1.028847932816,-0.705859959126,-0.079686537385
0.779323816299,0.434053748846,-0.061142869294,-0.108274273574,-0.155129238963,-0.079433813691,-0.060376700014,0.154246643186,0.172129839659,0.439683288336,-0.266250669956,-0.084954805672,-0.297868013382,0.077081017196,0.152948290110,0.354944348335,-0.490479111671,-0.244878590107,0.091635160148,0.248045936227,-0.255560994148,0.057065226138,-0.318335443735,0.579661130905,-0.060238339007,-0.226371556520,0.156139507890,-0.221295580268,0.184858262539,0.085660539567,0.530648291111,0.326052814722,1.507392406464,-0.460177719593,0.433383017778,0.243121787906,-0.074622839689,-0.076501041651,0.702088534832,0.057095296681,0.109814248979,0.586397349834,0.036788795143,0.415267199278,0.168311491609,-0.228041395545,-0.073408231139,-0.094256862998,-0.063261382282,0.012435005978,-0.291334658861,-0.011021125130,-0.189349219203,0.066911429167,-0.115793302655,-0.494008213282,0.151029005647,-0.093105211854,0.019058372825,-0.016107849777,-0.374385625124,-0.139120176435,0.109046988189,-0.237904906273,-0.506534814835,0.505355596542,0.189174532890,0.100315950811,-0.132420226932,-0.524253308773,0.253679692745,-0.311570227146,0.417426526546,-0.431274771690,-0.062343571335,0.119288586080,-0.579407811165,0.369411438704,0.077035091817,0.392984986305,-0.470218718052,-0.128165468574,0.199536398053,0.208136707544,0.104605555534,0.226335972548,0.609155595303,0.154260858893,-0.281751364470,0.349838972092,0.007190302480,0.113443680108,0.356037497520,-0.091993443668,0.017499396577,0.247755691409,0.531303226948,0.167685329914,-0.277614027262,-0.070841141045,-0.197800874710,0.181686997414,-0.068924635649,0.031633172184,-0.288176596165,-0.126048684120,0.168732821941,0.083255834877,0.272537767887,0.297553002834,0.208274498582,0.205969646573,0.175529867411,0.198282405734,0.211983367801,-0.364070594311,-0.006892243866,-0.422953754663,0.481760621071,0.057115096599,0.237753883004,-0.260840952396,0.117083676159,0.519341409206,0.413020044565,-0.021316837519,-0.341808110476,0.248388707638
-0.041518468410,0.141054257751,0.774268507957,0.028703978285,0.107542328537,-0.307674735785,0.052742846310,0.133309632540,0.051377728581,-0.109437055886,-0.059267759323,0.160126447678,0.019924612716,-0.053321588784,0.004455363378,-0.042992040515,0.325277239084,0.092112414539,-0.040305696428,-0.093014895916,0.209670916200,0.093532599509,-0.400467783213,0.430012077093,0.133817031980,-0.050522252917,-0.157382339239,-0.068124771118,-0.384663105011,-0.040613979101,0.059848740697,-0.130892470479,-1.671131134033,-0.470421791077,-0.245313033462,-0.062498278916,0.037843719125,0.142955273390,0.212125420570,0.355355352163,-0.374612748623,-0.034542258829,-0.416907548904,-0.157582715154,0.113981865346,0.252886652946,-0.204429224133,-0.149312198162,0.267897218466,0.011982222088,0.072390526533,-0.069456368685,0.341289132833,-0.131061583757,0.264034301043,0.133900702000,-0.256366789341,0.542967736721,-0.086006231606,-0.174734711647,0.187633410096,0.056934170425,-0.218348905444,-0.102774456143,0.154090195894,-0.008855378255,0.172666817904,0.257394254208,0.290742635727,-0.204805374146,-0.531151711941,-0.031183354557,-0.578043997288,0.039511293173,-0.171243265271,0.009269127622,0.344059973955,-0.028728162870,0.251469016075,0.146394342184,0.193186253309,0.049227189273,0.313302844763,0.208620846272,-0.042725823820,0.166870787740,-0.133773773909,0.006434032694,0.170481473207,-0.224335119128,-0.021343789995,0.074197441339,0.610152065754,0.122899144888,0.014707605354,-0.510851919651,-0.016962818801,-0.189170703292,-0.106257528067,0.011068625376,-0.002005864633,0.015169222839,0.040909323841,0.275153368711,0.117507539690,0.075038321316,-0.235259547830,-0.182217046618,-0.029156362638,-0.168420419097,-0.105698600411,0.198516875505,-0.708712816238,1.082764148712,0.323520302773,0.163364797831,-0.001753533026,0.069273769855,0.379418700933,-0.353395879269,-0.056021258235,0.187058359385,0.093733295798,-0.181300446391,0.025952693075,0.352080643177,0.150972068310,0.029057636857
0.015324659646,-0.011858647689,0.229111284018,-0.010700464249,-0.012011525221,0.014048720710,0.013100124896,0.063294366002,-0.124850459397,0.141234412789,0.019197057933,0.024615021423,0.004251998384,-0.205564975739,-0.007266129367,-0.023799041286,0.004974417388,0.341968327761,0.043021328747,0.024820799008,0.145948842168,0.004586929455,-0.878824830055,-0.227515488863,0.001703756512,0.061487872154,0.011510539800,0.020077651367,-0.015111045912,-0.009844834916,-0.046000853181,0.232949286699,-0.001699035522,0.336144238710,0.040657147765,-0.002951992443,-0.012150395662,0.113338999450,-0.239185646176,0.004250749946,0.215739294887,-0.080321818590,-0.008650694042,-0.045284505934,-0.009334931150,-0.025510562584,-0.287704348564,0.195400744677,-0.539778411388,-0.143905356526,0.017984446138,0.128766492009,0.172750577331,-0.418000012636,0.127584204078,0.008302733302,-0.002504670061,-0.086979672313,-0.042884085327,-0.005589173641,0.181252330542,0.058405462652,0.421411931515,-0.057634640485,-0.084126979113,0.195320948958,-0.061477448791,0.055393151939,-0.041839905083,0.002836426022,-0.298988699913,0.317874401808,0.006622871850,0.013551976532,-0.068212576210,-0.037106014788,0.430341452360,-0.151231005788,-0.083427786827,-0.310037374496,-0.014238393866,0.007953537628,-0.071693852544,0.032544057816,-0.012377280742,0.087496951222,0.021605459973,-0.755444288254,-0.023658700287,-0.040849972516,0.048936389387,0.610045254230,0.047674894333,0.107555553317,-0.149842500687,-0.030035076663,-0.030579039827,0.236189797521,-0.008920218796,-0.052739996463,0.035054102540,0.027659170330,-0.025203073397,0.101793102920,0.023551609367,-0.017455235124,0.011196815409,0.036847580224,0.279029726982,-0.174657851458,0.016049113125,-0.061400149018,0.046966049820,-0.062497735023,0.055885598063,-0.357521981001,0.050965569913,0.068346902728,0.000946071465,0.090802490711,-0.095597274601,0.164845436811,0.000702306163,-0.000818436791,0.292279899120,0.011256241240,0.021161798388,-0.003071807325
0.067029125988,-0.068971782923,0.149491354823,-0.144647940993,0.221230715513,-0.050885085016,0.020780263469,-0.199534848332,-0.135648444295,-0.095866769552,-0.106386207044,-0.225813150406,0.140876635909,-0.096378907561,0.038193460554,-0.041152767837,-0.129600778222,-0.006988462526,0.298129051924,-0.006650662981,-0.057130936533,-0.086777850986,1.197794914246,-0.242754071951,0.096807487309,-0.126147389412,0.042764555663,0.021337538958,0.011233343743,-0.078315757215,-0.025792660192,-0.222954258323,0.528612554073,-0.266714721918,-0.028001010418,0.044687245041,-0.060938220471,-0.013303347863,-0.060429617763,0.110161557794,0.166915386915,-0.068418405950,0.029846690595,-0.187461882830,-0.157471433282,0.079372830689,0.020501280203,-0.001672683284,-0.074497133493,-0.050054755062,0.125417903066,-0.002786553232,0.020326610655,-0.056910429150,0.130944386125,0.069051973522,-0.071113124490,0.038371674716,0.254336804152,0.012371728197,0.229113444686,0.107758037746,0.139558598399,-0.031649835408,-0.090431287885,0.080434098840,0.416342765093,0.014226412401,-0.030115062371,-0.136885628104,0.297965526581,-0.164714381099,0.168706834316,-0.158298835158,-0.112655267119,0.144724756479,0.137389972806,-0.053792551160,-0.029991997406,-0.081953920424,0.056950453669,-0.044126171619,0.022453565150,0.081560403109,-0.026861818507,-0.055646557361,0.166353479028,0.013328796253,0.140907034278,-0.048735059798,0.044555045664,-0.115536101162,0.236818298697,0.048654753715,-0.029064791277,0.071266278625,-0.046297673136,0.097169056535,-0.255807042122,-0.062927208841,-0.122156269848,-0.001368680620,-0.177754983306,-0.154751062393,-0.006694858428,-0.057182125747,-0.036096062511,0.049487560987,0.283960461617,0.102685503662,-0.007685153745,0.255823105574,-0.119674094021,0.095166817307,-0.080564901233,0.115611456335,-0.042322613299,-0.280881494284,-0.069271862507,0.057592790574,-0.077998340130,-0.087623827159,-0.052988018841,-0.150779485703,-0.232558012009,0.137792393565,-0.081867523491,0.135769590735
0.091930374503,-0.079470008612,-0.081214495003,0.008947237395,0.051327798516,0.150186851621,-0.039233222604,-0.202978953719,0.114113129675,0.238486275077,0.033451154828,0.055612385273,-0.026967348531,-0.085922792554,-0.026000570506,0.078070245683,-0.108072370291,-0.281931132078,-0.037120509893,-0.039519306272,-0.045321717858,-0.044607233256,0.831649720669,0.399611920118,0.157915323973,-0.249672055244,-0.257443130016,0.019481165335,-0.005608903244,0.080720655620,-0.099755875766,-0.223502188921,-0.033986471593,0.491803139448,0.093252941966,-0.135165601969,0.271006226540,0.665404081345,-0.205806285143,0.034355912358,0.332012742758,0.330393970013,-0.150189295411,-0.121131688356,0.008585917763,0.086457148194,0.060594327748,0.037468895316,-0.033480729908,-0.023832913488,0.036068230867,-0.196920678020,0.073605991900,-0.426439106464,-0.123743169010,-0.023791840300,0.208308160305,-0.027094880119,-0.038834117353,-0.009629444219,0.244667768478,-0.088208869100,0.296717852354,-0.217254951596,0.170443534851,0.396971493959,0.037382945418,0.033704876900,-0.107436910272,0.018436614424,0.031539265066,0.253165841103,-0.019081862643,-0.041946705431,0.126527309418,-0.029598478228,-0.107294894755,0.039512343705,0.233587071300,0.165707305074,-0.074264347553,0.033603630960,0.028416493908,-0.159019410610,-0.051647726446,-0.133639365435,0.140986695886,0.402018278837,0.027271863073,-0.095174595714,-0.019793916494,0.200875788927,0.679078280926,0.089204035699,0.082529194653,-0.024839524180,0.237495303154,-0.205751061440,0.106530100107,-0.002428382402,0.037682887167,0.089942313731,-0.068707205355,-0.215872198343,0.226129636168,0.043918579817,0.008352188393,-0.151777476072,-0.022209117189,-0.348238468170,-0.010825915262,-0.143918216228,-0.166001766920,0.179343163967,0.112680561841,-0.469121396542,-0.089983239770,-0.059341505170,0.078089796007,-0.278815597296,-0.016773384064,0.078286640346,-0.083478882909,0.099657557905,-0.331669926643,0.066251568496,0.070550091565,-0.117173366249
0.094791151583,-0.332460284233,-0.126161456108,0.129237085581,-0.055389396846,-0.340216100216,-0.075477860868,0.123189076781,0.056542161852,-0.215579956770,-0.288193613291,-0.038774978369,0.039677325636,0.032967388630,-0.185807764530,-0.031570389867,0.538926601410,-0.247785061598,-0.018361186609,0.240377321839,-0.335881888866,0.041581295431,0.032680246979,-0.056568369269,0.015405766666,-0.110416553915,0.423692524433,0.030472094193,-0.301502883434,-0.069243393838,0.054834462702,0.263925850391,0.278922319412,-0.045154295862,-0.163742825389,0.172828435898,-0.080979965627,-0.039275061339,-0.551066040993,0.404574066401,-0.074384570122,-0.111796557903,-0.285374253988,0.026752939448,0.183438882232,-0.359064728022,-0.271020352840,-0.293681204319,-0.139822885394,0.069941118360,-0.517246544361,0.565891683102,0.053919471800,0.044481676072,-0.272153526545,-0.106247916818,-0.119773529470,-0.065317757428,0.012278305367,-0.481634527445,0.062263458967,0.338332593441,0.318253129721,0.402744412422,0.226184129715,0.077762335539,0.018155038357,-0.747526466846,0.010708900169,0.182432785630,0.058553338051,0.019527109340,-0.093900568783,0.034423492849,0.115063957870,-0.259645015001,-0.097614012659,0.445490688086,0.097528450191,0.138012200594,0.019267141819,0.043696448207,-0.311172962189,0.201462000608,-0.235980585217,0.368539422750,0.219875425100,-0.054621148854,-0.130593925714,0.017279554158,0.045581370592,0.068073868752,-0.161251351237,0.400322437286,-0.012638273649,0.266902238131,0.022546218708,0.118886828423,0.148928374052,0.008162513375,0.131416514516,-0.006633640733,-0.368900090456,0.315716803074,-0.119963735342,-0.051812980324,-0.028683060780,-0.041106890887,0.231282129884,-0.438818961382,0.348938703537,-0.068965591490,0.010616721585,-0.049855530262,0.050943102688,-0.428828716278,-0.073327668011,0.046346437186,-0.328813463449,0.304970651865,-0.244949102402,-0.221078798175,-0.099844746292,-0.599357903004,-0.454270005226,0.506396234035,-0.475923955441,-0.222612410784
0.103186152875,0.057269793004,0.234819516540,-0.606250703335,0.146894648671,0.257397085428,0.069374009967,0.280348479748,0.369816720486,-0.143759220839,-0.067135415971,0.084879472852,0.001020162250,-0.087442010641,-0.008824130520,-0.355716556311,0.131319105625,0.294026881456,-0.046253591776,0.088642358780,-0.061456594616,0.081856049597,-0.047279827297,0.170550450683,0.132403746247,-0.069947332144,0.293239444494,-0.068954862654,0.042419787496,0.015823900700,-0.138542473316,0.008849200793,-0.133522927761,0.027533186600,-0.084500670433,-0.278745710850,0.100091397762,-0.178695783019,0.335422843695,0.069478355348,0.067169629037,0.063334561884,0.800057113171,0.149733632803,-0.033486120403,-0.061696238816,0.148930788040,-0.223385825753,0.712617278099,-0.238935545087,-0.002745963633,-0.105436645448,-0.158443778753,0.339915663004,-0.124224670231,-0.158928200603,0.341768085957,-0.098130643368,0.015601870604,0.180047646165,0.007779367734,0.097225315869,0.329887926579,-0.078514404595,0.259130388498,-0.385634928942,0.175888583064,-0.143551677465,0.030594272539,0.034626159817,0.080362081528,0.029126767069,-0.014474347234,-0.116210967302,0.254255712032,-0.022626494989,0.212927699089,0.407403796911,0.203566834331,-0.214185640216,0.128363892436,-0.202452346683,-0.014268258587,0.052504703403,0.227106690407,0.040667563677,0.021124118939,0.103404447436,0.255385905504,0.014068544842,0.072160899639,0.226328045130,0.402960956097,0.251205742359,-0.038178335875,0.056304812431,-0.126094579697,-0.006237525493,-0.400198578835,0.099284157157,-0.175476297736,0.095773302019,-0.152595460415,0.543682754040,-0.011572348885,0.113270439208,0.105868868530,0.069931708276,-0.747057557106,-0.226507171988,-0.266906023026,0.174090504646,-0.343768119812,-0.261726737022,0.290886461735,0.373656630516,0.687728345394,0.210320606828,-0.079718463123,-0.239320561290,0.046633537859,-0.246821030974,-0.173653721809,0.215968027711,-0.431991398335,0.002444200916,0.276580989361,-0.427287429571
-0.569817364216,0.236163064837,0.414366245270,0.229276210070,-0.259650856256,0.228352710605,-0.013919124380,0.465367943048,0.064176939428,0.137819543481,0.078163623810,0.529744386673,0.017906337976,0.135425329208,0.132392510772,-0.027534294873,-0.000721811783,-0.084236174822,-0.164410367608,-0.033419765532,-0.099375389516,0.182810857892,-0.218444377184,-0.145316451788,0.079142548144,-0.110274165869,0.125206410885,-0.295606970787,-0.095702603459,-0.045897819102,0.097213365138,0.265999078751,0.756485998631,-0.175064161420,-0.152344763279,-0.098731704056,0.808400034904,-0.134669855237,0.037650484592,-0.020301736891,-0.206108704209,0.280269920826,0.090016134083,0.645633459091,0.024699648842,0.128335952759,0.162757396698,0.267862945795,-0.229938492179,-0.081973299384,-0.170440882444,0.259859472513,-0.225539043546,-0.125756099820,-0.229663968086,0.022847272456,0.022099239752,0.337536454201,0.311211585999,0.008188894950,-0.265584468842,0.148026555777,-0.080756604671,0.254822015762,-0.053037140518,-0.090523518622,-0.025983685628,0.063130483031,-0.240324556828,0.147186785936,-0.037445843220,-0.118944898248,-0.013834715821,0.181765973568,-0.492723226547,0.037156056613,0.284784287214,-0.465768784285,0.181729778647,-0.749460875988,-0.055739343166,-0.222470536828,0.633492052555,0.424667775631,0.198546215892,0.429656744003,1.831169128418,0.084986023605,0.013629846275,-0.063323087990,0.106023333967,0.103278160095,0.201710253954,-0.629332721233,-0.008544160984,0.462870627642,0.300982117653,0.239519968629,-0.434406548738,0.177956923842,0.112842984498,0.015580247156,-0.555475294590,0.075530193746,0.027308529243,-0.309980928898,-0.060603313148,-0.124945975840,-0.059866141528,-0.099872112274,-0.125681847334,-0.258247941732,0.260360538960,0.396032840014,0.528027355671,0.395029902458,-0.026953736320,0.390774190426,0.149144515395,0.058320291340,-0.096489489079,0.506506145000,0.189945578575,-0.468619197607,0.263234436512,0.123575955629,-0.275531470776,0.063124909997
0.291507780552,0.289633244276,0.486132383347,0.424541175365,0.012279124931,-0.225458174944,-0.183763846755,0.259149461985,-0.128754869103,-0.262059032917,0.231393888593,-0.188120067120,0.230380311608,0.088797934353,-0.274424672127,0.202021926641,-0.335635662079,-0.112930364907,0.357332170010,-0.082557000220,0.109702013433,-0.124021373689,0.074132069945,0.088199883699,-0.343883424997,0.002405166160,0.083544977009,0.083328828216,-0.272780537605,0.061087198555,-0.150498822331,-0.200691178441,-0.246040299535,-0.017066299915,0.465576052666,0.173342674971,0.126883849502,0.125377669930,-0.138685524464,-0.246342837811,0.437013864517,-0.194186970592,0.113194487989,-0.210497707129,0.175673693419,-0.031559318304,0.313947528601,0.157010242343,0.323913156986,0.097753360868,0.120297826827,-0.244106322527,-0.166966259480,0.039164118469,-0.229461297393,-0.214433491230,-0.388424545527,0.411189198494,-0.302204996347,-0.144493281841,0.036317247897,-0.188222378492,-0.314242660999,-0.514656960964,0.105012282729,0.341467678547,0.068020768464,0.145700305700,0.209998846054,-0.420123517513,-0.475554585457,0.348999500275,0.031486395746,-0.329544961452,-0.016127008945,0.053997676820,0.250517189503,0.449975609779,-0.172064036131,-0.472221165895,-0.169441267848,0.068043485284,-0.321448534727,-0.184405192733,0.184278622270,-0.040869008750,0.974917471409,-0.285004734993,0.047917164862,0.278515279293,-0.061355751008,0.089014776051,0.032361079007,0.025122571737,-0.078921496868,0.257708817720,0.465737521648,0.198954224586,0.117153070867,0.161025270820,0.108369253576,-0.017251938581,-0.117664828897,-0.122340478003,-0.052002858371,-0.175916776061,0.275710403919,0.299860537052,0.246484994888,-0.111370988190,0.273722678423,0.205279096961,-0.238111093640,0.026360644028,-0.113963030279,-0.088285602629,-0.028128489852,0.131399706006,0.623130142689,-0.007949347608,-0.117529816926,0.087738081813,0.041770953685,0.519211590290,0.457529276609,0.076105825603,0.452275812626,0.470572829247
-0.211047679186,0.363712519407,0.233774453402,-0.116317801178,0.378578633070,0.892683029175,-0.020717801526,0.002856630133,0.214914605021,0.171106368303,-0.012811977416,-0.106600388885,0.064864635468,0.256967365742,-0.116562947631,0.249992236495,0.063116267323,-0.818126678467,-0.310380995274,-0.229776561260,0.093138612807,0.058889672160,0.035215198994,0.082560889423,0.225444003940,-0.068466506898,-0.333636939526,0.287118494511,-0.101214870811,-0.044308491051,0.198794841766,0.072969302535,-0.490523874760,0.335978269577,0.322465389967,0.224263459444,-0.266482442617,-0.037050042301,0.024246731773,-0.253468155861,0.040964450687,0.177676454186,0.241710424423,-0.056734275073,0.184956997633,-0.256569772959,0.224180087447,-0.305385619402,0.135504305363,-0.044643014669,0.052677169442,0.204986542463,0.322482526302,0.061409767717,0.274937301874,-0.111676283181,-0.772774457932,0.149422645569,0.217051148415,-0.218303143978,-0.055651511997,0.346079885960,-0.045208070427,-0.148047626019,0.003446705174,-0.075975455344,0.115147054195,-0.153930440545,0.191767081618,0.347170382738,0.140202730894,-0.280739933252,-0.019164066762,-0.072203382850,0.100513443351,0.111598305404,-0.386138945818,-0.084007136524,0.371151864529,-0.082782715559,0.349318265915,-0.429299592972,-0.194273412228,0.179957315326,0.324009567499,0.055196527392,-0.296452730894,0.088466480374,0.142962977290,-0.169104546309,0.247186094522,0.098827384412,-0.065340906382,-0.009971319698,0.079170353711,-0.135669648647,0.638661801815,0.141736626625,0.175439521670,0.088943153620,0.607460975647,-0.277307242155,-0.048235971481,-0.657312333584,0.092856541276,-0.043815586716,0.130062162876,-0.235488831997,-0.139751225710,0.007579229772,0.197725132108,-0.080351300538,0.060846894979,0.261470466852,0.192157447338,0.009314267896,0.013390095904,-0.223418504000,-0.725969433784,0.027388960123,0.128138542175,0.286574780941,0.045664720237,-0.360086649656,0.036195680499,0.283864796162,-0.168750241399,-0.137087211013
-0.281332045794,-0.184230804443,-0.163993179798,-0.269701004028,-0.284393668175,0.110391333699,0.097094751894,0.050043188035,0.149946227670,-0.174975916743,0.235323682427,0.596090853214,0.295697450638,-0.075663574040,0.021277140826,-0.288558602333,0.384197384119,-0.016058078036,-0.202798634768,-0.010672559962,0.497839808464,0.049942273647,0.025761958212,-0.162104964256,0.081718295813,0.028995715082,0.305654048920,0.235663428903,-0.093735560775,0.124528877437,0.287522196770,0.093722663820,0.044825050980,0.092707239091,-0.193549007177,-0.098906435072,-0.268473237753,0.147228941321,0.154698982835,0.173841252923,-0.225210279226,-0.287492632866,0.535122156143,0.528068840504,-0.381681859493,-0.315322697163,-0.179764211178,-0.155612900853,0.064537636936,0.134087577462,0.239023536444,-0.132456377149,0.142243295908,-0.168858364224,0.246393099427,-0.124455556273,0.337191373110,0.084138080478,0.128745839000,-0.091484211385,-0.226511418819,0.106620341539,-0.070951484144,-0.034389790148,-0.081132508814,0.156241625547,0.025003250688,0.170534655452,0.206142306328,0.164657697082,0.789291918278,0.005221567117,-0.023451941088,0.217706814408,-0.178811192513,-0.159848064184,0.009893867187,-0.136911094189,-0.088871642947,-0.082438260317,0.551871359348,0.035145379603,-0.321265548468,0.128940865397,-0.076471358538,0.020689576864,-0.351883918047,0.275731474161,0.104656219482,0.125976428390,0.273222833872,0.042536593974,-0.041759356856,-0.211484536529,0.151573702693,0.682633697987,-0.394536137581,0.060573119670,0.177868738770,-0.009654450230,0.396267682314,0.987412154675,0.031358171254,-0.402853399515,-0.201305732131,0.064801901579,0.087152868509,0.261457175016,0.192118450999,-0.308333635330,-0.319175630808,-0.134714752436,0.091542392969,-0.477325499058,0.279585748911,-0.250716328621,-0.008583323099,0.321761161089,-0.477114647627,-0.005165302660,0.238174393773,0.539753258228,0.011714587919,-0.056467022747,0.269455194473,0.010853750631,0.273704648018,-0.326683312654
-0.094743400812,0.350678175688,0.076134294271,0.397577881813,-0.025507446378,-0.530199468136,0.002420407487,0.435483068228,-0.049389630556,0.156588286161,-0.099420957267,-0.143139988184,0.718875110149,0.164738446474,0.239759430289,0.019254369661,-0.367939770222,-0.099568739533,0.163627609611,0.030011557043,-0.254884302616,0.089881844819,0.092545613647,0.303153723478,0.050316113979,-0.095635198057,-0.000623365515,-0.172225266695,0.088869661093,-0.008739415556,-0.189866617322,0.252150416374,-1.000266313553,-0.024095086381,0.001537341392,0.465312063694,0.027784921229,-0.257277548313,0.019997786731,0.633144438267,0.158070012927,-0.108844526112,0.460893839598,-0.566306293011,0.357596427202,-0.062037773430,-0.645401179790,0.733544766903,-0.280981659889,0.079443104565,0.464550107718,-0.315107941628,-0.146382555366,0.143423363566,-0.558420062065,-0.128299295902,0.006673695985,-0.135340020061,-0.480557948351,0.000270113669,-0.030576338992,0.344767898321,-0.346671998501,0.100064545870,-0.334627658129,0.351276755333,0.055018730462,0.076917804778,0.071366667747,0.384607374668,-0.134345993400,-0.202808707952,0.232656612992,0.040874950588,0.167185515165,-0.231513068080,-0.160956367850,-0.556325256824,-0.497663885355,0.394593894482,-0.295422881842,-0.089696153998,-0.299718767405,-0.788543403149,-0.154557645321,0.013871296309,-1.618246674538,0.020551290363,0.325691252947,0.187482059002,-0.205807104707,-0.181857973337,-0.297323644161,0.406426757574,0.033933166414,-0.513589799404,0.049821313471,0.188445284963,-0.016952596605,-0.102767281234,-0.047802802175,-0.074901252985,-0.869650721550,0.070101849735,0.131997212768,0.603389143944,0.081568405032,0.064447045326,0.294785231352,0.327537536621,-0.091438263655,-0.261954486370,0.416187435389,0.028434166685,-0.042083796114,0.356519401073,0.010078891180,-0.147249013186,0.202344074845,-0.115328431129,-0.398880511522,-0.353696286678,0.001012659748,-0.346392124891,-0.268754452467,-0.018406560645,-0.116323165596,0.448337554932
0.383537828922,0.297825515270,0.384634107351,0.509411871433,0.704515457153,-0.606882452965,0.080587282777,0.043739765882,0.232854291797,-0.263038843870,-0.323239654303,-0.220357894897,0.132422596216,-0.043510809541,-0.201800584793,0.190208658576,-0.176501154900,0.222798764706,0.017000520602,-0.079685851932,0.096029050648,-0.348823755980,-0.094517953694,0.276109188795,0.429349213839,-0.361875057220,-0.141349717975,-0.199315011501,0.054213277996,-0.104075655341,0.238522261381,0.267948508263,0.288127213717,-0.334368020296,0.590590417385,-0.015950793400,0.135357812047,0.139302417636,-0.265118747950,-0.117092706263,0.249608188868,0.715442597866,-0.075981058180,0.194679811597,0.156464010477,0.133457943797,-0.062989316881,-0.291920781136,-0.174138680100,0.000611043361,-0.044644817710,0.073605686426,0.442531019449,-0.148632511497,0.379154741764,0.051711253822,0.213585227728,-0.268125087023,-0.010699694976,-0.241746857762,0.074591048062,0.180042907596,-0.076477840543,-0.001855968265,-0.168282315135,0.065210893750,-0.060721419752,-0.373097598553,0.209559664130,0.128127753735,-0.591254472733,-0.080175906420,0.088202752173,0.019129872322,0.284264773130,0.172949001193,0.103377513587,-0.200036972761,-0.083403393626,0.026279469952,-0.697498202324,0.257369369268,0.082356363535,0.152502670884,-0.148899301887,-0.047058813274,0.138557329774,0.259162515402,-0.419945657253,0.278506815434,0.019146470353,0.055949982256,-0.066322408617,-0.079458087683,0.047425664961,-0.235094308853,0.294928789139,-0.008491907269,-0.109706729650,0.086253747344,-0.916721105576,1.082805037498,-0.142392873764,0.583605229855,0.044090732932,0.235692113638,-0.081324204803,-0.112007446587,-0.009372877888,0.354654699564,-0.085672505200,-0.174614563584,0.235570266843,-0.274487972260,-0.141329795122,0.250146716833,-0.146400883794,0.169824987650,-0.089002713561,0.074420504272,0.170017212629,-0.002215368208,-0.083714447916,0.203842520714,0.087062068284,-0.454300880432,-0.094124086201,0.030953112990
0.258183389902,-0.301715165377,-0.012459007092,0.086430341005,-0.045718077570,0.117916248739,0.154609680176,0.270132899284,-0.091741971672,0.047361794859,-0.057481117547,-0.077834047377,0.019351307303,-0.036141302437,-0.057132780552,0.266940087080,-0.100337900221,0.347453325987,0.083181492984,-0.069620497525,-0.118447385728,0.244744539261,0.315976440907,0.072109080851,-0.178155422211,0.325375437737,0.197274357080,-0.097237765789,-0.051407352090,-0.311898440123,-0.065438382328,-0.439350396395,-0.245418488979,0.500009834766,0.724343299866,0.122946985066,-0.083540298045,-0.155565679073,-0.072477243841,-0.237327769399,0.031917814165,-0.240303829312,0.095975950360,0.192653685808,0.215925127268,-0.206372871995,0.135225087404,0.140689685941,-0.353123515844,0.005496511701,0.374382466078,0.335604310036,-0.197359055281,0.138323992491,-0.154755666852,-0.185829758644,-0.076018482447,-0.115658506751,0.188356548548,0.212652772665,-0.158491656184,0.010726409033,0.136976823211,0.022631404921,-0.260130763054,0.672515988350,0.054013174027,-0.073721371591,-0.035347923636,-0.023157028481,0.576544225216,-0.039471782744,0.371741324663,-0.240919739008,-0.147598117590,0.025823669508,0.307285159826,0.122762672603,0.165960103273,0.621256113052,0.302053719759,-0.181917369366,-0.524325609207,-0.106408290565,1.020065426826,-0.067065499723,0.070822276175,-0.219865426421,-0.447890132666,0.015518642031,-0.047225337476,0.068237021565,-0.718206346035,-0.329025804996,0.005625553895,-0.497124880552,0.016587454826,-0.224040061235,0.062504835427,-0.281356126070,-0.086411654949,0.001512530842,-0.040717300028,0.117150492966,0.042495466769,-0.085127748549,-0.058926936239,0.161021009088,0.230910718441,0.134914278984,0.402261614799,-0.346508830786,0.012036006898,0.248565331101,0.275301784277,-0.390731871128,0.113581046462,0.222725987434,-0.282516539097,0.082922786474,-0.177950948477,-0.343491464853,-0.102085709572,-0.747868835926,-0.236304432154,0.159793391824,-0.172706320882,-0.048966150731
-0.043587602675,-0.011890199035,0.412886053324,-0.053861018270,-0.158973649144,-0.144939094782,0.081091627479,0.265235900879,-0.049759030342,0.065466351807,-0.104660741985,0.197140708566,-0.124150127172,-0.012094954029,0.329819142818,0.245417609811,-0.305301159620,0.168402969837,0.092836357653,0.047162108123,-0.034561347216,0.029344160110,0.260992318392,-0.196879610419,-0.268767237663,-0.033345248550,-0.039108138531,-0.052830874920,0.186781600118,0.405168265104,0.482676923275,-0.031782764941,-0.363468617201,0.304623156786,-0.071343600750,-0.357619792223,0.361317634583,0.289011538029,0.221096590161,0.209144964814,0.001176700112,0.403457432985,-0.163604989648,-0.145396426320,0.258274197578,-0.082241341472,0.191861346364,-0.166435822845,-0.152839139104,0.210297644138,-0.146407619119,0.180216059089,-0.010013164021,0.092954352498,0.168934941292,0.010222221725,-0.156859427691,0.007438966073,-0.224563121796,0.115828432143,0.412837654352,-0.171663895249,-0.305355101824,0.451999247074,-0.120860412717,0.179419189692,0.331766337156,0.107609845698,0.105967685580,0.236794695258,0.034466221929,0.275051563978,0.310252755880,0.451505541801,-0.005164781120,-0.235639676452,-0.509493172169,-0.610243260860,0.127808496356,0.489447653294,0.033370874822,-0.139385119081,-0.209109202027,0.030966000631,-0.290212750435,-0.140384078026,0.639483690262,0.014027792960,0.343254387379,-0.113917358220,-0.069682098925,0.131987079978,0.305358916521,0.098147772253,-0.002751077525,0.136765360832,0.144033208489,-0.293913036585,-0.130083471537,0.049915447831,0.334347426891,-0.129730328918,0.003217150457,0.350261628628,0.013523146510,-0.242012441158,-0.149999722838,-0.018200712278,-0.177690610290,0.119549423456,-0.042861342430,0.114267930388,-0.022053612396,0.085841856897,0.028226204216,0.158481284976,-0.062186218798,0.124796725810,0.210464775562,-0.211357340217,0.172577798367,0.623614668846,-0.387610942125,-0.341668009758,-0.175404623151,-0.017767528072,0.032709497958,0.044761791825
-0.349725574255,0.128971740603,-0.473120838404,-0.188547074795,0.125278711319,0.355583339930,-0.188363805413,0.143871411681,0.034334123135,-0.111588031054,0.048188630491,-0.242764383554,-0.325540095568,0.068385057151,-0.025262681767,-0.713165223598,0.429194718599,0.301124900579,-0.275630980730,0.217185243964,0.142481431365,0.064680248499,0.083877027035,0.065416939557,0.264455169439,0.244948461652,-0.084733858705,-0.104422777891,0.052910428494,0.125474631786,0.348362237215,-0.082084022462,-0.611266791821,-0.578910708427,-0.188573792577,-0.468770265579,0.266706109047,-0.138227358460,-0.511546969414,-0.094105124474,-0.371754974127,-0.464550435543,0.438133418560,-0.120397634804,-0.518281936646,0.059874411672,0.702626526356,0.332168608904,-0.371360480785,-0.094788625836,-0.092801786959,-0.297640591860,0.041233457625,0.180100843310,0.293850511312,0.294460147619,-0.056363273412,0.212061956525,-0.832697510719,0.118469260633,0.695428013802,-0.119999282062,-0.199791505933,-0.107028558850,-0.382500886917,-0.287276417017,-0.153057768941,-0.110570497811,0.586063385010,0.269685864449,0.416254043579,0.027274176478,-0.460351020098,0.226083964109,0.282481998205,0.017424592748,0.040540922433,0.130628257990,-0.509169101715,-0.064815945923,0.725496768951,0.076130174100,-0.402730554342,0.000729729712,0.091834895313,-0.207638680935,0.029597632587,0.234127432108,0.125721678138,0.114907547832,-0.607286036015,-0.094495475292,-0.105377420783,0.872701525688,0.015003351495,0.047732230276,-0.340552210808,-0.222742825747,-0.091117605567,0.079308442771,0.093029685318,0.612208127975,0.310396134853,0.005614252295,-0.830285489559,-0.087010301650,0.069645859301,0.063278965652,0.273270905018,-0.776771485806,0.084223508835,-0.086461134255,-0.405235558748,-0.441760629416,-0.299588412046,0.096228219569,0.029987722635,-0.662809669971,-0.476620078087,-0.033393852413,0.225499376655,0.354019850492,-0.107029378414,-0.140963926911,0.376720935106,-0.201979517937,-0.056145798415,-0.037404518574
-0.352866500616,0.078537218273,0.076902881265,-0.137272521853,-0.127522811294,-0.091907374561,-0.022898001596,0.176947832108,-0.010012883693,0.110223762691,0.210595414042,0.021419100463,0.108335569501,0.176056504250,0.084732756019,-0.019588984549,-0.229311347008,0.320681780577,-0.093332245946,0.196353211999,0.488797217607,0.274729430676,-0.228760689497,0.012319546193,-0.177061408758,0.269712746143,-0.146100729704,0.195624798536,0.201555266976,-0.145677417517,0.267929673195,-0.144544348121,-0.321408540010,-0.309644728899,-0.235788941383,-0.166455328465,0.151121407747,-0.087192162871,0.384206056595,0.150647014380,0.530261278152,-0.183922439814,-0.091233268380,-0.080170407891,0.295112550259,0.025541577488,0.042641241103,0.255129516125,0.315800309181,-0.729533553123,0.311105966568,-0.565286993980,0.158881366253,0.317540287971,-0.024695221335,-0.080816820264,-0.085503987968,0.089759804308,-0.113427340984,-0.152819111943,0.007754780352,0.263202160597,0.732276976109,-0.048629656434,0.176257267594,0.088222213089,0.167952433228,0.324478238821,0.276086837053,0.103805787861,-0.060311220586,0.175271064043,-0.330790549517,-0.009577877820,0.176082983613,-0.189834550023,0.199719727039,-0.262931793928,-0.246058747172,0.202485248446,0.038821220398,-0.236790359020,-0.120204679668,0.034886054695,-0.300871163607,0.117776595056,0.324712932110,0.167105033994,0.166895225644,0.272408366203,-0.137070745230,-0.030358582735,-0.013286708854,-0.012279265560,-0.142817214131,0.390689313412,0.365116089582,-0.146159157157,-0.075881622732,0.017558908090,0.034430135041,0.025644943118,0.134901508689,-0.233691632748,-0.051923289895,0.112729601562,0.332267701626,0.136934280396,0.376144468784,0.389649957418,-0.003997380845,-0.298175305128,0.310761123896,0.031381405890,-0.107597023249,0.373645246029,0.274434268475,0.290889501572,-0.471233606339,0.428964793682,0.084837935865,-0.212091505527,-0.022908218205,-0.378166824579,-0.402946919203,-0.198204323649,0.292626768351,0.208791702986
0.050591997802,-0.308108776808,-0.193553045392,-0.022445647046,0.210459589958,0.316061228514,-0.017001733184,-0.139716863632,-0.002922264161,0.281711250544,-0.009800229222,-0.599103152752,0.002510030987,0.008951839060,0.026702584699,-0.206846952438,0.212151542306,-0.165106028318,0.081673346460,-0.014319906943,-0.047251328826,-0.029450280592,0.075191847980,-0.353053539991,0.053134668618,0.080587245524,0.034247759730,-0.047482147813,-0.043887428939,-0.059631180018,-0.120554737747,0.139441117644,1.203382730484,0.259922116995,-0.069149918854,0.001353675383,-0.057679533958,0.018947975710,0.154474303126,0.119451247156,0.299556791782,0.023231893778,-0.195031791925,0.113149903715,0.217081040144,0.430703639984,0.163014724851,0.000965443556,0.058407466859,0.001419286360,-0.147413477302,-0.057712070644,0.270249843597,-0.033836103976,0.125027224422,-0.072555623949,-0.104744337499,0.234544366598,0.026213707402,0.000372800336,0.050247680396,-0.000117191405,0.096059113741,-0.003738068277,0.130938917398,-0.223645865917,-0.021850351244,0.006380092818,-0.154123127460,-0.031016470864,0.032810848206,0.040978346020,0.106999270618,-0.174830108881,-0.049654442817,0.075669571757,-0.211097076535,-0.090635284781,0.168991804123,-0.010174975730,-0.185050860047,-0.002439757576,0.387239605188,0.133442908525,0.055847261101,-0.171393752098,0.345458030701,0.053015731275,0.435041934252,-0.286123037338,-0.404633164406,0.034458614886,0.049512173980,0.371821135283,-0.009467358701,-0.550469994545,-0.145846515894,-0.050728764385,0.018397349864,0.021184625104,0.031812634319,-0.433025360107,0.116333372891,-0.102832078934,0.104672409594,0.051579385996,-0.006345720962,-0.041032478213,-0.281257539988,-0.072277657688,-0.031601633877,0.003614358138,-0.375860333443,-0.057322427630,-0.478297173977,0.045972231776,-0.008382732049,0.259130775928,-0.042958505452,0.424680352211,0.130275562406,-0.111106835306,-0.017518112436,0.042188733816,-0.629510104656,-0.024414688349,-0.076555289328,0.061705034226
-0.222973093390,-0.355493396521,0.284568935633,0.084550626576,-0.297949939966,-0.297667443752,0.013632268645,0.114770062268,-0.005023311358,0.137223958969,0.085873685777,-0.119828410447,0.215320557356,0.030843218789,-0.503658473492,0.396288573742,0.321556657553,-0.342925190926,0.044101562351,0.241059198976,-0.142737716436,0.294589579105,-0.090114206076,0.173665881157,0.317114233971,-0.014708691277,-0.035867828876,0.323987632990,0.062896549702,0.078136608005,-0.153802171350,0.305879533291,0.533736288548,-0.322765499353,-0.006420150865,-0.098977684975,-0.259952813387,0.089632093906,-0.543493986130,0.328499317169,0.077843442559,0.210733085871,-0.118818111718,-0.044041197747,0.804747045040,-0.076800890267,-0.094805203378,-0.042697682977,0.072377346456,0.072460524738,-0.171443656087,-0.110918208957,-0.126783415675,-0.069423750043,0.037309013307,0.009215929545,-0.154965013266,0.085789859295,0.311827093363,0.205041050911,-0.326440900564,0.464292138815,-0.016255915165,-0.029377397150,0.144187167287,-0.006397342775,-0.196746587753,0.192165881395,-0.439567983150,0.011708445847,-0.210366457701,-0.099809512496,-0.063007824123,0.007872265764,-0.108189783990,0.116426661611,0.126205593348,0.327338486910,0.040133096278,0.426662445068,-0.157030269504,0.301819503307,-0.168948471546,-0.050695542246,-0.754691779613,0.041047543287,0.563227057457,-0.124419756234,0.407561272383,0.118672691286,-0.140842556953,0.052028018981,0.023022515699,0.488908797503,-0.019921874627,0.054590601474,0.197474360466,0.092074193060,0.331916183233,-0.073287680745,-0.514191925526,0.097881682217,0.140723496675,0.146954745054,-0.492839306593,0.579099059105,-0.087819173932,-0.181898161769,0.096732132137,-0.038554456085,-0.369453400373,-0.428056985140,-0.092621669173,-0.078147925436,0.331700026989,-0.081900395453,-0.051358945668,0.386490225792,-0.203414425254,-0.269532501698,0.061172872782,0.075594693422,-0.001182775130,-0.142155751586,0.224272146821,-0.523206532001,0.062307868153,-0.371694236994
-0.048846397549,0.089238114655,-0.152777373791,0.084474265575,0.244930535555,0.107899643481,0.037913676351,0.184931918979,-0.195557355881,0.068430498242,-0.181240007281,0.156057089567,-0.074368067086,0.342469513416,0.109066076577,0.213455095887,-0.022720497102,0.230614617467,-0.036722261459,0.009009732865,0.322474688292,-0.057766165584,0.118872664869,0.112719617784,0.112308815122,-0.083618871868,-0.021434843540,-0.178127154708,-0.112851686776,0.047555148602,-0.196694195271,0.099287562072,0.076861485839,0.209046855569,0.042971249670,0.459100127220,0.096796989441,-0.062988899648,-0.057271420956,0.206371977925,-0.105364330113,0.080759383738,-0.164728343487,0.125885426998,0.232841640711,-0.209160894156,0.205142796040,-0.148763507605,0.156803533435,0.769773662090,0.095945902169,0.115230001509,0.033963177353,-0.101710252464,-0.301102429628,-0.146658539772,-0.258878916502,-0.182901337743,-0.267451286316,0.005470626522,0.077454611659,0.164804607630,-0.551332533360,0.172578468919,0.130792796612,0.083248898387,0.961426734924,0.110289648175,0.155871719122,-0.280122488737,-0.044111195952,-0.309176355600,0.179941177368,-0.211065024137,-0.010148248635,-0.029776377603,0.096610389650,-0.094510234892,0.191936522722,0.229375109076,0.099867872894,-0.013656574301,-0.315792679787,-0.249381467700,-0.028615130112,-0.218677774072,0.464583486319,-0.349864661694,-0.038215104491,-0.112571373582,0.077720187604,-0.015490445308,0.011545856483,0.159020826221,0.365427434444,-0.310347795486,0.068371996284,0.249958649278,0.227264896035,-0.107656687498,-0.159583315253,0.274689495564,-0.080535605550,-0.048117227852,0.381591379642,0.172534152865,-0.199971258640,0.033696595579,0.254123091698,0.056926969439,0.027533007786,0.012225098908,0.058270979673,0.007445390802,0.380305886269,-0.188126727939,-0.323461800814,-0.191206380725,-0.035482987761,0.190132945776,-1.075035452843,0.060041531920,-0.087956257164,-0.083819687366,0.239457100630,0.211517542601,0.055979870260,-0.034681759775
-0.209921151400,-0.253712564707,0.440489917994,-0.357614874840,0.084198795259,0.297689914703,0.190630629659,-0.415051877499,0.061535209417,-0.020576464012,-0.222359672189,-0.293228596449,0.161065950990,-0.294654846191,-0.084292799234,-0.005229343660,0.448793411255,-0.174165114760,0.391224652529,0.277371108532,0.056765202433,-0.298282772303,-0.055627882481,0.239843145013,-0.595877766609,-0.159844160080,-0.683876097202,0.218059137464,0.030564384535,-0.363960444927,0.140923514962,0.195346802473,-0.943840742111,0.236146628857,0.068817138672,0.074500590563,-0.448430150747,0.035874139518,-0.083348378539,-0.341916263103,-0.021655457094,0.248395025730,0.284375190735,0.082154162228,0.261165112257,0.087043695152,0.354963690042,-0.112057819963,0.143283456564,0.029663441703,-0.124418787658,-0.099523842335,0.250880867243,-0.024803981185,0.138836070895,0.098051860929,0.110660903156,-0.098570257425,0.373904526234,0.246026888490,0.006117769517,0.155720174313,-0.137384071946,-0.095233798027,-0.470528662205,0.198511838913,0.221409007907,0.043035026640,-0.093127556145,0.326631575823,0.073057316244,0.050795555115,0.241701409221,0.041423324496,0.039041541517,-0.161806508899,0.371823400259,0.241132035851,0.084919296205,-0.259568929672,-0.210925623775,0.577131927013,-0.096670217812,-0.287733793259,-0.138984143734,-0.172929510474,-0.267866760492,-0.078047446907,0.384240537882,-0.019625972956,-0.483690410852,0.123365573585,0.083385303617,-0.054327335209,-0.012187224813,0.652168095112,-0.081550851464,0.106443159282,-0.235581845045,-0.082656711340,0.106017321348,-0.215053901076,0.248872920871,-0.408035188913,-0.087257705629,0.037643212825,-0.054925162345,-0.113756485283,-0.198893368244,0.277217566967,0.382527202368,-0.825390756130,0.253394514322,-0.381482630968,-0.237570658326,0.008648826741,-0.044439341873,0.025958435610,0.069781690836,0.022858716547,0.233498275280,0.021287532523,0.108340531588,-0.361822217703,-0.030353041366,-0.513581812382,0.312976539135,0.286274701357
-0.048032224178,-0.254244208336,-0.304105758667,0.057934213430,0.160807639360,0.175889998674,0.185785129666,-0.060997359455,0.024535825476,0.047446865588,-1.195822834969,0.091245323420,-0.444792687893,-0.040112931281,-0.115778587759,0.010132742114,0.317806392908,-0.452172487974,0.330378055573,-0.162919953465,-0.066956691444,0.173871234059,-0.205586597323,0.238664433360,-0.071928419173,-0.239521026611,-0.081125281751,0.320238023996,-0.056738376617,-0.019521273673,-0.000586087466,-0.140051200986,0.695478737354,-0.657233238220,0.060367286205,0.339966416359,-0.197896182537,0.043987762183,-0.208817243576,0.001150692580,0.034415602684,0.044918674976,-0.185638502240,-0.106644436717,-0.045434195548,-0.239025503397,-0.075004465878,0.544195592403,0.059066023678,-0.061415247619,1.084497451782,0.313147276640,0.007207367569,-0.004992787726,-0.179316222668,-0.203482344747,0.359927386045,-0.303018897772,0.150487571955,-0.035271320492,-0.482915312052,-0.170778512955,-0.206080377102,0.072661392391,0.261442065239,0.230256408453,-0.106766931713,-0.586467504501,-0.048187468201,0.169207245111,0.241876199841,0.049969457090,0.483497619629,-0.236841782928,-0.021902410313,0.031521633267,0.639763355255,0.188832029700,0.138112813234,0.149559080601,-0.114807702601,0.043447934091,-0.040410321206,0.352306365967,-0.156867355108,0.084450170398,0.219448179007,0.047269996256,-0.042908906937,0.159935355186,-0.159593120217,0.093597918749,0.385293692350,0.127359092236,-0.003018310992,-0.001723700901,0.137190937996,0.349507808685,0.073217689991,0.050812412053,0.404395729303,0.121005639434,0.202138856053,0.338687151670,-0.075477540493,1.090651512146,-0.165385186672,0.004103857093,-0.050762187690,-0.328050017357,-0.042767319828,-0.302109211683,0.087272450328,0.036885652691,-0.292230397463,0.355096548796,-0.003792481730,0.057359859347,1.388220310211,0.118451096117,-0.303120166063,0.204134508967,-0.077195338905,0.215515673161,-0.278648704290,0.008532979526,-0.591937184334,0.807961404324
-0.061020277441,-0.452334612608,-0.024991560727,-0.126581132412,-0.562159419060,0.414740473032,-0.117512889206,-0.242100387812,0.020664548501,0.264762312174,-0.502402603626,0.751226365566,-0.200456619263,-0.018998356536,-0.003687645309,-0.072576276958,0.198682025075,-0.001150672324,-0.206990003586,-0.105266503990,0.431122452021,0.044623903930,-0.111527986825,-0.245541080832,0.041735168546,-0.277370393276,0.007925117388,-0.131943419576,0.046737652272,-0.039472594857,-0.060264784843,0.296789705753,-1.326880693436,-0.410552412271,-0.339656174183,-0.211314111948,-0.053135506809,0.078883439302,0.248789682984,-0.585302591324,0.087721280754,0.127992972732,-0.210548654199,0.080129474401,-0.166420400143,-0.275264263153,-0.172980561852,-0.241844117641,0.255607843399,0.010392923839,-0.341503441334,0.709168612957,0.400457292795,-0.022434134036,-0.175825923681,0.054895348847,-0.023122094572,0.019274143502,0.061118844897,0.158038020134,-0.013775247149,-0.745778799057,0.121534578502,0.087886802852,0.178988829255,-0.425041615963,-0.114023350179,0.212901383638,-0.073726765811,0.548963129520,0.086517795920,0.017372442409,0.034865997732,0.330707073212,0.239645630121,-0.467989563942,-0.016341609880,-0.054689463228,0.192986205220,-0.089638806880,-0.159126207232,-0.063934177160,-0.658455550671,-0.211052671075,0.079804949462,-0.147274985909,-0.426658391953,-0.050238531083,-0.221287846565,-0.095536708832,-0.162090361118,-0.004688529763,0.098910905421,0.018422277644,0.053701356053,0.025188066065,0.005116393324,-0.097736716270,0.519255280495,0.022456049919,-0.105309978127,0.269879758358,0.369557708502,0.044492240995,0.028788704425,-0.755818068981,0.013559114188,0.068318627775,0.172001406550,-0.363962411880,0.015806237236,-0.023078402504,0.017324207351,-0.032885357738,0.741270184517,0.243381634355,0.008418211713,-0.146594628692,0.473405659199,0.027534516528,-0.085791766644,-0.165401577950,-0.003712281352,0.072573818266,0.077302083373,0.114339984953,-0.265464544296,0.062154434621
0.164947673678,0.174661174417,-0.457708328962,1.001913666725,0.041322164237,-0.216034248471,0.018820237368,0.068879052997,0.036272697151,-0.012787979096,0.399749934673,-0.217367678881,-0.038150884211,-0.098339870572,0.230400756001,-0.162311136723,-0.390088260174,0.298097342253,-0.173413693905,-0.409061670303,0.489407777786,-0.010697752237,-0.117158606648,0.389667004347,0.400422871113,0.140783756971,-0.213510245085,-0.618392348289,-0.047640942037,0.275417536497,-0.187071546912,-0.357630819082,-0.543234407902,0.117739669979,0.026743426919,-0.432375937700,0.218733683228,0.153097867966,-0.331119149923,-0.466336905956,-0.228084996343,0.048071771860,-0.212968364358,0.128434255719,-0.061725523323,0.530470848083,0.245910391212,0.209966003895,-0.504873335361,-0.125870555639,-0.398913830519,-0.144598409534,-0.192286893725,-0.006311215926,-0.156845182180,0.236154705286,0.046638846397,0.256968259811,-0.291524678469,0.254318326712,0.553636968136,0.223059713840,-0.309179008007,-0.244242772460,0.153613045812,-0.446225970984,-0.062766149640,0.385337293148,0.450953811407,-0.721308231354,0.135404422879,-0.089991897345,-0.573507785797,0.151582777500,-0.227553009987,0.132928311825,-0.604896783829,-0.683777034283,0.122168704867,0.055758181959,0.359922319651,-0.248486742377,0.077281102538,0.286932528019,0.003730843775,-0.193299785256,0.841894328594,0.042005591094,-0.398739933968,-0.228732228279,0.151708990335,0.103695072234,0.462318778038,0.477884203196,0.048746187240,-0.202262207866,0.061328165233,-0.109162949026,0.053304620087,0.110786072910,0.106376700103,-0.094678096473,-1.126801371574,0.540874838829,0.226045489311,0.325070947409,0.270254671574,0.080530598760,0.020359378308,0.033163797110,0.474147677422,0.024194164202,-0.223281383514,0.157533153892,-0.033118531108,0.656754016876,0.025548744947,0.107945553958,-0.257552921772,-0.445115774870,-0.337513238192,0.452050417662,-0.086820527911,0.060794062912,0.144939601421,-0.056304343045,0.602847874165,0.311546206474
-0.214452654123,0.013494038954,0.495099216700,-0.022650709376,-0.049695029855,0.025160301477,-0.033723834902,0.431293904781,-0.041030313820,0.022845838219,0.101552143693,0.523233175278,0.206654444337,0.408708423376,0.282785654068,-0.557137966156,-0.227905437350,0.116306804121,0.073503024876,0.002388855210,-0.143039882183,0.227868512273,-0.270589470863,0.271103054285,-0.011132298037,0.328160375357,0.125661090016,-0.246194526553,0.093700550497,0.043112892658,-0.335285454988,-0.104615814984,1.195870637894,0.291164457798,-0.189522847533,-0.093379728496,-0.377287924290,-0.335167527199,0.083675637841,0.065058209002,-0.208342254162,-0.452896535397,-0.181227296591,0.042869366705,0.020096970722,-0.144931495190,-0.339985728264,-0.067904986441,0.134862542152,0.176429837942,0.058811180294,0.182129934430,-0.300787538290,0.212878182530,-0.445122390985,0.070854485035,-0.047630377114,-0.069118797779,-0.522088229656,-0.088050037622,-0.307856917381,-0.044996477664,-0.572167277336,0.193568766117,0.045043051243,-0.403841972351,-0.236869826913,-0.013492904603,-0.246082320809,0.173945605755,-0.091222852468,-0.274741888046,0.564763367176,0.283803224564,0.430702120066,-0.304493993521,-0.275474697351,-0.211425662041,-0.373051732779,0.217683866620,-0.158475816250,0.032628085464,0.009528671391,-0.351780414581,-0.145779833198,-0.198415309191,0.127413347363,0.116427652538,-0.617820858955,-0.050810169429,0.010559014045,-0.324147969484,0.016276797280,-0.309560567141,0.137148305774,0.205277755857,0.011068072170,-0.053319185972,-0.161281138659,-0.079220376909,0.100179873407,-0.023513507098,-0.275796771049,-0.019316615537,-0.048256188631,0.116262033582,-0.011051184498,0.082379929721,0.624383985996,0.240300014615,0.140054911375,0.073172830045,0.145821720362,-0.200972005725,0.077642388642,0.764904081821,0.031748298556,0.347982943058,0.414049029350,-0.092822574079,0.024841263890,0.521533370018,0.011242578737,0.058469615877,0.069165937603,0.231529086828,-0.406244605780,-0.026317248121
0.329224705696,0.045404519886,0.010346490890,-0.073630116880,0.196045324206,0.359508395195,-0.014133468270,0.173978611827,0.149070158601,0.275996774435,-0.086291328073,0.054345190525,0.028776168823,0.025652647018,0.584482967854,0.141638070345,-0.217607036233,-0.019470693544,-0.217527106404,-0.053232617676,-0.189162269235,0.153311967850,-0.088905073702,-0.151605069637,-0.210776403546,0.274455904961,0.180382296443,-0.036175962538,-0.029299283400,0.034263774753,0.168782636523,0.205288931727,-0.111516959965,0.289835661650,0.231707081199,-0.334904730320,0.014704593457,-0.081844575703,-0.066245712340,0.168392583728,0.213305547833,-0.040620796382,0.481056302786,-0.021769145504,-0.010499320924,0.202105000615,0.139104351401,-0.177853971720,-0.044615447521,0.021974392235,0.208961024880,-0.053173039109,0.383453696966,0.096142791212,0.106474019587,-0.340143501759,0.378049015999,0.146906033158,-0.134930536151,-0.144605249166,0.145019248128,-0.087506890297,-0.074404202402,0.076199725270,0.263624221087,-0.111669868231,-0.084305591881,0.076580882072,-0.171369746327,-0.185721740127,0.403609961271,0.009252164513,0.245456352830,-0.511770963669,0.119452267885,0.133675709367,0.170898601413,-0.070468202233,0.149966090918,0.084234818816,-0.374128431082,-0.186916276813,0.400207817554,0.342100739479,0.037136133760,-0.546396732330,-0.034060981125,-0.063428811729,-0.344626039267,0.152884811163,0.232084304094,0.140697732568,-0.017911618575,0.596998333931,0.000090954767,-0.610869765282,0.079970210791,-0.070806592703,-0.062477245927,0.035860102624,-0.181875422597,0.076281905174,-0.341930031776,-0.731953620911,0.320798844099,-0.189033582807,0.055903907865,0.016904497519,0.084724545479,0.176754042506,-0.097607545555,-0.023094078526,0.276054590940,-0.012627662160,-0.061430897564,-0.197135537863,-0.051535930485,-0.457750737667,-0.175848603249,0.728467226028,0.257970392704,0.631073236465,-0.161980599165,-0.051297444850,0.059582959861,-0.303007900715,0.238164782524,0.035820931196
0.035623129457,-0.249653011560,0.047942630947,0.049971506000,-0.067541800439,-0.034526742995,0.193109169602,-0.435473710299,0.028594382107,-0.024351965636,-0.097296379507,0.021079933271,-0.090276397765,-0.018576210365,0.254050642252,0.050036292523,-0.005725170020,0.052608944476,-0.038216277957,0.839528679848,-0.137770488858,0.446174651384,0.294297099113,0.017005404457,0.022761190310,0.422490209341,0.820323348045,-0.056997813284,-0.147331207991,-0.001419082982,0.016028268263,1.006662726402,0.769618868828,0.246178328991,-0.068796701729,-0.499457329512,0.026559703052,-0.037347424775,-0.580384373665,0.075594343245,-0.177461862564,0.080917663872,0.095605283976,0.002522882074,0.072851665318,0.252125591040,0.235272526741,-0.669301033020,-1.260094523430,0.130610302091,-0.017962411046,-0.028080914170,-0.471553474665,-0.086153998971,-0.217515006661,0.483030915260,-0.073030710220,-0.061547093093,0.248942539096,1.251176595688,-0.372264266014,-0.098474569619,0.179089799523,0.373448759317,0.340440213680,0.015380353667,0.089727163315,0.089169628918,-0.515767276287,0.192323476076,0.037864577025,-0.089474990964,-0.086518973112,0.528813600540,0.079691298306,0.087285242975,0.252096921206,-0.534308969975,-0.035470645875,0.642398297787,-0.165961578488,0.189974799752,0.160647451878,0.108299583197,-1.959403395653,-0.241897925735,-0.033321432769,-0.185334026814,0.019329313189,-0.040155511349,0.024605514482,-0.046299494803,-0.289536058903,0.179453492165,0.020570332184,-0.425338566303,0.208899363875,-0.712350249290,-0.052469283342,0.004089796450,-0.004469903652,0.101832248271,-0.093596860766,0.899686157703,0.050486948341,-0.065105140209,0.237761110067,-0.222856476903,-0.351050168276,-0.037461880594,-0.987742602825,0.435674220324,-0.275763213634,-0.073905825615,-0.059443686157,0.297911554575,-0.020396308973,0.106686159968,0.216504216194,-0.307280629873,-0.045252345502,-0.250571280718,-0.073946058750,-0.194773644209,-0.071720622480,0.170526966453,0.053945023566,-0.005698848050
-0.141793876886,-0.166942730546,0.354870826006,-0.167069569230,-0.155774742365,0.080531038344,-0.237941548228,-0.010211960413,-0.087824448943,0.172674477100,-0.153645902872,0.076573207974,-0.238510712981,-0.185767933726,0.103690870106,-0.069246172905,-0.180890783668,0.675012886524,0.093540787697,-0.072419114411,0.143594101071,0.146236822009,-0.038035687059,-0.125125542283,0.283351421356,0.267800062895,0.290026485920,0.058515638113,-0.213106676936,0.330746918917,0.127081051469,0.125211209059,-1.036823272705,0.240343555808,-0.016311416402,-0.205003172159,-0.026453414932,-0.098141193390,-0.290061533451,-0.248054176569,0.157560989261,-0.338532835245,-0.262777954340,0.119164586067,0.044760998338,0.205350965261,-0.014280387200,-0.072711475194,0.343985438347,-0.013042624108,-0.370384514332,0.016334701329,-0.274601221085,0.021617278457,-0.131728187203,0.140337035060,-0.183986425400,-0.079339191318,0.406041741371,0.007772710174,0.193765223026,-0.166484415531,0.053855113685,0.150325611234,-0.263702869415,0.165961503983,0.182553201914,-0.150176957250,-0.065892815590,0.185240194201,0.487980395555,-0.052797250450,-0.115299396217,0.103883229196,0.133759126067,0.135878577828,0.216249153018,0.600609540939,0.188176080585,0.137803092599,0.319888710976,-0.136873930693,0.109266236424,0.108158029616,-0.312855303288,-0.201022416353,0.488269418478,-0.047646041960,-0.338749259710,0.146535798907,0.048320800066,0.021949980408,-0.136397212744,-0.349070101976,0.082986310124,0.272766441107,-0.107193380594,-0.044448222965,-0.204160109162,-0.227997705340,0.060427241027,-0.438483178616,-0.135337501764,-0.225304216146,0.056511152536,0.052136998624,0.061428993940,0.207814007998,0.317605137825,-0.116457544267,-0.477429151535,0.064813472331,0.112283952534,0.061742909253,-0.078097842634,-0.065506219864,0.021387033165,0.570430159569,-0.111773528159,-0.181096732616,0.020760301501,-0.038066383451,0.281493753195,0.251449495554,0.181799381971,0.081409156322,0.163156524301,-0.173126846552
-0.033667828888,0.184278279543,-0.122364401817,0.060837354511,-0.143536224961,-0.325816214085,-0.027150144801,-0.190548181534,-0.023900717497,0.230821922421,0.063947059214,-0.088331528008,0.246756389737,0.101362206042,0.191035181284,0.059663921595,0.206056147814,0.323837995529,0.085788667202,-0.119953602552,0.108630709350,-0.058228034526,0.240665718913,0.417223751545,0.050410371274,-0.095103196800,-0.250177562237,0.265076100826,0.146727129817,-0.222785994411,-0.002838221611,0.229484692216,-0.245464429259,0.024565653875,0.209015652537,-0.060343865305,-0.520794391632,-0.102343112230,-0.154395699501,-0.058704603463,-0.080740645528,-0.026608796790,0.118840649724,-0.110766969621,-0.017790442333,0.191898405552,-0.189543634653,0.279267191887,-0.180310353637,0.010305677541,-0.379163354635,0.001295964001,-0.126215249300,0.074513077736,0.396611183882,-0.159148082137,-0.151856780052,0.222575247288,-0.186619758606,-0.122163936496,-0.063548818231,1.124982833862,-0.066213034093,0.300725549459,0.187619552016,0.220510065556,-0.349867105484,-0.124335341156,-0.095095716417,-0.090241424739,-0.303705364466,-0.035012327135,-0.061758451164,-0.095333799720,-0.245463937521,0.103568509221,-0.258890002966,-0.218856096268,-0.255254566669,-0.305325716734,0.124702446163,0.011989267543,0.057185895741,-0.078999407589,-0.186536177993,-0.344772398472,2.462992668152,0.018970176578,0.205621927977,0.136533990502,0.136008948088,-0.215007662773,-0.244911447167,0.343392282724,0.022778997198,-0.110153481364,-0.036111794412,0.011628767475,0.271093130112,-0.055121917278,-0.067103005946,-0.017069930211,0.688500821590,0.097369290888,-0.018487129360,0.294604837894,0.015321710147,-0.180073320866,-0.118837952614,0.264897435904,-0.292468160391,0.248027652502,0.217240631580,-0.181947112083,0.205440402031,-0.104234650731,0.005390578881,-0.054665490985,-0.073321066797,0.034187711775,-0.219083189964,-0.075473144650,-0.038839943707,-0.230091124773,-0.241530939937,-0.104472167790,-0.551094591618,-0.099328272045
-0.013443534262,0.183014214039,-0.723576545715,0.164137765765,-2.626601457596,-0.051134299487,-0.066785849631,-0.016189891845,-0.008548279293,-0.090004175901,0.076051838696,1.533648729324,-0.083649054170,0.043296102434,-0.323859333992,0.204732850194,0.187128901482,0.029946133494,-0.012322364375,0.070985116065,-0.078108824790,-0.014784907922,0.228583246469,0.297579377890,-0.003944934346,-0.192976877093,0.070316269994,-0.061963044107,0.136295184493,-0.009604543447,0.155024006963,0.024825857952,-1.078054428101,0.160066142678,-0.016919940710,0.156636402011,-0.254755914211,0.111078083515,0.147569671273,-0.032507006079,-0.152755051851,-0.312026619911,-0.083338402212,0.132771179080,-0.040126193315,-0.716456651688,0.025480853394,0.129666402936,0.219752162695,-0.014923616312,0.099848821759,0.279204189777,-0.310711771250,-0.017077982426,-0.401847273111,0.334455490112,0.058118406683,-0.130935162306,0.105522021651,0.029802415520,-0.405301630497,0.039861578494,0.382078945637,-0.114666044712,0.584350764751,0.245022714138,0.019264979288,-0.032771591097,0.158221378922,0.863179087639,-0.296499013901,-0.096033692360,0.237235710025,0.696072280407,-0.324292719364,-2.358928680420,-0.198553577065,-0.701673448086,0.047194056213,-0.273469448090,0.168755993247,0.117888905108,0.869070053101,-0.010703316890,0.075907684863,1.614444017410,-0.041667740792,0.048857878894,0.359900772572,-0.195016220212,0.196190640330,-0.061335887760,-0.147865027189,-0.511504292488,-0.004731797613,0.528132975101,0.149905234575,0.150997534394,0.153144642711,-0.037577994168,0.067398957908,-0.358947575092,-0.032273754478,0.125085338950,0.465241849422,0.061092801392,-0.065453611314,0.022455692291,-0.084987610579,0.451554566622,0.016768025234,0.141114786267,-0.035314045846,0.076718159020,-0.337941586971,-0.569476902485,0.028879553080,-0.002683984581,-0.024777248502,0.030074197799,0.029646305367,-0.041234441102,0.097524657845,0.150955677032,0.053339861333,0.105186365545,-0.000676122319,-0.132345736027
0.018545567989,-0.037715457380,-0.314392626286,0.044674653560,0.084855042398,-0.002700615907,-0.000917140918,-0.151047468185,0.327422022820,0.041508425027,0.020464971662,-0.004148188513,-0.066666677594,-0.001314565423,0.048794306815,0.037617716938,0.029668768868,0.252847105265,0.506840705872,-0.001330426894,-0.054031390697,0.004176518414,0.164733693004,0.028726452962,0.000276667502,0.050331696868,0.026480633765,-0.009113080800,0.030995437875,-0.043178260326,0.030473191291,-0.537478983402,0.131192237139,0.019737523049,-0.031680561602,0.318292289972,0.036464788020,-0.069192633033,-0.300305396318,-0.072588771582,-0.643383979797,-0.094747930765,-0.581715106964,0.013343081810,0.018206551671,0.039704360068,-0.103537239134,-0.228677645326,0.589202463627,-1.443180561066,-0.082461163402,-0.269906878471,-0.740346550941,0.185087054968,-0.249108016491,-0.011518210173,0.023160267621,-0.042062558234,0.102053575218,0.018958209082,0.026034068316,0.009513183497,0.673913240433,0.037121798843,-0.181687623262,0.476408272982,0.311250776052,-0.047576293349,-0.038946289569,0.012866229750,-0.276020526886,0.007852002978,-0.010764164850,0.008756972849,-0.014096464030,0.101237632334,0.014531249180,0.534290909767,0.029633454978,-0.301782548428,-0.070287048817,-0.009324834682,-0.003078325419,0.121712997556,0.036317396909,0.068711549044,-0.029940929264,0.109405651689,-0.489765852690,-0.026542453095,-0.045564096421,0.017006928101,-0.080692045391,0.083079732955,-0.272883921862,-0.675559818745,0.015682132915,0.090110808611,0.012147562578,0.011298852041,-0.038837857544,-0.074732616544,-0.008974239230,-0.285966485739,0.060803212225,0.033807784319,-0.013301795349,-0.035664249212,-0.105576150119,-0.368660897017,0.025776555762,-0.005980734248,0.052259687334,-0.012117961422,-0.359993815422,0.944305360317,-0.046028465033,-0.185350790620,-0.004988836125,-0.653391838074,0.173545807600,0.136519119143,-0.029331250116,0.005075204652,0.450017631054,-0.031878516078,0.038185466081,-0.016583932564
-0.004780901130,-0.219028726220,0.375701099634,-0.196470752358,-0.087187610567,-0.124808855355,-0.484562188387,-0.189949318767,-0.042705770582,0.353207647800,0.133993193507,-0.044030036777,0.229877129197,-0.061506200582,0.145822897553,0.063023179770,0.265054106712,0.012682969682,-0.091194003820,0.475113153458,0.113994546235,-0.141987428069,-0.024599377066,0.185846954584,0.327226251364,-0.731289207935,0.368730366230,0.133204579353,-0.362808734179,-0.168307363987,-0.085673443973,0.190891325474,0.071977205575,-0.018131554127,-0.221538797021,-0.344529032707,0.241891324520,0.138399556279,-0.340975284576,0.122663162649,-0.015836954117,-0.330426394939,0.212595984340,-0.008783048019,-0.021408969536,0.175428211689,0.029634006321,-0.373821645975,-0.206953182817,-0.009395117871,0.342125624418,-0.063720814884,-0.501333475113,-0.057080321014,-0.043725837022,0.194443121552,0.174027889967,-0.239284202456,0.194058626890,-0.683088958263,0.413299590349,0.004237981979,0.223003745079,0.536961972713,0.048071697354,-0.100070983171,-0.162540346384,0.267542243004,0.397766888142,0.184949949384,-0.163044646382,0.071477629244,-0.217229932547,0.307973384857,0.111349798739,0.051731731743,-0.364823728800,0.007242716849,-0.033902335912,0.073263347149,-0.000767749792,0.016324043274,-0.104607090354,-0.045276667923,0.083181485534,-0.203579545021,-0.226046606898,-0.006800419185,0.233140736818,-0.074447184801,-0.088429190218,-0.008345878683,0.060770690441,0.144256800413,-0.029891610146,0.196552559733,-0.353690415621,-0.210283145308,-0.046703778207,0.038629259914,0.117471165955,-0.072951778769,-0.013241474517,-0.063729293644,0.185621619225,-0.034439623356,0.364028155804,0.233860090375,-0.064093157649,0.036029320210,0.035329185426,-0.523537218571,-0.069022491574,-0.143027320504,-0.078710712492,0.172320544720,-0.049994330853,0.039493296295,-0.028341449797,0.654625177383,-0.042336862534,0.149464443326,0.028101388365,-0.678047239780,-0.150899231434,-0.169086441398,-0.071608707309,-0.078714028001
0.056302100420,0.093328751624,0.242822229862,-0.093688786030,0.028176799417,-0.088015198708,0.205696836114,0.022749699652,0.024027865380,-0.363930433989,-0.072525709867,-0.059104345739,-0.131269156933,-0.127618998289,-0.120559364557,0.034680459648,-0.109441056848,0.255861163139,-0.080983005464,0.370891749859,0.075536794960,0.015016717836,-0.194417029619,0.159523591399,0.042136535048,-0.414834767580,-0.093997508287,-0.014741504565,-0.257712721825,0.159207671881,0.063989393413,0.499910175800,-0.366953730583,0.014305680059,0.117059551179,0.102454140782,-0.217940121889,0.052282042801,0.351566702127,-0.100312136114,-0.139393404126,0.289868921041,0.172799482942,0.017540335655,0.073951922357,-0.007442489266,-0.480000734329,-0.026580883190,-0.231492564082,-0.000864947273,-0.089836530387,0.163663998246,-0.567794322968,-0.082643076777,0.122278690338,-0.116586081684,0.003249646863,0.178943186998,-0.080824740231,-0.167279079556,0.001213590032,-0.059437982738,0.209320440888,-0.080597117543,0.227624729276,0.022291423753,-0.053325042129,0.128342419863,0.123209401965,0.143526151776,0.000506691576,0.045463431627,0.304220408201,-0.153218656778,-0.113109536469,0.035335592926,0.453753381968,-0.015136456117,0.053611285985,0.246991351247,-0.013220167719,1.118521809578,-0.099741883576,0.026015384123,-0.760198473930,0.036935321987,0.150482937694,0.009054529481,-0.133206307888,-0.162678405643,0.242256611586,0.017929412425,0.208801612258,-0.164379954338,0.029059926048,-0.237964332104,-0.549097299576,-0.676682829857,0.029801208526,0.006386290304,-0.294296801090,-0.263885766268,0.027378052473,-0.118591248989,0.064568638802,0.077522069216,0.165642872453,1.142411112785,0.157741546631,0.386006414890,0.028348263353,0.256407946348,-0.293375641108,-0.077195100486,0.164496511221,0.135439008474,-0.004163946491,0.099051669240,0.153018698096,0.351029276848,0.094310089946,-0.099038772285,-0.648350000381,-0.020543718711,-0.436716079712,0.101300090551,0.025247858837,-0.015544646420
