-0.082262590528,-0.051003944129,0.099130913615,-0.039872881025,-0.055106714368,0.135096266866,0.014760569669,-0.190186783671,-0.082443960011,-0.018021410331,0.046507980675,-0.039881765842,-0.004169370048,-0.046396441758,0.015466967598,0.082253225148,0.050648916513,-0.106683343649,-0.102041371167,-0.045890241861,-0.044904127717,0.065798543394,0.047148983926,-0.019764555618,0.003305250080,-0.031811948866,0.047962952405,0.050700843334,-0.026470445096,0.039711840451,-0.003988718614,0.118519127369,-0.062518589199,0.146687895060,-0.012346545234,0.100197911263,-0.014753553085,-0.069212116301,-0.113311417401,-0.107450753450,0.019953913987,-0.013578470796,-0.033980604261,0.055750690401,0.018582304940,-0.155329927802,0.070256263018,-0.033240146935,0.012933600694,-0.082010865211,-0.005851729307,-0.056158684194,0.115467526019,-0.139033094049,-0.013738293201,-0.016197867692,-0.031016610563,0.051559600979,0.009107897989,-0.020634632558,-0.019092794508,0.116929247975,0.058670002967,-0.090059265494,-0.009013979696,0.031900592148,0.035688914359,-0.160003259778,0.026153020561,0.097475901246,0.055200930685,0.062774002552,-0.123002670705,-0.150788754225,-0.054032832384,0.050767943263,-0.074957586825,-0.005957019050,0.016377851367,-0.028678888455,0.153012380004,-0.081225797534,-0.044369678944,-0.025159345940,0.023277083412,0.071248635650,-0.001946275239,-0.043097920716,-0.025230104104,-0.006045686547,-0.020003817976,0.022782500833,-0.092309549451,0.029371600598,-0.021995497867,-0.003956727684,0.011299592443,-0.045528233051,-0.017022635788,-0.001912022359,0.014304364100,0.050382040441,0.053172226995,-0.025340860710,-0.107542544603,-0.126304149628,-0.773366689682,-0.081532001495,0.011633747257,-0.034458365291,-0.036329526454,-0.015629429370,-0.005637370516,0.000279333559,-0.010215654969,-0.003309087129,0.006544003729,-0.095489904284,-0.012237617746,0.002348011360,0.014261000790,-0.042442541569,-0.034812953323,0.002635458484,-0.065481461585,-0.004902605899,0.010684577748,-0.027248635888
0.174977183342,0.050647046417,-0.140253528953,0.030232666060,0.253143161535,0.039220493287,0.049483276904,0.137777611613,0.229427739978,0.177690908313,-0.097194641829,0.175536140800,0.386110454798,0.016791982576,-0.053592160344,-0.150779649615,-0.325989603996,0.214915126562,0.241473928094,0.000925618107,0.107679799199,-0.116708725691,-0.136853322387,0.168905794621,0.054814729840,0.206805258989,0.149348512292,0.168609023094,0.059618584812,-0.173443064094,-0.125786811113,0.146352708340,0.182001575828,-0.163229614496,0.145749062300,0.040174163878,0.096446923912,0.093348070979,-0.032844644040,-0.265516489744,0.107950910926,0.236249372363,-0.789226293564,-0.141761645675,-0.251443326473,0.252345681190,-0.066921375692,0.200662851334,0.035329855978,-0.151060596108,-0.090862914920,-0.221247091889,-0.154187381268,0.681555628777,-0.237971454859,-0.448897570372,0.069456487894,0.216688901186,-0.160739511251,-0.073327258229,0.074154399335,-0.167543381453,0.066671393812,0.213813498616,-0.169198811054,-0.011675734073,-0.309407889843,-0.017554797232,-0.005911820568,0.075289011002,0.322029888630,-0.006009779405,0.177121788263,0.202080324292,0.349657744169,0.157257080078,-0.065345443785,-0.118241399527,0.277231007814,0.142646908760,0.141071468592,0.054929081351,0.275255084038,-0.134393811226,-0.088215231895,-0.049349356443,0.161398917437,0.439052730799,0.076243162155,0.162212029099,-0.249196365476,0.071382105350,-0.046595770866,0.013331841677,-0.025973521173,-0.286625236273,-0.295861363411,-0.157887786627,-0.082107998431,0.009193705395,-0.015436396934,-0.119036473334,-0.163362190127,-0.058706648648,0.030830750242,0.263600736856,0.035622067750,-0.230722963810,-0.024170055985,0.013235646300,0.019468279555,-0.852353036404,0.133280605078,-0.055088888854,0.186377555132,0.105314843357,-0.047150596976,-0.184687092900,0.645679831505,0.088523916900,-0.211172446609,0.003755453741,-0.151473283768,0.066122964025,-0.238460183144,0.122176334262,-0.049618873745,-0.696178555489
0.163497075438,-0.181801363826,0.396233439445,0.091282032430,0.699914753437,-0.018575815484,-0.035650417209,-0.145710110664,-0.244207292795,-0.211387425661,-0.158466473222,0.137751728296,0.010340891778,-0.074294485152,-0.095244914293,-0.110016927123,-0.467024385929,-0.034206610173,0.134833395481,0.039890736341,0.261290967464,-0.134976238012,-0.015357689932,-0.201664879918,0.216866597533,-0.043916333467,0.131177261472,-0.006588381715,-0.082283258438,-0.007415168453,-0.014990871772,-0.119485691190,-0.197968661785,-0.118797071278,0.015249628574,-0.052200965583,0.050638206303,-0.031728338450,-0.127074465156,-0.137206748128,0.121868334711,1.085796356201,-0.359257191420,0.052094634622,0.031120730564,0.160937935114,0.215167388320,0.091175429523,-0.081696651876,0.101424165070,0.088019296527,0.024115882814,-0.077581822872,0.039322562516,0.151047334075,-0.158648118377,0.167923763394,0.281643688679,0.076541535556,-0.022064112127,-0.339625298977,-0.197189033031,-0.011358645745,-0.043395813555,-0.120121523738,-0.048442505300,-0.087230809033,-0.330857604742,0.022673796862,0.059983126819,-0.092931710184,-0.036128792912,-0.860343813896,-0.021682789549,0.081988394260,0.107158280909,0.070029385388,-0.074726775289,-0.104137234390,0.299852520227,0.093648105860,-0.016517540440,-0.006027224939,0.005434778985,0.037838272750,-0.295490324497,0.016372427344,0.022348074242,0.058995738626,0.121153399348,-0.118088342249,0.022118106484,-0.345618337393,-0.131005704403,-0.026224808767,-0.430380284786,-0.054015520960,-0.003982644994,0.041742298752,-0.060212634504,0.161427319050,0.158006399870,-0.056095171720,0.037427347153,-0.088882125914,0.592383682728,-0.487790644169,-0.107420578599,-0.133323490620,0.114474743605,0.031573910266,-0.269114136696,-0.078618742526,-0.012302269228,0.092006392777,0.094661712646,0.030093047768,-0.029714524746,-0.107069872320,-0.027790477499,-0.017309203744,-0.262209862471,0.085843153298,0.126514196396,-0.081560403109,-0.150653630495,-0.033050727099,-0.152055934072
-0.026140699163,0.353346258402,-0.084889702499,-0.040865629911,-0.037438407540,0.213504388928,0.035981163383,0.726775407791,-0.006517047994,-0.011370460503,0.073557093740,-0.001727510476,0.151583388448,-0.161112114787,0.093990527093,-0.123723946512,0.035198550671,-0.059244725853,0.061866011471,-0.082917362452,-0.156730830669,-0.072523154318,0.073873609304,-0.027774494141,-0.024201968685,0.228914305568,-0.231411352754,-0.091314636171,0.065945960581,0.193093121052,-0.186125248671,0.409296125174,0.020615810528,0.099088892341,-0.051310166717,-0.074883274734,0.044609036297,-0.139946907759,0.067136384547,-0.124010622501,-0.185354068875,0.196025326848,-2.018928289413,-0.122123926878,0.069441094995,-0.076126605272,-0.001936241169,-0.049673028290,0.021107632667,-0.003479327541,-0.091808795929,-0.093941286206,-0.097000293434,0.026727527380,-0.068140037358,0.021015675738,-0.002877358114,0.508818209171,-0.343531668186,-0.126616805792,-0.017633007839,-0.087547421455,0.074095621705,-0.139897614717,0.003876850475,-0.033785942942,0.152974337339,-0.011912068352,0.185606673360,-0.214402705431,-0.073369644582,0.133419945836,0.049937147647,0.178363338113,0.013061801903,-0.197347834706,0.237108081579,0.061082646251,-0.084415957332,-0.015550274402,0.170378983021,-0.040339227766,0.168653622270,0.253469377756,0.071512520313,-0.031509339809,-0.156213313341,-0.049475893378,0.019335988909,0.139679148793,-0.096576638520,-0.006254143547,0.015012100339,-0.033624250442,-0.007314062212,-0.168693557382,-0.099612809718,0.000640751678,-0.036175049841,-0.183458402753,0.215322777629,0.088386282325,-0.191471084952,-0.323676645756,-0.117376960814,-0.086042515934,0.703313648701,0.132246643305,-0.210113257170,-0.002259664703,-0.010379488580,0.132294341922,0.348638117313,-0.024770779535,-0.155358850956,0.122439414263,-0.046796012670,-0.009892839938,0.362788081169,-0.435652285814,-0.333821475506,-0.008042917587,-0.073453508317,0.060060951859,0.066343009472,0.046289253980,-0.180834308267,-0.630645394325
0.022383136675,-0.125837951899,-0.135653451085,0.004439883865,0.142027303576,-0.040721427649,-0.018955105916,0.178504705429,0.088457018137,-0.018962441012,-0.028904438019,0.133970290422,0.191039934754,0.103316672146,-0.063740000129,0.087097711861,-0.050131570548,0.214883655310,0.158813074231,0.096639126539,-0.057673055679,0.152401417494,0.011236552149,0.022393487394,0.022881150246,0.215386241674,0.161254793406,0.016543885693,0.031953629106,0.005562355742,-0.024663802236,-0.052998472005,0.053058389574,-0.056166671216,0.111036777496,0.199338153005,0.085334934294,0.014881983399,-0.013541014865,-0.335413634777,-0.074496336281,0.161667823792,-0.864122986794,0.203985065222,-0.066450156271,0.221178933978,-0.096163146198,0.056605622172,0.019918059930,-0.235972598195,0.032760843635,-0.137547567487,-0.269652605057,0.144459962845,-0.005218099337,-0.748748719692,0.003698298940,-0.067127443850,0.032249841839,0.125916555524,0.001506272005,0.062432441860,0.067410692573,0.151003062725,-0.090227104723,-0.279435873032,-0.005738530308,0.154653355479,-0.065950915217,0.051426313818,0.053190775216,0.017145523801,-0.010412435047,0.155415192246,0.326227009296,0.173573210835,0.096274524927,0.055163383484,0.088986895978,0.155498906970,0.019656499848,0.041105918586,0.196890488267,-0.182070583105,0.245460599661,0.249184101820,0.056604173034,0.087416768074,-0.008588808589,0.027208302170,-0.044633354992,0.073434069753,0.003158981679,-0.134430438280,-0.045619018376,-0.723113536835,-0.066037699580,0.039303552359,-0.012084448710,-0.034401949495,-0.231102079153,-0.094531446695,0.061921190470,-0.076045498252,-0.006166241132,0.184847563505,0.186039194465,-0.274961382151,0.024835117161,0.060361627489,-0.035630315542,-0.974801957607,0.097304016352,-0.020165238529,0.081574358046,0.017340891063,0.094246953726,-0.037210922688,0.270479649305,0.091230146587,-0.209190741181,-0.023130463436,-0.063187912107,0.213963836432,-0.012663281523,0.032859981060,-0.024030329660,0.347164660692
-0.036657102406,-0.061835408211,-0.030466899276,-0.022707004100,0.200199052691,-0.059604320675,-0.022816566750,-0.354510992765,-0.338937759399,-0.104813098907,-0.566573560238,-0.192600563169,-0.080562263727,-0.016198484227,-0.069258511066,-0.181800618768,0.134128674865,-0.173368886113,-0.411077916622,-0.107084348798,-0.114323206246,-0.102112665772,-0.015647698194,-0.058697704226,0.053671862930,0.173208653927,-0.203024446964,-0.056579682976,-0.148083433509,0.394463688135,-0.029001399875,-0.109463065863,-0.014819612727,-0.173569679260,-0.141368180513,-0.114141844213,-0.093877643347,0.031431194395,-0.188277199864,0.026643512771,-0.006568108220,-2.632894515991,-0.370610624552,0.082865372300,-0.051173064858,0.030841700733,-0.167859628797,0.040475919843,-0.089259624481,0.596668779850,0.022621072829,0.448014318943,-0.121325984597,0.057984445244,0.051906395704,0.003430385608,-0.065275035799,-0.120804265141,0.142434880137,-0.033050607890,0.102868989110,-0.035188850015,-0.139485463500,-0.144577264786,0.011713025160,-0.154700562358,-0.062018714845,-0.333228081465,-0.178591638803,-0.161453381181,-0.061097480357,0.011872264557,0.140093713999,0.187426760793,-0.030747707933,-0.066488638520,-0.102901302278,-0.043056607246,-0.449225783348,0.084805116057,-0.312141507864,-0.031654492021,-0.022930329666,-0.082478851080,-0.093403354287,-0.157565608621,-0.094333477318,0.020575229079,-0.004393606447,0.065510176122,0.068555973470,-0.040525209159,0.094733729959,-0.064710728824,0.017635626718,-0.095162309706,-0.010236170143,0.063489802182,0.012452166528,-0.061804201454,-0.026278452948,0.040251996368,-0.080670163035,0.140326589346,-0.007255715784,0.799362838268,-0.097973994911,-0.016878811643,0.215644732118,-0.134118646383,0.046940453351,-0.222721442580,0.096093453467,0.032670211047,-0.105209067464,0.010755070485,-0.027587421238,-0.029486773536,-0.072636537254,-0.042995814234,0.009049501270,-0.106265157461,-0.060981571674,0.097701571882,-0.120582334697,-0.143407121301,-0.606261014938,-0.056699026376
0.073978506029,-0.010048025288,-0.058222327381,-0.001757045160,0.145497530699,-0.058633144945,-0.011296038516,0.050914622843,-0.339305907488,0.007989428937,-0.059697717428,-0.011272324249,0.055583838373,-0.275329679251,-0.058403480798,0.004802694079,0.003794372780,0.280950963497,-0.144460439682,0.105791658163,0.007084127050,-0.036280762404,0.036129564047,0.093256667256,-0.078470394015,0.004522203002,0.030682740733,0.072347790003,-0.003669915255,-0.034159898758,-0.075718700886,-0.017099747434,0.182681322098,0.019851908088,0.152733981609,-0.001388863428,0.041256126016,-0.042645700276,-0.088290058076,-0.024550560862,-0.075326919556,0.155453130603,-0.098308272660,0.035829540342,0.033334400505,0.405196189880,-0.121816165745,0.086305603385,-0.058586876839,-0.001765080611,-0.020777005702,-0.012643854134,0.012880303897,-0.117509357631,-0.261840850115,0.057435970753,0.044296629727,-0.045098837465,0.062243711203,-0.057161118835,0.052204955369,0.089798539877,0.068131692708,-0.055333677679,-0.069521136582,-0.265320628881,-0.010148042813,-0.128921911120,0.039310291409,-0.069016128778,0.210667133331,-0.040832616389,-0.062681332231,0.025593815371,0.058776479214,0.255213856697,0.043066658080,-0.049211241305,0.095172315836,0.180712208152,0.044643614441,-0.003018831369,0.159415349364,0.168789863586,0.192903801799,-0.060958754271,-0.059392843395,0.145373359323,-0.070384494960,0.092736162245,-0.052840750664,-0.019938448444,0.042002692819,0.151022687554,-0.045907005668,-0.110720396042,-0.023534325883,0.121206581593,-0.097999371588,-0.049385741353,0.031238805503,-0.083981782198,0.041605807841,-0.005862476304,0.005615965463,0.178221225739,-0.063558757305,-0.036999858916,-0.093233317137,-0.022182026878,0.002992099384,-0.017447078601,0.044431183487,-0.005313576665,0.012171274051,-0.049067456275,-0.005015854724,-0.072759225965,0.024115348235,-0.059873390943,0.058823511004,0.014081092551,-0.139364749193,0.037995982915,0.018537217751,0.095786094666,-0.108736999333,0.029640862718
0.010593185201,-0.017660418525,0.005140831228,-0.002978980076,0.055173397064,0.001845667488,0.022696746513,-0.008517375216,0.077383890748,-0.006985136308,0.015319284052,0.050194025040,-0.019739462063,0.008255687542,0.000968979672,0.025315809995,0.001186836627,0.024319207296,0.018235947937,0.002043505665,0.008336661384,0.009684255347,-0.013775185682,0.012509421445,0.005694330670,0.056897595525,0.022679297253,0.017972590402,0.003162006848,0.017470801249,-0.009485369548,0.009487920441,0.065308190882,0.005393187050,0.046396140009,0.017071798444,0.037827484310,-0.004278817214,0.001579456613,-0.002075309632,-0.016683902591,0.079109169543,-0.016959622502,0.023883432150,0.003513614414,0.169579043984,0.035577636212,0.014183104970,0.024012394249,-0.028903737664,-0.000250070152,-0.005406423006,-0.025595804676,0.003732315497,-0.004260901827,-0.001974347979,-0.001870855805,-0.010997687466,-0.004957912490,0.011512891389,-0.010984567925,0.022270718589,0.027389388531,0.097630620003,-0.001743898494,0.008601468056,-0.006489855237,0.001512214541,0.005384457763,0.026511548087,0.038369026035,-0.004606242757,0.001859526266,0.020394003019,0.302177846432,0.020679021254,0.039786621928,0.008454556577,0.029698679224,0.075890839100,0.009279947728,0.001983185299,0.041003894061,-0.005832077004,0.040468502790,0.077855393291,0.012300334871,0.042151916772,-0.001048047910,0.022834794596,-0.025941012427,0.020642135292,0.009816762991,0.006257018074,0.009451804683,0.009279787540,-0.019394142553,-0.002408369444,0.001797109609,0.010439988226,0.002219760790,0.015481844544,-0.000734935282,-0.015124573372,-0.012621034868,0.050083700567,0.342540085316,0.001941410359,0.007741956972,0.011022489518,-0.002341542160,-0.059874650091,0.028865862638,-0.028513221070,0.003101871815,0.003736985847,0.542251586914,-0.003452038625,-0.005152027588,0.042983878404,-0.005707146134,0.009830614552,-0.009889329784,0.060382578522,0.013022090308,0.005867760163,-0.008361480199,0.065594799817
0.087699003518,0.014157151803,-0.086098343134,-0.028165958822,-0.048667952418,-0.029509620741,0.004972778726,0.044963363558,0.337529659271,0.012824251316,-0.033288005739,0.167499467731,0.080818273127,-0.212341010571,-0.087219633162,-0.000739268551,0.013345280662,-0.076635010540,0.327745079994,0.025467902422,0.057664733380,0.097120329738,-0.079353593290,-0.133226424456,-0.056965045631,0.016231946647,0.051393274218,-0.063203662634,0.036071807146,-0.067402973771,0.016882300377,-0.020548485219,-0.028680372983,-0.008605584502,0.104958258569,0.042873848230,0.081360936165,0.081983692944,0.100287981331,-0.039695404470,0.029894938692,0.164338707924,-0.153132185340,0.173656836152,0.010190291330,-1.061154007912,0.010466324165,0.106798417866,0.048389848322,0.017930576578,-0.078864544630,-0.054639961571,0.037796180695,-0.084779366851,0.089334152639,-0.091017909348,0.084807284176,-0.017837336287,0.046305123717,0.041970025748,-0.109952889383,0.085849016905,0.008607578464,0.141839668155,-0.033083241433,-0.021673951298,-0.053270012140,0.073620140553,-0.232736334205,0.147117048502,0.214832663536,-0.032148964703,0.009812157601,-0.064610116184,0.040566597134,0.293336302042,0.048633463681,-0.055969167501,-0.128599599004,0.118466824293,-0.204941973090,-0.053596727550,0.135193839669,-0.216703534126,-0.064679883420,-0.130304023623,0.017498126253,0.096329599619,0.097738087177,0.062554016709,-0.084555439651,-0.058701001108,-0.092341355979,-0.226884871721,0.007526726462,-0.112229436636,0.021612383425,-0.113302670419,-0.036765843630,-0.035596475005,0.100895956159,-0.124743126333,0.057932265103,-0.040318045765,0.048172518611,-0.093906916678,0.124292291701,-0.011767116375,0.090139903128,-0.000080712067,-0.001188056893,-0.006379439961,0.097630158067,-0.005875941366,-0.000672018738,0.043381564319,0.001623651129,-0.061006609350,0.098911926150,-0.093339785933,-0.013537559658,-0.227214023471,0.015447637066,0.027250636369,-0.024506287649,-0.117423720658,0.027226118371,-0.067094169557
-0.034542310983,-0.204807087779,0.064815200865,-0.085173808038,-0.044002335519,-0.061520732939,-0.012188074179,0.085256859660,-0.283825099468,-0.039643909782,0.129930868745,-0.049370542169,0.039067756385,-0.172265753150,0.116755433381,-0.604278683662,0.000714988564,-0.138347744942,-0.113532170653,-0.075663596392,-0.015334313735,0.054038852453,0.041617300361,-0.020363677293,0.059709958732,-0.025853736326,-0.092327103019,0.200858160853,-0.037033591419,0.030388906598,0.100096195936,0.070908062160,-0.128195747733,0.050077218562,0.020283123478,0.041381254792,-0.044448383152,-0.127277120948,-0.169981911778,-0.062499679625,0.102025456727,-0.039900917560,0.284865647554,-0.104804903269,0.031410031021,-0.283698827028,0.033656731248,-0.003767612390,0.140950411558,0.005915059708,-0.033243209124,-0.447177737951,-0.007117968053,0.269777268171,-0.038296081126,0.216515153646,0.049170184880,0.018437255174,-0.009407704696,-0.004593477119,-0.012020788155,0.096275046468,-0.429841339588,-0.127513542771,0.146931439638,-0.012180655263,-0.061969593167,-0.314954429865,-0.009682434611,0.075503207743,-0.113496966660,-0.261830002069,-0.060412876308,-0.106311559677,-0.069703467190,0.019029341638,-0.118047580123,-0.028213303536,-0.137031465769,-0.070496365428,0.086026519537,-0.076449029148,0.005108942743,0.010182966478,-0.050526212901,-0.019260833040,0.107037991285,0.015660168603,-0.100623391569,-0.001732624485,-0.237018585205,0.105350807309,0.178230583668,0.022557867691,0.022188544273,0.263581544161,-0.024146215990,-0.040149416775,0.226149141788,0.075466096401,0.006283264607,0.139070600271,-0.084403969347,-0.084057070315,-0.312538921833,-0.157907456160,-1.326199769974,0.040017575026,-0.079385660589,-0.044168759137,-0.018305290490,-0.140647739172,-0.161769673228,-0.037418734282,0.998657822609,-0.017249912024,0.028304005042,-0.002038525650,0.062702983618,-0.057604309171,0.142812162638,0.008226129226,-0.130818754435,-0.084429174662,0.052635353059,-0.006928875111,-0.081110857427,-0.126908734441
-0.124609388411,-0.101512640715,-0.325185358524,0.017241973430,0.081599280238,-0.022963715717,-0.003629592946,-0.100924462080,0.120992556214,0.045409094542,0.152019262314,-0.089779503644,-0.261776536703,0.259031116962,-0.237655907869,-0.024859517813,0.067608892918,-0.072601184249,0.025368740782,0.003791195806,-0.040512051433,-0.009946945123,-0.019268706441,-0.053033228964,0.048983387649,-0.001961579779,-0.175347864628,-0.025042099878,-0.059879820794,0.049895115197,0.035556953400,-0.104782752693,0.003877209034,-0.247862607241,0.031117510051,0.123655334115,0.093780905008,-0.061059750617,-0.138278499246,0.444404184818,-0.077394641936,0.215285435319,-0.075080983341,0.105164833367,0.081813827157,0.094749286771,-0.350570082664,-0.003201185958,-0.115021690726,-0.131260856986,0.048901688308,0.236613929272,0.182511508465,-0.426117211580,-0.073844462633,-0.164606854320,-0.028291294351,0.198792934418,0.004938053433,-0.013549093157,0.133266001940,-0.045608654618,-0.132878735662,0.004230556544,-0.027288844809,-0.045058470219,-0.087079048157,0.050546236336,0.028781812638,0.545759499073,0.125188142061,-0.008708560839,-0.076319187880,-0.150396674871,-0.236101016402,0.150842115283,0.042353283614,-0.055089890957,0.126508131623,0.057977601886,-0.020574264228,-0.044739317149,-0.078365691006,-0.066351011395,-0.014650307596,-0.181389123201,-0.146225050092,-0.049422156066,-0.045890461653,-0.035476755351,0.024964211509,-0.009707050398,0.061135921627,-0.070581726730,0.034586973488,0.145911306143,-0.259062111378,-0.038785547018,-0.003967930097,0.119254164398,0.150181278586,0.196814492345,-0.146652415395,0.074335232377,0.160921961069,0.326136887074,-0.839346110821,0.027338337153,-0.028133409098,0.053871143609,0.030606789514,0.072095967829,-0.060052096844,0.021376706660,0.191454917192,-0.017716683447,0.046502325684,-0.168721288443,-0.105338655412,0.309055447578,-0.060198847204,-0.031149305403,-0.032888524234,0.150851637125,0.010358024389,-0.038024917245,-0.168820068240,-0.217875331640
0.147838860750,0.278715074062,0.046669669449,0.133857652545,0.109197027981,-0.060158785433,0.033181529492,-0.191040486097,-0.168575033545,-0.033639118075,0.121018156409,0.028211841360,-0.139516413212,-0.012170105241,-0.059113502502,-0.171502277255,0.106178514659,-0.060750897974,-0.055609244853,0.141284555197,0.022717393935,0.060751095414,-0.188147127628,-0.027187930420,0.063942208886,0.140608072281,-0.002499188762,0.022685779259,0.045075237751,0.175915360451,-0.085693128407,-0.044042479247,0.029550177976,0.024583199993,0.060600355268,0.207698270679,-0.012885484844,0.015308201313,-0.152524739504,-0.021490981802,-0.055749703199,0.184861302376,-0.172822609544,0.213290959597,0.084726549685,0.044656481594,0.050892945379,-0.039913158864,0.084200046957,-0.636556625366,-0.118843175471,-0.339918881655,0.067819535732,0.119277708232,0.010204695165,-0.333167463541,-0.016630915925,0.065412297845,0.025632152334,-0.043681468815,-0.022329542786,0.087248839438,0.098453454673,0.072503454983,-0.004031834658,0.073878832161,0.068871505558,0.183097675443,-0.009944057092,0.042944103479,-0.018890524283,-0.026293486357,0.000081253071,0.109566621482,-0.151363030076,0.102737613022,0.005988372490,-0.010904790834,-0.029563564807,0.022035682574,0.235646516085,0.049524318427,0.108252741396,-0.059288859367,0.155868411064,0.281044244766,0.252161562443,0.057586137205,-0.049416717142,0.033046178520,-0.038417860866,0.083136551082,0.064146660268,0.137683451176,0.021993130445,-0.036740783602,0.031244747341,-0.036084491760,0.059969853610,0.181580424309,0.370016783476,0.015753775835,0.108001954854,-0.029510144144,-0.001991951838,0.173410803080,0.003863507416,-0.040915027261,0.169155642390,0.106528691947,0.024244463071,-0.073517993093,0.127275735140,-0.035594247282,-0.155955865979,-0.033391438425,-0.064287416637,-0.017761467025,-0.016142254695,0.099374584854,0.105519548059,0.147903814912,0.046384330839,0.007552443538,0.090069010854,0.019343385473,-0.089622728527,-0.140085890889
-0.004795116838,-0.000367277971,-0.016441291198,0.151704847813,0.094163306057,-0.185877144337,-0.040186382830,0.183908835053,0.040189210325,0.050704240799,-0.026899944991,-0.053421746939,0.135895699263,-0.138750568032,0.022361237556,-0.157017707825,0.080723330379,-0.167992010713,-0.221429288387,0.022172816098,-0.019326658919,0.041333992034,0.198780775070,-0.142912998796,-0.285086482763,0.137021869421,0.099908955395,0.018462473527,0.033105786890,-0.477100640535,0.100020721555,-0.037822321057,-0.599477410316,-0.159630060196,-0.144047558308,-0.334261238575,0.056024149060,-0.017596036196,-0.444317758083,0.037840742618,0.086827814579,-0.133642822504,-0.071133531630,0.047504883260,0.017585854977,-1.081868290901,0.118418321013,-0.220277398825,-0.054792009294,0.557894825935,0.011548562907,0.477351218462,0.029193667695,-0.232937186956,0.033487059176,-0.072367213666,-0.100149832666,-0.155933827162,-0.201891615987,-0.098432622850,-0.340458273888,-0.087438561022,0.036566525698,-0.143022641540,0.044372443110,-0.200260654092,-0.015372702852,0.025608159602,-0.050601802766,-0.246981501579,-0.041286300868,-0.013421221636,-0.042898572981,-0.151320129633,0.064046777785,-0.158974483609,0.265055805445,-0.220526218414,0.081757515669,0.123470321298,0.075074344873,0.221262454987,-0.021194703877,0.026336275041,-0.276389360428,-0.286394804716,-0.176444590092,-0.219970569015,-0.581650316715,-0.093574009836,0.071877121925,0.117261111736,-0.312746256590,-0.042468082160,0.018847413361,-0.064302779734,-0.039428062737,0.187597438693,0.021858258173,0.025857992470,-0.310554921627,0.081905990839,-0.120164938271,0.042920202017,0.019259219989,-0.132810994983,-1.139316201210,0.231040790677,0.043464161456,0.119121238589,0.049260314554,-0.037634093314,-0.017052225769,-0.041929833591,0.003021264914,-0.006860005204,-0.040231622756,-0.014506565407,0.121831797063,0.003375390079,0.123683035374,0.154853165150,0.155077576637,-0.105472400784,-0.066083997488,0.000828737509,-2.162867546082,-0.051074486226
0.010010088794,-0.004134427756,-0.048633050174,0.038757547736,0.657868504524,-0.038305435330,-0.000424030208,-0.033883530647,0.281327903271,0.057754095644,0.523156642914,-0.105070814490,0.016192220151,-0.260115176439,0.034320902079,-0.280126899481,-0.002585432027,0.185854494572,-0.238978937268,-0.063483633101,-0.107329696417,0.017501000315,-0.039722524583,-0.085060536861,0.040509261191,-0.054375138134,-0.037824004889,-0.054753970355,0.037698116153,-0.804197847843,0.212094396353,-0.047034688294,-0.227162569761,-0.162034198642,-0.114399082959,-0.115777574480,-3.749032258987,0.134453132749,-0.023801932111,-0.036884322762,-0.036983605474,-0.267328739166,-0.210549429059,0.122895047069,0.087892696261,-3.294069051743,-0.138969883323,-0.059352144599,0.042300328612,0.583927929401,-0.020491288975,0.354585081339,-0.061694953591,0.119225077331,0.042924899608,0.006139739417,-0.047854952514,0.021407216787,-0.077989764512,0.173599928617,-0.052694290876,-0.166919574142,-0.116717085242,-0.215100437403,0.006575198844,-0.038856796920,-0.012309477665,-0.003770358628,0.016692508012,0.052723232657,-0.120704695582,0.075167097151,-0.251987934113,0.120373345912,0.032582554966,-0.230045586824,-0.050028651953,-0.091153070331,-0.100371666253,-0.179624095559,-0.031981818378,0.010694074444,-0.113479577005,0.089006341994,-0.372842848301,-0.431937187910,-0.130248248577,-0.185802087188,-0.001001276542,-0.133144646883,0.055460345000,0.013707423583,-0.353041917086,-0.023320747539,-0.028240839019,-0.097088962793,-0.005412240513,-0.026984071359,-0.012739215977,-0.072002403438,-0.025294346735,-0.136679247022,-0.112569808960,0.018755478784,0.017406180501,-0.700898349285,-1.126187920570,0.066086336970,0.018287044019,-0.083159916103,-0.019986607134,-0.172975763679,0.094222493470,0.043387722224,-0.031711000949,-0.035246025771,-0.046191569418,-0.024691350758,-0.003670415608,0.002139177639,-0.179324984550,-0.081962488592,0.054979234934,0.005804462358,-0.098060831428,0.457235455513,-0.095273382962,-0.095961056650
0.104710862041,0.096481233835,-0.037196122110,0.066478423774,0.124421879649,-0.016842147335,0.041755650192,-0.054201960564,0.342117279768,0.054591424763,-0.019918918610,0.063915699720,0.037927430123,-0.020346958190,-0.057299040258,-0.012482635677,-0.038493502885,-0.096095129848,-0.058648135513,-0.019656557590,0.096741132438,0.019197644666,-0.030058173463,-0.010390023701,-0.021596947685,0.194473996758,-0.094726532698,-0.016284178942,0.065987579525,0.011855155230,-0.016057748348,0.058604784310,0.126121059060,0.065556883812,0.093449532986,0.021689875051,0.098546907306,0.008203036152,0.055369935930,-0.042960565537,-0.034012623131,0.224582672119,-0.403860151768,-0.203385114670,0.074317954481,-0.047465380281,-0.220482259989,0.143226936460,0.011794370599,-0.144489109516,-0.051205199212,-0.190788269043,-0.046407964081,-0.006177777424,-0.006888729054,-0.418270051479,-0.056427322328,0.029141351581,0.000044840101,-0.145504519343,0.049372553825,-0.067771837115,0.092077516019,0.058450419456,0.005146339536,-0.066666498780,0.042562477291,-0.090065740049,-0.021561229602,0.003036673414,0.017119111493,0.050043459982,0.009077013470,0.086153313518,0.055149991065,-0.077575691044,0.045891404152,-0.061685070395,0.074734821916,0.016860542819,0.061803571880,0.048490040004,0.185930505395,-0.053261268884,-0.033561311662,-0.008242642507,-0.168521821499,0.247874289751,0.090040490031,0.056581679732,-0.140200957656,0.016177387908,-0.128168463707,-0.111985526979,0.030911898240,-0.282452404499,-0.094927757978,-0.000280854350,0.019148662686,0.059331603348,-0.083830192685,-0.135295510292,0.057308670133,-0.045402854681,0.063366949558,0.010803889483,-0.311786949635,-0.096197292209,0.098371833563,0.052400521934,0.042285572737,-0.012575658038,0.087690226734,-0.023001408204,0.148475110531,0.012478429824,-0.000468475890,-0.025963164866,-0.054480537772,0.127636983991,-0.066211655736,0.044580329210,-0.107945792377,0.007394900545,-0.074368827045,0.066178560257,0.029106326401,0.228151261806
0.294976294041,-0.093281440437,-0.287713289261,0.275161445141,0.304020851851,-0.149873942137,-0.044692229480,-0.057647604495,-0.104327872396,-0.402536153793,-0.488600045443,-0.050416473299,0.007666132879,0.138726204634,-0.045221727341,-0.035438548774,-0.082932382822,-0.179749339819,-0.091544181108,-0.024102384225,-0.055964570493,-0.094017781317,-0.038805425167,-0.029956713319,0.010317470878,-0.180395066738,0.129785954952,-0.096967913210,-0.103139854968,0.025311911479,0.083702102304,-0.158913120627,-0.077910438180,-0.265678554773,-0.087483145297,-0.062585204840,0.044232182205,0.210882082582,-0.005348410923,0.070400997996,0.105659961700,-2.078743934631,-0.034226015210,0.002703739097,0.024733003229,-0.071938976645,-0.081683062017,0.055570453405,-0.044862598181,-0.116365134716,0.069980755448,0.207841739058,-0.374029725790,0.277265936136,-0.015742361546,0.004611064680,-0.114285573363,-0.166312307119,-0.032774511725,0.046370308846,0.008469443768,-0.225145831704,-0.049161475152,-0.087996415794,0.100954607129,-0.070610426366,-0.012299058028,-0.240517958999,-0.672853350639,-0.199713930488,-0.175261050463,-0.094277128577,0.267861723900,-0.357016026974,0.055203292519,0.067054130137,0.049340944737,-0.016693826765,-0.887962043285,-0.211428135633,-0.704908609390,0.020602788776,-0.190524920821,0.015221882612,-0.364867180586,-0.391039937735,-0.398343592882,-0.242756515741,0.176137045026,0.090951204300,0.032597273588,-0.026342038065,0.024822996929,-0.014562920667,-0.016830241308,-0.090021118522,-0.009749992751,-0.056269727647,-0.062490645796,-0.152901202440,-0.090197898448,-0.100723899901,-0.093509964645,-0.003337186761,0.170022472739,-0.097998291254,0.836634218693,0.065867871046,-0.122153811157,-0.110411785543,-0.001505118795,-0.037861451507,0.003722127527,0.047156225890,0.064966946840,0.235199525952,-0.031162951142,0.143841937184,0.133514627814,-0.026450218633,0.045558154583,-0.145375713706,0.089390508831,0.487358480692,-0.083871953189,-0.027295960113,0.162524893880,-0.010009122081
-0.004445341416,0.035369452089,0.077599145472,-0.109392523766,0.084688439965,0.050407797098,0.043061207980,-0.072631813586,-0.049342844635,-0.127416089177,-0.011844268069,-0.006470851135,-0.075697064400,-0.161934942007,-0.098082691431,0.302186846733,-0.037727423012,0.084251523018,0.175882577896,0.320928364992,0.038632757962,-0.101211398840,0.058437772095,-0.069156311452,-0.094537377357,0.259657859802,0.061901573092,-0.104926764965,-0.015959117562,-0.032197631896,-0.166357561946,0.039245247841,-0.013007733971,-0.074933864176,0.046437989920,-0.239709392190,-0.007117841393,0.294354051352,-0.078536301851,-0.061327800155,-0.060289043933,-0.042550068349,0.012949910946,-0.149934649467,0.036499291658,-0.065186955035,-0.105472631752,-0.067286662757,-0.024441398680,-0.132887721062,0.034635648131,0.494897753000,0.241860419512,-0.455206185579,-0.011467637494,0.179536253214,0.056113611907,0.025964438915,0.049798715860,-0.130425915122,0.035030312836,0.029352163896,-0.034112833440,0.049713596702,-0.088952928782,-0.040383860469,0.084236867726,0.037823576480,-0.027902273461,0.012441939674,0.051427200437,0.180943742394,0.035892829299,-0.017443567514,-0.081806115806,0.069348692894,0.186009600759,-0.154865667224,-0.219631522894,-0.007017639931,-0.216573297977,0.280658990145,0.054110988975,0.056980255991,-0.076672352850,-0.318610906601,0.179928585887,0.620176851749,0.098281987011,-0.034736398607,-0.040128577501,0.063172593713,-0.029893485829,0.076002635062,0.015073382296,-0.169468373060,-0.013016384095,0.015224761330,0.046868160367,-0.039031121880,0.107810415328,-0.137321636081,-0.138244360685,0.193619295955,-0.157201573253,0.004258910660,-1.122846961021,0.106626562774,-0.168608158827,-0.108410127461,0.011233751662,-0.213927462697,-0.129280939698,0.016883445904,0.298749476671,0.034703016281,-0.065958894789,-0.100962422788,0.004630511161,-0.000669855217,0.133646458387,-0.023839121684,0.291673749685,0.001012567081,-0.011839060113,0.138941004872,0.064779043198,-0.429995238781
0.036114104092,-0.050326373428,0.018162656575,0.009897625074,0.004547318909,-0.047290276736,-0.008309937082,-0.036878019571,-0.012753908522,-0.023185217753,-0.014028256759,0.015295279212,0.004551434889,-0.009548977949,-0.026262318715,-0.016263972968,-0.026067523286,0.030394358560,-0.021657161415,-0.025533711538,0.023201128468,-0.016355557367,0.005007454660,-0.022354485467,-0.027625091374,-0.039989337325,0.043156977743,0.035665120929,0.068512983620,-0.002829506993,-0.037497419864,0.011682100594,-0.043435491621,-0.077455528080,-0.040151447058,0.010071768425,-0.035772982985,-0.049310911447,-0.030731583014,-0.028576703742,0.003813973861,0.027882661670,-0.016485236585,-0.048534806818,0.007569669746,-0.018630431965,-0.044428378344,-0.040158361197,-0.043159343302,-0.031965542585,-0.010749205947,-0.048592317849,-0.073992669582,-0.050259865820,-0.058482505381,0.035860598087,-0.042516887188,0.035624664277,-0.024080807343,-0.080678120255,-0.031464122236,0.010847355239,0.024196360260,0.005073593464,0.015319790691,-0.021054303274,0.004556714557,0.009543298744,-0.013556803577,0.017856288701,0.029337840155,-0.040470805019,0.013982906006,-0.011850750074,-0.026184124872,0.036262493581,-0.041247107089,-0.051944386214,-0.009650568478,-0.009055746719,-0.018311068416,-0.032383933663,-0.013616749085,-0.027911398560,-0.000235294065,0.011895213276,-0.046458091587,0.054425869137,-0.002560996450,0.006568122189,0.018952924758,-0.004644051194,-0.031074872240,-0.003563597333,-0.014720735140,-0.020466255024,0.016622528434,0.032319024205,-0.053472448140,-0.026815069839,-0.047473199666,-0.039745595306,0.005101814400,0.009793178178,0.002416943433,-0.025982940570,0.006152744405,-0.061571005732,-0.077840283513,-0.061553809792,0.048531457782,-0.090553395450,-0.006210159045,0.023193944246,-0.038624227047,0.000776953704,-0.051914710552,-0.067922629416,0.009268247522,-0.001250728499,-0.038849215955,-0.011389013380,0.010150157847,-0.046831455082,-0.047198601067,-0.044071916491,-0.000622259511,-0.016688236967
-0.056504156440,0.027860885486,-0.021784180775,-0.055662937462,-0.095013357699,0.058336004615,0.021333033219,-0.117413386703,-1.294109940529,-0.142964974046,0.003362932010,-0.082310073078,-0.053491551429,-0.000819068751,0.046182509512,0.011862801388,0.030490394682,-0.066607199609,-0.055471990258,-0.120419204235,0.190115526319,-0.001130836783,-0.023215224966,-0.038833651692,0.012869403698,-0.018644521013,-0.397148042917,0.005699330475,-0.000625816465,0.011693286709,0.066576510668,0.117043428123,-0.088356919587,0.015189082362,-0.206284224987,0.045144490898,-0.039570670575,0.035137303174,-0.096558578312,-0.064772121608,-0.154193833470,0.002373481402,-0.290675759315,-0.186099886894,0.035854537040,-0.044350557029,-0.082495920360,0.026043580845,0.049827314913,0.064886443317,0.020238576457,0.162698224187,0.081047013402,-0.207995668054,-0.015146842226,-0.051729213446,-0.012164457701,-0.017234794796,-0.003099983092,0.095875985920,-0.014593741857,-0.221893846989,0.050713013858,-0.186880812049,0.020076854154,-0.052744902670,0.101120382547,0.004497660790,-0.003799288999,-0.142460674047,-0.206054478884,0.156880691648,-0.031399421394,-0.144998863339,-0.216076716781,-0.195982217789,-0.088555544615,0.010290450417,-0.118495464325,-0.014745756052,0.053334709257,0.062166325748,-0.047333572060,-0.041175745428,-0.122259214520,-0.107380814850,0.015242287889,-0.019295904785,-0.002644472988,-0.081896468997,0.029019033536,0.033222131431,0.000170343905,0.012272287160,0.019403470680,0.193536341190,-0.024979738519,-0.038864903152,0.020708788186,-0.007967758924,-0.088282793760,-0.020143749192,-0.025863839313,0.125161081553,-0.023577423766,0.053482364863,-4.278227329254,-0.028646722436,-0.039990637451,-0.031874481589,-0.041237447411,0.013523132540,0.032463941723,-0.023940423504,-0.184468269348,0.009595863521,0.027434973046,0.100730545819,-0.015358704142,-0.044642023742,0.005151393358,-0.001920830575,0.068404935300,-0.211676761508,0.076213397086,-0.003553423332,-0.083941601217,0.000794032298
0.039301764220,0.080263637006,-0.144349098206,-0.001819261000,-0.054771699011,-0.024547940120,0.000024543449,0.076216183603,-0.167459353805,-0.040514960885,-0.158885776997,0.027609799057,0.069291159511,-0.058632783592,0.010061135516,-0.013215986080,-0.015030519105,-0.015384283848,-0.118019670248,0.204405635595,0.096518479288,-0.018198464066,0.097418859601,-0.059524651617,0.115688934922,-0.130317136645,0.183948427439,-0.039387799799,-0.015710003674,-0.028717096895,0.001529375790,-0.184152364731,0.150033921003,0.155614018440,-0.060634963214,-0.085683189332,-0.087463609874,0.005890523084,0.070159912109,0.044451225549,-0.020906036720,-0.104614190757,0.007266405504,0.021679520607,0.103048667312,-0.068088166416,-0.041413784027,-0.037245534360,0.297271907330,0.061822742224,-0.182368874550,0.164818868041,0.151235729456,0.088581942022,0.030404834077,0.023286137730,0.009101000614,0.009765518829,0.068691805005,0.037039291114,0.010678432882,-0.063940152526,-0.105816699564,0.154579550028,-0.051493547857,-0.113358624279,0.020250119269,0.086373209953,-0.074519738555,0.090608566999,-0.001380553702,0.016818657517,-0.223451241851,0.618228852749,-0.046835221350,-0.381734430790,0.050603605807,-0.010211306624,-0.373468965292,1.108600020409,0.097670279443,0.004450112581,0.653719782829,0.012468473054,0.061603885144,-0.141938909888,-0.067549504340,-0.351361751556,-0.015991071239,-0.031962171197,-0.007443832234,-0.031434975564,0.275839507580,-0.107547819614,-0.054906554520,-0.023651927710,0.000848634227,0.015893608332,-0.087436780334,-0.022266155109,0.001943662413,0.001722757821,-0.008150244132,-0.014311980456,-0.014468228444,-0.188726708293,-0.045314043760,-0.093880884349,-0.144438415766,-0.183006584644,-0.015962714329,-0.027545090765,0.196148678660,0.042631864548,0.025284733623,-0.012747406960,-0.008579270914,0.045202523470,0.031231967732,-0.032577816397,0.038456115872,-0.046631019562,0.068956993520,0.214006587863,-0.014769198373,0.052750486881,0.005164435133,-0.140985026956
0.008282930590,-0.018584053963,-0.294504553080,0.125232160091,0.141078427434,0.050144560635,0.027196621522,0.330241501331,0.151576265693,0.100857496262,-0.007414923515,0.106076277792,0.074486456811,-0.037793494761,-0.022030159831,-0.033142581582,-0.064528457820,-0.019787227735,0.038892079145,0.175100609660,-0.062998153269,-0.181844592094,0.113814890385,-0.079269729555,0.051909770817,-0.069414019585,-0.144832730293,0.014873003587,0.019823210314,0.002008901909,-0.049634318799,0.010434062220,0.169121026993,0.163495838642,0.071537956595,-0.009641338140,0.031751118600,0.137172549963,0.041708871722,0.057985819876,0.004933061078,0.030258471146,-0.552464902401,-0.254197478294,0.002967868000,0.335754901171,-0.114788189530,0.052336975932,0.235082089901,0.055732861161,0.049764551222,-0.035256911069,0.018085168675,-0.264699131250,0.004993584938,-0.061044465750,0.007179938722,0.102707959712,-0.039413735271,-0.129376903176,-0.000304622750,-0.240481585264,0.061675760895,0.287751108408,0.029729979113,-0.122097179294,-0.083502836525,-0.220816403627,-0.127970248461,-0.230407685041,0.136595726013,0.193256050348,0.034513894469,0.082369454205,0.162219882011,-0.072667472064,-0.255734443665,-0.082827694714,0.167516738176,0.098944455385,0.018286913633,0.038947045803,-0.029678881168,0.033980552107,-0.170640334487,-0.134924948215,0.120246782899,0.058044359088,0.037278302014,0.072453565896,0.003700668225,-0.010791204870,-0.118318982422,-0.052696388215,0.008491680957,-0.250229537487,0.045143790543,0.088046334684,-0.049892712384,-0.074597552419,0.039322953671,-0.152573287487,0.166053593159,-0.035771645606,-0.118062883615,-0.152080088854,-0.474382430315,-0.088755570352,0.085676930845,0.006279243622,-0.014950896613,0.116057790816,-0.061899304390,0.045161515474,0.047272160649,-0.040659010410,0.052203472704,-0.062951326370,0.033510424197,0.234996587038,-0.076851367950,-0.039905816317,-0.016084536910,-0.001348191174,-0.254078805447,0.089275844395,0.009399191476,0.339471310377
-0.051020517945,0.054228343070,-0.009920643643,-0.000573076948,0.006713400595,0.006930592470,0.002779325005,0.015404763632,0.114994317293,0.023433802649,0.074205771089,0.107821911573,0.020317770541,-0.019893579185,-0.049766324461,0.165676012635,0.032788153738,0.257306724787,0.232893198729,0.066858738661,0.055895280093,0.059537075460,0.045140005648,0.068680047989,-0.012054264545,0.005086680874,-0.120763719082,0.050433672965,0.005270134192,0.142443120480,-0.017958162352,0.054423686117,0.062909141183,0.061047337949,0.113737754524,0.076371498406,-0.000962946331,-0.003104345175,0.074358403683,-0.081156082451,-0.019014015794,0.013025844470,-0.366511851549,0.229814931750,-0.001140192733,0.215065672994,0.010359423235,0.000535437081,0.027947353199,-0.141687959433,-0.073188044131,-0.134886890650,-0.003335561603,0.104000143707,0.007097293157,-0.371167063713,0.040944274515,-0.021054998040,0.057522598654,-0.070431292057,-0.017649585381,0.066247887909,0.129780918360,0.152896583080,-0.070649065077,-0.046399071813,-0.033499624580,0.008321805857,-0.037954799831,-0.000318114529,0.069383099675,0.008450867608,0.080644600093,0.041816774756,0.117734946311,0.233415782452,0.056935388595,0.058212723583,-0.026138439775,0.115294054151,0.084947168827,0.007287614979,0.119233503938,0.019475329667,0.134816065431,0.328739285469,0.159135997295,0.120653390884,-0.013304788619,0.056902457029,-0.066665314138,0.054947510362,0.071222379804,0.004249398131,0.005553079769,-0.116711571813,-0.118875190616,-0.019586442038,-0.031511303037,0.044448677450,0.052584268153,0.008380766958,0.038677860051,-0.012994723395,-0.025299459696,0.087185874581,-0.097124122083,0.000771946914,0.030489752069,0.047888778150,0.038415361196,-0.797255933285,0.169416248798,0.020068099722,-0.091317780316,0.051839459687,-0.047455862164,-0.066123917699,0.042506564409,-0.093469053507,-0.029404409230,0.034608457237,-0.019766747952,0.048471104354,0.015025486238,0.032811917365,-0.007499402389,0.155537083745
0.048587474972,-0.187962651253,-0.082744702697,0.034670017660,0.103627249599,0.012599421665,0.004511556588,-0.040024828166,-0.207908302546,-0.184944123030,0.012709080242,0.086578883231,-0.089584894478,0.008808091283,-0.101237304509,-0.146811023355,-0.061179928482,0.225943148136,0.404359281063,-0.004962097853,0.049777250737,-0.052712567151,0.098034568131,0.065501905978,-0.029739690945,-0.098942235112,0.024328613654,-0.002888172399,0.092101328075,-0.050131630152,-0.035035517067,-0.034766010940,-0.030261252075,0.048871327192,0.020124394447,-0.068264566362,-0.056948117912,-0.031679790467,-0.129419252276,0.091342084110,-0.042393054813,0.054017186165,-0.130906358361,-0.254242002964,0.013182736933,-0.276739448309,-0.087155848742,0.007786093280,0.076897069812,-0.019259572029,0.056908529252,0.128886669874,0.011645457707,0.011059781536,0.073427177966,0.058712147176,0.047794710845,0.074622623622,-0.066913671792,0.011500579305,-0.077581435442,-0.047325748950,-0.004331169650,0.144436329603,-0.018148018047,-0.090273074806,-0.076506026089,0.084946364164,0.080697238445,0.169057592750,0.131982877851,0.011309541762,0.157018437982,0.109220296144,-0.020587284118,-0.064513072371,-0.009509961121,-0.014405205846,-0.061906959862,-0.004987903871,0.081869684160,-0.033223688602,-0.001404813956,-0.031831577420,0.084765538573,-0.025461103767,0.017025159672,-0.014499387704,0.081489808857,0.019710646942,0.009012921713,-0.042686384171,-0.069658719003,-0.020525103435,0.041988071054,0.049727104604,0.005980402231,0.138981521130,-0.014326870441,0.034319102764,0.008728451096,-0.022603191435,0.035282421857,-0.048998374492,-0.022760679945,-0.123974911869,4.112947940826,-0.003093842184,0.014716959558,-0.013680607080,-0.001291247434,-0.033007875085,-0.084931753576,-0.003524908097,0.083791203797,0.019580692053,0.018173556775,-0.087963126600,-0.032009005547,0.037294030190,0.126932337880,0.009315711446,-0.086915306747,-0.052221979946,-0.025495300069,0.262268304825,0.023521546274,0.091679178178
0.048502404243,-0.025232616812,-0.014651761390,0.027886379510,-0.110677592456,-0.017286818475,0.042830098420,0.150014922023,-0.095131687820,-0.066713809967,0.093791179359,-0.043876301497,-0.009470654652,-0.063058771193,-0.021371802315,-0.068155825138,0.044748522341,0.025874724612,0.016321657225,-0.028949752450,-0.058706980199,-0.018720712513,-0.001217928831,-0.022872237489,0.014378204010,0.056102808565,-0.121047265828,-0.041951708496,-0.064111575484,0.275807231665,-0.022812208161,-0.005056105088,-0.078797399998,-0.088688515127,-0.071815326810,-0.020437140018,-0.093629449606,-0.003328070743,-0.076093927026,0.005638273899,-0.027492342517,0.050260543823,-0.237035438418,-0.076531879604,-0.071675263345,0.039231710136,-0.076297000051,-0.161533638835,-0.256947278976,0.148619830608,-0.006750662811,0.097926385701,-0.070357926190,0.063736557961,0.056298743933,0.002759095049,-0.007831299677,-0.045419730246,0.010816182941,0.058872830123,0.001317175105,-0.117506779730,-0.059958264232,-0.032978285104,0.009824247099,-0.071209587157,0.006338131148,-0.025648409501,-0.073503717780,-0.074810251594,-0.148194253445,-0.049462348223,0.067088782787,-0.133331209421,0.005682261661,-0.153554275632,0.051739305258,-0.014937851578,0.030544186011,-0.348154723644,-0.056303981692,-0.009274996817,-0.146617338061,0.005484797060,-0.071604013443,-0.038971185684,0.123795643449,0.360928565264,0.015285483561,-0.042492751032,0.027977762744,-0.035230826586,-0.003262598068,-0.031240187585,-0.033897925168,-0.071792155504,0.006724091247,0.011182644404,-0.034283187240,0.021347960457,0.022593623027,0.011726075783,-0.000400284305,-0.029286742210,0.009942506440,0.008623190224,1.775682806969,0.019029600546,0.065761059523,-0.048560671508,-0.033792126924,-0.059530161321,-0.019170209765,0.033804859966,0.003463771893,-0.010968930088,-0.021339096129,0.002961260965,-0.007572954521,0.046762187034,-0.010211818852,-0.017184706405,0.017591105774,0.846433699131,-0.025083906949,-0.075352028012,-0.067764021456,-0.024664955214
0.027697488666,0.004723818973,-0.015926484019,0.014988909476,0.051931582391,-0.008546999656,-0.011939863674,0.019436445087,0.029105881229,0.003001761856,-0.033212844282,0.030156854540,-0.020813176408,-0.018844483420,-0.003545014188,-0.033833269030,-0.011657962576,-0.053717646748,-0.063043557107,0.000965666608,0.005212678108,0.013792308047,-0.134351640940,0.002464634366,-0.001144572161,-0.035066481680,0.043440639973,-0.022906605154,0.000422835903,-0.041453134269,-0.007438975386,-0.015740869567,0.117133602500,-0.005312533118,0.023171361536,-0.010597568005,0.054157000035,0.008873885497,0.004914450925,0.004575096536,0.013219991699,-0.009685164317,-0.012759655714,-0.102248825133,-0.076740391552,-0.014211809263,-0.010697730817,0.020736664534,-0.047102525830,0.078214064240,0.003572474001,0.039216961712,0.054882667959,0.025400217623,-0.009504477493,0.010004107840,0.002714278409,0.004500507377,-0.013392269611,-0.000054470802,0.004415031057,0.040109261870,-0.028259767219,0.136102855206,0.006144486368,-0.023356229067,0.006865365896,-0.004767355975,-0.008961807936,-0.007307897788,-0.070426434278,0.010411124676,-0.009717991576,-0.000356840232,-0.077423729002,-0.086224734783,0.043818242848,-0.020186275244,0.085642777383,0.024666076526,-0.023477939889,0.011778787710,-0.056166879833,0.010250521824,-0.012728742324,-0.081918895245,-0.031834311783,0.055010858923,0.015615316108,0.046707674861,0.017384318635,-0.022914396599,-0.013584082015,-0.012392440811,-0.036899998784,-0.030266037211,0.013524170034,-0.002024640096,-0.008250689134,-0.013050517999,0.010670684278,-0.053786419332,0.004521744791,0.014596849680,0.014124128036,0.111435219646,3.051011562347,-0.023684065789,-0.029050812125,-0.027137573808,0.009255507961,0.173997804523,-0.018853422254,-0.062885254622,0.016791805625,0.002016818151,0.093460202217,0.006759263109,0.006130202673,0.046248007566,0.026573946700,-0.005837226752,0.008057795465,-0.005873611663,0.002198995557,0.000262767862,-0.007302707061,-0.031809214503
0.238237589598,0.409593641758,0.109905414283,0.078291587532,0.420983761549,-0.007150707301,0.042747765779,-0.226517930627,0.766762077808,0.030806681141,-0.245114624500,0.074404910207,0.322630822659,0.056486714631,0.130278721452,-0.562280893326,-0.215355858207,0.007994579151,-0.331123977900,0.146320030093,-0.117820598185,0.136561840773,-0.235588252544,0.031236313283,0.176830902696,-0.131828933954,0.032544542104,-0.115174226463,0.021589891985,0.038137558848,-0.127699032426,0.074926547706,0.222730278969,-0.251917243004,0.166613861918,-0.001633332227,0.725342690945,0.139041632414,0.331639438868,-0.102795481682,-0.101857170463,0.101582616568,-1.263007760048,-0.176174193621,-0.093480557203,0.060082454234,-0.888598084450,0.270049333572,-0.023444516584,-0.286855220795,0.250188171864,-0.312536716461,-0.267962127924,-0.537407040596,0.000687629450,-0.001367041143,0.380596041679,0.328269004822,-0.437049090862,0.171858996153,0.057798147202,-0.063919469714,-0.080752998590,0.058976877481,-0.230948507786,-0.337770134211,-0.072377055883,0.001470230869,-0.091102622449,0.119587384164,-0.068928435445,0.064806655049,0.733847081661,0.132100656629,0.307387471199,-0.184894487262,-0.076443709433,0.062738619745,0.441680788994,0.402686178684,-0.042861063033,-0.026078656316,0.149910658598,0.013874090277,-0.094056598842,-0.147449001670,0.163218230009,0.116133794188,0.291103303432,-0.004702124745,-0.104801163077,0.102929987013,-0.438668340445,-0.273972719908,-0.032794233412,-0.549221336842,-0.370991379023,0.095557510853,0.202401250601,-0.126632869244,-0.040932815522,-0.247281178832,0.020355191082,-0.013709067367,0.187281414866,0.313443690538,-0.077151976526,-0.483844190836,-0.029817268252,-0.085879884660,0.047349292785,-0.911194920540,-0.008345503360,0.060295030475,0.145546615124,-0.102718710899,-0.018179263920,0.068473406136,0.308840185404,-0.375752866268,-0.420534223318,-0.001221460639,-0.249945342541,0.133629009128,-0.171487316489,-0.080521076918,-0.211507260799,-0.866477549076
0.189454153180,0.485866904259,0.042559884489,-0.139133781195,0.662172973156,0.011225400493,-0.046243716031,0.225392833352,-0.272990345955,-0.210572481155,-0.074708469212,0.712366878986,0.330366194248,-0.012874939479,-0.080816432834,-0.366853982210,0.247779846191,0.267643988132,-0.112036503851,0.187424987555,-0.195359632373,0.121113054454,0.400764942169,0.121445216238,0.237353697419,-0.004423401784,-0.054138809443,-0.210909992456,-0.011454112828,0.183557227254,0.005398066249,0.089904807508,0.382158458233,0.001355699613,0.128234714270,-0.196520730853,0.169475629926,0.162339493632,0.038002599031,-0.038067366928,-0.095664516091,0.192020595074,-0.178776159883,-0.447552919388,0.040103662759,0.240461662412,-0.370983511209,0.210460647941,0.079072855413,0.323890924454,0.152188733220,-0.068914033473,-0.174595639110,-0.582257032394,-0.039703566581,0.174434214830,0.288002520800,0.640003383160,0.054566953331,-0.099684208632,-0.102324746549,0.023404717445,0.048369839787,0.285788178444,-0.012985857204,-0.067411050200,0.201126918197,0.427126735449,0.171095028520,0.283596605062,0.045201323926,0.173732087016,0.101159580052,0.082980230451,-0.177168697119,-0.167824774981,-0.009350047447,0.397714674473,0.198527246714,0.205253899097,-0.037361737341,-0.001923003001,0.064904011786,0.133480086923,0.046929743141,-0.012602923438,0.085986621678,0.012757563032,-0.207722514868,0.214053720236,0.000750023406,-0.071877367795,-0.498001784086,0.003956814297,-0.007715959102,-0.107877083123,-0.052279409021,0.170862048864,0.008250771090,-0.250079542398,-0.058108728379,-0.240295723081,0.088748417795,-0.223870217800,-0.135092914104,0.170439839363,-1.397226452827,0.034202206880,-0.046629980206,-0.025512980297,0.015853056684,-0.077903389931,-0.089447557926,-0.001693769358,-0.166887551546,-0.800777614117,-0.157211795449,-0.218341335654,0.208281010389,-0.406050205231,-0.186488896608,-0.073073491454,-0.111404761672,0.058418057859,0.154577746987,0.016965012997,-0.337851971388,-0.620540261269
0.155890241265,-0.050431407988,0.095759570599,-0.007635470945,0.307129383087,0.019471013919,0.001529326430,0.155825078487,0.060312148184,0.077053576708,-0.043785609305,0.214950874448,0.145268395543,0.159480750561,-0.096131615341,-0.204450309277,-0.204657882452,0.022679641843,0.258483916521,0.088871978223,0.261589556932,-0.158588573337,-0.133438065648,0.275106489658,0.158579736948,0.258164137602,0.179018706083,0.055079352111,0.020093956962,-0.156448930502,-0.090827584267,0.117191359401,0.289286136627,-0.152054354548,0.092571035028,-0.036980170757,0.083097688854,-0.015273625031,-0.293588310480,-0.351117044687,0.056640796363,0.169139742851,-0.886999011040,-0.296232491732,-0.138724595308,0.133397519588,-0.420216947794,0.184345409274,0.118093900383,-0.130291476846,-0.004849797580,-0.304608196020,-0.263480395079,-0.005530054681,-0.181191936135,-0.610915541649,0.153733372688,0.417318612337,-0.072409100831,-0.034260746092,-0.149428278208,-0.245206072927,-0.039549242705,0.235490262508,-0.072676695883,0.278507739305,-0.239493370056,0.128589764237,-0.116032920778,0.164031773806,0.242267027497,0.079879805446,0.041719201952,0.223571196198,0.455398410559,-0.045165605843,-0.210145384073,-0.000967060041,0.267049431801,0.225313708186,0.072030127048,-0.038495030254,0.332826673985,0.047737572342,-0.252273678780,-0.083513811231,0.118203625083,0.386826783419,0.003848240711,0.209959909320,-0.243492543697,-0.001846012427,0.056510809809,0.162911489606,-0.032730329782,-0.429281115532,-0.286713719368,-0.194523051381,-0.082958601415,0.061443440616,-0.205399841070,0.037006963044,-0.035477507859,-0.073528364301,0.085382141173,0.162220209837,0.029189808294,-0.149677619338,-0.145419090986,-0.023861451074,-0.033274497837,-0.663442969322,0.020395008847,0.022732809186,0.037576630712,0.082510828972,0.049062352628,-0.218403503299,0.278406023979,0.144968137145,-0.140341818333,0.053600188345,-0.070443764329,0.046956714243,-0.042942121625,0.173926949501,0.056606896222,-0.404131382704
0.007678552996,-0.017646089196,-0.025374777615,-0.005145282485,-0.136525556445,-0.110860489309,-0.019999753684,-0.104831159115,-0.306107282639,-0.283972829580,-0.024435225874,-0.477424263954,0.035215027630,-0.081537730992,-0.115116052330,-0.185961455107,-0.111407108605,0.812758326530,-0.247319042683,0.144702732563,-0.189607471228,-0.060872767121,0.164819851518,0.107656739652,0.027640180662,-0.094038486481,0.081450022757,0.007154544815,-0.130858570337,-0.018569879234,-0.022169485688,0.099060297012,-0.067940309644,0.011238576844,0.041625842452,-0.062697805464,-0.035652976483,0.036120090634,-0.082365095615,-0.000528258563,-0.118124544621,0.240379974246,0.268631845713,0.114812098444,0.010568616912,-0.330917716026,-0.093092925847,0.022991543636,0.026067856699,-0.269674181938,0.060259185731,-0.016372062266,0.019069550559,0.188799574971,-0.247917383909,0.054115757346,0.057729709893,0.027043504640,-0.026639157906,0.086713790894,-0.028878128156,0.036671645939,-0.017578963190,0.462141215801,-0.082797974348,-0.015683332458,-0.123352274299,0.184340268373,-0.008083979599,-0.116646394134,-0.161078825593,-0.192013636231,0.057513937354,-0.119406580925,-0.024392120540,0.059689939022,-0.069640211761,0.025614645332,-0.287139683962,-0.182088837028,-0.017265522853,-0.000819581735,-0.089302822948,-0.043573979288,-0.313614428043,-0.150449231267,-0.066217251122,-0.018819835037,0.113154545426,-0.065368466079,-0.056260395795,0.051237795502,-0.009245350957,-0.218124270439,0.035768970847,0.010541992262,-0.033167663962,0.117031283677,-0.073369190097,-0.043687894940,0.048471283168,0.081667758524,0.083046548069,0.045296590775,0.113478034735,0.070131450891,-0.667657136917,-0.004834903870,0.059620954096,0.004278028384,-0.025076262653,-0.080837883055,-0.069777026772,-0.046224448830,-0.001925778110,0.006345442031,0.000985227991,-0.004324982874,0.029908280820,0.015186819248,-0.193436667323,0.061262432486,0.118361450732,-0.042811989784,-0.013877873309,-0.071001395583,-0.112359426916,0.001238397788
0.013013146818,-0.052358180285,0.123237349093,-0.019312668592,0.097902469337,-0.055528569967,0.037128392607,0.364006370306,0.133528590202,0.012308241799,-0.059089615941,0.029939923435,-0.027067968622,-0.001766963745,-0.032759793103,0.050431005657,0.064904287457,0.356434911489,0.612292408943,-0.252323687077,0.055449578911,-0.022199166939,-0.219333484769,-0.003362471703,-0.047834459692,0.035311806947,-0.048338904977,-0.031984187663,-0.024863211438,-0.075041040778,0.064450606704,-0.142001032829,-0.065873004496,0.041469044983,-0.004458438139,-0.082998104393,0.028696624562,-0.011568850838,0.016058987007,0.121813885868,0.059067379683,-0.112989753485,-0.025946142152,-0.038943067193,0.010211306624,-0.026169681922,-0.164581716061,-0.068974092603,-0.002676267177,-0.163223668933,-0.091251976788,-0.023563388735,0.139361590147,-0.051742963493,-0.075616948307,-0.008115218952,0.056764308363,-0.026741862297,0.058129664510,-0.003166439245,0.105671562254,-0.082025729120,0.601312518120,-0.324888467789,0.015203846619,-0.250011891127,-0.032368436456,-0.112893141806,-0.099087320268,0.012600511312,0.083451114595,-0.002101671183,-0.045687053353,-0.268362939358,-0.069249279797,-0.253805071115,0.028389714658,0.012982524931,-0.098675645888,0.222417861223,-0.077514849603,0.051893468946,-0.030424416065,-0.018133262172,-0.079045943916,-0.159773558378,-0.113804161549,0.239051505923,0.043027106673,-0.066778726876,-0.030168399215,0.049945894629,0.030591394752,-0.058973506093,0.009245116264,-0.040310569108,-0.041678015143,-0.106110073626,0.106891743839,-0.048525046557,-0.003715486033,0.009064998478,-0.096683055162,0.011041171849,0.086685173213,-0.042633775622,0.099430315197,0.018996186554,-0.083647951484,-0.056260563433,-0.019263302907,-0.002765108598,-0.073411665857,-0.030783073977,0.127495273948,-0.013982085511,0.014612731524,-0.006007775199,-0.053548093885,-0.008544794284,0.098165467381,-0.028033981100,0.032762736082,-0.063145175576,-0.095948025584,-0.079375118017,0.041859958321,-0.017746539786
0.043788228184,-0.133089259267,-0.090575590730,0.045808456838,-0.100254930556,0.075867868960,0.012702052481,0.071852058172,-0.076164387167,-0.076609820127,0.050027675927,0.036845084280,0.077028326690,0.058506701142,0.050705049187,-0.124089911580,0.142579913139,-0.022465249524,-0.003001641948,-0.165261134505,0.021912597120,-0.126587852836,0.014838607050,0.102554269135,0.095361478627,0.034281644970,0.041926119477,0.069804474711,0.181724324822,-0.142468810081,-0.097178161144,0.180376186967,-0.029130943120,0.093695916235,0.016254875809,-0.119848348200,-0.020669907331,-0.107250742614,-0.115340627730,-0.181055828929,0.001432111138,0.088097259402,-2.478062868118,0.021592747420,0.029957586899,-0.082261368632,-0.268591761589,-0.063982591033,0.058199636638,-0.213118284941,-0.104353852570,-0.136146366596,0.072732061148,-0.243338376284,0.135776817799,-0.052240461111,0.070920079947,0.087181776762,0.078763373196,0.017052043229,-0.090664617717,-0.036063637584,0.097011052072,-0.193685606122,-0.051584165543,0.147335201502,-0.017092211172,-0.154700249434,0.238115519285,0.621042609215,0.105162873864,-0.006361180916,0.163163617253,0.178698867559,0.083036437631,0.196153476834,-0.105713613331,0.057868473232,0.017445595935,-0.075483955443,-0.011212889105,-0.101500369608,0.204776555300,0.030041618273,-0.069622837007,0.402983933687,-0.055109441280,-0.143606513739,-0.047416236252,-0.019896160811,-0.089135296643,0.079781942070,-0.032314546406,0.211532995105,0.001084830030,-0.324293464422,-0.166428640485,-0.011244191788,0.018869422376,0.011471808888,-0.168535470963,-0.024614844471,-0.017661361024,-0.157635360956,-0.080864578485,0.087770447135,-0.223756149411,-0.161364659667,-0.133317336440,0.052486229688,0.009175932966,-0.204601570964,-0.156398177147,0.013651921414,-0.121711805463,0.008395745419,0.099657341838,-0.167858451605,0.110985733569,-0.147715091705,-0.009577671997,0.090953283012,-0.121483005583,0.094881162047,-0.044225275517,-0.115435205400,0.129780635238,-0.080658830702
0.070180207491,-0.107196189463,0.014384959824,0.011938818730,0.092499293387,-0.067771054804,0.023267494515,-0.006461333483,0.219406113029,-0.109455309808,-0.095781169832,-0.036100320518,0.032686222345,-0.031991526484,-0.025050375611,-0.003446903080,-0.104852721095,0.088696666062,-0.209611326456,-0.018149821088,-0.050970941782,-0.034986536950,0.063702799380,0.044881995767,-0.011499095708,-0.055621128529,0.044825796038,0.035027749836,0.105968877673,0.086492396891,-0.101319424808,0.002169948537,-0.139187902212,0.023774605244,0.034235063940,0.448800146580,-0.126524373889,-0.029851350933,-0.224379554391,-0.009110957384,0.008483098820,0.082824178040,-0.272899657488,-0.037159781903,0.020304286852,-0.041540119797,-0.081955432892,0.039342660457,-0.051934786141,-0.068602167070,-0.007369978819,-0.002744107740,0.043994795531,-0.146242588758,-0.211104974151,0.025409331545,0.004834269173,0.011123089120,0.040995642543,-0.066720783710,0.083822622895,0.071823187172,-0.088651455939,-0.382700115442,0.006901737303,-0.123941808939,-0.010285779834,-0.089972078800,0.013717910275,-0.170736551285,0.036779951304,-0.001176386490,-0.040170796216,-0.085318982601,-0.001123485505,0.094080902636,0.005429049488,-0.017289336771,0.029057279229,-0.113131053746,0.171713471413,0.017939643934,0.011379935779,0.097145222127,0.029731376097,-0.028589403257,-0.188885957003,-0.052526280284,-0.112878382206,0.024968134239,-0.032690498978,0.000841304252,0.059779331088,0.151750415564,0.036336798221,-0.016939910129,0.016935063526,0.212909296155,-0.090223900974,0.004440485500,-0.073414400220,0.029111845419,0.009491405450,-0.013457369059,0.003147378564,-0.046969346702,0.576822757721,0.012902629562,-0.048743903637,-0.056734260172,0.031242674217,-0.011090342887,-0.006582854316,0.009441785514,0.067712597549,-0.030075337738,-0.012641805224,-0.043618485332,0.028655307367,0.010055587627,0.256554454565,0.098278716207,-0.039362598211,-0.039630614221,0.017801303416,-0.000497226894,0.043339658529,-0.044150609523
0.043940361589,-0.021954607219,0.021232325584,-0.043870922178,-0.059832062572,-0.012216215022,0.006183958147,-0.011657124385,0.029318192974,-0.086464054883,-0.040588129312,0.028414415196,-0.024540066719,-0.046415098011,-0.071264132857,-0.010636067018,-0.067889772356,-0.013450291939,0.017810815945,-0.047414314002,0.033584017307,-0.022728733718,0.006540332455,0.012269594707,-0.043369926512,0.035739548504,0.018456496298,-0.054298829287,0.036156941205,-0.004830593243,-0.042807646096,-0.028406651691,-0.025811033323,-0.042352989316,0.015484607778,-0.035813514143,0.008928525262,-0.021468907595,-0.037136722356,-0.051693532616,-0.072086609900,0.023744275793,0.014479757287,-0.042108178139,-0.047613769770,-0.012816513889,0.021185118705,-0.023029580712,0.005296143703,-0.057402197272,-0.047025144100,-0.027029229328,-0.028067508712,-0.024308802560,-0.058583002537,0.029264604673,-0.018282728270,-0.008111785166,0.023023871705,-0.070123724639,0.014353415929,0.026527082548,0.003053887980,-0.023120563477,-0.067563869059,-0.051794577390,-0.069628484547,-0.018668480217,-0.038089729846,0.003268128494,-0.036846980453,-0.038147155195,0.032250080258,0.039502091706,-0.004714718089,0.009309628978,-0.068078361452,-0.071718014777,0.036446653306,-0.037115398794,-0.088493414223,0.009969493374,-0.021983470768,0.004557496402,-0.028220633045,0.002603279427,-0.049768935889,0.037545472383,0.038726538420,-0.031462412328,-0.019467296079,-0.031005775556,-0.049958936870,-0.037053290755,-0.035381317139,0.005335844122,-0.049770202488,0.003046053927,-0.040875941515,-0.070307061076,-0.049336157739,0.018049526960,-0.071197196841,-0.032132696360,0.005621017888,0.026843862608,0.019284909591,0.012425657362,0.027410311624,-0.045848783106,0.019871877506,-0.041117757559,0.007985918783,0.022731665522,-0.004639768042,-0.055983368307,0.001920080162,-0.024651998654,-0.075791761279,-0.048244081438,0.013343636878,-0.041247524321,-0.010794955306,-0.050775911659,-0.039099052548,-0.025672717020,-0.023045318201,-0.035798851401
0.107203766704,0.523672342300,0.205781847239,-0.038990054280,0.035837024450,-0.043243173510,0.009923520498,-0.000629006710,0.272768497467,0.205725833774,0.014543509111,0.357831358910,0.156158894300,-0.147084146738,-0.089708723128,-0.149159803987,0.039980210364,-0.033777847886,0.280556887388,0.211333155632,0.187016159296,-0.172974795103,0.150429189205,0.195557087660,-0.011597644538,0.136522620916,0.134049147367,-0.141645774245,0.153577223420,0.152410686016,-0.080188825727,0.133014842868,0.101017013192,0.213714227080,0.209479495883,-0.137252464890,0.099595837295,-0.077903211117,0.146204099059,-0.136460810900,0.163115084171,0.160899460316,-0.065038956702,0.287173599005,-0.087008275092,0.512291967869,0.162615939975,0.094807721674,0.028624914587,0.102197125554,-0.171796679497,-0.170979022980,-0.108386740088,-0.016705222428,0.109833590686,-0.001584798796,0.181002408266,0.285746008158,0.096306852996,0.164609685540,-0.017575852573,0.199080497026,0.316684424877,0.147549346089,0.037704885006,-0.156737789512,0.253420233727,-0.013117638417,-0.245882242918,-0.086598090827,0.121312201023,0.598973631859,0.096194140613,0.128445774317,-0.055592596531,-0.033555194736,-0.004540006164,0.026115734130,0.141989186406,0.121049068868,-0.115186564624,-0.021254004911,0.109446123242,0.201081335545,0.004287377931,0.223403170705,0.148224055767,0.094438321888,0.103215292096,0.122374795377,-0.050266746432,0.022858271375,0.044927757233,-0.047046735883,-0.013478828594,-0.007846756838,-0.112611249089,-0.075593583286,0.083895184100,-0.123610138893,-0.098119415343,0.007258336060,0.027529872954,-0.027325503528,-0.066832065582,0.083218276501,2.606669425964,0.113163828850,0.121644310653,-0.035223804414,-0.001542244456,-0.570356130600,0.095085754991,-0.021837955341,-0.122826263309,0.081626944244,-0.161675691605,0.158601328731,0.029441546649,-0.341377884150,-0.125463619828,-0.155453369021,-0.101104587317,0.076465278864,0.108146183193,0.064212843776,0.042747501284,-0.686387121677
0.047503452748,-0.039122670889,0.069323100150,-0.000776112021,-0.089857488871,-0.062926717103,0.021669682115,0.004961601458,-0.166893839836,0.017832912505,-0.039416864514,0.116226203740,0.022716620937,-0.090418286622,0.080713607371,0.158899724483,0.002179623349,-0.189916238189,-0.213844642043,-0.059886798263,-0.032233741134,0.195151895285,-0.017453711480,-0.026990441605,0.173877105117,0.102752961218,0.023595266044,-0.044632334262,0.035990223289,-0.096648558974,0.015904309228,-0.048651020974,-0.118392437696,0.027272047475,0.062034193426,-0.034298226237,-0.138982445002,0.019670084119,-0.162344649434,0.064512513578,-0.041695665568,-0.035834867507,0.422588944435,0.311750233173,-0.048721645027,0.085599981248,0.088721834123,-0.117948152125,-0.034088984132,-0.064595244825,-0.035988721997,0.098057143390,-0.013521255925,-0.084725007415,0.063050709665,-0.017420409247,-0.022932078689,-0.044926699251,-0.050775337964,0.047172747552,0.077506177127,-0.111099548638,-0.062301054597,-0.043565142900,0.010747263208,-0.068978697062,0.042296890169,-0.052702125162,-0.120452046394,-0.084100209177,0.013410717249,-0.025084594265,-0.234003916383,-0.061810743064,-0.056213855743,-0.012010162696,0.049328122288,0.000443852157,-0.034191429615,-0.194713562727,0.001480702893,-0.065675117075,-0.053604535758,-0.214690893888,0.785911023617,0.095420353115,-0.094223298132,0.158050373197,0.086190596223,-0.065148346126,-0.002267926233,0.011543611065,0.041750144213,-0.137317478657,0.015490529127,-0.081502109766,-0.011076110415,0.047106649727,-0.055273409933,-0.075338684022,-0.013940887526,0.109550312161,-0.053695496172,0.101353108883,-0.038559950888,-0.956650793552,0.703754842281,0.040811952204,0.087391063571,0.013457215391,-0.021447537467,-0.068504922092,0.177588120103,0.025567045435,0.104420833290,0.023630378768,-0.015460236929,0.036071050912,0.060070443898,0.018922206014,0.044002208859,-0.016714207828,0.012719022110,-0.080306388438,-0.180833429098,0.043108791113,0.027077173814,-0.052271801978
0.217106863856,0.035580612719,-0.242028713226,0.072224475443,0.061851080507,0.101807169616,0.044639386237,0.043195389211,-0.236593589187,0.050195917487,-0.025717746466,-0.026992881671,0.210196942091,-0.244267180562,-0.008654377423,0.092592842877,-0.104500658810,-0.033913068473,-0.200956627727,0.268710970879,0.030433729291,0.075476594269,0.183629482985,-0.047546420246,-0.016095060855,-0.181953608990,-0.017144553363,-0.038806840777,0.201341658831,-0.123463302851,-0.072055786848,-0.078800976276,-0.004024878144,0.174630805850,0.389847993851,-0.085080824792,0.041828807443,0.014683132060,-0.244532644749,-0.032498732209,-0.129185065627,-0.164665102959,0.253223478794,-0.131941646338,0.044892340899,-0.330654591322,-0.140642136335,0.418730497360,0.052174001932,-0.242431014776,0.057664416730,-0.059086162597,0.045353177935,-0.444932937622,0.020085006952,-0.009131224826,-0.020978005603,-0.100317254663,-0.003197024111,0.026104155928,0.016451401636,0.157775297761,0.417310595512,0.358953565359,-0.121709041297,-0.078148879111,-0.120127610862,0.072009086609,-0.068379543722,0.025166310370,0.251514464617,-0.000964374980,-0.137178450823,-0.006496358663,0.010007786565,-0.043217461556,0.035528197885,-0.140731126070,0.068260870874,0.587946295738,-0.121651679277,-0.014464421198,-0.158872395754,0.039591010660,-0.167327269912,0.091031059623,-0.145974919200,0.015127370134,-0.070083513856,0.017067281529,-0.104673042893,0.005255356431,-0.118503846228,0.095334015787,-0.009791059420,-0.307444930077,-0.119636982679,-0.131616562605,-0.086584180593,-0.026561219245,0.098291866481,-0.064163178205,0.177314996719,-0.016600437462,0.007081112824,-0.038570474833,-0.020807916299,-0.406300842762,-0.003964218777,0.069776512682,-0.051406186074,-0.260449647903,0.060765907168,-0.013977812603,0.115821160376,0.063410475850,-0.000446115417,0.048037767410,0.093880064785,-0.172138571739,-0.173928737640,0.027308482677,-0.019493658096,0.562023401260,-0.075404912233,0.270715922117,-0.074611827731,-0.051316723228
0.116063274443,0.108580574393,-0.152574941516,0.025811888278,0.118352808058,-0.012499856763,0.037585973740,-0.109853066504,-0.209019511938,0.100393332541,-0.038252606988,0.173096626997,-0.014362764545,-0.069705225527,-0.110398493707,-0.202432900667,-0.138528585434,-0.055846396834,0.650324106216,0.211236566305,-0.266682177782,0.050873752683,0.040365859866,0.190398350358,-0.028749823570,-0.084476687014,0.016616920009,0.043058574200,0.225600019097,0.077553980052,-0.070696651936,0.195154219866,-0.171597868204,0.106102354825,-0.169983685017,-0.071326196194,-0.129512682557,0.100946061313,-0.079687163234,0.072204910219,0.073829978704,-0.116121210158,0.527276635170,-0.288740009069,-0.064880453050,0.108671434224,-0.090206004679,-0.134905040264,-0.126400649548,-0.241384744644,0.088433593512,-0.170961484313,-0.040861126035,-0.075570568442,0.072634711862,-0.350692063570,0.101376041770,-0.271301507950,-0.050903789699,-0.102045170963,0.077247105539,0.021770564839,-0.118339747190,-0.269983500242,-0.089838221669,-0.005340901669,-0.046335790306,0.132708489895,-0.175124719739,-0.031228585169,-0.152171820402,-0.211016505957,-0.104921333492,-0.173629313707,-0.103847064078,0.182553276420,-0.127890944481,0.034417968243,0.786916494370,0.113279283047,0.026470759884,0.122323706746,-0.074506111443,-0.159749418497,-0.025190616027,-0.225195243955,-0.182197824121,0.028776131570,0.098799958825,0.059440642595,0.020437184721,0.086875237525,-0.107302531600,0.061509322375,0.023747321218,-0.162089839578,-0.033037256449,-0.006629934534,0.036769084632,0.145983681083,-0.027795247734,0.006676632445,0.070067211986,0.089893110096,0.192510515451,-0.006434693467,-0.741571187973,-0.015692375600,0.058927506208,0.122676603496,-0.048776578158,-0.088665664196,-0.073997184634,-0.021205089986,0.067604586482,0.064336828887,-0.009835662320,-0.029062561691,0.108459055424,0.077174127102,0.030378885567,-0.173400983214,0.028990894556,-0.123558402061,-0.042770855129,0.281322181225,-0.210591897368,0.032946988940
-0.027741879225,-0.022342272103,0.019087608904,-0.112083815038,0.013823457062,-0.000830378034,0.018287438899,-0.042458157986,-0.252402663231,-0.048700276762,-0.094632677734,0.099545426667,-0.004069983028,0.091066479683,0.000642465136,-0.015323041938,0.065839521587,0.053783722222,0.053364757448,-0.089637510478,0.144586369395,0.155314058065,-0.038327265531,0.016567004845,0.033172730356,-0.069276206195,-0.107477746904,-0.050846789032,0.040542040020,-0.115772977471,0.080708324909,0.145532757044,0.040034480393,-0.085929170251,0.060988821089,0.114648260176,0.018241994083,0.028635740280,-0.029040291905,-0.089914247394,-0.021762980148,-0.152920067310,-0.103652432561,0.172593653202,-0.006566927303,-0.231443077326,-0.016199437901,0.068196021020,-0.025282971561,0.076076000929,-0.050317175686,-0.022524787113,0.154980868101,-0.250656038523,-0.004209965002,0.199733734131,-0.016703736037,0.035756628960,-0.023533275351,0.010377222672,-0.041254956275,-0.117790482938,-0.019725795835,0.085041634738,0.034013640136,-0.058133430779,0.175368547440,-0.106662802398,-0.023454349488,-0.062252439559,-0.018417611718,-0.000471455540,-0.021773925051,0.057838272303,0.027379827574,0.171278402209,0.009937806986,-0.080576054752,-0.155228629708,-0.033600945026,0.007663219701,-0.027996510267,-0.076377205551,0.093569487333,0.145653173327,-0.472809523344,0.023392470554,-0.072412043810,0.005352979526,0.031250838190,-0.023952141404,0.131804198027,-0.027870293707,0.064353391528,-0.037700295448,0.151999026537,-0.019226126373,0.019983230159,0.007580230478,-0.052113767713,0.045677158982,0.059944160283,0.074387326837,0.045713100582,0.021810511127,-0.234443709254,-1.308700084686,0.054412815720,-0.055559359491,-0.055173628032,-0.007150093559,0.008480652235,-0.002522840165,-0.030226428062,-0.006137112156,0.020686103031,-0.004305772949,0.023909950629,0.017036302015,-0.031671762466,0.001592968474,0.028035983443,-0.025382544845,0.059230830520,0.111669927835,0.034136451781,-0.238127946854,-0.076514296234
-0.599478721619,-0.015478952788,-0.022016299888,0.034415841103,-0.003860568395,0.027902405709,0.015316461213,0.038834273815,0.117491208017,-0.011998578906,0.000709189160,0.167290389538,-0.029447857291,-0.035606291145,-0.005372102372,0.127435386181,-0.026680614799,0.002008035313,0.018706506118,-0.022869324312,0.028654003516,-0.027313664556,-0.027203239501,0.009220107459,0.106098808348,0.052950836718,0.060570225120,0.020373141393,0.026708837599,0.011779845692,-0.014631597325,0.030566180125,0.099029980600,0.144882023335,0.038960151374,-0.068277277052,-0.023745268583,-0.007154743653,0.009326288477,-0.087757177651,-0.054351020604,-0.044471286237,-0.096450142562,0.065523654222,0.137303441763,0.070373952389,0.005933829583,-0.068155728281,0.013662527315,-0.189196497202,0.019958620891,0.220191434026,0.016905901954,0.052691850811,-0.050631549209,0.009290428832,-0.012887651101,0.032072626054,0.120109766722,-0.054937198758,0.031618226320,-0.036143790931,-0.025470731780,0.011762960814,-0.019047448412,-0.051065243781,0.090828813612,0.000832292251,-0.089075140655,0.095520161092,0.125519618392,0.015475127846,-0.025354824960,0.122235506773,1.210239648819,-0.131157532334,-0.034437805414,0.024935685098,0.025472970679,0.231911808252,-0.003313962603,-0.030268475413,0.024802062660,0.054813001305,0.095501542091,0.035289265215,-0.136403992772,0.040990520269,0.025416785851,0.012841443531,-0.103109374642,-0.003389260732,0.051784213632,0.028764124960,-0.001136935316,0.030501209199,-0.029652236030,0.002602878027,-0.021285291761,-0.020106611773,0.029458204284,-0.024098411202,-0.037774384022,-0.001465293812,0.012512453832,-0.029058651999,2.679646968842,-0.040611125529,-0.058209247887,-0.028472682461,0.042492583394,0.020965060219,0.052376151085,0.010930604301,0.149227201939,0.060282945633,-0.011094897054,0.038816127926,-0.047190669924,-0.015039298683,-0.006480050273,0.020835829899,0.007096280344,0.097702316940,-0.020706612617,0.001753454679,-0.063617512584,-0.044618148357
-0.019156605005,-0.063528671861,0.060476690531,0.012315446511,0.016032084823,0.039031427354,-0.047071818262,0.062398049980,-0.099918171763,-0.060543682426,-0.120369978249,0.075708337128,0.078876294196,-0.241188004613,-0.015820421278,0.105947189033,0.075548015535,-0.079615168273,-0.078602321446,-0.082689851522,0.174480527639,0.157070636749,-0.086902409792,0.128382787108,-0.117552272975,0.032004129142,-0.281899571419,0.049845475703,0.031699385494,-0.099147066474,0.100624434650,-0.056665509939,-0.039568953216,-0.110347568989,0.028826287016,0.109599091113,-0.017438726500,-0.003723097034,0.002930811141,-0.004900920670,-0.079983435571,-0.243496030569,-0.373016476631,0.113482661545,-0.085237056017,-0.429003447294,-0.019890930504,-0.004000221845,-0.024376386777,-0.097332842648,-0.130025118589,-0.041826266795,-0.053630691022,-0.186461150646,-0.020541127771,0.077525250614,-0.031412113458,0.136095210910,0.148576810956,-0.131267055869,0.002044724301,0.326918363571,0.055488988757,-0.254791527987,0.060695596039,0.009487385862,-0.102716155350,-0.172137916088,0.096940070391,-0.077237688005,-0.111492179334,-0.050802964717,0.134393975139,0.021734962240,-0.045055370778,0.134776785970,0.181985050440,-0.012041003443,0.178240433335,-0.141872763634,0.106147587299,0.035280156881,0.056502491236,0.140639603138,0.159986630082,-0.237790256739,-0.216758325696,-0.085575319827,-0.068635247648,-0.062804885209,-0.000281084125,-0.015610385686,0.057825259864,0.058304112405,0.025159545243,-0.116010367870,-0.059625230730,0.033686436713,-0.018626514822,0.059703376144,0.042919542640,-0.042284179479,0.037642274052,0.026974515989,-0.035388622433,-0.418308019638,1.056129097939,-0.042794972658,0.131843239069,-0.060094989836,0.011176371016,-0.041485305876,1.134849548340,0.009215859696,-0.028577120975,0.019865276292,0.017029043287,-0.034312158823,-0.021663278341,0.107801616192,-0.138482093811,0.010452856310,-0.007344028447,0.122190967202,-0.177134782076,0.033337686211,0.032349247485,0.032260667533
0.018963938579,-0.109210170805,0.162816166878,-0.164211660624,-0.251257210970,-0.007468269207,-0.032270256430,0.017788978294,0.114776976407,0.089995510876,-0.081593036652,-0.069378122687,0.117111459374,-0.127652987838,0.022726379335,0.212216332555,-0.098842300475,-0.081212788820,-0.083031646907,-0.004735443741,0.148916676641,-0.016430972144,0.113048963249,-0.068228743970,-0.051959559321,-0.380613714457,-0.077984623611,0.203297913074,0.033196680248,-0.073667451739,0.081127561629,0.546475708485,-0.089693345129,-0.192044571042,-0.139347180724,-0.189887210727,0.081178292632,0.001605544123,-0.118438966572,0.087978444993,-0.161860480905,0.188696190715,-0.010532092303,-0.188791662455,0.087307415903,0.073829241097,-0.464389324188,0.178973004222,-0.003669691039,0.400782704353,-0.120719514787,-0.019445428625,0.111138418317,-0.352690905333,0.091899387538,-0.070631109178,0.061296865344,-0.240195736289,0.073951385915,-0.037860564888,-0.055616799742,-0.186046138406,-0.115318723023,-0.107216164470,-0.084591351449,-0.007411878556,-0.014568565413,-0.013666681945,0.039038326591,0.186827346683,-0.105700276792,0.193526789546,-0.052037067711,-0.347386807203,0.119606256485,-0.220656499267,0.018716221675,0.090039797127,-0.188153043389,-0.100277148187,-0.129219621420,0.011412762105,-0.338131606579,0.186130940914,-0.166598454118,-0.761914253235,-0.123164713383,0.134989529848,0.036572713405,0.035450406373,0.008731454611,-0.081153638661,0.108978316188,0.096758536994,0.000756304013,0.422203928232,0.002097573131,0.067357636988,0.223776802421,-0.088631160557,-0.152609720826,0.092369861901,-0.282065898180,0.040649361908,-0.136193618178,0.091126970947,-1.712334513664,-0.050173975527,-0.159224942327,0.074773721397,-0.035329148173,0.010266685858,0.974082767963,-0.016617989168,0.084415152669,-0.057276114821,-0.017678704113,0.017872605473,-0.071647413075,-0.105709582567,-0.002248494653,-0.224694997072,-0.022594913840,-0.077631548047,-0.087531916797,-0.021096212789,0.137639507651,-0.170072957873
-0.190094292164,-0.126864954829,-0.172808393836,0.117000699043,0.181954309344,-0.014549828134,0.047241557389,0.491063117981,0.240763783455,-0.065150834620,-0.110615260899,0.032481551170,0.074856474996,-0.146179497242,-0.315250456333,0.261120110750,0.039539717138,0.055205445737,0.196769014001,0.169455811381,-0.068197622895,0.021262334660,-0.096010752022,0.027090003714,0.075903952122,0.117549419403,0.025351930410,-0.020145727322,0.135281622410,-0.007329372223,-0.164675712585,0.034903459251,-0.069835796952,-0.167396098375,0.031718201935,0.103763900697,-0.001698015607,-0.041837785393,0.305311232805,-0.116235964000,0.248222738504,0.003898285562,-1.049320459366,-0.102731518447,-0.192062914371,0.473504811525,0.123201124370,0.103768251836,0.034062787890,-0.109204642475,-0.064425364137,0.257864534855,0.120437517762,-0.291082024574,0.048289433122,0.006814466324,0.112334035337,0.180438891053,-0.118406109512,0.107492186129,-0.069846101105,0.086529135704,0.220472350717,-0.040119431913,0.090245105326,-0.142578467727,-0.061683628708,-0.002502302174,-0.048122119159,0.315006107092,0.110949657857,0.243821844459,0.032135244459,-0.042076531798,0.066560305655,-0.100772194564,0.260199815035,-0.062880411744,0.208290666342,0.396130144596,-0.025675280020,0.115551263094,-0.027343707159,0.066514611244,-0.104218572378,0.030239662156,-0.342369884253,-0.063328139484,-0.067540533841,0.020070178434,-0.010508186184,-0.162093892694,0.055295944214,0.172675430775,0.042888823897,-0.326368927956,0.026292273775,0.004140004050,0.216604888439,0.103852383792,-0.070363707840,-0.007770235185,0.240502223372,-0.104061178863,-0.118628717959,0.064229212701,0.282832920551,0.075678728521,0.322749167681,-0.272848099470,0.040532115847,-0.218799412251,-0.030517695472,0.009956889786,0.050492495298,0.127606973052,-0.081609547138,-0.031639821827,-0.007951553911,-0.159759834409,-0.255148738623,0.092826813459,-0.034220002592,0.198627412319,0.314525932074,-0.014709434472,0.236147776246,-0.297187119722
0.128811806440,-0.194577887654,0.008222532459,-0.093929797411,0.014580117539,-0.056966386735,0.042050346732,-0.160556420684,-0.065022982657,-0.027269417420,0.056057713926,0.143908411264,0.154960244894,0.102547027171,-0.021131493151,0.143949508667,0.021106148139,-0.074074856937,-0.066582806408,0.086937353015,-0.167418211699,0.132936924696,0.083125874400,-0.037050809711,-0.033642333001,-0.091781109571,-0.083686448634,-0.099770791829,0.063921242952,0.068049356341,0.091493427753,-0.072559699416,0.118250004947,0.052179943770,-0.051197197288,-0.024363296106,-0.073552131653,-0.033321764320,-0.069761700928,0.008412019350,-0.117827825248,0.053649980575,-1.633944153786,-0.031394794583,0.159054145217,-0.013439470902,-0.005382927600,-0.008288925514,0.007445885800,-0.332194358110,0.238595813513,-0.019409693778,-0.075064569712,-0.149193465710,-0.040045574307,-0.488597512245,-0.008011386730,0.071914762259,0.221589356661,0.146075412631,0.048855431378,0.115064628422,0.155574157834,0.194807559252,-0.044773202389,-0.078206047416,-0.009417662397,0.141262680292,-0.027830796316,0.041699811816,-0.129415273666,0.102458819747,-0.045363869518,-0.149344757199,-0.142152920365,-0.084360130131,0.652164459229,0.136638939381,0.041730612516,0.136034563184,-0.005516927689,-0.058044839650,-0.143751800060,0.080708868802,-0.006408832502,0.248065128922,-0.166627407074,-0.255635380745,-0.074921295047,-0.094958908856,-0.009820266627,0.029340637848,0.028711199760,0.025466606021,-0.037307623774,-0.242321342230,0.051829885691,0.022716015577,-0.117009960115,0.194526255131,-0.059128969908,0.330963194370,0.074282512069,0.004977025092,-0.030381070450,0.002343659056,0.011195984669,0.075162589550,0.002098514000,0.075929678977,0.030888115987,-0.657801032066,-0.049744628370,0.067228250206,-0.054634783417,-0.014864920639,0.137026578188,-0.084281109273,-0.061344008893,0.177260860801,-0.333524554968,-0.042475353926,-0.235989257693,0.055275946856,0.364702552557,0.025219703093,0.039286475629,0.382035136223
0.190027385950,0.151559844613,-0.038686260581,-0.031474012882,-0.180447071791,-0.001291960827,0.033973690122,-0.022698359564,-7.901686191559,0.142914444208,-0.019047919661,-0.626188516617,0.133499294519,0.005827784073,-0.047267545015,-0.123197332025,-0.154287382960,-0.137474760413,-0.163640484214,0.039046797901,-0.142404690385,0.033544410020,-0.119185388088,-0.222169190645,0.026497609913,-0.072620347142,-0.010662845336,-0.036577083170,-0.001430926262,-0.033884141594,-0.053911745548,0.107714489102,0.662115395069,-0.066652089357,0.182926535606,0.067173860967,0.298079401255,0.060293402523,0.067531839013,-0.092723026872,-0.026521736756,-0.024756383151,-0.310489833355,-0.111057318747,0.091014005244,-0.003960445989,-0.491744160652,0.282876998186,-0.037326339632,-0.039822135121,0.096636541188,-0.088860549033,-0.194727614522,-0.040433023125,-0.081009678543,-0.097832381725,0.098050154746,0.100037246943,-0.007130552083,-0.068962417543,0.200902238488,-0.020681999624,0.013475866988,-0.330419063568,-0.103119976819,-0.286294788122,-0.166021645069,0.067052461207,0.002841114067,0.218924134970,-0.054433181882,0.064048767090,0.129419401288,-0.072158098221,0.064062163234,-0.146750286222,0.007358029950,-0.024580178782,0.156647294760,0.172527059913,-0.007671775762,-0.045768313110,0.006423761602,0.014495702460,-0.055913064629,-0.025017041713,0.146780475974,0.083929739892,-0.026703229174,0.173226594925,0.029486738145,-0.047736801207,-0.233356356621,-0.151227250695,-0.000619107217,-0.207976326346,-0.068508818746,0.306176990271,-0.005956043489,-0.027808116749,0.062377180904,-0.230431452394,0.028307987377,-0.004832684062,-0.034838847816,-0.084891252220,-0.000566688250,-0.167808294296,0.044051319361,-0.022369462997,-0.001010415494,-0.081374324858,-0.069822221994,-0.021981071681,0.043204419315,-0.344481110573,0.012094575912,-0.060586761683,0.051750119776,-0.110364168882,-0.164041176438,-0.039244130254,-0.092875115573,-0.059910036623,-0.051232941449,-0.148002922535,-0.141765847802,-0.111925840378
0.282535463572,0.460346370935,-0.158357605338,-0.004095701035,0.039247352630,0.061417616904,0.042728871107,-0.272659897804,-0.041953921318,-0.057244479656,-0.013964339159,0.105641253293,0.027614690363,-0.093661054969,-0.108056023717,-0.098256222904,-0.111011631787,-0.095886141062,-0.022334041074,-0.079588063061,-0.087478578091,-0.043234590441,0.106021434069,0.132955163717,-0.239297792315,0.064247913659,-0.305662035942,-0.148405134678,-0.023715771735,-0.050800148398,0.042216747999,-0.085735008121,0.123575672507,0.111064314842,0.092149980366,-0.115086846054,0.013314292766,0.042694576085,-0.080103114247,0.034819420427,-0.177132517099,0.005652958993,-0.488664209843,-0.112999126315,0.163583844900,-0.313568443060,-0.297303676605,0.001194705605,0.120884880424,-0.130025669932,-0.064936511219,0.093697980046,0.173968747258,-0.358715057373,-0.190703660250,0.175639778376,0.017939221114,0.130206540227,0.158270463347,-0.127799347043,-0.051190312952,0.154296204448,0.280178725719,-0.089189641178,-0.008997778408,-0.071998000145,-0.031191689894,-0.071369834244,-0.157822683454,0.138917341828,0.184282436967,0.013884738088,0.048070594668,-0.035168904811,-0.269131839275,0.098465897143,-0.100540794432,0.064331941307,-0.038908746094,-0.149641633034,0.038959916681,-0.046895582229,-0.012520032004,-0.066980227828,-0.098676867783,-0.093694023788,-0.221828535199,-0.133064687252,0.041359029710,0.023492023349,-0.078791208565,0.025653475896,0.051797587425,-0.062527827919,-0.000214224652,-0.288825064898,-0.054964251816,0.000532701903,-0.139008581638,0.129487290978,0.051807954907,0.069801039994,0.100198261440,-0.139704495668,0.072923883796,-0.225834012032,-0.332805335522,-0.026488484815,0.028853489086,-0.031167056412,-0.000782929768,0.029070226476,0.075917191803,-0.075432866812,-0.116323880851,0.159516006708,-0.048741359264,-0.268723130226,-0.159245938063,-0.143228948116,-0.071201846004,-0.000253246195,0.000730836997,0.204144820571,0.142499908805,0.012439219281,-0.204941689968,0.333785623312
0.099452599883,0.102337695658,0.066607676446,-0.128104776144,0.043752893806,0.073872677982,-0.043904237449,-0.043098013848,-0.016118109226,0.037351954728,-0.022958265617,0.001351537299,-0.009869697504,-0.006270356942,-0.196355536580,-0.291069567204,-0.071435198188,0.017152834684,0.067856788635,0.060784354806,-0.007695810404,0.108450263739,0.050327099860,0.085310533643,0.128567844629,-0.015665426850,-0.092481829226,-0.099797457457,0.048768673092,-0.092977263033,0.034270878881,-0.013101682067,0.034481953830,-0.104372173548,0.058431457728,0.031855523586,-0.001476828707,0.061077300459,-0.095031477511,-0.039441868663,-0.063508570194,0.026216253638,0.025588858873,-0.061486225575,-0.028085850179,-0.134193047881,-0.151010707021,0.064693801105,-0.061627995223,0.140437304974,-0.055474828929,-0.175004273653,-0.025702353567,-0.410987764597,0.068566411734,0.032503284514,0.012959358282,0.012858562171,0.030548295006,0.023073017597,-0.001276400872,-0.055561371148,0.470831543207,-0.024789324030,-0.091773800552,0.108445651829,-0.029275951907,-0.068339325488,0.026462489739,-0.040874749422,-0.056967575103,-0.180514097214,0.056536518037,-0.255250126123,0.021884851158,-0.118631288409,-0.021584803239,-0.033720456064,-0.013407872990,-0.101196326315,-0.016625566408,0.055863857269,0.001114214421,0.016975754872,-0.042499568313,-0.065181806684,0.073976941407,-0.010743441992,0.065329767764,0.020422806963,-0.219767332077,0.182661399245,-0.146685406566,0.203594028950,0.047978289425,-0.037092451006,-0.015746589750,0.055739969015,0.016372175887,0.028833236545,-0.013845737092,0.057947464287,0.105532631278,-0.044462285936,0.511639297009,-0.002245441545,-0.960413813591,0.122373402119,0.047373391688,-0.020891183987,0.034942399710,0.008687768131,0.038008511066,0.043160140514,-0.039010025561,0.019187826663,0.004990755115,0.024881102145,0.030057026073,0.021964520216,-0.001399284462,-0.019873753190,-0.076602399349,-0.005880786572,-0.032160200179,0.056471657008,0.064911790192,0.055065754801
0.004002081230,0.197967946529,0.121418431401,-0.348743349314,-0.011078950018,-0.072418063879,-0.027004154399,-0.423231899738,0.020914228633,0.005346452817,0.163916826248,-0.161036908627,0.213756620884,0.149884417653,-0.006154024508,-0.520972669125,0.143760040402,0.027095178142,0.026529325172,-0.054274655879,-0.024641038850,-0.088158831000,0.178176805377,0.022423377261,0.048896729946,-0.033578969538,-0.397085160017,0.083882324398,-0.114153362811,0.024944037199,0.088001392782,0.065334931016,-0.176172062755,-0.044428195804,0.030222779140,-0.023837922141,0.016138536856,0.168696910143,-0.217836692929,-0.221249952912,-0.030741423368,0.090635843575,-0.455415606499,-0.001393387793,0.124197885394,-0.032032351941,-0.076034441590,-0.002077021403,-0.060783635825,-0.046912603080,-0.058703225106,-0.022734846920,-0.013453497551,0.121127001941,0.092265784740,-0.076245322824,-0.107429906726,-0.178557425737,0.103344671428,0.046127159148,-0.024878991768,0.016237217933,-0.011996553279,-0.233337610960,-0.103937372565,0.020094763488,0.025019131601,-0.007630973123,0.019906278700,-0.066797122359,0.140249118209,-0.119880326092,-0.081339165568,-0.230955362320,-0.131925895810,0.013665349223,0.057368315756,0.486991167068,-0.303677141666,-0.040910907090,0.110453844070,0.113359823823,-0.162879928946,0.041901115328,-0.023772509769,0.295843571424,-0.052727553993,-0.150180995464,-0.122912049294,-0.018683025613,0.195909410715,0.092515349388,-0.052811104804,0.027343207970,0.024977467954,-0.534476637840,-0.090637885034,0.238753482699,0.164365828037,-0.032797399908,0.039188470691,-0.115981884301,-0.097428277135,0.286339372396,-0.001286861254,0.049760341644,-0.018140336499,0.194876179099,-0.020339613780,0.021801102906,0.007532238495,0.008301855065,0.038015909493,0.054625920951,-0.219540745020,0.005620133132,0.067215152085,0.021119169891,0.021241653711,-0.142101913691,-0.370918273926,-0.017720252275,0.077890843153,-0.160909146070,-0.009209805168,-0.014048338868,0.134647116065,0.578333497047
0.053236428648,-0.139676019549,0.005288552959,-0.063984379172,0.114302851260,0.030942486599,0.034114573151,-0.065472073853,-0.130408599973,-0.163816168904,0.267980605364,0.043320249766,-0.009992111474,0.088660374284,-0.131790235639,-0.007028379943,-0.027674032375,0.101454511285,0.031277175993,-0.059386368841,-0.064452826977,-0.016951033846,-0.091858744621,0.081236712635,0.039075933397,0.083155475557,-0.137579441071,0.048487897962,0.101353891194,0.207052424550,-0.089345149696,0.053612835705,-0.138812020421,-0.110669262707,0.069337971509,0.010295526125,-0.090149775147,-0.003754220903,-0.099282048643,-0.079749271274,-0.166366294026,-0.100701779127,-0.194776460528,0.046726178378,-0.123195856810,-0.280180901289,0.151907041669,-0.012790837325,0.118892826140,0.067966364324,-0.153863027692,0.042855873704,-0.177551776171,-0.522849917412,0.049878109246,-0.402072668076,0.019588192925,0.066760338843,0.029808314517,-0.119520545006,-0.042665034533,0.221576139331,0.140461117029,-0.155599951744,0.056297365576,0.035224016756,-0.079499445856,0.115642532706,-0.061116743833,-0.145031720400,-0.088290438056,0.133446514606,0.008472843096,-0.026486590505,-0.100285753608,0.027482472360,0.163910150528,0.038363397121,-0.049824066460,0.168635368347,-0.019586687908,0.054131504148,0.042019356042,0.047094624490,0.054114926606,0.177463129163,0.083647117019,0.271092206240,0.002609087853,0.084651343524,-0.004733953159,0.092301025987,-0.050957910717,-0.080230645835,-0.007010119502,-0.172650337219,-0.082594998181,0.092010945082,-0.049600493163,-0.071435965598,0.017623256892,0.008318318054,-0.116276808083,-0.016057251021,-0.053586259484,0.011915361509,0.054319959134,0.122874058783,0.104342535138,0.057638928294,0.040841128677,-0.035816080868,-0.026419246569,0.038599751890,-0.051171619445,0.045465040952,-0.014108225703,0.206609115005,0.050033256412,-0.057435858995,-0.091935522854,0.042862836272,0.215403705835,-0.348475009203,-0.061395574361,0.076136097312,0.019370757043,0.021960103884
0.047031972557,0.019954571500,-0.049838509411,-0.047694236040,-0.100830554962,0.002297549043,-0.021001711488,-0.112252496183,-0.377172350883,-0.020610244945,0.022675631568,0.029635421932,-0.004403496161,-0.118378065526,-0.030602656305,0.049140866846,-0.021550480276,-0.235079050064,0.084341622889,-0.027021754533,0.000338157581,0.077793627977,-0.115461111069,0.004272395279,0.015601511113,-0.119234517217,0.157526850700,0.081550627947,-0.076192423701,-0.334283322096,0.099737003446,-0.038858268410,-0.025591176003,-0.025163061917,0.061881236732,-0.031538475305,0.073531813920,0.054773051292,0.075022503734,-0.032757528126,-0.010754033923,-0.117184326053,-0.014167866670,0.422856807709,0.004757340532,0.157696381211,0.015615311451,0.027074679732,0.006735906936,-0.056137137115,-0.022200413048,0.006607906893,-0.004380212631,-0.135277822614,0.110968030989,-0.040273975581,0.035079739988,0.063017934561,0.020438263193,-0.020585734397,-0.034553606063,0.114452540874,-0.065882340074,-0.273163914680,0.001099531655,-0.128932714462,-0.028574176133,0.011135922745,0.019039494917,0.323333323002,-0.035981312394,0.056669060141,-0.037269700319,-0.006421864498,0.001114733517,-0.000996304210,0.030415151268,0.001420145039,0.146718516946,-0.042918771505,0.349232017994,0.020631961524,-0.007636806462,-0.069468870759,-0.109779059887,-0.005711516365,-0.003420162247,0.009266303852,0.027823271230,-0.078755676746,-0.022881694138,-0.000664621766,-0.046994291246,-0.021136611700,0.014915545471,-0.040631704032,0.035941068083,-0.072474077344,-0.119899250567,-0.001707018120,-0.001927196397,-0.057852014899,0.026767155156,-0.031777951866,-0.065084472299,-0.064412020147,-0.483692854643,-0.008554757573,0.121913172305,-0.014876636676,-0.036469485611,-0.003457871499,-0.084416523576,-0.022076541558,0.051254805177,-0.127950549126,0.001883272664,-0.057063460350,0.001480207196,0.001805593260,-0.058952212334,-0.182524636388,-0.026973042637,-0.053769648075,0.082369275391,0.082792952657,-0.126919880509,0.009946775623
0.102829530835,-0.052885271609,-0.029627604410,-0.013457837515,0.051310632378,-0.010354730301,-0.018557148054,-0.049840923399,0.250318467617,0.122899889946,-0.108619034290,-0.107625834644,-0.007598980796,0.005327629391,-0.136302039027,-0.260179519653,0.273795574903,0.075981616974,-0.487812072039,-0.038547568023,-0.060947000980,0.045748550445,-0.153302952647,-0.069272272289,-0.048863291740,-0.005655990914,-0.043543700129,-0.002133054659,-0.241282016039,-0.175299957395,-0.202359348536,-0.152458310127,-0.070557698607,0.063960224390,-0.033785745502,0.171181991696,-0.260460644960,-0.074441142380,-0.127002641559,0.155527785420,-0.045868214220,0.174857243896,-0.401816487312,0.082690052688,0.192037954926,0.335491776466,-0.025587182492,0.165355727077,0.043278336525,0.074431672692,-0.004268739838,0.127212777734,0.087407819927,0.088983841240,0.077848695219,0.008897513151,0.030341316015,0.103213995695,0.004370905459,-0.241046398878,-0.025895440951,-0.003039905569,0.023228717968,0.115376032889,0.054433565587,0.268372446299,0.026777258143,-0.004339465871,-0.010742980987,-0.240504443645,0.070182926953,0.092341400683,0.337867468596,0.133499398828,0.071122445166,0.087014012039,0.016879562289,0.066203176975,0.138397872448,0.039501052350,-0.049048587680,0.032139830291,-0.000246042095,-0.261818021536,-0.222849652171,-0.158076658845,0.274397581816,0.034029614180,0.158746108413,-0.014117052779,0.007851925679,0.015796653926,-0.164992719889,-0.005295996089,0.013128179125,0.018415570259,-0.030056113377,-0.051596399397,0.151948943734,0.052434872836,0.097052991390,0.075995273888,-0.080281168222,-0.098748832941,-0.031219659373,0.013100222684,1.203650474548,0.037070255727,0.187609508634,-0.067442625761,-0.035820089281,-0.045230403543,0.093348823488,0.055686220527,-0.237205505371,-0.107898496091,0.010315097868,0.016227802262,0.041343878955,-0.042516715825,-0.144332811236,0.464241802692,-0.181776657701,0.026726733893,-0.110018685460,-0.008719436824,0.273166179657,-0.012476951815
