-0.043196950108,1.533456444740,0.081150487065,-0.494718015194,-0.064505204558,0.118472352624,-0.018555140123,-0.001261447556,-0.001515993848,-0.030011644587,-0.328416019678,0.021520059556,-0.048875179142,-0.003428576048,0.010478738695,0.070632524788,-0.208480775356,-0.197884976864,-0.054947122931,-0.191654697061,-0.105061724782,-0.041067190468,-0.176090419292,-0.147511616349,-0.160610899329,0.051604483277,-0.064476393163,-0.029517404735,-0.001407684758,0.283678054810,0.018031382933,0.030928712338,0.194247484207,0.234362632036,0.117900617421,0.034648723900,0.071257993579,0.063022084534,0.009218247607,0.159991502762,-0.665803909302,0.098128646612,0.019250566140,-0.240256145597,-0.081503041089,-0.066586166620,0.156379535794,0.104951918125,-0.051909979433,-0.262839525938,-0.089941985905,-0.059654854238,0.061969082803,-0.096887543797,0.034880593419,-0.081570498645,0.109942436218,-0.115941047668,-0.089568048716,-0.067632727325,-0.038981664926,0.043442737311,-0.121738038957,0.164242446423,-0.003929471131,-0.004812684376,-0.031027287245,-0.020945018157,0.125977516174,-0.045736376196,-0.061531741172,0.223273515701,0.001526804524,-0.092444792390,0.179726526141,0.045044150203,0.079416930676,-0.013925888576,-0.038239344954,-0.010302191600,-0.240639641881,0.280217498541,-0.103276886046,-0.002298396779,0.026242546737,-0.023990891874,0.007417880930,-0.073864378035,0.017544824630,0.040758803487,-0.011028936133,0.025269471109,-0.213439539075,-0.162670671940,-0.065475098789,0.032500814646,0.002757943235,0.058041412383,0.107016354799,0.256119400263,0.016303850338,0.009679125622,0.070975288749,0.105086088181,0.063893206418,-0.083674669266,-0.013219442219,0.162163168192,0.103977121413,-0.095178253949,-0.038273297250,-0.102008461952,0.093357905746,0.090780980885,-0.152028620243,-0.296191453934,0.041080828756,0.112716816366,0.105626136065,-0.063960030675,-0.028365721926,0.038825575262,-0.044443767518,-0.021899068728,-0.198679953814,-0.054982170463,-0.178604811430,0.000017425509
0.076879695058,-0.018142310902,0.067718885839,0.026101164520,0.041074603796,-0.114791780710,-0.003423012327,0.008764934726,-0.047812148929,-0.052913486958,-0.149446010590,0.023185782135,0.053789902478,-0.020576018840,0.203599557281,0.029681973159,0.001434880192,0.026430871338,-0.002221433679,0.117077186704,-0.096647448838,-0.009330071509,0.021661153063,0.015101164579,-0.056223068386,-0.089647889137,-0.056618504226,0.016278857365,0.008261663839,0.067424334586,-0.050277899951,0.218989923596,-0.033152077347,-0.218679606915,0.169291123748,0.072479695082,0.073611274362,0.201034873724,-0.002613209421,-0.069024935365,-0.014318926260,0.024970920756,0.064032383263,0.030415227637,-0.071578823030,-0.037226788700,-0.085016861558,-0.003960315138,-0.012163252570,-0.084740243852,0.224571719766,0.031313903630,-0.065013691783,-0.081483207643,-0.003905385500,-0.028775243089,-0.057189498097,-0.035261902958,-0.009057682939,-0.122223511338,0.010399479419,0.085969798267,0.085405446589,-0.089543767273,0.051863402128,-0.129657626152,0.031022833660,-0.087667807937,-0.027058796957,0.051233135164,0.078905083239,-0.052743103355,0.019659113139,0.187865436077,0.112107031047,-0.042047344148,-0.007851084694,-0.010391368531,-0.024297518656,0.067236408591,0.086118079722,0.052503392100,0.028584325686,0.020494149998,-0.080177903175,0.277232021093,-0.065465673804,-0.038223698735,0.022280652076,0.110450215638,-0.045814786106,-0.013374221511,0.123023912311,0.031690128148,0.053118664771,-0.001512257033,0.014325217344,0.089657925069,-0.012859468348,-0.014612424187,0.036660611629,0.082233160734,0.138820856810,-0.012951186858,-0.106393158436,0.004342979286,0.019753297791,-0.037537291646,0.044894870371,0.381587296724,0.161792963743,0.135659426451,0.000993821770,-0.239260658622,-0.013542630710,-0.025385839865,-0.089843839407,-0.020262960345,0.131177738309,0.039378073066,-0.047110710293,-0.041558556259,0.085759311914,0.090220600367,0.022692147642,0.031262692064,0.050216380507,0.005115984008
0.003729683580,0.009038237855,-0.041576944292,-0.488019555807,-0.209611356258,0.079994261265,-0.113562382758,-0.022168908268,0.002683713799,-0.045610271394,0.059022426605,0.263796806335,-0.016350908205,0.011840146035,0.102924428880,-0.059578239918,0.013282787055,0.054915875196,0.043584287167,-0.047849919647,0.063776411116,-0.007726342883,-0.060870029032,-0.009748796932,-0.041853148490,-0.086094759405,-0.034695234150,0.016037279740,-0.026753827929,0.071261487901,-0.147582605481,-0.233447030187,0.083192408085,0.048348117620,-0.410359263420,-0.125328570604,-0.032440118492,-0.043237432837,0.002347227652,0.182251527905,0.003347040154,-0.007282337174,0.188754007220,0.188807249069,-0.151168167591,0.044335167855,0.078416302800,-0.016556283459,0.089697338641,-0.034505303949,-0.023100538179,-0.169373422861,0.039431411773,-0.336255460978,0.002452048473,-0.089559018612,0.021376030520,0.286242127419,0.048664718866,-0.106155842543,0.041216731071,-0.065143913031,-0.020892530680,0.086949750781,0.079535923898,-0.172721430659,-0.048026021570,0.047756589949,-0.076519213617,0.085400030017,0.124259829521,0.348772346973,0.431842356920,-0.012525565922,0.018769944087,0.164679676294,-0.030569765717,-0.045897409320,0.045639604330,0.037714429200,-0.069646395743,0.071620300412,-0.143310636282,-0.008954118006,-0.129708409309,-0.153692111373,-0.023169262335,0.063344009221,-0.046922825277,-0.003273648443,0.013779660687,0.014200917445,0.288447827101,0.002325377194,-0.010318379849,-0.040221672505,-0.110803402960,-0.135401651263,-0.149724408984,0.021828064695,-0.103930853307,-0.125157311559,-0.268297851086,-0.002505874960,0.181952074170,0.179399743676,-0.044763289392,0.038716752082,0.021217508242,-0.119817897677,-0.054193079472,-0.147606968880,-0.221475392580,-0.074656799436,-0.076256886125,-0.134351745248,0.019115280360,0.040898479521,0.017043342814,0.355602532625,-0.107341602445,-0.039280891418,-0.011539608240,-0.779350101948,0.205813750625,0.123416654766,0.107439331710,-0.070331335068
0.080657623708,-0.018403865397,0.008082230575,-0.173946693540,-0.020561564714,0.099623732269,0.038661219180,-0.045059248805,0.044214263558,-0.120238043368,0.016878435388,0.022112721577,-0.030911441892,-0.084672152996,0.018905084580,-0.052970223129,0.027217105031,0.063982605934,0.029465477914,0.076651796699,0.112545542419,-0.001894597546,-0.146895796061,0.024796964601,-0.070558190346,-0.041388671845,0.096930839121,0.138707146049,0.021871875972,0.235949233174,-0.056036777794,0.301155924797,-0.115319572389,-0.147057741880,-0.202893182635,0.160586968064,0.014175443910,0.027024770156,0.026488052681,-0.345595538616,-0.025919027627,-0.047766469419,-0.196030765772,0.129118680954,0.203120201826,-0.209583267570,0.129869267344,0.025392757729,-0.262882471085,-0.107205778360,0.071879282594,-0.112714916468,0.097814008594,-0.098795287311,-0.006637836806,0.101331919432,-0.082227572799,0.283850163221,-0.054208647460,-0.087512038648,0.019628830254,-0.084236904979,-0.054492130876,0.116801939905,0.015126518905,-0.192533642054,0.038524210453,0.011025275104,-0.027065968141,-0.053300827742,-0.006396124605,0.194708749652,0.084033288062,-0.380599349737,0.329877048731,0.096123747528,-0.422777622938,-0.020197598264,0.006993302144,-0.111691668630,-0.147240102291,-0.003681750735,-0.061019729823,0.006319579203,0.126003295183,-0.310668498278,-0.019804993644,0.013300074264,-0.022548081353,-0.193296104670,0.351431280375,-0.001525945496,-0.243198558688,0.168798044324,0.036916740239,-0.035915933549,-0.028419855982,0.001304396428,0.034898821265,0.109694495797,-0.019423568621,0.018272016197,0.202077090740,-0.046052023768,0.101391032338,-0.027839362621,-0.164491042495,0.057939603925,0.079350352287,0.006534223910,0.035492196679,0.061330296099,-0.033964298666,-0.031760178506,0.092458568513,0.012809430249,-0.021486612037,0.150318011642,0.112384721637,0.054319042712,-0.035085938871,0.008784913458,0.037856083363,-0.078629337251,0.437145709991,0.015393485315,-0.015949517488,-0.030318964273
-0.166833668947,0.263710021973,0.026660116389,-0.151433974504,-0.206968382001,0.049892447889,-0.032310314476,0.004082384985,-0.048738237470,-0.288849920034,-0.319520890713,0.022225232795,0.142319753766,0.188207462430,-0.050832584500,0.282296836376,0.065000295639,-0.146448299289,-0.432089507580,-0.062923721969,-0.083221048117,0.040624294430,-0.189512297511,-0.000547377451,-0.399125516415,-0.393833726645,-0.115884661674,0.034740716219,-0.004981963895,-0.150435626507,-0.006731430534,0.089291237295,0.305716961622,-0.590351521969,-0.035235691816,0.147837668657,0.034617945552,-0.071458332241,-0.035784434527,0.154552057385,0.031742468476,0.021885735914,0.077169016004,-0.108590967953,0.379002511501,0.593077480793,0.084359012544,0.477522671223,0.291815817356,-0.075117073953,-0.112217202783,-0.012249769643,-0.236172735691,0.030994834378,-0.215594336390,0.058668643236,0.237319231033,0.010104420595,0.408518552780,-0.245306402445,-0.048522464931,0.111782491207,-0.008767193183,-0.019425893202,-0.181072801352,0.009621936828,-0.044654510915,-0.270264983177,-0.437320470810,-0.118595734239,-0.299801886082,0.029822705314,0.043506100774,0.143271610141,-0.274760127068,-0.016062302515,-0.132532954216,0.045955374837,-0.115367658436,-0.161825314164,-0.115738473833,0.075831130147,-0.158576831222,-0.047832503915,0.167793586850,-0.129337370396,0.038310587406,-0.023084467277,-0.342770934105,0.011655069888,-0.074381761253,-0.019507413730,-0.211029395461,0.022797141224,-0.052630573511,0.028601186350,0.002520903712,-0.045675143600,0.062668338418,0.009784521535,-0.094912946224,0.003623324912,-0.134312406182,0.064237043262,-0.102667994797,0.008296045475,-0.034432169050,-0.003392211627,-0.229154124856,0.271905332804,0.019383082166,-1.592227339745,-0.140948012471,0.070024237037,0.100278824568,0.003134911181,-0.329774677753,0.138978436589,0.403228729963,-0.095101706684,-0.061015829444,0.042520165443,-0.314663439989,0.021805116907,-0.079483628273,-0.019803032279,0.145341560245,-0.012905151583
-0.062969788909,-0.000996896182,0.087434984744,-0.227590993047,0.018106954172,-0.057432100177,0.126837238669,-0.012360539287,-0.008332480676,-0.092611245811,0.207339286804,0.150225430727,-0.015161779709,0.211997970939,0.073249347508,-0.054957106709,0.063933625817,-0.030675875023,0.027601575479,-0.012342751026,0.011736234650,-0.044855009764,0.002922229702,-0.071261703968,0.107593148947,0.033284783363,-0.160920336843,-0.179054871202,-0.008220050484,0.079020515084,0.096948765218,-0.271089792252,0.071174278855,0.241847395897,0.022574769333,-0.068928405643,-0.112558394670,0.169762805104,0.035436447710,0.140477508307,-0.002168367384,0.061016201973,-0.046407215297,0.189885467291,-0.037976510823,0.018423711881,0.153119325638,-0.012007938698,-0.022981606424,-0.020811541006,-0.007756336126,-0.345536172390,0.012609505095,-0.139911949635,-0.001483298256,0.088068753481,-0.104594692588,0.662574410439,0.019195513800,0.116878300905,0.025052031502,0.028440143913,0.122120276093,0.083947941661,0.034274525940,0.014669084921,0.076034538448,0.017848534510,0.293495893478,-0.022163994610,0.026283562183,0.052023682743,-0.028958903626,-0.079141430557,-0.034048702568,-0.032841313630,-0.281705111265,0.025002565235,0.048008870333,0.055223751813,0.051922116429,-0.127159401774,-0.001782675157,0.013683001511,-0.089249148965,-0.431504517794,-0.035292793065,-0.009948600084,0.083215013146,-0.036355212331,0.094233356416,0.021279210225,-0.160596966743,-0.191717267036,-0.010364055634,-0.028827691451,0.014307174832,0.002002486726,-0.067131079733,0.109209567308,0.022066691890,0.060395091772,0.181630432606,-0.041259046644,-0.057465534657,0.019349273294,-0.075003191829,-0.000909406750,0.109169565141,-0.028485551476,0.006693995558,0.020715270191,-0.035810951144,-0.193409278989,-0.004152551293,-0.120148018003,-0.058401871473,-0.087911695242,-0.128383874893,-0.131797268987,-0.208753868937,-0.035992149264,-0.097860291600,0.098493389785,-0.170487925410,0.077010586858,-0.110008269548,-0.075859613717
0.023051442578,-0.022784272209,-0.015778230503,-0.015962453559,0.032696623355,0.005111304577,-0.010908109136,-0.024867935106,0.044723287225,-0.033468890935,0.015710147098,-0.063068427145,0.022107031196,-0.061831239611,-0.005221025553,0.028779475018,-0.023536346853,-0.050631813705,-0.020562577993,-0.045667316765,-0.000097430646,0.035635687411,-0.024921031669,0.022666966543,0.008032505400,-0.038313634694,-0.027137300000,-0.054053362459,-0.029398581013,-0.058827411383,-0.015789760277,0.005818577949,0.012899518944,-0.073189400136,-0.009590110742,0.020810747519,0.045121990144,-0.023695465177,0.027534304187,-0.019892029464,0.013786812313,0.021870238706,-0.064672313631,0.010678852908,-0.071973368526,0.010876160115,-0.001266112784,0.025020053610,0.005551784299,-0.006785830949,0.018952997401,0.025252735242,-0.024312878028,-0.037055186927,0.035603601485,-0.037804607302,0.007557767909,-0.030230386183,-0.038089908659,-0.033339042217,0.045882463455,0.009410060011,-0.018779311329,-0.019920004532,0.004563180264,-0.046482734382,-0.072434939444,0.010868893005,0.003072081832,-0.003645036602,-0.014157391153,0.009007439949,0.053704757243,-0.022320764139,-0.021817335859,0.006618526299,-0.020309384912,-0.000289359596,-0.042900029570,-0.035761311650,0.005706269760,-0.043791737407,-0.047987394035,-0.036541823298,-0.020288690925,-0.051795098931,-0.010784579441,-0.050664938986,0.018663715571,0.029909824952,-0.011312100105,-0.046799853444,0.015420344658,0.012670307420,-0.001352795982,0.021167898551,0.024033099413,-0.035328656435,0.002757214243,-0.007768299896,0.030643628910,-0.011848780327,-0.043719865382,-0.017134888098,-0.036000899971,-0.003053942928,-0.023472320288,0.005790799391,-0.030870182440,0.038429502398,-0.001812302857,-0.008948746137,-0.004177786876,-0.010706068017,-0.023161722347,-0.011315663345,-0.014695652761,-0.014367963187,0.036241337657,0.004425721709,-0.072777003050,-0.033127229661,-0.021768640727,0.005734774284,0.002501913812,0.011617388576,0.019827494398,-0.039696160704
-0.150041311979,0.083807274699,0.112453691661,-0.097959212959,0.094968110323,-0.337976962328,-0.004221356940,0.028636762872,0.018693944439,-0.038621339947,-0.136359766126,-0.222031831741,-3.106354713440,0.015724621713,-0.142604082823,-0.061198193580,-0.044667031616,-0.006095414981,0.022307876498,0.113568276167,0.012527924031,-0.038164403290,0.006176797207,0.174796074629,0.051761921495,-0.115201309323,-0.020297633484,-0.073276750743,-0.065586060286,-0.285180658102,-0.014332395047,0.033556282520,-0.072191424668,0.092928864062,0.131583467126,0.044383991510,-0.062768012285,-0.024597046897,-0.017585298046,-0.148011788726,0.014955408871,-0.013559263200,-0.075863510370,0.198014914989,0.011795765720,-0.083627656102,-0.031811408699,-0.062962673604,-0.060380540788,-0.067606456578,0.169193714857,-0.026195192710,0.008431776427,-0.182975620031,-0.009029299021,0.108970977366,0.034241922200,-0.075625643134,0.034267902374,-0.046831384301,0.041799336672,0.006330883596,-0.004633079749,-0.021768150851,0.101855129004,0.099673792720,0.259300172329,0.051017105579,0.021507777274,-0.012052775361,-0.083707749844,-0.359965085983,-0.070859275758,-0.016819439828,0.225281044841,0.066711775959,0.049191772938,-0.009196390398,-0.005842914805,0.050090696663,-0.017785163596,0.003235040233,-0.004872607533,-0.008473272435,0.022061049938,-0.296542525291,0.205775052309,-0.056610431522,0.037909608334,0.098815008998,0.049333263189,-0.001673884806,0.049861114472,0.058833274990,-0.015738036484,-0.039311394095,0.068002633750,-0.052832774818,-0.123039305210,0.091811135411,-0.050614852458,0.172273457050,0.422884285450,-0.082733467221,0.046079203486,-0.167303934693,-0.076972976327,0.084996305406,0.049031812698,0.221861019731,0.025477588177,0.038267396390,-0.134745866060,-0.485400199890,0.184488281608,0.104297332466,-0.038693897426,0.089410595596,0.117987357080,-0.119812339544,-0.039511784911,-0.024477243423,0.036315973848,0.211228147149,0.222944557667,0.011788616888,0.038946472108,-0.012694904581
-0.262097001076,0.420887917280,0.193472802639,-0.275067061186,0.398431241512,0.151145696640,0.356243580580,-0.011730525643,-0.003656598274,-0.353355050087,-0.368898689747,-0.058460991830,-0.178165957332,0.260130077600,-0.016301343217,0.136094018817,0.104857593775,0.134327575564,-0.284952849150,-0.043102774769,0.141484841704,0.001446912996,-0.647056698799,-0.029413638636,-0.689731061459,-0.233658045530,-0.137601450086,0.095677979290,0.221304923296,-0.085871234536,-0.019865181297,-0.063121847808,0.179666012526,-0.461054533720,-0.152720093727,-0.060671824962,-0.057433780283,0.442745864391,-0.008825905621,-0.385544210672,0.084681890905,-0.221240729094,-0.150755077600,-0.064710430801,0.520432829857,0.287898957729,-0.008352916688,0.330381453037,-0.249105378985,0.164899945259,-0.487195611000,-0.128867581487,-0.264167010784,0.021831857041,-0.113108374178,0.084148101509,0.111215561628,0.007613225840,0.282994329929,-0.308606505394,-0.020633311942,-0.042715650052,0.061003621668,-0.033953133970,-0.064432077110,-0.086185246706,-0.181686788797,-0.012053982355,-0.658841192722,-0.046923883259,-0.275679379702,-0.164627239108,0.024049559608,-0.310270577669,-0.528339445591,0.012817002833,0.014383293688,0.043024275452,-0.155519291759,-0.164385527372,-0.424684494734,0.076325230300,-0.285115212202,-0.027967805043,0.170640006661,-0.246626928449,0.103959500790,0.053621776402,0.379791349173,0.026971092448,-0.008180073462,0.035372711718,-0.089576348662,-0.061840690672,0.064830824733,-0.041088718921,-0.066884651780,-0.020779523998,0.005858666729,-0.254457473755,-0.320511847734,-0.007494905498,-0.053253807127,-0.163278624415,-0.183108717203,-0.119714677334,-0.150708839297,0.044058952481,-0.237905859947,0.976847350597,0.078949779272,-0.167220294476,0.001632940955,0.181120350957,-0.078291133046,-0.024501834065,-0.262612491846,-0.070723801851,0.702081561089,0.116406075656,-0.022063037381,0.012521665543,-0.214954435825,-0.012904577889,0.023785870522,-0.060213118792,0.108930073678,0.100573696196
0.139403194189,-0.043758410960,0.108361922204,0.055620510131,-0.304327845573,0.130145922303,-0.022830130532,0.000856981031,-0.027317700908,-0.001642217860,0.151029348373,-0.017334092408,-0.011717904359,0.131669893861,-0.004450513050,0.184566318989,-0.112940669060,0.047686856240,0.177541449666,-0.202717870474,0.054173730314,-0.035940021276,0.010787436739,0.009284272790,-0.306494861841,-0.058781486005,0.071632295847,-0.011146688834,-0.013168335892,-0.073969826102,0.102935045958,-0.041450157762,0.084113419056,-0.175467357039,-0.063970446587,-0.191454336047,0.023996654898,0.083509907126,-0.041632823646,-0.065087735653,-0.000327323214,-0.114097326994,0.315889209509,0.029153222218,0.083219617605,0.019664628431,0.006319926586,-0.116836503148,0.043505139649,-0.004427546170,0.006853162777,0.005062009674,-0.043030653149,-0.026155464351,0.036582395434,-0.031026734039,0.130993247032,0.034585207701,0.154379040003,0.075891070068,-0.047143813223,-0.087911732495,0.083954565227,-0.073390983045,-0.062476314604,0.065407656133,-0.143133342266,0.162328466773,0.071751900017,0.176857993007,0.059244468808,0.000544739305,-0.024103730917,0.013623876497,0.001888679690,-0.015702726319,0.298802644014,0.049987208098,-0.006074462086,-0.077264308929,0.215232565999,-0.154995784163,-0.111627914011,-0.044348318130,-0.287219792604,-0.147163242102,-0.018265418708,0.208674803376,-0.004226522055,-0.014297060668,-0.047736756504,-0.014018497430,-0.101728767157,-0.078097008169,0.024093031883,0.035732075572,-0.049431771040,0.045822128654,-0.014215125702,-0.084686890244,0.356239825487,0.010262310505,0.021567435935,-0.034673094749,0.089437678456,-0.030696827918,0.075351096690,0.022340981290,-0.087715387344,0.043675012887,-0.007529487833,-0.174061506987,-0.129834845662,0.135931670666,0.332579672337,-0.017225002870,-0.016778215766,-0.041421551257,0.059518806636,-0.006356405560,-0.039628610015,-0.035846579820,0.022805759683,-0.057831142098,0.223819673061,-0.003110916819,-0.473176598549,-0.017338259146
-0.019570041448,-0.011204783805,-0.030509628356,-0.183498308063,-0.101348645985,-0.099641919136,0.008101068437,0.010527144186,0.015001693740,0.135730639100,0.276427000761,-0.006637495942,0.032638650388,0.206666827202,-0.023832431063,0.053412284702,-0.034686829895,0.009940258227,0.062263268977,-0.008892712183,-0.120290406048,0.032668855041,0.143419340253,-0.459114342928,0.171763285995,0.018376104534,-0.018485717475,0.030546382070,-0.167331889272,0.102612316608,-0.030926031992,-0.065891906619,-0.013491464779,0.119717814028,-0.192070305347,0.245443210006,0.011193153448,-0.044145833701,0.009352147579,-0.162457346916,-0.018158055842,-0.081286773086,0.053709376603,-0.061400301754,-0.084010668099,0.136325091124,-0.001705770497,-0.111314959824,0.005671928171,-0.145644590259,-0.123000971973,0.032943360507,-0.006701448932,0.078474983573,0.077483907342,0.142490610480,0.046418562531,-0.036474902183,0.456405937672,-0.245242163539,0.049327190965,0.107443161309,-0.426919966936,-0.016193654388,-0.075366899371,0.028052806854,-0.166433811188,0.143359705806,-0.267747461796,-0.436896830797,-0.293551832438,0.149485662580,-0.012674001046,0.037520814687,-0.018852595240,-0.015281226486,-0.007495983969,-0.016871092841,0.018079945818,-0.018679119647,0.427736073732,-0.034282207489,-0.257233500481,0.029066419229,0.130363836884,-0.031510263681,-0.030461972579,-0.027831485495,-0.027082318440,-0.073338285089,0.053568806499,0.005961871240,0.017458343878,-0.130533680320,0.270508915186,-0.041097853333,-0.073222264647,0.473269820213,-0.011828825809,0.049660343677,-0.166293993592,-0.049843635410,-0.267953068018,-0.069660723209,-0.069536827505,0.046771842986,-0.036104403436,-0.036782242358,-0.048755079508,-0.321339279413,-0.075403586030,-0.379956126213,-0.473364472389,-0.040523119271,-0.113817684352,0.068921037018,-0.419142991304,0.045234169811,0.017868217081,-0.098184689879,0.047331813723,0.023628307506,0.233748912811,0.009804383852,-0.040630031377,0.054335147142,0.138248696923,-0.021882219240
-0.240197435021,0.095423057675,0.931013762951,-0.035882283002,-0.018366374075,0.115192636847,0.231315433979,0.038598481566,-0.010957727209,-0.048811342567,-0.029644753784,-0.006000204012,0.023140484467,0.252879232168,-0.022589476779,-0.029260380194,-0.050536602736,0.089058756828,-0.025673378259,0.040001437068,-0.052942294627,-0.024787789211,-0.066516205668,-0.075650081038,-0.101091720164,0.067778117955,-0.062131147832,0.024555761367,0.096063137054,0.070942290127,-0.055595815182,-0.019450441003,-0.002341444371,-0.156546562910,-0.117242328823,0.035532042384,-0.009422830306,-0.219941481948,0.052311453968,-0.144255414605,0.005400228780,0.060337089002,-0.035654090345,-0.135599344969,0.138897284865,-0.135238945484,0.035511117429,-0.059731513262,0.136096850038,-0.099805966020,-0.081107005477,0.034656409174,-0.000540948007,0.004720970523,-0.018307320774,-0.123461991549,0.015987845138,0.017334347591,-0.001352380379,-0.054614521563,0.010827364400,-0.114166527987,0.106351509690,0.062910646200,-0.087388664484,-0.048189330846,-0.035360328853,-0.066458776593,-0.214749231935,0.034452252090,-0.100419968367,0.089613065124,-0.019981060177,0.157710820436,-0.065865181386,0.014145897701,-0.017154207453,0.047385286540,-0.032528154552,-0.041211429983,-0.284668534994,0.055564414710,-0.074174687266,-0.014445700683,0.071251302958,0.057053472847,0.050361182541,-0.021843032911,-0.101255796850,-0.118484228849,-0.033942379057,-0.012423015200,-0.098799861968,-0.167660132051,0.022643160075,0.005665577482,0.055143978447,-0.032908510417,-0.010565517470,-0.013106482103,-0.094763182104,-0.223386645317,-0.148059874773,-0.094011917710,0.011889275163,0.042523611337,-0.016030980274,-0.108565986156,0.535539090633,-0.450130313635,-0.015175903216,-0.095281973481,-0.087722077966,0.042108334601,-0.214263737202,-0.038498923182,0.016271833330,-0.029436642304,-0.071888104081,0.058987352997,-0.059149332345,0.033472951502,-0.053126636893,0.093652084470,-0.059864878654,-0.014151117764,0.106504507363,0.024097325280
-0.011811601929,0.061446301639,0.020097428933,-0.288011819124,-0.056497614831,0.018804833293,0.028238002211,0.026221504435,-0.048516880721,0.025137050077,-0.281531751156,0.038689900190,-0.018376305699,-0.020723093301,-0.004667954054,0.058256328106,0.095741331577,0.054578162730,0.079379215837,-0.098597176373,-0.068720735610,-0.037967108190,-0.036410626024,-0.028982728720,-0.050277024508,0.026179431006,0.037587892264,0.043950546533,0.092292763293,0.166619211435,0.059972740710,0.183034151793,-0.057228635997,0.045023933053,-0.032681506127,0.012584776618,-0.054702568799,0.149283498526,-0.053575742990,-0.198209270835,0.044101379812,0.078216902912,0.052587356418,-0.167303934693,0.013219228946,-0.061480786651,0.124374657869,-0.012208510190,-0.030050262809,0.050384934992,0.078189946711,0.022982548922,-0.141873434186,0.052448865026,-0.043120224029,-0.295560747385,-0.071501642466,-0.106342658401,-0.065577544272,0.198481723666,0.042856171727,0.057857353240,-0.011776114814,0.053333558142,0.005231454503,-0.502690255642,-0.215809062123,-0.054843481630,-0.079569138587,0.144991680980,0.020065587014,0.220931753516,0.114678941667,0.089030034840,0.104459263384,-0.013239081949,-0.071171060205,-0.044603288174,-0.004934406839,0.090402498841,-0.041110910475,0.136805132031,-0.016271706671,0.040617924184,0.001753430115,0.156213611364,0.059326365590,-0.077739916742,-0.022389927879,0.169909298420,0.190498083830,-0.029368130490,0.210448220372,0.091468848288,-0.019826129079,-0.010194378905,0.053618218750,0.073230557144,0.095110759139,0.112544201314,-0.159411907196,0.051893901080,-0.138933837414,-0.087979003787,-0.149210795760,-0.058644056320,-0.069434985518,-0.031815540045,0.052311412990,-0.093875870109,-0.356589019299,0.080240696669,0.101547867060,0.538681030273,0.049899477512,0.228965818882,-0.031936496496,0.105308495462,-0.059881776571,-0.110898338258,-0.015512794256,-0.033118586987,0.044873081148,-0.050408203155,-0.141776829958,0.027134465054,0.040337443352,-0.033236313611
0.073780961335,0.076985649765,-0.010125302710,-0.015468921512,-0.426786273718,0.102028951049,-0.129817396402,0.047533165663,0.044843360782,-0.030219251290,0.222427353263,0.099639371037,0.053719360381,-0.142296984792,-0.048351515085,0.100659959018,0.089815288782,0.122997969389,0.070202983916,-0.118999041617,-0.151637554169,0.047312863171,0.062522195280,0.178569108248,-0.010837669484,-0.040987651795,-0.013803724200,-0.037793908268,-0.007268880960,-0.045769870281,-0.071214266121,0.119188599288,0.035144273192,0.209736287594,-0.331744670868,-0.042212799191,0.111244231462,0.153517901897,-0.035423446447,-0.124569825828,0.007033892907,0.102124422789,0.058569706976,-0.016240909696,-0.043891578913,0.001480872859,0.045238930732,-0.039488326758,0.000583782617,-0.175636202097,-0.034976001829,-0.076648533344,-0.042680449784,0.090710669756,0.004518456757,-0.040267776698,-0.062319383025,-0.086903780699,-0.019409401342,0.033793762326,0.036636427045,-0.074820928276,-0.054524861276,-0.345669448376,0.210186764598,-0.021748602390,-0.146333783865,-0.009779340588,0.044367603958,0.281376063824,0.081664286554,0.149855390191,-0.252685904503,-0.062177233398,-0.150398015976,-0.036385163665,-0.071603335440,-0.007584930863,0.020009793341,0.035019610077,0.048313200474,-0.085004813969,-0.000758980575,-0.015603902750,-0.149521097541,-0.159810751677,0.010646815412,-0.142282530665,0.070152387023,-0.256068706512,-0.150480598211,0.001149739604,-0.120197616518,0.013911928050,-0.194940567017,-0.006098708138,0.460061758757,-0.018633870408,-0.013200376183,-0.194408550858,-0.036129388958,-0.093563169241,0.409933984280,0.039396069944,-0.140317335725,0.019242111593,0.072999760509,-0.115388393402,-0.098411887884,-0.040649566799,-0.019453605637,-0.226805970073,0.348582625389,0.219652146101,-0.226734220982,0.362399071455,0.206136003137,-0.016384050250,-0.035547420382,0.003699566936,-0.058218255639,0.035795789212,-0.130729004741,0.127834588289,0.164202541113,-0.040776271373,-0.025041397661,0.012436836958
-0.023028245196,-0.170502409339,-0.008070467040,-0.886099278927,-0.003183389548,0.034307427704,0.030084021389,-0.031543631107,0.020033163950,0.026586903259,-0.078653208911,0.009983344935,-0.020696792752,0.007428285666,0.018124056980,-0.127004668117,0.014114709571,0.154984444380,-0.052341662347,0.185676217079,0.212569147348,-0.019906021655,-0.065459571779,0.099003061652,0.048891987652,0.160774350166,-0.017839338630,-0.167970180511,-0.023095630109,0.150433450937,-0.134213328362,-0.247673705220,0.112291373312,0.224251672626,0.053964018822,-0.033724296838,0.047325011343,0.028384665027,-0.021906981245,0.194261625409,-0.011154979467,-0.075286738575,-0.110944762826,-0.199468895793,-0.002106583444,0.069473974407,0.114237926900,0.052250802517,0.017499487847,-0.112489894032,-0.044541005045,-0.136566609144,0.094846315682,-0.274407655001,-0.078135356307,-0.092412009835,-0.008605089039,-0.058297693729,0.091236166656,-0.073775663972,-0.014032493345,0.014685011469,-0.028898883611,0.123645558953,0.043730426580,-0.135175362229,0.119476087391,0.055263612419,0.020978782326,-0.006681532599,0.044387172908,-0.133297160268,-0.017456298694,0.027687707916,-0.010114567354,-0.063071489334,0.075873166323,-0.021986998618,-0.072567678988,0.085093684494,-0.001202476560,-0.529172897339,-0.034833915532,-0.020903766155,0.219275385141,0.088124379516,-0.024022912607,0.139538720250,0.041569992900,0.048215590417,-0.107066556811,0.008891090751,-0.081131666899,0.039563603699,-0.054526839405,0.043803825974,-0.175022065639,-0.156870424747,-0.043925791979,-0.059764120728,0.029554864392,-0.003293135203,-0.134325519204,-0.018178133294,-0.134205639362,-0.116550713778,-0.021060118452,0.026246011257,0.007399175782,-0.061799634248,-0.048519186676,-0.221540287137,-0.077669568360,-0.090778246522,0.076550140977,0.013959694654,0.045581322163,0.121559381485,0.045416317880,0.123645313084,-0.086317740381,-0.003003471531,0.005440633744,-0.062581650913,0.034487619996,0.089633323252,0.137801051140,0.045515779406
-0.110747553408,-0.035604842007,-0.031647376716,0.197587966919,-0.046733181924,0.014918286353,-0.013363468461,-0.030365059152,-0.024268312380,0.039083085954,0.043600376695,0.060686159879,-0.094321355224,0.122574597597,0.002778718248,-0.028746789321,0.061357140541,-0.133559018373,-0.013464323245,-0.029451763257,-0.058861378580,0.044415701181,0.050634805113,0.032542325556,0.059262327850,0.010098780505,-0.001857596450,0.109039254487,0.020843368024,0.103107042611,0.018861988559,0.048319593072,0.074404291809,0.049215435982,-0.029100190848,0.087051160634,0.011717543006,0.016489971429,-0.027668939903,-0.078224539757,-0.006829145830,-0.023514766246,0.174355864525,-0.008886957541,-0.089619167149,-0.053595051169,-0.012178931385,0.051958031952,0.067024976015,-0.022897476330,-0.053840264678,0.122941918671,0.022844688967,0.295373141766,-0.005383883137,-0.030235039070,0.008588803932,-0.012594933622,0.087376147509,0.459731429815,-0.011555300094,-0.036490149796,-0.040005903691,0.107558675110,0.023007040843,0.084727443755,0.053416501731,-0.042731367052,-0.031516678631,0.040549572557,0.065033785999,0.058033518493,0.015479540452,0.146904334426,-0.004098561127,-0.047626662999,0.081941246986,-0.009881335311,0.017856674269,-0.093147225678,0.212209060788,-0.212773814797,-0.004510219675,0.002522449940,-0.175416007638,0.183870032430,-0.012591917068,0.028297489509,-0.000897996360,0.040028657764,0.013635068201,-0.040637083352,0.050440337509,0.041937332600,-0.029820905998,0.012040909380,-0.090933457017,-0.139526531100,0.080294616520,-0.015740418807,-0.019429160282,0.066121444106,0.068025209010,-0.009820053354,0.112825125456,0.063253514469,-0.028092881665,-0.014923446812,-0.058619223535,-0.007093702909,0.053447857499,-0.099354803562,-0.085702352226,-0.222020953894,0.090589813888,0.031746994704,-0.006347175688,0.058862358332,-0.002471696818,0.026172984391,0.049641620368,0.001309752464,0.012929569930,0.004714146256,-0.065971501172,0.036533817649,0.010359570384,0.005031952169
0.126310318708,0.107565619051,-0.074782110751,-0.033302322030,-0.176556751132,0.020467195660,0.044541452080,0.001617871574,0.032517667860,-0.041421156377,0.564176142216,-0.050251841545,0.064214423299,-0.254508048296,0.006839348935,-0.004658253863,0.144188612700,0.095641538501,-0.152244091034,-0.019710849971,0.025261919945,-0.033215623349,-0.091324351728,-0.242482542992,-0.139582633972,0.039980553091,0.052461650223,0.204256191850,-0.288496971130,0.014886358753,0.139611437917,-0.003188795177,-0.170167028904,-0.105200432241,-0.266939818859,0.127653658390,-0.113815516233,-0.094065994024,-0.009893821552,0.036054581404,-0.010734214447,0.038003023714,0.141009286046,0.001146611758,-0.070201285183,0.165711954236,-0.051636178046,0.073386952281,0.021419307217,-0.149622559547,-0.109323009849,-0.061782117933,-0.119588017464,0.164659306407,0.101532861590,-0.254412293434,-0.153144627810,-0.206150189042,0.016070155427,-0.296631246805,0.044607687742,-0.212294071913,-0.207490503788,-0.008293463849,-0.165967166424,-0.038058262318,-0.170565307140,0.021448275074,0.027370132506,0.292179524899,-0.169536039233,0.132483214140,0.035614289343,0.120771564543,-0.028015859425,0.038009013981,0.437092930079,-0.025538856164,0.041990902275,-0.104945681989,-0.113782040775,0.216456890106,0.023650238290,-0.009257315658,0.170529171824,-0.079369090497,0.009316049516,0.214534774423,-0.072740986943,0.031811013818,0.124701313674,0.035792052746,-0.294202625751,-0.133069589734,-0.110682845116,-0.012411498465,-0.179515674710,-0.028878390789,-0.035478394479,-0.093340978026,0.019240358844,0.001847997075,0.053647462279,-0.205158621073,-0.086734570563,0.196332395077,-0.069743931293,-0.178436413407,-0.051559168845,-0.143642112613,-0.011633280665,-0.493463993073,0.526333272457,0.108122758567,0.254729717970,-0.086144067347,-0.023847335950,0.115107476711,-0.082476980984,0.099980920553,0.104496680200,-0.039653308690,-0.002694352064,-0.076878227293,-0.172673523426,-0.071130953729,0.753970682621,-0.042542465031
-0.022288599983,0.123943381011,-0.124707423151,-0.750907659531,-0.083649091423,-0.044382840395,0.019677104428,0.035858582705,-0.006597597618,-0.360677689314,-0.365363180637,0.015188302845,0.009215280414,-0.348474174738,-0.013835355639,-0.243119165301,-0.015786819160,-0.241562023759,-0.255322843790,-0.134718641639,-0.080666661263,0.040029045194,0.135141149163,0.004444916733,0.113274253905,-0.209498897195,-0.175008594990,-0.003854452167,0.074909508228,0.165205806494,-0.079463988543,-0.004739511758,0.102151729167,-0.447867572308,-0.139088809490,0.119076244533,0.134077847004,0.041904412210,-0.038903899491,-0.081779375672,0.023922657594,0.071237474680,0.023726345971,-0.248946189880,0.083110295236,0.447041362524,0.119242362678,0.244679585099,-0.001936369692,0.273576796055,0.214395672083,0.070437662303,-0.036667760462,0.093927800655,-0.073534190655,-0.178144410253,0.171983823180,-0.049447029829,0.080403476954,-0.153186231852,-0.048112656921,0.073335513473,-0.109009481966,0.033502433449,-0.240646958351,-0.018590025604,-0.155211567879,-0.070559024811,0.119345702231,-0.132698312402,0.172732278705,-0.047717694193,0.046547997743,-0.582800924778,-0.026407672092,-0.119273647666,-0.027320893481,0.041771132499,-0.073866337538,-0.155062034726,0.151491582394,0.135509401560,-0.051119115204,0.026007959619,0.187184095383,0.442090868950,0.014092341065,-0.042262122035,-0.027881590649,0.020754016936,0.001276998664,0.007281153928,-0.257010519505,0.055934183300,-0.055471003056,0.036604963243,-0.062739163637,-0.052261900157,0.029305681586,-0.135356724262,0.210713759065,0.281311899424,-0.069588400424,0.235938593745,0.144513055682,-0.136478543282,-0.062102004886,0.287139266729,0.148036256433,-0.247523427010,-0.022867016494,-0.219291016459,-0.114852234721,0.001304585603,-0.033714484423,-0.101239964366,0.071593523026,-0.118712730706,-0.059219449759,-0.104720234871,0.001584987040,-0.059645529836,-0.178347632289,0.084341958165,-0.111079275608,0.043322879821,0.053434304893,-0.063114896417
0.282549262047,0.112234093249,0.133144155145,-0.844472885132,0.086397953331,0.029413493350,0.115274608135,-0.004284232389,0.022500436753,0.175078615546,-0.297270178795,0.022230409086,-0.047546379268,0.266600906849,0.008647972718,0.269752919674,0.012359425426,0.217482805252,0.344635218382,-0.095320478082,-0.122602969408,-0.020432654768,0.027159659192,-0.064462162554,-0.150502860546,0.482622146606,-0.118296496570,0.088713407516,-0.015586512163,0.087410070002,0.013998209499,0.049172896892,0.114247307181,-0.285470455885,-0.028571860865,-0.251775413752,0.138741314411,0.429143846035,0.023706004024,0.002516890876,0.029380699620,-0.096065476537,-0.176960512996,-0.145147785544,0.022360829636,-0.462075114250,0.030226131901,-0.144204825163,-0.373674690723,-0.076515644789,-0.172363013029,0.061322700232,-0.128979504108,0.013649120927,0.140258878469,0.034690901637,-0.165713533759,-0.092391535640,0.001961520407,0.002211249899,-0.013365141116,-0.019650006667,0.093165300786,0.030478075147,0.189358040690,-0.060855913907,-0.147957056761,0.235033422709,0.110590800643,0.011273665354,-0.068056643009,-0.035885613412,0.059822864830,0.280400663614,-0.052442461252,-0.117700725794,-0.071283362806,-0.031933229417,-0.043298546225,-0.098127380013,-0.704305350780,0.136477574706,-0.236178174615,0.038908917457,0.036287553608,0.288806319237,0.026478882879,-0.209191933274,0.066769160330,-0.037255328149,0.001415993902,0.004757750779,-0.309654861689,0.103271991014,-0.193566873670,0.009802449495,-0.144953519106,-0.112985908985,0.065581008792,0.077209055424,-0.023207366467,-0.480869114399,0.027541656047,-0.243865996599,-0.299114584923,-0.159314036369,-0.000521542097,-0.293042868376,-0.020642155781,0.117490366101,-0.024937031791,-0.074533283710,0.000919173297,0.131274357438,-0.071143493056,-0.047543380409,-0.019842322916,-0.138340637088,0.067884065211,0.025566929951,-0.027115248144,0.011495063081,0.278334528208,0.036599822342,-0.193002298474,0.033989183605,-0.153136655688,-0.021750163287
-0.020114822313,0.047780137509,-0.026579514146,-0.182641699910,-0.005673142616,-0.061049871147,-0.052699804306,-0.015575859696,0.025442078710,-0.081073626876,-0.097575485706,0.115341201425,-0.026222238317,-0.067063808441,-0.000607439899,-0.166192859411,0.063791163266,0.015724202618,0.090483091772,0.108765959740,0.010790918022,-0.004312127363,0.149462744594,-0.032346107066,-0.200686931610,0.046412374824,-0.066802881658,-0.082568921149,0.052389081568,0.048511553556,0.078666515648,0.059570942074,0.383117496967,-0.111401468515,-0.061190467328,-0.095357038081,1.090848207474,-0.063706189394,0.037608649582,-0.136743783951,0.011072823778,0.172905892134,-0.035288169980,-0.152179002762,0.032850723714,0.153622135520,-0.207418128848,-0.016738222912,-0.004486851860,0.023310678080,-0.022342337295,-0.078647263348,-0.020329350606,-0.077746003866,0.026062337682,-0.082010574639,0.080686166883,0.188996896148,0.017882062122,0.133409187198,-0.009456490166,-0.090328395367,0.077907279134,-0.054457958788,-0.044131994247,-0.011977198534,-0.161655947566,-0.039295308292,-0.032702531666,0.085366576910,-0.267005383968,-0.056158974767,0.071614667773,0.094624526799,-0.109403401613,-0.038481727242,0.140593469143,0.013079064898,0.020012514666,-0.088260211051,0.048522122204,-0.282912254333,0.042455419898,0.040256880224,-0.101570442319,-0.027993721887,0.046885587275,-0.027725046501,0.040165327489,-0.040704149753,0.150873124599,-0.004425425548,-0.158781707287,-0.203183546662,0.054207354784,-0.013446464203,0.038091886789,0.075544580817,0.005131069105,-0.127913504839,0.072888225317,-0.037563476712,-0.057206816971,-0.083379000425,0.018307732418,0.011795982718,0.130149558187,0.112824417651,-0.068949423730,-0.065464407206,-0.038562405854,0.054768756032,-0.044513396919,-0.027833117172,-0.088709682226,0.430748045444,0.067182816565,-0.104871541262,0.052007149905,-0.053072381765,0.012610165402,0.026193263009,-0.032908856869,0.063805773854,0.258733689785,0.043026890606,0.232322409749,0.009879752994
0.044650293887,0.061734057963,-0.106162287295,0.333881348372,-0.179388403893,-0.012321712449,0.034128159285,-0.015121300705,0.006329017226,-0.042204957455,-0.178422927856,0.021003860980,-0.044187866151,1.271754980087,-0.050527978688,0.110284663737,0.071801587939,-0.221696123481,0.011615096591,0.457393079996,0.025425868109,0.010176873766,-0.049194820225,-0.098142646253,0.147939935327,0.095469050109,-0.081990055740,0.230947718024,0.091257721186,0.143676012754,0.072374731302,0.204479917884,-0.175576001406,0.018984753639,-0.081188842654,0.097707860172,-0.113210774958,0.062056273222,0.008793031797,0.319090008736,-0.007282448001,-0.052777353674,-0.274141550064,-0.185814589262,0.386562615633,-0.114763364196,0.041087605059,-0.054530486465,-0.287770450115,0.097960270941,-0.064138218760,-0.109828196466,-0.064833730459,-0.128586202860,0.024510927498,0.057079296559,-0.014070669189,-0.138500303030,0.050855230540,-0.109754905105,0.012073023245,0.111897945404,-0.235190808773,-0.045861821622,-0.022107357159,-0.113183729351,0.012625032105,-0.003555271775,0.215814754367,-0.001665095682,-0.011091571301,0.035458002239,0.030928611755,-0.114455036819,-0.141186609864,0.107056602836,0.002721892903,-0.015939520672,0.059031840414,-0.074765391648,-0.059060696512,-0.244287416339,-0.069042198360,-0.024019436911,0.207519367337,0.133459061384,0.007881115191,-0.039532825351,0.070358432829,0.018998622894,-0.342508643866,0.018779665232,0.151445403695,-0.233136162162,-0.016363015398,0.003087937133,-0.207373827696,-0.011569983326,0.192769616842,0.107479102910,0.019311506301,-0.079726547003,0.109350509942,0.082681506872,0.119855135679,-0.102830417454,0.078738272190,-0.046335425228,-0.009101955220,-0.187519446015,-0.094212323427,-0.137874156237,0.004977110308,-0.048727057874,0.072180137038,-0.218856438994,0.036757592112,-0.093767412007,-0.030222063884,-0.336616307497,-0.012178126723,0.041735615581,-0.078362226486,-0.026997126639,-0.516578733921,0.000899879378,0.013916389085,0.013186174445
0.246155977249,0.031703937799,0.074859276414,-0.123303517699,-0.190738037229,0.129474654794,-0.095650069416,-0.001391709200,0.018025428057,0.221896201372,0.070433519781,-0.067956946790,0.024723293260,0.385428488255,-0.007538878359,0.226328626275,-0.038517557085,0.139113336802,-0.079425148666,0.098313890398,-0.123652160168,0.010089502670,-0.013771260157,0.031517218798,0.039614677429,0.306931078434,-0.057892572135,0.009187058546,0.127768442035,0.040267165750,-0.050806093961,0.021864380687,-0.048526998609,0.051662281156,-0.131522983313,0.404144734144,0.019714292139,0.026270499453,-0.006439645309,0.003439777764,0.001911020139,0.174260556698,-0.174625679851,0.007327806205,-0.184846669436,-0.147008284926,-0.012006966397,-0.171011447906,-0.075145594776,-0.264812260866,-0.151695787907,-0.045338612050,-0.062470804900,-0.040059082210,-0.009039974771,0.455293476582,-0.013987746090,0.018458105624,0.149620547891,0.015564329922,0.014879588969,-0.057690788060,-0.245677992702,0.024608930573,-0.168168663979,-0.038567773998,0.039868440479,0.050274901092,0.046894423664,-0.063368976116,-0.130186274648,0.032421834767,0.038389336318,0.258571654558,-0.106944538653,0.043145503849,-0.190647646785,0.049046061933,0.004052323755,-0.065880827606,-0.203528061509,0.056784082204,-0.310743421316,0.012456404977,0.089574664831,-0.000884000678,0.017032634467,-0.008804456331,0.070978090167,-0.060837794095,-0.006384073757,-0.037048000842,-0.150377899408,-0.111133292317,0.208691418171,-0.025580191985,0.051245424896,0.116936609149,-0.063956417143,-0.139170557261,0.112456686795,-0.127795413136,-0.089623384178,-0.192901939154,-0.053899969906,0.029958199710,0.050846610218,-0.223058357835,-0.010684781708,0.010697932914,0.005021976307,-0.308876335621,-0.220416441560,0.077815130353,-0.035815760493,-0.075313262641,-0.136657312512,0.032932166010,-0.140784397721,0.075244411826,-0.021504584700,0.010061303154,-0.038030218333,0.044637314975,0.098650597036,-0.066841110587,-0.103376954794,-0.055540602654
0.162539497018,-0.032469313592,-0.050048194826,-0.260291010141,-0.224007576704,0.022369738668,-0.089640013874,0.044409733266,0.014632786624,-0.221884459257,-0.130633473396,0.006371230353,-0.077158644795,-0.042730458081,0.065052174032,0.037189010531,-0.017169238999,0.015380010009,0.222568660975,0.017277847975,0.198708251119,0.033210840076,0.124208636582,-0.055957257748,0.155735462904,0.084486536682,0.133911550045,-0.106973133981,0.047108691186,-0.164520218968,-0.296358764172,0.020823817700,-0.115816816688,0.064885608852,-0.138760149479,-0.048904985189,0.018540063873,-0.162660568953,-0.009949684143,-0.189333900809,-0.015023068525,-0.129090443254,-0.118580043316,0.172139093280,0.357320994139,0.219387039542,-0.076788485050,0.022014314309,0.055407710373,0.194632619619,-0.274113565683,-0.168262809515,0.010598295368,0.080335989594,-0.071259275079,0.233712494373,-0.047422677279,0.048506628722,0.067598871887,0.119623206556,0.025458643213,-0.014421341009,-0.208992511034,-0.004471995868,-0.143477931619,-0.155101224780,0.158909067512,0.030818244442,-0.184140145779,-0.013884330168,0.109930291772,0.033135961741,-0.086148582399,-0.493125200272,0.087258175015,0.131979197264,-0.219832092524,-0.013501997106,0.052239425480,-0.147560298443,0.085850775242,-0.044050022960,-0.128063336015,0.005048470106,0.175802439451,-0.104266703129,0.033749472350,0.273071110249,0.075351797044,-0.115934416652,-0.112603642046,-0.040476299822,-0.066673807800,-0.134260714054,-0.015924308449,0.001346984645,0.214608356357,-0.058313302696,-0.030844520777,0.135960340500,-0.123120412230,-0.621629059315,0.118008449674,0.076574116945,0.330134749413,-0.002272221260,0.087921321392,-0.118498340249,-0.268229752779,-0.238278225064,0.046213880181,-0.276572912931,0.075872056186,0.162809744477,-0.207149147987,0.063495390117,0.002634483390,-0.182435736060,-0.270126581192,0.265213370323,0.023906428367,0.002317835577,-0.067595742643,0.037224031985,0.055461142212,-0.009728771634,0.158590719104,0.129588901997
-0.040738012642,-0.026117216796,-0.117836780846,-0.218726634979,-0.014465499669,0.074851140380,-0.245864242315,-0.036764431745,-0.010928695090,-0.094253592193,-0.095311701298,-0.002532057930,-0.016311431304,-0.303200215101,-0.050589490682,0.006046833005,0.127951472998,-0.057625159621,-0.033902123570,0.022210074589,0.041065040976,-0.042154733092,0.190947100520,0.051144868135,0.350197583437,0.005801032763,0.009448047727,-0.008304165676,-0.047021619976,0.065233431756,0.036976300180,0.035152170807,0.020661504939,0.007920016535,-0.037095483392,0.039994705468,0.021758170798,0.047268677503,-0.036916568875,0.133916392922,-0.002431626897,-0.060555621982,0.354277729988,0.004592536017,-0.080278858542,0.123969510198,0.048051007092,0.075716555119,-0.255528777838,0.092670470476,0.183145821095,-0.019519314170,0.013219816610,-0.044984705746,-0.011765606701,0.198227718472,0.128880277276,0.077404484153,-0.004088898655,0.027398370206,-0.010254709050,-0.124106295407,-0.033437706530,0.053498387337,-0.193166002631,-0.024271173403,0.055030114949,0.091888681054,0.224018990993,-0.088700704277,0.247507214546,0.135015636683,0.059429790825,-0.899716317654,-0.020598741248,-0.037743646652,-0.010491981171,-0.006030368619,0.036191277206,-0.008273852058,0.314577996731,-0.060061980039,0.009243257344,0.038439810276,-0.117650739849,0.009551833384,-0.000306154136,0.114055797458,-0.028385603800,-0.042165696621,-0.017898468301,-0.016084143892,-0.017514416948,0.045759346336,0.029229685664,-0.017913853750,-0.016524991021,-0.038634728640,-0.047012947500,0.014200474136,0.134348556399,-0.161342203617,-0.208865404129,0.108663029969,0.015293532051,0.062437005341,-0.028263969347,0.120145052671,-0.203745990992,-0.042289014906,0.035992156714,-0.058259744197,-0.113126456738,-0.051995597780,0.323619961739,0.060253079981,0.121904253960,0.044084098190,-0.205033496022,-0.129706427455,0.000992447720,-0.011324835010,-0.082867994905,-0.024321239442,0.023348256946,0.022689042613,0.038619313389,-0.006984752603
-0.186630204320,0.139458492398,-0.124405868351,0.128905400634,-0.139230281115,-0.068456515670,0.064454831183,-0.021736990660,0.012802914716,0.074961364269,-0.187079280615,-0.066130839288,0.040146846324,0.062945701182,-0.032565362751,-0.009051279165,0.034776121378,0.133180454373,-0.004185463302,0.018075468019,0.054121915251,-0.023663137108,0.008205194026,0.045289181173,0.096938185394,0.114204265177,0.010162009858,-0.190696656704,-0.054385155439,-0.213215872645,0.041432399303,0.096646524966,-0.154242515564,0.134379804134,0.103703916073,-0.086669750512,-0.048781950027,0.014418975450,-0.003556345822,-0.163810208440,0.003134709317,-0.146000981331,0.097810462117,0.073064155877,0.048597957939,0.108306162059,0.142664760351,0.108481757343,0.014323978685,0.055674191564,-0.083204306662,-0.028197845444,-0.159175544977,0.169420287013,0.011662061326,-0.044075693935,0.042859647423,0.070902608335,-0.099508017302,0.155423849821,0.016972420737,0.047216840088,0.030210051686,0.278293728828,0.112758576870,0.290233850479,0.009354052134,0.101597756147,0.073547348380,-0.022565787658,-0.008225076832,-0.130188986659,-0.014825319871,0.028313187882,-0.078887663782,-0.129964753985,0.293970227242,0.000479678711,-0.033202238381,0.028854534030,-0.095183454454,0.097682781518,-0.040689025074,0.000674873590,-0.126972407103,0.049481317401,-0.015401870944,0.052126713097,0.051611673087,-0.058062855154,0.153946369886,-0.018169365823,-0.004491281230,0.016350539401,-0.186002016068,0.007176925894,-0.142832621932,-0.023308744654,-0.025496900082,-0.104854896665,-0.076463855803,0.041794635355,-0.201072901487,-0.102349519730,-0.077926211059,-0.147151395679,0.169626384974,-0.079438894987,-0.159486100078,0.071894384921,0.055983118713,0.019920637831,0.050123479217,0.113258019090,0.035485714674,-0.214022919536,0.030957199633,0.101952873170,0.091455735266,-0.126220241189,0.014375762083,0.000377520861,-0.079817652702,0.176845446229,-0.064921893179,0.122742444277,-0.000528494769,-0.065564997494
-0.084563285112,0.104104287922,-0.065085776150,-0.267128288746,-0.234976738691,0.241483494639,0.064219295979,-0.038434710354,0.036843627691,0.103632554412,0.025828665122,0.103475704789,-0.699922204018,0.058562129736,-0.226734891534,-0.042557451874,-0.117959283292,-0.172212466598,-0.078505419195,-0.275506675243,-0.029568448663,0.018717698753,-0.029577156529,-0.059439480305,-0.025627195835,-0.060881290585,-0.039519146085,0.292487919331,0.051932811737,-0.111459754407,-0.145155906677,-0.318476110697,0.153550714254,0.034205254167,-0.341448783875,0.057820778340,0.288665324450,0.045493442565,0.010657870211,0.036070466042,0.046299822628,0.060424305499,0.054767105728,0.262231081724,0.011071976274,-0.118354640901,0.336588323116,0.004825339653,0.300842136145,-0.023949999362,-0.078965902328,-0.169013902545,-0.318737447262,0.031481318176,0.010954713449,-0.111714988947,-0.025993516669,0.289285063744,0.061784468591,0.121059603989,0.005052814260,-0.173262313008,0.085981719196,0.061951152980,-0.083430714905,0.034848835319,-0.188644811511,-0.061459433287,-0.036105789244,-0.027315028012,-0.255380749702,-0.640226900578,-0.071760483086,-0.110291473567,-0.295334130526,-0.179040730000,-0.327220439911,0.003047812497,-0.017622545362,0.050760015845,-0.181017279625,0.196667999029,0.007118549664,-0.010965640657,0.130040943623,0.044095132500,0.051082778722,-0.145737349987,0.030023628846,-0.024850707501,0.161460191011,0.048296410590,-0.063713788986,0.359716802835,-0.144521862268,-0.047388017178,-0.466441512108,0.016120331362,0.161840215325,-0.051307030022,0.012842604890,-0.202527910471,0.031955432147,-0.076425231993,-0.093637906015,-0.020315881819,-0.258790850639,-0.017102126032,0.148044645786,-0.126618593931,-0.116820931435,-0.173800602555,0.059342011809,0.331949800253,-0.138037294149,0.490936219692,0.089439451694,0.279012203217,-0.065478391945,-0.086153827608,0.080579549074,0.013996410184,0.003932735417,0.239332526922,-0.284712523222,-0.297544658184,0.150957614183,-0.027671746910
0.059955336154,0.081603057683,-0.066636718810,0.108649820089,-0.063655175269,-0.116731189191,-0.040880728513,-0.016102386639,0.041408631951,-0.024197859690,-0.283681780100,-0.330691814423,-0.011254539713,-0.062645927072,-0.087472975254,0.000589731499,-0.046140413731,-0.167128667235,-0.089868098497,-0.135782405734,0.039862167090,-0.005956683308,0.118154555559,0.081557929516,0.054329004139,0.084846690297,-0.142025083303,-0.056600593030,-0.050439782441,-0.061268202960,-0.068197801709,0.136043816805,0.037791725248,-0.145298495889,0.663025856018,-0.029880827293,0.191840708256,0.078959852457,0.000361304963,0.096685521305,0.038613922894,-0.089916370809,-0.175892412663,-0.004364283290,0.001946084318,-0.089667633176,0.041054766625,0.030147349462,-0.043727062643,-0.062740966678,-0.071805059910,-0.154000267386,-0.134699314833,-0.254106044769,0.029622865841,0.005325114354,0.050548430532,0.171133026481,0.043801609427,-0.271458387375,-0.018758323044,0.016054127365,0.011012550443,-0.198983073235,0.252179652452,0.206809639931,0.154427349567,0.045953553170,0.052399694920,-0.120370715857,-0.137302950025,-0.064714163542,0.007354735397,-0.022832959890,-0.110076494515,0.079074718058,-0.033072322607,-0.016921842471,0.037348289043,-0.132655382156,-0.060123831034,-0.214101672173,-0.106304444373,-0.025377253070,-0.060819137841,-0.051105577499,0.234823167324,-0.047350935638,0.007851682603,0.447085559368,-0.435976833105,0.011337371543,-0.058007247746,0.092145554721,-0.036693479866,-0.020214360207,0.114657931030,0.110137552023,0.167489558458,-0.126239329576,0.037637203932,0.066676840186,0.242705211043,0.050545088947,0.035401232541,-0.045668762177,0.113071694970,0.003278308781,-0.084033682942,0.053901609033,0.096102930605,0.026647029445,0.113179415464,-0.568227887154,0.098391026258,0.171283125877,-0.010496824980,-0.306849986315,0.072126626968,0.052455436438,-0.184672325850,0.014773535542,-0.042358923703,-0.062416102737,-0.063523329794,-0.124981977046,0.023647667840,0.074187606573
-0.042043440044,0.068030253053,0.091331183910,1.108174443245,0.276060283184,-0.058469355106,0.023254439235,-0.034030251205,0.005725849885,0.019339937717,-0.023104034364,-0.019652232528,-0.035340353847,-0.045113995671,-0.049581926316,0.182781815529,0.062693141401,-0.071073368192,0.030360544100,0.032035645097,-0.165700167418,0.008675614372,-0.046293608844,-0.075273156166,-0.006261908915,0.004318603314,0.014360724948,-0.211082816124,-0.049259681255,-0.167671248317,0.138511210680,0.195244148374,0.044757131487,0.108999215066,0.084422379732,-0.063480764627,0.246885761619,-0.229245245457,0.009417507797,-0.099647447467,-0.015729233623,0.025150509551,-0.043783344328,-0.077187448740,0.148456528783,-0.028191406280,0.185625091195,-0.024996360764,-0.013851731084,0.024492213503,0.167260989547,0.320003896952,0.012048665434,0.112822532654,-0.060350552201,-0.007126450539,0.069814980030,-0.090470619500,-0.003492511809,-0.246600553393,-0.027009546757,-0.010565335862,-0.037409801036,-0.090011581779,-0.101102665067,0.044669628143,0.179848149419,-0.030297864228,-0.081547044218,0.057535246015,-0.015520109795,0.169339343905,-0.041776210070,-0.163707554340,0.092719197273,0.038313932717,-0.214747846127,-0.018215833232,-0.004184449557,0.040345482528,-0.325459569693,-0.013452909887,-0.126036509871,-0.024897968397,0.032268751413,0.223485603929,0.021588787436,-0.097738757730,-0.017585195601,-0.113754004240,0.081997171044,0.038761790842,-0.577980518341,-0.033795062453,-0.062070973217,0.035735081881,-0.029036451131,0.118637420237,0.053730413318,-0.033317226917,-0.098497502506,-0.155398637056,0.218555897474,0.193476244807,0.068303465843,0.196503385901,0.162523061037,-0.057328250259,-0.009926219471,0.088281571865,-0.059835717082,0.074537828565,-0.028722668067,0.170992299914,-0.138190567493,-0.274209201336,0.023637998849,-0.041410278529,0.095139481127,-0.132099419832,-0.064290024340,-0.043790586293,0.068274930120,-0.095997981727,-0.153821796179,-0.017761796713,-0.022803667933,0.018238369375
0.144131243229,0.044555902481,-0.023360680789,0.386954784393,-0.092222511768,0.037118986249,-0.026303453371,-0.003710578894,0.001372381230,-0.011809053831,-0.034303821623,-0.047863259912,0.015608933754,-0.133704707026,-0.017511002719,0.167909860611,0.069989405572,0.063602633774,0.391446858644,0.103643573821,-0.088603541255,0.008925784379,-0.037414696068,-0.006161827594,-0.111749015749,-0.053881689906,-0.120368637145,0.004361391533,-0.229322552681,-0.040055140853,0.295262157917,-0.031641680747,0.002828133525,-0.092939399183,-0.082480713725,-0.436865508556,-0.046280954033,0.114374250174,0.038167353719,-0.086741127074,0.028316706419,-0.456376910210,0.264829188585,-0.230477795005,0.163742572069,-0.257471531630,-0.070725679398,-0.099318630993,0.034777127206,-0.354331076145,-0.015912316740,-0.026952188462,-0.026274917647,0.058899581432,-0.057837218046,-0.105639837682,-0.092704184353,0.054275996983,-0.891804039478,-0.040296271443,0.009288306348,-0.076654270291,-0.048756565899,0.012045824900,-0.385668963194,-0.062847927213,-0.165496274829,0.366910457611,-0.028367945924,0.081673428416,-0.086798250675,0.156716361642,-0.050829432905,-0.005587258842,-0.124407216907,0.013337687589,0.054683391005,0.017602369189,0.025528628379,-0.025303948671,-0.115607976913,-0.030629523098,0.036507371813,0.009281913750,0.071671634912,-0.049319867045,0.069761931896,0.041423793882,0.042216934264,-0.012347170152,-0.076745823026,-0.020575992763,0.211557835340,-0.009968139231,0.064385376871,0.038903389126,0.061505049467,-0.147744238377,-0.120915621519,-0.417324095964,0.071933872998,0.150574654341,-0.088756240904,0.030327443033,-0.382130354643,-0.039238851517,-0.017863843590,-0.241384074092,-0.043204281479,-0.060888886452,0.029061082751,0.418320119381,-0.161538869143,-0.087433196604,0.129009664059,-0.024778088555,-0.467497766018,0.149354264140,-0.064437173307,0.073245108128,0.005954481661,0.024377990514,0.597245633602,-0.018266841769,0.068089626729,0.088670447469,-0.282966107130,0.138240888715
-0.124559655786,-0.048935301602,-0.089040562510,-0.170727148652,-0.014161532745,0.153851777315,0.027559688315,-0.048292413354,0.029804490507,-0.110402785242,0.142050817609,-0.078505150974,0.034610886127,-0.018099527806,-0.004245211836,-0.118639811873,0.020869310945,-0.022381352261,0.004135143012,-0.058110941201,0.060065887868,0.004612297751,-0.037986487150,0.136748194695,0.051308218390,-0.023603852838,0.027618827298,-0.014409454539,0.020602995530,0.061179194599,-0.007275974844,-0.068427085876,0.019019121304,0.397171854973,-0.245637163520,-0.138310477138,-0.002241970738,-0.006700649858,0.035687290132,-0.025199675933,-0.031362172216,0.059271853417,0.088449716568,-0.089445203543,0.062173891813,-0.085422486067,0.015542506240,0.092652045190,0.012573522516,0.070390716195,-0.238219022751,0.005977346562,0.018946478143,0.077423252165,-0.014671959914,-0.213451519608,0.056497454643,-0.020565835759,-0.312703967094,-0.301505267620,-0.012146392837,-0.117641314864,0.752657473087,0.183737009764,0.008263413794,-0.000699676864,-0.130899891257,-0.431820034981,0.094555616379,0.261442869902,0.166672900319,0.095038346946,0.043879512697,-0.007252886891,0.023960463703,-0.053769536316,-0.044897966087,-0.006671661045,-0.007338009775,0.093488216400,-0.499503076077,-0.039576277137,0.617303848267,0.012284524739,-0.077614277601,0.003627594095,-0.052256528288,0.166672199965,0.091132603586,-0.008274132386,0.086535178125,0.018397003412,0.090639866889,-0.177674412727,-0.262105524540,-0.018212219700,-0.054548554122,-0.411914080381,-0.002075491240,0.138305485249,0.043231569231,-0.283497452736,-0.175103053451,-0.007834177464,0.046244077384,-0.008826166391,0.028369713575,0.039870891720,-0.029694274068,-0.205268532038,0.004954333417,0.161032944918,0.244643777609,-0.087527923286,-0.342417448759,-0.066717743874,0.327879190445,-0.079050548375,-0.020549703389,-0.067522078753,0.015475392342,-0.010206081904,-0.089073702693,-0.094113342464,0.014356733300,0.030420800671,-0.107155121863,-0.032229084522
0.008943528868,0.007723248098,0.058430626988,-0.163692638278,-0.122455842793,0.265430122614,-0.316216617823,-0.042931299657,-0.038774970919,0.123592451215,-0.013584958389,0.025824645534,0.071921736002,-0.164309367537,-0.029111890122,-0.162994295359,0.022684350610,-0.039226878434,0.023478221148,0.026417924091,-0.067051976919,-0.030217440799,0.029938612133,-0.167489662766,-0.160045996308,0.056332599372,-0.005824176595,0.055431108922,-0.115017674863,-0.091863170266,0.034550856799,-0.029664931819,-0.002185893245,-0.519043982029,0.019162664190,-0.806292176247,0.035835638642,-0.104642137885,0.009007078595,0.081622488797,-0.025643579662,0.287668526173,-0.163355216384,0.016137950122,-0.060051370412,0.034889969975,-0.014754074626,0.059064980596,-0.263681709766,-0.022645823658,0.080622039735,-0.153849244118,-0.091231733561,-0.124327056110,-0.019287677482,0.209826350212,0.075816258788,-0.009183074348,-0.391721427441,-0.172832131386,0.020312031731,-0.026631161571,0.010906377807,-0.024453749880,-0.032113861293,0.111485064030,-0.186444893479,-0.280452519655,-0.004186697304,0.321300685406,-0.063317038119,-0.160360142589,-0.092807970941,0.018315479159,-0.087817817926,-0.030108334497,-0.004637486301,-0.046670172364,0.008711352013,0.138672873378,-0.098844401538,-0.017733070999,0.486093759537,-0.037210013717,0.290089845657,-0.054694648832,-0.014454931021,-0.551448345184,-0.003840369172,-0.081579104066,0.065532028675,0.049364607781,-0.177811846137,-0.049923878163,1.156484484673,0.031947191805,-0.038294669241,-0.084169000387,0.054558586329,0.059806708246,-0.216817885637,-0.117629960179,-0.030052650720,0.231034487486,0.028092693537,-0.038416001946,-0.065509840846,0.223260059953,0.108201608062,0.013315071352,-0.052502963692,0.032787013799,-0.014148017392,0.017296854407,-0.001360428170,0.061266403645,0.144942596555,0.009447179735,0.015064461157,-0.008849184960,0.038948606700,-0.037491079420,0.067287400365,0.008032125421,0.172611892223,0.006044342183,-0.309488803148,0.078261807561
0.016273148358,0.119746528566,0.091741181910,0.268285572529,0.015119107440,-0.018162013963,0.006862356793,0.004860586021,0.030723443255,-0.082601293921,0.020609585568,-0.019221460447,-0.014576680027,-0.080144383013,-0.038273774087,-0.013364792801,-0.020774509758,0.067301981151,0.017990158871,0.466576009989,-0.051826935261,-0.018142497167,0.092571593821,-0.071624152362,-0.051565181464,-0.035957101732,0.175058037043,-0.368663787842,0.000566214847,0.546010255814,0.120141886175,0.066002234817,-0.088931709528,-0.288150042295,0.205018788576,-0.072656333447,0.050033189356,0.028775475919,0.021589107811,0.116027511656,0.016814496368,0.019720699638,-0.089282192290,-0.147428229451,0.080156877637,-0.021485263482,-0.365021497011,0.037013806403,0.072059862316,0.033656232059,0.053601395339,-0.172142669559,-0.039344225079,0.001405534684,-0.013641649857,-0.087168410420,0.007952424698,0.133431956172,-0.024516237900,-0.055470593274,-0.035794671625,0.042434465140,0.037307873368,-0.109910681844,0.003439426189,0.086127892137,0.072162561119,0.078916475177,-0.054949145764,0.039290294051,0.014897219837,0.069070607424,0.112816147506,-0.077101312578,-0.133421123028,0.164054572582,-0.302931278944,-0.019157476723,0.035899911076,-0.167439892888,-0.182145521045,-0.068766847253,-0.093503661454,0.038669597358,0.037755671889,-0.124217189848,0.098594263196,-0.009684482589,0.036697570235,-0.092898704112,-0.321136951447,0.015370630659,0.097833074629,0.160334587097,-0.043867055327,0.035190928727,-0.083294846117,-0.001413484686,-0.178526714444,-0.115799531341,0.034578140825,-0.020821126178,-0.084237538278,-0.117462195456,0.207116425037,-0.006447925698,-0.112207695842,-0.002669970039,0.043084800243,-0.034170653671,-0.014987653121,-0.040822226554,-0.039501283318,0.009592338465,-0.033906999975,-0.233068108559,0.034537795931,-0.221541598439,-0.027877416462,0.245090007782,0.035571407527,0.006200931035,-0.052699506283,0.095796443522,-0.508086442947,-0.306514233351,0.037165760994,-0.008130862378
-0.358079940081,0.193154454231,-0.087642975152,-0.151064515114,0.040820207447,0.027681754902,-0.390913426876,-0.014804913662,0.011199624278,-0.249630704522,-0.291048765182,-0.037090934813,0.008166822605,-0.577437818050,-0.115579299629,-0.060445867479,0.076811760664,-0.132536515594,-0.128942117095,-0.033855941147,-0.114850006998,-0.037610292435,0.263373196125,0.044210817665,0.475568681955,-0.084973312914,-0.149632662535,0.045607350767,-0.081670902669,0.169360458851,-0.035032778978,0.064144998789,0.167627066374,-0.264202833176,-0.096075929701,0.071144655347,0.039330929518,-0.241900295019,0.011881948449,-0.092749200761,0.037511333823,0.004344311077,0.044099275023,-0.280775070190,-0.238161087036,0.235784262419,0.118033751845,0.047071028501,-0.168055549264,0.112641699612,0.875062584877,-0.004117256496,-0.068753987551,-0.028222355992,-0.024841336533,-0.039414968342,0.175661817193,0.025670181960,0.001581904711,-0.177399575710,0.048981238157,-0.121197380126,-0.061670232564,0.026497669518,-0.146636396646,0.042329717427,-0.034554153681,0.079715311527,0.384344190359,0.000358942460,0.136932820082,-0.035299438983,0.018013810739,-0.993298172951,-0.084427624941,-0.057924691588,-0.012803282589,0.035993844271,-0.147363603115,-0.116296224296,-0.023814987391,0.182701751590,-0.188472926617,0.046999957412,-0.033893927932,0.278654962778,0.076569646597,0.126799300313,0.187845498323,-0.036680370569,-0.046496786177,0.012031950988,-0.176206231117,-0.108834147453,0.091491527855,-0.011346504092,-0.065886080265,0.021455243230,0.053314439952,-0.164449647069,0.198020353913,0.261144936085,-0.304037272930,0.052085015923,0.120189450681,-0.049365065992,-0.030599910766,0.236552476883,-0.053962215781,-0.450926125050,-0.016570283100,-0.123175248504,-0.074779681861,0.022815441713,-0.019073363394,-0.135747283697,0.073087036610,-0.098298557103,0.023832125589,-0.075459547341,-0.040438190103,-0.010020845570,-0.149668097496,-0.035746492445,-0.038273740560,0.006867814809,-0.054121468216,-0.059952683747
-0.022285906598,-0.005714460276,0.009115242399,0.152270257473,0.113862842321,-0.059664770961,-0.072764873505,-0.028994461522,-0.003983692732,0.028067648411,0.035319138318,0.015074893832,0.015908513218,-0.027345675975,-0.079579129815,-0.014128444716,0.006907084025,0.010544156656,0.045108426362,-0.035724494606,0.023399120197,0.020188745111,0.037306334823,-0.075385175645,0.022709375247,0.001194205019,0.026226241142,-0.137817591429,-0.026214137673,0.141107290983,0.060928162187,0.018748419359,-0.037378642708,-0.146121352911,-0.230883449316,-0.087727971375,0.174434140325,-0.081386484206,-0.024534367025,0.430687397718,0.004952493124,0.070580884814,0.054839070886,-0.138187393546,-0.005408031400,0.087477289140,-0.151094272733,-0.047863256186,-0.021240606904,-0.062160272151,0.072864659131,-0.208640813828,-0.071810856462,-0.060811467469,-0.002918665530,0.019178716466,0.024762839079,-0.114808373153,-0.000025347563,-0.017684059218,-0.008888713084,0.078631572425,-0.055734675378,-0.185573443770,0.015766821802,-0.010841666721,-0.035982526839,-0.003975050524,-0.041580092162,-0.033199306577,-0.188235834241,-0.063580878079,-0.064730241895,-0.064807429910,-0.036322340369,0.129049628973,0.153330937028,0.001176663092,0.039043225348,-0.073352463543,-0.132819071412,-0.032620310783,-0.007268952206,-0.013938927092,0.121973581612,-0.206138238311,0.035506572574,-0.087250016630,0.000335485762,0.122863076627,-0.127840533853,-0.035458497703,0.081874817610,0.039899282157,-0.035967241973,0.003262159647,0.135066986084,0.007037662901,-0.134048476815,0.005608334672,0.101059004664,-0.202473625541,0.067284315825,-0.020401565358,-0.094941683114,-0.096696667373,-0.184371128678,0.093247137964,0.033430267125,-0.039409086108,0.009084152058,-0.008658681065,-0.052057553083,0.080605305731,-0.084577955306,0.228955477476,-0.009365246631,0.034385129809,-0.103609412909,0.053243670613,0.014684868045,-0.048582367599,-0.077670507133,0.017561592162,-0.266351819038,-0.151152163744,-0.092100635171,-0.086090944707
0.062193702906,0.030566027388,-0.351346045732,-0.086364470422,0.155472472310,0.020777205005,0.030137110502,0.013861708343,-0.022540429607,-0.038827925920,-0.037107340991,-0.033365648240,0.027937132865,-0.029141282663,-0.011211600155,0.029152764007,0.020065935329,-0.029522711411,-0.001407662756,-0.035803746432,-0.053483463824,0.025794235989,0.312305331230,0.039237089455,0.113786213100,0.055598635226,-0.016493279487,-0.014937784523,-0.074330165982,0.054826930165,0.020502999425,0.007574848831,0.063010551035,-0.161431983113,-0.046354640275,0.015662102029,0.012154017575,0.212266519666,0.035792510957,-0.100301168859,0.013481779024,-0.019708599895,0.053828783333,-0.042335703969,0.108884945512,0.000124589758,0.011725716293,0.034007314593,-0.074133120477,-0.067906752229,-0.821680665016,-0.035365715623,-0.077484704554,-0.005116111133,0.017736244947,-0.019523292780,0.001956039574,0.010676666163,0.015809040517,-0.018754215911,-0.041299503297,0.019459547475,-0.068093076348,-0.004775418900,-0.055848814547,0.013965844177,0.024334911257,0.064120650291,0.080090895295,0.033265773207,-0.005389881320,-0.023114541546,0.007396254223,0.090247854590,-0.076669625938,0.031981535256,0.068469680846,0.017932357267,-0.021958567202,-0.020269153640,0.025983914733,0.054065734148,-0.093390062451,0.036573741585,0.013488198631,-0.018203822896,0.005074409302,0.045347277075,0.096796855330,-0.050661671907,-0.046849042177,-0.021128069609,-0.019672775641,-0.024593437091,0.032994259149,-0.040994673967,-0.016865292564,0.012325429358,-0.030561847612,0.005127581768,0.027264246717,0.178686365485,-0.092590816319,0.002833130537,0.052688598633,-0.001553453389,-0.065174147487,0.041328500956,0.858519196510,0.829692661762,-0.000353120966,0.020744245499,-0.074379377067,0.022261271253,0.047569233924,0.027206126601,-0.073441497982,-0.105021663010,-1.055621385574,-0.026846708730,-0.014199358411,-0.022365199402,-0.082860343158,0.068061746657,0.010912481695,0.013170495629,-0.037642095238,-0.010593724437
-0.007442904636,0.010726697743,-0.123806886375,0.019884852692,-0.012187588960,-0.163616463542,0.162495687604,0.024958692491,-0.044565796852,-0.251952856779,-0.048174168915,-0.107453241944,0.030019691214,-0.018156642094,0.024864790961,-0.196377113461,-0.040880769491,-0.016243247315,0.122825920582,0.076772764325,0.170343711972,-0.005097166635,0.016756158322,0.082031294703,-0.058724287897,-0.108563929796,-0.064698964357,0.018070004880,0.020010657609,0.114229202271,0.010602509603,0.079034999013,-0.044566724449,-0.174583896995,0.042476344854,-0.160630509257,-0.006822306197,0.065959952772,-0.008098348044,0.052720069885,-0.003459101077,-0.070268779993,0.319679021835,0.112956881523,0.166183531284,-0.196910262108,-0.052325580269,0.094615228474,-0.021161815152,0.186480358243,0.104796908796,-0.069017678499,-0.034034240991,0.042426489294,-0.070308975875,-0.294594585896,-0.077884942293,-0.000346664980,-0.188131034374,0.057363569736,0.036453753710,0.009182902984,0.431239038706,-0.004500760697,0.024546645582,0.134307742119,-0.040003061295,-0.049973998219,-0.003845037892,0.020609742031,0.168922320008,0.095017455518,0.039763905108,-0.210819467902,-0.032780546695,-0.071567721665,-0.216596886516,0.011441144161,-0.036806605756,0.025642132387,-0.100179634988,-0.079283207655,0.421175003052,0.013861299492,-0.012337145396,-0.166936472058,0.040248885751,0.006407876499,-0.026958456263,-0.087759628892,-0.014322176576,-0.037620916963,-0.141529768705,-0.014729378745,-0.220935046673,-0.008091603406,0.022816112265,-0.094062678516,-0.024812079966,0.122715212405,0.057717699558,0.052819486707,0.012226073071,0.191462025046,0.010291521437,0.009993008338,0.081190392375,0.156884133816,-0.004348917399,0.157817259431,-0.002594371792,0.016414649785,0.109885640442,0.027517173439,-0.033672675490,-0.038353685290,0.197178453207,-0.142615422606,0.021669849753,0.081176690757,-0.034805137664,-0.010639538057,-0.153563365340,0.051838632673,0.013525377959,0.005109231919,-0.021130893379,-0.004530635197
-0.123628288507,0.293469548225,0.100808903575,-0.557231068611,0.059628531337,-0.103789456189,-0.388702452183,-0.007717829663,0.022066682577,0.053033560514,-0.473298668861,-0.055020090193,-0.117156051099,-0.394305050373,-0.027574457228,0.089197404683,0.207481041551,-0.039187747985,0.246009856462,0.057397291064,-0.319031894207,-0.010481305420,0.423338264227,0.220193922520,0.377893626690,0.342945665121,-0.001588992774,0.145925983787,-0.369464933872,-0.054968588054,-0.235865563154,-0.054361686110,0.237042650580,-0.463140755892,-0.081933774054,-0.346188753843,0.035380043089,-0.078422315419,-0.038052044809,-0.080666162074,0.047148641199,0.000707261381,-0.197120368481,-0.126098021865,-0.421793103218,-0.325017243624,-0.003510698676,-0.229086235166,-0.028997864574,-0.291370064020,0.560640811920,-0.113479584455,-0.125350207090,-0.046329867095,0.189171358943,-0.077780142426,-0.010266673751,0.022651333362,-0.282297402620,-0.206478372216,-0.024119805545,-0.243094250560,0.299521774054,-0.028486270458,0.235227450728,-0.025426970795,0.267401069403,0.406541913748,0.361363053322,-0.116546742618,0.029692769051,-0.107878871262,0.068346507847,-0.818597853184,-0.186036735773,-0.046728435904,-0.051723498851,-0.018207637593,-0.144947618246,-0.120601937175,-0.346581637859,0.193062737584,-0.033761784434,0.018224406987,-0.043233800679,-0.172605082393,0.105483323336,-0.104967057705,0.962085485458,0.074092969298,-0.090796962380,0.028347427025,-0.324484139681,0.043929778039,-0.125935733318,-0.047691069543,-0.013712492771,-0.126098528504,0.079074092209,0.129422068596,0.272448629141,0.480613082647,-0.162539213896,-0.081750467420,-0.303309082985,-0.145732000470,-0.036558486521,0.001393754967,-0.209609389305,0.197857961059,-0.000170195839,0.294509857893,-0.078186646104,0.031159531325,-0.245753735304,-0.062874652445,-0.068205356598,-0.032472502440,-0.073412887752,-0.271087169647,0.013476843014,-0.011145496741,0.201908096671,0.038958474994,-0.062350742519,-0.027105057612,0.009149235673,-0.017584431916
0.073549471796,-0.025806231424,0.105106703937,-0.166292771697,-0.105039931834,0.159925639629,-0.106307804585,0.043207038194,-0.030029909685,0.037919640541,0.242549896240,0.026922196150,-0.012295461260,0.186022713780,-0.046782612801,-0.012013404630,-0.031087648124,-0.229280397296,-0.089758805931,-0.056263275445,-0.053673345596,0.017226653174,0.093837291002,0.249680683017,0.050175189972,0.034656632692,-0.007611521520,0.048343729228,-0.091318599880,0.097465552390,0.166622221470,0.194026768208,0.022289220244,-0.097148686647,-0.061204414815,-0.074639342725,0.140825673938,-0.114375561476,0.028743023053,0.081921719015,0.002566775307,-0.129607394338,-0.178976953030,-0.002644656925,-0.021158311516,-0.221886157990,-0.070497445762,-0.081578657031,0.023609684780,-0.129600346088,-0.007789732423,-0.010173561051,0.017956146970,-0.290096759796,0.077596016228,0.073480762541,-0.047665774822,0.058427464217,0.057911317796,0.178791642189,0.047716762871,0.002088719048,0.076904550195,0.174654364586,0.184615939856,0.217636927962,-0.003499315353,-0.000882947701,0.253763556480,0.204230248928,-0.033667515963,0.250515043736,0.045128293335,-0.130013465881,-0.006752223708,-0.016037713736,-0.031950362027,0.031868036836,-0.065463848412,-0.042831588537,-0.078199528158,-0.064133390784,0.014932722785,0.009668284096,0.038749184459,0.051647208631,0.017425173894,-0.062088008970,0.337396353483,-0.014372086152,0.138628154993,0.014154967852,0.133984982967,0.002290956443,0.010968823917,-0.001881049364,-0.026583530009,-0.223332673311,0.087078250945,-0.242179721594,0.076829217374,-0.101364374161,-0.041160069406,-0.192550718784,0.121122248471,0.067672461271,0.084821000695,0.003619131166,-0.055115021765,-0.200258836150,-0.176388546824,0.137575939298,0.054646067321,-0.072095848620,-0.031170813367,0.029499409720,0.163272410631,-0.038986567408,0.043568447232,-0.054660025984,0.052221555263,0.017864352092,0.205130845308,0.003487641923,-0.037574846298,-0.011478769593,-0.014225105755,0.013108933344
-0.142177596688,0.033167734742,-0.053140815347,-0.062828592956,0.090312488377,0.023269101977,0.077909350395,-0.024947701022,0.021572167054,-0.043886955827,-0.005828202236,-0.027023876086,-0.015160893090,0.098990343511,-0.004311304074,-0.152884513140,-0.077259793878,0.034318715334,-0.017311772332,-0.084095992148,-0.028501031920,-0.039299450815,-0.124732673168,-0.205952674150,0.238321840763,-0.038645762950,-0.050298891962,-0.021379696205,-0.051062475890,-0.055382303894,-0.021021060646,0.023837801069,-0.101430289447,0.246288523078,0.000154360168,0.274227142334,0.033823296428,-0.085940457880,-0.009378918447,-0.234935879707,-0.011281838641,0.152750149369,-0.118945032358,0.053465444595,-0.029324108735,-0.016731211916,0.003615602385,0.065476000309,-0.005024074577,-0.003328999970,-0.263096898794,-0.022630594671,0.035191360861,-0.067435503006,-0.022373713553,-0.080713324249,0.183513820171,-0.041043698788,0.194455593824,-0.145272031426,-0.008118539117,-0.141698047519,-0.337974816561,0.026782283559,0.158735826612,0.002672163537,-0.142850726843,0.196803405881,0.150459632277,-0.112163290381,-0.139505580068,0.052836038172,0.038852680475,0.106374479830,-0.033336233348,0.035399410874,-0.085777707398,0.038924004883,0.018836185336,-0.055102482438,0.045532017946,-0.055979371071,-0.212298050523,0.012467543595,0.029990334064,0.139719516039,-0.008183325641,0.026625795290,0.032285612077,-0.114358112216,-0.044866696000,0.047956220806,0.221993476152,0.041024029255,0.192967504263,0.048353541642,0.034720823169,0.092976130545,0.022473234683,0.235536843538,-0.008372046985,-0.057982530445,0.110987119377,-0.048580806702,-0.083135396242,-0.052646443248,-0.037757109851,0.029854502529,0.021845577285,-0.240740835667,0.009565534070,0.006247457117,-0.171241983771,-0.006706543732,-0.194807007909,-0.134133815765,-0.173358544707,-0.043353922665,-0.086904920638,-0.033598851413,0.066613420844,0.060204062611,-0.063510321081,-0.112637124956,-0.003666664939,0.020162571222,-0.105261795223,0.055797245353
0.019813809544,-0.403592646122,0.071652762592,0.399607092142,0.084840446711,-0.050387162715,0.031606636941,-0.048748280853,0.003255447606,0.014187695459,0.442903101444,1.304448604584,-0.018036073074,-0.042085383087,-0.092802204192,-0.062481783330,0.006138890050,-0.376028805971,-0.055049270391,0.009803153574,-0.119162276387,-0.029855055735,-0.077239364386,-0.051313377917,-0.086181052029,0.037055306137,-0.064114183187,-0.063166849315,-0.043194763362,0.121905654669,-0.217527344823,-0.217546373606,0.106931678951,0.169783294201,-0.104954406619,-0.059633009136,0.015488883480,0.085948869586,0.023154284805,-0.013840530068,0.042968522757,0.089383058250,0.347009122372,-0.392935752869,-0.171874761581,-0.046614639461,0.040499947965,0.115492217243,-0.022243088111,-0.106192901731,0.072364538908,0.046841170639,-0.030094264075,0.361707776785,-0.117892056704,0.069364421070,0.002114141360,0.018821069971,0.105475693941,-0.013284895569,0.037707027048,0.081397473812,0.113470479846,-0.099016644061,-0.134762391448,0.059747859836,-0.003877921961,-0.026439901441,-0.054243072867,0.143004581332,-0.100810639560,-0.174765571952,-0.030216518790,-0.009179384448,0.027565781027,0.014812683687,-0.158630281687,-0.001359908958,0.010418392718,-0.079099342227,-0.081563472748,0.256221115589,0.025645064190,0.002068804344,-0.038729932159,0.044612985104,-0.081940695643,-0.030601991341,0.032600801438,0.023942066357,-0.109828710556,0.017948489636,-0.173374041915,-0.012051730417,-0.034072630107,-0.006268417928,-0.137967631221,-0.151734694839,0.262719035149,-0.313976913691,-0.011225390248,0.046739008278,0.135511040688,-0.012072576210,-0.071720726788,-0.077738821507,-0.063923425972,0.039252460003,0.061064384878,0.099307708442,-0.031808599830,-0.091607868671,0.108489036560,-0.223549276590,-0.172125846148,0.005300628953,-0.134189799428,0.110521160066,-0.038367778063,-0.159539908171,-0.029200645164,0.030985662714,-0.019277241081,0.121850535274,0.017113367096,-0.058110989630,-0.135226488113,-0.010713877156
-0.010987760499,-0.005928063300,0.011829524301,-0.004087392706,-0.140209436417,0.131093159318,0.192197546363,0.033942785114,0.019056892022,0.049891684204,0.273789614439,-0.023189365864,-0.019731799141,-0.058753915131,-0.032767750323,-0.010316982865,0.042456608266,-0.063909113407,0.072614215314,-0.003273882670,-0.072970226407,0.036451812834,-0.018923074007,0.123174630105,0.079597733915,-0.054144304246,-0.012651073746,0.400927007198,-0.036424539983,-0.194738149643,0.101839698851,-0.125135600567,0.062283553183,0.110524490476,-0.773110210896,0.076891206205,0.001353275846,0.014485812746,0.038493879139,-0.232340827584,0.008768376894,0.160174816847,0.217111647129,-0.061593107879,0.007602485362,0.097021989524,0.041455034167,0.005405466538,0.031875789165,0.001410993515,0.060193806887,0.070263870060,0.006816445850,0.036217425019,0.015640165657,0.013548819348,-0.091844774783,0.015040067956,0.110987022519,0.164964422584,-0.039824716747,-0.175793573260,0.110564731061,-0.107942707837,0.104404412210,0.237462237477,-0.451213777065,0.130344092846,0.048647690564,-0.190154537559,-0.185000374913,-0.102284103632,0.002094853669,-0.051671147346,0.101694814861,0.001008993713,-0.081849113107,0.041506815702,-0.062024023384,-0.090002372861,0.050209566951,0.238887444139,-0.001702807262,0.035978984088,0.477535933256,-0.142018020153,-0.050658959895,0.073114313185,0.002621443244,0.121773064137,0.094967648387,-0.041854918003,-0.209309101105,0.154783114791,-0.117083564401,0.030645994470,0.035667780787,-0.109616823494,0.267471730709,-0.194336131215,-0.045827835798,-0.085067518055,0.307824403048,-0.050848223269,0.118491508067,0.028946463019,-0.080476410687,0.021013937891,-0.038173217326,-0.063200503588,0.117691822350,-0.042922262102,-0.045492663980,-0.076930500567,-0.251392632723,0.108092464507,-0.132550850511,-0.052223391831,-0.097717016935,0.027564823627,-0.037949621677,-0.023530054837,0.010596236214,-0.011741550639,0.254789054394,0.013745115139,-0.193923473358,0.072549432516
-0.086643010378,0.092702157795,0.055195845664,-0.180586561561,-0.004003989976,-0.183750256896,-0.233643755317,0.018166009337,0.037181384861,-0.070206992328,-0.307555854321,-0.008575212210,0.068601503968,-0.106922328472,-0.109699927270,0.038585066795,-0.092196576297,-0.001314772060,0.149845898151,0.032432641834,-0.203676924109,-0.018933588639,0.163879096508,0.221529483795,-0.123529359698,-0.026181878522,-0.114409595728,0.138515651226,-0.366727501154,0.026492748410,-0.259720861912,-0.128049373627,0.151587709785,-0.098308779299,-0.071011327207,-0.419719845057,0.063217170537,0.162062659860,-0.025904217735,0.019696999341,0.048292849213,-0.153169542551,0.236554145813,0.083652101457,0.092749036849,-0.325930863619,-0.108023174107,0.008550195023,0.565575420856,-0.246953532100,-0.038761090487,-0.095612339675,-0.121880196035,-0.029140831903,1.031032681465,0.037655185908,-0.463198214769,0.070918560028,0.275611042976,-0.211871758103,-0.009016042575,-0.124327138066,-0.295051336288,0.058650419116,1.042149305344,-0.059411555529,0.021155331284,0.242031082511,0.066325068474,-0.091007888317,0.248219951987,0.307186752558,-0.071314387023,-0.070193104446,-0.455528914928,0.050207842141,-0.081166751683,-0.036244679242,-0.028660122305,0.099968634546,-0.098294265568,-0.055831875652,-0.083054654300,0.033552955836,-0.242802292109,-0.184804409742,0.119015596807,0.111355997622,0.126651749015,0.003658906091,-0.102340951562,0.040221463889,-0.221445187926,-0.109506495297,0.060221593827,0.003805793123,-0.038731984794,0.015859957784,-0.071470186114,-0.066158443689,0.060867398977,0.002157474170,-0.155958920717,0.063920654356,-0.118959031999,-0.114142149687,-0.032909106463,-0.087482117116,-0.065993703902,0.103080615401,-0.000959397585,-3.948307991028,-0.492957890034,0.057781841606,-0.179377511144,-0.043481860310,-0.803712368011,-0.000136877061,-0.095351010561,0.021640496328,-0.057151589543,0.030680624768,0.426536500454,-0.162013798952,0.084308072925,0.244355142117,-0.085410572588,0.161881521344
-0.108426503837,-0.608917355537,0.093096315861,-0.015553328209,-0.271674931049,-0.031556237489,0.015645252541,-0.022769454867,-0.032880656421,0.013748080470,0.023492336273,0.489673048258,0.240489244461,0.035330627114,0.082642495632,-0.032266572118,0.002598713618,0.020629374310,0.012590235099,-0.100438229740,-0.031486660242,-0.022959560156,-0.002010406693,0.012995216064,-0.032182756811,-0.052851531655,-0.044190727174,-0.006577881519,0.003826383967,0.001728893258,-0.134602248669,-0.066636636853,0.012242406607,-0.046896304935,-0.147004052997,0.012032628991,-0.022650074214,-0.028635546565,-0.039011664689,0.030890433118,0.007280711550,-0.018812702969,-0.036514058709,-0.051574613899,0.004581104964,-0.030880512670,-0.012554754503,0.020057147369,0.021508807316,-0.017816480249,0.048335753381,-0.018869515508,0.076157115400,-0.045856323093,0.005991829094,0.053645256907,-0.011749612167,0.019240891561,0.035709008574,-0.045156721026,0.035087931901,0.065310448408,0.024150498211,-0.170139282942,-0.159448742867,0.013484711759,0.066504314542,0.020573517308,0.008924329653,0.014203433879,0.000993435387,0.086302444339,-0.058656290174,-0.077800199389,0.219872027636,0.002033623168,0.024954311550,0.048803687096,0.037412203848,0.012291009538,-0.073086015880,0.011849224567,-0.071353062987,-0.003475162899,0.063251569867,-0.039388816804,-0.035134568810,0.032635401934,0.029470331967,0.021478334442,-0.014392509125,-0.012670488097,0.011560847983,0.034945376217,-0.002006456722,0.035847611725,-0.007542529143,0.020712202415,-0.032839685678,-0.084745943546,-0.047162726521,-0.019809151068,-0.014657748863,-0.033002473414,0.041106849909,0.005644639954,-0.122905373573,-0.045142702758,0.055499821901,-0.035273503512,0.081386186182,-0.118125662208,0.055248115212,-0.072784058750,-0.018521882594,-0.032438848168,0.008268316276,0.037915553898,0.105204485357,0.029184184968,-0.008733349852,0.034187991172,-0.007838088088,0.084181398153,-0.027526173741,-0.043155238032,-0.023706924170,-0.014613568783
0.170138478279,0.109260834754,0.252068549395,0.030490288511,0.052094873041,0.174916341901,0.076823830605,0.044259551913,-0.004873909056,0.139673247933,-0.048268940300,-0.090852610767,0.078015469015,0.413688421249,-0.046943262219,0.308270484209,-0.041835319251,0.057115521282,-0.065055236220,-0.096684612334,-0.051190305501,-0.009562614374,-0.014070000499,0.045817486942,-0.045844640583,0.095813445747,0.000080935133,0.040337398648,0.108448795974,0.022642182186,-0.148620605469,0.093089833856,0.038020957261,0.100733697414,-0.083772622049,0.189231768250,0.008561670780,0.010479755700,-0.004850871395,-0.077723249793,0.020332533866,0.163391962647,-0.226320549846,-0.094864778221,-0.030166346580,-0.220018848777,-0.081886805594,-0.222869455814,-0.177994966507,-0.207036510110,-0.247383877635,-0.082214266062,-0.109155207872,0.076382778585,-0.055199913681,0.260003924370,-0.005167271942,0.005385688040,0.011612349190,0.212944328785,0.010396203957,-0.026837605983,-0.098903350532,0.098089866340,0.125995740294,-0.099736161530,-0.026440223679,0.001008035382,-0.088998176157,-0.095264822245,-0.051944520324,0.084832973778,-0.023616528139,0.076564148068,-0.193006038666,-0.056785006076,-0.140811100602,0.003631348955,-0.032371670008,-0.075656510890,-0.404090523720,0.062322463840,-0.160463839769,-0.057509455830,0.029461733997,-0.006035527214,0.051622096449,-0.150915309787,0.081912741065,-0.005040203221,-0.027664950117,-0.018621427938,-0.094916380942,0.025822998956,0.134242385626,0.010465309955,0.053485032171,0.031567465514,-0.027204042301,0.112830899656,-0.036528848112,-0.085639730096,0.025636745617,-0.318562746048,-0.017779462039,-0.012004982680,-0.069700419903,-0.207038953900,0.017730642110,0.276234030724,-0.031070783734,-0.175182759762,-0.086263455451,0.055705741048,0.090129412711,0.034700956196,-0.000164296202,0.028604615480,0.216700360179,0.016793431714,-0.052480239421,-0.019409989938,-0.134360224009,0.151717096567,-0.102121874690,-0.077486887574,-0.050759244710,0.114171728492
-0.026999469846,0.060770355165,0.000503125193,0.026980899274,-0.104764930904,0.309729188681,-0.014938166365,0.017369324341,-0.003098343033,-0.008292798884,-0.108122274280,0.307436645031,-0.147281199694,-0.393852204084,0.018836082891,-0.095163531601,-0.209268510342,0.031952083111,-0.279836714268,0.114603757858,-0.150424912572,-0.007675412577,0.014037135988,-0.030327355489,-0.309985011816,0.091766312718,-0.095864295959,0.087148986757,0.040161922574,-0.018678165972,0.046638987958,0.038340218365,0.072652205825,-0.017381167039,-0.069444388151,0.119981959462,0.004997788928,0.023554114625,0.039814885706,0.008235149086,-0.009504807182,0.227486267686,0.196476623416,0.042456697673,-0.106982327998,0.128361314535,0.061388529837,0.100642353296,0.144835412502,-0.068145364523,0.069146305323,-0.076854243875,-0.061045557261,-0.100982241333,-0.118264764547,-0.197436615825,0.136703610420,0.005655635148,0.106734849513,0.081282749772,-0.042463328689,-0.022642102093,-0.042919553816,0.098094746470,-0.527734696865,-0.061808917671,0.083440572023,-0.373482495546,-0.119290858507,0.030586885288,0.198163032532,0.049379318953,-0.017047593370,-0.132140308619,-0.186426088214,-0.015114568174,-0.181328102946,-0.005166590214,-0.047307319939,-0.035765338689,-0.048227991909,-0.034500651062,0.034397434443,-0.037887785584,0.006683479529,-0.259728878736,0.044010423124,-0.073833167553,-0.005267261062,-0.013101618737,0.036110807210,-0.029425797984,-0.222851946950,-0.018305847421,0.070029340684,0.040075160563,0.022491758689,0.048846658319,0.004639090504,-0.058862272650,-0.068793259561,0.067718610168,-0.057189237326,-0.127272129059,0.220250129700,0.112090937793,-0.089991323650,-0.072320818901,0.128937482834,0.120578356087,0.576609671116,0.116703592241,-0.000254145474,0.176761627197,-0.086635686457,0.091552570462,0.025506766513,-0.083437517285,0.034437585622,0.058895245194,-0.014523122460,0.064197190106,-0.169140666723,0.010139350779,-0.022581100464,0.016083735973,-0.084788888693,0.035220563412
-0.129053980112,0.246603697538,0.052291702479,0.777754008770,0.079710878432,0.143940940499,-0.521936893463,-0.043800067157,-0.051362019032,-0.038697835058,-0.383609473705,-0.156579986215,0.354215979576,-0.443447947502,-0.151290461421,-0.013569928706,0.104349933565,0.045987676829,-0.076688647270,-0.007551255636,-0.288491845131,0.046085420996,0.277576595545,0.722237706184,0.433811634779,0.127750322223,0.010184139013,-0.068065747619,-0.292273432016,0.085091382265,-0.253427714109,-0.154853984714,0.238280504942,-0.214541897178,-0.100401982665,0.056877259165,-0.083602100611,-1.784823060036,0.040878053755,-0.208554938436,0.051957916468,0.102791137993,-0.114210903645,-0.140792340040,-0.566389083862,-0.020792732015,0.052551008761,-0.131247028708,-0.224376529455,-0.178824245930,0.778527557850,-0.098745666444,-0.223708048463,-0.034802023321,0.004828581121,-0.057966180146,0.189948141575,0.203422620893,-0.054343748838,-0.333939999342,0.002458728384,-0.248715817928,-0.041569728404,-0.052929151803,0.172471448779,0.042626596987,0.117586202919,0.132505610585,0.310664743185,-0.294058710337,-0.045038852841,-0.088834732771,0.057058151811,-1.036227941513,-0.295976847410,-0.077734678984,0.149174690247,0.001911064493,-0.124396286905,-0.121056854725,-0.131256043911,0.116830952466,-0.209154725075,-0.045635405928,-0.224740177393,-0.227055341005,0.091646395624,-0.087957665324,0.394917458296,0.118653826416,-0.041566766798,-0.009625495411,-0.495168209076,-0.020340710878,-0.064436241984,-0.041728321463,0.006995041389,0.029010079801,0.087848469615,0.329498618841,0.389073729515,0.644562125206,-0.405544847250,0.035162303597,-0.070783637464,-0.121011964977,-0.052440218627,0.019612500444,-0.045117795467,0.199555873871,0.136678338051,-0.235909745097,-0.006110007409,0.156058594584,0.075895108283,-0.060461483896,0.003931689076,-0.052491061389,-0.141136214137,-0.189487352967,-0.054455541074,0.004861555062,-0.101524136961,0.044197916985,0.044640023261,-0.031254030764,-0.077272422612,-0.104564554989
-0.035574350506,-0.093321740627,-0.165539592505,0.157400563359,-0.149951428175,-0.065880157053,-0.038542617112,-0.034788634628,-0.044312044978,-0.005575992633,-0.207506671548,-0.047508765012,0.037738025188,-0.105855070055,0.048426248133,0.037420738488,0.013733366504,0.043655417860,0.008449376561,0.006521696225,-0.106489464641,0.045223586261,-0.063217081130,-0.058789357543,-0.003509846283,0.106395266950,0.028311675414,-0.135925054550,0.023173429072,-0.166293323040,0.026351612061,-0.004500267562,0.010439045727,-0.118534393609,0.152115762234,0.122669547796,-0.068766117096,-0.050237245858,-0.005903695244,0.163097888231,-0.004726833198,-0.011652158573,0.073390491307,0.051813211292,0.068623028696,0.061460223049,-0.028984131292,-0.095255188644,0.029776908457,0.040611941367,-0.086268700659,0.033686392009,-0.040443059057,-0.030100677162,0.015349701047,-0.023732271045,-0.060038518161,-0.056706517935,0.018513767049,0.027580386028,-0.027035798877,-0.082210697234,-0.029098590836,-0.105102784932,-0.027211476117,-0.128754422069,0.011223147623,-0.059232112020,-0.034940145910,0.073463976383,0.068060845137,-0.098014138639,-0.042162608355,0.089873336256,0.103026121855,-0.050711948425,-0.098406292498,0.029795570299,-0.032313968986,-0.020146645606,-0.055678773671,-0.043602887541,0.063851460814,0.000731634675,0.061688169837,0.116689652205,-0.023033471778,-0.059400476515,0.018736094236,-0.002759738127,-0.016975123435,-0.043705366552,0.318116337061,-0.037172179669,0.039537597448,0.014374681748,0.036447748542,-0.008184827864,-0.120147943497,0.039421290159,0.007903055288,-0.389688521624,-0.011920892633,0.013069869019,-0.101184412837,0.057124499232,-0.077358007431,-0.050599679351,-0.063393875957,-0.096872262657,-0.006003792398,0.055054754019,0.081945978105,0.028855327517,0.009508789517,-0.127062857151,0.055473931134,-0.006976976991,-0.042289160192,-0.048490472138,0.009879998863,0.031816739589,0.069346144795,-0.045764490962,-0.167800992727,0.025883285329,0.087585113943,0.017612569034
-0.035532694310,0.034272469580,0.030936909840,-0.039108708501,0.199492529035,-0.068206183612,-0.197441413999,0.027754301205,0.030344614759,0.114572711289,0.151398584247,-0.021113548428,-0.044798392802,-0.003611485474,0.039668049663,-0.028557822108,-0.035674333572,0.080401413143,0.009514437988,0.077375479043,0.058513451368,0.037018533796,-0.098087005317,-0.216102749109,-0.222641900182,0.002135532908,0.047247454524,-0.042112216353,-0.102270022035,0.052894435823,-0.128780871630,-0.060654126108,0.117631658912,-0.231064707041,-0.062263883650,-0.129065856338,-0.081159792840,0.211423248053,0.018181147054,-0.104925587773,0.037578195333,0.076541572809,-0.087183378637,-0.088190577924,-0.244189113379,-0.052200838923,-0.033995449543,0.151045337319,0.020824261010,-0.151587128639,-0.750726640224,0.084488108754,-0.003857651725,-0.036938875914,0.022598925978,0.069391481578,-0.039749443531,-0.057883162051,0.043125957251,-0.036575652659,0.034642461687,-0.117317542434,-0.153473690152,-0.025877272710,0.246945530176,-0.007433688268,-0.035975057632,0.187270224094,0.151205807924,0.005719345994,-0.083766967058,0.027719356120,0.034888744354,0.447267711163,0.007642744575,-0.149095326662,0.123485498130,-0.031455714256,-0.041109234095,-0.092251040041,-0.190875187516,0.000898016267,-0.274271130562,0.014925307594,0.035501897335,-0.038997620344,0.021186413243,-0.032650202513,-0.013386640698,0.012210950255,-0.001085806871,-0.041490029544,0.078279331326,0.062651932240,0.035809174180,-0.043557833880,-0.058797426522,0.019883034751,-0.122037045658,-0.232180893421,0.137692540884,0.240536868572,-0.090932503343,-0.112075455487,-0.090513117611,0.043930448592,0.010217879899,-0.045683097094,1.036452770233,-1.077342033386,0.040450703353,-0.177509263158,0.415407776833,0.059650067240,-0.151033073664,-0.038724169135,-0.038983728737,0.038555394858,1.036930680275,0.074090436101,-0.002333221491,-0.017585780472,-0.043701939285,0.053370885551,-0.029601931572,0.004634577315,0.160977691412,0.070227116346
0.010334680788,-0.031190074980,-0.042534369975,0.201884523034,-0.074397608638,0.172387927771,0.039284277707,0.008351431228,0.018812052906,0.017606923357,-0.109212927520,0.006972892676,-0.084249079227,0.033094085753,-0.039403736591,-0.207212343812,0.139114469290,0.179927468300,0.171186551452,-0.132747918367,0.021686403081,-0.042557999492,0.039880171418,0.155479252338,0.132943987846,0.066219225526,0.037994820625,0.359124839306,0.001273153233,0.480827182531,-0.046958830208,0.208757445216,0.074845351279,-0.243967592716,0.292374521494,-0.216813221574,0.044896259904,0.109678015113,0.038878895342,0.120278276503,0.011818308383,0.088880442083,0.124200962484,-0.112809836864,-0.158803313971,0.046375554055,-0.120215997100,0.052390620112,0.139293447137,-0.249946862459,-0.023715524003,-0.038213800639,-0.078172869980,-0.087218381464,-0.086805410683,-0.114403702319,-0.117865376174,0.397517263889,0.052577160299,0.186739981174,0.040556300431,0.111186422408,0.250568300486,0.238851815462,0.095351830125,0.052634514868,-0.041033148766,0.003468355862,0.282290607691,-0.085790365934,-0.061097409576,0.076628871262,-0.042721334845,-0.128489002585,0.053872548044,0.309450358152,0.046269938350,-0.033706489950,-0.058085478842,-0.172115787864,-0.219278365374,0.052173797041,-0.124141581357,0.037217989564,0.006552353501,-0.113233238459,0.011088278145,0.035857826471,-0.018275488168,0.030668048188,0.089651525021,0.019623253495,-0.213544860482,-0.486742734909,0.043986696750,-0.017157102004,0.208845764399,0.025819487870,-0.123154915869,-0.035091325641,0.157055869699,-0.153386130929,-0.014948275872,-0.015776455402,-0.009671098553,-0.068561308086,0.088497340679,-0.038110062480,0.068282641470,-0.156188800931,-0.001815997646,-0.287282437086,-0.030260838568,-0.080893188715,-0.192582175136,-0.290949165821,-0.015777703375,0.139761060476,-0.008302227594,0.053926065564,-0.114647790790,-0.036328025162,-0.051708184183,-0.066904433072,-0.347297906876,-0.091061510146,-0.077901609242,-0.104241736233
0.109958656132,0.161709889770,0.182984367013,-0.497447848320,0.202806472778,0.056210372597,-0.021035339683,0.009665039368,-0.023778149858,-0.079518675804,-0.162688091397,-0.077493980527,0.168796345592,-0.025683818385,-0.043580591679,-0.090898960829,0.026503656060,0.083614967763,0.027314001694,-0.004882812034,-0.004362727515,0.035245981067,0.067828923464,0.066550500691,-0.020982017741,-0.034209609032,-0.139768794179,-0.080524571240,-0.036854583770,-0.089947842062,-0.171847015619,0.027501976117,-0.135399982333,-0.233597621322,0.062544785440,0.001724339789,0.112807363272,0.048428915441,-0.036114063114,-0.088233686984,0.005286102649,0.074838578701,-0.061378065497,0.266545951366,0.013609497808,-0.041262667626,0.218836054206,0.036428064108,-0.183912351727,-0.134930595756,0.109191857278,0.129902780056,-0.305182874203,-0.061594918370,0.032098636031,0.113316945732,0.060011111200,-0.106342621148,0.013193297200,0.014485920779,0.047016985714,0.017316918820,0.013398998417,0.067516624928,0.077085986733,0.062368445098,0.013143105432,0.040397524834,0.013710068539,-0.001880971715,-0.125205904245,0.126252874732,-0.093306370080,-0.028446290642,-0.293146938086,0.009526255541,0.114791519940,-0.039239339530,0.021283751354,0.129447206855,0.115276359022,0.072127304971,0.029738608748,-0.034560967237,0.047650866210,0.047174181789,0.026445439085,-0.008433067240,0.029236389324,-0.127533927560,0.008588001132,0.009737403132,-0.137037664652,0.145161807537,0.057006705552,-0.045331161469,-0.024569209665,-0.069461695850,-0.048093196005,-0.014460103586,0.012273557484,0.255641758442,0.274731457233,-0.011766469106,-0.090985059738,-0.015888998285,-0.011265779845,-0.015089389868,0.094600275159,0.175538137555,0.090275608003,0.117499634624,-0.079021237791,0.218882039189,0.006446560379,0.195501700044,0.040106080472,0.041059765965,0.110865727067,0.012837406248,-0.095122292638,0.022147037089,-0.016744900495,0.131879776716,0.025724541396,0.067067079246,-0.000616423320,0.009439800866
