0.089613556862,-0.011462572031,-0.017272612080,0.012592816725,0.243315979838,0.208744376898,-0.063855104148,-0.112564414740,0.135824918747,0.188724443316,0.054004110396,-0.114908300340,-0.212554812431,0.196664631367,0.026758708060,-0.020244952291,0.463933885098,-0.036809761077,0.070909649134,0.093982912600,-0.037442952394,-0.460259854794,-0.021395569667,-0.163582324982,0.025079492480,0.500312983990,-0.128966674209,0.311399519444,-0.082829155028,0.035907786340,0.218027383089,-0.033794175833,0.171627625823,0.010292015970,-0.005550390575,0.055814649910,-0.118051461875,-0.067236855626,-0.179365724325,-0.018861763179,-0.304129451513,-0.105459511280,-0.037622436881,0.096641972661,-0.608112156391,0.125227883458,-0.024707041681,-0.160450130701,-0.089836835861,-0.043429136276,-0.020998541266,-0.018283087760,-0.196443364024,-0.191861793399,0.326185345650,0.332156747580,0.007117295172,0.035518754274,-0.147107005119,0.093773521483,0.115235865116,0.006307576783,0.011468622833,0.016091562808,0.006645022891,0.112248316407,-0.024714432657,-0.096876055002,-0.287525534630,0.003199273720,0.037464570254,-0.013588954695,0.120531998575,-0.258204638958,0.075041331351,-0.061239600182,-0.104260504246,-0.450160354376,0.023537542671,-0.204429700971,-0.018087992445,-0.054608352482,-0.148895606399,0.054610766470,0.033939350396,-0.049562409520,0.015932541341,0.182000130415,-0.021648110822,0.052972480655,0.030322089791,0.263094931841,0.012476650067,-0.079336807132,-0.225271925330,0.008175720461,0.094100199640,-0.162587940693,0.045774489641,-0.072683453560,0.041981045157,-0.053047798574,0.024212865159,0.016705252230,-0.592098534107,-0.044833511114,-0.100043565035,-0.408739894629,-0.044131096452,0.142367750406,0.038042970002,-0.013750438578,0.036233678460,0.089519895613,-0.022801952437,-0.007508684881,0.009642259218,-0.001536555355,-0.070874840021,-0.000677745382,0.231193885207,0.123863704503,0.161005958915,0.207555502653,0.149033114314,-0.027116360143,0.013137970120,-0.039426248521
-0.026783967391,-0.029275059700,-0.023193823174,0.022520666942,-0.036402944475,0.015569664538,-0.148534029722,0.040652200580,-0.050861895084,0.055511940271,0.031008636579,0.044421046972,0.009980084375,-0.029369281605,-0.020605497062,0.013078607619,-0.032113205642,-0.024469394237,-0.004624716006,-0.117245122790,0.001128726057,0.030944362283,-1.406645536423,-0.058090742677,-0.020215431228,-0.021669613197,0.015792787075,-0.028539394960,-0.043181601912,-0.035726897418,-0.005772487260,0.028525048867,0.008305481635,-0.049697536975,0.000902155007,0.006672778632,0.005612182431,-0.003375563305,-0.079816259444,0.007952394895,0.020600343123,-0.020852748305,-0.004684492946,-0.012158673257,-0.040653344244,0.863209128380,-0.417938530445,-0.076117299497,-0.019547812641,-0.016868682578,0.152321249247,-0.026924064383,0.014671194367,-0.018975356594,-0.036668591201,-0.097789116204,-0.004890432581,-0.019298335537,0.004043971188,0.004611256998,-0.027226794511,-0.030676096678,0.022378601134,0.039926551282,0.006985104643,0.008679922670,0.002778642112,0.029586764053,-0.020921232179,-0.045090895146,0.031101556495,-0.020488748327,0.015243662521,-0.072895564139,-0.019837001339,-0.000940451748,-0.013720242307,0.003287833650,0.006878702901,0.043830953538,0.024595445022,0.017255308107,-0.010282601230,0.022396545857,0.037116467953,0.013227147050,-0.012119735591,-0.011280037463,0.000312555349,0.002801145660,-0.041339665651,-0.030488459393,-0.025885058567,-0.023470399901,-0.005096090958,-4.763182163239,-0.035495813936,0.025195743889,1.435781121254,0.037376232445,-0.029606057331,0.014925651252,-0.049571100622,-0.004173664842,-0.057722393423,0.011992353946,0.025193462148,-0.057994209230,-0.051423937082,0.053130101413,-0.003183087567,-0.016218610108,-0.007401505485,-0.223256379366,0.002271412173,-0.017176222056,0.015048259869,0.002950279042,-0.017035236582,-0.048893801868,0.015807474032,-0.019762409851,0.035793554038,-0.066483415663,-0.025531219319,-0.020271554589,-0.009997593239,0.008078651503
-0.081539832056,-0.002782831434,0.014351778664,-0.250755459070,0.449785530567,0.043457813561,-0.129494071007,-0.037226155400,0.136435061693,0.146392717957,0.079616814852,-0.080867320299,-0.576365053654,0.429238915443,0.138155505061,-0.042311325669,0.504606425762,0.011143570766,-0.129038557410,-0.217509657145,-0.040892548859,-0.636854350567,0.220676824450,-0.518816113472,-0.024125590920,0.488687396049,-0.238821402192,0.267328500748,-0.124778263271,-0.017741775140,0.712256789207,0.163134247065,0.130602091551,-0.111717827618,0.003583333222,0.142787918448,-0.129828453064,-0.113401912153,-0.537941396236,-0.070445500314,-0.456240981817,0.275683194399,-0.281043648720,0.121499113739,-0.365049540997,0.246668085456,-0.053167045116,0.267220377922,-0.064608536661,0.040056433529,-0.031742639840,0.025078289211,-0.195691987872,0.088166564703,0.102601848543,0.084082178771,-0.061290509999,-0.013196196407,0.270284622908,-0.021027481183,0.042451739311,0.011628394946,-0.041664499789,0.048766572028,0.007737013046,0.068312823772,-0.115561388433,0.049455855042,-0.226439833641,-0.191150128841,-0.002829940990,0.023829760030,-0.098603688180,-0.239592432976,-0.136933401227,-0.252125263214,-0.021469065920,-0.573753535748,-0.070251889527,-0.591804385185,0.007302363869,-0.247361183167,-0.616448760033,0.165677458048,0.116689078510,0.071141168475,-0.058883689344,0.197245776653,-0.077558249235,-0.180323362350,0.121345303953,-0.236228480935,0.043477084488,-0.255138188601,-0.368360430002,0.188354104757,0.454198062420,-0.731233775616,0.172252222896,0.019666001201,0.061385158449,-0.166792377830,0.043071892112,0.008908844553,-0.627169311047,-0.005459695123,0.031408946961,-0.602219223976,-0.081136129797,0.027044927701,-0.036150544882,0.416576266289,-0.313889980316,0.218987032771,-0.109195068479,0.097322754562,-0.104306958616,0.007777491119,-0.187914595008,0.045169614255,0.222039207816,-0.124116890132,0.016444075853,0.169302776456,0.151376768947,-0.039911817759,-0.088814727962,-0.055741500109
0.000143840894,-0.076799795032,-0.092148832977,-0.075037069619,0.004812744912,-0.269681036472,0.044529341161,-0.122069805861,-0.081792682409,0.091714203358,-0.030922273174,0.007179744542,-0.056546855718,-0.024549417198,-0.121175505221,-0.066551640630,0.054970037192,0.017329201102,0.020109225065,0.120327435434,0.296809166670,-0.280059158802,-0.196120873094,-0.041482146829,-0.041858077049,0.013207118958,-0.329325169325,0.056404527277,0.026815498248,0.030914323404,-0.060913871974,-0.010717736557,-0.018650637940,0.033877924085,0.058864466846,-0.018849471584,-0.116270564497,-0.016827121377,0.228859901428,0.057480655611,0.211445465684,-0.151402086020,0.002004538197,0.062292367220,0.093375518918,-0.099395528436,-0.055948093534,-0.015199077316,0.020477937534,0.142387777567,-0.075188674033,0.084489911795,-0.084233686328,0.025646973401,0.093820936978,-0.110167056322,-0.181157425046,-0.081921771169,-0.167048275471,0.234658509493,-0.235047042370,0.097074016929,0.028062889352,-0.056833319366,0.095324508846,0.072457991540,0.059761807323,0.064114913344,-0.210482373834,0.005109250546,-0.106846295297,-0.026727909222,-0.092551112175,-0.111050136387,-0.001333934255,-0.153298377991,0.024923320860,-0.034088194370,-0.095878079534,0.140557542443,0.000173871987,0.710952877998,0.041852742434,-0.004491518717,-0.267014473677,-0.000521870679,0.001631172257,0.044443547726,-0.068412683904,-0.213062718511,0.021315680817,-0.438490837812,0.025273777544,-0.110991209745,0.081860661507,-0.148933753371,0.029895210639,0.169779896736,-0.106631584466,0.381247282028,-0.037378575653,0.281780213118,0.036572258919,0.086062416434,0.054221216589,0.153949812055,0.139348983765,-0.029255058616,0.017815437168,-0.018192261457,-0.039136450738,-0.080844983459,-0.881963372231,-0.044613867998,-0.141558200121,0.289240926504,0.052751619369,0.005331533495,0.056370776147,-0.044421818107,-0.192283585668,0.004611195996,-0.016807790846,-0.111633352935,-0.029324164614,0.026177505031,-0.078280083835,-0.052248366177
0.328567892313,-0.397845208645,-0.008872202598,-0.060952316970,-0.288431137800,-0.155508488417,-0.072968669236,-0.242679998279,0.151823386550,-0.025218641385,-0.033047717065,-0.088782280684,-0.409974336624,0.048678115010,-0.034033086151,-0.008739371784,-0.052850618958,0.205947577953,0.366227418184,0.079670697451,0.021881217137,-0.185105904937,0.027312615886,-0.104205623269,0.038771789521,-0.143285423517,0.024594649673,-0.091498017311,-0.266461789608,0.129352629185,-0.280608117580,-0.252287328243,-0.208091571927,-0.017101140693,0.323046505451,-0.412909060717,0.192270651460,-0.085976913571,-0.181406199932,-0.299256056547,0.181067928672,0.042911566794,0.094024114311,0.064577959478,0.095581173897,-0.110908791423,0.066896647215,-0.083359487355,-0.022223286331,0.121662490070,-0.094083987176,0.084326915443,0.422798335552,0.235576838255,0.244618758559,0.042810659856,-0.119367748499,0.103387020528,-0.314487457275,0.114311099052,0.381394833326,-0.067103222013,-0.012505606748,0.115182064474,-0.007028449792,-0.016374472529,-0.106581456959,0.232174843550,-0.054550975561,0.249103873968,0.040334966034,-0.010584689677,0.551992416382,-0.099263943732,0.327424049377,-0.076385185122,-0.072865962982,-0.281520158052,-0.174535512924,0.033097077161,-0.124683335423,0.040411252528,0.310007870197,0.127015069127,0.268132865429,-0.137822031975,0.083668254316,0.188138559461,-0.094104520977,-0.060124624521,0.041723847389,0.511760473251,-0.017408395186,-0.156515896320,-0.059964142740,0.033370565623,-0.421372979879,0.049762420356,0.034406747669,0.000866900838,-0.115710183978,0.093094833195,-0.041521593928,0.161288037896,-0.380139857531,0.060415267944,-0.089720569551,0.015338825993,-0.115351937711,0.029794415459,-0.092136278749,-0.007446164265,-0.385592252016,0.063337847590,-0.033110585064,-0.025484018028,0.036219462752,0.171769708395,0.537144362926,-0.057395968586,0.104241952300,-0.001090409583,-0.071799591184,0.197917163372,-0.010633106343,0.033426944166,-0.090508967638,-0.127328976989
0.402716606855,-0.302924215794,-0.121980458498,-0.013920467347,-0.009420190006,-0.019621806219,0.002637462225,0.179197818041,0.102269634604,0.083140753210,-0.031414832920,0.147708967328,0.060790657997,-0.315060108900,-0.227720499039,-0.252446025610,0.002002040157,0.020948266611,0.011787244119,0.389869034290,-0.117703616619,-0.004939483944,0.007086565718,-0.068829990923,-0.188805490732,0.147734805942,0.171436369419,0.088460065424,0.000480484247,0.158820688725,-0.020372206345,0.125668972731,0.058771509677,0.477090626955,-0.202226728201,-0.221159741282,-0.282958269119,-0.173117309809,0.088463462889,0.087007373571,0.378462612629,-0.214873075485,0.036787748337,-0.072096027434,0.059136014432,0.006260077935,-0.178000435233,0.063156373799,0.021977510303,-0.106166362762,0.064187951386,0.014167770743,0.004977842793,0.006354349200,0.036464426666,-0.407035142183,0.032794389874,0.020471382886,0.107788920403,0.117427624762,-0.208942785859,0.046490278095,-0.030669288710,-0.160978138447,-0.068358838558,0.002981378697,0.043207548559,0.511095583439,0.000378374913,0.027522427961,-0.229667589068,0.019012177363,-0.025342250243,-0.199443534017,-0.168785601854,-0.000903607346,-0.064275175333,0.191441565752,0.124508872628,-0.042783528566,0.001713329926,0.160069197416,-0.048091039062,0.046041063964,0.099510416389,-0.052094135433,0.206651836634,0.102697327733,0.035289701074,-0.072316356003,-0.089906759560,0.044383183122,-0.032248456031,-0.104686990380,0.009518686682,0.052650157362,-0.379256069660,-0.098859667778,-0.045225307345,-0.213636174798,-0.247560769320,-0.060693871230,-0.030419504270,0.086534976959,-0.099747635424,0.172282263637,-0.117540508509,-0.132671579719,-0.010609654710,-0.136673972011,-0.020079622045,-0.028444100171,0.215421468019,-0.102746129036,-0.160867109895,0.146622821689,0.007030788809,0.028506902978,-0.076788350940,-0.290702998638,-0.030018990859,-0.166503950953,-0.129189655185,0.049455069005,-0.022134128958,0.058313734829,0.067030079663,-0.205527052283
0.306340813637,-0.115416735411,-0.055186893791,-0.080790512264,-0.145225957036,-0.090055957437,0.015797905624,-0.253565609455,0.200220555067,0.249401941895,0.036385033280,0.077986516058,-0.059055238962,0.151811957359,-0.049197271466,0.195884883404,-0.221774637699,-0.045560657978,0.500975131989,-0.155905023217,-0.013082667254,0.141535162926,-0.021888287738,-0.202168896794,-0.005233562551,-0.175155803561,-0.133542478085,-0.065548181534,-0.128354758024,-0.218110084534,0.169233843684,0.050795245916,0.068220928311,0.168353557587,-0.100596524775,-0.180551916361,0.111643105745,-0.205212220550,-0.192948088050,-0.064212068915,0.040787640959,-0.566383183002,-0.394492626190,0.189875334501,0.027145825326,-0.009785515256,-0.067643605173,0.008117672056,0.006712106057,0.132687166333,0.275691717863,-0.054809283465,0.058230649680,0.665645182133,0.020168861374,0.104404143989,-0.006817659829,0.015517308377,0.153437569737,-0.009365016595,-0.028276897967,-0.349497199059,-0.042645845562,0.089983627200,0.058665484190,-0.195925638080,-0.025312246755,0.149604111910,0.222474381328,-0.028279425576,-0.040573570877,-0.012397099286,0.046216554940,-0.241987660527,0.123745784163,-0.291207075119,0.116310484707,0.176532223821,-0.065794944763,0.091379821301,-0.108659937978,-0.025523329154,-0.079916983843,0.357046723366,0.389322221279,-0.255776196718,-0.037351813167,0.036114253104,0.005154970568,-0.018644336611,-0.182443857193,-0.027904497460,-0.015610431321,0.031383048743,-0.038867846131,0.052039626986,-0.253238439560,0.140324279666,-0.004707571119,0.062774240971,0.561828672886,-0.187353253365,-0.047356870025,0.035976476967,0.015106724575,-0.119367532432,0.107626676559,-0.074896112084,0.028145916760,-0.152152523398,-0.180550962687,-0.292180091143,0.014351163991,0.141264870763,-0.189112663269,0.011782431975,-0.114931792021,-0.171946689487,0.198060318828,0.025826392695,-0.205371588469,-0.212363407016,0.402154415846,0.227655202150,-0.310260802507,-0.001472970005,-0.015740074217,0.039226245135
-0.069783210754,-0.021786360070,0.015163905919,0.002379464218,0.022680567577,-0.040289226919,0.023998118937,0.001743730390,-0.002334046410,0.011044719256,-0.007521377411,0.030147565529,-0.041963219643,-0.047209572047,-0.073206923902,-0.006899092812,-0.014125336893,-0.039974167943,-0.006151285022,-0.051484756172,-0.002823407063,0.038602471352,-0.037043549120,-0.059560894966,-0.048469733447,-0.020631887019,-0.019213570282,-0.004981872626,-0.037470698357,-0.005297282245,-0.042027983814,0.037935901433,0.028577810153,-0.037223510444,0.031032184139,-0.051927167922,-0.050123542547,-0.026903102174,-0.008718619123,-0.049506921321,-0.052259050310,-0.043976232409,-0.022362431511,-0.011331586167,0.007376948837,-0.054538816214,-0.038182988763,0.014150859788,-0.004119463265,0.004044008441,-0.059888087213,0.045300971717,-0.050085630268,-0.044899806380,0.035384953022,0.007575446274,-0.024741135538,0.000035939749,0.023751268163,0.002028328134,0.031165031716,0.014603246003,0.035370431840,0.019727203995,-0.035864856094,0.017171919346,-0.038964260370,-0.012474685907,-0.013817131519,0.005210577510,0.010259421542,0.041255008429,0.011670828797,-0.026593199000,-0.004428647924,-0.029921410605,-0.046525295824,-0.051748786122,0.037111129612,-0.014358389191,-0.052538633347,-0.059271465987,-0.030781028792,-0.044061042368,0.021571306512,0.015055466443,-0.041472338140,0.026615459472,-0.021974561736,-0.019640354440,0.020852418616,0.010814488865,-0.032300475985,-0.043110739440,0.011051113717,-0.060940328985,-0.014634310268,0.007109716069,0.040545146912,-0.035048555583,0.014917889610,-0.072066791356,-0.037801124156,0.004963832442,0.014121689834,0.037376556545,-0.041573479772,-0.007689008955,-0.062798105180,-0.046411737800,0.038259688765,-0.047763250768,0.007724335883,0.011971639469,-0.014052787796,0.001106919372,0.014443550259,-0.009153473191,0.007698817644,-0.035588975996,0.026769615710,-0.050736662000,-0.061293091625,-0.008051223122,0.039419043809,-0.030963901430,-0.002501023235,-0.002514951164
-0.022477233782,-0.038303997368,0.007766283583,-0.000962494756,-0.010744069703,-0.022383084521,0.013794995844,0.002510610269,-0.036064274609,-0.037910953164,-0.026635797694,-0.047399617732,0.015537950210,-0.048732694238,-0.002570055425,0.011672704481,0.025064259768,-0.026799159124,-0.031085239723,-0.047670554370,0.024774799123,-0.039452474564,-0.005186049268,-0.033151213080,0.011182167567,-0.002674669726,-0.049689870328,-0.040092825890,-0.042334672064,-0.022195201367,-0.008605661802,0.035943016410,-0.009612110443,0.014923999086,-0.023039720953,0.035305023193,-0.019943252206,0.006029142998,-0.026470880955,-0.037797562778,0.017323907465,-0.038297604769,0.015041360632,-0.007834021933,-0.004347954411,-0.010668620467,0.041083399206,0.003224607557,-0.045548006892,-0.051313515753,-0.062449183315,0.014463300817,-0.042985465378,-0.019323296845,0.042912095785,0.001710772049,0.040540952235,-0.000606716087,0.016383748502,-0.052799787372,0.033249143511,-0.066108040512,0.031999375671,-0.024916563183,-0.000976054929,-0.044104829431,-0.027838150039,-0.057074975222,-0.039751272649,0.004808878060,0.030486177653,0.023407321423,0.022412713617,-0.010601261631,-0.036703728139,0.024414168671,0.014602694660,-0.030605969951,-0.049351006746,-0.040177121758,0.001248174580,0.000706531166,-0.015443501063,0.006154897157,-0.070211470127,-0.023672470823,0.012228832580,-0.045104876161,-0.009472846985,-0.030285151675,-0.046997528523,0.019333435223,-0.015659557655,-0.005270607304,-0.002298362786,-0.065406970680,0.006007100921,-0.022711617872,0.035170808434,-0.012104388326,-0.002169495681,0.022393535823,-0.000016593984,0.041043572128,-0.019721060991,-0.006324287038,-0.023728316650,0.001162246335,0.010126555339,0.027451420203,-0.066199250519,-0.065670780838,0.014977031387,0.020885905251,0.003663067939,-0.009286378510,0.008202797733,-0.023275079206,-0.040686972439,-0.014160651714,0.006952137221,-0.023671332747,0.003239329439,-0.046922493726,-0.046579003334,0.036831628531,-0.044104933739,-0.007622571196
-0.019329385832,-0.041488990188,-0.067105077207,0.097624622285,0.034996677190,-0.009796665981,-0.005271242000,0.038013197482,-0.005808793940,-0.298395246267,-0.021536739543,-0.034403707832,-0.077116645873,-0.021788146347,-0.142616063356,0.026784393936,0.035611581057,-0.017296042293,-0.050447095186,0.163743644953,-0.022713223472,-0.225750312209,-0.003328046529,-0.253378629684,-0.045177288353,0.320887506008,-0.012353990227,0.139717385173,-0.003897154005,-0.092887088656,-0.149405464530,1.214763045311,0.059391055256,-0.020587151870,0.061656948179,-0.028384160250,0.021474681795,-0.035875786096,0.066463746130,0.128535255790,-0.070149436593,0.226365670562,0.113379783928,-0.025424199179,-0.101026900113,0.183135509491,-0.059269435704,0.299311876297,0.050230581313,-0.056770320982,-0.202117636800,0.245999708772,0.077652297914,-0.064157061279,0.304597318172,-0.215078398585,-0.099405750632,-0.067731507123,0.302501410246,0.031050970778,-0.049214847386,-0.047709383070,0.000065195236,0.021912783384,0.052794795483,-0.067195057869,-0.044927056879,0.130064785480,0.079232335091,-0.159270793200,0.029208127409,-0.019771458581,-0.102337807417,-0.037102051079,-0.042266651988,-0.042684283108,-0.002763668541,0.243458628654,-0.083623088896,-0.044971343130,0.044993668795,-0.066924944520,-0.123383343220,0.012659874745,0.133131220937,-0.081820391119,0.075456902385,0.032442525029,-0.051316570491,0.092670768499,0.000742847158,-0.380043804646,0.033658292145,-0.136204987764,0.336515694857,-0.020028904080,0.027457859367,-0.340469300747,0.018486283720,-0.058285769075,0.008072443306,-0.057112056762,0.015244386159,0.036420390010,0.083425574005,-0.029549250379,0.013161654584,-0.318658739328,-0.302522957325,0.074322834611,-0.008452672511,-0.043662026525,-0.230797529221,0.007145822048,0.016689028591,0.025872683153,0.025620499626,0.070115849376,0.165176823735,-0.069640137255,0.069522105157,0.007279165089,0.015362177044,0.110131584108,-0.130707010627,-0.055383227766,-0.105412304401,-0.016433715820
-0.030302528292,0.208211809397,-0.052390515804,-0.052164014429,0.046680171043,-0.331801444292,0.013115596026,0.319062054157,-0.095953352749,-0.158973574638,-0.066726304591,0.165189221501,-0.031554188579,-0.269499808550,0.069935508072,0.012456813827,0.087398000062,-0.089581534266,-0.076777011156,-0.084774553776,0.075302295387,-0.248244971037,-0.083522610366,0.331314831972,0.057688966393,0.067964278162,-0.238865509629,-0.000035281599,-0.085840389132,0.078040346503,0.064629413188,0.132116183639,0.208918094635,0.034805275500,0.283432543278,-0.144609600306,0.054968889803,-0.023159438744,0.183504819870,0.057412464172,-0.133782938123,0.040723409504,-0.041910480708,0.036329295486,-0.038934886456,-0.147331073880,-0.065852873027,0.021716471761,-0.107537180185,0.126502349973,0.044807750732,-0.051117524505,-0.211737230420,-0.134707003832,0.130704909563,-0.271136760712,-0.104409098625,-0.045284822583,-0.321811079979,-0.105512090027,-0.317019671202,0.137668296695,0.001188243972,0.031101562083,0.064915731549,0.002727462910,0.233027234674,-0.258596241474,-0.432114928961,-0.223086655140,0.015357284807,-0.040351063013,0.008130856790,0.030668048188,-0.030155505985,0.093098968267,0.062889792025,0.175184294581,0.010353063233,0.009847954847,-0.036845110357,0.030179752037,0.005043328274,-0.041572697461,-0.261312246323,0.143507361412,-0.001951579703,-0.140562176704,0.021834047511,-0.123201899230,0.155355826020,-0.410233438015,0.010018420406,-0.081109933555,0.012625983916,-0.135747507215,0.123397588730,0.077278122306,-0.095027416945,-0.415537267923,0.011884962209,0.068485639989,-0.025026312098,-0.130625739694,-0.158696264029,0.076620779932,0.150398567319,0.120746470988,0.274162620306,0.163176521659,0.320895105600,-0.034416437149,-0.087890431285,-0.157240986824,0.037976238877,-0.452063024044,-0.161385163665,0.055716112256,-0.243324235082,-0.212388321757,0.200423598289,-0.004219534807,0.022871749476,-0.428928345442,0.013522827066,0.142820447683,-0.085626371205,-0.396515995264
0.251510888338,-0.208290457726,0.094662249088,-0.368904352188,-0.037143871188,-0.030808707699,-0.185058593750,0.228787600994,-0.110601313412,0.027984391898,0.346581548452,0.049435529858,-0.203702688217,0.091097123921,-0.197696954012,-0.072732359171,-0.174812600017,-0.069542989135,0.081601954997,-0.007786766626,-0.049787409604,0.016568813473,-0.011030382477,-0.556332886219,-0.111239120364,-0.103890880942,0.161463141441,-0.061413548887,0.400566041470,0.002004034584,-0.231644272804,-0.061919651926,0.060599766672,2.985438585281,0.018097329885,-0.439914405346,0.037798978388,-0.278008490801,0.076597489417,-0.130059689283,0.630812764168,-0.237596005201,-0.330727040768,-0.035461999476,-0.174395978451,-6.409351348877,-0.239088132977,0.023955611512,0.067244768143,-0.398624479771,1.047619104385,0.089594453573,-0.035063512623,0.268479406834,-0.023705821484,-0.129020243883,0.095352120697,0.060321122408,0.234724879265,0.178866401315,0.111203409731,-0.011802221648,-0.029250686988,-0.048023771495,-0.432421565056,-0.007844159380,0.011757906526,1.239220738411,0.055543351918,-0.083576537669,-0.142264634371,-0.001889784471,0.093461558223,-0.382122844458,0.130989491940,-0.014821628109,0.042112596333,-0.080181330442,-0.090831525624,-0.043531738222,0.192821860313,-0.840785026550,-0.088778994977,0.217882886529,-0.021097425371,-0.383480191231,-0.228933602571,0.065864324570,0.029586499557,-0.471667617559,0.155766382813,0.273588836193,-0.037956226617,-0.163474068046,0.091091021895,-0.105200044811,0.287897378206,-0.569319725037,-0.321342736483,-0.707483172417,0.199913233519,-0.331742852926,0.038246583194,-0.158295974135,-0.928878664970,0.082855008543,0.007777880412,-0.015401782468,-0.083883330226,0.091576576233,-0.180803254247,0.053787257522,0.090190365911,-0.259740412235,-0.034508749843,-0.054013077170,-0.020671024919,-0.164723411202,-0.213744238019,-0.038999594748,0.001101123285,-0.013498049229,-0.083683438599,0.055701319128,-0.680815517902,0.048492442816,0.023390326649,0.449425727129
0.027122413740,-0.028869172558,3.274429559708,-0.006158977281,0.091311983764,-0.172312811017,0.068037033081,-0.013618054800,0.059620112181,-0.015485049225,-0.626154065132,-0.056596085429,-0.059577658772,-0.133148074150,0.714244544506,0.047100640833,0.168553084135,0.028360025957,-0.041052836925,-0.072908282280,0.128956943750,-0.336519986391,-0.155992478132,-0.823797047138,-0.045774627477,-0.459895879030,-0.301641762257,-0.004323051311,-0.116896025836,-0.008031023666,-0.055041674525,-0.014579963870,0.066539846361,-0.228228032589,0.130934730172,-0.056156136096,-0.030787525699,-0.059565730393,0.317642092705,0.091942943633,-0.150750160217,-0.193755030632,0.031004784629,0.107009038329,-0.004848986864,0.105061151087,0.116974845529,0.000894752622,-0.025032375008,-0.024405583739,0.124146699905,0.029186030850,-0.013420953415,-0.243331149220,0.132855042815,-0.204269617796,-0.146103188396,-0.132254704833,-0.098594672978,-0.006293220446,-0.269901990891,0.061485443264,-0.047533296049,-0.016841886565,0.119493260980,-0.020284604281,-0.042573697865,0.014291890897,-0.221069529653,0.076449625194,0.106902323663,0.030225085095,0.013107077219,-0.160968020558,-0.104731693864,-0.073135614395,-0.014355151914,-0.295742452145,0.037110138685,0.053093370050,-0.043048750609,0.059088807553,0.045095134526,0.058853168041,-0.104888573289,0.053599204868,0.143912121654,-0.020229192451,-0.012701761909,-0.048100560904,-0.070653483272,-0.746080398560,0.018936987966,-0.168094366789,0.202295243740,-0.662820577621,0.029301252216,-0.095895253122,-0.244880303741,-0.010332566686,-0.051506794989,-0.126602977514,0.029088107869,-0.024710820988,-0.124098062515,0.083155803382,0.019759096205,0.118756212294,0.051226098090,0.005925664678,0.021557010710,-0.144825339317,-0.513106763363,-0.475025594234,-0.096165232360,0.066103570163,-0.122064381838,0.057249713689,-0.045352689922,-0.052010070533,-0.020553322509,0.006199524738,0.128811672330,0.053678665310,0.237064331770,0.006927975453,-0.039608187973,-0.198529377580
-0.326136887074,-0.323628753424,-0.046982493252,0.204598337412,-0.196297004819,0.062235962600,-0.025241503492,-0.236068800092,-2.653210401535,0.086106076837,-0.011330352165,0.052194569260,-0.141051754355,0.249822542071,-0.111844569445,0.287951856852,-0.131683453918,0.188488289714,-0.027469160035,0.108408831060,0.715204536915,0.121547810733,0.040215864778,0.465309709311,0.126625254750,-0.511988401413,0.421748220921,0.167679995298,-0.195500925183,0.166809588671,-0.078105621040,-0.129128292203,0.102946236730,0.014542988501,0.197207927704,0.081566065550,0.092747829854,-0.537236511707,0.058602981269,0.091670297086,0.320891290903,-0.223671764135,-0.460575044155,0.170220136642,0.061987053603,0.038070101291,0.072043873370,-0.126785293221,-0.282731741667,-0.461655795574,-0.105225019157,0.288198858500,0.202610433102,0.209123790264,0.018125995994,0.200129151344,0.049241088331,0.019496379420,0.189380824566,-0.023214491084,-0.230704069138,-0.388802170753,0.037278540432,0.084102958441,-0.079415142536,-3.076456069946,-0.165996924043,-0.135744497180,0.303483992815,-0.054948117584,-0.183370321989,0.024245312437,0.026479175314,-0.638241469860,0.029391668737,-0.304536104202,-0.275610268116,0.006514248904,-0.096568644047,-0.059934709221,-0.055112760514,-0.982807695866,-0.063767492771,0.462917357683,0.090570166707,-0.611130118370,1.457003235817,0.098890386522,0.046484269202,0.264363706112,-0.027673289180,-0.054996564984,-0.029228517786,0.012949235737,0.103472419083,0.025034770370,0.385269135237,0.562105715275,0.017519099638,0.237246349454,-0.667397022247,-0.021168416366,0.002403793158,0.227448120713,-0.042090460658,0.058212012053,0.045751687139,-0.050696384162,0.169800013304,-0.023286713287,-0.141861811280,0.077177248895,0.173826441169,0.025426227599,-0.280171066523,-0.043150547892,-0.056647188962,-0.080920748413,0.109576985240,0.488850146532,0.160797074437,-0.230665028095,-1.233848810196,0.484142392874,-0.111564576626,0.046091910452,0.038628697395,1.327965378761
0.019731065258,0.062472023070,-0.070313051343,-0.008258198388,-0.044107086957,-0.087151043117,1.426497101784,0.068466477096,0.007189343218,0.014444045722,-0.425743252039,-0.012556271628,0.042205963284,0.075424879789,-0.523114502430,0.032549712807,-0.060237709433,0.030069850385,0.083582282066,-0.091727972031,-0.069639824331,0.235910445452,-0.233199357986,-0.008328033611,0.132134914398,-0.006364445668,0.055423278362,-0.079401724041,-0.008836683817,-0.017310617492,0.064278982580,-0.018841812387,0.000517188804,0.014742615633,-0.005075801630,0.066449008882,0.052807334810,-0.036336787045,0.103243246675,-0.125962242484,0.116125658154,0.422012567520,0.063841789961,0.116387680173,-0.081399850547,-6.340637207031,-0.134674474597,-0.018628168851,0.028412435204,0.014868930914,-0.044915657490,0.065548226237,0.077880188823,0.275554507971,-0.018196791410,0.134764224291,0.109328009188,0.072367019951,0.064267173409,-0.033989701420,0.140997529030,-0.023025965318,0.021294571459,-0.026110416278,-0.311208456755,-0.004858397879,0.001690829755,0.434171795845,0.162649497390,0.111535668373,-0.156192079186,0.015561318956,0.015543241054,0.116130046546,-0.039519954473,0.074082918465,-0.090346537530,0.010184062645,0.106624394655,-0.373608261347,-0.019335854799,-0.046721689403,-0.041690990329,-0.041504744440,0.033663526177,-0.072517260909,-0.009551048279,0.044325836003,0.003285272280,0.241156309843,0.486101448536,0.182265296578,0.027291746810,0.032327175140,-0.039951708168,-0.015530793928,-0.116780191660,-4.569476127625,-0.088097527623,0.155111461878,0.073170050979,-0.050813280046,0.007459629793,-0.050186324865,0.104445189238,-0.008510277607,0.031457096338,-0.052524134517,-0.140556305647,-0.260526746511,-0.052610423416,-0.048462010920,0.135701715946,0.112201437354,0.062734022737,-0.096275791526,0.131075441837,-0.082478106022,-0.066292129457,0.173760935664,-0.040288019925,-0.041945576668,-0.043737594038,0.058446232229,-0.172622203827,0.046030517668,0.103458538651,0.236130759120
0.009023799561,-0.238411441445,0.114637836814,-0.138247400522,0.470878094435,-0.299100488424,0.055710513145,-0.152893349528,0.038057629019,-0.196640998125,-0.030173623934,0.053173270077,0.122447982430,-0.089450173080,-0.153069421649,-0.012118881568,0.428942650557,-0.009476253763,-0.002839327790,0.186247870326,-0.044751264155,-0.030419964343,-0.042234830558,-0.381853550673,-0.295182675123,0.367718994617,-0.056201603264,-0.540807366371,-0.028893191367,0.069423109293,-0.132591515779,0.093350462615,-0.070181734860,0.096116825938,0.206797152758,-0.098604641855,-0.080394983292,-0.053492903709,0.100023880601,-0.134721040726,-0.166135281324,0.342883735895,0.072071380913,-0.136249825358,-0.004479542840,0.066863164306,-0.072313442826,-0.046775486320,0.052909839898,0.080590605736,-0.059505663812,-0.064584359527,0.049759309739,-0.314846813679,0.007869946770,-0.083757311106,-0.080989696085,-0.096198111773,-0.149152010679,-0.012014779262,0.120549596846,-0.130203291774,0.003967108671,-0.001623058226,0.026122935116,-0.094707541168,0.189939543605,0.182026833296,0.159522041678,0.217627525330,0.028152335435,0.001637305948,-0.035335551947,0.402245640755,0.131385788321,-0.094391249120,0.012100664899,0.142776608467,-0.190568953753,-0.049056675285,-0.065602950752,0.095382004976,0.123024709523,0.053457614034,0.245541915298,0.213050767779,0.009484214708,0.033325981349,-0.084692284465,-0.206607893109,-0.133395299315,-0.098064288497,0.047507572919,-0.171639382839,-0.243571430445,-0.012475159019,0.084160670638,-0.017795927823,-0.011443380266,0.191784605384,0.056013707072,-0.137348160148,0.037015207112,0.084529668093,0.114679969847,0.001435082639,-0.125968545675,-0.084038458765,-0.197247967124,-0.097934395075,-0.000623715110,-0.044909704477,-0.154211327434,-0.002137103118,-0.070371650159,0.159116521478,-0.221443206072,0.092611104250,-0.052654359490,0.230584368110,-0.062456246465,0.154287755489,0.069970153272,0.123557262123,0.012451362796,-0.030439985916,-0.115261457860,-0.069542959332
-0.447417616844,0.054252609611,0.185126021504,-0.010118854232,-0.147180855274,0.394480705261,0.207585841417,0.294318795204,0.044697560370,0.215990036726,0.038613740355,-0.003853791626,0.242420062423,0.004050324671,0.090195663273,-0.404059886932,-0.304371923208,-0.383074790239,-0.280559152365,-0.417283594608,-0.105276443064,-0.197475731373,0.013260913081,0.003986739554,0.041004564613,-0.098013997078,-0.065510660410,0.226628631353,0.277069121599,0.170345753431,-0.045219700783,0.286030411720,0.165669351816,0.408474266529,-0.173019424081,0.030933000147,0.068650551140,0.117848336697,-0.020367801189,-0.117192126811,0.307706862688,0.014177362435,-0.140931352973,-0.303238838911,-0.154680013657,0.045741491020,-0.279605120420,0.088599152863,-0.044814545661,-0.466439455748,-0.232393234968,0.068521879613,0.017441054806,-0.143375426531,0.122668698430,0.035474404693,0.151876777411,0.158476620913,0.291300475597,-0.273435413837,0.260615587234,-0.201136857271,0.023093137890,-0.015255196951,0.169203847647,-0.152656078339,-0.023486001417,-0.219980567694,0.126668393612,-0.224290564656,0.031548734754,-0.034137327224,0.026604820043,-0.193126469851,0.078512698412,0.116627231240,0.104545362294,0.185629516840,-0.097777418792,0.026201676577,0.708570361137,-0.069170996547,-0.002432182431,-0.125018075109,0.096425361931,0.251843243837,0.072200529277,-0.002025623107,0.060516301543,0.510011374950,-0.365576744080,0.547028124332,-0.035230129957,-0.094473682344,-0.233704134822,-0.054384440184,-0.139567419887,0.137641131878,-0.083360910416,0.279428690672,0.000432827044,-0.271670997143,-0.040224321187,0.028286855668,0.053400091827,-0.204615741968,0.088752374053,-0.159705564380,-0.115289367735,-0.239876106381,0.015616366640,0.031012592837,-0.228754922748,-0.006055301055,0.014276968315,0.158683985472,-0.121191658080,-0.233989670873,0.012744594365,0.056907653809,0.153087019920,0.432138472795,-0.170209452510,0.119979023933,0.051698777825,0.073051586747,0.182462975383,-0.156438723207
0.060884162784,0.083819113672,-0.098034225404,0.168784976006,0.011507126503,-0.051206111908,-0.032375447452,0.270157307386,-0.190248638391,-0.003231128911,-0.130309686065,-0.144942283630,-0.067844390869,-0.491422921419,-0.027042016387,-0.139285117388,-0.068690650165,0.243667453527,-0.053492799401,0.011461533606,-0.177891105413,-0.100867874920,0.038588922471,0.369592666626,0.074939593673,-0.003906055121,0.086746640503,-0.012478267774,-0.014904415235,0.192495450377,0.074804246426,0.001340705669,0.109852805734,0.084159567952,0.078282609582,-0.252887725830,-0.014634639956,0.070489004254,0.050108045340,0.242209732533,0.162711754441,0.105405770242,0.185711830854,-0.076190754771,0.029171364382,-0.013197378255,0.126816287637,0.005731638055,0.041316270828,-0.471752643585,-0.248706251383,-0.086400061846,-0.058002468199,-0.106529928744,0.036078132689,-0.136112958193,-0.107336588204,0.055263943970,-0.095085531473,0.024566136301,-0.159547254443,0.246225178242,-0.040241602808,-0.189152285457,0.109914779663,0.080180577934,-0.055486869067,0.095165729523,-0.174088522792,-0.142868325114,-0.007183539215,0.047209452838,-0.067415818572,-0.014603935182,0.057843875140,0.063559442759,0.123505167663,0.071034245193,-0.055972762406,-0.061909541488,-0.221629470587,0.147444859147,-0.049122780561,-0.125807806849,-0.253988474607,-0.151659071445,0.146276354790,-0.029367003590,-0.114711537957,-0.286911219358,-0.072325684130,-0.175534427166,0.018729140982,-0.024582700804,0.127980217338,-0.038820981979,0.002142970683,-0.000304127083,-0.046854227781,-0.390562444925,-0.219147399068,0.240917429328,-0.009700316936,0.030021578074,-0.098435595632,0.166069433093,0.012523462065,0.155268177390,0.475546270609,0.015102304518,0.012229603715,-0.022825183347,0.190358579159,-0.093742594123,0.226942226291,-0.173087343574,-0.183331400156,-0.085550680757,0.050542920828,-0.233272343874,0.252261966467,0.049115657806,-0.046031381935,0.165892571211,0.374799042940,0.044240016490,-0.119423449039,-0.100896969438
-0.244614362717,0.026436552405,-0.057520478964,-0.235012114048,-0.004455306567,-0.060069419444,-0.039604477584,0.156842574477,-0.236640289426,0.224705681205,0.005881144200,0.234693646431,0.063154608011,0.043257739395,0.014940747060,0.229408070445,-0.113022550941,-0.064586900175,-0.153356030583,0.043833922595,0.210568249226,0.101137265563,-0.039215847850,0.106090493500,0.002605655929,0.004587213509,-0.108021736145,0.028718376532,-0.327497839928,-0.372054278851,0.045274380594,0.019434764981,0.022123157978,0.033344093710,0.570268332958,-0.214146062732,-0.121402539313,-0.118638426065,-0.079186707735,0.195862740278,-0.059888619930,-0.266076982021,-0.085806772113,-0.267105728388,-0.081664159894,0.018881550059,-0.122863374650,-0.007470288314,0.011684164405,-0.162953719497,0.112502530217,0.250771105289,-0.059138257056,0.000575387385,-0.171650752425,0.073135182261,0.036403603852,0.023655334488,-0.001619959483,0.150448545814,-0.171340048313,-0.229647427797,-0.015014405362,0.022391656414,0.075888216496,0.203827500343,-0.008626098745,-0.040620997548,-0.075881756842,-0.076587051153,0.032449562103,-0.048105329275,0.009843139909,0.023074816912,-0.229535803199,-0.029405608773,-0.149082556367,-0.203146249056,0.259079396725,0.058319270611,-0.208765372634,0.227527692914,0.045419178903,-0.087708316743,-0.281614959240,0.339124143124,0.030781688169,-0.028742747381,-0.069021143019,-0.141704320908,-0.093993216753,0.044615846127,-0.008902517147,-0.037942454219,0.053280338645,0.043438967317,-0.067851215601,0.074267834425,-0.033224802464,0.317741483450,0.274405330420,-0.153940498829,-0.010319557041,0.093866966665,-0.004949396476,-0.221247255802,0.241990879178,0.001216466189,0.319255530834,-0.041818100959,-0.054487694055,-0.071172289550,0.167758360505,0.048493470997,-0.078143037856,0.062194716185,-0.066705018282,-0.009858837351,0.259720265865,0.196693107486,-0.100969210267,-0.024740057066,0.325407713652,0.000612995762,-0.082351125777,0.024995610118,-0.003810918424,0.062245097011
0.019078319892,-0.125918671489,-0.066315688193,-0.091341748834,0.046365853399,0.110238805413,-0.055756542832,0.148677736521,0.419785439968,0.097297497094,0.103842429817,0.104837737978,-0.010427017696,-0.310226589441,0.050681158900,-0.023380504921,-0.016259882599,-0.044037390500,-0.069446042180,-0.112884238362,0.198798894882,-0.140620350838,-0.218500703573,-0.074211470783,0.302494198084,-0.115867607296,0.115115530789,-0.050059467554,0.000927424815,0.015287918039,0.016845002770,-0.012943226844,0.062119219452,0.199974685907,0.082763843238,0.045166861266,0.011593800038,0.022284563631,-0.027597337961,0.043741397560,-0.223456576467,-0.150111779571,0.011197740212,-0.025401296094,-0.063895940781,0.018747324124,-0.085296981037,0.014995498583,-0.081413052976,0.478069573641,0.411898136139,0.046473406255,0.077021010220,0.247670367360,-0.073061250150,0.019156083465,0.034263584763,0.006736924406,0.066274374723,-0.178132474422,0.012786962092,-0.100575678051,-0.036624029279,0.112899899483,-0.070898652077,-0.068487733603,-0.072167627513,-0.530641078949,0.079159237444,0.093906685710,-0.143134251237,-0.011380908079,-0.001836684765,-0.086531639099,0.064448907971,0.070698842406,0.043365191668,-0.071374505758,-0.048043102026,0.023413127288,0.109756879508,-0.385631114244,-0.014557613991,-0.014175150543,-0.211753010750,-0.046117246151,-0.112780489028,0.310225605965,0.265697956085,-0.186200231314,0.317353487015,-0.047439966351,0.036252774298,-0.110021449625,0.140728592873,-0.071319416165,0.115669094026,0.139822095633,-0.068824023008,-0.000557698251,0.041209865361,0.278352648020,-0.036309484392,-0.051043797284,-0.281210750341,-0.038424439728,-0.075920268893,-0.040951397270,-0.086468145251,-0.170870602131,0.129215016961,-0.068191424012,0.092087246478,0.059574112296,-0.047468692064,0.299562156200,0.289154469967,-0.000974113296,-0.049648724496,0.037145692855,-0.256144881248,0.215001538396,0.012333956547,0.499700158834,-0.030678931624,-0.141763016582,-0.251380801201,0.305442422628
-0.198106259108,0.009972739033,0.038749348372,-0.441312700510,-0.082076013088,-0.176091149449,-0.017717881128,0.482422024012,-0.057721942663,0.394851118326,-0.088450171053,0.060778990388,-0.222026050091,0.273126602173,0.069749258459,0.179504618049,-0.052912201732,-0.306785613298,-0.329775035381,-0.218525335193,-0.145070970058,-0.096388146281,0.037414826453,0.079236544669,-0.204099789262,0.306680232286,-0.076390907168,0.106389328837,0.133489653468,-0.474466174841,-0.116127178073,-0.247980073094,0.196873724461,0.052543275058,0.154915541410,0.155708536506,-0.053981721401,0.124771967530,0.003968019970,-0.188469499350,-0.085947588086,0.071014553308,0.080918677151,-0.092600785196,-0.128469079733,0.024311354384,-0.004446460865,0.065203689039,0.029815332964,-0.105523392558,0.101044565439,0.090060167015,-0.051709126681,-0.057338230312,0.130953624845,-0.111697018147,-0.155324146152,-0.030158301815,0.167383044958,0.107532270253,-0.170409470797,0.430535614491,0.030181122944,0.130187824368,0.063786342740,-0.179163813591,0.216688618064,-0.302279323339,-0.189994290471,-0.065538778901,-0.138663947582,-0.036580789834,0.250342667103,0.215106770396,-0.072363898158,-0.255324631929,-0.046723317355,-0.131975993514,-0.064963571727,-0.058012381196,-0.581675887108,-0.453362375498,0.027827052400,-0.033541936427,-0.506130754948,0.234497904778,0.049067240208,-0.151173815131,0.039565652609,-0.179816424847,-0.106530666351,0.001166758128,0.034391332418,-0.040839344263,0.140713453293,-0.030645746738,0.281151354313,0.000548147189,-0.057179376483,0.364301532507,0.114002533257,0.099394820631,-0.002033480676,-0.018289966509,-0.154786229134,-0.019885713235,0.149083927274,-0.009552556090,0.294654011726,0.061971701682,0.137205541134,-0.256249427795,-0.187352120876,-0.141254648566,0.032989818603,0.268740713596,0.181130319834,0.097808904946,-0.464934349060,-0.074759051204,0.036488875747,-0.138988912106,0.190765678883,-0.096459113061,0.053038258106,-0.072364851832,0.061292592436,-0.070842459798
-0.034803029150,-0.008056432940,0.016435565427,0.000860087748,-0.009763237089,0.045799646527,0.005543784704,-0.044371526688,-0.026357915252,-0.005634686444,-0.002829553792,0.041762061417,-0.004030626733,0.004919053055,-0.022297188640,0.006144712213,0.011160108261,0.022439349443,0.009413056076,-0.025615526363,-0.007731174584,-0.046864736825,-0.004832461476,-0.014458704740,-0.044974919409,-0.051179621369,0.007622177247,-0.022293347865,-0.012456587516,-0.031776580960,-0.047533489764,0.015616861172,-0.010304522701,0.043557997793,-0.032125998288,-0.043576996773,-0.036560043693,-0.039168484509,-0.007207671646,0.039120994508,-0.040092557669,-0.038538955152,0.033656015992,-0.001927385223,-0.012107176706,-0.009317973629,0.000892292184,-0.022732777521,0.012025382370,-0.040974590927,-0.020303025842,0.033813040704,0.012356207706,-0.023817267269,-0.005650111008,0.028954418376,0.027701055631,0.047026369721,0.043735276908,-0.023779261857,0.019793763757,-0.022744219750,-0.006954024080,-0.016831709072,-0.047135688365,0.033735316247,-0.036452967674,-0.024417892098,0.035564836115,-0.001075255335,0.017630258575,0.008601331152,0.014946340583,-0.029046250507,-0.037388071418,0.001299906056,-0.022907223552,0.013571019284,-0.036627050489,-0.035742182285,-0.028665814549,-0.023265376687,-0.007722422015,-0.028591545299,-0.030872819945,-0.045082811266,-0.031870078295,-0.042693052441,-0.005420942325,-0.043426446617,0.003085855627,0.036229129881,-0.038577843457,-0.048285666853,-0.029392046854,0.034481953830,0.004726759624,0.023940874264,-0.017149360850,-0.039867516607,-0.011957241222,0.011146694422,0.031370725483,-0.021328888834,-0.027571529150,0.020527692512,-0.037077795714,0.012066766620,0.016611088067,0.018073651940,-0.041196081787,0.040640898049,0.003953208681,0.001398207038,-0.022072063759,0.044185664505,0.024541884661,-0.013819830492,-0.039799250662,-0.043325241655,-0.035435575992,-0.000464055891,-0.028225861490,0.041500575840,0.018333025277,-0.041177686304,-0.037777658552,0.011601966806
0.325931549072,0.143853783607,-0.003268633503,-0.103493891656,-0.158199638128,0.142461404204,0.030206466094,-0.225755736232,0.027658993378,-0.164915785193,0.090693488717,-0.048852074891,-0.551906168461,-0.067130267620,0.112699262798,0.032043576241,-0.096888862550,0.184548795223,-0.008077597246,0.089821271598,0.049805875868,-0.094143390656,0.261920541525,-0.175765454769,0.197039484978,-0.030868278816,-0.174938917160,-0.170128658414,-0.124156929553,-0.132086589932,-0.057884857059,-0.011188405566,-0.123569071293,0.064309358597,-0.164514586329,-0.042447704822,-0.073780149221,-0.063435241580,-0.126818522811,1.030798673630,-0.384637296200,0.243893578649,-0.294820100069,-0.047832585871,-0.317266106606,0.154981732368,0.140652507544,-0.099561356008,-0.073152869940,0.166089013219,-0.109765008092,0.116221740842,-0.156906023622,-0.064488433301,0.175705060363,0.218259945512,-0.088070221245,0.012709666975,0.236224800348,0.001470142393,-0.264844924212,0.275288552046,-0.011888063513,0.062349665910,-0.049920208752,0.275972396135,-0.006635085680,0.161445453763,-0.069647289813,0.219697669148,-0.040262836963,0.023266820237,-0.185252130032,-0.010786971077,0.293933302164,0.054503850639,-0.339589029551,0.603728294373,0.100292757154,-0.088040448725,0.009809387848,-0.113700002432,0.282135814428,-0.011215584353,-0.224609002471,-0.018313992769,0.188960626721,-0.076691746712,0.059640266001,-0.035071827471,0.031415596604,-1.083225488663,-0.044015586376,-0.020137049258,-0.040357969701,0.093810029328,-0.026764756069,-0.224509000778,0.067608691752,-0.349557131529,0.052743285894,0.096678346395,0.037843879312,-0.074740037322,-0.227131918073,0.039749044925,-0.111499719322,-0.068650506437,0.157821908593,0.132622331381,-0.127037420869,-0.198629230261,-0.000004771432,0.022238768637,0.085584424436,-0.087827876210,0.011384750716,0.032793875784,0.041433207691,0.013652047142,0.276579767466,-0.046721570194,-0.094663627446,-0.054022211581,-0.258086144924,-0.244761124253,0.031420875341,0.080878928304
-0.058022748679,-0.036055333912,0.155258983374,-0.860453307629,0.145901784301,0.038872793317,0.013632847928,-0.038307115436,-0.095052376390,0.019137993455,0.025379952043,0.203334555030,-0.026395980269,0.230404108763,0.035991497338,-0.403329640627,0.059072226286,-0.034645009786,-0.314501911402,-0.140367075801,0.043283656240,0.053596105427,-0.128871098161,0.100239545107,-0.127082169056,-0.192212745547,-0.048272818327,0.002862413181,0.799914956093,-0.027730930597,-0.079112038016,-0.031648904085,0.092079669237,-0.024682724848,0.156562685966,0.065920449793,0.611031353474,-0.036937423050,0.013133139350,0.312929779291,0.168496966362,0.342725485563,0.057672917843,-0.815209627151,0.067641437054,0.025269564241,-0.043322190642,-0.035678144544,0.037472911179,0.006423013750,-0.101808287203,-0.181794151664,-0.137056082487,0.017940832302,0.041529700160,0.028830934316,-0.002880751388,0.044261798263,-0.199840784073,0.160333767533,-0.634244740009,0.748279631138,0.051086094230,0.064291454852,-0.027252223343,0.223012283444,-0.042222663760,0.025556566194,-0.174954220653,0.097193017602,-0.203838109970,0.046430405229,-0.203733682632,-0.090018540621,-0.137989133596,-0.080579884350,0.077385023236,-0.372227162123,0.010161076672,-0.003508091671,0.110110059381,-0.097714461386,0.033827546984,0.147323310375,-0.116147793829,-0.299879670143,-0.266568124294,-0.250966489315,-0.079405099154,-0.153192460537,0.017487742007,-0.314480930567,-0.009838225320,0.017294432968,-0.077249906957,-0.048836447299,0.234984844923,0.012985997833,-0.042119581252,-0.182806447148,0.483938604593,0.091599352658,-0.015048324130,-0.113420017064,-0.018853852525,0.006378922146,-0.324857354164,0.024223741144,-0.091641336679,-0.072579786181,0.013806169853,-0.149820744991,-0.376217514277,0.018290998414,-0.016012785956,0.087659358978,-0.060440734029,-0.356974840164,-0.110338725150,0.188444450498,0.092876397073,0.035345524549,-0.324584573507,-0.143744811416,-0.137453854084,-0.021534197032,0.010060181841,-0.027362130582
-0.647562384605,-0.066467687488,-0.027886727825,-1.609199762344,0.012076829560,0.027632679790,0.094188250601,-0.045825939626,0.210518956184,0.047239255160,0.117684110999,-0.081015855074,0.853807151318,-0.041488781571,0.013365692459,-0.261985063553,0.003357109148,0.066406548023,0.121679060161,0.016363903880,-0.440432697535,0.089259244502,-0.023932933807,0.521842837334,0.084007412195,-0.212219014764,-0.187801733613,0.104213282466,0.388678073883,-0.185776680708,-0.012198782526,0.062699086964,-0.101036310196,-0.057229373604,-0.146383509040,-0.114412590861,-0.302834570408,-0.148855179548,-0.027774831280,-0.129756450653,-0.174327418208,-0.001269985456,-0.245159134269,-0.507426977158,-0.236951172352,0.062094066292,-0.025729939342,0.022221783176,-0.102175056934,-0.294316738844,0.127762928605,-0.086581312120,-0.403537839651,0.008832082152,0.119138523936,0.075841717422,-0.046143300831,0.015272524208,-0.279392689466,0.006633755751,0.382972896099,-0.391611814499,-0.030164549127,0.234596878290,-0.101092666388,-0.467575490475,-0.028275562450,-0.401852637529,-0.004388459027,-0.404265522957,-0.145061284304,0.038183886558,0.019516162574,-0.205513551831,0.159032419324,-0.270961612463,0.473801612854,-0.040390048176,-0.240858748555,0.552265167236,-0.427222609520,-0.934296727180,0.073574118316,-0.108275361359,-0.154681578279,-0.224132373929,-0.085794702172,0.482623964548,-0.129693299532,0.029520358890,-0.217330574989,-0.168169677258,0.030483623967,-0.027383046225,-0.428760021925,0.041443403810,-0.031484030187,0.943455576897,0.083628743887,0.093324132264,-0.096659980714,-0.033259820193,0.004930148832,-0.145757079124,0.022310847417,-0.117660239339,-0.060370299965,-0.139735355973,-0.253077745438,-0.012349511497,-0.151746898890,0.029961118475,0.202263370156,0.097338646650,-0.253020763397,-0.009881860577,-0.114355184138,0.486667215824,-0.185225188732,0.304724663496,0.086138211191,-0.093469224870,-0.104991272092,0.486769020557,0.318875759840,-0.065275631845,-0.110651254654,-2.774824142456
-0.138228729367,0.029534736648,0.002468910068,0.003123515518,-0.231678307056,-0.636621356010,-0.024841910228,0.462569594383,0.029488740489,-0.043750692159,-0.020651891828,-0.092518515885,0.044941496104,0.129455938935,-0.078235000372,-0.004345023073,0.149060800672,-0.109938256443,0.023598104715,0.075177378953,0.124368578196,-0.470136195421,0.010114204139,-0.401826858521,-0.079671204090,0.608740866184,-0.297510623932,-0.147231146693,-0.027574125677,0.018080908805,-0.245387122035,-0.005007376429,0.193917587399,0.037024665624,0.254749715328,-0.056685496122,-0.131262898445,-0.099777393043,0.023753955960,-0.086064428091,-0.122453898191,-0.131276682019,0.104044429958,-0.129191011190,0.001468401751,-0.014748921618,0.046231608838,-0.030364619568,0.123099565506,-0.027612401173,-0.161539256573,0.121262736619,0.188067242503,-0.133330971003,-0.249244108796,0.059192053974,-0.059385254979,-0.070869997144,-0.118983738124,0.072500333190,0.037423282862,0.045256063342,0.013506238349,0.070105351508,-0.041345734149,-0.185312524438,-0.112847656012,0.211219832301,-0.036737930030,0.072166845202,0.109616391361,0.019774315879,0.228075459599,0.201786711812,0.301590085030,-0.238968625665,0.090488746762,0.089184127748,-0.168457061052,-0.074509486556,-0.138049185276,0.128668725491,0.239620462060,-0.115147851408,-0.050818588585,0.014479543082,0.092339634895,-0.132860094309,-0.020149312913,0.155015960336,0.035834267735,-0.251403540373,0.047468129545,0.021126721054,0.252209842205,-0.002484844066,0.064792901278,-0.101664483547,0.015756800771,-0.003109769896,-0.005232918542,-0.172996699810,0.001765635447,0.071553841233,-0.028929319233,0.039817769080,-0.090615428984,-0.145098462701,0.026630789042,-0.053855754435,0.028617437929,-0.060235135257,-0.152664199471,-0.044403422624,-0.067487545311,0.016925895587,-0.051199499518,0.093370094895,-0.075805731118,0.352443367243,-0.177129909396,-0.066726870835,0.004820480011,0.310303032398,0.066195726395,-0.031231388450,-0.080789163709,-0.037636864930
-0.135604783893,0.094004131854,0.060165304691,-0.244533225894,-0.064049854875,0.125589296222,0.042198114097,0.167111247778,-0.405104160309,0.104077570140,0.031411360949,0.229863315821,0.082665130496,-0.175663590431,0.098180077970,0.001584480749,-0.008456720039,0.203100100160,-0.096825964749,-0.071012996137,0.526206314564,-0.001432252000,-0.021246707067,0.345005005598,-0.056569743901,-0.340607017279,0.100505165756,-0.010643457994,-0.056597255170,-0.052699528635,-0.078098259866,-0.004107729532,0.035436630249,-0.024541623890,-0.005091205705,-0.025661492720,-0.004228708800,-0.065212339163,-0.123161643744,-0.029124017805,-0.111442141235,0.183458387852,-0.089470751584,-0.063245676458,-0.069920860231,-0.035992559046,0.059777539223,0.003888661740,-0.081671193242,-0.505588352680,0.074371412396,0.038807328790,-0.011391941458,0.157343938947,-0.060808345675,0.038040287793,0.065439179540,-0.045207295567,-0.029983710498,-0.046535465866,0.224938139319,-0.073033526540,-0.015114395879,0.017443178222,0.020074857399,0.024630438536,-0.019233614206,-0.146812349558,0.164304748178,0.056252311915,0.059111177921,-0.042071368545,-0.178092822433,-0.539301216602,0.031968690455,-0.167303353548,-0.061104796827,-0.023477204144,-0.037162285298,-0.004088066518,0.106185570359,-0.057736366987,-0.037346806377,0.020501827821,-0.915816545486,-0.021788338199,-0.210846111178,-0.045763496310,0.071547269821,-0.051910188049,-0.122779339552,-0.025540348142,-0.035880763084,-0.025333521888,-0.012961881235,0.031743787229,0.035126786679,-0.272026836872,0.006908008363,-0.199861064553,0.019147517160,0.236017540097,-0.041896626353,0.467404097319,-0.008916232735,-0.102761313319,0.038829840720,-0.024750269949,-0.070389047265,-0.129288032651,0.686613559723,-0.025724686682,-0.119282402098,0.021302331239,0.169800117612,-0.942154526711,0.004410800058,-0.110559687018,0.067150734365,-0.260027140379,0.039778452367,-0.159176155925,-0.130548104644,0.318823456764,0.004166494589,0.035634189844,-0.059952385724,-0.455021560192
0.153734609485,-0.071641422808,-0.219303756952,-0.080557651818,-0.070011213422,0.001707446878,-0.048790607601,-0.334996074438,0.000237609478,-0.016421178356,-0.014299786650,-0.021206250414,0.459637373686,-0.424780577421,-0.038900777698,0.054291885346,0.133560419083,0.010137826204,0.030220724642,0.385611653328,-0.485870987177,-0.081753462553,0.010814253241,-0.124400436878,-0.510766744614,0.142920047045,-0.067005820572,-0.060705039650,-0.016945794225,-0.062191054225,0.033681090921,-0.071748554707,0.020528703928,-0.021632391959,0.058694731444,-0.081871263683,-0.033349886537,0.176982790232,0.013830564916,0.104136794806,-0.253294408321,-0.153135731816,0.006200937089,-0.000668640714,-0.052488885820,-0.031554069370,-0.030108228326,-0.028715699911,-0.309647589922,0.573191106319,0.002275687875,0.010384273715,0.005211549811,0.051253631711,0.084515899420,-0.151394262910,-0.072121709585,0.000867787574,-0.079342991114,0.115586146712,-0.154115408659,0.007995530032,0.020963203162,-0.134085595608,0.042385932058,0.068865910172,0.095098108053,0.239957034588,0.035488221794,-0.226648077369,0.328784555197,-0.019177965820,0.023791158572,-0.045518022031,-0.000888730632,0.017472961918,0.001550559886,0.291786372662,0.053431764245,-0.025262840092,-0.031902652234,0.088958375156,-0.028140600771,0.082448273897,-0.093048594892,0.126052916050,0.084512449801,-0.129173114896,-0.324595600367,-0.342131346464,0.135352104902,-0.270466983318,0.031187774613,-0.049344155937,0.053370468318,0.015214722604,-0.203930914402,-0.034254789352,-0.044048354030,0.037078794092,0.021972130984,-0.191189467907,-0.033247280866,0.337482452393,-0.127043128014,0.079540111125,-0.024734677747,-0.056600965559,0.070272780955,-0.112779483199,0.483464568853,-0.054407447577,-0.373708665371,-0.011743501760,-0.141317442060,-0.227781876922,0.117501839995,-0.014173440635,-0.000551530975,-0.306535899639,0.037419211119,0.430508971214,-0.011962872930,-0.428973674774,-0.319882363081,-0.062895722687,0.325507968664,0.656476557255
-0.555404484272,0.043408103287,-0.005560105201,0.864516854286,0.193379133940,-0.093268364668,-0.000448345760,-0.294025987387,-0.078420326114,-0.053034204990,0.009937655181,0.066570758820,0.142676919699,-0.134594023228,0.124680340290,0.195840850472,0.190742909908,0.015933051705,-0.578351914883,-0.053039602935,0.035013087094,0.007613099646,-0.017683213577,-0.019038148224,-0.028461361304,-0.147361606359,0.252367407084,-0.056277085096,-0.536582887173,-0.023915451020,0.072452768683,-0.104287214577,-0.331891208887,0.099189080298,0.083164386451,0.338094443083,2.918757438660,0.207719579339,-0.035145889968,0.132314607501,0.002482496900,0.137624382973,-0.099783957005,0.312724500895,0.014006225392,0.017842225730,0.012143841013,-0.005640575197,0.210351601243,0.173263952136,0.101986765862,0.204497531056,0.123710267246,-0.165817603469,-0.090720802546,0.319980949163,-0.055524349213,0.071987703443,0.049000501633,0.052197687328,-0.132244616747,-0.327045410872,-0.029512701556,0.213088452816,-0.021112088114,-0.392277985811,-0.092870242894,-0.035895358771,0.450809627771,0.020406112075,0.057254612446,-0.011177990586,0.009320931509,-0.025041399524,0.134551331401,-0.233708605170,0.264214724302,-0.257546782494,0.136826053262,-0.046284042299,-0.495323419571,-0.437936097383,0.105383634567,-0.125823348761,-0.110712788999,0.256914436817,0.052902147174,-0.015203200281,0.024233598262,-0.275452494621,0.034847576171,0.002623756183,-0.014665349387,-0.034086380154,0.012930971570,-0.022280786186,-0.072637908161,-0.093739800155,-0.051021527499,-0.144977778196,-0.114807523787,0.110435903072,0.030570885167,0.079201720655,-0.179080858827,-0.208553045988,0.109154194593,0.029716825113,-0.139300376177,-0.121569059789,-0.041099987924,0.039809085429,0.128886461258,-0.066305451095,0.229735463858,-0.056994903833,-0.027805812657,0.847812771797,0.326731681824,0.524310588837,-0.131906121969,-0.127290397882,0.174583569169,-0.519411265850,-0.061559729278,-0.029676381499,-0.077058091760,0.141289278865
0.086992561817,0.020865153521,-0.131623551250,-0.215963572264,-0.022155396640,-0.035147923976,0.086990997195,0.129524335265,-0.220126822591,-0.145721897483,-0.311824858189,0.184364646673,-0.126168742776,0.051453921944,-0.084614761174,-0.036381989717,0.017163047567,-0.112326949835,0.004224420991,0.039822790772,0.060372553766,0.314348608255,0.045972403139,-0.103917136788,0.121088989079,0.343597143888,-0.465412259102,-0.025499179959,-0.062934607267,-0.015622749925,0.026825595647,0.055254194885,0.100191146135,0.032391775399,0.159764260054,0.014693315141,-0.173333555460,-0.190418690443,-0.017973531038,0.154017895460,-0.689909279346,0.367234677076,-0.062785826623,0.003341016592,0.119479201734,-0.061113350093,-0.170360475779,-0.012674759142,0.085688002408,-0.179207637906,0.261260002851,0.090896420181,-0.060557045043,0.227060228586,-0.015906557441,0.038298226893,0.376492559910,0.067420296371,-0.130176320672,-0.079047001898,-0.020060947165,0.029610926285,0.011470839381,-0.066431283951,0.095654822886,0.076610080898,0.211286395788,0.408848643303,-0.195900768042,0.025165921077,0.003863739315,0.003017931012,-0.210971817374,0.282236069441,-0.017776967958,-0.133698478341,0.020521543920,-0.116484440863,0.031498838216,-0.103878043592,-0.013737981208,-0.004997343756,0.055146858096,-0.074915789068,-0.137132778764,-0.052259869874,-0.077645421028,0.008489724249,-0.017423337325,-0.092799305916,-0.054279435426,-0.187650918961,-0.005898591597,0.111196242273,-0.188302516937,0.074726529419,-0.074603855610,-0.066475465894,0.023197496310,-0.202079296112,-0.097046494484,0.470541357994,-0.005550835282,0.262363463640,0.227641999722,0.019210055470,0.326563507318,0.015773506835,0.045451957732,0.016754031181,0.066284745932,-0.036161579192,-0.179463744164,0.101676642895,0.105175800622,-0.110046423972,-0.200368300080,-0.077542915940,0.083435751498,0.290428668261,-0.102621547878,0.021200269461,-0.060815073550,0.025248169899,0.108269527555,0.219557657838,0.003789018840,-0.053509231657
-0.086260236800,0.262284964323,0.019212283194,0.217667609453,-0.012149387039,0.013433184475,-0.029379071668,-0.061060298234,0.254813849926,0.013345756568,-0.044882029295,0.121159441769,-0.016608066857,-0.205392464995,-0.045355066657,-0.062405798584,0.111431322992,0.186796918511,-0.280869752169,0.209197625518,-0.142336532474,-0.159431934357,-0.013720046729,0.167859882116,0.095727659762,-0.111449062824,0.083513759077,0.048857476562,0.110828526318,0.031473468989,0.057677868754,-0.172556236386,-0.062987215817,-0.029469115660,0.002676782664,-0.052982497960,-0.047297537327,-0.000235424945,-0.052678950131,0.157179623842,-0.061303503811,-0.058799974620,0.060154672712,-0.222756028175,0.174211815000,0.027152780443,-0.089274667203,-0.031325876713,-0.064939714968,-0.795810878277,-0.076892860234,-0.027968233451,0.215168565512,0.058342836797,-0.050473783165,-0.080239042640,0.084568016231,-0.112566106021,0.260987669230,0.187887981534,0.077465519309,-0.037076275796,0.035821747035,0.107470862567,-0.061375230551,0.237008616328,0.008073858917,0.060497116297,-0.388517081738,-0.101563513279,0.051247194409,0.034278240055,0.352220416069,-0.032471362501,0.075329490006,-0.024965861812,0.290583461523,0.001889144885,-0.018358554691,-0.082106731832,-0.015121144243,-0.109643131495,0.001872390625,-0.004135532770,-0.118701644242,-0.020491242409,0.199929535389,0.025887966156,-0.003106459044,-0.272315800190,-0.103418514132,-0.210045367479,0.036278102547,0.023984119296,0.060122244060,0.051006391644,0.350312203169,-0.197970777750,-0.013126721606,-0.257645845413,-0.000515148335,0.107732541859,-0.047577381134,0.158166155219,-0.190831780434,-0.157058089972,0.054244298488,0.134372547269,0.294298470020,-0.057020947337,-0.127641156316,-0.091866351664,-0.109976619482,0.063990667462,0.005513114855,0.264331251383,-0.060134653002,0.057110007852,0.328263133764,0.203479692340,0.066092707217,-0.060081053525,0.439252018929,0.230963811278,0.158024594188,0.019693447277,-0.104955859482,0.054984524846
-0.064160607755,-0.118035979569,-0.233223706484,-0.134794473648,-0.128139987588,0.032454174012,-0.049347501248,-0.376535415649,0.026958987117,-0.083700641990,-0.259095579386,0.094891518354,0.034448590130,0.001303699450,0.150558799505,0.113703653216,0.056348510087,0.160639330745,0.017751084641,-0.444041401148,-0.028252996504,0.009823008440,-0.026402238756,0.144318372011,-0.277220696211,0.225762173533,0.165293172002,0.101243086159,0.067965395749,0.067114338279,-0.049028471112,-0.057000376284,0.059897169471,0.247869327664,-0.065221875906,-0.124045811594,-0.096383042634,0.074285626411,-0.139194861054,-0.058992270380,-0.374238222837,-0.109843589365,0.029506236315,0.128676235676,-0.029528692365,-0.150730639696,-0.161196425557,0.051206383854,-0.108887866139,-0.471199661493,0.244820877910,0.085193485022,-0.012013942003,0.487548708916,-0.219739854336,-0.043610922992,-0.112360663712,0.005941753741,0.235541447997,0.024247011170,0.023911092430,0.115755744278,-0.048768278211,0.208345174789,-0.414960861206,0.155906468630,-0.003663151525,0.057837042958,0.058456271887,-0.116415597498,0.036860544235,0.018742013723,0.050257012248,-0.238742947578,0.180370077491,-0.099039778113,0.029723446816,0.073818854988,-0.083390511572,0.000409190776,0.030340438709,-0.320557832718,0.090305857360,0.039900887758,-0.332645088434,-0.013516844250,-0.060857057571,0.086413808167,-0.091647990048,0.093612000346,0.131573662162,0.067770391703,0.019619146362,0.048733275384,-0.106315709651,0.006501659751,0.134042799473,0.067905850708,-0.067993558943,-0.036021489650,0.097624614835,0.061937298626,-0.030850673094,0.126418113708,0.441688805819,0.035436719656,0.026429837570,-0.051361445338,-0.189094007015,0.152697041631,-0.014101224020,0.048652946949,0.068427830935,-0.013510468416,0.042703613639,0.052955728024,0.135816469789,-0.055009964854,0.076939709485,-0.052468094975,0.248254492879,0.541302323341,-0.145897656679,0.255998551846,0.096079073846,-0.024630803615,0.102092549205,-0.218973487616
-0.065609678626,-0.141673400998,-0.020388685167,0.009153846651,0.128279760480,0.030009694397,0.116826705635,0.112911939621,0.107262104750,0.043096847832,0.030689643696,-0.076979599893,0.067699447274,-0.230345204473,-0.000322643114,0.061781529337,0.147127792239,-0.017672270536,-0.145786628127,-0.243548870087,0.829475522041,0.171079173684,-0.049457173795,0.137132301927,0.125113546848,-0.070076271892,0.010561116040,-0.007671276107,-0.043308548629,0.049463838339,0.022410111502,0.091735929251,-0.036836639047,0.054939169437,0.010164248757,0.001094291569,0.039165355265,0.227793216705,0.080935016274,-0.191511213779,-0.115968681872,0.221326544881,0.098584853113,0.030041800812,-0.015488257632,-0.097447261214,0.070363104343,0.029788797721,0.271158546209,-0.118832923472,0.272405982018,-0.036524977535,0.028791034594,0.044924482703,-0.108487449586,-0.123186469078,0.100416377187,-0.073894523084,-0.218898117542,0.088860042393,-0.064094781876,0.100397668779,0.009339277633,0.113477028906,-0.153371900320,-0.069846525788,0.188066557050,-0.465505540371,-0.000415716786,0.073073178530,0.181566759944,0.045473966748,-0.012434946373,0.110726900399,-0.037504993379,0.164626106620,-0.060801807791,-0.179111301899,0.119764879346,0.032894413918,0.017905302346,-0.214831054211,-0.053472205997,-0.047880962491,0.046352740377,0.056494668126,-0.013692010194,0.033415030688,-0.067527659237,0.050098706037,0.105349510908,0.092902801931,-0.001548698288,0.139879897237,-0.038535844535,-0.023673994467,0.039950944483,0.100629881024,-0.036308098584,-0.127637937665,0.144665181637,-0.124204546213,-0.003138264408,-0.044245116413,-0.078511968255,-0.119558408856,0.026674015447,-0.098948910832,-0.010970926844,-0.006983225234,-0.214775964618,0.016447026283,0.515346109867,0.011880494654,-0.038977075368,0.270052760839,0.092193454504,0.068064689636,0.099426053464,0.004305706825,0.010874073021,0.140251994133,-0.026409033686,0.430459052324,0.151412531734,0.058646153659,-0.097497776151,0.628309845924
-0.005668164231,-0.001885032165,-0.188470721245,-0.098596557975,0.031750980765,-0.060277506709,0.000239070316,0.204171359539,0.151797413826,0.227508589625,-0.069747142494,0.075885228813,-0.024879248813,0.125613674521,-0.005154999439,-0.081306718290,-0.138215526938,-0.015388350002,-0.036041434854,0.010795452632,-0.167006522417,-0.046644132584,-0.065049387515,0.641527831554,0.019859539345,0.014210388064,-0.065487079322,0.046798694879,0.032887168229,-0.003296213690,-0.016060190275,-0.018096284941,-0.016226734966,-0.071516215801,-0.020753754303,0.056246928871,-0.131111577153,0.042528927326,-0.025239488110,0.061351608485,0.093992933631,0.259759426117,0.008203553036,-0.125003293157,0.023549085483,-0.029835138470,0.043047260493,0.013372587040,-0.089078888297,0.233613878489,-0.115377262235,-0.000303936307,-0.082720257342,-0.060202457011,0.033663056791,0.095913074911,-0.018302878365,0.002380720107,0.176564201713,-0.033263411373,-0.092038400471,-0.116720587015,-0.039595555514,-0.051747150719,-0.062130499631,0.105541758239,0.061152014881,-0.222848489881,-0.037193071097,0.013971593231,0.007079124916,-0.045946948230,0.004222517367,-0.115258097649,-0.013561096042,-0.156786546111,0.009418226779,0.097936064005,0.039816409349,0.075076788664,0.084420695901,0.070835262537,-0.003282005666,-0.061466768384,0.025576174259,-0.089411877096,-0.084296196699,0.076762616634,0.003396661952,-0.066333219409,-0.138011053205,-0.019721463323,-0.029842292890,-0.141504138708,-0.002165579936,-0.093254193664,0.051617424935,0.030939579010,-0.075530230999,-0.297680199146,-0.042383927852,-0.018693458289,0.022278508171,0.187973603606,0.010537532158,-0.130800545216,0.001591781853,0.016738923267,-0.070706836879,0.022458814085,-0.010419216007,-0.085643440485,0.050314947963,-0.140064671636,-0.068253375590,0.113481380045,-0.062820158899,-0.083131223917,-0.113693848252,0.084256432950,-0.029315885156,0.089651539922,-0.033347986639,-0.080496013165,-0.097225934267,-0.036777798086,0.003263677470,0.021808659658
-0.055256266147,-0.304175704718,0.267563045025,-0.052540265024,-0.051214937121,-0.050842594355,0.019530383870,0.340403795242,0.568674445152,0.013557238504,0.072401851416,-0.023583428934,-0.061351109296,0.037014961243,0.275793254375,0.061614122242,0.057868219912,0.193548828363,-0.071165464818,-0.271630227566,-0.432207047939,0.023621860892,0.121845535934,0.181932896376,0.182376787066,-0.397525250912,-0.248549088836,-0.001481826417,-0.052423551679,0.005278412718,0.059535533190,0.052928406745,0.011546064168,-0.348771333694,-0.011591593735,-0.025054078549,0.023220933974,0.284361809492,-0.226113066077,-0.155620694160,-0.625591158867,-0.260336548090,0.057449407876,0.144260615110,-0.014953009784,0.114067725837,0.132347494364,-0.003429469187,-0.976055383682,0.622534871101,0.117993324995,0.426499158144,0.038178309798,-0.070491723716,-0.075365923345,-0.202255979180,-0.183863177896,0.006621710490,-0.046378031373,0.015433984809,-0.096471495926,-0.010223126970,-0.037766188383,0.049698174000,0.154278710485,-0.029173137620,0.010797798634,-0.218585535884,-0.144575461745,0.152300834656,-0.012314273976,0.011544453911,0.140292733908,-0.315558731556,0.008469969034,-0.370179086924,-0.040787432343,-0.171787723899,0.047895587981,0.007108464371,-0.055243685842,-0.594160974026,0.051680345088,-0.043015114963,0.145231187344,-0.094250425696,-0.001819653902,0.008920733817,0.471433579922,0.209260672331,-0.139388188720,-0.072649091482,0.045515995473,-0.194681942463,0.128891080618,0.069887951016,-0.198679924011,0.041506152600,0.080977872014,0.012336452492,-0.041969094425,0.048174969852,-0.038612321019,0.315689146519,0.468539208174,-0.263247638941,0.066846936941,-0.008024960756,-0.086355037987,0.194010853767,0.165867552161,-0.036073483527,-0.569249272346,0.047109317034,0.175418838859,0.723042488098,0.132722884417,-0.039788849652,-0.057876523584,0.179177254438,-0.219939216971,0.283847391605,-0.044600792229,-0.307845532894,-0.196004271507,0.058615129441,0.738945603371,-0.103681080043
0.036275655031,0.029823932797,0.007985591888,-0.030824104324,0.044073432684,0.133191123605,-0.001414561295,0.043334357440,-0.158223912120,0.087656363845,-0.056673213840,-0.042073592544,-0.013979671523,-0.021018622443,-0.033825822175,-0.159395709634,0.002011375502,-0.090368479490,-0.012083029374,-0.078995041549,-0.054971423000,-0.108437672257,-0.008835052140,0.015360265970,-0.031464811414,0.350306332111,-0.050639364868,0.033093437552,0.307402431965,0.144459962845,-0.074036754668,0.082453541458,0.121958486736,0.047298073769,-0.240857765079,-0.069867871702,0.126082777977,-0.021258886904,0.045857630670,-0.114347562194,-0.437474101782,-0.253662079573,-0.095575369895,0.112621590495,-0.153568133712,-0.037026841193,-0.016162941232,0.034844845533,-0.008303685114,0.170516893268,0.196840167046,-0.293879449368,-0.171779826283,0.109975866973,-0.009139466099,0.014891008846,-0.061615731567,-0.026997979730,-0.095203518867,0.050410602242,-0.049278873950,-0.321100324392,-0.040686469525,0.091592721641,0.170939370990,0.232523545623,0.007918687537,-0.027143439278,0.195240303874,0.203552350402,-0.016885584220,0.029557729140,-0.079009592533,-0.145411506295,0.200324192643,0.017486153170,-0.021785164252,0.149468034506,-0.114717856050,-0.023651344702,0.488403230906,-0.083016440272,-0.038630876690,0.104050561786,-0.178244501352,-0.216608896852,0.310420751572,0.144000336528,-0.014113144018,-0.085404954851,0.064441144466,0.082911543548,0.001291287364,0.016377527267,0.093426808715,-0.001652242383,0.157960534096,0.001381835318,0.014946701936,0.040776457638,0.077013120055,-0.100773751736,0.007104260381,0.038040775806,-0.012800781988,-0.042754024267,0.027689699084,-0.155583500862,-0.081227041781,0.059881754220,0.034215949476,0.005162847694,-0.103261947632,0.002625949681,-0.119790315628,0.155233517289,0.010880067945,-0.281994611025,-0.070498406887,-0.151400536299,-0.110405385494,0.034500714391,0.034154988825,0.199805185199,0.157603561878,0.000004463261,0.006184517872,0.031414099038
0.113320879638,-0.154783979058,-0.108546748757,-0.258269160986,0.062735609710,-0.137780711055,-0.078529961407,0.238448277116,-0.093564338982,0.170021951199,0.044381327927,0.074393421412,-0.032070685178,-0.003174246289,-0.206653639674,0.137312367558,-0.077741533518,-0.030273383483,-0.096576929092,0.144285008311,-0.307831406593,-0.067216262221,-0.096153706312,-0.290475904942,0.213371872902,-0.227735042572,0.324814796448,-0.033141184598,-0.122603483498,-0.069578438997,-0.032486621290,-0.194909155369,0.085416927934,-0.018162572756,0.221835017204,-0.102295137942,0.051779150963,-0.141933545470,-0.018407600001,-0.142947107553,0.092478677630,-0.121912226081,-0.028593393043,0.021768430248,-0.046605411917,0.126436889172,-0.069822818041,-0.008608774282,0.046103939414,-0.432520955801,-0.146004244685,-0.101960860193,-0.008047964424,0.223332062364,0.223627224565,0.065301805735,-0.178086653352,-0.001778768026,0.044475346804,-0.353190630674,0.093159608543,-0.098348714411,0.019087489694,-0.131859913468,-0.433821797371,-0.053626939654,0.052943047136,0.402152836323,0.110151775181,-0.010227132589,-0.178312525153,0.035408634692,0.076518759131,-0.557135164738,-0.127927869558,0.148474708200,-0.027817223221,0.160845741630,-0.079159274697,0.070276923478,-0.111987210810,0.500052332878,0.037210043520,-0.010261128657,-0.006891821511,-0.085828520358,-0.309775114059,-0.308277875185,0.208388060331,0.016034401953,0.061266176403,-0.079487241805,0.010711737908,-0.654628455639,0.000517131179,0.019381113350,-0.005227188114,0.324136197567,0.030490010977,0.324665546417,0.112326711416,0.672109663486,0.038762364537,-0.477296382189,0.224717631936,-0.101386353374,-0.008482361212,0.090375594795,0.047234591097,0.120546653867,0.388794064522,0.015978805721,-0.200957000256,0.118007645011,0.363359659910,0.068354114890,-0.087122119963,-0.033518631011,0.091861978173,0.127976566553,0.155308485031,0.109311185777,0.087598673999,0.260868042707,0.014904592186,-0.046521138400,-0.218687713146,0.081430546939
-0.108491457999,0.004833556712,0.163167834282,0.044032625854,-0.077053375542,0.250888675451,0.033001419157,0.005690254271,-0.007710135542,-0.031048264354,-0.066254131496,-0.043758790940,-0.520539164543,0.058156214654,-0.060793995857,0.213755190372,0.366489589214,0.074600823224,0.132649615407,-0.155806615949,-0.028194976971,0.284860104322,0.186156913638,-0.127116069198,0.165505498648,0.071562841535,-0.018702739850,0.428875565529,0.397244125605,-0.041343200952,0.382480084896,-0.084356002510,-0.040345076472,0.079419195652,-0.006445432547,-0.094964399934,0.291337966919,-0.113512128592,-0.015730693936,-0.337952673435,0.062232013792,-0.309772342443,-0.340818375349,-0.013026733883,-0.237060606480,0.187921166420,-0.000282710593,0.416370719671,-0.126499250531,-0.101276800036,-0.067354805768,0.096777498722,0.369711756706,0.044872850180,-0.100355736911,0.256573230028,0.041603673249,0.059435416013,-0.136461228132,0.091172032058,-0.118582300842,-0.078527174890,-0.020115582272,-0.024335812777,0.211446538568,-0.356990098953,0.078843601048,0.140350848436,0.222237154841,-0.180075898767,-0.082618512213,-0.038487698883,0.196478426456,-0.311450004578,-0.343291640282,0.008545126766,-0.034490570426,-0.547521471977,-0.106934361160,0.015753576532,0.146139144897,-0.369047641754,-0.604986250401,0.319788634777,-0.038633536547,-0.401418745518,0.013734051958,-0.112914048135,0.152881205082,0.249945417047,-0.049877818674,0.461040645838,0.046139784157,-0.045045070350,-0.106326177716,0.137841477990,0.450309306383,-0.045766796917,0.064058586955,-0.085146442056,0.031399156898,0.128412336111,0.002366743283,-0.078173078597,-0.158796176314,-0.044841788709,0.109886333346,-0.024145219475,0.246019437909,-0.280655264854,0.003220283426,0.375814437866,0.354168474674,0.034785024822,-0.086649894714,-0.181760877371,-0.027033871040,-0.232970759273,0.506897866726,-0.445388883352,-0.044984061271,0.079536058009,0.195779353380,-0.060629047453,0.037336695939,0.011307256296,0.100782535970,0.135757341981
-0.060346838087,-0.043996360153,-0.012041419744,-0.030522571877,0.036393269897,0.005442137830,-0.011610804126,-0.017896026373,-0.021035509184,-0.015170403756,-0.013347583823,0.021180074662,-0.030466342345,-0.035059031099,-0.048192512244,-0.046182185411,0.019181953743,-0.041811108589,-0.044291622937,-0.039245277643,-0.035141702741,-0.006322711706,-0.015317541547,-0.039865691215,0.015277453698,-0.013163495809,-0.007473763544,0.009176671505,0.007585498970,-0.001638698741,-0.014791621827,-0.055275518447,-0.029865192249,-0.017809838057,0.057754535228,-0.052029091865,0.004564981442,-0.048406418413,-0.036616668105,0.033067923039,-0.035708893090,-0.046100366861,0.011378969066,-0.006365869194,-0.048141963780,0.025509135798,-0.034043665975,0.017885673791,-0.034255687147,0.016869870946,0.009443498217,-0.020315684378,0.036360494792,0.004952398594,0.019400056452,0.020569177344,0.043336059898,-0.029906725511,-0.025800472125,0.003891372820,-0.046429339796,-0.011008848436,-0.018455496058,-0.002417003736,0.007798654493,-0.046349428594,-0.057401310652,0.006800820585,-0.034372884780,0.020468708128,0.025469388813,0.017925977707,0.020311793312,0.025600304827,0.012608202174,-0.042109519243,0.015431885608,-0.072404377162,-0.001193973236,0.004714548588,-0.044643308967,0.026646731421,0.004077744205,0.027894431725,0.012613126077,-0.007849703543,-0.048480428755,-0.048458032310,0.029601944610,0.031462874264,-0.005172799807,0.043278966099,0.046091552824,0.029624240473,0.036769788712,-0.049525309354,-0.049451611936,0.019358504564,-0.058282528073,-0.050048243254,0.018848467618,-0.024277588353,-0.031149523333,0.036430459470,-0.002769652288,0.014113868587,-0.014899131842,-0.024095274508,-0.042822688818,-0.042154964060,0.001605524332,-0.042631905526,0.011227189563,-0.050322152674,-0.040552198887,-0.030529445037,-0.000384525978,-0.036611262709,0.002468362683,-0.026509361342,0.005970512051,-0.015656372532,-0.039604868740,-0.039605416358,-0.044398102909,0.024301467463,0.020922400057,0.046545926481
0.135111331940,0.023265188560,-0.071195609868,-0.060679286718,-0.015994232148,-0.048201255500,0.009625165723,0.012935592793,0.090433835983,0.007211992517,-0.095263540745,-0.132138669491,0.001849200111,0.045100532472,-0.011348129250,-0.046624958515,0.121938101947,-0.029992111027,-0.092323161662,-0.024894718081,-0.115033626556,0.105555422604,-0.076190680265,-0.041148129851,0.161434903741,0.276294559240,-0.210611000657,0.089103177190,-0.128176614642,0.025140451267,0.003162087640,-0.101589016616,-0.140911146998,0.011131694540,-0.006549337413,0.007395410445,0.045243985951,-0.190961360931,0.006236121524,-0.122042395175,0.313842982054,-0.318778187037,0.022986153141,0.067989073694,-0.046707130969,-0.090228185058,-0.026942592114,-0.051057238132,-0.067328318954,-0.038900990039,0.070507660508,0.001864333986,0.083847709000,0.101330034435,0.016531961039,-0.175791084766,0.081173673272,0.102954186499,0.168422192335,0.038474529982,-0.160611048341,0.070006050169,-0.047636076808,-0.036122959107,0.012202992104,0.043426375836,0.009665457532,-0.047118283808,-0.040643353015,0.000708773325,-0.218916282058,0.030142826959,-0.065802700818,-0.019049040973,0.050062645227,-0.104710876942,0.115742623806,0.192320078611,0.066816180944,0.043697476387,-0.064013488591,-0.426419019699,0.032638810575,0.029683491215,0.374837279320,0.073773436248,0.031020563096,0.041562154889,-0.054645173252,-0.244986668229,-0.054802179337,0.048678454012,-0.015940593556,-0.020460804924,0.011598564684,-0.053556580096,0.085576459765,0.048441011459,-0.062144901603,0.300371438265,0.130589753389,0.533527076244,0.005493211094,-0.013165908866,-0.037774927914,-0.031177390367,-0.132008254528,-0.096025221050,-0.047663319856,-0.100046403706,0.003255999414,0.019872337580,-0.015839114785,-0.097464419901,-0.032686624676,0.075503423810,-0.054075863212,-0.010927535594,-0.001319499454,0.100121915340,0.237670749426,-0.014785289764,-0.058849386871,-0.464016586542,0.094634018838,-0.068359889090,-0.021449083462,0.227111488581
0.020772803575,0.007912185043,-0.113857455552,0.006545634009,-0.039939165115,-0.042598288506,0.454246073961,-0.031450361013,0.087185382843,0.080801866949,-0.213681340218,-0.088402248919,-0.032449450344,0.066492669284,0.029181025922,-0.020613949746,0.055590972304,0.001705677831,0.103958211839,0.054543163627,-0.013510781340,-0.029105436057,-1.934208393097,-0.048677001148,-0.030905378982,-0.064373798668,-0.011931965128,-0.040046270937,-0.066645577550,-0.019783131778,-0.078962042928,-0.115430921316,-0.005926623475,-0.004488440230,-0.056413169950,0.005662618671,-0.036922089756,-0.019413562492,-0.112721800804,-0.069178797305,-0.053581893444,0.188476845622,-0.012855237350,0.159850731492,-0.184305146337,-2.556480884552,-0.143373668194,-0.052068851888,-0.006787328981,-0.034826450050,-0.118755131960,0.005359686445,0.103203997016,0.040724989027,0.021938070655,-0.161903947592,0.012930436060,-0.021915443242,-0.105454519391,-0.147723317146,0.047973316163,-0.010956010781,-0.002649487229,-0.155596166849,0.126547589898,-0.005890559405,0.031328868121,-0.029131818563,0.005584190134,-0.023117549717,-0.085351936519,-0.017925284803,-0.142156511545,-0.116093665361,-0.106950074434,0.105947315693,0.016643183306,0.052564248443,0.002987070242,-0.172915548086,0.040561780334,-0.126357138157,-0.031147491187,0.018617944792,-0.046344369650,-0.048051115125,-0.022542871535,0.025740008801,0.087925739586,0.066313154995,0.070438593626,0.085540212691,-0.007603484672,-0.058591000736,-0.183184862137,-0.219430983067,-0.040693517774,1.062992811203,2.790256261826,0.132627859712,0.000227019686,-0.064411468804,0.038577631116,-0.019706945866,0.073922574520,0.060515470803,0.083885110915,-0.154041767120,-0.083536311984,-0.180791854858,0.016507012770,0.030633112416,0.013259747066,0.911610662937,0.050168100744,0.018930820748,0.116904534400,-0.032412048429,-0.043044056743,-0.010776436888,-0.132897526026,-0.092667028308,0.089012511075,-0.004754059482,0.201215490699,0.034633606672,-0.011966898106,-0.035406615585
-0.260962843895,0.054785389453,0.136734455824,-0.504631876945,-0.031649496406,-0.252358168364,0.012146751396,0.430749982595,0.045159220695,-0.198309928179,-0.009194060229,0.131904304028,-0.156131669879,0.436065644026,-0.151763841510,0.087607726455,0.114157237113,0.103450670838,0.297572284937,0.039701882750,0.134018018842,-0.068961054087,-0.061539109796,0.009269202128,-0.007367133629,0.066572308540,-0.056570727378,0.053594909608,-0.122342877090,-0.075891263783,0.111968286335,-0.053426820785,0.034404214472,-0.079699404538,0.028259050101,-0.053154740483,0.238646999002,-0.131407424808,0.125132367015,-0.117513544858,-0.354954659939,-0.325811982155,0.292682260275,-0.224754631519,0.058311093599,-0.041724018753,0.034435998648,-0.067267119884,-0.119171120226,-0.298568785191,0.068384520710,0.045778259635,-0.088696599007,-0.031209457666,-0.150535210967,-0.092541843653,0.050466183573,0.038943421096,0.066884703934,-0.041652299464,-0.039672374725,0.315001338720,0.042654506862,-0.040047500283,0.081795871258,0.085481457412,0.042297817767,-0.029763035476,-0.637660741806,0.099730856717,0.152941420674,-0.034104932100,0.157425001264,0.207915604115,0.129307717085,0.436355948448,-0.318682551384,0.184422150254,0.030957251787,0.041606020182,0.658172249794,0.266970604658,0.064018368721,0.210990995169,0.225364923477,-0.187772944570,-0.306119471788,-0.045104827732,-0.024333665147,-0.149135097861,0.001942892675,0.061601385474,0.000433527021,-0.241923108697,0.073451936245,-0.015997007489,-0.160586163402,0.149933919311,0.005491732620,0.158166289330,-0.017532557249,-0.205662786961,0.040022373199,-0.002451598179,0.313721030951,0.265435069799,-0.116345889866,0.080308280885,0.032078322023,0.061308301985,0.022034112364,0.016875907779,-0.253089994192,0.010039691813,-0.021259563044,0.079078927636,-0.125057563186,-0.371389150620,-0.610195279121,0.182708293200,0.012175397947,0.051397226751,-0.049498561770,-0.071453586221,0.108527056873,0.097483515739,0.003659409238,-0.002270462224
0.053759191185,0.053331565112,-0.067576415837,0.137997195125,-0.177946358919,-0.152881085873,-0.007300897501,0.009715347551,0.026688510552,0.010142804123,-0.054749291390,-0.099550344050,-0.019577698782,-0.249434903264,-0.060018792748,0.036313835531,0.177126690745,-0.027438888326,0.169898986816,0.073745980859,0.149674594402,-0.548908591270,-0.233809217811,-0.010782485828,-0.035859130323,-0.058678973466,-0.096191361547,-0.095354899764,-0.247701510787,-0.122808896005,0.107054986060,0.055654428899,-0.080467641354,0.124477140605,0.095352128148,-0.184641286731,-0.063002504408,-0.166413053870,0.030916545540,-0.066693127155,-0.176931649446,0.053471088409,0.118669599295,0.110230572522,0.172042846680,-0.007592243142,-0.057258192450,-0.020376475528,0.062440466136,0.011171935126,0.069125942886,-0.006725192536,0.105885848403,0.233115181327,-0.178220748901,-0.139954835176,-0.032032862306,-0.066783897579,-0.052386380732,-0.030217399821,-0.209970697761,0.099415339530,0.002836425323,0.021840475500,-0.126109644771,0.094134390354,-0.165747582912,0.249210134149,-0.248343244195,0.074343204498,0.144080281258,-0.018131203949,-0.051396302879,0.500258445740,0.128992334008,0.088543549180,-0.006737906486,0.043683230877,-0.110004417598,-0.106447584927,-0.067379206419,0.152322679758,0.216511890292,-0.028020821512,0.275253593922,0.002189121675,-0.058678880334,-0.019913651049,-0.008835461922,-0.485860347748,-0.051272921264,-0.432496160269,-0.000982455094,-0.128033414483,0.104335218668,-0.137313440442,-0.151841565967,-0.185030654073,-0.142181932926,-0.138125151396,-0.106605082750,-0.091288037598,0.011013289914,-0.000171185719,0.104865819216,0.063390426338,0.081414796412,0.294125765562,-0.027094494551,-0.054866515100,0.116998478770,-0.118193276227,-0.455739289522,-0.063490264118,0.005471844226,0.224781617522,-0.035518486053,0.247080147266,0.276103645563,0.108622767031,-0.080538965762,0.171841353178,0.030116314068,-0.298860847950,-0.202382892370,0.069097235799,-0.161894246936,0.029764320701
-0.001293272013,-0.115073971450,-0.053179971874,-0.209668114781,0.027213567868,0.124084271491,0.025832263753,0.048354446888,0.059035003185,0.001995458500,0.007323670667,0.094928577542,-0.040994513780,-0.075237475336,0.063482761383,-0.062050748616,-0.083455465734,-0.174322485924,-0.038374230266,-0.085982345045,0.057881481946,0.122732676566,0.248328357935,-0.277453452349,0.422474533319,-0.031290829182,0.146165311337,-0.063494808972,-0.002427430125,0.006003984250,0.112793743610,0.108313903213,0.163556411862,-0.021995415911,0.236859038472,-0.034192044288,0.013220094144,0.000526285148,-0.231004372239,-0.100365579128,-0.224519520998,0.165568977594,-0.038674566895,-0.116081081331,-0.176768273115,0.076817288995,-0.024197699502,0.019121149555,-0.072365052998,-0.079637967050,0.003440460190,-0.076652653515,-0.173272609711,0.067234411836,0.027721909806,-0.115561701357,0.112163722515,0.094215378165,0.269723981619,-0.148679897189,0.104696437716,0.022567898035,0.059106398374,0.029875857756,0.082914955914,-0.129216343164,0.202713176608,0.213335141540,-0.207092821598,-0.031977795064,0.123454414308,-0.018441395834,-0.062601104379,0.000270367891,-0.086493611336,0.171134993434,0.124820426106,0.064097791910,0.043769497424,-0.220187976956,-0.045446507633,-0.773702740669,-0.017563762143,0.039275001734,0.191841349006,-0.027676921338,0.042986843735,-0.041148144752,0.016643753275,-0.045216470957,-0.028491716832,0.326859831810,-0.010959436186,0.078773766756,-0.030359903350,0.107799306512,0.046997591853,-0.330018192530,0.085435040295,-0.283936977386,0.055215779692,-0.038378421217,-0.018686439842,-0.266056239605,-0.231746643782,-0.072977878153,0.271110773087,0.082088574767,0.089218750596,0.010367861018,0.361848801374,0.009416553192,0.404193103313,-0.014119955711,-0.037778880447,-0.239546358585,-0.403767049313,0.080951116979,-0.008406468667,0.376809298992,0.121369346976,-0.083488903940,-0.371749103069,-0.231898799539,-0.154846772552,0.250860124826,-0.135832145810,0.118553817272
0.015644729137,-0.136909961700,-0.037133600563,0.345568954945,0.023833831772,-0.061020467430,0.009284661151,0.065399006009,0.147060632706,0.121073193848,-0.040555398911,-0.096005201340,-0.127429127693,-0.165374696255,-0.080712296069,0.084700956941,0.165432050824,0.133132264018,0.076763898134,0.039346627891,-0.275588005781,0.161158472300,-0.045769017190,0.094524495304,0.028236575425,-0.128201231360,-0.090821303427,0.015182782896,0.113360852003,-0.017529262230,0.068442687392,-0.091408997774,-0.257301062346,-0.030928980559,0.044818531722,-0.058841116726,-0.301564127207,0.197732493281,0.056807443500,-0.220784470439,-0.237594693899,0.120731316507,0.150317981839,0.078990302980,-0.094190523028,-0.005807804409,0.046719197184,0.018856085837,-0.026259420440,0.140259936452,0.012522105128,-0.026906576008,0.163419380784,0.162095397711,0.099080316722,-0.354269087315,0.012719615363,0.001012613066,-0.314321458340,-0.073947720230,-0.065181039274,0.127167522907,0.047583736479,-0.029944557697,0.032946333289,-0.057031363249,-0.263252735138,0.109846636653,-0.225532174110,0.077447302639,0.189256891608,-0.003038106253,0.572103977203,0.061523593962,-0.052175343037,-0.037216052413,0.116513080895,0.046321127564,0.015060083009,-0.008702973835,0.068246573210,0.116572983563,-0.044289458543,-0.097067117691,0.105929255486,0.005432058591,0.212245196104,-0.050968136638,0.084099896252,-0.089874297380,-0.110765226185,0.021961458027,0.030759522691,0.004617396276,-0.123265773058,-0.007141751237,-0.094731755555,0.065500304103,0.006736609619,-0.312750428915,0.143009409308,0.026869179681,-0.010414389893,0.072518184781,0.036627538502,0.045344401151,-0.267993718386,0.169495224953,0.146771416068,-0.059349529445,-0.008860826492,0.547010242939,-0.136787325144,0.036554843187,0.156476438046,-0.045779418200,-0.000596319675,0.036318663508,0.242863938212,0.187878966331,0.018598427996,-0.058732613921,-0.038146179169,0.126760467887,0.062273971736,0.123650014400,0.055436819792,-0.371830999851
0.259493142366,-0.247206598520,-0.057296842337,-0.497548192739,-0.095579698682,0.004636577331,-0.015466151759,0.058548718691,0.030127564445,0.021119132638,-0.034917239100,0.088142253458,-0.124069906771,-0.051019132137,-0.168610557914,-0.109084784985,0.048495929688,-0.080415368080,0.173933148384,0.124814674258,-0.007900764234,-0.063370630145,-0.047763109207,-0.227943047881,-0.097991935909,-0.079365015030,-0.046373963356,-0.018522085622,0.617595851421,0.146487668157,0.080323338509,-0.061162881553,0.301816314459,0.204271346331,-0.117706477642,0.049389239401,0.088780768216,0.172088757157,0.076650030911,0.081165947020,0.003760690801,0.044280868024,-0.091619282961,-0.085240080953,0.015965903178,-0.084709100425,-0.071090497077,-0.041693780571,0.024906596169,-0.187591016293,-0.086347974837,-0.053027823567,-0.271788537502,0.274558186531,0.098247282207,0.070626750588,0.020569553599,-0.016750181094,-0.012986396439,0.123313248158,0.006175412796,-0.201095268130,0.043877486140,0.009737691842,-0.109209671617,0.077278696001,0.243622973561,0.416829913855,0.204910174012,0.074721418321,0.151283308864,0.042317040265,-0.127942413092,0.168763086200,-0.183966487646,0.051741704345,-0.044807530940,0.116344958544,0.179667010903,0.014325416647,0.224654600024,-0.265657097101,-0.025134110823,-0.081525817513,-0.063345916569,-0.369639486074,0.200382724404,0.116084113717,0.050864104182,0.071609191597,-0.060007140040,-0.087638340890,0.016092674807,0.107774831355,-0.095357261598,0.004710678011,0.039995446801,-0.017344357446,-0.004911751952,0.148666068912,0.123257711530,-0.107690252364,0.014419930987,0.004716351163,0.090687289834,0.012617516331,-0.052365276963,-0.072176814079,0.018805814907,0.180373564363,0.017628081143,0.046778656542,-0.221941068769,0.030098488554,-0.092636168003,0.098799154162,0.092057250440,-0.361056119204,0.059934001416,0.249670907855,0.123209625483,-0.073017820716,-0.246794641018,0.134967118502,0.084185302258,0.045440636575,-0.077349662781,0.027335718274
0.070522688329,0.105515941978,0.113206326962,-0.103709511459,-0.048975810409,0.073567338288,-0.022216342390,-0.037089936435,-0.062201533467,-0.071678049862,-0.043246023357,-0.220815137029,-0.047998920083,-0.008558202535,-0.063617520034,-0.099794909358,0.010960168205,-0.121256574988,-0.084588974714,-0.065955556929,0.209199473262,0.000890670693,-0.005527468398,-0.101355232298,0.335248291492,-0.078349374235,-0.074987553060,0.027413764969,-0.017359588295,-0.011986826546,0.110691398382,-0.075663000345,0.098483294249,0.014980834909,0.089906364679,0.000835200830,-0.133336022496,0.019276166335,-0.078925736248,0.073732770979,-0.119447939098,0.003024921520,0.051314800978,0.097164444625,-0.051764681935,0.084161974490,-0.096582904458,-0.036849971861,-0.108479253948,-0.218667417765,0.046185109764,0.172624543309,0.060234282166,-0.097735188901,-0.067030236125,-0.193029806018,-0.110701702535,0.018830403686,-0.017348188907,-0.120674178004,-0.002465613186,0.023399932310,-0.038074765354,0.162416279316,0.016311310232,0.153250291944,0.011178126559,0.322505414486,0.082410357893,0.025006840006,-0.069669961929,-0.025799525902,-0.057648696005,-0.088371448219,0.131761059165,-0.153739377856,0.011169118807,0.176562875509,-0.193230867386,-0.058218907565,0.066165871918,0.313488155603,-0.037629075348,0.099509365857,0.053242255002,0.056869197637,0.049677494913,-0.054438173771,-0.211216866970,-0.347958117723,0.078550197184,-0.049356341362,0.046324718744,0.237620681524,-0.118577957153,0.050970625132,0.069899886847,-0.224086210132,-0.005617842078,-0.102372601628,0.073452919722,0.032738566399,-0.036346368492,0.012985340320,0.057443600148,0.067562289536,0.047026779503,-0.078448884189,0.021897265688,0.031952258199,0.949486613274,-0.000832568272,-0.189330011606,0.114219710231,-0.039683785290,-0.131664693356,0.115750961006,-0.060917947441,0.065031714737,-0.040624089539,0.226904392242,-0.113516613841,-0.033897258341,0.197699174285,0.248817190528,0.107826277614,0.248747214675,0.044721916318
-0.053763177246,-0.004990730435,-0.121689356863,-0.026419395581,-0.038792036474,0.045385193080,-0.003411394544,-0.089757062495,0.091804303229,0.168472617865,0.059798862785,0.013723935932,-0.226077988744,0.081352487206,-0.012783431448,0.016827639192,0.393804013729,0.005451667588,-0.060882125050,0.139293819666,0.040412891656,-0.235662952065,0.146878048778,-0.184683382511,-0.151664540172,-0.215060979128,-0.170830905437,0.172313049436,0.254830628633,0.061439946294,0.360481351614,-0.231183290482,-0.013097604737,0.100388735533,-0.033446665853,-0.102512016892,0.059716101736,0.010759444907,-0.047989234328,0.313997447491,-0.109123095870,0.177980437875,-0.113992817700,0.154471591115,-0.156288146973,0.091794155538,-0.053651697934,-0.092727519572,0.007293599658,-0.081809148192,-0.158373013139,0.032056335360,-0.263019889593,0.146290287375,-0.000796286447,0.266620218754,-0.107323594391,-0.054402511567,-0.115809820592,0.046158265322,-0.082157753408,-0.003060280811,0.034291703254,-0.081370636821,-0.003600683762,-0.032890927047,-0.016008507460,0.259618699551,0.001686607953,-0.149494275451,-0.039618119597,0.027296269313,-0.011494672857,0.695903360844,0.312486946583,-0.093939788640,0.025639494881,-0.256871759892,-0.247931152582,-0.127607181668,0.105531051755,0.200952515006,-0.045613564551,0.181959047914,0.116101093590,-0.164308622479,-0.038956657052,0.016940493137,-0.048648498952,-0.227158635855,-0.118603982031,-0.101674579084,-0.009326155297,-0.080752387643,0.355036109686,0.010297995992,0.158249735832,-0.353443741798,0.042487554252,0.130779236555,0.097979269922,-0.016384704039,-0.010544903576,-0.017321141437,-0.288840800524,0.139880537987,0.091344662011,0.273525655270,0.262701332569,0.084625065327,0.009478582069,-0.073681928217,-0.152454018593,-0.009906835854,-0.150183975697,-0.079708680511,0.025876311585,-0.144563317299,-0.093323796988,-0.300968319178,-0.056802872568,0.079370982945,-0.045032046735,-0.155742958188,0.118719615042,-0.061280447990,-0.093965448439,-0.113943792880
0.018867651001,-0.061380196363,-0.031267952174,0.035860203207,-0.126083239913,0.204851776361,-0.247644662857,-0.115847058594,-0.034327391535,-0.009005531669,-0.067316085100,-0.040029689670,0.044181291014,-0.014016644098,-0.099041849375,0.045763194561,0.077586926520,-0.009321472608,-0.061194565147,0.011502635665,-0.119366869330,0.060339979827,0.077590882778,0.027899324894,0.038908150047,0.120263166726,-0.170317441225,0.046208575368,-0.080642953515,0.071418836713,-0.059883739799,-0.075088590384,-0.028172215447,-0.094473794103,-0.029718235135,0.097912691534,0.039024181664,-0.120852150023,-0.012324470095,-0.086411841214,0.259518206120,-0.177549406886,0.156920805573,-0.004605954513,0.145823776722,4.024145126343,-0.061384707689,-0.016384001821,-0.025509603322,0.054156053811,0.384329378605,-0.090958423913,-0.064565993845,0.063131719828,0.036451350898,-0.399692028761,0.088180370629,0.010908979923,-0.108814373612,-0.089141778648,0.065012790263,-0.027201963589,-0.020074047148,-0.169988080859,0.060545280576,-0.166924253106,-0.023212406784,0.134656637907,0.026593891904,0.021253969520,-0.037963729352,-0.010752202943,-0.068146318197,-0.066660664976,-0.128172874451,-0.109773188829,0.043663915247,0.045395419002,0.014668619260,-0.175939008594,0.003214789322,-0.231075465679,0.013744636439,-0.007096601184,0.238513141870,0.071849621832,0.057205211371,-0.067029066384,0.064901530743,0.010458427481,-0.064584076405,0.043856054544,-0.034543488175,0.084168195724,0.151186436415,0.075958475471,0.006488263141,0.017459735274,-2.624989748001,-0.226340964437,-0.050144057721,0.044008430094,-0.033883798867,-0.016506675631,0.037998046726,-0.015512629412,-0.045656464994,0.107648015022,0.015692953020,-0.003905151505,-0.008964729495,0.013939306140,-0.146084234118,-0.035256441683,0.034201569855,-0.010204729624,-0.208606883883,-0.034811381251,-0.070668347180,0.002475726418,0.060014147311,0.027083683759,-0.083073928952,-0.164492055774,0.003870866029,0.009269150905,0.130890846252,0.154371336102
0.197146907449,-0.112580396235,-0.096460066736,-0.318855971098,-0.030400004238,0.154816538095,0.010460237972,-0.056154124439,0.022709067911,-0.171082749963,-0.015465029515,0.015931902453,-0.111861623824,0.061384480447,0.002539322479,-0.151278048754,-0.049411989748,0.124160803854,-0.144493222237,0.085621796548,0.016032898799,-0.028618298471,0.048955462873,-0.031068004668,-0.029987700284,-0.095969386399,0.081414058805,0.049641754478,0.054921202362,0.057017941028,0.241401955485,-0.040540795773,0.096140101552,-0.137292444706,0.214756369591,-0.071192532778,-0.196531400084,0.041302636266,0.001127587515,0.195375382900,0.127546206117,0.305631965399,0.222877800465,-0.040099747479,-0.031134545803,0.012866955251,-0.111466892064,-0.017446659505,-0.077611878514,-0.140211388469,-0.194720044732,-0.060727696866,-0.017534058541,-0.059350784868,-0.187730446458,0.101607277989,0.024635940790,-0.006961280480,-0.068828307092,0.113998971879,0.023366175592,0.153563350439,0.002430359600,0.094750344753,-0.042960431427,0.116028472781,-0.061401236802,0.080034896731,-0.067734718323,-0.141483992338,-0.022522579879,0.021075537428,-0.161391511559,0.169592976570,0.387124031782,0.171913102269,0.128230869770,0.017045231536,-0.191943123937,0.013928854838,-0.031609725207,0.129945501685,-0.038485776633,0.099639363587,0.074682414532,0.240319192410,-0.045466192067,-0.023108689114,-0.053644906729,-0.054438538849,-0.013406035490,-0.000233337531,-0.040990538895,-0.092229962349,0.005811068229,0.006370316725,0.171402797103,-0.017167098820,-0.007968546823,-0.052419587970,0.095292411745,0.221624746919,-0.003123349044,0.010578240268,0.421141088009,0.049715332687,0.119193561375,0.205919787288,-0.104638710618,-0.084678746760,-0.017643060535,0.008019044995,0.054907027632,-0.060287475586,0.336733132601,0.173936069012,-0.083456113935,-0.053824309260,-0.598502337933,-0.193940147758,0.090700037777,-0.104736506939,0.140327587724,-0.112132824957,0.064754866064,0.018117554486,0.036099512130,0.080318287015
