0.077183112502,0.013995341957,0.065492801368,-0.020967472345,-0.000187186452,-0.059183452278,-0.398714542389,-0.056568149477,0.123135551810,0.013151423074,-0.015793375671,0.011967483908,0.009257227182,-0.238057956100,0.022895725444,0.022804377601,0.087579183280,-0.007860824466,0.002852360252,-0.167609035969,0.004009371623,-0.051707442850,0.254617452621,0.032347653061,0.147242411971,0.044772855937,-0.391769558191,0.022431299090,0.012436111458,0.427814155817,0.142997726798,0.119764804840,-0.048874322325,-0.269772559404,0.030226936564,-0.216008499265,0.103872656822,-0.052655410022,-0.042256958783,-0.002546541858,-0.054109007120,0.047059591860,-0.031668979675,-0.377722263336,-0.095207653940,0.093313701451,-0.042244859040,0.003879199270,-0.362941920757,0.286121368408,0.586286842823,-0.012644110247,-0.093845047057,0.419726192951,-0.049427878112,-0.147705987096,0.009657560848,-0.062337264419,0.025452082977,0.426610380411,-0.029985914007,-0.000438988936,-0.004986758810,-0.623761475086,-0.041823562235,-0.015497442335,0.098430633545,0.430441886187,-0.033393308520,0.192350283265,-0.372755408287,0.075699374080,0.013474256732,-0.015616249293,0.010968288407,-0.001101362752,0.041130673140,-0.006247737445,0.062617585063,0.016878493130,0.008223243989,-0.079405635595,-0.090779192746,-0.005127619486,-0.010208363645,0.061743415892,-0.002157160314,-0.124608963728,-0.092884451151,-0.042409434915,-0.069622352719,0.020894229412,0.003331306856,-0.045982737094,0.141539454460,-0.075926825404,-0.622341394424,-0.092105597258,-0.053427148610,-0.170520037413,-0.260416030884,0.022964201868,0.168832823634,0.009736115113,-0.195435211062,0.000696889416,-0.035309989005,0.077514842153,-0.003072931664,-0.206718102098,0.067047119141,-0.029832296073,0.034119319171,0.086373686790,-0.005930416286,-0.094610020518,0.012856985442,-0.058528959751,0.042507298291,0.162843480706,0.025929858908,-0.307213276625,0.001842583297,-0.321009457111,0.616119444370,0.004905353300,0.014008127153,0.002566058887
-0.257698565722,0.162854030728,-0.115665465593,-0.004668109585,-0.015868632123,-0.101344250143,0.169555544853,0.201121851802,-0.010129390284,-0.011629170738,0.025715548545,0.038459185511,-0.083889923990,-0.029424287379,-0.666449546814,0.003215197707,-0.322198778391,-0.069504223764,-0.004433380906,0.153678640723,0.059456001967,-0.269687324762,0.417629748583,-0.008291487582,-0.272533476353,0.296377122402,0.006109523587,-0.050606630743,-0.012267178856,0.140342295170,-0.046923637390,-0.075170360506,0.124210014939,-0.016562914476,0.055732611567,-0.233165860176,-0.052994471043,0.376167684793,0.175088822842,-0.090637378395,0.120705991983,-0.099342614412,0.257874757051,0.077149204910,0.147888228297,0.241386488080,0.697609424591,-0.005329857580,-0.056716337800,0.221392095089,0.106980696321,0.032041393220,0.185022383928,-0.161397695541,-0.106293827295,-0.061846971512,-0.098060660064,0.090919949114,-0.263603836298,-0.217389896512,-0.010532142594,0.089096166193,-0.023549655452,-0.123229242861,-0.083245478570,-0.313186645508,-0.186756595969,-0.258908092976,-0.180315107107,0.279766291380,-0.222124561667,-0.259898662567,-0.170586839318,0.005352638662,0.400080591440,-0.240727365017,-0.076444901526,-0.018936837092,-0.026716152206,0.176111996174,-0.112502634525,-0.050783924758,0.196520894766,0.060546711087,0.173224687576,-0.081683978438,-0.082121774554,-0.235987111926,-0.274999201298,0.013329366222,0.110928349197,0.120846137404,-0.001172157587,0.228355616331,0.232197389007,-0.229020297527,-0.024190073833,0.074031814933,-0.147242113948,-0.369149804115,0.115689292550,0.234758988023,0.389429330826,-0.066850677133,0.074083171785,-0.226329118013,-0.008435170166,-0.011114826426,0.033912882209,-0.203957945108,-0.197880879045,0.019656587392,-0.007063007448,-0.074737302959,-0.162676438689,-0.180042043328,0.075605139136,-0.103013731539,0.012288949452,-0.171250209212,-0.064998812973,-0.128159955144,0.006323731970,0.178144797683,-0.167872160673,-0.154051497579,0.078370295465,0.101783126593
0.608367085457,0.268828094006,-0.560516595840,0.016727114096,-0.220549166203,0.080516166985,0.079154342413,0.282101809978,0.052186638117,-0.023787874728,0.046179644763,0.058429200202,-0.050400204957,-0.181311801076,0.128538593650,0.000195126137,0.130593091249,0.070579312742,-0.230474799871,-0.051671415567,0.118627287447,-0.145402401686,-0.375877737999,-0.015028641559,-0.020923893899,0.003938852344,0.137297123671,-0.043048284948,0.002428666921,-0.136094361544,0.016350511461,0.142829686403,-0.669026613235,-0.006457664073,-0.329491257668,-0.076146505773,-0.170836329460,0.517613649368,0.209924623370,-0.074212647974,-0.020086998120,-0.033577937633,0.526284635067,-0.169220075011,-0.107574768364,0.009280134924,-0.456847906113,-0.017930002883,0.338479369879,-0.119096793234,0.090295635164,0.148413762450,-0.171303018928,0.049216166139,-0.416539132595,0.235265687108,0.105875238776,0.210663765669,-0.153441265225,-0.135959982872,0.070528015494,0.197485297918,0.301415026188,-0.296348959208,0.020151074976,0.352566778660,-0.256267130375,-0.020307427272,0.233350187540,-0.318407416344,0.260829329491,-0.145595103502,-0.148703306913,0.055637814105,0.315736234188,-0.249390423298,-0.061641789973,0.013410223648,-0.119690403342,0.286769956350,4.205900192261,-0.022855250165,-0.030950238928,0.216035276651,0.160378530622,0.019001249224,-0.441066235304,-0.195839598775,0.764074444771,-0.106775633991,-0.322954416275,0.558344364166,0.025850137696,0.027905261144,-0.096975475550,0.036155305803,0.097456470132,-0.256678432226,0.570503830910,-0.073101982474,-0.504878461361,-0.675928950310,0.105692639947,-0.223476469517,0.064234063029,-0.219284459949,-0.043821398169,-0.163240879774,-0.108365178108,0.189975708723,0.447032660246,-0.150738686323,0.026583472267,-0.124918878078,-0.197713211179,-0.402953445911,-0.524636566639,-0.372219234705,-0.030482308939,0.113516278565,-0.225731015205,-0.180515602231,-0.048908159137,-0.033878318965,-0.050378914922,-0.081845730543,0.189433872700,-0.356677681208
-0.072524301708,-0.069355607033,0.005903647281,0.038666587323,0.022252675146,-0.151365041733,-0.121759869158,-0.094530358911,-0.061170030385,0.011268047616,-0.015717511997,0.009284560569,0.001093604951,-0.438747972250,-0.009644012898,0.011657043360,-0.015001604334,0.202950835228,0.000463479664,-0.104295015335,0.033913195133,-0.210055395961,0.134377315640,0.036810390651,-0.141450971365,-0.107345186174,0.276049315929,-0.056586742401,-0.001275440678,0.345397323370,-0.046659626067,-0.362328916788,-0.048816725612,0.185786396265,0.072411924601,-0.071892999113,-0.039410263300,0.046206805855,0.048563219607,0.068500697613,-0.219121709466,-0.084175363183,-0.041614703834,0.169905617833,0.027525376529,-0.137429177761,-0.035247426480,0.003046975937,-0.582852363586,0.200316905975,0.186207488179,-0.002013884485,0.085795685649,-0.452284336090,-0.100043036044,0.018162470311,0.016888534650,-0.137372449040,0.074583649635,0.540575742722,-0.011936147697,-0.055980730802,0.038771037012,0.460297733545,0.007485585753,0.270222216845,0.307595908642,0.233953446150,-1.560769438744,0.089218884706,-0.621489882469,-0.018544871360,0.040090452880,-0.010209214874,0.001666490105,-0.030230244622,-0.006654720288,-0.016845690086,0.039151132107,0.095356903970,0.071232229471,0.026486987248,-0.039108414203,0.000882830122,-0.011645444669,0.113065794110,0.044119827449,0.398532301188,-0.115506596863,0.123384855688,-0.044195801020,-0.028273738921,-0.001532913418,-0.086155049503,0.205516353250,0.003755332204,0.852702856064,0.068160504103,0.012859762646,-0.329643189907,-0.037346802652,0.005207329523,-0.147537007928,-0.023556750268,-0.163368910551,-0.060427021235,0.008803177625,-0.177437871695,-0.051941379905,0.016964199021,0.034534960985,-0.019212706015,0.019599892199,0.082585640252,0.003054756671,-0.035190928727,0.257891118526,-0.157081931829,0.005871106405,-0.155743718147,0.036811526865,-7.960929393768,-0.023709794506,-0.179039746523,-0.381147116423,0.070356197655,0.027729984373,-0.032500840724
-0.312506586313,0.280960530043,0.015196185559,-0.108598276973,0.054875049740,0.142761632800,0.012196186930,-0.179329127073,-0.006115305237,-0.013100302778,0.328552931547,0.097914017737,-0.112531051040,0.015911161900,-0.172835320234,-0.035363759845,0.093565024436,0.016541341320,0.043181903660,-0.122821234167,-0.369537711143,0.077090390027,0.053968209773,-0.000180607167,-0.190211728215,0.041897166520,0.210115268826,-0.203887805343,0.023259760812,0.123079359531,0.062443785369,0.177372500300,0.297204673290,-0.041376303881,-0.172931909561,-0.106152705848,-0.507933437824,-0.218231156468,-0.153336703777,0.349773108959,0.177876785398,1.014213800430,-0.351404815912,0.058418735862,0.495052486658,0.004093857016,-0.063434533775,0.119752764702,-0.178988084197,0.057376448065,0.101442590356,0.010765858926,0.097715564072,0.089362815022,-0.202613636851,-0.052279558033,-0.070132948458,0.083233200014,0.021152306348,-0.109290376306,-0.457067966461,-0.065001770854,0.046868160367,-0.065864793956,0.078627690673,0.075257509947,0.205239176750,0.009447385557,0.034688815475,-0.149214997888,-0.027093285695,-0.062556654215,0.041699469090,-0.005081303418,0.111216276884,0.092659883201,-0.135181427002,0.036752652377,0.035506311804,0.045312561095,-0.806499361992,0.069395199418,0.046013675630,0.053757295012,-0.021905519068,-0.297607481480,-0.158963888884,0.020993839949,-0.115445651114,-0.370968610048,-0.024783492088,-0.219065085053,0.086550317705,-0.096784181893,0.176552131772,-0.087271250784,0.015400866047,0.059274177998,-0.116913914680,-0.313126534224,-0.118909947574,0.028021330014,-0.397390305996,0.064803011715,-0.060005851090,-0.033902574331,0.561568856239,-0.000157897186,0.489890664816,0.002606700175,-0.155974596739,-0.033495999873,-0.865983486176,-0.076372012496,0.017882477492,-0.089215390384,0.206119582057,-0.042788553983,0.000277579646,0.015526366420,-0.361196905375,0.033084847033,-0.276248544455,-0.142223358154,-0.147786527872,-0.129653871059,-0.032749786973,0.017091294751
0.275795429945,-0.099732428789,-0.051319472492,-0.082339704037,0.005599111784,-0.147590368986,0.122754275799,-0.196346417069,-0.519297838211,-0.021437896416,-0.046341761947,0.088636644185,-0.109789453447,-0.126435622573,0.239546179771,0.017027026042,-0.462709516287,-0.071824133396,-0.008009760641,0.206135362387,0.036532733589,0.268152028322,-0.143675744534,0.027847619727,0.006251703948,-0.029371084645,0.464795857668,-0.044671457261,-0.014816979878,0.020533997566,0.021692583337,-0.187871322036,0.028345065191,0.132068678737,-0.105728328228,0.091416150331,0.085909783840,-0.066663451493,0.077789127827,-0.207904130220,0.031792640686,-0.294192165136,0.316192090511,-0.045217912644,0.049190476537,0.370627313852,-0.187541767955,0.216531872749,0.135058790445,0.188726216555,0.055040430278,0.038411725312,0.375761747360,-0.197812199593,0.041827138513,0.033555708826,-0.058641839772,-0.065124861896,0.095947019756,0.052786983550,0.210784479976,0.085399366915,-0.021324815229,-0.390978634357,0.042067978531,-0.087555445731,-0.066923923790,0.123716600239,-0.131091549993,-0.088496319950,-0.106341920793,0.351224094629,-0.163091674447,0.028415152803,0.285810738802,-0.030079850927,-0.054784197360,-0.074330829084,-0.032455213368,0.124969914556,-0.717308580875,-0.041250582784,-0.429889142513,0.140803039074,-0.020345862955,-0.004335736856,-0.102791190147,-0.163677394390,0.213713154197,0.027928162366,0.245106905699,0.142660468817,0.039501290768,0.056344658136,0.444311648607,-0.201538547873,0.118067987263,0.031987607479,-0.109490655363,0.128205046058,0.044633239508,0.017397226766,0.172529876232,-0.017163017765,0.078780069947,0.061926104128,-0.434939444065,-0.143445342779,-0.366446465254,0.016757527366,0.056225635111,0.171489924192,-0.048667147756,0.172653511167,-0.103320941329,-0.034405246377,-0.044575385749,-0.161008968949,0.126105234027,-0.083970420063,0.353512138128,-0.083197414875,0.116703286767,-0.188651502132,-0.126219317317,-0.216917037964,0.034711271524,-0.153710752726
0.130895480514,-0.140634998679,-0.425283730030,0.137051135302,0.004197330680,0.165527015924,0.097033835948,-0.065973587334,0.082881778479,0.048696056008,0.005576156080,0.108794212341,-0.104297280312,0.022820210084,-0.089751236141,-0.004206423648,0.010942596011,-0.037194017321,-0.012188031338,0.110201761127,0.241539314389,-0.238881677389,-0.247776672244,-0.008930509910,0.002281882800,-0.048439789563,-0.119074061513,0.062910571694,0.022388767451,-0.048862617463,-0.051345597953,0.188560962677,0.758981406689,0.135935634375,-0.053930975497,0.131475836039,-0.080724716187,-0.056753277779,0.222970440984,-0.103351123631,0.030884513631,0.021207882091,0.005181327928,-0.192252069712,-0.106633648276,-0.094188399613,-0.108734063804,0.020543731749,0.045465536416,-0.019604954869,0.001511091948,-0.050298307091,0.034216333181,0.060982119292,0.055330712348,-0.128001406789,-0.041968669742,0.067847564816,0.191723734140,0.052320893854,0.105663642287,0.069868981838,-0.015823939815,0.141575708985,-0.153817012906,0.140829429030,0.042091552168,-0.020180484280,0.182957783341,0.006368088070,0.009757671505,-0.111406922340,0.071306690574,-0.003596601542,0.148365512490,-0.021141508594,0.031908541918,0.050137963146,-0.033069919795,0.309390217066,0.145886600018,-0.074002005160,0.056429322809,0.010528956540,0.028486860916,-0.051307659596,-0.296960294247,-0.019705219194,0.054844506085,0.181461617351,-0.288712114096,0.222951203585,-0.156163543463,-0.099696539342,0.094513431191,-0.152261614799,0.006456752308,0.219856396317,1.819535493851,0.023087000474,-0.187998235226,1.170961022377,0.306524127722,-0.272182881832,-0.052762780339,0.743602275848,0.070410944521,-0.087388992310,0.073502026498,0.286627203226,0.082285799086,-0.106334500015,0.001367680379,0.069041326642,-0.172871410847,0.070446036756,0.118306741118,-0.000862893939,0.069437436759,0.137689635158,-0.004803201649,-0.029564775527,0.003129647812,-0.022596558556,0.098658137023,0.024489870295,-0.056919291615,0.091718859971
-0.174486950040,-0.262543886900,0.080308288336,0.106660716236,-0.049967501312,0.114738211036,-0.182845026255,-0.107750102878,-0.041895143688,-0.021106185392,0.067326150835,0.041109364480,0.211745440960,-0.210471063852,0.143565088511,-0.018587918952,-0.027755951509,-0.138208061457,-0.052957728505,0.066542059183,-0.146932035685,0.165959089994,0.143695011735,0.021065425128,-0.103669710457,0.033929061145,0.117831237614,0.182339265943,0.070539593697,0.061492603272,-0.014363694005,0.116148546338,0.033224392682,-0.157107293606,-0.123987570405,0.081242412329,-0.067798495293,-0.128846108913,-0.062963731587,0.148185521364,0.362522482872,-0.045979328454,-0.215360939503,0.036683909595,0.259607374668,0.186521381140,-0.195081144571,0.040667068213,-0.170557692647,-0.369596481323,0.131817221642,-0.019291708246,-0.030391346663,0.050120484084,-0.105349555612,0.173009037971,0.148246943951,0.018819391727,0.015367100947,0.011610165238,-0.037576463073,-0.010958168656,0.066746607423,-0.271250844002,0.059485137463,0.239446207881,-0.062578022480,-0.029333371669,0.124580517411,-0.364108979702,-0.170098051429,0.049890086055,0.098831057549,0.037827227265,-0.161814704537,0.053627841175,0.079896666110,0.129809051752,-0.007465147413,-0.019035629928,-0.042866833508,0.162351608276,0.107361942530,-0.149106502533,0.150093540549,0.309026867151,0.264071851969,-0.165050566196,0.214753180742,0.057745672762,0.147239491343,0.160501748323,-0.093385308981,-0.236333891749,-0.376787662506,0.093333788216,-0.243150100112,-0.229375258088,0.164895430207,0.091466307640,0.302808642387,0.019602794200,-0.939089775085,0.015513927676,-0.022225782275,-0.141708016396,0.018881324679,-0.214064985514,0.055452674627,0.135410323739,-0.139028534293,0.096383906901,0.018458249047,0.014433907345,0.338496625423,-0.102808877826,0.092863708735,0.136597469449,-0.070832997561,0.027466677129,0.027618423104,0.126738846302,0.047535333782,0.071568652987,-0.001859724405,-0.460959851742,-0.067116536200,0.070067390800
0.022680122405,-0.749294638634,0.204542219639,-0.019298387691,0.329275399446,0.216010287404,0.082209646702,-0.222362309694,-0.046149037778,-0.048183739185,-0.006961368490,0.149228960276,0.034570973366,0.071828357875,0.101508356631,0.016688460484,0.212096408010,-0.035112172365,0.333000391722,0.115438938141,-0.023855049163,-0.328096091747,0.889430403709,-0.010189968161,0.057718794793,-0.052307005972,-0.084941200912,-0.112861759961,-0.041925702244,0.304519623518,-0.154816240072,0.045889269561,-0.319195002317,0.031908567995,-0.187236309052,0.102753490210,-0.272820502520,-0.127515032887,0.126177966595,0.143460154533,0.508566737175,0.144291579723,-0.178961291909,0.151438996196,-0.195426106453,0.148814424872,-0.685588955879,0.014980975538,-1.160322546959,0.049347724766,0.010872061364,0.045644145459,-0.078164689243,-0.100025601685,-0.054807778448,0.004919268191,-0.099596545100,-0.068382680416,-0.074934214354,0.362144887447,-0.012221601792,-0.031993277371,-0.211264371872,0.108492307365,0.276927024126,0.365727812052,-0.265647679567,0.016321087256,-12.936330795288,-0.309129565954,-0.953397452831,0.156868711114,0.100673861802,0.067693106830,0.026308804750,-0.144352048635,0.063217580318,0.105212233961,0.027221536264,-0.091318532825,0.023787675425,0.040779493749,-0.123522683978,0.124258786440,0.093353882432,-0.249159142375,0.089191436768,-0.184212252498,0.440063774586,0.016257043928,0.218505293131,-0.461252480745,0.054263159633,0.011749455705,-0.053610946983,0.494989544153,-0.219601720572,0.489078015089,-0.040090091527,0.101949505508,0.205543160439,0.078967161477,-0.284651070833,0.012957961299,-0.128128975630,-0.309631288052,0.004041435197,0.399349510670,-0.004923961125,-0.128030031919,0.917940676212,0.028371857479,-0.090754501522,-0.014065812342,-0.035879921168,-0.414541482925,0.073476493359,-0.875839471817,-0.156646341085,-0.500816524029,-0.026014069095,0.514671146870,-0.072593457997,0.047827873379,0.110086172819,0.143177166581,-0.023250956088,0.365839898586
0.568873167038,0.000508875004,0.092004708946,-0.976173520088,-0.005052521825,-0.065519094467,-0.254307717085,-0.196252271533,-0.177132353187,-0.011855741963,0.096313841641,0.001872674678,-0.188598588109,-0.015566331334,0.036757454276,0.098673105240,0.126042336226,0.171162247658,-0.004585200921,-0.423659116030,0.481117695570,0.290422618389,0.056985963136,0.000739310228,0.017216073349,0.006654385477,-0.224008619785,0.727668046951,0.005017196294,-0.393465995789,0.335063636303,-0.066190809011,0.171258732677,0.059063576162,-0.136944085360,-0.090625099838,-0.273315101862,-0.048134330660,0.120437867939,-0.229455769062,-0.070803627372,-0.088115707040,-0.074653573334,-0.243741124868,-0.102044485509,-0.406400024891,-0.092233814299,-0.074786081910,-0.209839671850,-0.190298005939,-0.010942479596,0.051463715732,-0.000375245931,-0.107807941735,-0.339624524117,-0.215334996581,-0.210561394691,-0.016401411965,-0.100774213672,0.079721465707,-0.030689166859,-0.016515472904,-0.090265132487,0.156965851784,0.206424772739,0.030148617923,-0.085455298424,-0.015968132764,0.166928932071,-0.085217393935,-0.041213139892,-0.137639880180,-0.153338685632,0.041738580912,-0.169312864542,0.076292462647,-0.189710751176,-0.150120988488,0.376826018095,0.008648812771,-0.754881799221,-0.050051368773,0.023113697767,0.120435357094,-0.042726960033,-0.272863537073,-0.218216210604,0.076448559761,0.138801753521,0.567689418793,-0.247652515769,-0.044518087059,0.032086309046,0.185620680451,0.194717213511,-1.036027550697,0.000148701045,0.382972121239,0.089746169746,0.075233869255,0.129953756928,-0.055564232171,0.187259316444,-0.049350500107,0.150159031153,-0.025150369853,-0.178031474352,-0.022945592180,-0.353790402412,-0.020179163665,-0.153111085296,0.000743460434,-0.013966172934,0.186166867614,-0.162574946880,-0.064343705773,0.043542481959,-0.143483728170,-0.026314156130,-0.065515004098,0.379007607698,0.079048529267,-0.193057373166,0.191037595272,-0.061992652714,0.045809987932,0.030366787687,-0.062186755240
0.102884851396,0.242529645562,-0.527817130089,0.231357306242,0.103489585221,0.268490523100,0.034193273634,0.087051875889,0.336605310440,-0.007427453529,0.085384748876,0.091811276972,-0.406776160002,-0.053928978741,-0.268269896507,0.490803539753,-0.053024169058,0.051382560283,0.103581510484,0.324047952890,0.234473124146,-0.391973614693,0.269356846809,-0.041520059109,0.121014922857,-0.030334452167,-0.099482372403,-0.012032475322,-0.001185701229,0.049449738115,-0.115896098316,0.000356244796,-0.149863943458,-0.000199326474,-0.002388774417,-0.053397074342,0.286986142397,-0.003584754886,0.855824530125,-0.160538405180,0.111066624522,0.105458959937,0.128468483686,-0.032148227096,0.075336471200,-0.025416703895,-0.050743259490,-0.037735641003,-0.058648653328,-0.273336142302,-0.046128205955,0.221355095506,-0.084217615426,0.043364740908,0.101557686925,-0.153201073408,-0.175458297133,0.046717744321,0.101301193237,0.252272754908,0.368602097034,1.006495356560,0.001422872650,0.088597394526,0.373570680618,0.194678783417,-0.069762952626,0.042117998004,0.037779193372,0.267563194036,0.130676016212,0.003974298947,-0.262027859688,-0.030501866713,0.177488595247,-0.883173465729,-0.127470955253,0.138702169061,0.028131840751,0.282071679831,-0.710525631905,0.007240902632,0.014666708186,0.642561316490,0.032763499767,-0.038520950824,-0.088867843151,-0.143052831292,0.282047212124,0.266070246696,-0.041280373931,0.464753597975,0.311073392630,0.229713156819,0.030783904716,0.068770147860,-0.015123396181,-0.512351334095,-0.097064286470,0.063318386674,-0.010524384677,-0.130477964878,0.880646467209,-0.739629805088,-0.031638164073,-0.545971632004,0.079720735550,-0.013182461262,0.067309305072,-0.020562227815,0.128337711096,0.056103382260,-0.129394456744,-0.143992260098,-0.671402812004,0.169905051589,0.008908685297,0.206302955747,-0.001523946994,0.132327362895,0.068178966641,-0.149136394262,-0.040984872729,0.022834485397,0.032902002335,0.288244485855,0.198466166854,-0.072327747941
-0.254579842091,-0.247476980090,0.093562014401,-0.004895659629,-0.077676311135,0.065055288374,0.016884436831,-0.077870927751,-0.134011313319,-0.034308504313,-0.076139517128,-0.068912334740,-0.029240414500,-0.296860873699,0.077913761139,0.125447809696,0.325180619955,-0.018417442217,-0.078925028443,-0.039207655936,0.082682602108,0.035532228649,1.001981139183,-0.015237315558,-0.272167026997,-0.037174098194,-0.291300892830,0.032932024449,0.010021915659,-0.057161856443,-0.015119557269,0.030937176198,-0.104111991823,0.039481185377,-0.375463247299,-0.475714325905,-0.066827245057,-0.202135667205,0.171885490417,-0.023823915049,0.343142777681,0.044656902552,-0.220716968179,0.154987320304,-0.054826948792,-0.189385890961,0.016423106194,0.013456899673,-0.722555577755,0.360027611256,0.072898752987,0.035539869219,-0.061690099537,-0.041903328151,-0.211427956820,-0.192072510719,-0.055557616055,0.094388008118,-0.115592554212,0.077889934182,-0.047664195299,0.042663708329,0.304869145155,-0.160225152969,0.103182405233,-0.040462538600,0.275783061981,0.061325129122,-0.130625501275,0.528195679188,-0.542767524719,-0.034056764096,0.025494182482,-0.057249534875,0.068110905588,-0.092616043985,-0.015110318549,-0.135772228241,0.016703102738,0.310737073421,0.055462945253,0.403768926859,-0.304461270571,0.130375608802,0.201740667224,-0.276121437550,-0.011585419066,-0.464648723602,-0.059228461236,0.052133426070,0.467893332243,-0.162214696407,0.045898862183,-0.199522912502,-0.043538775295,-0.233534231782,-0.133899196982,0.141025051475,-0.049212712795,0.034396231174,0.259001702070,-0.079238139093,0.417206048965,-0.071872815490,-0.232135877013,-0.033271845430,-0.059638764709,0.124655954540,-0.145602032542,-0.390365004539,-0.151712730527,-0.011632068083,0.015234041028,-0.142156377435,-0.094619445503,-0.262066751719,-0.156196415424,-0.339925795794,-0.236200094223,-0.301671415567,0.107766672969,-0.031646315008,-0.143581092358,-0.067021414638,-0.080964975059,-0.077752038836,0.046103239059,-0.010305959731
0.200234591961,-0.269874066114,0.270738095045,0.233401641250,0.018258165568,-0.052632421255,0.149677708745,-0.104795664549,0.605824232101,0.028983203694,-0.017653131858,0.015398834832,-0.158878490329,-0.142666652799,0.207485586405,0.105543129146,0.278938561678,0.849195480347,0.002457989380,-0.176144316792,0.018107766286,-0.325438261032,-0.167252421379,-0.045705344528,0.152060493827,-0.853322386742,-1.378762841225,-0.146515309811,-0.025714380667,-0.588819086552,0.023725129664,-0.058447059244,-0.988416492939,0.287534117699,-0.060567378998,0.605192184448,-0.062349356711,-0.184172824025,0.154761016369,-0.049773644656,-0.472145408392,-0.064764373004,0.050504811108,0.017220171168,-0.427133113146,-0.092204488814,-0.087681718171,0.187148705125,-0.116316616535,0.458558648825,0.528847813606,0.058921340853,0.278092592955,-0.722604334354,0.093187831342,0.231397166848,0.037148188800,-0.142883628607,-0.106539025903,0.554137825966,-0.113018855453,0.080502420664,-0.094629950821,2.344553232193,-0.018916670233,0.002240779810,-0.038513634354,0.363560706377,-0.085009947419,-0.582435965538,-0.421530634165,-0.003593918635,-0.114579558372,0.054297450930,-0.349370151758,-0.245327785611,0.012670625001,-0.039945784956,-0.290917873383,-0.052184496075,-0.076008550823,0.028482485563,-0.768931686878,0.212825313210,-0.225834980607,-0.156268060207,-0.133768260479,-0.266534537077,0.212442815304,-0.014572728425,-0.242419838905,-0.085334554315,0.078965857625,0.058693405241,0.461319625378,-0.152104750276,0.433109343052,-0.071342393756,0.039435122162,-0.173316165805,-0.609672665596,-0.070556446910,0.220578476787,-0.016329001635,0.092869006097,0.089916974306,0.022054137662,-0.238277360797,0.035715755075,-0.107923604548,-0.024860821664,-0.061492979527,-0.016699336469,0.356775313616,-0.238087475300,0.008206999861,-0.001974907704,0.220633313060,0.034106194973,0.076857589185,-0.208482906222,1.054290056229,-0.012839974836,-0.282386720181,-0.397458136082,-0.036455489695,0.057606879622,-0.080361992121
-0.140945494175,0.009443997405,-0.013657034375,0.010272578336,0.023423334584,-0.062134530395,0.090759932995,-0.164936602116,-0.074014753103,0.015883335844,0.013569046743,-0.014029315673,-0.040634080768,0.011655103415,-0.057009872049,-0.028136759996,0.370712548494,0.068763352931,0.031501807272,0.230014711618,0.111310720444,-0.123905330896,-0.069505952299,-0.017807373777,-0.035430412740,0.032756555825,-0.021416630596,-0.107857212424,-0.023244522512,1.041835665703,0.103029407561,-0.036024007946,-0.051865480840,0.083066776395,0.025973919779,-0.319087743759,0.055507630110,-0.117447085679,-0.018982898444,-0.010895084590,-0.433105975389,-0.065187305212,0.093369625509,0.129425287247,0.006786987185,-0.286632269621,-0.046010717750,0.059267099947,0.158107608557,0.182510748506,-0.132209926844,-0.051468845457,-0.206679165363,0.322463244200,0.314996570349,0.000444015517,0.096617937088,-0.062441926450,-0.069064348936,0.054657768458,-0.040252808481,-0.105797275901,-0.024054585025,-0.177659600973,0.051813676953,0.172304823995,-0.171190559864,0.290754199028,0.071875736117,0.181053236127,-0.264670103788,-0.040389060974,-0.039750233293,-0.009299517609,0.157736510038,0.077082827687,0.027745204046,0.175901979208,0.037467569113,-0.101305589080,0.151569366455,-0.108483590186,-0.221941426396,0.003152571619,-0.096469439566,0.072799816728,0.011688344181,0.035552725196,0.036429658532,-0.084785513580,-0.217560127378,-0.072724387050,0.033523056656,0.171878084540,-0.117161005735,-0.179573699832,-0.002915693214,-0.104726091027,-0.009788799100,-0.071857504547,0.065459027886,0.062648363411,0.355975031853,0.054228756577,-0.332733988762,0.005923281424,0.010510761291,-0.041042257100,-0.065383963287,0.041280828416,-0.195516735315,-0.068773165345,-0.070789419115,0.166176572442,0.042576324195,0.006433007773,-0.139909118414,0.030815783888,0.020847517997,0.086664602160,0.086279533803,-0.079060286283,-0.027289792895,0.016054242849,-0.008585871197,-0.137897089124,-0.052137110382,0.001718433923
0.290590941906,0.217055469751,0.517284810543,-0.023094866425,-0.105637617409,0.122020103037,0.060164697468,-0.153462663293,0.080344177783,0.028251135722,-0.143946409225,-0.046656116843,0.197048455477,0.101555429399,-0.001444099587,0.342428892851,0.058940362185,-0.024640277028,-0.102252848446,0.046365961432,0.037255477160,-0.697403073311,-0.043819256127,0.020212311298,0.075733333826,-0.150830045342,0.112279668450,0.047872055322,0.036423847079,-0.197264343500,-0.114684171975,0.219112142920,0.397106081247,-0.035192407668,-0.005904927850,0.109741687775,-0.083301946521,-0.194747224450,-0.232483401895,-0.169539675117,0.236558139324,0.079437464476,0.384727120399,-0.143960908055,-0.130315691233,0.049560673535,-0.347118824720,0.002594220452,0.296426892281,-0.229237079620,0.055224034935,0.018547955900,-0.054834980518,0.213501602411,-0.154202163219,-0.142707318068,-0.054431721568,0.097429372370,0.063167728484,0.146255791187,-0.044466745108,0.140903756022,0.089693486691,0.026485044509,0.163567170501,-0.433223307133,0.118427351117,-0.041159834713,-0.694039642811,0.232092618942,-0.047303594649,-0.096044808626,-0.037314679474,-0.057517636567,0.404560565948,0.422942310572,0.024117866531,0.040804903954,0.075149305165,0.703684329987,0.398153573275,-0.049325209111,-0.003715488128,-0.331760883331,0.115233264863,0.291947960854,0.205386176705,-0.115895636380,-0.100997529924,0.000206586643,0.141013458371,-0.074732989073,-0.394656687975,-0.029527187347,0.043756961823,-0.149748176336,0.173952460289,0.986858904362,0.493794620037,-0.174157932401,-0.026483556256,0.053283140063,-0.263188004494,-0.052713811398,0.024478314444,-0.134113937616,0.076707497239,-0.196470767260,-0.047635484487,-0.015522566624,0.001729912241,0.265313178301,-0.233406901360,0.137745037675,0.629175364971,0.206311002374,0.171461820602,0.854890167713,-0.272403985262,0.145141139627,0.188764676452,-0.084015965462,0.137053743005,-0.038959287107,0.173346653581,-0.415548056364,-0.061979707330,-0.023998508230
-0.177959576249,0.087087251246,-0.038304038346,0.066305257380,-0.025573164225,0.152630299330,0.334940016270,-0.006567703094,-0.029580852017,0.040142573416,0.064807526767,0.008123381995,-0.040759030730,-0.367699205875,-0.221221208572,-0.032163351774,-0.077128164470,0.314138680696,-0.033151842654,0.100953288376,-0.154852926731,-0.225288450718,-0.211950033903,-0.009673261084,0.494850248098,-0.038998842239,-0.533377647400,-0.122930161655,-0.019578186795,-0.520443499088,0.064413115382,0.433781087399,-0.084315501153,-0.366820961237,-0.074722684920,0.035180158913,0.056374918669,0.029021594673,-0.033835832030,0.034349519759,0.063711680472,-0.026615118608,0.135424524546,-0.481525808573,-0.105981156230,0.020941177383,-0.076852664351,-0.026942435652,-0.046151146293,0.288398087025,0.525996446609,0.015952641144,-0.172947257757,-0.407234936953,0.117323659360,-0.039038248360,-0.016329387203,0.078156329691,-0.082821346819,-0.178684040904,0.041113883257,0.026591163129,-0.109583340585,0.076845198870,0.046973332763,-0.118655048311,-0.190585762262,0.122422933578,0.242640301585,-0.157973989844,0.067777216434,-0.019486784935,-0.239971280098,0.044706538320,0.124220661819,0.043487004936,-0.039768643677,0.053103979677,-0.056955825537,-0.210630670190,0.198989808559,-0.311850696802,-0.426622211933,0.033204462379,-0.011375426315,-0.032018583268,-0.028580691665,0.259180486202,0.050487745553,0.017626879737,-0.180267572403,-0.037945732474,0.047614324838,0.034767430276,-0.572344362736,-0.366383701563,-0.184088915586,0.037136998028,0.050107963383,0.338615089655,0.172215580940,0.075394436717,0.287888407707,-0.011541171931,0.078582830727,-0.025545349345,-0.023707453161,0.159476533532,0.072340011597,0.032615978271,-0.440222412348,0.093487963080,-0.048600532115,0.007982347161,-0.039632041007,0.369183659554,0.124977700412,-0.085329808295,0.030650574714,-0.199193969369,-0.055194213986,-0.312256574631,0.002172011649,0.037865228951,0.244067043066,-0.062015853822,0.025080995634,-0.008166643791
0.135364100337,-0.343523383141,-0.943284988403,0.109088338912,-0.011345830746,-0.190398871899,-0.018769139424,0.109871335328,-0.000490672537,-0.004906466696,-0.494209587574,0.090424373746,-0.077991694212,0.002288158285,0.016915451735,-0.025291657075,-0.030189678073,0.003233525669,-0.006727668457,0.126211598516,0.033445503563,-0.259028583765,-0.209742784500,0.028081363067,-0.010368324816,-0.022839929909,0.048509687185,0.614932954311,0.005207851529,0.064958594739,-0.047406986356,-0.076564803720,0.000209095859,-0.018536224961,0.103399358690,0.052569057792,-0.011460819282,-0.076563403010,0.154831841588,-0.050716903061,0.004056087229,-0.212784484029,0.398538678885,-0.104104228318,0.095164172351,0.073427021503,0.207957595587,-0.270749837160,0.021013647318,-0.131971687078,-0.068082831800,0.103278808296,0.009928511456,0.071516156197,0.144524037838,0.012030091137,-0.055179011077,-0.006775761954,0.156843662262,-0.056699592620,0.282904386520,0.102735593915,-0.082342527807,0.013411907479,0.025833418593,-0.127512738109,-0.068972364068,0.040813740343,0.077009484172,0.089512094855,-0.021438583732,-0.203591853380,0.057223681360,0.010223840363,-0.036330446601,-0.208105862141,-0.077138684690,0.012585264631,-0.542515814304,-0.041363287717,-3.441964864731,0.057330969721,-0.000071646638,0.151466459036,-0.081326290965,-0.145664602518,-0.208262965083,-0.044847093523,0.023143557832,-0.075064793229,0.349723279476,0.076294094324,0.018958155066,-0.008180135861,-0.009664466605,-0.223574131727,0.027806220576,0.197835773230,0.029628174379,-0.032472256571,0.079859115183,-0.124755941331,-0.138699159026,-0.101746052504,0.030259072781,-0.084858544171,-0.459418386221,0.038655020297,-0.371258467436,-0.045481678098,0.004063380882,0.114581838250,0.634786248207,-0.020923279226,-0.244661569595,0.100246749818,-0.071419104934,-0.100104756653,0.021180806682,-0.056911356747,1.212341904640,-0.011622023769,0.127986371517,-0.001276201801,-0.004621582106,0.000890337746,0.141365975142,0.003854153212
0.033613234758,0.221648961306,0.205553695560,-0.088314652443,0.035234339535,0.035445701331,-0.098643958569,-0.394083350897,0.040805444121,0.005859110504,0.015583636239,0.025338577107,-0.138310447335,-0.084024272859,-0.045912723988,0.071065455675,-0.065479189157,-0.030206169933,0.014557667077,0.025014659390,0.080341540277,-0.080340191722,0.046810105443,0.033048141748,0.183449774981,0.013444446959,0.091517426074,-0.129530191422,-0.015433953144,0.069280914962,-0.123022243381,0.037283152342,-0.001415960840,0.051752194762,-0.008845615201,-0.119390912354,-0.157273769379,0.040698386729,0.043682936579,0.015388848260,0.113767579198,-0.114294499159,0.129751905799,0.012847747654,0.271535098553,0.055713038892,0.014706639573,-0.013257603161,0.540125429630,-0.006972458679,0.025848098099,0.038269285113,0.166024446487,-0.036126028746,-0.238919153810,-0.017986100167,0.233713701367,-0.126045867801,-0.002550749807,0.286769151688,-0.011120202020,-0.005659008399,-0.553878366947,0.002769993152,0.110916249454,-0.112928070128,0.135498479009,0.068210214376,0.057919941843,0.010474501178,0.017757002264,0.008239154704,-0.081873536110,-0.219369605184,-0.104347221553,-0.027779411525,0.068268492818,-0.232118949294,0.096868686378,0.220792040229,-0.252583175898,0.511103808880,0.073488049209,0.132958784699,-0.660731494427,0.151560306549,-0.168800354004,0.107848651707,0.217902347445,-0.020206702873,-0.018999995664,-0.192710831761,0.080998264253,0.878043830395,-0.204394534230,-0.073507681489,0.044935878366,0.310039788485,0.094414703548,-0.057035282254,-0.054389975965,-0.014670657925,-0.469886302948,0.015397148207,0.046113930643,-0.060014732182,0.007910545915,-0.009417342953,-0.052182968706,-0.253976732492,-0.316211134195,-0.018831465393,0.044876951724,-0.007043907419,-0.188832238317,0.157202452421,0.143691211939,-0.566452383995,-0.041260503232,0.072713211179,0.026243666187,0.003004244762,0.058037493378,-0.005154354032,0.078646577895,0.012220028788,0.034399043769,0.750027656555
-0.018624765798,0.000172812404,0.006961119361,-0.030842183158,0.039105255157,-0.046722084284,-0.197426393628,-0.101887799799,0.026658426970,-0.026138918474,0.012243379839,0.015435818583,-0.010569883510,1.584914445877,0.059627037495,0.016252085567,0.078640565276,-0.015900185332,0.036689490080,-0.018201876432,-0.078026004136,-0.223648816347,0.211202412844,-0.040016844869,-0.270662754774,-0.149026006460,0.128346547484,-0.016341140494,0.039051566273,-0.215499415994,0.301857769489,-0.010416133329,-0.037247914821,-0.129698768258,0.109673313797,0.002893310739,0.060537289828,-0.160505607724,0.031252201647,0.013430123217,-0.007404443808,-0.028832623735,0.061635851860,0.321990668774,-0.017700506374,0.277259826660,0.030888978392,0.010870249942,0.094142273068,0.251811981201,0.004221255425,-0.026068711653,-0.123164057732,0.554544031620,-0.046052858233,0.056652147323,0.025751188397,-0.003732801881,-0.065648391843,0.751890778542,0.014738503844,-0.003569887485,0.102720305324,-0.043600577861,-0.013543399982,0.014344370924,0.158880263567,-0.314577907324,-0.391226440668,0.036913339049,0.229374706745,0.062400765717,-0.071983747184,0.040513921529,-0.090313367546,0.008098017424,-0.006153071765,0.026377035305,0.007995156571,0.015926310793,0.052309025079,-0.240011647344,-0.103759020567,-0.005497850943,0.093653701246,0.045683123171,0.007855303586,-0.327190607786,-0.006797126494,0.013440463692,-0.058909505606,-0.014543702826,0.010243106633,-0.137823551893,-0.280053138733,0.007776755374,-0.070925325155,-0.118990004063,0.015105107799,0.150779053569,-0.815980136395,0.008980737068,-0.021032612771,0.035749666393,-0.212137833238,-0.022043850273,-0.039349611849,-0.032209493220,0.009996232577,-0.117014557123,-0.126178249717,0.003350835759,0.031127311289,0.078046031296,0.020520849153,-0.237905472517,-0.148965045810,0.250693321228,0.014779987745,-0.231971427798,0.021958591416,-0.312167227268,0.020880883560,-0.395836174488,0.052462752908,-0.043624948710,-0.013260290958,-0.001846800325
0.119652718306,0.366569906473,0.174615725875,0.015565607697,-0.078215681016,0.110798284411,0.031518731266,-0.154562488198,0.034700881690,-0.023624487221,0.066311255097,-0.037765692919,0.215580046177,0.073549166322,0.133076608181,-0.118714660406,0.016418961808,0.004049746785,-0.088873684406,-0.260888963938,0.128616437316,-0.418332844973,-0.095393143594,-0.027979785576,0.018250694498,-0.000827366195,0.147613272071,0.088630318642,0.022965105250,0.030608261004,0.076672129333,0.040791787207,0.166012033820,0.008627637289,-0.053913213313,-0.090865403414,-0.165515229106,-0.020872000605,-0.514661788940,0.019352436066,0.174932241440,-0.191697940230,0.068167001009,-0.072688423097,-0.095090165734,-0.040712688118,0.089776739478,0.007515117060,-0.038898576051,-0.080782130361,-0.038119681180,-0.171024322510,-0.060672882944,-0.074831083417,-0.060201227665,0.101423479617,0.117172203958,0.039471052587,0.090294063091,-0.182738378644,-0.027797527611,-0.181917145848,0.134646594524,0.043542250991,-0.015049881302,0.039477482438,0.165862217546,-0.069325417280,0.096475772560,0.062996447086,0.260981351137,0.037042614073,-0.088126458228,-0.049009185284,0.029575144872,0.402484953403,0.062155682594,-0.051287245005,-0.012178311124,0.311163157225,-0.125772178173,-0.328782081604,0.126196995378,-0.407242208719,0.174808487296,0.303294450045,0.225148066878,0.110480763018,0.242386654019,-0.011013789102,0.090148210526,0.224933609366,-0.245247229934,-0.063286602497,-0.063451245427,-0.032939124852,-0.042422160506,-0.054172985256,0.039440236986,0.147719427943,0.094032309949,0.193035990000,-0.441835671663,0.181037813425,0.093643084168,0.110845059156,0.016069598496,-0.093185298145,0.034698203206,-0.179263159633,0.070199139416,-0.052750632167,0.090640150011,-0.215860053897,0.543450295925,-0.109955176711,-0.187393337488,-0.007957666181,-0.110967300832,-0.167462781072,0.039724882692,-0.032243344933,-0.087567992508,0.011318596080,0.060446728021,0.154835566878,-0.203831762075,0.106540597975
-0.145885556936,-0.036068581045,0.147230654955,-0.049515254796,0.027113281190,0.002302242676,0.109631136060,-0.139263436198,0.085290938616,-0.011625359766,0.108346268535,-0.000044838223,0.041313089430,-0.012377361767,-0.142792195082,0.051588337868,0.128336355090,-0.068980492651,0.007751063909,-0.034463938326,-0.083394311368,-0.260274231434,0.394131690264,-0.010859587230,-0.006512099877,0.133542194963,0.057429037988,-0.117392107844,0.020203113556,0.310656934977,0.262625902891,-0.312353968620,0.005486423615,0.009068902582,0.163220867515,0.157811462879,0.004190696403,-0.165020212531,-0.081663586199,0.049351561815,-0.038220401853,0.094618350267,-0.137303918600,0.260024696589,-0.214133068919,-0.202126726508,-0.128833234310,0.021190915257,0.147515594959,-0.385299593210,-0.330446362495,0.029855884612,0.074867069721,0.468575775623,-0.082912445068,-0.050697382540,0.008410645649,-0.068972416222,-0.020609024912,0.163181915879,0.044432707131,-0.007471685763,-0.298866361380,-0.128921717405,0.025852859020,-0.067686237395,-0.155872911215,-0.597319841385,-0.135534778237,0.231869399548,-0.555199384689,0.020552156493,0.068108022213,0.067621983588,0.005391920917,0.112430937588,0.033821817487,0.159376665950,0.014898159541,0.097604058683,-0.171745061874,0.223753243685,0.150788143277,-0.068089842796,0.019287053496,0.254754096270,0.067277006805,-0.026645535603,0.408951699734,-0.003813094227,-0.103772155941,0.406451433897,-0.028523046523,0.326215952635,0.013367578387,1.401616573334,0.064188376069,0.088979542255,-0.033917382360,-0.070043064654,0.584190785885,-0.033741366118,-0.201096177101,0.003541503567,-0.174364954233,-0.116591423750,-0.030857045203,-0.020359685645,-0.072181575000,-0.009472650476,-0.037506312132,-0.015314012766,-0.080926842988,-0.067077726126,-0.014986394905,-0.042223557830,0.053673792630,-0.377985745668,-0.056404884905,-0.028869323432,0.006701332517,0.587008178234,0.033842485398,0.230036243796,-0.112910516560,-0.251559019089,0.044978898019,-0.960071742535
-0.106543533504,-0.118788801134,0.158526390791,-0.130868196487,0.077778823674,0.102831996977,0.009331864305,-0.159962862730,-0.332173258066,0.046296030283,-0.170233935118,0.018929980695,-0.200107976794,0.143281817436,0.089275553823,0.074547052383,-0.117938205600,0.403823524714,0.067016281188,0.196649417281,0.344219058752,-0.364766210318,-0.038427252322,0.005611727014,-0.258640646935,0.138386383653,-0.006787161343,-0.969366788864,-0.021011468023,-0.160210013390,0.140297383070,-0.101813256741,0.266912609339,0.048610083759,0.062014847994,-0.112691819668,-0.165897116065,0.077951677144,0.127271875739,-0.326015055180,0.129335105419,-0.883961677551,1.112222790718,-0.072124190629,0.209834545851,-0.170919209719,0.439029246569,0.462409764528,-0.123425006866,-0.191214442253,-0.027381975204,0.088634699583,-0.043845269829,0.154497981071,-0.458046525717,0.186774462461,-0.094385087490,0.047694057226,-0.162167042494,-0.201271221042,0.277646332979,0.068432800472,0.031936682761,0.140535846353,0.093586489558,-0.113830365241,-0.066261827946,0.083768226206,-0.067695252597,0.002738065785,0.299206137657,0.222607731819,-0.427787810564,-0.046547170728,0.117104828358,-0.197113990784,-0.118921585381,-0.349479913712,-0.538951814175,0.001133170212,-1.802549839020,0.083922818303,0.377001941204,0.130654856563,-0.009754432365,-0.239135265350,-0.235147237778,-0.169116035104,0.078400373459,0.114937685430,0.213976264000,-0.075822055340,0.043465234339,-0.021663231775,0.275420427322,-0.538409709930,-0.048892501742,0.326106518507,-0.047749042511,-0.054196491838,0.308980852365,-0.095023773611,-0.701148509979,0.094410188496,-0.060340423137,-0.030242472887,-0.023358779028,0.116321295500,-0.355759501457,-0.030745405704,0.088611416519,0.211503177881,0.115533441305,-0.088735230267,-0.159900963306,-0.075852096081,-0.336569994688,-0.094458423555,0.046110738069,-0.032049257308,0.254750758410,0.000365412357,0.110155925155,-0.419337511063,-0.182562604547,-0.141818776727,0.018987046555,-0.142729058862
0.018138030544,0.036402590573,-0.539853811264,0.012961016968,-0.005483324639,0.021865302697,0.023641038686,-0.046853005886,0.000031772655,-0.011534824036,-0.005329753272,-0.103896878660,-0.086211502552,0.002241685754,-0.016928594559,-0.023739485070,-0.036887522787,-0.019295653328,0.003304534825,0.003770557931,0.025742800906,-0.026045696810,0.040375456214,0.047771681100,0.040448810905,0.003998223227,0.001680601737,0.040464207530,-0.012414241210,0.011307868175,0.004871700890,0.001232333365,0.970995843410,-0.002700831508,0.003022879362,0.030353168026,0.066020071507,-0.024469006807,0.075789496303,0.017937295139,-0.016608741134,-0.002087101806,0.044254630804,0.019325491041,-0.005655416753,-0.024759829044,0.000595002901,0.004207361490,0.002907064045,0.034608229995,-0.010358079337,-0.199388489127,-0.025223527104,0.015035519376,-0.034154798836,0.034176237881,-0.014403685927,0.005029725842,0.015473133884,0.020214334130,0.006164716557,0.514056086540,-0.046484339982,0.002352983458,-0.964173436165,-0.036225654185,0.077197320759,-0.040860608220,0.035038366914,-0.030765360221,0.023408690467,-0.006130539346,0.005367833190,-0.028652658686,0.021817900240,-0.957264780998,0.007100443356,0.008553802967,0.002111204667,0.053741227835,0.162929564714,0.004421543330,0.052977174520,0.205934107304,-0.022978743538,0.206860318780,-0.430893063545,0.024274837226,-0.011018472724,-0.018659824505,0.017317840829,0.014896598645,-0.564224600792,-0.014568182640,0.000990773435,-0.060990180820,0.014818416908,0.004639890511,0.055858712643,0.022331155837,-0.010474097915,-0.145982176065,-0.032186344266,-0.655349969864,-0.036612816155,0.072441600263,-0.009927953593,-0.014421426691,-0.015796558931,0.126096725464,0.037231013179,0.002308539115,0.013104381971,0.014626456425,-0.080700516701,-0.009301698767,-0.012187750079,-0.101997129619,0.024639584124,0.002309626201,-0.009717181325,0.007065486163,0.002346545225,-0.003095923690,0.004779087380,0.036435529590,0.159940168262,-0.022596953437
0.241218537092,-0.139591544867,-0.108630448580,-0.077546440065,-0.082749180496,0.151416242123,0.282478481531,-0.022255180404,-0.034596662968,-0.015082177706,-0.067625470459,0.086688809097,0.131442710757,-0.126492619514,-0.036937586963,0.018107831478,-0.096324555576,-0.032083444297,-0.077155396342,0.359074383974,-0.100686766207,0.161171793938,0.135203346610,-0.037553723902,0.295054286718,-0.096538074315,-0.140978157520,-0.000276286708,0.032963104546,-0.219646796584,-0.155825033784,0.175553604960,-0.300394743681,-0.007372842636,-0.003188897623,0.039940748364,0.112162850797,-0.135432407260,0.079420343041,-0.101350069046,-0.084189854562,0.047002729028,0.286856770515,0.059486635029,-0.156243011355,0.135068193078,-0.267938017845,0.035211421549,0.169959589839,-0.226614147425,0.039849448949,0.101065233350,-0.110604695976,0.034868460149,0.047077775002,-0.184043601155,-0.038297608495,-0.068123541772,0.035239789635,0.091641508043,-0.115774303675,0.252726584673,-0.020994469523,0.210979625583,0.064698636532,1.046162962914,0.074849121273,0.108122482896,0.049596730620,0.209978684783,-0.076845586300,-0.098923832178,0.030739892274,-0.052753716707,0.297123193741,-0.087571151555,0.007862769067,-0.074256666005,0.028934923932,0.565146505833,0.424469262362,-0.020912794396,0.033346243203,0.140563964844,-0.056251320988,0.309237301350,0.198496252298,-0.243131980300,0.132846981287,-0.002899854211,0.000764298893,0.017157336697,-0.075255408883,0.094660215080,0.044501125813,-0.005697878078,-0.081083670259,-0.389959365129,0.253406941891,0.030113182962,0.332678616047,-0.009484945796,0.130867585540,-0.155445501208,0.060228921473,-0.053195200861,-0.023385254666,0.046423990279,-0.052746508271,0.030676646158,-0.001795637887,0.129136651754,-0.171220570803,0.143696606159,0.032037176192,0.029673280194,-0.006208707113,0.236113443971,-0.136107400060,0.054856061935,0.186013564467,-0.109616525471,0.100363969803,-0.115162476897,0.087262064219,-0.154694199562,0.109728448093,0.026548722759
0.082871556282,0.169223606586,-0.108643762767,0.016166308895,0.181409463286,-0.149392411113,-0.058081071824,0.267022788525,-0.019271047786,0.048077113926,0.020178822801,0.042908143252,-0.147953733802,-0.051973681897,-0.082975052297,0.031212771311,0.147048637271,0.085382528603,0.194462984800,-0.052327550948,-0.068443089724,-0.262507259846,0.045433383435,-0.012956096791,-0.228726893663,0.076325245202,0.082394793630,0.052211631089,0.017030706629,-0.293504446745,-0.070764303207,0.139455005527,0.316854834557,0.022539537400,-0.113013401628,0.139133214951,-0.080763451755,-0.402916818857,0.093948200345,-0.051070753485,0.422367185354,-0.102110929787,0.203315392137,-0.004680425860,0.026877917349,0.009282533079,0.060460396111,-0.009035212919,-0.086825944483,0.104193679988,-0.009163703769,0.010124498047,-0.001368070836,0.105666063726,-0.026605844498,0.082729391754,-0.024122210220,-0.133283555508,0.105434730649,-0.053911682218,0.062487706542,0.021306386217,0.253770291805,-0.037401843816,-0.013323164545,-0.054685458541,-0.085217066109,0.097096145153,-1.037113070488,0.003438483458,0.353242397308,-0.207911878824,0.136943340302,-0.143604993820,-0.063377670944,-0.022182492539,0.072454556823,0.013647535816,0.001203360036,-0.261474162340,-0.307641625404,0.288895070553,0.037713274360,0.092473000288,-0.354277551174,0.363961130381,-0.177929386497,-0.175125122070,-0.424523293972,-0.050264980644,-0.401160389185,-0.077117286623,0.049638114870,-0.181745797396,0.106843717396,0.061450000852,-0.012212533504,-0.103912167251,-0.129734158516,0.007576697972,-0.256032645702,-0.037945684046,0.405287891626,-0.081545285881,0.024724531919,0.119598247111,0.001589491032,0.114760413766,-0.072257712483,0.214832276106,-0.226732999086,0.060010220855,0.021465359256,-0.180739462376,-0.168217048049,-0.062043908983,-0.166684076190,0.561614513397,0.245853558183,0.025014473125,0.022580793127,0.124589733779,-0.019838085398,-0.010754300281,-0.149038523436,-0.507089972496,0.057226773351,-0.468361377716
0.319422036409,0.647656738758,0.094481870532,-0.228381887078,-0.115723386407,0.006579745095,0.039824754000,-0.106709875166,0.159099295735,-0.009155228734,0.060519959778,0.061336070299,-0.234090283513,0.119734495878,0.055320162326,0.236059948802,0.214055404067,-0.125928238034,-0.116503216326,0.122667066753,0.120727963746,-0.424912482500,-0.074736207724,-0.009589260444,0.010835072957,-0.041637223214,-0.129460275173,0.149247452617,-0.020029256120,-0.044150758535,-0.048391494900,0.094161689281,0.187964096665,0.154950439930,0.046633400023,0.083019234240,0.015818774700,-0.103487126529,0.360570728779,-0.168497070670,0.069415859878,0.377585321665,0.407492130995,-0.263634860516,-0.210590615869,0.150103241205,-0.129764497280,-0.311146557331,0.203983113170,-0.259317785501,0.038316883147,0.088073790073,-0.109505251050,0.091007724404,0.006035791710,-0.048691298813,-0.132809400558,0.032819394022,0.000217647379,-0.023924361914,0.138017535210,0.233993053436,0.023500110954,0.170737773180,0.141249209642,0.263731956482,0.078659601510,-0.300808221102,-0.019169354811,0.088140703738,0.081661455333,-0.127708017826,0.043607331812,0.001654857304,0.224581971765,-0.249204427004,-0.189403861761,-0.034882891923,0.420091450214,0.301574528217,-0.720463514328,-0.136810675263,-0.000270594726,0.266876101494,0.249771937728,-0.030817225575,-0.146030828357,-0.051884286106,-0.074652209878,0.104428924620,-0.072708904743,0.229254230857,-0.044862166047,0.027139574289,-0.196099340916,-0.077114552259,0.071910135448,0.152540713549,0.029718836769,-0.161245554686,-0.205831855536,0.007890890352,0.042193889618,-0.289050489664,-0.095711275935,0.152376666665,0.494907110929,-0.098836384714,0.059578225017,0.077794224024,0.025672122836,0.158569991589,0.098789945245,0.070735007524,-0.202325254679,0.035161096603,0.027766883373,-0.123816557229,-0.080729529262,0.061482813209,-0.390678673983,-0.213522106409,-0.112131685019,0.128822132945,0.138992369175,-0.161594331264,0.079217620194,-0.132003650069
0.064268194139,0.516727328300,0.557539820671,-0.092129096389,-0.328062742949,0.118183515966,-0.072709850967,0.414541810751,-0.137808918953,0.007472693454,-0.102892600000,-0.011630306020,-0.334541231394,-0.082966469228,-0.200841709971,0.283360928297,0.133358925581,0.039117779583,-0.324163824320,-0.071075282991,0.055334556848,-0.602682650089,0.026957418770,-0.012480709702,-0.150157824159,0.018419034779,0.210564598441,0.294836550951,-0.041022729129,0.029235295951,-0.007345014252,0.046669982374,0.208893194795,-0.099386550486,0.011071742512,-0.005034334958,-0.348935872316,-0.228313535452,0.053777083755,-0.027137486264,0.199005022645,0.098169974983,0.211080342531,-0.002457428258,0.147579357028,-0.036150500178,-0.338383078575,-0.011968174949,-0.099580049515,0.058876484632,0.110088758171,0.081117622554,0.081260368228,0.033533584327,-0.189144089818,0.308567911386,-0.016843043268,0.116826713085,-0.133364066482,-0.073432981968,-0.031605813652,0.081971943378,-0.074826985598,-0.243696764112,0.070477895439,-0.231747493148,-0.197166174650,0.061423189938,0.145236149430,0.270425975323,0.153304874897,0.019532101229,0.001300339587,0.124484531581,0.087401114404,-0.229359880090,0.066678136587,-0.003194200806,-0.119904391468,-0.143126875162,-2.097649097443,-0.411414504051,-0.037229534239,0.150701001287,0.214729771018,0.296763807535,-0.407830536366,0.104126006365,0.226776301861,-0.085155993700,-0.001639925991,0.073137886822,-0.033531524241,-0.034239199013,0.116502091289,-0.079641535878,0.024441704154,0.165959402919,0.102717339993,-0.425592809916,-0.067972056568,-0.057636804879,-0.509355127811,-0.124922886491,0.106844708323,0.067771740258,-0.050027985126,-0.170532017946,0.023091679439,-0.080338925123,0.041556503624,0.043051008135,0.037202909589,0.026893081143,-0.163873493671,-0.171299114823,-0.492778688669,0.235069438815,-0.051446326077,0.012679927051,-0.040566228330,0.004112262744,-0.080176569521,-0.312337249517,-0.052055571228,0.452901452780,-0.020128609613,-0.007786682341
0.067505374551,-0.065224789083,0.118067301810,0.077800974250,-0.031610477716,-0.230676218867,0.023377543315,0.060124196112,0.165289267898,-0.023737687618,-0.004404102918,0.062015857548,-0.262294799089,0.001132368343,0.068674154580,0.031001565978,-0.033753063530,0.019990116358,-0.047069523484,-0.086108773947,-0.029190586880,0.011130581610,-0.190316289663,-0.001543278806,0.043710179627,-0.019384488463,-0.041667167097,-0.135754674673,0.041876453906,0.036011394113,0.082226850092,0.034211762249,0.074697151780,0.057822145522,0.013223242015,-0.001515718293,-0.149516314268,0.097619779408,0.191158860922,0.524332940578,0.049844507128,-0.999018609524,0.233490824699,0.095450058579,-0.246832042933,-0.023176940158,0.079794004560,-0.150739565492,0.041238762438,-0.040719855577,-0.024470286444,0.082888484001,-0.047509688884,-0.034004654735,0.038105200976,0.003647773759,-0.140423089266,0.007671148982,0.052761778235,-0.025414966047,-0.061265081167,0.082614839077,-0.131281465292,-0.003796987701,0.092389136553,-0.112363129854,0.005083453842,-0.026786666363,0.022340491414,0.006377886049,-0.108086660504,-0.094950422645,-0.389212846756,0.011949906126,-0.041390120983,-0.290471464396,-0.282564431429,0.035984776914,0.495538085699,0.024972092360,-0.717452287674,0.032837469131,-0.001466520713,0.224034428596,-0.087611570954,-0.253870368004,-0.324948996305,0.029139121994,0.031028574333,-0.051484275609,0.147827118635,0.048905972391,0.073133930564,0.002525985474,-0.032897323370,-0.207867071033,0.050852816552,0.251557111740,-0.003423508955,-0.033375751227,0.045670870692,-0.028487170115,0.202453538775,-0.101683489978,0.031994577497,-0.015984930098,-0.102959536016,0.007940752432,-0.304997473955,-0.039000373334,0.050144072622,0.017904581502,0.280692458153,0.112913504243,-0.262635856867,0.148882180452,-0.062733106315,-0.062127884477,-0.000818191795,-0.046826582402,0.622586905956,-0.006796315312,-0.016445778310,0.065944679081,0.044929683208,-0.054280888289,0.067161016166,-0.010793277994
0.046460125595,0.027073023841,0.031976282597,0.045641835779,0.038981866091,-0.075285978615,0.260521203279,-0.117535069585,0.181713715196,-0.033217806369,-0.018405266106,0.003751072567,0.035221680999,0.010724671185,0.021229039878,-0.002055277815,-0.145537003875,0.565413057804,0.036729954183,-0.208412081003,0.000658565667,-0.162976056337,-0.017846466973,-0.023816043511,-0.522498428822,0.025539483875,-0.614453434944,0.002469008323,-0.047957994044,-0.217427849770,0.007132967468,-0.258221924305,-0.154823780060,0.055262751877,0.107489049435,0.098666176200,0.121875673532,0.054710593075,0.021684573963,-0.027855783701,-0.097194440663,-0.039563849568,-0.060764525086,0.192905411124,-0.127823412418,-0.096370995045,0.043533239514,0.012495910749,0.029070254415,0.232490092516,-0.031259123236,0.003861183301,-0.568997740746,0.254972636700,-0.426789849997,-0.084146544337,0.020182289183,-0.112103015184,0.005582755897,-0.388598382473,-0.001069768332,0.069580927491,-0.118936747313,0.249594733119,0.034774698317,-0.073435150087,-0.116100654006,0.447824507952,-0.068466126919,0.047554086894,0.018603524193,-0.017554489896,0.035083789378,-0.003588427790,0.220114424825,-0.036264814436,-0.027360707521,-0.038186907768,0.075912736356,0.020612437278,0.114542767406,-0.027971977368,-0.007233974990,0.025385597721,-0.139897093177,0.118114612997,0.067759282887,1.020220756531,0.028703711927,0.093155890703,0.075924709439,-0.054742261767,0.022741295397,0.121992252767,-0.153803169727,-0.274420559406,-0.567904829979,-0.123242437840,-0.053798060864,0.080858558416,0.434159994125,0.025864079595,0.361238837242,-0.020207811147,-0.164010822773,-0.023073868826,0.026741009206,-0.005076196045,-0.136283203959,-0.018490096554,-0.173087671399,0.043704748154,0.001849987544,0.067756630480,-0.010101789609,0.049068480730,0.163619324565,0.031308148056,-0.024423120543,-0.207175329328,0.009714818560,-0.364190757275,-0.077009350061,-0.021765671670,0.752198696136,-0.029532464221,0.002383786952,-0.025892807171
-0.199679747224,-0.027924934402,0.063447527587,-0.194723874331,0.047484945506,0.082911036909,0.143999889493,-0.002163151279,0.085027247667,-0.036658138037,-0.038936503232,-0.055627822876,0.059393305331,-0.423634290695,0.062271438539,-0.008793922141,0.024273080751,0.198605835438,0.022349713370,-0.216488897800,0.045731507242,-0.101871505380,-0.072984032333,0.013719891198,-0.438492506742,-0.086978167295,0.722761273384,-0.053248878568,0.019665544853,0.033618815243,0.117368243635,-0.086864441633,-0.048180986196,-0.327807277441,0.080887511373,-0.065168201923,-0.067129075527,-0.030018726364,-0.106966823339,-0.053258594126,-0.285098433495,-0.070666432381,-0.012554298155,-0.380631417036,0.019791916013,-0.209841176867,0.026027770713,0.027028817683,0.199615836143,0.051108468324,-0.342896848917,-0.010319092311,0.103461049497,-0.077375777066,-0.128597006202,-0.149529576302,-0.007233290002,0.002546731150,0.073879063129,0.384664297104,-0.000011343423,-0.122400313616,0.019003050402,-0.463284552097,0.003773008939,0.368640571833,0.107513599098,0.630562901497,-0.186370834708,0.070690698922,-0.132160782814,0.112975813448,0.083107687533,0.011218565516,-0.045761138201,0.055706698447,0.028410395607,-0.013301059604,0.096591576934,-0.087931305170,0.056319423020,-0.030961466953,-0.080613255501,-0.074833452702,0.049997743219,0.057114940137,0.062461744994,-0.711508870125,-0.041911900043,-0.085928164423,-0.125656172633,0.017043277621,-0.035664483905,-0.174524381757,-0.565311133862,0.282488793135,0.237923607230,0.037095136940,0.009468426928,0.153165891767,-0.152082026005,0.004540247377,-0.027247557417,0.034288257360,0.534287929535,-0.068886198103,0.064172461629,-0.024190127850,0.034035362303,-0.101345263422,0.112853810191,0.009600034915,-0.086303561926,0.000410584675,0.109604269266,0.004500411451,0.135897591710,-0.242443785071,-0.025748789310,0.213987991214,0.036469794810,0.422415852547,0.037108846009,-0.272605240345,0.149326413870,-0.182341158390,-0.026063032448,0.118356280029
0.029727023095,0.063747853041,0.011909730732,0.998537123203,0.022676145658,0.080647394061,0.000661907543,-0.117954634130,-0.139606505632,0.022311015055,0.313146233559,0.045253206044,-0.089763447642,0.004563603085,0.087194040418,0.013469738886,-0.016963925213,-0.072706483305,0.022474676371,-0.066630072892,0.011029655114,-0.055797517300,0.053064778447,-0.022674376145,0.128354340792,0.022399090230,0.009647110477,0.312657147646,0.032124757767,0.172457188368,-0.019944271073,-0.017753990367,0.086870342493,-0.034558840096,-0.019604295492,-0.170544490218,0.006865807343,-0.033716298640,0.097169943154,-0.122104406357,0.083175778389,0.384656220675,-0.053626187146,-0.035454623401,-0.095890969038,0.000211383245,-0.011094533838,-0.555046617985,0.093997418880,-0.079894930124,-0.052656836808,0.009142136201,-0.018217403442,0.033097531646,0.049862381071,-0.004209828097,-0.102144509554,-0.022080371156,0.065636895597,0.014812218025,0.159984543920,0.039998587221,-0.023571293801,-0.048087526113,0.068336725235,-0.079186193645,0.027316709980,-0.029791336507,-0.068417325616,0.074410542846,0.036097455770,-0.123065672815,0.461363285780,-0.015464814380,-0.082181267440,-0.146277591586,-0.101929567754,0.022687664255,0.858385026455,0.122205287218,-0.398575752974,-0.079907640815,-0.023935694247,0.088520795107,-0.027206044644,-0.086585380137,-0.100134089589,-0.036251567304,0.099923260510,-0.504068493843,0.074910290539,-0.084545187652,0.009691340849,0.047228280455,-0.046113189310,0.339899748564,0.079390831292,0.127605110407,0.039820048958,-0.087411485612,0.043301898986,-0.069510392845,0.118932731450,-0.009116281755,0.007885408588,-0.014615382999,-0.045218110085,0.031248556450,0.135194048285,-0.031094416976,0.032372113317,0.032957736403,0.475850611925,-0.031704764813,-0.109080344439,-0.004739537835,0.025369927287,0.036258120090,-0.004334360827,0.075029350817,0.073981128633,-0.079384945333,-0.154822230339,-0.009231844917,0.085969179869,-0.007665748242,0.025819716975,-0.066626839340
-0.225615635514,0.505846977234,0.259024024010,0.149258404970,0.062376476824,0.016372527927,-0.050587270409,-0.058846268803,-0.016928732395,0.033202704042,0.059319086373,-0.002342949389,-0.003002042882,0.016152242199,-0.074533425272,0.083001315594,0.302143901587,0.014848547988,0.057889975607,-0.075046151876,-0.257388502359,0.384813189507,0.137956529856,-0.011712286621,-0.128770485520,-0.021264201030,0.063011869788,-0.498261660337,0.033805504441,0.171654582024,0.044143579900,0.020937774330,0.176787301898,-0.032569661736,-0.125828385353,-0.128745764494,-0.522537350655,-0.048521295190,-0.174994930625,-0.274422496557,0.089257553220,-0.317661732435,-0.364410579205,-0.034263242036,0.162369951606,0.205284565687,0.039065245539,0.086881734431,-0.077763669193,0.218817427754,0.015784721822,-0.005566725973,0.062898099422,0.056533917785,-0.124999545515,0.090467751026,-0.095642969012,0.044461712241,0.168550878763,0.023921741173,-0.605846941471,-0.040100827813,0.053981624544,-0.038479771465,-0.018536819145,0.171939939260,0.268852204084,0.065242007375,-0.021599348634,-0.135807871819,-0.008322245441,-0.237697139382,0.315491646528,-0.022137926891,-0.156765833497,-0.133413061500,-0.225601986051,-0.077716298401,-0.185070186853,-0.017007475719,-1.235853433609,0.096826098859,0.007199294865,-0.080288901925,0.004383599851,-0.092709645629,-0.055345155299,0.014036108740,0.027278695256,-0.162938639522,-0.130949601531,-0.224942311645,-0.012685340829,0.019360924140,0.256876677275,0.113755583763,0.088486090302,-0.035158690065,0.100005976856,0.228834792972,-0.025872847065,-0.008790502325,-0.405671775341,0.112216211855,-0.004203853197,-0.041425511241,0.709603905678,-0.037700321525,0.384225308895,-0.016987474635,-0.115572772920,0.065216764808,-0.207235395908,-0.049733351916,0.114628545940,-0.190973371267,0.431903064251,-0.192186653614,-0.040196169168,-0.009096887894,-0.513705134392,-0.058376908302,-0.156580209732,-0.289074003696,-0.080514341593,-0.057739097625,-0.020359128714,-0.025483882055
-0.251835495234,-0.397333741188,0.123474590480,-0.170010566711,-0.061093322933,-0.149385765195,-0.191015511751,0.053144514561,-0.297843813896,-0.041133038700,0.057854708284,0.093891263008,-0.036250825971,0.433402389288,0.159394130111,0.009164376184,0.041252806783,-0.326632827520,-0.051640603691,0.401404231787,0.042955942452,0.063430473208,-0.039828836918,0.035640880466,-0.116914227605,0.197349816561,-0.194297015667,-0.119530685246,-0.019277757034,-0.106933847070,0.019608246163,-0.013830229640,-0.153173550963,-0.168822556734,-0.066020317376,0.000808702142,-0.022967554629,-0.032754007727,0.062390401959,-0.136616274714,0.114580862224,-0.111614756286,0.268578916788,0.023939579725,-0.066701382399,-0.392444372177,0.084580950439,0.061449162662,-0.308972716331,0.088772356510,-0.053039524704,0.012362976559,-0.162522420287,0.765302896500,0.140952304006,0.199469447136,0.021380361170,-0.099796958268,1.046141624451,0.399884611368,0.122873097658,0.049653407186,-0.100610181689,-0.205646857619,0.086692579091,0.202276155353,-0.033048849553,0.092191837728,-0.009482156485,-0.123068436980,0.321354180574,-0.032071173191,0.003615736263,-0.027799792588,-0.128817275167,-0.102900527418,-0.136502355337,-0.005492541473,-0.044522169977,0.200352147222,-0.158076331019,0.371035218239,0.241046130657,0.085704684258,-0.233815312386,-0.080919139087,-0.015129042789,0.044870842248,0.171278432012,0.138303667307,0.089248128235,0.128779023886,0.056098915637,0.157702669501,0.260681420565,-0.071652263403,-0.328699171543,0.095137231052,-0.102695755661,0.138020858169,-0.288387328386,0.062928102911,-0.217323198915,0.086028181016,-0.184231415391,-0.132425844669,-0.290183305740,-0.076556973159,0.126310408115,-0.070468619466,-0.116165451705,0.105485416949,-0.190959379077,0.120335899293,-0.055653221905,-0.041141029447,-0.612530171871,0.120228022337,0.054003193974,-0.221876546741,0.475198537111,0.048024233431,-0.000628965034,-0.496221989393,0.434133350849,0.219084262848,-0.013488944620,0.001911955304
-0.054923508316,-0.077799335122,0.048863068223,0.031859666109,0.010871415026,-0.045757591724,0.078488118947,-0.005224443972,-0.045716479421,-0.038348801434,-0.124949119985,0.076186515391,-0.028013838455,-0.179987967014,0.252547234297,-0.050614677370,0.011008644477,0.043851725757,0.016891894862,-0.019155137241,-0.050430350006,-0.040659248829,0.028116555884,0.000760732451,0.181338801980,-0.147365212440,0.010108399205,0.024879477918,0.010082015768,-0.243055120111,0.087153173983,0.150660455227,-0.110225334764,0.119905695319,0.001385658747,0.139219641685,0.088529340923,-0.146644115448,0.000524460513,0.061796877533,-0.180610835552,-0.000577353581,-0.047381166369,0.078145727515,-0.296563982964,-0.091613158584,-0.039004981518,0.032844953239,-0.129409253597,-0.041562400758,0.211187809706,0.113612987101,0.155261039734,-0.571659088135,-0.094197168946,-0.022464582697,0.024831477553,0.037389378995,0.008248427883,-0.006157966796,0.000956554082,-0.195024505258,0.002372391056,0.263994872570,-0.515933692455,0.087951742113,0.048874668777,-0.106926806271,0.020042341202,0.047953743488,-0.209086790681,-0.002940696198,0.184552907944,-0.034089077264,-0.149792134762,0.175826996565,-0.041305363178,0.033193182200,0.036075584590,0.230404853821,0.088595584035,0.016649460420,-0.212197303772,0.022105107084,0.023424914107,-0.161916613579,-0.058475222439,-0.178955793381,-0.072402648628,-0.055434431881,-0.272687315941,0.068996831775,0.051933962852,-0.007004893851,0.200456872582,-0.312668293715,0.143156439066,0.107823483646,-0.024445984513,0.098777726293,0.211244121194,0.137237042189,0.031328283250,0.293350189924,0.071534991264,-0.384668707848,-0.079489067197,0.173584550619,-0.050971642137,0.185075283051,0.056330934167,0.007256807759,-0.028152059764,0.181831791997,-0.163289517164,-0.042706631124,-0.053602743894,0.040979616344,-0.007624425460,-0.124894417822,-0.046632476151,0.288052350283,0.006218804978,0.121850371361,-0.209912300110,-0.102980315685,0.039363235235,0.020287066698
-0.077579617500,0.108341403306,0.003787578549,0.105241820216,0.028381720185,-0.028605414554,0.171116188169,0.087203532457,0.282296329737,-0.040698435158,0.001470739255,-0.057881366462,-0.014822509140,0.094217665493,-0.030187016353,-0.033160977066,-0.283672332764,-0.212747722864,0.052382871509,-0.038904659450,-0.014434519224,0.127592489123,0.049166142941,0.043813951313,-0.069087944925,-0.043671716005,0.822978019714,0.058490935713,-0.010529989377,-0.045697934926,0.102908559144,0.167965650558,-0.105992145836,0.636102318764,0.069511190057,0.210231766105,0.104302741587,-0.017476936802,0.051662106067,-0.094966530800,-0.321748465300,-0.119695745409,0.106407113373,0.151962086558,-0.217732533813,-0.171493127942,0.039144724607,-0.069617785513,-0.036829501390,-0.053013272583,-0.172281175852,-0.010032761842,0.449354797602,-0.215217098594,-0.043647147715,-0.081004515290,-0.008570345119,0.013660609722,0.242276638746,-0.080432720482,-0.027582099661,0.018797712401,-0.125790312886,-0.288785368204,-0.006487553474,0.072762385011,0.249354690313,-0.061763595790,0.058001380414,0.027966540307,-0.022033225745,-0.072399728000,-0.033282745630,-0.026790391654,-0.224907577038,0.092113777995,-0.029814267531,-0.176922813058,-0.007402763702,0.139166548848,0.100735671818,-0.136614412069,0.001503083506,0.006333056372,-0.116831928492,0.113464422524,-0.006237710826,-0.091260232031,-0.099460221827,-0.219360589981,0.098978258669,-0.169918298721,-0.001206513378,0.264112323523,0.546887278557,-0.177927210927,0.579997241497,-0.037602122873,-0.025158597156,-0.094819374382,-0.274930983782,0.051095418632,0.510276973248,0.017899772152,-0.137408539653,0.006704015192,0.569350481033,0.026481019333,-0.216333270073,-0.062317211181,0.086109884083,-0.044364117086,0.048646174371,-0.060620591044,-0.041407540441,0.016880428419,-0.017937578261,0.107272699475,-0.046427797526,0.097147032619,-0.370661854744,0.028544105589,0.005365588702,-0.585930109024,-0.846462428570,-0.081151366234,-0.003075140994,-0.000554923317
0.063793979585,-0.293509036303,-0.063587896526,-0.035408593714,0.020854391158,-0.173670947552,0.314332962036,-0.153905570507,-0.005323312245,-0.018631836399,-0.145429998636,-0.072049915791,-0.064675472677,-1.109386920929,0.591024041176,0.085731871426,0.282412439585,-0.009894145653,0.015281300060,-0.385513752699,0.087548054755,-0.189126104116,0.254372477531,-0.027748415247,-0.582522749901,0.168878421187,0.149510011077,-0.022599520162,0.040731169283,0.044395882636,0.115719735622,-0.012151276693,-0.008264698088,0.138612926006,0.092070192099,-0.118204481900,-0.174422428012,0.092597559094,0.056200217456,0.023951588199,0.175456359982,0.086460404098,-0.173146188259,-0.192064538598,0.136460959911,-0.129009068012,0.095458947122,0.024876378477,-0.467682719231,0.143315747380,-0.556478679180,0.025979151949,0.033849973232,-0.587238729000,-0.201270073652,-0.191249519587,0.002945677843,-0.094755761325,-0.005962404422,0.137172922492,-0.125354275107,-0.007888400927,0.019283259287,0.253532528877,-0.073151923716,0.365295410156,-0.227623090148,-0.126597344875,0.700334370136,0.556371808052,-0.138566836715,0.072560794652,-0.012082388625,0.017599873245,-0.276354074478,-0.128261923790,0.042233277112,0.071231201291,0.011729030870,0.197871536016,0.242988988757,0.024923807010,-0.279207229614,0.021759944037,-0.127357974648,-0.052701801062,-0.035062815994,-0.028541311622,-0.697697520256,-0.069249220192,0.198532015085,-0.126308426261,-0.035190824419,-0.114018321037,-0.295110225677,-0.138218924403,0.377985864878,-0.106181249022,-0.005893602036,-0.135811269283,0.169600352645,-0.078351572156,0.503759622574,-0.035738836974,0.327046066523,0.075378768146,-0.087596759200,-0.245323166251,-0.180250003934,-0.401926100254,-0.210527792573,-0.018764466047,0.008812526241,0.259021610022,-0.027845662087,-0.243669718504,-0.000476209505,0.210252419114,0.029119987041,0.022563984618,0.059987038374,0.066064655781,0.006583659910,-0.290349781513,-0.289169341326,-0.023525781929,0.040483202785,-0.076155692339
-0.204961121082,-0.444523692131,-0.454406142235,-0.064960889518,0.007441478316,-0.102332547307,-0.477814942598,-0.050186153501,-0.284305006266,0.041725225747,0.127694547176,-0.076574802399,-0.067760609090,0.473950445652,-0.214359208941,0.011705057696,-0.135419741273,0.118357039988,-0.013372182846,0.171826243401,0.279276609421,-0.071536742151,-0.089544184506,-0.024696774781,-0.567508399487,0.069255560637,-1.535983085632,0.001827223459,-0.024588782340,0.246718049049,0.600722968578,-0.158808037639,-1.959770798683,-0.146065443754,-0.356882542372,0.222536131740,0.239524081349,0.197804629803,0.054306764156,0.076998695731,0.364065229893,0.152601137757,0.083495333791,-0.518175899982,-0.212570562959,0.019324641675,-0.026411920786,-0.041065700352,-0.286116987467,0.149820178747,0.292261481285,0.025460353121,-0.531518936157,0.869089484215,-0.625829517841,0.108153738081,0.014156213962,-0.259716421366,0.138220131397,0.163821369410,0.099206618965,0.124658763409,-0.130458489060,-1.348896622658,-0.010824901983,-0.019424179569,-0.233528390527,0.093448042870,-0.152592718601,-0.956551849842,0.222312018275,0.029290439561,0.259913235903,0.051499377936,0.081634365022,0.011053401046,0.179670989513,0.393734455109,-0.074940823019,0.288989305496,-0.155787259340,0.263552069664,0.460801780224,0.107299312949,-0.274443417788,0.026564918458,0.395025193691,-1.062170267105,0.110024333000,-0.045785684139,-0.068186044693,-0.013878595084,0.071142092347,-0.059565830976,-0.565368354321,0.325491368771,-1.608002066612,-0.370550125837,0.024723354727,-0.140865743160,0.579634308815,-0.185705289245,-0.464646756649,-0.002144254046,-0.218509599566,0.124126978219,0.029371758923,0.103923462331,-0.062744349241,0.280309468508,-0.084641546011,0.167564004660,0.009509610943,0.041146963835,-0.069019600749,-0.045102514327,-0.171453654766,0.474647611380,-0.023370921612,0.452934980392,-0.020906187594,-0.559760689735,0.081942781806,-0.289814054966,0.830914795399,-0.109714865685,0.074964821339,-0.132612422109
0.072764813900,0.184584960341,-0.056529067457,-0.034892819822,-0.060006726533,-0.112164296210,-0.086408399045,0.216225162148,-0.019805846736,-0.000129282722,-0.056958481669,0.074190922081,0.032758250833,-0.121011309326,-0.180334791541,-0.089803136885,0.074672810733,0.154311537743,-0.048536337912,0.720938622952,0.131078690290,0.202290937304,-0.101614043117,0.044989302754,-0.044102761894,0.080329045653,0.012132294476,-0.004568001255,0.019682351500,-0.002753969282,0.092794112861,0.087347835302,0.156312391162,0.175719484687,-0.048274371773,0.066608466208,0.057354968041,0.057228125632,0.098117880523,0.067075997591,-0.200998201966,-0.043676152825,0.097604759037,-0.020640671253,-0.051428209990,0.009957367554,0.048318315297,-0.006837621331,0.249122917652,0.084612309933,0.228555366397,-0.023592483252,-0.013902051374,-0.010035382584,0.121320806444,-0.110104992986,0.030318094417,0.101927682757,0.097379565239,-0.029496211559,-0.069228537381,-0.003607731080,-0.020617185161,0.082050018013,0.106637656689,-0.194026350975,0.287912756205,-0.427133053541,-0.100381948054,-0.205633446574,-0.232610046864,-0.006919425447,0.145584523678,-0.050724618137,-0.040920987725,-0.075201287866,0.033058851957,0.038166332990,0.025592191145,-0.013727340847,-0.152109771967,0.050871383399,0.231263458729,0.051251117140,0.031557004899,0.122087351978,0.019282598048,-0.800287306309,0.295673489571,0.040670838207,-0.032451063395,0.241801038384,0.028337271884,-0.050645548850,-0.171241357923,-0.137026429176,0.051693294197,0.114253371954,0.005604394712,0.154707193375,0.251889824867,0.056626282632,-0.363572210073,-0.130727842450,-0.144145220518,-0.018491199240,-0.095037445426,0.253568828106,-0.008852758445,0.181395739317,-0.017060821876,-0.022533712909,-0.019862798974,0.004971389193,-0.010708217509,0.071044497192,0.148736238480,-0.277285546064,-0.018971806392,0.067525029182,0.069540984929,-0.360255509615,0.002104856074,0.849848330021,-0.037578918040,0.189653977752,0.030565027148,-0.019163692370
-0.005114210304,0.051625143737,0.302285462618,0.000976906857,-0.004845004994,-0.005941782147,-0.008158112876,-0.014989799820,-0.006622693967,-0.045764211565,-0.006990276277,0.070404894650,0.507514834404,0.001507108915,-0.004537671339,0.533182322979,0.015036697499,-0.007130365819,-0.007832230069,0.027317186818,-0.004834761377,-0.007550878450,0.044676046818,0.038436423987,-0.000631083967,-0.004122982733,-0.003400824498,0.030367694795,0.013585933484,-0.010114444420,0.025250930339,0.011212936603,0.098067872226,-0.007098746486,0.043440937996,0.014703551307,-0.017736488953,-0.004649489652,0.245619520545,0.018168052658,-0.012720785104,0.007851390168,0.026972623542,-0.031841911376,-0.025126205757,-0.006624164991,0.008164933883,0.005825066473,0.015625832602,0.026445187628,0.000446963182,-0.256348192692,-0.004458377603,-0.007782496978,-0.006975377444,-0.011973253451,-0.013768783771,0.008190233260,0.004270246252,0.015030291863,0.015980822966,0.404993355274,-0.039600204676,-0.001281171222,-0.460109651089,-0.023681962863,0.018109314144,-0.007772599813,0.005771541502,-0.015952378511,0.006025531795,-0.008312823251,-0.010080756620,-0.004928259645,-0.025311084464,-1.088477134705,0.005449051503,0.003748456016,0.020572682843,0.043385036290,0.542039632797,-0.000943063060,0.017280699685,-0.621549725533,-0.038768179715,0.219329446554,0.608189463615,0.003386117285,0.011917658150,0.017215911299,0.044066764414,0.006528932601,-0.681738972664,0.025194386020,-0.018015416339,-0.021223016083,0.001780617051,-0.027767492458,0.005294759758,0.001000164775,0.022505832836,-0.042046431452,-0.002342741936,-1.151804566383,-0.000381904334,0.232356294990,0.031935408711,0.017888117582,-0.004119904712,-0.021373534575,-0.031143696979,0.001192003838,-0.009726688266,0.012734635733,0.945787429810,0.006064556539,-0.045821476728,-0.054213620722,0.011073925532,-0.003340578638,0.039669554681,0.016246773303,0.002383778105,-0.015516624786,-0.011277684942,-0.017526676878,-0.213254839182,-0.020815880969
0.252840757370,0.072682037950,0.307354331017,-0.262676775455,-0.004364250228,0.184442654252,-0.008304722607,-0.175069123507,-0.791670918465,0.021134750918,-0.051451325417,-0.004440912046,-0.248611181974,0.064294114709,-0.124046467245,-0.022307595238,0.068765513599,0.027172712609,-0.033109568059,0.069524928927,-0.277096062899,0.211487710476,-0.235232636333,-0.006467527244,-0.020954815671,-0.168293327093,0.023863278329,-0.152390241623,0.066090203822,-0.063722051680,0.041825331748,0.175462871790,-0.040834564716,-0.043458625674,-0.010211534798,0.088279061019,-0.030790464953,-0.112559497356,0.287244141102,-0.318657726049,-0.169156193733,-0.007318253629,0.049962814897,0.054999046028,0.244348868728,0.039384946227,-0.001312718610,-0.058273389935,0.489431142807,-0.222920671105,0.060650203377,0.087623201311,-0.081729203463,0.008026197553,0.445893406868,0.281574010849,-0.074219793081,-0.051080010831,0.277340948582,0.119789443910,0.431187570095,0.112867258489,-0.095433354378,0.040432117879,0.090056471527,-0.211092710495,0.340530186892,0.166715234518,-0.250747084618,-0.151291295886,-0.011752924882,-0.124854154885,0.022748056799,-0.028180273250,-0.135731860995,-0.340298414230,-0.151008456945,-0.267287909985,-0.041594143957,0.124723277986,-1.049736022949,-0.288227498531,-0.158282890916,0.200333952904,-0.090046145022,-0.184532165527,-0.274407684803,-0.067000083625,-0.186568453908,0.035224843770,0.146651655436,-0.160480529070,0.036466144025,-0.151246339083,-0.182677075267,-0.154215231538,0.103242412210,0.174421161413,0.222199127078,-0.231090173125,-0.114127621055,-0.325554817915,-1.057420134544,-0.117140024900,0.011845432222,0.094545051455,-0.320305466652,0.198578193784,-0.028904657811,-0.043324336410,0.112223692238,0.027186756954,0.066040582955,0.112141780555,-0.204959332943,0.243702873588,-0.039908632636,0.000267825351,-0.037575930357,-0.089232273400,0.218839451671,0.108126379550,-0.182199463248,-0.228916302323,0.063026100397,-0.047078665346,0.145740419626,0.059640504420
0.126813486218,0.246697112918,0.036060713232,0.246380239725,-0.005309911445,-0.146397814155,-0.009337449446,0.042402744293,-0.021637639031,0.035254064947,-0.040280267596,0.050625383854,0.141580387950,0.045371130109,0.099222987890,-0.054263077676,-0.331252336502,0.026235835627,-0.006874309387,0.156888037920,0.136809706688,-0.111451655626,0.368442505598,-0.026718741283,0.139233082533,-0.020972326398,-0.098349094391,0.078418411314,0.049994938076,-0.141977727413,-0.185440346599,0.295865863562,0.039204027504,0.051169633865,-0.037927314639,0.003881998593,0.002101812279,0.102338679135,-0.111911684275,0.005114275496,0.296582669020,0.021166298538,0.066943883896,-0.075914926827,0.003762283362,0.148781672120,0.281497746706,-0.025785032660,0.054875314236,-0.052900232375,0.084366232157,-0.012192154303,-0.045293565840,-0.145485505462,0.080367848277,0.106924906373,-0.013403044082,-0.085632137954,0.085460588336,0.077680557966,-0.002592984587,-0.062291029841,0.091759011149,0.144676670432,0.145668074489,0.069024741650,0.118078805506,-0.093216948211,-0.337765902281,-0.017530903220,0.545179545879,-0.034174732864,0.129876792431,-0.051135804504,-0.092070758343,0.165025144815,0.073843158782,0.014318975620,0.064745634794,-0.037467375398,0.256003260612,-0.144671782851,-0.057949714363,-0.090734913945,0.110555224121,0.263814449310,0.150473847985,0.028859570622,0.112140022218,0.001284408616,-0.075319267809,0.082729049027,-0.081262975931,-0.101114615798,-0.344533920288,0.149735271931,-0.122368484735,-0.133284360170,0.107921436429,0.358015269041,-0.250892132521,-0.028242332861,0.017702592537,0.079037420452,-0.064162418246,0.184501543641,0.016878556460,0.027280187234,0.032086886466,0.073678977787,-0.094856746495,0.170171394944,-0.107618287206,0.020010741428,0.214830696583,0.006623802241,0.045512575656,-0.121382810175,0.000660007878,-0.035947643220,0.109534621239,-0.116645038128,0.115716584027,0.352316796780,0.096624985337,-0.021154271439,-0.028910391033,-0.024405149743
0.276891291142,0.344714492559,-0.107272841036,-0.005455061328,0.016119202599,0.270343184471,-0.108993507922,0.135214343667,0.098460718989,-0.042387545109,0.060196250677,0.014002442360,-0.102333344519,-0.124507330358,-0.207348883152,-0.011559935287,-0.030281715095,0.121798612177,0.008365022950,0.026600796729,0.068708658218,-0.400102794170,0.423713803291,0.021850164980,0.121935829520,0.043623846024,-0.028285179287,0.049176443368,0.026074916124,-0.080595336854,0.031739760190,0.019692007452,0.270977318287,-0.174476683140,0.049173507839,-0.038126226515,-0.182218983769,-0.006818738766,-0.149223864079,-0.044313255697,0.041179530323,0.044707868248,0.328724712133,0.287450760603,-0.102030649781,-0.096705622971,0.018668681383,-0.042468305677,-0.385669976473,-0.229999512434,0.227537244558,-0.007772931829,-0.039926398546,0.101514041424,-0.018494075164,0.078706257045,-0.057568438351,0.089644908905,-0.120047442615,0.052281163633,0.317220836878,-0.117034912109,0.113579854369,-0.193297371268,0.035059299320,0.126282870770,-0.325572699308,-0.078267775476,-0.177633389831,0.041834142059,-0.276778548956,0.153668522835,-0.271953314543,-0.020532023162,-0.013799062930,0.069326356053,0.066466532648,0.161358818412,-0.045780397952,-0.045157689601,-0.083881482482,0.002209569793,-0.056190155447,0.005762501620,0.022737057880,-0.222184404731,-0.145089834929,0.019849216565,-0.220908179879,0.285126090050,-0.199947714806,0.243851184845,0.006495141424,0.035392206162,-0.050699483603,0.222324639559,0.143173575401,0.072865046561,-0.035659953952,0.207442387938,0.213798508048,0.024362277240,0.309314221144,0.056248754263,0.023651408032,0.260532766581,0.016035821289,-0.001224511303,0.096396774054,0.246831744909,0.085584081709,-0.048170752823,0.028415776789,-0.041656639427,-0.078908368945,-0.270663768053,0.087093085051,0.278704553843,-0.004783563782,0.035907767713,0.089351035655,-0.106249965727,-0.082084290683,0.116894170642,-0.025906009600,0.323852896690,-0.008818880655,-0.084337480366
-0.073007009923,-0.049722101539,0.305577486753,-0.001024070196,-0.014348691329,0.020184597000,-0.628689229488,-0.026166792959,-0.085091121495,0.035273518413,0.014306318015,0.144120484591,-0.050800371915,2.324730873108,0.046291466802,-0.040539424866,-0.047504410148,0.743036270142,-0.027504861355,-0.016904819757,0.024875566363,-0.136470466852,0.086276210845,0.045602753758,0.296742618084,-0.416742175817,-0.995529055595,0.006787530612,-0.010540535673,-0.143995597959,0.260184943676,0.414631485939,-0.575779914856,-0.223946183920,0.067385256290,0.165168493986,0.222574830055,-0.089224658906,0.049397267401,0.038695197552,-0.333906739950,-0.017610564828,-0.016074953601,0.356097012758,-0.250475257635,-0.005016300827,0.073439963162,0.026797953993,0.360623151064,0.317322462797,0.410524129868,0.012679062784,-2.157803297043,0.196963787079,0.147939607501,0.101215027273,0.019706366584,-0.127252504230,0.077646456659,0.386989891529,-0.014494399540,0.054428204894,-0.103904388845,0.585588455200,-0.073014535010,-0.286127448082,-0.006794462912,-0.073996730149,-0.057213012129,-0.285084128380,-0.066941075027,-0.020172964782,0.019982343540,-0.003788778791,-0.001754715573,0.062965847552,0.018201120198,0.050477262586,-0.044114433229,-0.192226409912,0.264559715986,-0.183656245470,-0.614754974842,0.033192038536,-0.051793839782,-0.049437858164,0.082054711878,-1.576785683632,0.143132194877,0.011897683144,-0.233570829034,0.106692261994,0.054679069668,-0.011243300512,-0.184866398573,-0.203689709306,-0.025381291285,-0.155129775405,-0.187375947833,-0.005644678138,-0.746342062950,0.147476151586,0.005634958856,-0.036870740354,0.422454595566,-0.053822912276,-0.032047484070,-0.049834579229,0.014969472773,-0.215653002262,0.058594763279,-0.019800765440,0.097413450480,-0.126085206866,-0.077161267400,-0.003734269878,-0.243802085519,0.192412614822,0.038328085095,-0.026761649176,-0.076972521842,0.043661184609,0.040886655450,-0.233026415110,0.619832813740,-0.032166589051,0.022946182638,0.042740464211
-0.092603594065,-0.119961105287,0.009159296751,-0.085056141019,0.093640282750,-0.090932630002,0.591577529907,-0.233766421676,-0.173687979579,0.044909942895,0.095841921866,0.038868691772,0.069437861443,0.147025749087,-0.129130586982,-0.007547001820,-0.164649620652,0.044345848262,0.075185135007,0.145061299205,-0.121763400733,0.036058295518,0.319262206554,0.037461873144,0.277722656727,0.434572905302,-1.845304131508,-0.073662281036,0.039786573499,-0.252455830574,0.153348922729,-0.277517408133,-0.002780734096,0.695550978184,-0.033658005297,-0.157547742128,-0.064825110137,-0.199152350426,-0.079132966697,-0.109680622816,0.258985668421,0.048972643912,-0.236878708005,0.296513140202,0.045127473772,-0.054624799639,-0.201842427254,-0.014711516909,0.051547296345,-0.142809361219,-0.340650409460,-0.009031184018,0.275677829981,-0.435930758715,-0.114635072649,0.055278174579,0.017805499956,0.048539385200,0.052745595574,-0.250230371952,-0.047661595047,-0.000874491758,0.073739305139,-0.198514431715,-0.032021820545,-0.011077928357,0.122720114887,0.079522483051,0.201828330755,0.136056885123,0.311421394348,0.058416623622,0.241626530886,-0.020482601598,0.068464003503,0.016600253060,0.025425413623,-0.044351827353,-0.027535136789,0.064680762589,-0.005151408724,0.376181930304,0.011306148954,-0.077244848013,-0.059894479811,-0.002704747021,0.096028752625,-0.222097903490,-0.270127564669,-0.123916976154,-0.083371102810,-0.278507798910,0.025948302820,-0.136849462986,0.473500102758,0.135850563645,0.003505018540,-0.115373075008,0.039326597005,0.182898655534,-0.595670521259,-0.015047739260,-0.434626430273,0.010399449617,0.246337234974,-0.121845029294,-0.035592921078,-0.030243227258,-0.064853385091,-0.168285802007,0.049719203264,-0.153852984309,-0.024516019970,-0.015184145421,0.085001714528,-0.191802069545,0.097921423614,0.040355298668,0.027023714036,0.139508396387,-0.019264867529,-0.211175888777,-0.036821212620,0.039902914315,-0.532877743244,0.015152571723,-0.019410662353,0.008221518248
0.234849900007,-0.259547263384,-0.070972092450,0.239943012595,0.012560585514,-0.115333251655,0.072386957705,0.153556093574,0.029494199902,0.036866649985,0.003595143557,0.032753959298,-0.190478369594,-0.006004863419,0.185721442103,0.021339086816,-0.030463462695,0.118249051273,-0.001105671516,0.112930342555,-0.259943574667,-0.231170654297,-0.443033576012,-0.029275732115,-0.142403468490,0.096551224589,-0.096341148019,-0.237385660410,0.023434272036,0.082053534687,-0.116352766752,-0.096902221441,-0.147571817040,0.263559252024,0.039276201278,-0.191614717245,-0.023687457666,0.055500704795,0.243549063802,-0.295018374920,0.112622000277,0.165660843253,0.110873781145,0.001041871612,-0.153290301561,-0.241501942277,0.205989539623,0.094335235655,-0.002675015246,-0.176883861423,0.076741233468,0.058263201267,-0.123227544129,-0.014894923195,0.009774454869,0.045479752123,0.010923626833,0.039767980576,0.127896264195,-0.140914157033,0.057819876820,0.042319778353,0.039957944304,0.056480262429,0.153143346310,0.121871694922,-0.076465159655,-0.336928457022,0.056234311312,0.000273649668,-0.189780592918,-0.428099900484,0.085802063346,-0.002125370782,-0.018311673775,-0.178155779839,-0.066941335797,0.098359026015,-0.321406245232,0.167722970247,-0.257909595966,-0.078837491572,0.062683910131,0.273350238800,-0.024748208001,-0.051075909287,-0.151965588331,-0.027799619362,0.338759303093,-0.055690795183,0.381756514311,0.320169895887,0.103871457279,-0.181077152491,0.134852662683,-0.422479182482,-0.111263468862,0.234318494797,-0.055945735425,-0.154324233532,0.094054251909,-0.023174017668,0.458616912365,-0.027580751106,-0.119157135487,0.037102792412,0.276519298553,0.076182246208,0.503147065639,0.040273915976,-0.112295076251,0.012937127613,0.143551543355,0.017928300425,-0.238226026297,0.387056261301,-0.153273910284,0.038506273180,0.041854307055,0.112109087408,-0.380959481001,-0.067547574639,0.271179050207,-0.016864085570,-0.002081113169,0.148927569389,0.126220211387,-0.103065915406
0.019510883838,0.008287078701,2.391601562500,-0.003468991490,0.011470952071,0.016531687230,0.000526553078,-0.017634090036,0.048485111445,-0.041625268757,0.016781352460,-2.068237304688,-2.152573108673,0.010838698596,0.021274318919,0.655485987663,0.021890765056,0.025425622240,-0.005595354829,-0.020723154768,0.015587207861,-0.088522039354,0.010548288003,0.027767064050,-0.038818750530,-0.013739839196,-0.012390231714,-0.023895405233,-0.017929028720,0.027330098674,0.019914932549,0.014003257267,-0.085079073906,0.009410581551,-0.010051286779,0.009102735668,-0.013055594638,0.012679453939,2.855226039886,0.023288859054,0.061915896833,-0.027489569038,-0.008611149155,-0.034826166928,-0.005982171278,-0.004904282279,-0.007718622684,0.016897350550,0.016737859696,0.010165506974,0.007220683154,-0.010602917522,-0.021656928584,-0.004502984695,-0.012167912908,-0.002238390734,-0.018665792421,0.006921326742,0.006815171801,0.010937363841,-0.014957480133,-0.024532955140,-0.004603419919,0.000804486626,0.066691808403,-0.020334353670,-0.007108785212,0.005371952895,-0.014110978693,0.014831381850,-0.033574808389,-0.033939197659,-0.037788406014,-0.006819884758,-0.007575880736,-0.092093497515,-0.015291821212,-0.009765942581,0.027718262747,0.030915370211,0.067072808743,0.009490350261,0.013765498996,-1.048591136932,-0.009836931713,0.000225436001,-0.153162702918,0.019787792116,0.008415356278,0.013646386564,-0.024935714900,-0.011044525541,0.023811653256,0.013258472085,0.023320587352,-0.085591502488,0.010795818642,0.019481197000,0.127978235483,0.033744465560,0.001737538259,0.024441758171,-0.010321106762,0.021355135366,-0.000625116983,0.115639001131,0.019822340459,-0.028907984495,-0.011477485299,0.003301203018,0.003999409266,0.011518953368,-0.003415323328,-0.006437052507,0.020686822012,-0.019895507023,0.028626581654,-0.006769794039,-0.004130291287,0.019758837298,-0.002666258020,-0.000300707965,-0.008346927352,0.009949102998,-0.016364239156,-0.037308380008,1.292560935020,-0.009095591493
-0.013545748778,-0.362051367760,0.178598552942,-0.124883949757,0.003416997613,0.024653693661,0.013697903603,-0.029460163787,-0.116056792438,-0.045208469033,0.091536268592,0.206146076322,-0.358010917902,-0.563739597797,0.519473135471,-0.106850892305,-0.056983098388,-0.064665302634,0.013177994639,0.298853844404,0.019282037392,-0.000758195412,0.072661682963,0.036421764642,0.236789017916,-0.330573618412,-0.022096857429,0.060680557042,-0.023136403412,-0.432222783566,-0.317377179861,0.092670753598,1.368391513824,0.025265447795,-0.394349634647,0.139088004827,-0.230922177434,0.119809821248,-0.132025808096,0.004019997083,-0.234458118677,-0.071721188724,0.297246336937,-0.216355353594,-0.432832688093,-0.164823189378,-0.330116033554,-0.051001191139,-0.272041767836,-0.174158990383,0.274805486202,0.062744997442,0.175177603960,-0.953395009041,-0.278619408607,-0.274433851242,0.118017330766,-0.009279948659,0.204568967223,0.487904399633,0.102703325450,0.407709866762,-0.259327441454,0.387183189392,0.920326530933,0.062100816518,-0.489912688732,-0.281878232956,0.043320856988,-0.883839011192,-0.095328614116,-0.129909947515,-0.057273674756,0.068297274411,0.049807488918,0.018601352349,-0.035656746477,-0.059783577919,-0.091155104339,-0.268454790115,-6.879620552063,0.022875690833,-0.784902989864,0.166010066867,-0.257811486721,0.028935125098,-4.222459793091,-0.126880869269,0.025095129386,0.235278695822,0.100984901190,0.237727597356,-0.056685790420,0.223454326391,0.967333972454,-0.245841652155,0.522447764874,0.004313080106,0.123663134873,-0.173819571733,-0.111780747771,-0.575975656509,-0.295615255833,-0.322158277035,0.280511677265,0.490309268236,0.056468486786,0.168769359589,-0.282116979361,-0.348665505648,0.439511239529,0.095122471452,-0.053574707359,-0.046529602259,-0.297411918640,0.023694882169,-0.363254904747,0.148103192449,0.113425590098,0.190511867404,-0.093227744102,0.342620670795,-0.061680160463,-0.663233518600,-0.473343402147,0.001801613835,0.101985797286,-0.152596712112
0.123129405081,-0.493255317211,-0.369084537029,0.171570137143,0.011097714305,-0.128574475646,-0.039085008204,0.053538613021,-0.237410709262,0.029741542414,-0.080859787762,-0.072514548898,0.215956524014,0.042242255062,-0.003137054387,0.014036511071,-0.258040487766,-0.025749929249,0.010297833011,0.114179790020,0.095147058368,-0.013802061789,-0.095521956682,-0.046152409166,0.061633806676,-0.044074177742,-0.000800247013,-0.199931278825,-0.032977074385,0.061201706529,0.013680197299,-0.077469296753,-0.002338633174,-0.019921975210,0.111541047692,-0.045289359987,0.451810598373,-0.026524458081,-0.000504439988,-1.892899155617,-0.065657906234,-1.280711174011,1.521393418312,0.024477897212,0.140454098582,-0.044028196484,0.081065557897,0.356667488813,0.115423522890,0.035301540047,-0.034059505910,-0.026772839949,-0.002859957516,-0.001249985304,0.043560057878,0.080959379673,0.110265195370,-0.027106165886,0.014498349279,0.121038347483,0.375753402710,-0.016627402976,0.072257779539,-0.007167709060,-0.054094918072,-0.118010066450,-0.276715636253,-0.023881651461,-0.049833621830,-0.013879995793,0.019056560472,0.231132626534,3.167245864868,0.016225328669,-0.151177242398,0.000996957999,0.489300996065,-0.378855824471,-1.529748439789,-0.184437334538,2.526998043060,0.051263604313,0.057468913496,-0.110737107694,0.015639126301,0.310009986162,0.249324977398,-0.006727492437,0.016598163173,-0.855441749096,0.294865161180,-0.011811107397,-0.060894291848,0.021492153406,-0.060488980263,0.021931586787,-0.033361911774,0.035125449300,0.104590006173,0.271043866873,-0.012933123857,-0.066683419049,0.046033266932,-0.025693900883,-0.001267306507,-0.119638532400,-0.848184883595,-0.033231824636,0.002569186268,-0.042772971094,0.139212563634,0.013467616402,2.065167188644,0.028806811199,0.123219601810,-0.085569284856,-0.346148461103,-0.019128346816,-0.003564039944,-0.130613505840,0.504324495792,-0.015345122665,0.261397689581,0.170650154352,-0.006046665832,-0.074163697660,-0.025865001604,-0.006685093511
0.180839613080,-0.236877724528,-0.350939571857,-0.067660734057,-0.019738011062,-0.238202646375,-0.097123779356,0.054673586041,0.004467648920,-0.037931587547,-0.086654245853,-0.003184352769,0.078100554645,0.016645612195,-0.172280609608,-0.051445767283,-0.177738904953,0.015878897160,-0.027757853270,-0.090924642980,-0.151555642486,1.042928457260,-0.331227719784,0.048611033708,-0.011627425440,0.126645162702,0.120906382799,-0.124507389963,0.004844769835,-0.066441684961,-0.050035834312,0.280412197113,0.011388257146,0.021102761850,-0.000194085907,-0.284672886133,-0.233843311667,0.141168177128,-0.102010063827,-0.053527627140,0.006249009632,-0.040317747742,0.200501292944,-0.027775166556,-0.014820197597,-0.046971015632,-0.238313496113,-0.010613807477,0.033726450056,-0.065203055739,-0.037201192230,0.018356068060,-0.078077808022,-0.191969603300,-0.029310239479,-0.179727450013,0.011475227773,0.245614051819,0.041962571442,0.097603619099,-0.102092981339,-0.070051297545,0.268729597330,-0.006639760919,0.085279591382,0.261822998524,0.077172346413,-0.041002113372,2.329576492310,-0.596188664436,-0.299537032843,0.120834976435,0.077162854373,0.150103643537,0.056038849056,0.064369603992,-0.073008328676,0.001323505538,-0.087207809091,-0.156309008598,0.338384628296,0.581122159958,-0.230453968048,0.040439080447,0.202714279294,-0.196537569165,0.063030928373,0.181602835655,-0.625957608223,-0.169673502445,0.439539402723,-0.308864265680,0.042253572494,0.728822112083,-0.133864134550,0.007519290783,-0.050043065101,0.138507962227,0.033182110637,0.194253608584,-0.399048537016,0.048928093165,-0.280132949352,0.086138010025,0.078605793417,-0.112128108740,0.069401510060,0.227278977633,-0.178162068129,0.056388143450,0.329612612724,-0.294368714094,0.019846450537,0.156415879726,-0.005632520653,0.175146520138,0.087492443621,-0.464296787977,-0.185301393270,0.069625899196,-0.094274863601,-0.010484190658,0.073369540274,-0.100885316730,-0.027852861211,0.170749351382,0.026147114113,0.088427074254
-0.184229239821,0.136900961399,0.030408792198,-0.071005031466,-0.049707099795,0.061925772578,0.002244277857,0.006218578201,0.067363664508,0.030261667445,-0.045800082386,-0.008700642735,0.132249861956,0.256610155106,0.077408388257,-0.088221766055,0.018208343536,0.179124191403,-0.043887749314,0.062150057405,0.024287004024,0.484055817127,0.290003478527,0.013627142645,0.251366972923,-0.056455478072,0.159383714199,0.029712846503,0.026757843792,-0.097566291690,0.322839796543,-0.138287276030,-0.015377659351,0.030633553863,-0.097441025078,-0.331014364958,0.013192857616,0.138032108545,-0.156592860818,0.020246813074,-0.140167757869,0.028828414157,0.000237300148,-0.004101112951,-0.005223708693,-0.189075380564,0.010001271963,0.017153190449,-0.530589342117,-0.073225297034,-0.037594534457,-0.037052970380,-0.202862381935,0.072856932878,0.113481566310,-0.079348839819,0.058620881289,-0.037876863033,0.186530068517,0.214973568916,-0.081106074154,-0.079422287643,0.260368168354,-0.200952842832,-0.028643574566,0.021725518629,0.220717743039,0.085793413222,1.093608856201,-0.224397540092,-0.731576800346,-0.021430000663,0.172997757792,-0.021580049768,0.002493069507,0.137908846140,-0.005287542939,0.141827896237,0.118217721581,0.084368579090,0.103306703269,-0.027219761163,-0.014036090113,-0.147606864572,0.227121204138,0.119413599372,0.146881327033,-0.057430822402,0.186828270555,-0.182204082608,-0.053094286472,-0.113696925342,-0.033853765577,-0.501603305340,-0.462406039238,0.180754765868,-0.153062328696,0.016092978418,0.158963888884,0.162425860763,0.811657607555,-0.045706070960,0.004942321219,0.054602213204,-0.160170018673,-0.055352646858,0.041024144739,-0.055943455547,0.063363820314,0.034467235208,-0.213143557310,-0.031000811607,0.021415226161,-0.061324674636,0.125774502754,-0.050323732197,0.100165709853,-0.148016482592,-0.077082112432,-0.365970313549,0.075918495655,0.029913989827,0.105284832418,-0.068749502301,0.218186303973,-0.109518192708,-0.022684192285,0.109782814980
